encog,BasicNetwork,java,3.3.0,1,1437697499925
[BASIC]
[BASIC:PARAMS]
[BASIC:NETWORK]
beginTraining=0
connectionLimit=0
contextTargetOffset=0,0,0,0
contextTargetSize=0,0,0,0
endTraining=3
hasContext=f
inputCount=972
layerCounts=1,51,101,973
layerFeedCounts=1,50,100,972
layerContextCount=0,0,0,0
layerIndex=0,1,52,153
output=0,0,0,0,0,0,0,0,0,0,0,0,0,0,0,0,0,0,0,0,0,0,0,0,0,0,0,0,0,0,0,0,0,0,0,0,0,0,0,0,0,0,0,0,0,0,0,0,0,0,0,1,0,0,0,0,0,0,0,0,0,0,0,0,0,0,0,0,0,0,0,0,0,0,0,0,0,0,0,0,0,0,0,0,0,0,0,0,0,0,0,0,0,0,0,0,0,0,0,0,0,0,0,0,0,0,0,0,0,0,0,0,0,0,0,0,0,0,0,0,0,0,0,0,0,0,0,0,0,0,0,0,0,0,0,0,0,0,0,0,0,0,0,0,0,0,0,0,0,0,0,0,1,0,0,0,0,0,0,0,0,0,0,0,0,0,0,0,0,0,0,0,0,0,0,0,0,0,0,0,0,0,0,0,0,0,0,0,0,0,0,0,0,0,0,0,0,0,0,0,0,0,0,0,0,0,0,0,0,0,0,0,0,0,0,0,0,0,0,0,0,0,0,0,0,0,0,0,0,0,0,0,0,0,0,0,0,0,0,0,0,0,0,0,0,0,0,0,0,0,0,0,0,0,0,0,0,0,0,0,0,0,0,0,0,0,0,0,0,0,0,0,0,0,0,0,0,0,0,0,0,0,0,0,0,0,0,0,0,0,0,0,0,0,0,0,0,0,0,0,0,0,0,0,0,0,0,0,0,0,0,0,0,0,0,0,0,0,0,0,0,0,0,0,0,0,0,0,0,0,0,0,0,0,0,0,0,0,0,0,0,0,0,0,0,0,0,0,0,0,0,0,0,0,0,0,0,0,0,0,0,0,0,0,0,0,0,0,0,0,0,0,0,0,0,0,0,0,0,0,0,0,0,0,0,0,0,0,0,0,0,0,0,0,0,0,0,0,0,0,0,0,0,0,0,0,0,0,0,0,0,0,0,0,0,0,0,0,0,0,0,0,0,0,0,0,0,0,0,0,0,0,0,0,0,0,0,0,0,0,0,0,0,0,0,0,0,0,0,0,0,0,0,0,0,0,0,0,0,0,0,0,0,0,0,0,0,0,0,0,0,0,0,0,0,0,0,0,0,0,0,0,0,0,0,0,0,0,0,0,0,0,0,0,0,0,0,0,0,0,0,0,0,0,0,0,0,0,0,0,0,0,0,0,0,0,0,0,0,0,0,0,0,0,0,0,0,0,0,0,0,0,0,0,0,0,0,0,0,0,0,0,0,0,0,0,0,0,0,0,0,0,0,0,0,0,0,0,0,0,0,0,0,0,0,0,0,0,0,0,0,0,0,0,0,0,0,0,0,0,0,0,0,0,0,0,0,0,0,0,0,0,0,0,0,0,0,0,0,0,0,0,0,0,0,0,0,0,0,0,0,0,0,0,0,0,0,0,0,0,0,0,0,0,0,0,0,0,0,0,0,0,0,0,0,0,0,0,0,0,0,0,0,0,0,0,0,0,0,0,0,0,0,0,0,0,0,0,0,0,0,0,0,0,0,0,0,0,0,0,0,0,0,0,0,0,0,0,0,0,0,0,0,0,0,0,0,0,0,0,0,0,0,0,0,0,0,0,0,0,0,0,0,0,0,0,0,0,0,0,0,0,0,0,0,0,0,0,0,0,0,0,0,0,0,0,0,0,0,0,0,0,0,0,0,0,0,0,0,0,0,0,0,0,0,0,0,0,0,0,0,0,0,0,0,0,0,0,0,0,0,0,0,0,0,0,0,0,0,0,0,0,0,0,0,0,0,0,0,0,0,0,0,0,0,0,0,0,0,0,0,0,0,0,0,0,0,0,0,0,0,0,0,0,0,0,0,0,0,0,0,0,0,0,0,0,0,0,0,0,0,0,0,0,0,0,0,0,0,0,0,0,0,0,0,0,0,0,0,0,0,0,0,0,0,0,0,0,0,0,0,0,0,0,0,0,0,0,0,0,0,0,0,0,0,0,0,0,0,0,0,0,0,0,0,0,0,0,0,0,0,0,0,0,0,0,0,0,0,0,0,0,0,0,0,0,0,0,0,0,0,0,0,0,0,0,0,0,0,0,0,0,0,0,0,0,0,0,0,0,0,0,0,0,0,0,0,0,0,0,0,0,0,0,0,0,0,0,0,0,0,0,0,0,0,0,0,0,0,0,0,0,0,0,0,0,0,0,0,0,0,0,0,0,0,0,0,0,0,0,0,0,0,0,0,0,0,0,0,0,0,0,0,0,0,0,0,0,0,0,0,0,0,0,0,0,0,0,0,0,0,0,0,0,0,0,0,0,0,0,0,0,0,0,0,0,0,0,0,0,0,0,0,0,0,0,0,0,0,0,0,0,0,0,0,0,0,0,0,0,0,0,0,0,0,0,0,0,0,0,0,0,0,0,0,0,0,0,0,0,0,0,0,0,0,0,0,0,0,0,0,0,0,0,0,0,0,0,0,0,0,0,0,0,0,0,0,0,0,0,0,0,0,0,0,0,0,0,0,0,0,0,0,0,0,0,0,0,0,0,0,0,0,0,0,0,0,0,0,0,0,0,0,0,0,1
outputCount=1
weightIndex=0,51,5101,102401
weights=##0
##double#102401
   0.5529592523,0.9773680233,-0.5872198336,0.7059876933,-0.8570235156,0.2133122684,0.6800866787,0.5241330625,-0.0037598589,-0.136178783,-0.1300378151,-0.2602500894,-0.2331462777,0.5024133284,0.3513709352,0.8018997597,0.9005262062,-0.0860916019,-0.8622229697,-0.0768893992,-0.8768445278,0.6361495534,0.2420127963,-0.7175622512,0.6830253898,0.0393365096,-0.2138363409,0.2834129598,-0.0655863724,-0.291825133,-0.8786934854,0.54927272,-0.4990855375,-0.5920522033,0.7233884483,-0.7482869529,0.561901534,0.0667913626,0.4954804281,0.8133854773,0.9099744794,-0.0178901411,0.9992666873,0.6538652244,-0.1630738401,0.4415519297,0.56372561,-0.4815818961,-0.928401018,-0.8148831341,-0.452569415,-0.7541084825,0.5210296529,-0.1798111303,0.0702607594,0.780836617,-0.5408590069,-0.0628413043,0.0769454124,-0.9941238901,0.2917163931,0.387905254,0.2837298281,0.0758249673,-0.4729211498,-0.9549995364,-0.0901143443,-0.2807352075,0.428398061,0.6619110452,0.0382234581,0.5462690555,0.4971214644,-0.9417109775,0.32910253,0.2059704531,-0.0117983266,-0.5488969778,-0.6880482291,0.1723552191,0.9546816808,0.0988090168,-0.3066464918,0.5251864066,-0.0636739244,-0.5845031937,-0.8562918561,-0.9596515671,0.1631603797,0.986185962,-0.6912658431,-0.6555277483,0.5041806301,-0.7718636734,0.979383091,0.0474391847,-0.9014430747,-0.553889089,-0.0020936875,-0.581061257,0.0004019457,-0.8170657701,-0.2041770159,-0.5901452548,-0.4734770946,0.6393905183,-0.311281919,-0.1610780804,0.4543992383,-0.5726739426,-0.0694001106,0.4386295706,-0.3619670424,-0.451930606,-0.5333588966,-0.7822020949,-0.4978121101,-0.5313950055,-0.1181276038,0.2796208373,0.9868887679,0.1814293191,-0.4922315997,0.1044527285,-0.6680408985,-0.8124135708,0.9361297538,0.8301436531,-0.201560411,0.1626286729,0.0151506267,0.8415424161,0.5222409518,0.624745815,-0.8999288256,0.939489415,0.487901056,0.9549931034,-0.1600993351,-0.0930118108,0.4354349933,0.292394791,0.4844791069,0.3597023361,0.3430061582,-0.6583823998,0.5318846419,-0.0990458621,0.2335508838,-0.0342318025,0.8821990189,-0.5037283002,-0.7655174583,-0.6949242626,-0.9813444398,0.1682864283,-0.7100952275,0.358581808,0.6056180138,-0.7756740276,0.5748936571,-0.1988836568,-0.9147879218,0.9094367139,0.7883276191,0.4652365309,-0.5834836674,0.0150504569,0.0932055642,-0.0663335978,0.1551745589,-0.0467157059,0.6705037639,-0.5816959551,-0.2808556378,-0.8597048053,0.5693039068,0.5821888073,0.8993440087,0.3287565679,0.0764618257,-0.9476489011,0.2653345652,-0.6804433735,0.1050308998,-0.0466651986,-0.0302371925,-0.5361039934,-0.4325456332,0.3028639859,-0.3702438618,0.3852937464,0.4555915317,0.9639134385,-0.8517432759,-0.9680166668,0.6621833491,0.7553325206,-0.4408617343,-0.0429176765,-0.3028751636,-0.8577596074,-0.5360911925,-0.2346773196,-0.3637087053,0.4590912266,0.4146137499,0.7334530462,0.0215376854,0.683209634,-0.9230291544,0.312911334,-0.3286759847,-0.6460128758,-0.650363841,0.8882265746,0.6122369264,-0.6451805284,0.4191554259,-0.0861259683,0.4656593374,-0.5388509392,0.7906956822,0.4954585958,0.2501074733,-0.3168982162,0.6983610594,0.5996511078,0.4091632108,0.2112742589,0.5889375049,0.2733906475,0.3059268516,-0.0802733462,0.6945768951,-0.2873648757,0.9140304725,-0.3384108019,-0.4701863647,0.1747752822,-0.9814367359,-0.3502229601,0.048595008,-0.921329014,-0.1991682218,0.3834388099,-0.0239528882,0.7072374846,0.5200498165,0.9301274421,-0.4341630341,-0.1499976783,-0.3887577443,-0.9332404775,-0.9953775931,1.3605702794,0.0672391431,-0.4246471038,-0.337896411,-0.9344862684,0.9754103193,0.7364584365,-0.3637297208,0.8894738748,0.9329087075,0.1949436492,-0.2847808809,-0.4962349202,0.0717488792,-0.6725269771,-0.9114043898,0.0772924714,-0.7606700401,-0.1211854845,-0.1586187934,-0.0550337095,-0.0702615839,0.7551387694,-0.7943693175,-0.7036758354,-0.5943727957,0.0032697329,-0.0791985767,0.6860450464,0.0517320809,0.6065981437,-0.6093010036,-0.4442571186,0.205189874,0.2492764889,-0.5735659598,0.6983860876,-0.5689704481,-0.9332370892,-0.2986201309,-0.096838435,0.590830579,-0.3107065494,0.9126372627,-0.4324974326,0.8845960913,0.1213134788,-0.6635186598,0.6482804944,-0.8202102817,-0.3075038443,-0.2755903314,0.4052113517,0.5020598251,0.3803314236,-0.0962698361,-0.3238229434,-0.3996514734,-0.620900793,0.7275712448,0.4484135843,-0.8127079221,-0.8078544339,0.5482218022,-0.2712864195,-0.5866656468,-0.7706399603,0.6350441909,0.0603972961,0.1254431755,-0.3194145051,-0.8269501324,-0.0242868346,-0.4202752041,0.4536840491,0.7110794633,0.8848684473,0.5467949576,0.4973386997,0.9610620598,0.016273233,-0.6516496662,0.4845546052,-0.944365151,-0.3583353349,-0.1031531747,-0.5602081967,-0.4620648472,0.9061712601,0.2583984639,-0.3043904943,-0.4791845949,0.6267018589,-0.9494916846,-0.8160290267,-0.1728716357,-0.4132582802,-0.292465165,0.2237546121,-0.9220351991,-1.0955527674,-0.6427347677,-0.4916122407,0.7638412434,0.167680114,-1.5676051694,0.690108426,0.1780875895,0.5157292647,-0.7891062213,0.7665658502,0.3392769921,0.8179631339,0.8184756362,0.888129007,-0.7416445806,0.6056318402,-0.146202401,0.7167398534,0.9546610149,0.9390854422,-0.2246339147,-0.2929291103,0.2811819484,-0.4311056378,-0.8342128434,-0.9389930936,0.099956859,-0.977944909,-0.5682544872,0.4126137061,-0.1582424529,-0.5569412514,-0.3594034888,0.4003974396,-0.0573610333,-0.5365175562,-0.7483928272,-0.8974750712,-0.4937143364,0.8697484103,0.0856493125,-0.783074779,0.4405687162,-0.4893670449,-0.9010782482,0.8918824505,0.1580590459,0.0782868444,1.1833906322,0.0252022999,0.4861223545,0.4652501165,-0.7352375261,0.2890259789,0.9321757629,-0.2551893355,0.7383778718,-0.5589129764,-0.7268258887,0.9245834123,-0.9754623584,0.402940295,0.3463077322,-0.0096803917,-0.3239361663,0.144987845,-0.4435834107,0.4741085386,0.6617724141,-0.2973634882,-0.3129691042,0.63159776,-0.8633981847,-0.9163730829,-0.2158222762,-0.1313796299,0.5162533204,-0.5782941501,-0.0461865506,0.3899411194,-0.6235985379,0.5345017121,0.4829352722,0.3356498773,0.3860262921,0.7573859957,0.3033788002,-0.5587243173,-0.2931887313,-0.8783557204,-0.6047609683,-0.1752696161,0.008005156,-0.0081200454,0.835609254,-0.2069842014,0.7240260842,0.2054916855,-0.2704235763,-0.4108891241,-0.1017950757,-0.5477693379,0.5633110384,0.9802664677,-0.828323046,-0.556076034,0.6624446683,-0.1957452118,-0.1819539845,-0.6637345154,-0.3838435181,-0.9715294496,0.2970623185,-0.5178711467,-0.0492914078,0.1299932126,-0.1433763976,0.6515498785,0.7885606166,-0.0228506966,0.1899380696,-0.6106515962,-0.8519077803,0.1153630996,0.8807963786,-0.3913207019,-0.8689183212,0.417775948,2.215607639,0.2567902908,0.4355534423,-0.0493423974,0.0565687224,0.553401538,0.0501532326,-0.2051447593,0.0780656733,0.7120881573,-0.8244906713,-0.8117613834,0.9169294965,0.3008066125,-0.4457414574,0.5853277197,-0.9681168178,-0.5233102195,-0.6289519026,0.6929633201,-0.1590537125,0.4713291805,-0.0456700875,-0.8074830596,-0.321155694,-0.8916522113,0.9944809633,0.9308177869,0.8139827404,-0.2406610744,0.1512365784,0.8593086463,-0.384156863,0.8636825092,0.153041344,0.9491098371,0.3184861079,-0.6892656603,0.4158392836,-0.4769003587,0.8897061322,0.3174036469,0.0552711145,0.5216577956,0.8900364749,-0.5000369216,0.9350324348,0.9006277758,1.7180374576,0.7871948877,0.4279560324,-0.7980664444,0.896496966,0.7263554714,-0.5895690949,0.1555413937,0.4813412395,-0.3107571784,0.6513336601,0.8925258971,-0.2410502217,-0.7803153982,-0.0234436823,-0.2822843514,-0.184210937,0.2692003105,-0.6877924212,-0.2569795232,0.7850461775,0.4605251865,-0.8681570837,0.3356911758,-0.0325721107,0.0576392702,-0.3346157676,0.7974953542,0.5969386113,-0.3704976715,-0.5605936935,-0.4530739934,-0.2291768312,0.4859422492,-0.0652708749,0.3581581204,0.4152575227,0.8534496808,-0.1215261286,-0.0880521464,0.1332318021,-0.9226040644,0.9861661026,0.6440195861,-0.3435790789,0.4000374815,-0.8694281452,-0.920387264,-0.1590093058,0.0268732542,0.8104619483,1.1582624689,-0.1555510415,-0.9974232148,0.5163742092,0.1752620398,0.5682061928,-0.7660302849,0.1659824991,0.5207515473,-0.1705032432,0.6875981884,0.3927843425,0.9446450269,-0.144919607,-0.1903659819,0.2282553288,-0.2487053585,-0.3358176239,0.1175028532,-0.8498950368,-0.5625899303,-0.4923034041,0.3507103817,0.3946138152,0.7233232369,-0.9316996961,0.1928514177,-0.5363023349,0.4493921511,0.1940648683,0.6401248263,-0.0796135814,-0.3818608345,-0.9877649329,-0.7379122829,0.6538098487,0.6420259274,-0.9284856372,-0.362085484,0.0210873627,-0.3735364862,-0.1769000703,-0.610021441,0.8930084537,-0.7518412384,0.4491403056,0.8579815133,-0.3930364669,0.3018223588,-0.3022043987,0.0088806748,-0.8766341629,0.8946261844,0.022970053,0.213657234,0.4060801037,-0.0032537689,-0.5964602059,0.6765373439,0.6374514342,-0.2332491814,0.2935495623,0.3190214506,0.3422190834,-0.074996101,0.8404497783,0.1933322575,0.1296292488,0.7067656237,-0.4442960413,-0.0616069131,0.4119162441,0.2486818426,-0.6908460076,-0.5781817828,-0.8911218076,-0.093158035,0.8972597679,0.246330752,0.9033750119,0.9504389553,-0.8549759095,-0.6496306851,-0.9842432989,-0.4747842181,0.5944552901,-0.9766034559,0.7218069403,0.5011182406,-0.396345233,-0.8160225047,0.0052873991,-0.0320185724,0.651350031,-0.1814621356,-0.8565862189,0.4816121927,0.6030497382,0.9053406921,0.6121957936,0.9867702004,-0.4999131237,0.9212353339,0.9050385186,0.6187823082,-0.7423436871,-0.804015212,-0.8205796825,-0.3072004908,0.9756829612,-0.8742686134,0.4017375503,0.5462622392,-0.4588635829,-0.3762971446,-0.2642170311,0.3523708801,0.9260319114,-0.4525704546,0.1935159124,0.6630303368,0.9518633649,0.4159868999,0.2575512648,0.3542120935,-0.0757455917,-0.3943700898,0.0222841918,0.1968216801,0.0834533601,0.7382634485,-0.6638948566,0.7210030272,0.1348395262,-0.2430838603,0.2066320705,0.9865156091,-0.2225627493,-0.9802878108,-0.0051738173,-0.9143317511,-0.780526471,-0.0701342763,-0.5777516811,-0.2061151514,0.4437579954,0.4107208648,0.74113349,0.2329704918,-0.8006185278,-0.0708076695,-0.4489124071,-0.2755725144,0.0584290715,-0.2924402762,0.7114468484,-0.5424725125,0.2449285258,0.4668799684,-0.3216496033,-0.3545657768,-0.2190902848,-0.4715162221,0.4319847631,-0.0909875533,0.4634953006,0.9436670305,-0.0887428676,-0.5736999832,0.8018856358,0.1189409456,0.8828517733,-0.9122182204,0.7402360284,0.9933566087,0.5129234172,-0.6845435683,-0.3563824256,-0.2575644736,-0.4700264532,0.3286201069,-0.4031122911,0.4249240405,-0.1671862954,0.9147688787,0.0090241515,-0.7915499358,-0.5049596476,0.3242190759,-0.6085825317,0.9733402333,0.4248458942,-0.4075482191,-0.2058318826,-0.915234737,0.4710037858,-0.7094167667,0.0224805947,-0.1474339092,0.6591602707,0.4504485431,0.5439051414,0.3506374981,0.8344881602,-0.8510349158,-0.8428020354,0.0011784771,0.4477937695,-0.6963026884,0.6835343979,0.2189645669,0.9285326881,0.0370241766,-0.9580340005,-1.3494788292,-0.3684943934,-0.8593010565,0.5770182083,-0.0551605066,0.5186818857,-0.0619013895,-0.7980585033,-0.1490242752,0.0091196467,-0.1048971044,0.0500326595,0.8587924625,-0.4901181777,-0.5123475974,0.1851817629,-0.1244495032,0.2645881437,0.6012822702,0.9870688989,0.5308310335,-0.8932785338,-0.2801860062,-0.1913036234,2.0462497752,-0.4013177138,-0.982271913,-0.6910167795,-0.5255984391,-0.1051590795,0.2531350699,0.8487696787,-0.8755196295,0.1974465119,-0.8803373614,-0.6423132081,-0.9650815989,1.0327010949,-0.0367726564,0.8877553415,0.2490663616,0.6015743084,0.2970653264,-0.9516780086,0.537774728,-0.9708300673,-0.6804061115,0.621884455,0.719331924,-0.8612734313,0.5303067889,-0.8292849195,0.7879349653,0.2620078648,0.1629939397,-0.6465062636,-0.0843824919,0.5879571504,0.101813504,0.9023478759,-0.9672187727,-0.9980735044,-0.8974997556,0.518728958,-0.7828921575,0.8804925298,-0.2804232551,0.1495228086,-0.0951297007,-0.8935215695,0.2448557378,0.0465733318,0.9080478298,0.9927230123,0.9014930897,0.7122429581,0.0141940001,-0.9147863659,-2.8573999179,-0.2877222177,-0.0328432332,0.9682267506,-0.9226633852,-0.2713918918,-0.7676979639,0.75659939,0.97356685,-0.8567726148,-0.0452444906,-0.0632651596,-0.5557953392,-0.0891166402,0.3761949653,-0.472514271,0.7695881627,-0.554003095,0.2790210362,-0.7510165998,-0.0486325788,-0.3358797169,0.1934903559,-0.2008707637,-0.2387758943,-0.8161818509,0.8957397562,-0.4684040985,-0.5777880125,-0.6278979578,-0.9987553952,0.5132470084,0.523975447,0.8258831055,-0.8543842995,-0.1046895483,-0.7072347421,-0.7363924607,-0.1958123867,-0.2451888116,0.9041479632,-0.9312344184,0.2239413757,0.2043185153,-0.4225844581,-0.1239676292,0.519764861,0.7354233689,-0.022681418,-0.0020433327,-0.2559312452,0.8719392931,0.7585041913,0.0940939738,-0.5304706387,-0.2945769911,-0.9928244713,0.6668932424,-0.1882124839,0.8240332002,0.3745232313,0.8062377042,0.8207035503,0.4006733702,-0.2344906823,0.3335044144,0.3043398515,-0.4753532506,-0.179122141,0.792016278,0.0908950929,-0.8484727942,0.5759156721,-0.476355587,0.6895196832,-0.4138666778,0.3748432583,0.9779619991,0.2450519597,0.1976481275,-0.288933903,0.5887861928,-0.459695038,-0.7104642492,0.6683506818,-0.3979375146,-0.9826410721,0.7486334781,0.9163143698,0.8633434875,0.6723994999,-0.5002703043,-0.577739139,-0.6766479997,-0.9136519043,0.8978044071,0.0333706399,-0.814712726,-0.8300014312,-0.4529772086,0.9618694565,0.22741209,0.2355311826,-0.438043399,0.2716199096,-0.5074936886,-0.7060354946,0.3094883836,0.6270279947,-0.6481553314,0.362850583,-0.3541149603,0.4525692515,0.1944197259,-0.3766565071,0.2745347178,-0.2698672767,-0.9347061891,-0.1068141075,0.4398438131,0.6907795236,0.2837808857,-0.0032423461,-0.8334542334,-0.9473523864,-0.7089001332,-0.2884965101,-0.5762224179,0.8068505874,0.7971524621,0.1901895529,-0.3100354979,0.3963517566,-0.9301854833,-0.9707581544,-0.4155106605,-0.6726098024,-0.9974083165,-0.694915472,-0.2076877406,-0.1469167577,0.9932403632,0.2970068715,0.8431733834,-0.1434572372,-0.2637017214,-0.2668150272,-0.8142327668,-0.1669429127,0.4627170284,-0.968095437,0.8673530709,0.1447499925,-0.1854175986,0.5820367933,0.7474058843,-0.7985843266,-0.265833978,0.6120404642,-1.5781929591,-0.671733318,-0.4875453061,-0.3067241383,0.8277370482,0.4981318429,0.1701441685,-0.9246537575,0.4045760952,0.919695391,0.9901876742,-0.5455002571,0.122419549,-0.1395199961,-0.7403379601,0.9327064187,0.5482177285,-0.3105122574,0.5298476818,0.8528569103,-0.9783416238,-0.4894203075,-0.464795138,0.4025887608,0.3391764184,-0.836790701,0.7970122199,0.8809653176,0.5328061352,-0.8754415426,0.29646514,0.1422629892,-0.6975764936,-0.3655886375,-0.4238373525,0.237296714,0.3719477304,0.4566167343,-0.5326300909,-0.4184756072,0.5327544162,-0.9067911326,-0.731424679,-0.3954651815,-0.4487080184,0.3987614243,0.6632138,-0.9474968462,-0.0075594335,0.7766619066,-0.385367812,0.4367208988,0.7254806718,-0.8553503779,-0.1822600204,-0.0915229825,0.6619432166,0.9508375731,-0.0043125998,-0.6761202998,0.9861015563,0.5155524946,0.6876805825,0.3427261832,-0.3484913356,0.7937268568,0.3090125957,0.2094150651,0.1456164657,-0.7671324132,-0.5210503365,-0.9270353956,-0.292208819,0.3006808144,-0.348529338,0.9580598892,-0.6894723033,0.7912679343,-0.7299136738,-0.2770184557,0.3200739953,-0.8124262953,0.9887607828,0.0125051997,0.5314346321,-0.3558314453,-0.3721586603,-0.3816149568,-0.8357229551,0.7804000526,0.2500858902,-0.0460483858,0.3613874765,-0.4396766508,-0.8488412225,-0.2479100991,0.3568723437,-0.4803007838,0.5665971205,-0.4570058702,-0.1766362803,0.1635550273,0.2355040205,-0.5885189867,-0.358796085,-0.8663490933,-0.2809439207,-0.90163719,-0.4619221614,0.3916253329,0.4918828056,-0.0257823897,0.6925705709,-0.2087746131,0.1314036665,0.7418593006,-0.0941359106,-0.2887857208,-0.9998778668,0.3164674877,0.5522262392,-0.4218989501,-0.0059124503,-0.6060057486,0.4764632642,-0.3460896992,0.0454788528,-0.1867398758,-0.2632869049,-0.082855206,0.8817054901,-0.1051976402,0.4336997842,0.0661502692,-0.9585968675,-0.7570025174,0.2472446832,0.5466126924,0.671310739,0.7704399352,0.348293376,0.5537497045,-0.8124510958,-0.3866474622,-0.6673937983,0.4390692207,0.1869145409,0.320085304,-0.6825284345,0.8190406361,0.9684917916,-0.2969072811,-0.3639473728,-0.9220997949,0.2781946826,0.0301564378,-0.5323965677,-0.8057177847,-0.5965298776,-0.7407447061,-0.145052942,-0.4942791806,-0.7705249022,-0.6596414168,-0.859519233,-0.5286763457,-0.4854330805,-0.703374298,0.6957648136,-0.6849180338,-0.5868594708,0.52851944,-0.8525485629,0.544701438,0.113731696,0.1575671321,0.0581167884,0.5154104212,-0.2344698075,0.2895810402,0.5323150248,-0.8365411707,-0.5750606089,0.1132086786,0.7740653614,-0.6788149637,0.920417735,0.8356665185,-0.6620470718,-0.9810336587,-0.1919970026,0.2000162152,0.2370621963,0.3408322026,0.1124790317,0.8483348536,-0.1493443416,0.0526840699,0.8878997751,-0.6391483378,0.1759689706,-0.5854946133,0.162852982,-0.4578170023,0.9037785478,-0.5141081864,0.0614311357,-0.7183446359,-0.8973639526,-0.2469423517,-0.934803885,-0.1402790818,-0.8080922827,0.4495051669,-0.954845257,-0.1808446731,0.561172192,-0.4869962578,0.7664547798,0.922616353,0.2100520105,-0.434601831,0.1473496721,-0.7224443664,0.0231175101,-0.260329386,0.972108032,0.5520350002,-0.153577542,0.5687843521,-0.9514352166,-0.9651249903,-0.9194404251,-0.4016113189,-0.1378598049,-0.3058222799,0.9189774682,-0.1680921708,0.5427185931,0.3709896076,0.927907749,-0.1298679094,-0.8885215037,0.9941855817,-0.525929756,0.9520175464,0.5138375131,0.0742246188,-0.9104675252,-0.2089805706,0.161063889,-0.1268238784,0.4424230615,-0.8840901459,0.9495278101,0.4254365259,-0.1786603082,-0.9584964887,-0.5512762288,-0.3040777652,-0.9876197478,-0.1022281987,-0.903668101,0.4592936429,0.9096853614,0.3429163768,-0.1331049385,-0.8786710293,0.5193525565,0.5585092791,-0.2313756094,-0.7532034988,0.2064131921,-0.2698835257,0.3556397608,0.9820888527,-0.8142542065,0.0000325446,-0.8983492987,-0.8735157257,0.749876769,0.145452946,0.5990016917,-0.018048633,0.0907474605,-0.0484791532,0.1467505523,-0.255113406,-0.193304814,-0.9700287292,0.301479904,-0.1881124841,0.0439582929,-0.6421486201,0.9064572739,-0.7953307586,0.3481947247,0.9727754047,-0.9307779275,-0.4340572266,0.0451489422,-0.4998476746,0.7694938648,-0.14552481,0.8110591649,0.3015476333,0.305811963,0.5853591005,-0.7773416403,-0.4619062593,0.2030476514,-0.7281573089,-0.5027889015,-0.3896282465,0.0949049339,0.5887502117,-0.4945430786,0.8242188561,-0.6400557112,0.8729266416,0.8386625642,0.7451349066,-0.6017952559,0.8071804584,0.6542408853,-0.7108145089,0.0349066164,-0.8255977115,-0.5194064191,0.5917006776,0.2445734512,0.9584780859,0.5521744297,0.3094210644,-0.6794081087,-0.7177703955,-0.5377168666,0.5298740151,0.6779972845,-0.1196452413,-0.2304442342,-0.7222831979,-0.8646036309,-1.2518013501,0.1958237893,0.2046415238,-0.3355651389,0.3339912761,-0.1251671182,-0.9662089622,-0.0216823969,0.950094245,-0.7450123228,0.2675607118,-0.2047518544,0.3335332046,-0.5320861761,-0.4548107069,0.6041879189,0.165999503,-0.6799131045,-0.0171846528,0.5358220732,-0.5925996378,-0.9240076273,0.9800535453,-0.914450555,0.9218459938,0.5726210206,-0.4079489395,0.8206256469,0.9180959203,-0.3169652067,0.153825875,0.2559329761,0.5092862687,-0.8464073211,-0.7082256955,-0.1485262881,0.3171576506,-0.2462260366,-0.6905843028,-0.1378368943,0.617546075,0.470415954,0.1753355415,-0.0681137365,0.2411348788,0.6472768872,-0.3059939423,0.383498212,-0.4601663898,0.2354325852,0.0839952247,0.0351038783,0.1359492159,0.1396941817,-0.5124207085,0.3438685569,-0.6676674239,-0.5437652494,0.8432481562,-0.6223975067,-0.3610492375,-0.0887725263,0.1825906816,0.4240835117,-0.0620107381,-0.6481333243,0.6184319875,0.7224859712,0.8753142349,0.9697217221,-0.3289510719,-0.4539045121,0.4716791991,0.0440456269,-0.3297671349,0.3425277367,0.1163167193,-0.8067794443,-0.692167383,0.9605590367,0.7526978568,-0.4282435433,-0.0830495176,-0.4940437862,-0.3286509185,-0.3209238611,-0.8135692428,0.5747226274,-0.038240355,0.8838019233,0.0848724655,-0.1576030543,-0.5757538688,-0.0133775973,0.7886543612,-0.462016765,-0.2194191784,-0.9177662822,0.9164997221,-0.4341680517,-0.3665890553,0.5617706996,0.300176659,0.5287476002,0.740418603,0.4025102703,-0.3535054967,-0.1063069623,-0.9807699416,0.5251484189,-0.8444721296,-0.1403469004,0.2278801184,-0.652232165,-0.6293180166,0.0807978167,-0.2207177013,-0.7881871888,0.6618822275,-0.5661267551,0.4543809196,0.039351932,-0.8385181387,0.1386194591,-0.8937417359,-0.9611961421,-0.8753482836,0.1095713504,0.8423987035,0.1840375683,-0.78839395,-0.1718397592,-0.3148811248,0.454915019,-0.0913633736,0.2308151306,-0.1525567738,-0.8941438208,-0.7436923358,0.5586995669,0.9865096192,0.3462131652,0.8527320915,-0.6217167444,-0.2644438123,-0.5080382147,-0.5505654435,0.0759397119,-0.1179116136,-0.0895327197,-0.0121772197,0.8630967201,0.3843034328,0.9656799746,0.3073173309,0.4558928905,-0.0233354549,-0.9343893415,-0.3820216611,-0.7736392041,0.8966233397,0.6528291825,-0.4171043745,-0.0206011705,-0.9250283962,-0.2725490403,-0.1907425909,-0.5549842144,-0.6510811232,-0.5999001322,0.326663209,0.8401066133,-0.837940851,-0.8238467322,-0.6821157931,0.9063982933,-0.2458567226,0.4494850623,-0.7074021791,-0.1018409236,0.151996602,0.7118148605,0.3071577262,0.7041578404,-0.3774334825,-0.8671728409,-0.7598938973,-0.7069049134,0.2702880245,0.4855560564,0.730942687,-0.5914578705,-0.8487551411,0.2368457053,0.9858047845,0.2381477855,0.014678933,0.9071255262,-0.1856171323,0.1150784188,-0.5021811651,0.0444725939,0.4506926207,0.2121300574,0.3746912586,0.8369844996,-0.8353132832,-0.191565455,0.9643516177,-0.891738298,0.3095978457,-0.0243453416,-0.0369705674,-0.6217748889,0.0552081524,-0.8862400738,-0.305544024,-0.1547221465,-0.7986206826,0.1207611457,-0.397421286,-0.0104115684,0.6290186958,0.0756202769,0.2655553968,0.3575770866,0.2824798489,0.3177529922,1.0165624132,-0.6607341757,-0.6403672094,-0.7892735997,0.0763031987,0.2062333852,-0.4868407674,0.7647171856,-0.6929333333,-0.2191511699,-0.3632121754,-0.4271230442,-0.1509697023,-0.1568199184,-0.2589072949,-0.2436736763,-0.1651212414,0.3752507053,0.9129247729,-0.679909483,0.9008087984,-0.0434041734,-0.7435763105,0.3860034426,0.9878522892,0.6781923737,-0.2463343388,0.3483880423,0.8874565672,0.3762001921,0.1905073588,-0.467436736,-0.3247475822,-0.9966668743,0.5448692291,0.4566381993,0.7722997185,0.6199330669,-0.5547259882,0.9156796776,-0.7042244472,0.8234259573,0.7226081069,0.2353076754,0.7496686468,-0.0714481998,0.2106765461,0.2729080116,0.7690961042,0.9118436969,0.610810793,-0.2379807995,-0.8988765868,-0.0047089079,0.6847230906,-0.4545349352,-0.3903037442,-0.203443664,-0.7014475343,-0.4244925304,-0.9410817624,-0.158319537,0.7870114419,-0.926348508,0.3282170804,-0.0682804063,-0.4945246028,-0.5769696883,-0.2207249922,-0.6555155905,-0.6205691235,-0.8779182781,0.2335201531,-0.5148177004,0.5230778276,0.3698746738,-0.1337631338,-0.138751734,-0.6896293184,0.909086202,-0.4515965396,-0.4436471173,0.7596820729,-0.977987209,0.3605939972,0.1954630929,0.0459112531,0.2101125788,0.7602018215,0.7614264731,0.0760900871,0.063883384,0.7576462886,-0.6112213296,-0.5234899733,-0.6540745114,0.994017839,-0.2498425495,-0.7980995649,-0.6448090048,0.9371434844,0.7938422787,0.6064149208,0.9241651615,0.3300284453,-0.3808753129,-0.9105284509,-0.8778008315,-0.0954283659,-0.3737137574,0.0223285164,-0.012583665,-0.7482387218,-0.550941028,0.6737598949,0.5514508864,-0.7941506525,-0.6478236609,0.8245978151,-0.5235416741,-0.8995325333,0.4847288567,0.3218574021,-0.0149091476,-0.9186899276,0.7910386227,-0.8995608284,-0.996298915,-0.193572162,0.0436721324,0.7350212895,0.9210676888,0.6930522112,0.1909783003,0.7134102608,-0.1595645835,0.3617391511,0.2376792307,0.7825686474,-1.0802293977,-0.9441431771,-0.6737670445,0.4773799376,0.8342514615,-0.2959989385,-0.9533325869,-0.1060899204,0.1313587718,-0.4900259597,0.6272230392,0.8084711383,0.3729432661,-0.4779510127,-0.6048703754,0.2841875861,-0.6306506444,0.2070275521,-0.3588607642,0.4405187657,0.8591741495,-0.090795885,-0.763783155,0.6107673633,-0.4427968631,0.4961479483,-0.3918362654,0.1380520173,-0.5533726232,0.422786001,0.693189803,-0.455469319,0.1086890357,0.7787245712,-0.0077258061,-0.9070355961,0.1692848367,-0.3547495462,-0.3053147816,0.9877989433,0.9482027327,-0.9645223703,0.5036831148,-0.2906854015,-0.7096879706,0.1022145024,0.5348874015,0.2858158139,-0.7526992762,-0.7576918823,-0.5882689825,-0.3963285454,-0.4077121173,-0.4425120231,1.0430874433,0.3570210708,-0.970545748,-0.0329838969,-0.6612922265,-0.7414359961,0.8001234345,-0.012156487,0.1223475611,-0.1943232719,0.9327734648,0.0965334394,-0.5156141049,-0.0324155557,0.9490607137,-0.789443201,-0.9033081532,-0.7991982944,-0.1750015425,-0.3543212947,-0.6330388241,-0.9542530088,-0.6202911498,0.9085666442,-0.8533171982,-0.6801297936,-0.2656640389,-0.0460004895,-0.2812564928,0.0919459014,-0.5300582384,-0.0070828552,-0.1658237416,-0.7887178301,-0.0697301265,0.3400144812,-0.3060344463,0.1784648807,0.2757409194,0.1310975002,-0.756438713,-0.7799852298,0.1481958575,0.111869342,-0.862734982,0.2091442303,0.6846270545,-0.2403135836,-0.8606128722,0.3394531224,-0.3662966645,-0.570391192,-0.6358123353,0.5745390121,-0.4272421339,0.9088236598,-0.7551114067,0.1156729832,0.7825745293,0.4611136848,-1.0153632162,0.4798735029,0.923135897,-0.7285862252,-0.0224740205,-0.0997943067,-0.2823567576,0.5604688012,0.1122575663,-0.968455877,-0.990526765,0.9839580338,0.3553204137,-0.1922469188,0.0802757545,0.3431093193,0.9302449425,-0.4357872444,-0.9679591971,-0.7153391465,0.7624956223,-0.4903728924,-0.8178348234,-0.6091802248,-0.2148950128,0.8936098111,0.7156943917,-0.9208754097,-0.2435569141,0.2838682351,0.4941328356,0.5889327478,-0.6966113309,0.5809198028,-0.1883995185,0.320307719,0.3361647044,0.2059488337,-0.1213429009,-0.6907745995,0.2887315298,-0.03348875,0.1160060016,0.1851530873,0.1912707371,-0.0497058764,0.9006918619,-0.2678575431,-0.2122353737,-0.1956693718,0.9113329907,0.4170407105,-0.1872744515,-0.8945907931,0.6380603242,-0.8042461036,-0.5935047495,0.3588859084,-0.0748144818,0.3737843619,0.9830964987,-0.3578915114,0.5090409518,-0.952335709,0.2334125899,0.0321473922,0.3189076741,-0.5719077528,-0.9425217749,0.189992455,0.5315255966,0.3379948617,-0.0003472667,-0.4954433171,-0.8235434803,0.469785121,-0.9135046402,-0.9754326313,0.7474464032,-0.2773634698,-0.3732846444,0.050116688,0.3615295039,-0.6515089539,0.7397788258,0.1492053039,-0.8149450811,-0.8440137199,0.3197059594,-0.5148292083,0.5001253443,-0.6610272561,-0.8327506398,-0.7453517009,0.0473138279,0.5856977423,-0.973222239,-0.7843734411,0.2007334979,-0.8397104521,0.5660091133,0.5327912922,-0.694714556,0.3226657028,-0.7176957352,0.9299673189,-0.5229278206,0.225966154,-0.4040008686,-0.1385353531,-0.8925215398,-0.4300822396,-0.1795937052,-0.3036750857,-0.1266516195,-0.1496059185,-0.8007206312,-0.9011567689,-0.0302634396,0.8760656038,0.0582610262,0.2443606066,-0.5379651928,-0.1991455602,-0.7588774116,-0.8983625829,-0.5299395762,0.1314515182,0.9602082913,-0.938622056,-0.9047833731,0.889088243,0.0809764557,-0.9632671175,-0.66847357,0.1062833787,-0.8664964491,0.6655432421,-0.1900935217,0.8240316427,0.0841257958,-0.6508544304,-0.5863166053,-0.6542287377,-0.3814882377,0.5685890343,-0.5341997876,0.7781661905,-0.4454554833,0.2009896784,-0.8509476145,-0.9485206646,0.0917963145,-0.8654036085,-0.2495776932,-0.5166890606,-0.400672789,-0.1737668814,0.7293455909,-0.4155012337,0.792769912,-0.2700420549,0.2620426113,-0.4895854676,-0.2726538824,-0.3602871337,0.7806709294,-0.8302219627,0.9326926814,-0.3037235011,-0.0211266929,0.8140228765,-0.5625770801,0.0764375123,-0.5726547174,-0.9129992871,0.3001883361,-0.5566047337,0.7653411037,-0.9224176297,-0.989676924,-0.2807101536,-0.298609314,0.8920207792,-0.5581145177,0.8312616327,0.7920711638,0.9182795309,0.827496202,0.0885534438
   -0.0795022193,0.4412386574,-0.2699424916,-0.8100101265,-0.9400832473,0.8394607637,-0.9343429914,-0.6478230679,-0.7665544134,0.9674124301,-0.9431335119,0.012636549,0.5116212148,0.0726308935,-0.3408604991,0.7997173567,-0.0148994711,-0.7458960545,0.0896218014,0.6046374599,-0.0261067788,0.1826440529,0.8694181833,0.1376431554,-0.550034372,0.5179230103,-0.3297565438,-0.7112044401,0.5646244132,-0.1673899349,-0.0578922148,-0.4693842296,-0.9630902552,0.7425967076,0.278886685,-0.6374038678,0.8792286916,-0.1612514902,0.2916071438,0.0927930238,-0.6127754323,0.4156617407,-0.0140474708,-0.9488258734,-0.4690669422,-0.1487422716,-0.8707478047,0.9876528895,0.6845838587,-0.5091895428,-0.7771139955,0.5195407099,-0.976495762,-0.0477417266,0.7187582531,-0.9376066116,-0.2405071046,0.2332267682,0.6750681829,-0.1009348795,0.5685531078,-0.8479594729,0.830030666,0.4760650883,0.0908031025,0.4256735933,0.2081743652,-0.0281204394,0.4240842249,-0.3394320048,-0.3970366557,0.6527194246,-0.5503190153,-0.9159554893,-0.1042159547,0.4607334352,0.600461396,0.1031843614,0.0591661086,-0.7016153909,0.3600536501,-0.1339522761,0.0938556134,0.6348554805,-0.0947465713,0.5702621456,-0.0438285203,0.6320444759,-0.6192192226,-0.3101719795,0.2383720128,0.4505713907,0.8686751034,0.3294023743,0.7723375272,0.8012267864,0.9325527076,0.143897378,0.2381131955,-0.8119452351,-0.8365061495,0.0583398785,0.7814739591,0.7663930654,-0.2989543137,-0.2226443605,0.012119293,-0.6441296625,0.6846522151,0.5573289746,-0.1467210546,-0.268637326,-0.1562402862,-0.9075036032,0.4668336867,-0.5809815793,-0.8314490673,0.5453862099,0.8968871873,0.8414237883,0.6330744554,0.9746897848,-0.6880876845,0.3145174244,-0.4586139292,-0.2141391339,0.289261128,0.5101633736,-0.4311072379,0.3659972273,0.0545356709,-0.0992082054,-0.7197660523,0.5432431501,0.6668563138,-0.6370509398,-0.4000142684,-0.7187606474,0.3865143383,-0.3162537929,0.849242286,-0.3655142558,-0.171452741,0.7472179221,-0.2660062784,0.569001545,-0.2606086166,-0.1616744042,-0.909564523,0.9969311815,-0.8548048743,-0.320257682,0.1305331421,-0.1943371147,0.8864263198,0.889994424,-0.9775528132,-0.0273840798,0.8060637644,0.409621712,-0.0264300836,-0.0616737601,0.8401658646,-0.2009314198,-0.6453558702,0.158088787,-0.516512056,0.4937981403,-0.2593472224,0.9137366752,0.5653677234,-0.5660655105,0.023803004,0.05311678,-0.4252682304,-0.7533700998,0.2246487211,0.5129553826,-0.7981130258,-0.8528576733,0.1901051865,-0.8969540432,0.335427139,-0.4967679363,-0.6554162223,0.8623514428,-0.7249868302,-0.8997763186,-0.4658342787,0.2530751565,0.8298863739,0.9026715228,-0.442168679,-0.8575218237,-0.0682040304,0.5073042237,0.8549210061,-0.6049472863,0.4972486703,0.3390525211,-0.6272946358,-0.8625493316,0.6811844133,-0.6314779216,-0.1914212529,0.3606416904,0.7890931192,-0.7441499864,-0.9767726807,-0.7109606413,-0.6273401271,-0.4256485494,0.9348965624,0.0721709794,0.6767416054,-0.526982834,0.060994546,-0.9757881545,-0.8260935414,0.8904453864,0.7208737925,-0.719199214,0.0925844066,0.1264477159,0.6724084721,0.7877859024,-0.2435532966,-0.6058788401,-0.7145804116,0.8671859809,0.8851570361,-1.0516123992,0.1941163965,0.0079652487,0.9197874552,0.1353135772,-0.9736966189,0.3301370143,0.932504635,-0.8396109952,0.1198122568,0.4683480201,0.1436518862,-0.3347552786,0.2379766673,0.8445837585,-0.3841889584,-0.3613357861,-0.392561854,0.1378563538,0.0093589153,-0.0936309612,0.1568032125,-0.5742178136,0.5473496589,-0.7681256212,-0.7155716897,0.7155080263,0.2760786176,0.9590327636,-0.1069246782,-0.3432421909,0.0773178026,0.1655328581,-0.0999210926,0.8624810625,0.4353214116,-0.5847378324,-0.5215910002,0.2174014691,0.9714244916,0.827800991,0.340784812,-0.2845257533,0.9582142985,0.4908899914,0.6328488323,-0.5031098248,-0.0867603917,0.4379906454,-0.7395758446,0.6407139448,0.0964529358,0.6371222681,-0.8226134096,-0.5138379942,-0.0289494608,0.0141726325,0.2223983062,-0.5948276698,1.5499443604,-0.13212942,-0.4906481733,-0.921276932,0.7935805057,0.1578983554,-0.0818385901,0.1337266275,0.1698921246,-0.9593168855,-0.4302039674,0.1459191554,-0.8076344882,-0.5229444286,-0.170490629,-0.1616028634,1.0451494396,0.9705587615,0.6697185396,0.8066932524,0.4906552659,-0.5089547587,0.7680505177,-0.5979430445,-0.4383600113,-0.5608961039,-0.4367084551,0.7643230217,-0.4808498337,0.6463118808,0.5155894664,0.1960578785,0.6746740404,0.5015910363,0.6810561767,0.3490221028,-0.9127446841,-0.2923195494,0.1630930946,-0.4805398761,0.7829599625,-0.0506097892,0.8991489347,-0.2155124899,0.2249255188,0.3230888201,0.3551367866,0.5822108554,0.5834939514,-0.794863388,-0.9622001736,0.4366397696,-0.5366631218,-0.7258018617,-0.2331632641,0.0074208316,0.1161660268,-0.0273518657,-0.9485498132,-0.6116298412,-0.7046839082,0.6025406526,-0.3425899224,0.4405165217,0.6709926533,0.8542485047,0.4981270167,0.4705408452,0.9590479822,-0.3029325012,0.5184239316,0.3394466972,-0.0138839471,0.451134036,-0.5834805742,0.6091619788,0.1512245531,-0.0911256331,-0.5013324987,0.1429489038,0.6781838749,-0.7477423688,0.8641766495,0.8861114746,0.5225807866,0.1745020983,-0.8050854784,-0.1815242717,0.9710959024,0.1610904954,-0.1333679783,0.7009253035,0.1198851874,-0.8667846219,-0.482854762,-0.841219267,0.8432435979,-0.0703785155,-0.7453072854,-0.0592120302,-0.6496523534,-0.8969929372,-0.4313978729,0.8074022937,0.1115747975,0.924935882,-0.4219317458,-0.1957097856,-0.2584819248,0.0262300277,0.5016970353,0.0931635969,0.9248567033,0.833775847,-0.9767059801,-0.9723114536,-0.1708418228,-0.9748183743,0.6354431883,-0.1358016378,-0.280098458,0.3712203906,0.4147735344,-0.5864919276,0.5266604896,0.5812952995,-0.4140736986,-0.5181678505,0.4196746531,-0.1786506149,-0.0446995239,0.786008403,0.2781053786,0.4618719578,0.5877408901,0.749687871,0.7840295697,-0.3542505992,0.3533040698,0.8113454927,-0.413248404,-0.7706573218,-0.3661901863,-0.6405187473,0.4328540096,0.407222371,0.0480841947,0.0459963767,-0.0132293526,-0.411879138,-0.728347317,-0.7766363182,-0.2037430208,0.8524438938,-0.5545224241,-0.2970904582,-0.3476532106,0.679291398,0.4864117563,0.1462210448,0.3193352644,0.1549793499,0.0600059123,-0.348420337,-0.7546942104,-0.8529118621,-0.9820356415,-0.1207853684,0.4000706739,0.8597581181,-0.0872796136,0.7663186634,0.9693618822,0.2303845194,-0.0820335796,0.4731942455,-0.6070485055,0.606506189,0.25660623,-0.2400204322,-0.5223519108,0.1206417964,-0.9834864789,0.5594592553,-0.5423361141,0.8105241944,-0.0357458281,0.0164753605,0.7269125611,-0.0859492532,0.877054488,-0.9737689113,0.1475455812,0.3306639635,-0.5442664043,-0.4855100815,-0.7108624527,-0.2434599224,-0.805407281,0.7733146963,0.1210041263,0.5471438586,0.9030878341,0.2726302209,-0.0946226994,-0.2851258529,-0.9711775838,-0.8452624451,-0.0648812431,0.1492437937,0.5341965286,0.9467261556,-0.0892363616,0.1396842282,-0.6792721491,-0.220134762,-0.4218322504,0.4329550247,-0.7435023882,0.0869820869,0.510226915,0.9431097191,0.2118219833,-0.9358025601,0.5546109232,0.1140821871,0.3314378285,-0.3656142968,-0.3496905155,0.1138714431,0.3809894675,-0.7218499717,0.3251986114,-0.2133124821,0.8469213198,-0.156291083,0.4753332104,-0.67732182,0.0124419743,-0.4376851237,0.7297768304,-0.9425969579,0.3967181602,0.1152083016,-0.2359367468,0.8961443172,-0.8422155454,-0.9490828722,-0.1893862345,-0.6445092759,-0.8660949771,-0.8417697475,0.5825997032,0.1099591643,-0.3428257444,-0.7379908932,0.0470507933,-0.2970994156,-0.4184885221,-0.7238227123,-0.2013768282,0.0380503926,-0.5599193774,0.0656289539,0.6952950817,-0.6649878182,0.69367544,0.3365877732,0.6426896603,-0.4476173031,-0.7854071466,0.7050516251,0.5225190428,-0.1280246191,0.5575049582,-0.3894237128,-0.5327512877,0.3716289362,0.9358294703,0.5175941196,0.9035918353,0.5353726574,0.1008652922,-0.2761014121,0.6154984588,-0.2122622501,0.0075619149,0.8832810965,-0.7832152432,-0.9369366578,0.9488715312,0.446057074,0.4629532103,0.8252962519,-0.7110998561,0.3064374772,0.0373013498,-0.7322740621,-0.2241645502,-0.1289634825,0.1937719331,0.3829856912,-0.3139995397,0.9592481118,0.2532326517,0.6744083405,-0.3620033266,0.1171199768,-0.6514108658,-0.6525943165,-0.2634405144,-0.439412678,0.9562996416,-0.8719838439,0.3797026971,0.7221728205,0.1002287082,-0.0595778554,0.8724713472,-0.1772755449,0.2844574982,-0.2658446169,-0.777570706,-0.0952270136,0.3161676549,0.9530841797,-0.0821760019,0.7107207389,0.9657269188,0.9507874898,1.8754256551,-0.4276208213,0.0036055205,-0.8103273658,0.6611031585,0.5643703753,0.1112684729,0.108971621,0.8278129308,0.6051261918,0.5242436333,0.65342318,0.0354487179,-0.5891903403,0.1522151074,-0.3910032535,0.8855333129,0.6486764898,-0.5494669506,-0.9271820235,0.8171164787,0.5475994494,-0.6691131599,-0.049978104,-0.202674079,0.0066008487,-0.4657312857,0.7963231746,0.0645981489,-0.142894736,-0.4946506427,0.83834953,0.1460244479,0.5414602215,-0.6482167011,-0.3799756206,0.1393909233,-0.8117463424,-0.3607693246,-0.530568663,0.6247190648,0.6292063848,-0.1472901637,-0.767054068,-0.2585664042,-0.010562808,0.5379670995,0.0298388041,0.7188655406,-0.592050668,-0.0101467028,0.2414715877,-0.6141010922,-0.55505011,0.8696948857,0.5793179347,-0.0278117805,0.8616915009,-0.4886971859,0.7335514797,0.8051337043,-0.9179471282,-0.6616792688,-0.9063487864,0.2636514784,-0.0276100042,0.6205456653,-0.7173633172,0.9761127988,-0.1805916978,-0.7695899146,0.653136483,0.9728328324,-0.1764600712,-0.7358750099,-0.3548218059,0.7840723545,-0.1297690661,-0.5041327621,0.3289649012,-0.6372081675,0.8345168228,-0.1513484456,0.6845256336,-0.4105011303,0.169710784,0.5392940413,-0.0102967971,-0.1066721446,-0.6019192164,0.9193072787,0.5315257096,0.2817365777,0.7409138972,-0.0357100094,-0.8724331483,-0.6192239878,0.8566862567,-0.817276806,-0.9129858256,0.6578685854,0.6099767857,0.4879359749,0.8058179191,0.1481267185,0.3719711309,-0.2404239545,0.9968546423,-0.1417226781,0.7117802216,-0.2378838378,-0.1055206625,0.8312980558,0.384614642,-0.7055929952,-0.094409514,0.2726680284,0.4608437635,-0.8219321231,0.8732753294,0.7978743703,0.9035400288,-0.3891313061,0.6090600083,0.7849976384,0.7573706448,-0.0131105399,-0.9165388043,-0.472579103,-0.8500565026,0.757274089,-0.2030633051,-0.8718845482,0.691985865,0.919014006,-0.7468532586,0.5568674422,0.5120570454,0.5274910959,-0.920687916,0.3057773539,0.8098137405,-0.9934329353,-0.0154477905,0.5700855857,0.2549513791,-0.7178483277,-0.022284042,0.9167307827,0.4729187225,0.9117628419,-0.3889301289,0.3891237874,-0.9047114811,0.2813070253,0.8813093915,0.0227197818,0.4606980569,-0.2785334799,0.3415508735,0.9950691382,-0.5491451981,-0.1045258778,0.1655210474,-0.3839377034,-0.2526146858,0.0543620494,0.9115157478,0.5169690133,0.7010592097,0.2692318702,0.6302130256,0.358043726,-0.4209298646,0.4535748956,-0.2392714732,-0.017991789,0.1967459725,-0.7728081695,-0.8110673981,-0.8775682428,0.9827415093,-0.585444961,0.9696476557,-0.5820204043,0.8089415228,0.038287935,0.766167582,-0.3582272672,-0.7350765934,0.8341113718,0.9106026149,0.2259288176,0.6051696323,-0.4967960992,0.5138973153,-0.7195901614,-0.4144839835,0.3897809864,0.0276562115,-0.2778703835,0.2368787551,0.9129187258,0.5030205112,-0.2075439799,0.721584803,-0.359619292,0.6640542428,0.2551132188,0.213948389,0.8055209207,0.3449559933,-0.5542336599,-0.231855165,0.5745097991,0.405648085,-0.8748140009,0.4768771746,-0.0711321761,-0.4500192595,0.0265045673,0.8871826181,-0.1592468933,0.7335246857,-0.1536115358,-0.7268049951,-0.5122357343,-0.2040890581,0.8864692032,-0.9966627882,0.2792799383,0.1604376483,0.4215701351,-0.5000276683,0.2513473372,-0.2157041754,0.8663768489,-0.3642161708,-0.8324001819,-0.435647502,-0.0369469435,-0.3822055922,0.1087373766,-0.2051765406,-0.3402364262,0.3004596865,-0.7320093499,0.8159560124,0.6424148788,-0.9954180713,0.3509869482,0.6973818109,-0.3183452012,0.892998956,-0.6630379606,-0.2649916731,-0.3922898918,-0.7555975272,-0.0790326318,-0.1055852546,0.1797994958,0.0198674132,0.2787217859,-0.8045625784,0.9214917527,-0.8683103027,0.2841968103,0.9896094403,-0.4388507094,-0.620119342,-0.4139824234,0.8259105704,0.8812028039,-0.1155198315,0.0900119601,0.0440786348,0.2770749083,0.1329341442,0.7463179712,-0.1959161264,-0.9148565056,0.9388743218,0.1812606966,0.1827481412,0.0199722061,-0.9120961833,0.5931209986,-0.7763502358,-0.7109039128,1.1838508234,-0.6909283581,-0.1379765389,0.0577354921,0.3896886057,-0.1852251617,0.680594283,-0.6322975962,0.1630189277,-0.3400462925,-0.87865462,0.8717144552,-0.4071137681,0.7400796534,-0.0488776205,0.2971330278,-0.6867970193,-0.3636684549,0.5951732771,0.7946871645,-0.6963248959,-0.7639932574,-0.7251680331,0.1218964544,0.399528877,-0.62474858,-0.3242729171,-0.3849736066,-0.4973203797,-0.7672736672,-0.0386660621,0.5728536368,0.1304714609,0.7314079259,-0.8318555865,0.1499899465,-0.7168452903,0.0729146594,-0.4034270001,0.8212239869,-0.1118241432,0.1791535822,0.9146379497,0.3230992126,-0.3936721074,0.8231324592,0.2701889887,0.392995701,-0.550534247,0.6950394914,0.9280613666,0.2369523711,0.1661378967,-0.8429418334,-0.7968084162,0.4927794849,-0.8686041211,0.6055345261,-0.6274622875,0.8907198196,0.2982205795,0.9386446481,0.2394491858,0.0135681603,-0.2331118598,-0.1469831812,0.6568669473,-0.7505913936,-0.6452606531,-0.4893368594,0.0164710873,-0.3930363031,0.1711184701,0.8273893704,-0.7033989972,-0.9253003276,-0.8027471579,0.2289282309,0.7462045917,0.6035331482,0.7650280923,-0.5288879343,0.7557324165,-0.3896361057,-0.5634981278,0.2382929044,0.074303358,-0.9876729827,0.6344295597,0.7210091279,-0.942588121,-0.3630218968,-0.2730448077,-0.9720948112,-0.342538854,-0.9375353613,0.6713263102,-0.077538024,-0.4854254406,-0.5124523749,0.304986214,0.3438445129,0.8726752652,0.8222659499,-0.6130561729,-0.9004028949,0.5081855397,-0.1772154872,0.8496373477,-0.9650375277,0.6062766517,-0.9517738057,0.2673039791,0.4269116386,-0.6505041499,-0.3274479301,-0.3576905848,0.1340839808,-0.882488678,-0.9726253058,-0.6837187721,0.7661292429,-0.5897349391,0.6350643762,0.3725590014,0.3456771614,0.2937950978,0.889399979,-0.8200939284,-0.1861896968,0.3647650989,0.0949680096,0.6258371473,-0.4684837796,-0.5238759466,-0.4754067671,0.2560832448,0.323438067,0.8100765804,-0.7614989833,-0.7198147429,-0.1890491683,0.3503539199,-0.6532605292,-0.1828172015,0.7333429402,0.7161689979,0.3451506068,-0.3804748019,0.0389275176,0.7712638667,-0.071835887,-0.0130489971,-0.2641035639,0.6322395551,-0.7823346849,-0.6499672973,0.8130937549,-0.5385416249,-0.6124845091,-0.0215469614,0.3080055801,-0.6038914322,0.0240984595,0.8362490132,0.6172556485,-1.0436648894,0.3439659076,0.0230487952,-0.757476173,-0.759468331,0.9551540992,0.9094051755,-0.5109162053,0.1213534834,-0.7189728558,0.5478304388,-0.6886189502,0.6977510624,-0.1666477882,-0.3187232962,-0.8284783092,0.6037494199,-0.8657593603,0.1852531139,-0.9122970344,0.9778245108,-0.3441162517,0.0694505741,-0.3594734444,0.0986404623,0.0920308128,0.8852811022,-0.9522489986,0.7916868683,0.8090330555,-0.7678821906,-0.2718338139,-0.6291908545,-0.1741879991,-0.8754172818,0.394499031,-0.6006284682,0.4680993284,0.7334306634,0.952957708,0.7281489611,0.1870835757,0.9862083705,0.5508760083,0.4355421117,-0.5401121753,0.1820862804,0.1732081399,-0.4581742568,0.061187321,0.6613522848,-0.4581949299,-0.6300974744,-0.9402945132,-0.550135684,0.3269138702,0.8962393172,-0.1212491738,-0.7584013716,0.0025306224,0.3153150604,-1.0000145481,0.5341398354,-0.3415351956,-1.4727115398,-0.2324879314,0.9839324237,0.3267369771,-0.7365511177,-0.5124133544,-0.1709047443,0.0682689044,-0.0436819221,0.9334993407,0.3311452519,-0.5382815134,0.8183274741,0.1669756918,-0.2419145577,1.0063084259,-0.9799321306,0.3816513332,-0.562438605,0.8693046095,0.0156159249,0.9802300079,-0.4305525335,0.5286011599,-1.2654967982,-0.9221709525,-0.6283114868,-0.4867207208,-0.6447764706,0.5869095944,0.2508796141,0.5382104608,0.03468317,0.7931376553,-0.8095436664,0.1125930103,-0.4044034975,0.7504051818,0.9326724054,-0.8166861914,-0.1119291873,-0.1245688285,-0.4354324383,-0.1622972904,0.1326891362,-0.6829223885,-0.8913073547,-0.7665687001,-0.8875631144,-0.5724074789,-0.6855367854,-0.03139202,0.1804407098,0.4060821641,-0.1266743088,-0.650575708,-0.1119866646,0.6518233699,0.9140877621,0.3232713563,0.2896947408,0.6489598985,0.338187052,0.7792959906,-0.6627449585,0.1435947506,0.6118101817,0.1243222605,-0.9455322434,0.3375696878,0.7212502118,0.6551685115,0.090914416,-0.6585487699,0.2768386581,0.9729695142,0.2219065477,-0.2049796132,0.2283542728,0.8786073731,0.675504544,-0.2470601074,-0.9037734263,0.2993416568,0.649755173,0.2052265519,0.3528307772,-0.6297944918,-0.4243717128,0.2461782927,0.4238292719,-0.125038043,0.0084273831,0.3550668213,0.9148654426,-0.3602642887,-0.1723927317,-0.5159711883,0.2611507289,0.1102211922,-0.3672514991,-0.3376920306,0.26668822,-0.5541923527,-0.2719774412,-0.3744655491,0.6506469025,-0.0179369277,0.308388533,-0.906746675,-0.101419639,0.2084499898,0.7935232486,0.1744064182,0.5536366342,-0.8297805182,-0.0252100582,-0.4513907272,0.7240737144,-0.5998101873,0.6828132633,0.140268621,0.0393155492,-0.3092655983,-0.9904695074,-0.1607062531,-0.2250095295,0.6412255523,-0.2983737141,0.2579365233,-0.6783536272,-0.9181100066,-0.0988581544,0.242491555,-0.7334358416,-0.2176618116,-0.440574764,0.6494189508,0.4938474714,0.2009241991,0.3831530091,-0.3106091368,-0.6176408767,-0.0088284402,-0.6888298479,0.1104507733,-0.100433315,-0.9652635879,0.4351075544,-0.1433239324,-0.710490852,0.8420543437,0.5510866676,-0.5969683817,-0.1867235537,0.5191010383,-0.3280636061,0.4711726348,0.3857619774,-0.2890450676,0.6714579117,-0.5025278791,0.8221048854,0.1336935418,0.0356031877,0.9480435786,-0.8277570394,0.7632586103,0.2592086528,0.3070279163,-0.970665768,0.1506869362,-0.565463652,0.7962851568,-0.2179241691,-0.7313915735,-0.6097197782,-0.0160657386,-0.0722239221,0.6387405684,0.0796662331,-0.0904614423,-0.4824484295,-0.4197437431,-0.8917201752,0.6874053988,0.7747751153,-0.9535207,0.5113258117,0.928025967,-0.9614030171,0.9121069093,-0.2526628059,0.3875619554,0.9140254409,-0.077290887,0.9244709708,-0.3248441342,0.0691915223,-0.2096080584,-0.4876536224,0.9235417402,0.5542381356,-0.5800572382,0.3405351354,0.8649241746,-0.7082948291,0.0809071323,-0.1692238142,0.1653599364,-0.2193758017,0.5175465028,0.4477216257,-0.5730284582,0.920700132,0.9516073879,-0.9029462237,-0.2141268055,0.2834171894,-0.9598233348,0.0598129204,-0.2628915055,0.9127502931,-0.1435352525,-0.6812251532,-0.1206250577,-0.8394276771,-0.3511801916,0.54158439,0.6661765468,-0.6280768279,-0.3758095966,0.5562458518,0.1516371031,0.4710167497,-0.5168130748,0.0035933551,0.3119900506,-0.3394159295,0.5685124822,0.2007046607,-0.4342544268,-0.0441463384,0.3203095203,-0.1872419251,-0.0060719535,-0.0900836775,-0.4369540664,0.4071107297,0.2403222901,0.7586940057,0.5798560345,0.8991859533,0.2896743116,-0.3940145718,0.6454057429,-0.9654544107,-0.3394285399,-0.148900808,-0.4430303065,0.6847889193,0.2639651507,0.0095331578,0.1026930286,0.5699640102,0.8474174843,0.6571801763,0.1729502687,0.7877288213,0.4677868246,-0.6330508694,0.8709855741,0.0432202366,0.8119966688,-0.3586246434,-0.0963743441,0.341208232,-0.8322923343,0.937930877,0.9154747689,-0.8497277616,-0.0026705073,0.2534758533,0.9999294973,0.5126425346,-0.9439290541,-0.1599659484,-0.5281485072,0.6308137592,0.7165077746,0.7222591465,0.3210214508,-0.1636008694,0.1128807458,-0.3831066042,-0.2463685597,0.362292005,-0.7962101225,0.6509937514,0.8934976699,-0.325630191,-0.0273142687,-0.4757725529,-0.6396419612,0.8748105771,0.071763965,-0.7092445716,-0.5397058068,0.9954373879,-0.6500198841,0.7240440675,-0.6815063227,0.3905896554,-0.5965046284,0.6021267232,0.4105505325,-0.027222457,0.5208453233,0.370061633,-0.509025251,0.4492993339,-0.2810007433,0.1467103335,-0.3806949359,0.5930979946,-0.4050048472,-0.8013411168,0.0369212173,-0.2682171311,-0.5258293535,-0.4107892549,0.1641960151,0.0728386459,-0.6849724011,0.2488439446,0.1402432737,0.192027794,-0.6769284479,-0.1086324988,0.2832233679,-0.2296634182,0.8626925089,0.4159530062,0.7589493364,-0.2838607505,0.6238809688,0.7227247341,-0.0046775978,0.8193693637,-0.1251179166,-0.0788434403,0.354382902,-0.5056256318,-0.1067327767,0.4878413617,-0.0834996993,-0.5552956446,0.5673731081,-0.0400864696,-0.919973732,-0.3765667054,-0.3140076553,0.8159230901,0.5319838247,0.6394170649,-0.1547021304,-0.5566649434,-0.260485042,-0.4104282248,-0.6393890237,0.6886085429,-0.0548666298,-0.3169902096,0.4534936172,0.5703657701,0.0611588806,0.0157335568,0.5129888954,-0.6415552166,-0.4049109678,-0.3375791242,0.1561487424,0.7892100824,0.652062406,-0.6195341108,0.9494552502,0.3899903528,0.8248563443,-0.2047802486,0.6782923696,0.0129034854,-0.1464290083,-0.34657087,-0.0049592991,0.2341421969,0.6110009692,0.5789736044,0.2919737687,-0.8215055855,-0.0044961891,-0.8245492544,0.6404619609,-0.9111813047,0.2992317846,-0.4441205748,0.0387525139,-0.9509540981,-0.5181358004,-0.8151833955,0.5234320322,-0.4985209118,-0.1634417466,-0.437353723,0.3164417257,0.3348722769,0.6159513637,-0.3590664402,-0.4594100383,0.6671021232,0.6046187984,-0.4950395971,-0.9801362027,-0.9713822207,-0.2349974338,-0.0070932391,-0.3338770827,0.6353136972,0.1433276149,-0.4434320106,0.7144968712,0.2159961782,-0.7916259036,0.7900140504,-0.1326198598,0.5781487111,0.4312085547,0.0752796751,0.71870865,-0.380484097,0.7014193743,-0.7655827038,-0.8453339086,0.5676606716,0.1202417174,0.5128883566,0.1627034015,0.4351108626,-0.1227818902,0.4468353379,0.936550989,0.3724544317,-0.763393888,0.8281613819,-0.3020014936,0.2815333044,0.4209897436,-0.6800903786,0.5691781151,-0.9128129057,0.7049269363,0.7789033839,-0.2861224029,-0.7885102075,-0.9400773526,-0.4918366409,-0.3163930476,-0.4248156325,0.8556008251,-0.0541540125,-0.4975274472,0.6957200912,-0.0755787321,-0.053887856,-0.7988319198,0.0045833966,0.5770388589,0.3769963981,-0.9617907189,-0.9524479056,0.0616230028,0.0106531509,0.7202220223,0.0080729529,0.3540101489,0.3324464261,0.2746292227,-0.6267703562,-0.0299378536,-0.8713036237,-0.8697560933,0.5752718364,-0.3191770641,0.1908407039,-0.1803372029,0.8901850282,-0.8803646195,0.563723967,-0.7921922222,-0.8400254089,-0.0170063992,0.2446931636,-0.9799576715,0.8630656107,-0.6156174952,-0.2115433073,0.5027431865,0.8775778112,-0.4820173245,0.7302346064,0.4671754409,-0.713308543,-0.0219956622,0.7775205183,1.5122336983,0.0136707392,-0.0804850571,-0.5718659043,-0.4865293411,0.0760566371,0.8025527237,0.2424072313,0.2876981474,-0.3854150337,-0.6321735744,0.3386961744,-0.4246282597,0.9725847695,-0.2742304436,0.3284734129,-0.8777462394,0.9599252172,0.3781065656,-0.2457907421,0.1711779899,-0.6913458723,-0.3371527668,0.6203606509,-0.8455241578,0.1358452001,-0.2097114808,0.6313972191,0.7803208552,0.8906377971,-0.5537411056,0.2204087759,-0.1990445776,-0.2181038262,-0.1746156007,0.3368578102,-0.6744861857,0.8838340972,0.7084911423,0.4595492389,0.4416570206,0.9441871632,-0.9045844756,0.9803313288,-0.0120776112,0.9568666981,-1.4217450859,0.7249242265,0.7298825087,0.0872452763,-0.5577788652,0.5824839569,-0.7998979754,-0.8017681563,-0.1885865315,-0.0195545555,0.539598739,-1.0587422224,-0.4351761996,-0.7956985289,0.2540330136,-0.3413812133,-0.6558269452,-0.632941773,0.1761985763,0.748789084,0.6806476048,-0.7164658743,0.5672748119,0.9186003756,-0.0243769363,-0.1809053293,0.8616032352,-0.8634026817,0.7515830889,-0.5255412978,0.8161842593,-0.0499793694,0.6505737667,0.5027351552,0.0944921877,-0.2335322396,0.6803278158,-0.261337889,0.3069277484,0.6382673659,-0.1186025131,0.1845071753,0.1118593857,-0.7781512953,-0.2706314132,0.2720073438,0.7849043166,0.2429636073,-0.5939986935,0.4877033045,0.991454272,0.8128706682,-0.834886686,0.3295174925,-0.3237202914,-0.4362081761,-0.6227740014,0.7062721042,0.7311448653,-0.0028103224,0.4820844532,-0.1416296062,-0.8472834978,-0.7609204867,-0.0180479195,-0.709733342,0.0869061423,-0.628624652,0.7858858853,0.7025952581,0.8090386025,0.7315792068,0.7642177571,0.5354355991,0.6141347818,-0.1416463426,-0.0082520553,0.0399705192,-0.2510119405,-0.0181882773,0.9617912535,-0.3712389374,-0.9045223227,0.1593172014,0.6086655393,0.0300340417,0.5128360733,0.1867046832,-0.33697008,-0.326134083,0.4085073363,0.7853155911,-0.0243852589,0.3388022417,-0.6865490423,-0.1276113336,0.9086952702,-0.0420231292,0.9213950674,-0.5196410476,-0.9114663257,0.5571137869,0.4026168011,0.9387551402,-0.6207233119,0.3179218625,0.3227911859,-0.0681225367,-0.539950899,0.6395880603,0.3046856202,-0.031419453,0.0130998134,-0.1048337135,-0.7682523773,-0.0156954726,-0.1715308257,-0.600135995,0.1647684728,-0.0030794172,0.003786785,-0.9191583918,0.1660143422,-0.1559807073,-0.6665386153,0.8147656848,0.2196859085,0.2866697618,0.4501744147,-0.2055425799,0.7075166761,-0.1402814518,0.0447726841,0.1603215636,0.4522147846,0.9849793365,-0.4660897816,0.1162985166,0.7081534713,-0.4977680498,0.9594144133,0.4406159944,0.9129895133,0.9503837642,0.1732488347,-0.9999884991,-0.1491558351,0.0297227541,0.5693890161,0.2405935291,0.2073120489,-0.8756200805,0.9619775257,0.6951212367,-0.3531178931,-0.6284216335,-0.6719950879,0.3180176005,0.8844364264,-0.2008273922,0.8535936885,0.4396028056,0.6315478517,-0.4446324425,0.0409779067,0.8144343579,-0.6944439341,0.2629193966,0.3183428449,-0.1949032391,0.8621621305,0.076645402,0.9850406374,0.0130973978,0.8049032373,0.202022865,0.3077391278,0.8334830291,0.0970315061,-0.3028056014,-0.0805567969,0.8327950384,-0.2877878634,-0.8972663073,0.4541593566,-0.2633767343,0.3003612647,0.7009496011,0.2450706758,-0.8182160095,0.2710723012,-0.9682359008,0.3151811858,-0.7116232254,-0.2948372415,0.3142608919,-0.7398360509,0.8835863697,0.7926744084,-0.7842241875,0.8779014641,-0.7171982263,-0.4108557699,-0.8530017247,-0.4095806033,0.5000782381,0.2939337125,0.9738747139,0.3625835212,-0.9223418176,0.5812028561,0.4435443173,0.8327606116,-0.8925716538,-0.580141694,-0.8150881799,0.4696525277,-0.898100483,0.0107112172,-0.5587993641,0.3837585656,0.2038207823,-0.3676683822,0.7246154903,-0.7440616295,-0.9147648542,0.0079384251,-0.6202025638,0.5050744435,0.606613601,0.051216828,-0.7472197724,-0.014098579,0.053034429,0.4995381555,0.4552484643,-0.4920475202,0.8729882553,-0.4806074979,0.9810252558,0.3153084715,0.3937145865,-0.3439759041,-0.5984800484,-0.29446925,-0.560390489,-0.2076982593,-0.5911856984,0.0726152049,-0.5775411446,0.8045116308,-0.65550672,0.801111386,0.367232261,0.7134197058,-0.4531000365,-0.6544113489,0.4896637684,-0.6856471258,0.2698277413,0.4377148869,0.9841105879,-0.3557030437,-0.8404186471,0.7862671446,0.1605747493,-0.5654104314,-0.5666758223,-0.5695539951,0.0942690188,-0.822085179,0.1053560417,-0.0184244962,0.5382646719,-0.0702545996,0.417018748,0.3210660634,0.84517039,-0.4707214541,-0.6550444571,0.4811823712,-0.384737583,-0.6797788807,-0.3583046178,-0.1928921872,0.2293375845,-0.3133818333,0.0114789639,0.4833605454,-0.6580774252,-0.6787406736,0.2580437664,-0.7825066554,-0.9655744406,-0.2792196871,0.0745516424,0.9231826621,-0.4842090131,0.8014659068,0.276575162,0.0106707843,0.2488259975,0.3301703925,0.5729227964,-0.4429493015,-0.3962874233,0.410039723,0.6090786478,0.7674886065,0.8489068198,0.7420170653,0.2822041313,0.8819763321,0.2356584488,-0.5345936606,0.8025603622,0.9852448347,0.7604178624,0.2137453556,0.7238017198,0.1316507925,0.8684944279,-0.9218082391,0.6685253177,-0.955548785,0.3711601628,-0.8307438392,0.7210303097,0.2716141683,0.0745406581,0.0445186738,-0.7622345844,-0.4874074251,-0.2389024194,0.7889483416,-0.6239045829,-0.6211242575,0.3829306474,-0.14289669,0.0460743876,0.6855573245,0.1843408868,-0.458712282,0.5436029134,-0.1490479033,0.0656903177,0.3957135985,-0.1027546048,-0.0210598344,-0.5172709835
   0.6417497448,0.7848358962,0.8291318459,0.6013898178,0.3695794197,-0.1511048479,-0.1399254162,0.7269197508,-0.550644337,-0.5829006937,-0.8409711088,-0.8309474087,0.8685736884,0.9539538465,-0.2235290836,0.7916681977,0.8398801359,-0.1913959251,-0.5238442888,0.3346748515,0.9063532918,-0.5937585753,0.6758878246,-0.1411028736,-0.7885032991,0.8331681217,-0.6593985641,0.748517324,0.7431607288,0.5906690958,0.0550463933,-0.0019625545,0.8984235734,0.1324703331,-0.5509521506,0.285824796,-0.692163294,-0.4086391972,-0.1450893911,0.7307846344,-0.4650811116,-0.8047359924,0.6629459623,0.4664435555,0.3170198138,-0.2602158445,0.1429159275,-0.8961887547,-0.6449645335,0.1989015019,-0.5491380691,0.5541568339,-0.9702127565,0.0605127532,-0.8265450782,0.4668845153,0.927083269,-0.9241926132,-0.6988627274,0.9483925558,0.8556948738,-0.7355106228,-0.1864500716,-0.7995266563,-0.9475963775,0.6721060132,0.7752409549,-0.6187629971,-0.6952138094,-0.0866098737,-0.7248239225,-0.1407663554,-0.2866574962,-0.1099636639,-0.147238449,0.1643083441,-0.0621897741,0.9417448733,-0.1542205525,0.7242765613,0.3002156575,0.1427280403,-0.7086714977,0.2718685584,0.0548230677,0.8162800875,0.3330789034,0.7667079959,0.6904316922,-0.6077924276,-0.2470523503,0.3072643192,0.6917016606,0.610570092,-0.8982348436,-0.3616991313,-0.2230707659,-0.6627315127,0.9544753747,-0.8037311013,0.8103129153,0.321651301,0.0625247453,0.0354715721,-0.5012025695,0.4417960422,0.9196810669,0.2761839888,0.3609334636,-0.4084294446,-0.8633843608,-0.1782521049,0.9868345164,-0.3663442917,0.7077591729,-0.451571295,-0.3503799454,-0.6014114997,-0.1379948699,-0.3472579914,-0.8473896496,-0.2745329696,0.6352836147,0.1115760697,0.7011751604,-0.1208615853,0.9598012275,0.3928296017,-0.7965763464,-0.7660575139,0.4751692044,-0.009143698,0.2815988753,-0.2956409214,-0.7467784908,0.9529507497,0.2348172054,-0.7346319136,-0.1048084065,0.2589814094,0.1695218295,0.6642732619,-0.8135221678,-0.0138933445,1.1444801275,0.291584418,-0.8041938218,0.9326975496,0.7525745472,0.5886824527,0.7428130535,0.4183461437,-0.1423745885,0.8808091676,-0.655387908,-0.8714090697,-0.2851791433,0.0308773285,-0.4012318017,0.0938709032,-0.0278313683,0.7745857905,-0.2496213956,0.9797896346,0.2264125409,-0.41650011,0.0997327381,0.2182948683,0.9271542939,0.3687354676,-0.0098070583,0.3020572854,-0.3541930885,-0.9066368252,0.9333223387,-0.2927795767,-0.468061962,-0.8057481772,-0.3980310166,-0.3576749048,0.9875652262,-0.8403120723,-0.716851167,-0.8767421479,0.9284688464,0.0422222718,0.8950558174,0.3250288612,0.6469219729,-0.4717034338,-0.7939399545,0.5054417221,0.6000112152,-0.8257789125,-0.2070468674,0.3284923225,-0.2952726463,0.4002194825,-0.3594580467,-0.9390563821,-0.1501917625,0.8281899517,0.5929948892,-0.9476971133,0.7581795045,0.1594536914,-0.2540761514,-0.9544452543,0.4153992236,0.0385376955,0.5322801649,-0.1192018999,-0.5208427386,0.7652403401,0.4412750813,0.9577735125,0.4126157612,-0.1661445874,0.260731994,0.9947231198,-0.8724865278,0.1101823141,-0.1320231703,-0.2039283071,-0.7071011331,0.4277113379,0.3509717871,-0.5668555861,-0.0864760908,0.4667627366,0.7394754405,0.4343009068,0.1066379882,0.5438730737,0.1614111309,0.3115720579,-0.9726698887,0.4209893171,-0.3905038246,-0.8244166168,-0.0686789225,-0.0189757039,0.5437526013,-0.1354603522,0.1022076214,-0.6551789342,-0.2590302737,0.8781977719,-0.9668509569,0.4962914599,0.1574582676,0.7671601931,0.9771204584,0.23665875,0.0176633315,-0.6654684659,0.9424854987,0.5209243529,0.1078802836,-0.1314556367,-0.4550476527,-0.3666649363,-0.8982701426,-0.4731953772,0.6300546204,0.9317376685,0.3653662578,0.5976719046,-0.9421395657,-0.6348065138,-0.7692948923,-0.9533020032,0.4324603324,0.5232854069,-0.241089659,-0.4208203451,-0.5626344217,0.913781075,-0.0043267807,0.7128051038,-0.8522563912,-0.7568767409,-0.2123598707,-0.455094573,-0.2492569874,0.0361700573,0.3801470027,0.1422585046,-0.6859988946,-0.1068691593,-0.344845122,-0.4428753679,0.2393149757,-0.2135919857,0.3037189345,0.3614211446,0.1772424247,0.8075078851,0.6214495444,-0.8064333254,0.25544005,0.3556360345,0.80982537,-0.4596474184,-0.7919711837,0.9586285456,-0.9991462054,-0.2247959027,0.2868220035,-0.0277448003,0.5739645653,0.4810214222,0.0559386878,0.497714603,0.0365781629,0.0825260765,-0.7282761205,-0.5492637871,0.7186509947,0.8004679053,0.7880758338,0.6730416056,-0.9601901634,-0.6035142064,-0.288209717,-0.5544670196,-0.9945278046,0.7053892931,0.7552489945,-0.4949600327,-0.3200263051,0.0771344074,0.9337335368,0.3610231581,-0.6979229224,0.7349016196,0.0487241291,0.8749050706,0.2564091223,-0.1699745818,0.6232237625,0.9327579705,0.0957422654,-0.287149033,0.2061097556,0.9748346304,-0.8659482287,-0.524736121,-0.2161794777,0.6251130244,-0.3597555215,0.8175321142,0.3706430998,0.0066742528,0.4719821886,0.6690576048,0.7809786332,-0.423359664,0.6247063755,-0.4894489776,0.6572799198,0.8269711417,0.8541081894,0.1472515316,0.6844599932,-0.7477020675,0.8185919522,0.727250297,0.647362367,-0.531176555,0.5893349132,-0.0771585813,0.0142495215,-0.002105927,-0.322570414,-0.9784143843,0.5308754234,-0.5900534792,0.8980214979,-0.3337916494,0.7964703384,-0.5106790355,0.9637158242,0.314872415,0.1134596759,0.3009108464,0.5968833104,-0.4138687737,0.3842577438,0.9767122089,-0.9913374981,0.313254842,0.9587933192,-0.3794177923,0.4853386733,-0.3369533619,-0.3217934439,0.2361751144,0.3477570316,-0.5127993029,0.0838221593,0.3138235796,0.0289537398,0.9458127236,-0.4413872121,0.2962421059,-0.8739547556,0.084885463,0.5255146636,-0.5227372037,0.3693322339,-0.193530094,-0.5839072812,-0.2877322654,-0.1348513595,0.8661131331,-0.0490563504,-0.2837703701,-0.7816311123,-0.4507311694,0.6316323322,-0.7954625409,-0.4057213509,0.2604411526,-0.2740723261,0.3243107691,0.6611882917,0.9605181264,4.4150419963,0.852892029,-0.4835744693,-0.4114332203,0.356748178,-0.0151390617,0.7396561579,-0.7308413917,0.9568657961,-0.0896005316,0.1538978143,0.3628283395,-0.1842401762,-0.950139159,0.951945405,0.9132895819,-0.018163305,-0.6774356761,-0.3216884727,-0.4800419034,-0.8903932391,0.3891223199,-0.2583547328,0.6414328533,0.1180975911,0.4891789638,0.5891010234,0.0923522414,-0.6601312814,0.2578477536,-0.3964268375,0.3994401352,-0.4381065246,-0.8359723677,-0.0407616807,0.761197182,-0.9160651237,0.6272710533,0.6803054408,0.2304673376,-0.6647806496,-0.1761718898,0.0121254248,0.9846728064,0.9669216614,0.5884636487,0.7785982384,-0.7460732261,-0.4465184629,-0.7464748575,-0.3177439628,-0.484964424,0.3120578392,0.3535965863,0.3678270898,-0.6958441631,-0.8578280724,-0.0612709914,0.2654675724,-0.6867315003,-0.9182156623,-0.3912757643,-0.2009520226,0.0086164271,0.8662689219,-0.3074380896,0.784998917,0.5276527507,-0.7938993589,0.2482661805,0.496583113,0.1558909193,-0.953819576,-0.5749138746,-0.0859752105,-0.7414860477,0.7306890802,-0.6811067305,-0.6251018764,-0.6373877223,0.3868562827,-0.0350554977,0.5538103891,0.3994706619,-0.2336535903,-0.6411488798,0.1159777091,0.9330847332,0.4973277856,0.7206074988,0.1711768407,0.5167821852,0.9610633572,0.2765117891,0.3272314348,-0.7767949916,0.2763300896,-0.553056013,0.2294346152,-0.4507809031,0.7897941993,-0.0148547456,0.466570705,-0.2184414041,-0.5973888154,-0.7536854695,-0.1360912451,-0.310904267,0.559967876,0.6761612328,-0.9550098392,-0.1234693572,-0.1300158486,-0.4536622271,-0.8548286996,-0.4235492386,0.1180843805,-0.2943626978,-0.9700038709,0.9346282061,0.3995518712,-0.513723075,0.3578626092,-0.0496452366,0.0449170206,-0.7758616011,-0.9185249365,-0.1705464041,0.7101454026,-0.7812757609,0.5401040828,0.7922127502,0.2097354811,-0.4409175403,0.5438714929,-0.534902407,-0.1753336284,-0.8330364247,-0.3752321396,-0.1748660129,0.0490676773,0.4814400936,-0.9649350833,0.836030615,-0.6359764561,-0.3152438005,0.4369842507,-0.5432357184,-0.588935604,-0.0342291896,-0.1650391776,0.012400521,-0.3172570138,-0.2136153457,0.6642735328,0.2889990859,-0.3674903985,0.5673007743,-0.1885781464,-0.7485268815,-0.58574257,-0.5345841127,-0.9923815448,-0.734402774,0.9286042758,0.7134973619,0.8903294198,-0.305576993,0.3336688463,0.6240547427,-0.7759167829,0.9086835154,-0.0808620579,-0.5482735035,-0.132193957,-0.8144841255,0.4209661991,-0.5555977113,0.912495086,-0.1067805604,-0.8413833595,-0.8059268185,-0.829414823,-0.3711759995,-0.7323923446,0.2192458476,0.0168527859,0.4063147731,0.5071807895,-0.2277983567,0.4246258897,-0.5747438319,-0.8888486329,0.8411372852,-0.5278147264,-0.8544315338,-0.3131077151,-0.3886208699,-0.7536684869,-0.1948910353,-0.2455550955,0.1392316853,0.6968895087,0.1162376012,0.2169378479,-0.0775423751,0.4617671491,-0.440396073,0.6338737103,0.0571884447,-0.0293520613,0.242714036,0.078529823,-0.6044978621,0.0808342912,0.6282995801,-0.7783393329,-0.2874808098,0.2978489954,0.2410818319,-0.535198313,-0.4783566211,0.0024713143,0.4623156945,-0.7144409901,-0.2267469943,0.1661017609,0.6918655329,0.9990187297,0.1527121857,0.9326662744,0.536079699,0.7527103867,0.0041824647,-0.5705880988,-0.0427777647,0.5563855679,-0.1271714379,-0.2924040073,-0.0320287589,-0.4824599371,0.1391814793,-0.8187075564,0.7916982954,-0.3372499395,0.9170835762,-0.0101735099,0.1105158803,-0.5238082385,-0.181190542,-0.1707160248,0.6722088314,0.0989482571,-0.0883474552,0.0162997168,0.391471858,0.4436368877,0.0798607677,-0.819529927,0.4753953091,0.3629348859,-0.7185155983,0.1476298372,-0.8720561606,0.1379203626,-0.5332672922,-0.9691436897,0.3920809298,0.0062107357,0.6728112502,0.6167589941,-0.4020344165,-0.0735213769,0.751666067,-0.8674905745,0.7528256726,-0.3295045974,-0.9059262502,-0.1631471725,-0.8777510692,0.229199335,-0.3692752193,-0.3299279758,0.0760749939,-0.7637192198,-0.1442655909,-0.6674215417,-0.1572310063,-0.8204653494,0.0503792047,-0.7432356493,0.3165032038,-0.7743643857,0.5401377435,-0.7678347095,0.06780861,0.6896899954,0.3491049446,-0.4907262511,0.3385035432,0.9083219311,0.54579314,0.1100062678,0.7519887829,0.2907007788,0.3027028148,0.3809859259,-0.7829937148,0.18786426,-0.2132133697,-0.9818706886,-0.9450509473,-0.7855703657,-0.479120667,-0.216515206,1.0236769752,-0.182124036,0.26619251,0.1111734797,-0.7327798569,-0.6987298207,-0.3978667049,0.6916212715,-0.4852447911,-0.9899978532,-0.1996433299,0.7647926581,-0.4769758814,0.9852816443,-0.0350103526,-0.8382455745,-0.9229083098,-0.8143324209,-0.9259782392,0.0807722939,-0.987615035,-0.5336437352,0.0132610761,-0.7870476589,-0.4316867543,-0.679826719,-0.6618745281,-0.0204613456,-0.6563011885,0.1091833296,0.2154492255,-0.0661695613,0.3937491662,-0.4027489212,0.3922636148,-0.7627498137,0.7938013477,0.6472184236,-0.2626492487,-0.9246589253,-0.6216881958,0.7363460127,0.8410858848,-0.5505383099,-0.0945429338,0.5369631899,-0.4748368292,-0.4730916547,-0.1404397922,-0.6610642137,-0.8022867246,-0.9678623651,-0.9143295143,-0.1521109208,0.2110478781,0.5835757009,-0.5192704234,-0.427882658,0.9143472789,-0.2457741612,0.5960472708,0.600346566,-0.726296463,0.0075350125,-0.7010803415,-0.9536834959,0.9073280664,0.3388215425,0.2184576328,-0.1799761155,-0.9465498674,0.5200962826,-0.5530754629,-0.3109148089,-0.5426143728,0.3001365205,-0.4050729407,0.2813141323,-0.9968191372,-0.9268626259,0.7908728291,0.7516994832,0.6593006756,0.3747414301,-0.8388469412,-0.8802426573,0.0112629102,-0.3049009805,-0.1722928464,0.839928767,0.9503120364,0.7253580225,-0.5902848206,0.4864889758,0.5558621829,-0.6672158772,0.0616421736,-0.9680478995,0.599424677,0.3517200365,-0.2559275484,-0.120463323,0.5760820893,-0.3806218036,0.5428480477,-0.3044341733,0.513307654,0.9510494003,0.612841456,0.5904178833,-0.5865567342,0.9409769271,-0.1761141945,-0.3206477214,-0.1751320179,0.2959167878,-0.0769070094,0.4213385018,-0.6616049166,-0.415469847,0.7578570702,-0.3714508536,0.3769908258,-1.0343829847,0.1934427228,0.2106581559,0.9671934776,-0.8833765445,0.5717122656,0.4585131369,0.3969619336,-0.475744545,0.4098082957,0.9448366233,-0.9941148059,-0.4236499987,-0.8801503828,-0.165220912,-0.3450726574,0.5250619433,0.8374794097,-0.3391661266,0.8133883359,0.7747831428,-0.7825410608,0.0419182832,-0.6969261381,0.3503682871,-0.7728906659,0.0445423469,0.355945493,0.3563998691,-0.1065456699,-0.4326144461,0.5037606646,0.4315270887,-0.9936705674,0.2192416563,-0.2749206729,0.4471310725,-0.3144208311,-0.1050336715,0.9604793584,-0.8342791627,0.6940029451,0.0936701573,-0.2654741704,0.2064897673,-0.5053950003,0.9474318684,-0.6637545276,0.6973248867,0.697263558,1.0203330499,-0.7377572809,0.3015710034,-0.9027590358,-0.972209024,-0.795549461,-0.6507350117,0.6795498785,0.0894349979,0.6727854044,0.3945991634,-0.6067420477,-0.1340869663,-0.8701720056,0.0371173105,-0.0044778421,0.6671794863,-0.9870659778,-0.7355966775,-0.6831638407,-0.5244118293,0.0474217582,0.9681253414,-0.1019731752,-0.0720103466,0.5070048911,-0.0754785098,-0.3466704594,0.6425608388,-0.1037283159,0.1020188584,0.0857706802,-0.6201595168,0.7328900019,0.2070966888,-0.7848829425,0.5951046615,-0.5172552861,0.1501866356,0.780342123,0.8065959481,0.2397714418,-0.8210931101,-0.4079757782,-0.131836546,0.0742334248,-0.2564898117,0.7442537605,-0.1060390975,-0.5083537935,-0.8976674494,0.9775267241,-0.0423220788,-0.4470121273,-0.2216890726,-0.3467759874,-0.0100712899,0.3877183777,0.4619622087,-0.8761108368,0.1862946434,-0.9397791093,0.06261417,0.2211306801,0.4649676811,-0.6053911375,-0.6854896004,-0.6012114234,-0.7925549361,0.3667018467,-0.8245688475,0.3837944391,0.6628536524,-0.5408310291,0.9546845674,-0.4686750973,-0.8137544279,0.5232924351,0.7645702702,0.9856738637,0.0246945323,-0.9148572188,0.1610773519,-0.2663814446,0.3613853824,-0.9050666195,0.765461233,0.4330200146,-0.8499355199,0.6512740484,0.3529039647,-0.8695733691,-0.3086253596,-0.7603893412,-0.8284677835,-0.3991408399,0.2547616088,-0.4497467623,0.1194328699,0.546825467,-0.5352622731,-0.2021092293,0.2051659469,-0.4691110897,-0.2469023188,0.5639309244,0.4947912178,-0.4542408806,-0.5695630127,-0.3633641203,0.0858256626,-0.8798754121,0.3057983782,0.1320503665,0.5588048593,-0.9484350882,-0.4654815104,-0.511601178,0.8325934855,-0.4828012163,-0.3977990201,0.8864903185,0.1280740353,0.0563284245,-0.8892728099,-0.4000851365,0.7395665363,-0.4520594637,0.390006489,0.5608443163,-0.1798896234,0.6425536797,0.7085678327,-0.698542934,0.2901874679,0.1542702757,-0.0555636682,-0.5860749323,0.5240567213,0.0700892249,-0.6304346186,-0.2575750045,-0.1329854039,0.2544884232,-0.6343199162,0.2886960397,-0.4448864952,0.1045298395,0.5193138923,-0.4580737541,-0.2727981486,-0.5279173164,0.4068299884,0.8457547668,0.1080582518,-0.9571639103,0.3265262389,0.2356929358,-0.386987987,0.2395602045,0.5966896063,0.3380839553,-0.7906045574,0.7126152899,-0.7524987394,0.8750783221,-0.210772986,-0.9393929433,0.958009589,-0.1796294145,0.4139672961,-0.3149488373,-0.3161570607,-0.0037967466,-0.6587433875,0.5404475213,0.1805954362,-0.0724920659,0.3420987524,-0.2486202434,-0.2744973377,0.6092230424,-0.2908839537,0.2964230649,-0.7283450999,0.8270298833,-0.3262921806,0.9163968865,0.9567386301,0.5201435622,-0.5828810913,0.6035197412,-0.0707477359,0.2860150382,0.0915369196,0.5404527983,0.4058286956,0.5109544421,0.9263165993,0.6129608756,-0.3124171554,-0.8327085823,-0.2978648208,0.9850629817,0.7700649086,-0.6434703579,0.2334205145,0.0126588179,0.0677996972,-0.8990095258,-0.3013430709,0.6732773672,0.1189029349,-0.4221141446,-0.9835002503,0.5128257809,-0.8287042155,0.5080580944,-0.8154692773,0.5953364887,-0.1542576323,0.3854421429,0.6635501898,0.1598003393,0.1519328133,-0.0789981555,-0.3115554056,0.799725803,-0.7297595288,0.0000887003,0.2851856003,-0.5975362283,-0.962332167,-0.8006759901,0.5134750401,-0.7398136117,-0.2099158324,0.2205681687,0.016356074,0.2076340854,-0.5349320146,-0.0636914449,0.5550522475,-0.7271306865,-0.9896909305,0.9880162874,-0.2358140209,-0.191179899,0.4850537538,-0.4238481435,-0.0242125967,-0.8530286929,0.7542034433,-0.6237243455,0.1189560795,0.6714565644,-0.602390737,0.3073673044,0.8002948391,-0.8775396909,0.4969698846,0.0222317103,-0.4157100197,0.0842363896,-0.0029822711,-0.2032820925,-0.4219704716,0.3671982095,-0.6382230417,0.8538000185,0.5104929327,0.8662767539,-0.3756487319,-0.3027022596,-0.2836224964,-0.5527508527,0.5677499611,0.0100255769,0.1002175142,0.1808232846,-0.3937012316,-0.3844908139,-0.3799054364,0.1498538868,0.4670358832,0.5846683274,0.7955268849,0.7772157981,0.6436349039,-0.4377433396,-0.2903095937,-0.1432068183,-0.9115672765,-0.0372638757,0.1904953809,-0.5041799621,-0.4279596658,-0.2523326774,0.3362210611,-0.7342350645,0.855685796,0.2033005962,0.5269543506,0.9303876477,-0.0700760898,-0.3868509946,0.5238901111,0.1779248912,0.9741433319,-0.1469302482,0.2992126232,0.0995376825,0.3470102395,-0.0516705479,-0.1866143403,-0.860544077,-0.4561820417,0.7731842697,-0.5417327096,0.0228776229,-0.4722879297,0.4832262554,0.5892166511,0.1166824691,0.6068002069,-0.4177168241,-0.7320473901,-0.2243195225,0.790219288,-0.5346081163,-0.0150991712,-0.6250831953,-0.9324736396,0.6366848074,-0.0089137173,-0.9821193038,-0.0640371798,0.2808696004,0.9370958826,-0.9944146813,-0.4360921303,-0.3405251913,0.845760654,0.3218929388,0.0729379145,-0.0177534082,-0.3500262396,-0.9453341165,0.3624556674,0.4953519587,-0.051587995,0.4607535282,0.3240681167,-0.0186754257,0.4022617719,0.1186756742,0.7055933454,0.3913391077,-0.7581099492,-0.6211833213,0.0472842808,-0.8757237315,0.9623873137,0.711504951,0.2981960785,-0.4525731507,0.0821622668,-0.6472884818,0.6227457377,-0.0667955131,-0.493519568,0.293109796,0.3020927343,0.835901785,-0.7032269538,0.2825104576,0.6158474914,-0.47597793,0.6459032711,0.612604139,0.3265357025,-0.0809639437,-0.7916765374,0.5608056181,-0.5545548368,-0.367240399,0.3953797253,-0.3896356753,-0.5142150306,-0.3049074746,-0.9137332323,-0.131943794,-0.6993413934,-0.2541713951,0.6905474374,0.9067058953,0.8700932334,0.7693479499,-0.8701427813,-0.108277574,-0.0532015876,-0.0272835963,0.9149472242,0.8436336724,0.964675504,0.8936301278,-0.3937652801,-0.2680611016,-0.692400794,0.9120105117,0.2278141893,0.8397228037,-0.4366595742,-0.4576319342,0.1678742475,-0.5211705831,0.0309608099,0.552122637,0.7138253284,0.8328555484,0.2467186029,-0.7528694159,0.8408035519,-0.9352739745,-0.4761680213,0.9678072932,-0.207812755,0.1905449243,-0.8168234898,0.5163006127,0.0175096317,0.5417667078,-0.0023109331,0.655558655,-0.7836605194,-0.0179608239,0.0855025047,-0.5318966665,0.1173630673,-0.1375986069,0.175394815,0.9435306317,0.6189699713,-0.3366667363,0.2260714085,-0.9980349485,-0.8436697005,0.7454692296,0.9220295557,0.6727445035,-0.0973683565,0.7915148945,0.6510504087,-0.2313444668,-0.5803703408,0.3599667012,0.8726392729,-0.9714342535,0.2239758915,0.6749805561,-0.1552530924,0.7154391445,-0.9044948907,-0.2331455602,-0.3346554757,-0.7844270203,-0.0575637241,-0.089463969,0.2225684027,0.1884949488,0.4439175032,-0.7294025613,-0.0712117289,-0.9398504016,-0.0960007544,-0.5531469255,0.335388333,0.571907541,0.7763605542,-0.17720834,-0.1627346437,-0.6211812453,0.7386992654,-0.3037557291,-0.9102991442,0.2134673424,0.4005712754,0.8157038694,0.486345405,-0.4897171548,0.097676272,-0.2623788498,0.0536122172,-0.5859559514,0.0272003983,-0.4935288977,0.4588700467,0.9796878146,-0.3298199988,-0.1997762136,-0.765814593,-0.7538465992,0.2179622103,0.3589047994,0.4695411091,0.1330532825,0.9266962053,-0.9165129425,-0.8889898117,0.3335305372,0.2545794244,0.2913074671,0.5971178819,-0.5909563985,0.7976203877,-0.8709758195,-0.9290246034,0.7297591082,0.8173764472,-0.4905431816,-0.9987379139,0.0930177985,0.2571206421,0.3862611235,-0.8467217251,-0.3978792087,-0.0827217641,-0.3348804571,-0.3989236512,0.0145180521,0.3299306238,0.9774971165,0.2925266692,0.701785825,0.4233567528,0.6727968319,0.9449782374,0.2412472758,-0.4100630147,-0.8274301436,0.5024074719,0.3452811174,-0.6373658377,-0.7709545694,0.8803045388,0.8394422822,-0.3161159562,-0.1934588301,-0.1954787651,0.7179187796,-0.6487198382,0.3174716631,0.2978859283,-0.54414029,0.196720072,-0.4312667806,0.3629981175,0.3875009252,0.8691679634,-0.2471605913,-0.6553843213,0.8170267094,0.8004158624,-0.9950086986,0.3972593343,0.5291193892,0.2236149444,-0.216002613,0.7018648338,-0.2420184315,0.7672645683,-0.9708966388,0.1087834122,0.3856373474,0.1371152675,0.0531614399,-0.1049984015,-0.426691639,-0.7750019607,0.9362986181,0.2504464372,0.0398891473,0.3492256517,0.4955363683,-0.7281832329,0.8496932723,-0.4508859981,-0.297916202,-0.1306513727,0.9121149212,-0.0949717021,-0.2875870475,0.7913264602,0.5929755362,0.9158263043,-0.6230055798,0.0488869936,0.9928218647,0.0731496187,-0.2466198134,-0.4463269043,0.162440222,-0.5748972674,-0.3054691725,0.0051762024,0.4552233917,0.1801529303,-0.7882469396,0.51156595,0.6839703693,0.9441103968,-0.1222468011,0.1170448879,-0.068632328,0.4659343631,0.3281348163,0.6433168426,-0.2899400689,-0.044437205,-0.699638849,-0.9924878418,0.7853269322,0.2737087478,0.7880284086,-0.4033475687,-0.3519417016,0.5523951301,-0.0301040422,0.942906292,0.7913482395,-0.6160065504,0.7817311897,0.5792392275,-0.1309547042,0.8790119855,0.3883417488,-0.2957569711,-0.4632672609,0.0947728501,-0.6938048035,-0.1085061479,-0.6276509147,0.0311301806,0.1863511186,0.2861067138,-0.3107740041,0.1231541551,0.70198084,-0.8807575029,0.0304620585,0.4683304114,0.0809559802,0.2858484578,-0.4567045964,0.9535992504,0.9684372753,0.7727880947,-0.4493813846,-0.4213063807,-0.3573339312,0.7753202352,0.3079511205,-0.705620046,0.5302324983,0.6304235648,0.9670040309,0.8332217379,-0.3282881375,-0.1541280597,0.8723504751,-0.2552968815,0.696649464,-0.8873767892,0.0926124011,0.685001786,-0.8636884284,-0.3993454266,-0.5701741893,-0.451615066,-0.1116782291,0.8253468369,-0.3279973735,-0.0677669403,-0.7295051747,0.3751034752,0.4376372282,0.0480254857,0.8316597654,0.6133915829,0.8901903495,0.8377447124,-0.3983690146,0.7633728257,-0.1179220754,0.1091467651,-0.4993350761,0.4169116952,-0.6916764601,-0.6499442609,0.3537866518,-0.9248917156,0.1323514164,0.4125605042,0.9815616647,-0.8045173819,-0.1985618988,-0.2264973364,-0.7871033574,0.1654221233,-0.5525227037,-0.2378985802,0.0402911269,0.9844544398,-0.9349375182,-0.6591930042,-0.0598439328,-0.0793738942,-0.8840036338,-0.3248719299,-0.9525320371,-0.7561453486,-0.8012785038,-0.2747270996,0.6177373913,-0.4366785318,0.2381486565,0.8809078581,0.3433306971,-0.5004564935,-0.1703544099,0.2630914551,-0.9552051557,0.1088445509,0.5064485338,-0.1856653164,0.7824921427,-0.9931850312,-0.5222534543,0.983104972,0.8335444279,0.8607024832,-0.7042821543,-0.0076133723,0.3141250866,-0.2539223999,-0.8170244577,-0.1890790736,-0.6922441995,-0.3858026225,0.5984612828,0.3891952627,-0.4372500649,0.5976242646,-0.1028004848,-0.390576079,0.0692230654,-0.2628318422,0.0697993722,-0.6127620956,-0.0922942887,0.6534791926,-0.2484663638,-0.5636437431,0.4055416166,-0.1576050924,-0.0161779534,-0.2884507742,0.0284889208,-0.5761080744,-0.3881672008,-0.8355990707,-0.3799446822,-0.5593508684,-0.0023030677,0.0245139466,0.0039822741,0.8596879926,-0.8834482849,0.391588867,0.7092228928,0.6077668384,0.1197433654,0.4608954221,-0.8955507647,0.6074125165,-0.0965258179,0.0657314158,-0.8892766114,0.9497108062,-0.5667747845,-0.5569993004,-0.447028013,-0.2746172683,-0.2355091297,-0.6603449776,0.785671654,-0.2150760193,-0.2156810605,0.2193835132,0.4677523137,-0.7117736035,-0.2230303829,0.7333514173,-0.9733859121,0.6844239297,0.9918903685,-0.3587010957,-0.9290638548,-0.9150592983,-0.3416582548,0.6005129396,0.2375877935,0.5233999414,-0.1272291191,-0.7674416863,0.6543564073,-0.4811766762,-0.0556634565,0.2373354935,0.2150173672,0.3194771703,0.1537036174,-0.4405677288,-0.2343483176,0.9067651608,-0.9190927527,-0.4171723362,0.88340708,0.8071076862,-0.8963797672,0.1237261787,-0.3386548071,0.696729192,-0.4771878025,0.07111402,0.3037263837,-0.6734032626,0.604573137,0.4258057969,-0.7089137408,0.6379277165,-0.9834482317,-0.9838140575,-0.3660877875,0.4931083615,-0.591613171,0.7325667513,-0.9789666276,-0.8208312968,-0.509591973,-0.8081221289,-0.8866823265,0.0792337037,-0.6318683717,0.6646056775,-0.8683747955,0.9990478083,-0.4645872525,0.1855179723,-0.6091256911,-0.4939537178,-0.5680490524,-0.1510127521,-0.4324022661,-0.6291497163,-0.5295196204,-0.9057127534,0.4169540082,0.9527174563,0.888619666,-0.6339179469,-0.317286018,0.951536958,-0.913798828,0.9944783899,-0.5589289897,-0.7803599145,0.1080467183,0.8059937226,0.5274482303,0.0515549405,0.0384956943,0.5710703156,-0.940747893,0.8124089313,-0.1000582952,0.787779579,0.2060879511,0.7611242378,0.9951013646,0.9805947345,0.2385499693,-0.4886677745,0.0847807629,0.9700095245,-0.6437585651,0.2532806596,0.091340185,-0.0209514941,-0.754647223,0.8822660519,0.1690349603,-0.090738994,-0.6245627044,0.5928543561,0.0035549044,-0.0300885856,0.874124849,-0.8132992442,0.5816049159,0.0835162337,-0.3565720056,0.5147261185,0.3725019203,0.1265686852,0.0667491719,-0.6340193364,-0.4418878524,-0.4846873651,-0.605915806,-0.2541339756,0.1624633992,0.289937919,0.4015295132,-0.186378614,0.7139372132,0.5995956483,-0.0893949083,0.1761077764,0.4221691768,-0.3724600966,0.4432684919,0.680258425,0.633608497,-0.058326379,-0.4993809584,-0.5142647017,0.8730176539,0.2752388732,0.8107934301,-0.5432884247,-0.6040735028,0.9842936009,-0.5248781355,-0.8836617427,-0.9997648944,-0.090337248,-0.3221992434,-0.368615948,0.9117603361,-0.5551075996,0.7756672408,0.2164234439,0.4537826936,0.2565775033,0.5527331411,0.5616585146,0.8858347363,-0.7549589573,-0.8024110788,-0.3191658581,-0.6349178113,-0.6626386565,0.8408403837,0.9400848524,0.4073993405,0.0650166569,-0.561154237,0.9153725909,0.0058705489,0.9148279843,0.6547721721,0.8463859549,-0.1167763504,0.714024369,0.0521119033,-0.0970193539,0.0300653093,0.9339944268,-0.4180862302,0.2170375842,0.7723046013,-0.1093935101,-0.7390474534,0.8121331095,-0.0617334849,-0.4629425259,-0.1830393008,0.4042013805,-0.7799075991,0.1534771547,-0.1741583943,-0.3271953804,-0.6558103393,-0.1359029436,-0.2471366427,-0.8012654163,-0.4864859105,-0.816491551,-0.3978786833,0.4957460272,0.0794646783,0.888598936,0.3244427153,0.4421843573,0.2985130144,-0.768820986,-0.9314335223,-0.460481957,0.6386153888,-0.097588477,-0.215832574,0.2697958208,0.6986806505,-0.7211252217,-0.9804410513,0.3009594888,0.1277201465,-0.1256077653,0.2619633485,-0.4674366119,0.6358332753,0.6567242074,0.8986441231,0.8655092136,-0.9761744076,0.840054916,0.5978341879,-0.7421309277,-0.7216575926,0.4544123346,-0.7740392596,-0.0640468741,-0.0729585208,0.8262453158,-0.4861241972,0.5194657193,-0.5377286553,0.1421772143,-0.4398240492,0.4068876768,-0.6307969021,-0.6221005521,0.4248363308,0.4379328604,0.6950470682,0.5791124891,-0.8229847725,0.4747459267,-0.2655388221,-0.9356246749,-0.8290238438,0.0106404693,0.0495930342,0.111813488,-0.8636100424,0.4879012706,0.0341084974,0.65893095,-0.0434255438,-0.2750119009,-0.3152011606,0.5439673484,0.5118421615,-0.3138528323,0.1075456558,0.1166093535,0.0773412996,-0.4176819885,-0.7038564216,0.8019969897,0.4613425704,-0.8350830958,-0.4494450994,-0.9980383389,-0.9135095022,0.1567343084,0.1678892539,0.2509118644,0.146183949,0.2379307177,0.2358226898,0.3106883015,0.7746985034,-0.3730646405,-0.3367219876,-0.3720787679,0.5340582319,-0.360507792,-0.3358346612,0.6845025159,-0.0667660819,0.747051022,-0.5099097719,-0.3700560935,0.7198807129,-0.8784092314,0.3931669413,-0.1914169757,-0.49564322,-0.6300521403,0.9205995687,-0.8130249245,-0.2633343021,0.1657651559,-0.3097845377,-0.0991791549,-0.3970391971,0.5329518146,-0.7076145915,0.3226299288,0.3769814184,-0.2899332813,0.6702263787,-0.3088348855,0.5711600801,0.2296569426,-0.4253576684,-0.1289307606,-0.5002835721,-0.1675405828,0.0477391478,0.9049102176,-0.6151839312,0.3109920947,-0.337581194,-0.4902848327,-0.6729978539,-0.8257872579,-0.506234592,0.3901994858,-0.193040748
