encog,BasicNetwork,java,3.3.0,1,1437696217262
[BASIC]
[BASIC:PARAMS]
[BASIC:NETWORK]
beginTraining=0
connectionLimit=0
contextTargetOffset=0,0,0,0
contextTargetSize=0,0,0,0
endTraining=3
hasContext=f
inputCount=972
layerCounts=1,51,101,973
layerFeedCounts=1,50,100,972
layerContextCount=0,0,0,0
layerIndex=0,1,52,153
output=0,0,0,0,0,0,0,0,0,0,0,0,0,0,0,0,0,0,0,0,0,0,0,0,0,0,0,0,0,0,0,0,0,0,0,0,0,0,0,0,0,0,0,0,0,0,0,0,0,0,0,1,0,0,0,0,0,0,0,0,0,0,0,0,0,0,0,0,0,0,0,0,0,0,0,0,0,0,0,0,0,0,0,0,0,0,0,0,0,0,0,0,0,0,0,0,0,0,0,0,0,0,0,0,0,0,0,0,0,0,0,0,0,0,0,0,0,0,0,0,0,0,0,0,0,0,0,0,0,0,0,0,0,0,0,0,0,0,0,0,0,0,0,0,0,0,0,0,0,0,0,0,1,0,0,0,0,0,0,0,0,0,0,0,0,0,0,0,0,0,0,0,0,0,0,0,0,0,0,0,0,0,0,0,0,0,0,0,0,0,0,0,0,0,0,0,0,0,0,0,0,0,0,0,0,0,0,0,0,0,0,0,0,0,0,0,0,0,0,0,0,0,0,0,0,0,0,0,0,0,0,0,0,0,0,0,0,0,0,0,0,0,0,0,0,0,0,0,0,0,0,0,0,0,0,0,0,0,0,0,0,0,0,0,0,0,0,0,0,0,0,0,0,0,0,0,0,0,0,0,0,0,0,0,0,0,0,0,0,0,0,0,0,0,0,0,0,0,0,0,0,0,0,0,0,0,0,0,0,0,0,0,0,0,0,0,0,0,0,0,0,0,0,0,0,0,0,0,0,0,0,0,0,0,0,0,0,0,0,0,0,0,0,0,0,0,0,0,0,0,0,0,0,0,0,0,0,0,0,0,0,0,0,0,0,0,0,0,0,0,0,0,0,0,0,0,0,0,0,0,0,0,0,0,0,0,0,0,0,0,0,0,0,0,0,0,0,0,0,0,0,0,0,0,0,0,0,0,0,0,0,0,0,0,0,0,0,0,0,0,0,0,0,0,0,0,0,0,0,0,0,0,0,0,0,0,0,0,0,0,0,0,0,0,0,0,0,0,0,0,0,0,0,0,0,0,0,0,0,0,0,0,0,0,0,0,0,0,0,0,0,0,0,0,0,0,0,0,0,0,0,0,0,0,0,0,0,0,0,0,0,0,0,0,0,0,0,0,0,0,0,0,0,0,0,0,0,0,0,0,0,0,0,0,0,0,0,0,0,0,0,0,0,0,0,0,0,0,0,0,0,0,0,0,0,0,0,0,0,0,0,0,0,0,0,0,0,0,0,0,0,0,0,0,0,0,0,0,0,0,0,0,0,0,0,0,0,0,0,0,0,0,0,0,0,0,0,0,0,0,0,0,0,0,0,0,0,0,0,0,0,0,0,0,0,0,0,0,0,0,0,0,0,0,0,0,0,0,0,0,0,0,0,0,0,0,0,0,0,0,0,0,0,0,0,0,0,0,0,0,0,0,0,0,0,0,0,0,0,0,0,0,0,0,0,0,0,0,0,0,0,0,0,0,0,0,0,0,0,0,0,0,0,0,0,0,0,0,0,0,0,0,0,0,0,0,0,0,0,0,0,0,0,0,0,0,0,0,0,0,0,0,0,0,0,0,0,0,0,0,0,0,0,0,0,0,0,0,0,0,0,0,0,0,0,0,0,0,0,0,0,0,0,0,0,0,0,0,0,0,0,0,0,0,0,0,0,0,0,0,0,0,0,0,0,0,0,0,0,0,0,0,0,0,0,0,0,0,0,0,0,0,0,0,0,0,0,0,0,0,0,0,0,0,0,0,0,0,0,0,0,0,0,0,0,0,0,0,0,0,0,0,0,0,0,0,0,0,0,0,0,0,0,0,0,0,0,0,0,0,0,0,0,0,0,0,0,0,0,0,0,0,0,0,0,0,0,0,0,0,0,0,0,0,0,0,0,0,0,0,0,0,0,0,0,0,0,0,0,0,0,0,0,0,0,0,0,0,0,0,0,0,0,0,0,0,0,0,0,0,0,0,0,0,0,0,0,0,0,0,0,0,0,0,0,0,0,0,0,0,0,0,0,0,0,0,0,0,0,0,0,0,0,0,0,0,0,0,0,0,0,0,0,0,0,0,0,0,0,0,0,0,0,0,0,0,0,0,0,0,0,0,0,0,0,0,0,0,0,0,0,0,0,0,0,0,0,0,0,0,0,0,0,0,0,0,0,0,0,0,0,0,0,0,0,0,0,0,0,0,0,0,0,0,0,0,0,0,0,0,0,0,0,0,0,0,0,0,0,0,0,0,0,0,0,0,0,0,0,0,0,0,0,0,0,0,0,0,0,0,0,0,0,0,0,0,0,0,0,0,0,0,0,0,0,0,0,0,0,0,0,0,0,0,0,0,0,0,0,0,0,0,0,0,0,0,0,0,0,0,0,0,0,0,0,0,0,0,0,0,0,0,0,0,0,0,0,0,0,0,0,0,0,0,0,0,0,0,0,0,0,0,0,0,0,0,0,0,0,0,0,0,0,0,0,0,0,0,0,0,0,0,0,0,0,0,0,0,0,0,0,0,0,0,0,0,0,0,0,0,0,0,0,0,0,1
outputCount=1
weightIndex=0,51,5101,102401
weights=##0
##double#102401
   -6.590675456,3.5349286568,-1.8650253616,0.1541283546,0.5869775732,0.4068906339,0.0464758948,1.4081732822,3.8407239038,0.0378885619,0.3119340751,1.5484541669,-0.1794565406,-0.360808602,-0.7474123782,-0.1369075129,-0.105916971,-1.2537820572,-1.1573285091,1.6366887942,-0.0883570742,-0.837593055,0.3079534538,0.1948416206,1.9713279498,0.5053876002,2.1508934211,-2.2528037606,1.9966320168,0.6336136426,1.6967873292,0.4470160918,-5.1697325674,2.5079404362,-2.2667348806,-0.5814242863,-0.6677895487,-10.6746317635,0.0141680634,-0.5442123067,3.9000987575,-0.5622437572,0.2444887157,0.1560624483,3.7926274785,-0.5758647855,-2.7341700812,-3.9814159472,-2.051738134,2.1520868922,0.7646928783,0.3218860163,0.588736517,0.1641180626,0.4674731695,1.0107191149,-0.7760583706,0.9063574072,-0.1715090218,0.489592141,-0.5980108682,-1.0739549046,-0.2384226781,-1.0673394468,1.007930213,0.4048262848,-0.1647256432,-0.3860404451,0.163050457,-0.4091596728,1.1004958922,-0.6203335509,-0.9165299079,8.2422230268,-0.1018122061,-0.5249490664,-0.8975662213,0.5363506583,0.9974066797,-1.6574734886,-0.7373129604,-0.7503410389,0.5474321562,0.3305171326,0.7116596735,0.090590915,-0.3073623188,-0.679713808,-0.1674612784,1.0583614194,-1.5799015905,0.8107133246,0.4080229527,0.600939379,-0.1806885944,0.5029568569,0.7413865968,1.056501153,-0.8164961158,0.0968585037,-0.0668792977,-0.6772997748,-0.2317064435,-0.7164949538,0.3818741464,0.7428725875,0.3097846549,1.0014251846,-0.2156782596,-0.7116211846,1.0175551981,-0.6245551454,-0.8281989302,2.6825599246,-1.1086805241,-0.5212360358,-1.7554983416,-0.1244589499,-0.330582236,-0.8918354441,0.6391547028,-0.1056587523,0.4117401961,-0.6225104941,0.8230416753,-0.1388556626,-0.1605481484,-0.100802077,-0.8924648554,0.8461821461,-0.5832945888,2.8603039052,0.8580999032,0.1537572194,-1.0151989482,-1.0123012037,-0.5621060037,-0.0781335089,-0.4640032627,0.9243172854,2.6366448785,-0.6817199437,-0.3145966126,0.061586789,-0.9416335745,-1.0926440487,-1.2013569434,0.9836501927,0.0801174131,2.4938973334,-1.0157052943,-0.3538095458,-0.3695456691,-0.6609074041,-0.5166273386,-0.1651166566,0.5391317363,0.9544158387,-0.4995316946,0.319890268,0.3676474293,0.7888569345,0.1032268149,-0.9661668023,0.3933581124,-0.5822934141,0.3021487089,-0.1211625898,0.110836044,0.079910515,-0.8749353297,-0.092864118,-0.8243810265,-0.3943134916,4.3055297264,-0.2727548584,0.5310224054,-0.2573944839,1.0424918256,0.0149001226,-3.4756865867,-0.5436595683,0.0114684646,-0.0823861867,0.603372168,0.3044158134,-1.5775781735,-0.7779985243,0.9941915549,-0.3361827917,-0.0946183823,0.2391853687,-0.5471912258,0.7571947227,0.1082210538,0.3501889402,-0.4336393927,-0.1039206167,1.2556412488,-0.2804507354,0.7433472283,0.7215105774,-5.3488114681,-0.6203373989,-0.3807253643,0.9812267173,-0.6346375623,0.2404942796,0.9527653587,0.0419579402,-0.3637549145,-0.4935443603,-0.9376393263,0.1094165935,1.3194706251,-0.6207330672,-0.1815228512,0.3494830262,0.3797920115,0.1438055308,-0.6251520692,0.4604086415,-0.3376259808,-0.4880463081,0.0894646216,0.3000972141,-0.0030694997,0.9238943781,-0.7590198366,-0.121417289,0.6842468229,1.6010419169,2.9543699812,0.322712814,0.6143407219,0.8872028588,-0.1988195247,0.3594093469,-0.1803745034,-0.1562225898,0.2452725637,-0.5734276955,-0.7417428156,0.696318078,-0.6039557115,0.7850380791,0.2422280934,-0.1208547247,0.2091305754,-0.3308976571,-0.0347027074,-0.872021156,0.1150667861,-0.5139810919,-0.11943283,-0.5642808031,-0.0723188102,-0.0164692773,0.1368211073,0.2806158849,0.254890681,0.1377340143,0.5264470653,0.2574023286,-0.5632130069,-0.2096331763,1.5415850229,0.258793117,-0.2700006239,-0.099445559,-0.3191315058,0.1849196714,-0.0501103518,-0.3588393631,-0.7975622453,-3.4026858764,0.9844169607,-0.7705522653,-0.1408072911,0.3826573011,0.3736370118,-1.0873681367,0.6480889869,0.3320779326,0.498970655,0.7413208353,0.4082016668,0.2828921893,0.3427511022,0.1488566864,0.503324739,-0.5872623354,-0.854729332,-0.2063313348,0.0722227937,-0.5369456426,0.0733873359,-0.8269055109,-0.6515430362,-0.1176028395,0.7599982868,-0.1600534819,0.7201025632,0.8336904579,-0.8028555103,0.3532880663,0.5129801335,-0.5689503305,0.5380284604,0.1044379452,-0.107191645,0.4994672322,-0.1693326408,-0.5364551348,-0.9916700732,0.8388276018,-0.6342270507,0.2205502497,-0.0061718538,-0.6442195124,0.7550950411,1.0200792213,0.9496571193,0.4197300005,-0.5149718007,0.9962757121,-0.1090184213,-0.4956664218,-0.7312106978,0.0359935839,0.9292138009,0.0719128189,0.0584069049,0.9221217839,0.1406314228,-0.5625820182,0.9673694258,-1.0815004261,0.4050038744,-0.1353329288,0.3509776908,0.9876623865,-0.7220099834,0.1020319896,0.8643989311,-0.5846467152,-0.6819047893,-0.0685993259,0.5752916409,0.0397996657,0.7127487769,0.6257605546,-0.0871316767,-0.3413190192,-0.0113169337,0.357988971,0.0166355524,-0.3918492481,0.8124414968,-0.8748243206,-0.3703192717,0.0796143828,-0.6367636126,-0.4217958352,0.2971208027,-0.6956725612,0.186235036,1.2751204051,0.1354429709,0.0335221816,-0.8023704286,-0.3548500671,0.651664857,0.7182108184,0.1122377383,0.7050644507,-1.4111385324,0.5659413935,0.1012655836,-0.4998999257,-0.5548483399,0.4553023023,-0.016756361,0.5921746123,0.3920113099,-0.6342934517,-1.0714184505,-0.6313715717,1.1125513224,0.8452929405,0.4562885601,-0.4582695091,-1.0327064394,0.0463610486,-0.152219538,-0.9789953626,0.5292077984,0.6948404838,-0.8457445372,-0.9549964091,-0.9140320651,0.1440539818,0.5961956901,-0.2608857333,-0.8568402575,-0.4381970051,-0.7235256504,0.7733619901,0.8519706063,1.5592449214,-0.4578316845,1.0198955048,-0.7609977093,-0.8367579054,-0.3516834173,0.7796021173,2.3940672674,0.3489687438,0.1374866748,0.9174173233,0.8246232367,0.3888480176,0.5036729817,0.6540785845,-0.2640551432,-0.5187355021,-0.4313173367,0.725547243,0.4906216726,0.1842451915,-0.5907895763,-0.1615773744,-0.5050873927,0.0919364504,-1.1120997207,-0.4568753127,0.791706551,-0.4424023174,1.1758193561,-0.2573603198,-0.1178078257,0.7121189879,0.3195935414,0.4469546579,0.4006086504,0.3139768277,0.8386115713,-0.7371977097,-0.5531123885,0.0429924689,0.4542192649,0.4306501381,0.8264195356,0.7894430203,0.0110489226,0.937970664,-0.7873814521,0.4586870236,0.5167723717,-0.0953898324,0.4617822338,1.1774706008,-0.1696793893,-1.2919154199,-0.7921532864,0.189512957,0.3792643035,0.4034097924,-1.7548483688,0.596669382,-0.8748327982,0.9731149041,-0.0138808298,0.0598788249,1.1015917135,0.8958135204,-1.2744983401,-3.0563503434,-0.0242631581,0.0560649054,0.8749358931,-3.00362734,-0.6712963652,1.957116369,0.5074400042,-0.2255777697,0.2816683738,1.3053848574,0.2069175946,-1.1442655188,0.6070891631,0.4309519752,0.8713925181,-0.2399313085,-1.2341357116,-1.0400687832,0.6057231237,1.2526258697,-1.1424313037,0.8203186996,-0.8798717439,-0.8717113684,-0.9005554217,-0.3793065524,0.2849918213,0.6606521124,-0.6497511063,-0.9011198569,0.6960783431,-0.8250849129,-0.6440705913,-2.3451727083,3.6907778657,-0.214871165,-0.1875470437,-0.6349984152,0.3308749203,0.6330898737,-0.4081959678,0.4319700987,0.4852094439,-0.5510834927,0.0569990096,-0.1747187704,-0.570486613,-0.7360322425,0.2596180142,-0.3059100597,-0.8874984653,-0.7799581822,-0.1310252122,-0.3830145712,-0.1637092848,-0.8757583838,-0.359587618,-1.2458220443,-0.1095056203,-0.186671083,-0.3858106008,-0.7159503546,-1.0153620558,0.1184174714,0.8119953389,0.1595384268,-0.0511349568,-0.7849579138,-0.6515975093,-0.5923972546,-0.6136558314,0.6017609232,-0.8603640098,-0.3861363926,-0.2248913202,0.0237649287,0.8207524845,1.0073098469,1.0805118328,-0.6909042151,-0.0953124069,0.1642818349,-0.3194772558,-0.8319649197,0.533516701,-0.2649431229,0.7162472995,-0.3498641325,-0.8013651849,0.1121349198,-0.4243602754,7.0456857094,1.2354474381,0.9869417842,-0.7351854192,0.9822971142,-0.3161490218,-0.3788403243,-1.002585937,0.317024576,4.5861028408,-0.4827260898,-0.116152422,-0.3179552719,3.6293016238,0.522185816,-1.6373451788,0.4301664499,-0.5283997453,0.4093285419,1.2215183181,1.1870845298,-0.5178069095,0.4266710144,-0.4594688655,0.6944484108,-8.2033422776,0.3625497198,-0.2999458196,0.3403085915,-0.5220976614,-0.5568803706,0.2823602835,-1.1033792431,-0.311830035,0.7657349495,0.0893160291,1.0056236,-0.0453547047,1.055204088,-0.0857352044,-31.3571840377,-0.0430334171,-0.6301623407,0.6557875978,0.0535191621,0.6685063746,0.9043567984,-0.6188034058,0.5009990039,0.7521083709,-0.6606945712,1.1496259211,5.2020964555,0.3930185185,-0.2735677098,0.2635530926,0.2044714131,0.2032356609,-0.226319879,-0.3288756984,0.4937523929,-0.7726606979,-0.834494509,0.4749153893,1.3378424316,0.7111144745,0.7891418849,-0.0641536439,-0.6740781209,0.7974739642,-1.0022407395,-0.1714387951,0.2826010659,-0.3246303378,0.3597316888,-0.130991988,3.9582560001,-0.1828659892,-0.5920505545,0.4326360738,1.4392680647,0.0409677134,-0.9895782758,0.3727241024,-0.0730370377,0.1151859325,-2.3379626262,0.8548435548,0.6446793564,-0.5907528944,0.6436540132,-0.2709980719,0.0625681599,0.0124573919,-0.0897344692,-0.8768054254,0.1783126909,-0.6268757048,-0.3727655759,0.7493157652,-0.1412794719,-0.1462731707,0.1541410409,-0.5984582491,-0.4639268488,0.1671990563,0.6070990127,-0.2351380959,0.945939578,0.646346735,-6.1730417002,0.9232646128,-0.0374763534,-0.0592748806,-0.2345895595,-0.0060573737,-0.8767859333,6.7129329628,0.2421172824,-0.8921401019,0.6171749314,-0.8931570005,4.5377926346,-0.7913514368,-0.7548064462,-0.0419228793,-0.288451079,0.6488203295,0.0536780815,0.3978278126,-0.1156070445,0.0162849072,0.0747683792,0.0746825949,-0.2026947158,-0.4065114903,-1.0378815972,0.6715926457,2.3592298974,-47.4309741325,-0.9835734685,7.8352000672,-0.1090878519,1.4612297846,-0.8785685478,-3.1986359519,-0.7791821737,-0.4978982702,0.8123675358,-0.2402133087,0.146353783,-0.6808588379,-0.8616309784,-2.4066398476,0.7232009382,-0.7167311431,0.2943403662,27.4084602551,-0.2777464767,0.0110415689,0.2629520427,0.0941435345,0.2661214785,-9.7454854626,-0.2181887581,-0.0232765178,0.9204784012,-0.8040069577,0.5165291472,-0.8481080827,1.0121608928,0.52413774,0.0197890585,0.0587898455,0.2837342191,-0.301844116,-0.1785320078,0.3572713126,-0.2898463594,0.1316766545,0.2045727649,0.69718441,-0.2349772732,-0.0295302103,-0.1303603657,-0.2096109672,0.6128381813,-0.7437335693,-0.984706476,-0.1600895355,-0.6501327592,-0.3106218216,0.6456667625,-0.7676564533,0.6256450184,-0.7594283883,-0.565293617,-0.6057163945,-0.2368555204,0.7784033803,-0.322659636,0.4364067022,1.4481110097,0.0568266301,-0.5244207829,0.9048851239,-0.9064891938,-1.0031417763,-0.8070646679,-0.8261110174,-0.331910707,2.4303061437,-0.4382474818,1.0050216007,0.6896447291,0.4392321015,-0.3878173815,0.1150516071,-0.3769529317,0.3281863009,0.5754260293,0.9011265558,-1.2214132178,-0.354955785,-0.8337245483,0.8876466368,-0.3778101278,-0.8942881338,-0.1502409652,0.6944573479,0.3631417038,0.3465335285,-0.2916770339,0.0363062543,0.2420045416,-0.6347875056,0.8655043181,0.7442086876,-0.7288169259,-0.5484259057,0.6619464007,0.3195644271,1.0450648463,0.6698748136,-0.5423047905,-0.810493818,4.3501555306,-0.2707668137,0.1116110091,0.6733421632,0.5919643336,1.2418385541,0.2283564014,-0.44940651,-0.456040509,-0.2268075955,0.9513694606,-0.8056571926,-0.3851940722,-0.7658066269,0.3195596504,-0.0697789277,-0.9749138693,0.1484237933,0.3706809342,0.0570991162,0.040158507,-0.980497416,1.1343339825,1.7760207285,0.9181413669,0.2239881299,1.209514615,1.1349522931,1.4003743459,-0.6466444205,-0.3250349771,-1.2353982219,2.4584608547,0.7459857548,-0.9756361939,-0.9469331103,0.8323843943,0.6345734549,0.887991329,-0.150025633,-0.3809437418,-1.0394618444,0.0572230078,0.3789227906,-0.7529654001,0.001435927,0.4013771009,-0.5829781502,0.6643923709,-0.5816195733,0.5037941299,0.4358129476,-1.0283253363,-0.4607776764,0.1465061259,-1.0646456874,-0.8264442255,0.8278929226,-0.2268334135,0.8929795655,-0.139339933,0.2090473894,-0.2246552888,-0.0283433426,0.9044571787,0.4196881977,0.3373652235,-0.8075118696,0.782047715,0.9527600459,-0.434458322,0.4566767652,4.8529458178,0.204204995,-0.273336108,1.7055691553,0.5631118686,-0.7473924626,-2.8220030199,0.4577884321,0.9538621715,0.6951282691,0.9759748185,-0.9627629035,0.9600693077,0.6493943397,1.1690979818,-0.9816112891,0.4497093947,0.7598489901,-0.9718611462,1.0115632916,0.5853913361,0.4999537226,-0.278875162,0.1053923697,0.612816416,-0.8020166286,0.6425145878,0.2523990183,0.3076801614,-1.0145230564,-0.724631006,-0.7620270313,0.2922730213,-0.3537985386,-12.69227923,-0.2895676769,0.0717357904,2.219573264,-0.6035921069,0.1575190406,0.7278158908,-0.4559160065,-0.2700848232,-0.2618049119,0.3464345858,0.6138545921,-0.4262524567,-2.0248223574,0.3870010174,-0.6531209082,-0.559641869,-0.6364059493,3.2359634692,-0.6484970236,-0.4441298794,0.6876648656,1.4337188067,-0.5790826817,-0.6844381347,-0.8106345559,-0.1227424091,-0.7925706134,-0.3733525017,-0.5194287301,0.1817537169,0.9370807963,-0.880632575,0.8355160792,0.6643873656,0.1160203476,-1.1128083772,-0.4238542328,-0.1544508121,0.0563564322,0.9832454755,-0.3277781346,0.6129697393,-0.0958132758,-0.5668352678,0.3037822639,0.7331355938,-0.0929482937,0.0543411493,0.5515544315,-0.5261795999,-0.8916697897,-1.9294060978,0.1383665108,0.9534377448,0.0298320912,-0.1423363086,0.6832867007,0.9329905875,-0.7187198355,0.8973433249,0.471359855,0.9435519876,0.7959167489,-0.3211469053,11.6594639342,-0.1638939437,4.1300716621,-0.3521616357,-0.9282312383,-0.7189460624,-0.3206951891,9.1784247431,1.3306315876,0.8844853491,-0.2168400509,0.6581316289,-0.6557285292,-0.5624002537,0.3682471328,-1.1506589955,0.560713835,0.408134238,0.3542654311,0.86450603,0.7559327683,0.370651513,0.1579486484,-0.3552729611,-0.9915746819,0.8313339218,0.1399388051,-8.7363640709,0.7393002276,-0.1257786635,-0.4932052414,-0.4226161614,-0.8403877585,0.3407013745,-0.7776581235,0.7652817173,-0.2712297508,0.5484159552,-0.7316893471,14.0655903988,-0.235934444,-0.1862909895,-0.0150176949,0.1506326896,0.4355446354,0.7461846331,0.2373915063,-0.1305673862,0.8644757595,-1.1709582738,0.475098176,-0.8511143907,0.7965432293,-0.570925377,0.4265825695,1.0449582716,-1.0300949312,-0.1714618009,-0.1559034784,0.08475499,-0.9268982009,-0.2299832078,1.2174559352,-12.1160129074,-1.1316101918,0.7227017559,0.6535129163,-3.1716907604,-0.1909641635,0.4687618201,0.7552049129,-0.189924404,0.5505432931,-0.0523662468,-0.8474114948,0.2143990324,-0.6569036802,1.2414613208,-0.7580845651,0.5582377185,-0.2159396982,0.0332318226,-1.4337436406,-0.4951053344,0.7070228484,-0.6149724842,1.0423791332,0.2286178246,-0.072818067,-0.6533986275,0.5964871849,-0.5137883291,-0.3892128313,-0.7121741194,-0.591861667,0.3905204938,0.4918722356,-0.6449925223,-0.1164342064,-0.6075690425,-0.2619963702,-0.5535038113,-0.2620866654,0.0671937776,0.8146889582,0.0410200791,-0.742051875,0.5903561091,-0.8664290889,0.5764498499,0.8328799809,0.3124716517,-0.6547966868,-0.6704269529,1.0557860274,0.2255530317,0.5902281826,-0.7525978767,0.3757425333,1.122099798,0.8897895823,-0.106012858,-0.9039562113,-0.3484253235,-0.701352358,0.9225771125,-0.3687416566,-0.34341456,-0.4747337647,-0.9250414617,0.323301051,-0.1113895636,0.4602637567,-0.6903513374,0.7675726454,-0.4696766877,0.8577451788,-0.7072683254,0.5630830208,-0.5328449824,-0.9392880671,0.6137026515,0.6960421708,0.9010954461,0.3030976424,-0.7442641866,-0.7636670769,-0.8550410382,-0.8516182213,-0.8034545989,0.6375271191,0.1225652563,0.5145190597,0.2760954006,0.5468548128,0.7604250463,-0.2642088538,1.0523847101,-0.92911628,-0.1033884786,1.0238276478,0.7476182432,0.3085405181,0.7548012056,-0.7397784462,-0.4297159697,0.5763685892,-0.0176597509,-1.1886877745,-0.6576525966,0.6903181631,-0.3117656205,0.2984321216,1.0288235582,0.3915354191,-0.38099357,0.7754922193,0.5960966264,0.1700022734,0.5844254799,-0.7394731191,-0.2424433018,0.1603799947,0.4662935089,0.7209642221,-0.8985317536,-0.6455620493,0.3709268239,-0.9037188965,0.7763041335,0.6704447399,-0.1891350473,0.1294389923,-0.5203251336,-0.1466921013,-0.9588269369,-0.3169592468,-0.8915810162,0.1648253197,-0.4493837249,0.4310226397,0.6496806409,-0.2086518912,0.1400126969,-1.2986787871,-0.5622879778,-0.6798437504,-0.238081055,0.0031183971,0.4265285558,0.6703626387,-0.8718913242,0.4684603201,-0.7291421076,-0.887363954,0.3725555284,-0.516928986,-0.2876834738,-0.1705575582,0.5206194571,0.8245475587,0.6398337908,-0.4545851555,0.110910381,-0.9498886734,-0.5436406523,-0.7177904276,-0.3044755946,0.3450816797,0.3195046268,-0.3316540496,0.6694344572,-0.0183266519,0.7817670467,-0.8277373876,-0.133827593,0.6692723816,-0.3690558117,-1.3210697226,-0.8689010617,0.3624041786,-0.196755409,0.0597602309,-0.8455393726,0.3926581909,-1.704705818,-0.5044178162,0.1144237159,-0.7235864943,-0.0594795031,0.4739428705,-0.5306197993,0.368820029,-0.1948496739,-0.5527154624,0.4687836675,0.7379261799,0.3512330307,-0.0569873831,-0.4121027111,0.1474525692,-0.0263065746,0.4592841225,0.1270091204,0.857896104,1.7901689076,0.9141502555,0.4303177444,0.7338568738,0.1275941275,0.1621193746,0.8964404288,-0.8726236001,0.4913163698,-0.8189058952,-0.0382581027,0.0953531375,0.0957855862,0.1136785935,0.194475665,-0.6903113549,-0.8827724037,0.6007875514,0.3861470859,1.012356901,-0.3297740865,0.7284785203,0.1172506894,-0.3016607919,-0.438648698,-0.7009590891,0.729800769,-0.5717342619,-0.3709216781,-0.3878264861,0.4662724666,-0.1458064995,0.0043255158,0.8851443191,-0.6707665127,0.0656073377,-0.3614485734,-1.1122184122,0.20585248,-0.0230457302,0.7413011673,-0.0683956954,0.9451257433,-0.0861614776,0.9178174975,-0.4631168564,-0.7107628837,-0.4330010298,-0.4845277632,0.1218068907,0.0130927689,-0.8433459377,-0.3947895423,1.0028804124,0.8269769782,0.6221864068,0.5404234894,0.4258924707,-0.4195044046,0.9859935646,-0.9883712477,0.3613106566,-0.2010978378,-0.2593620428,0.7458226222,0.5741180446,0.1851326275,-0.8167056546,-0.3655596885,0.9414020479,-0.6700259004,-0.5783736618,0.1385901977,-0.8955471194,-0.2449566259,0.3478534363,0.9581241051,0.8123630247,0.6905299529,-0.6537746412,-0.7757785624,0.8654128149,0.5660520081,0.716961938,1.6166015112,0.6694433278,0.3621652366,-0.0693319476,0.2405331396,1.4277411374,-0.8158861081,0.9517078438,0.7050004568,-0.830610594,-0.7138049895,1.1969366299,0.7495854016,-1.0085026997,-0.0038950429,0.8130306594,0.7390741636,0.2149434668,0.4997644596,0.7555780538,0.146060687,-0.2633909981,-0.6382560585,0.2172755411,0.7989470213,0.2875408605,-0.7418768966,0.0963999379,0.5596239826,-0.2180372534,-0.2360320466,0.4700392821,0.349450213,-0.0297651403,0.3168877416,0.3297823798,-0.6502639451,0.3685497644,-0.0113827325,-0.9145207589,0.2286603775,-0.7760290147,-0.698184493,-0.6806330253,-0.8997206147,-0.7283067428,-0.5230151864,0.6350258307,0.1660260244,-0.2340467409,0.4818128193,7.2462558881,-0.1790279996,0.3054600817,1.3548820644,11.6757311291,-0.4952755706,3.7157519957,-0.5361310964,-0.351376185,0.7382886069,-0.4024285724,-0.4272857417,4.7095980625,0.3522389373,0.0310693912,0.2164576686,-0.9307154442,-0.8920405916,0.8532458389,0.7996683802,1.0356711208,-0.753426529,-0.2825159317,-0.3330478976,-0.6229344031,-0.5839018089,0.2296619265,0.5701293271,-0.1284083386,-0.5673740395,0.2790253007,-10.0950213629,-0.5624213679,0.8793129824,16.3608808306,-14.7647228224,-0.5894588381,-0.8897609597,0.730683182,0.2935193379,-0.4273242203,0.1971425429,-0.385180374,-1.4971354604,0.6979658596,0.7545437519,-0.8250820552,0.846185452,-0.1254350501,-0.1820647582,-0.6334708222,-0.4405242361,0.7348149585,0.1977608925,-0.6605487366,1.4463480411,0.3597181695,-0.8038151837,11.583775037,0.5802367915,0.3103401606,0.7877261209,-1.0265074916,-0.8047262483,-0.0343907053,0.2901797133,-0.3142106581,-14.8911468792,0.8227478811,0.1619595343,0.6268792969,-6.8958500425,-0.6873815881,0.289036551,0.0044888388,0.3785489054,-0.4980530518,-0.2697305991,0.1194962389,-0.0391053251,0.2070229984,0.685804838,-0.8249568204,0.5960760993,0.8232382904,0.143087196,0.9725680715,-0.9885966769,0.0953039995,-0.6380727973,0.7225520582,-0.6306890034,0.815258955,0.5561540485,-0.5418706302,0.6251087697,-0.1025448709,0.2084787796,-0.2479087536,-0.0682649607,0.2227762438,-0.0468067336,0.1152092436,0.3912051073,0.04224284,-0.652412068,-0.0906233369,0.4442662016,0.105881478,0.0143354607,-0.4959377371,0.8562824544,-0.4626363102,-1.0343020908,0.0328995976,-0.2351578489,0.4859776651,1.0921670018,0.6930456042,-0.5874694929,0.5262409908,-0.5635934409,-0.17782818,-1.002012027,0.1232093814,-0.185520302,-0.3161627441,-0.647458405,-0.4665589061,0.3055421643,0.5606071494,-0.7283016261,-0.5335750556,-0.4832348973,-1.2447884619,1.1110630139,-1.067498539,0.1212860246,0.3241001934,-0.2957441288,0.313618451,1.4766729243,-0.0342299816,0.034870598,0.1677659975,-0.4413242036,-0.5954046348,-0.2844136817,-0.4864189613,0.8719537745,-0.9498668556,-0.5103675112,0.4978551064,0.5500365561,-0.3782316034,-0.447078948,0.2899238762,-0.1232323956,0.2955120829,0.1681458856,-0.3719771006,-0.097818625,-0.6849840493,0.2309257529,-0.404409815,-0.0474767655,0.124830091,-0.5107505814,-0.2755463206,-0.8502862392,-0.6694703492,-0.9020924735,0.4538565246,0.8032251901,-0.5241590035,0.8207511844,-0.4944796409,-0.3558817507,0.8841900643,-0.0195139988,1.4350052997,-0.3942242674,0.2540878015,-0.2295201279,0.3370866841,-0.9603408771,0.4180217614,-0.5953177971,-0.4902246265,-1.0378504116,-0.8594968714,0.0378706553,0.1014678419,0.0610125379,0.3224490747,0.1285334973,-0.5050394201,1.500652242,0.2823402867,1.0520349064,-0.7503255577,-0.1518033126,-0.522616627,0.1443919108,-1.1277930969,-1.0240791708,0.4244146777,-0.1046107174,-1.0349828641,-0.6418814458,-0.3617759095,0.5791823101,0.951195253,0.2360066816,-1.0047455573,0.518307153,-0.0634888161,-0.1299909132,-0.6209763088,-0.9162858218,-1.38248572,0.5856070326,0.8475500717,-0.083471338,0.1558351792,-0.9566956935,0.7286060217,0.4430441483,-0.0447163559,-0.1251931906,0.3070376405,-0.4527625951,0.4866915339,-0.7368584839,0.3797100461,-1.3018483801,-0.584886707,1.4197407665,0.4985923904,0.8890113235,-1.1914876723,-0.4801366842,-0.3132415229,-1.1734442255,1.19647602,0.3137142859,-0.2392168516,0.5984462658,-1.2647634183,-0.5850078657,0.1882675637,0.4912357732,-0.3637119566,0.719855194,-0.9330988238,0.4212580354,0.0435575902,-0.1381345087,0.5682755048,-0.4827545905,-1.3924092905,0.842123329,-1.2462556223,1.184040119,0.6103367201,-0.1213170308,-0.8462280406,0.1782899427,-0.256314471,0.5609861889,-0.7443949869,-0.8914124864,-0.9591511919,0.0077289533,-1.2721666504,-1.3418965223,0.5904000911,-0.1407361619,0.0624514141,0.7001809379,1.1904244713,1.0888013916,1.5237508992,-0.5176927583,0.2099364363,0.2420822149,-0.3025577702,0.899945379,-0.2265255265,0.4801403251,0.2029313669,-1.4048702036,-0.4304041622,0.2769811632,-0.2607021343,0.9658164235,0.9146984175,0.9423229005,0.2994643717,0.8415064087,1.378948973,-0.9792587877,-0.6296896371,-0.5049445982,-0.2744048831,0.2266729131,-0.2185931592,-1.3310330425,0.3134849449,-0.5772747637,-0.6046086961,-0.4168427066,0.8949887364,1.0693741274,-1.0271428372,-0.4398643916,0.7261838396,-0.9949548405,0.2071068307,-0.7810583564,-1.1454559851,-1.43572795,0.5627890204,0.4355113772,0.4188978011,-0.2433093603,-0.2007370049,-0.6082109649,0.1130869338,-0.7461353712,1.2475625153,-1.2181003385,0.3887647511,-0.9576174239,-0.8845216341,0.8662120522,-0.6546413865,-1.0531451487,0.3661210949,-0.0426600801,-0.1349841739,0.4412082236,0.3029956682,-0.1079667746,-1.1655576561,1.4413277614,1.0443097232,-0.3839728727,0.4607294268,0.0767100054,-0.6698661315,1.2915417955,1.1239085176,0.8407745737,1.2463444408,-0.4906328106,0.0846413218,0.4522589348,-0.3070685138,0.3726581595,0.1150823778,-1.3327206972,0.7236817421,0.1087317151,1.3075354924,0.1040507362,0.1959577836,-0.7506593334,-0.233491116,0.5072569806,-0.416982759,-1.3051069726,0.1426817308,0.1741173531,0.9237369638,-0.8277939859,-0.5829150844,0.8117507249,1.2252513317,-0.7125830628,-0.5989314745,0.1996585101,0.1117193719,-0.2127947627,-1.7735321857,-0.0622881725,-0.8267103965,-0.445323103,-0.134471682,-0.7128515144,0.4800450686,-0.4821872816,-0.9251501199,-0.6929748218,0.2772581811,-1.9429685059,-0.5890994146,0.5126533012,-0.5169061414,1.0862934757,0.3650167586,-0.2301224504,-0.7010962416,-1.0080550048,-0.1999711556,1.0558407867,-0.546758972,0.6580637563,0.3335511938,-0.0666857693,-1.1524817642,1.9244328483,0.9039329461,-0.3087924782,-1.0119341148,0.8536597138,0.1330533493,-0.2155092487,-0.0194282421,-0.8743258886,-0.4437806233,0.8423245786,-0.0619838033,-0.0137575734,0.6770803544,0.9453126361,-0.0365071037,-0.7996571773,-0.8568305909,-0.2986969647,-0.6413629524,0.0075979436,0.8084237988,1.1409208856,-0.3654603582,-0.6401695606,-0.5114995212,0.4924127665,1.0314709046,-0.7984596711,0.0386186756,-0.0522129263,0.047294576,-1.2454393125,0.6381777137,0.6341467595,0.8986726091,-0.6189846138,0.1597701812,0.6265631893,-0.0720385084,-1.024184615,0.8668333096,0.8430481256,0.0982930628,0.9728094823,-0.7782286528,-1.035648488,-0.0896818976,0.3653066458,-0.6279046747,-0.6500845839,1.356318012,0.2428138633,-0.9573396931,0.1435265204,-0.8379135229,-1.0943009829,0.6606041595,0.3874568623,-0.3341969986,-0.4045038506,0.1064570595,0.1039003138,-0.8716731932,-0.5193941467,-0.7591561026,0.4487578922,0.4700196748,0.5668363802,0.694887074,0.2747306164,-0.3346599327,-0.762447244,-0.2078134304,-0.8444497733,-0.5989455076,0.1876347286,0.5886167872,0.2846757987,0.7706768254,0.6018420254,1.0362902769,0.6587210455,-0.8641933652,-0.7863478489,0.1606094719,0.8932675227,-1.2262669639,0.5221387492,-0.5447624311,0.6503439659,0.2797444015,1.193541373,1.3740177644,0.8712812781,-0.988579603,-0.5176526538,-0.4724574268,-0.5071734824,-0.2335174231,-0.487209399,0.335995154,-0.6302020504,0.0117648634,0.1541100346,0.4160271742,-0.2033932036,0.0889151371,1.0348288126,0.6641312114,0.4021174224,-0.1061157021,0.5956675153,0.8828058247,1.0005112878,-0.1916720261,-0.002544736,0.804431402,0.1624291702,-0.1737480264,-0.4746077558,-1.1204919034,0.2327634819,-0.1268998871,-0.2665129554,0.7527718549,0.5844200528,0.648767997,0.417940283,-0.5574911248,-0.2449760905,-1.4352656435,0.7501442593,-0.6445195074,-0.9902353941,0.1673608565,0.6168414907,0.6748243535,-0.2362184863,-0.8469068404,0.1512075612,0.0368386434,-0.0776065966,0.7119452263,-0.7342832302,0.1236986542,0.9373262344,-0.0734012077,0.363871777,-0.5819027291,0.5581629044,-0.8954576016,0.319335857,-0.2252703982,0.5169770814,-0.1371405104,-0.135951769,0.631185025,-0.5218686684,-0.5548030225,0.5849307141,-0.121429187,-0.1211883667,0.9800505604,0.56520448,0.4382976517,0.4705415411,0.4067336428,-0.6174890593,-0.1996239904,-0.6721480317,0.3495350422,-1.1097266786,0.1451425865,-0.0224376207,-0.7955673445,-0.6059486201,-0.1935711183,-0.5657188813,-0.5144683353,-0.3585105972,-0.9098400911,0.5135737713,-0.8852919033,-0.5141902144,0.2663133843,0.5728729994,0.1106719263,0.2874961915,-0.7104399877,0.0980408607,0.7609547555,-0.7783112722,0.7877430293,-0.3165008645,0.8819781121,0.6666605659,-0.4489760405,-0.8030061852,-0.7063768083,-0.4853374566,-1.6812648359,-0.4080231096,0.6058871471,0.8438371961,-0.0223252995,1.0317589391,-1.5223672388,0.6582524705,-0.8671243098,0.6201538733,0.807761704,-0.2739294311,0.620502359,0.4220553458,0.8745635179,1.1194551569,0.1299480297,-0.7016076458,-0.8051832295,-0.828734501,0.1977918248,0.8710574775,-0.3496595836,-15.0574804418,0.6880662825,-0.479036157,0.1283931604,0.0331981572,-0.1333941868,-16.4088062636,-0.2767597047,-0.030597448,-0.0695102657,-1.433784986,2.3614174067,-0.3825656032,2.0270568036,-1.03857351,-0.3350931047,1.1071404713,-0.9773290674,-0.7129472636,-0.3599615956,0.1806291393,0.4098314763,-0.8765960139,-0.7702449392,0.6195073312,-0.7944380911,-0.4585055824
   0.0978110707,-0.5601317886,-2.6261255433,-0.1445814862,0.7501505965,0.9884642071,0.5532308374,-1.4992211388,0.491163924,-0.9533625059,0.665145449,-0.0004793586,-0.1874129009,-0.4490891217,0.6262199454,0.9607553117,-0.8868887954,0.5709536688,-0.1045172744,0.2240065685,0.5150816149,-0.0060249138,0.4140700365,0.9830201169,0.5221448247,0.4448344083,0.7122839276,-0.3226169075,-0.7924044662,0.0833277161,-0.5938592096,0.1559591419,1.0602287222,0.5567928038,-0.0903077386,0.2366700587,-0.4691737945,0.1185287901,0.9002590284,-0.0494128857,0.2238757462,-0.7352638574,-0.3187318722,-1.1081058567,-0.0682389725,2.6273824019,0.2053293628,0.4797963033,-0.2774733033,-0.5909756138,0.3874816785,-2.6974710266,0.9042106639,0.6868285811,-0.3734455153,-0.6689758671,0.7217205537,-0.3195685099,0.1210358458,0.4100787856,-0.0417888406,-0.5975945191,0.0872909768,0.3302464042,-0.7666618316,-1.0845151062,-0.3772203587,-0.0307545631,-0.8981570941,0.9976344308,0.9040218217,-0.6327781972,0.9436625546,-1.0187182271,1.4009700656,-0.3523393228,-0.7074206354,-0.6120448174,0.4091303715,0.5575132354,1.1055138381,-0.0638732248,0.0795428688,-0.3847196514,0.7999593984,-0.0651503943,-0.8798399646,0.5767504427,-0.2650421092,-0.8000609886,0.0439615979,0.9784852374,-0.079809795,-0.0730705548,-0.1407969746,0.4718289366,0.0666627969,-0.7975725026,0.9278297594,-0.3548358773,-0.5489096512,0.7310822703,1.0093066904,0.8819169037,-0.6045055051,-0.7598430469,-0.3820381093,-1.0407037634,0.5123335263,-0.4673377172,0.2373689327,0.8600550496,-0.2735504588,-0.2040886527,-0.0562846734,-0.1677878906,-0.6349706551,-0.1951485736,-0.6368638259,0.3901174597,0.5031838017,-0.3214218829,0.5574653652,1.0319117705,0.8976023629,0.4394833885,-0.2689651118,-0.0225565262,0.726658704,-0.6123852132,-0.1053387653,1.2401814631,-0.0616510393,2.939448111,0.0035075311,-0.7240021894,0.0847100923,-0.7638993117,1.234513764,0.715622449,-1.0391146369,-0.0193333711,-0.1617642687,0.4428690536,1.1078817968,-0.2177606631,-2.7185736766,-0.7753165139,0.8283880745,0.0539774171,5.7048514927,-1.0290278249,-3.1747091347,-1.0009585769,-0.9648039091,-1.953825756,0.0117081022,-8.335707626,1.7157079605,-0.7374376394,0.2678314108,0.1044455182,0.6099452444,-0.6691557141,0.9665806349,0.4830740136,1.0066243347,-1.0641238108,0.8334303778,0.6552950927,-0.4913463886,0.2482757402,0.2271884196,0.0069178361,0.1615494229,-0.5496392722,0.4364243434,0.6444882832,0.7131634503,-0.2975142163,0.5098341926,-1.2001235835,0.4917178128,-0.0494049346,-0.9920820223,1.3554882968,1.5769710781,-0.6179379561,0.1364912922,-6.7831112045,0.9371485132,0.267350244,-0.1686025116,-10.0499414499,-1.2855017371,0.3028402492,-0.3507851987,-0.1532747105,-0.4971630937,-7.5570900719,-0.9085426384,0.0274388134,0.9962745965,-0.5790949194,0.3281279367,-0.799539312,-0.2569749533,0.5080749851,-3.2933856248,-7.4580294466,0.433122313,0.1581612553,0.1853124724,24.9944742909,0.2645608142,-0.3561548583,0.4154449983,0.7127807539,-0.6731823997,-0.4837044036,0.0091098822,-0.4516473624,0.2825529904,0.7437021745,-1.0402016954,1.0003762569,-0.1736882224,-0.4523569006,-1.0351094187,-0.4024347433,0.5688246064,1.3382880399,-0.965158188,0.2391571357,0.3729120765,0.429820588,0.4805145093,0.3528068811,-2.8875966451,0.6776029341,-0.2639243898,0.3916748172,-0.8151639218,-0.6958817843,-0.6082792066,0.5499778836,-0.085571536,-1.2033098881,0.4499559155,-0.2563579641,-0.4448183266,-8.2636594618,0.9158414361,-0.0816600907,0.016654217,-0.1974899429,-0.5258419353,0.6584304377,-0.6120455279,-2.6207017344,-0.3668264726,0.7021687069,-0.0132217572,-1.1460067016,0.8495273518,0.5398170842,-0.7055968014,1.2758616278,0.5690640544,-0.4291954061,1.0474608704,0.5379296682,5.7517365413,0.0537669987,0.0750977956,-0.4587957739,3.7870014554,-0.1776094027,-1.8407305839,-0.6053676389,0.6483693147,1.0791603056,15.9246925298,0.659035955,0.06899639,0.2582228621,-1.3016702767,0.75756959,0.5313525075,0.0921089132,-3.1920590459,-1.5504470412,-0.4711941243,-0.7971966661,-1.1367140087,-0.5865267217,0.5820884352,-0.635844882,-0.9056224148,0.2024551258,0.0680544078,0.2936411394,-0.4150967311,-0.7366541629,-0.5757399391,-0.5831072907,0.7914317771,-0.4224778143,0.0707982392,1.538552172,-1.4640410288,0.5900693106,0.754839386,-0.7093487046,18.8745943169,-0.4828325392,0.4666875718,0.4867192327,15.642106158,0.6728454264,0.7799987849,-0.1704439053,0.468095662,0.1730210017,-0.0548923738,0.3741139799,-0.60446273,-0.3494633429,0.7012143122,-0.4398250978,0.2176959455,0.4353505003,0.0091454719,0.1234853744,0.5697680458,-0.078400228,-0.1447135647,0.9016394858,0.5473265373,3.3782991991,0.7091033992,0.7932279362,0.810170945,0.7718034461,-0.7758207172,0.7408469792,-0.0083842011,-1.39225242,6.7067545531,0.3168503899,-0.4476187441,0.5359423999,-20.1434137495,0.2933451483,0.069077021,0.0369216811,-0.5652667105,-0.3345710987,0.3185849055,-0.2627849606,-0.4336634409,0.8479756985,0.3517982175,1.0427359111,-0.1044515575,-0.4875368675,-0.9619028187,-1.184704772,-0.0905664793,-0.988485343,-0.1181740125,-1.0852050256,-0.6991957519,-1.0689683196,-0.9007465174,0.7156092923,0.5200983102,0.8370140762,0.8625319757,0.6416273317,0.7474737526,-0.9280003781,0.8675044773,2.5357147659,0.1392677526,0.4127985902,-1.1441806448,-0.5196393406,-0.5066678609,0.0235532789,-0.893187591,3.8164133838,0.7796382899,-0.1700546955,0.0722539822,9.7436612936,-0.7126002692,0.4542489818,-0.0354753218,-0.148440277,0.1119290034,16.6487295131,0.6254766055,5.8323581241,-0.7504454974,0.8164531109,0.4289120364,1.1797350798,-0.7939289752,0.0291075844,-1.1214220947,0.3875109637,1.1223281841,0.4184282618,0.5972235761,26.4063189735,-0.3087682621,0.2797258032,-0.6133048536,19.4206363549,-0.126443288,-0.9080986326,-0.8045618935,-0.4279109904,-0.8080126408,-0.0172472816,-0.1925305033,0.6202872068,0.8497827966,0.1367572245,0.1222853794,0.2485089608,0.4707330347,-0.4833050311,0.184348866,-1.1361620119,-1.0945329153,0.793735795,0.6420524613,-0.8644063254,-0.1137369294,0.0210237814,-0.5010793618,0.6080493035,1.0178037033,-0.3236166088,-0.7652471977,-0.3008317051,-0.2888886564,-1.2807807718,0.1849989842,-0.6034640496,0.2391849288,0.0607380682,-0.0782122165,3.8038625993,-0.8236473228,0.7628374068,1.0792955515,-0.6372142588,0.2932556692,-0.3054382228,0.0657610227,0.2918751115,-0.0704937209,0.7693257334,-0.3962251163,-0.213159593,0.1140202715,0.0659137011,-0.9051859218,-0.5150906108,-0.0185005967,0.0944348312,1.0434624847,0.7784069835,0.6068125728,-0.0230012376,-0.5215782931,0.5303860767,0.0263976373,0.5369616874,0.781811912,1.0156956212,-0.2292251134,-0.4156441364,0.3497427561,0.4699398721,-0.4305322884,-2.4215659223,1.1280286596,-0.2660630825,2.1618791524,-0.9993774953,0.6237345546,-0.2823273298,0.8688294394,0.9611753335,0.7638835662,0.7841678801,-0.2608615849,-0.487746691,-0.8999811287,0.3911174067,0.3571619804,0.7230517674,-0.7585858163,-0.7604902764,0.8924394885,-0.6653353798,-0.2872515051,-1.006647008,-0.6965425128,-0.5233834411,0.5973274237,-0.2350950295,-0.9809839067,0.4236941233,-0.0346366188,-1.0284640484,0.6734960438,-0.8794546275,-0.7203689638,-0.7933919614,0.0579251741,0.4481569241,0.8074800103,-0.03806791,-0.7043192478,-0.3900021671,0.9907243572,1.0337068659,0.5594925278,-0.609490358,-0.1459136361,0.0487308852,0.0793834222,-0.3603996092,0.7809702032,0.6286616244,-0.2528662458,1.2140963255,-0.0699415702,-0.6280718824,-0.8490138194,-0.4277304354,0.1884729002,-0.1760043469,0.7475901953,0.1490329902,-1.4629230518,-0.3300932908,-0.2310120698,-0.039879553,0.5687277742,-0.1568471732,-2.5539794711,-0.5732065276,0.9043858468,0.8660316966,-0.4031475717,-0.4988236227,-0.2847126412,0.2112633647,0.2607708562,0.3719900722,-0.9229395134,-0.2490115819,0.2608478719,0.5095681937,0.4771822006,0.2749474622,-0.4527373975,-0.7805209491,0.1488948984,0.2950956261,0.674165895,-0.6935587941,-0.7657784032,0.3738853077,0.422267433,-0.6350417213,0.8755867041,0.9279082964,0.6516540971,0.618450528,-0.0595447213,0.3005522571,-0.7463556209,1.1486237803,-0.991900382,0.5955474587,-0.0784261725,-0.6995112194,-0.8398371039,-0.7972677846,-0.2209239832,0.2022960906,-0.954938817,-0.7693315945,-0.3688304441,0.1854391139,0.0917810975,-0.3898095009,-0.2738906645,-0.3080713723,-0.371470069,0.8735702816,3.5070781604,0.3214697558,0.0706424557,-0.570212685,-0.2714089418,-0.0410980369,-0.9080986004,0.704413696,-0.6823332359,0.9501893423,0.1563681602,-0.1290635449,-0.745465218,0.6081295389,-0.1489102678,0.3209013268,0.598936227,0.0532074391,-0.1657751202,-0.7722398244,-0.7680222841,0.3126212146,0.9698822364,-0.344533877,0.3354607085,0.626384682,-0.8854247853,0.4123439192,0.3721684218,-0.3570764959,0.953633044,0.8162357845,0.5494370881,-0.0047747158,6.956667072,0.8047845513,0.1282861573,-0.8715071575,-0.8100853625,-0.4927051969,-0.3227987506,0.434056398,-0.1772538681,-1.4957949908,-0.2461296838,0.2982421213,1.145012174,1.7380383341,0.2737197417,1.1021405084,0.5552340252,-0.3938386223,-0.6729616246,-1.2536723176,-0.9070354271,0.7482442905,-0.4486270435,-0.8125123985,-0.5521201648,-2.7173026808,-0.2403525249,0.2387069334,-0.968498504,0.7836104327,-0.0066379956,-0.2179131166,-0.9100182563,-0.768484389,0.2899932812,0.8955571269,-0.7239019725,-1.0176177423,-0.1807324284,-0.7472208493,-0.934776553,0.2795909409,0.6959506774,-0.4630853838,8.566954966,-0.6502307748,0.7265572528,0.7660879612,-0.1449578075,1.8640457709,1.005922213,-0.2469284941,1.1934411215,0.219298985,0.6133843146,-0.5007961911,3.8466944015,0.5186408382,-0.6425406015,0.2110196203,0.7027698047,-0.4045318605,0.1000354561,-0.7643699872,0.4172235385,0.6636037424,-0.3297880753,-0.3290042381,0.439647068,-0.7396952061,-0.5713193071,0.648962047,-0.4425870548,-0.3377358982,0.6335791254,0.39802989,3.0048385997,0.5652667119,0.6007116635,0.0945620945,0.6119607117,-0.487418497,-0.362566789,0.5016693136,-0.54797286,-0.6753244916,-0.5215838007,-0.7352025262,0.0392639916,0.3602199412,0.2662829182,-0.754952545,0.3533088498,-0.5248507631,-0.7755330836,-0.693984336,0.7112083801,0.902322779,-0.697642404,0.8258315883,0.7968193466,0.1754524239,0.9333717222,0.6559310137,0.1040982103,0.2906276656,0.7395726449,0.3022342677,-0.9028932793,0.8091169016,2.8971914807,-1.1391552841,0.7106722258,0.9830213307,-0.8161469891,-0.6488259453,-4.9121645816,-1.1881166362,0.2881775046,0.0788469703,-0.334082126,-0.7037736406,-2.6292700225,-0.1166907998,-0.623741731,-0.298175359,0.4492877798,-0.5043625883,-0.2658358313,1.1664367477,0.5461926121,0.8133862031,-0.0901491718,-0.5863957339,0.8516975897,0.5468781864,0.8494856046,-0.53213967,0.6998795484,0.0776592408,-0.8577118374,0.9616609124,0.8770158445,-0.4479392975,0.9704601623,-0.2525089288,-0.5646085224,-0.7289910995,-0.1857952397,-0.9577108924,1.6962496718,0.1314226896,0.176023208,-0.9106123647,-0.7595258935,0.4936077534,0.281284715,-0.3148087489,-0.9968953623,-0.6487781023,0.0773642152,-0.5913447661,0.2144661766,-0.7120703937,0.379892035,-0.4563087828,0.7185295811,0.6390395015,-1.5331911847,0.1388251584,0.2503037182,0.2377208938,-0.1595608481,0.5619542042,-0.3777366943,-0.8502574141,-0.7206234623,-0.3320019187,0.1066530546,-0.4522058484,-0.7627540754,1.0550366801,1.056151418,0.9587865339,-0.5522905043,-0.1590207342,0.1847037415,-0.4643790042,-1.0659208483,-0.5854712115,0.7986282629,-0.6367321341,-0.3430039784,0.82562427,0.7367537764,0.6800237404,-0.7493284078,0.0352824077,-0.2817063255,0.4464589846,-0.9005202429,-0.9589816514,-0.7324349612,-0.2006394235,-0.5446504228,0.4026912979,0.39209012,0.9641269475,0.9330470448,0.2105086724,-0.2146947799,0.3328208693,-0.6212128062,0.7015544967,-0.3676373124,0.6003342455,-0.4015106366,-1.4777204513,0.1648934745,-0.6722802478,0.0022417303,0.2925527693,-0.0000050874,1.0244844911,0.8032250345,-0.5186020593,-0.5379910529,-0.8627624204,0.2133465157,-0.7306765973,-0.9177553608,0.8471904307,0.234828432,0.5496078252,0.7416678077,-0.8691902167,-0.2820062693,-0.6820109469,-0.2364937959,0.4834740349,-1.5055773973,0.0190458996,-0.2650906302,0.5380853762,0.767142325,-1.6659716571,0.0448714528,-0.5270632473,-0.107769414,-0.980063202,-0.8047358342,-1.5341574173,0.1462132373,-0.8850962425,0.5338441287,0.3445069423,-0.8985217209,-1.1205398373,-0.0348182716,-0.7203867267,0.1953368374,-0.408657388,-0.9050241039,-0.2150152674,-1.4706370913,0.2853370338,-0.041443242,0.6706249319,0.9941655772,-1.1717072558,0.0773307642,0.5126306892,-0.1791820309,0.7231325034,-0.4295973311,-0.3669720642,0.9233574546,0.8871886081,6.9460551114,-0.9372335702,0.5823751107,0.7804139965,-0.9580281552,0.7599250031,-0.9769509494,-0.4228228654,-0.8740424171,0.4428645158,0.7183837954,-0.9096201391,0.2400250083,-0.5533090215,-0.1232062655,-0.1126315564,1.0550655516,-0.2381898523,-0.4479177201,-0.5827536975,0.1457093152,-1.4673362773,0.8594546774,0.7453129388,-0.2090366664,0.2045848664,-1.3572709678,-0.493442798,0.0066420916,0.6200371118,-0.9458093177,0.3481464761,-0.1747387212,-0.9256187813,-2.8262958741,0.3854193476,0.207332864,-0.6205069586,-0.569903905,0.8933178478,-1.3854066359,2.804040623,-1.2238596875,-0.8773034053,-1.0655010737,0.2887273197,-8.6267944274,-0.1540713501,-0.4041550976,-0.450809077,-1.4611117579,-0.658373996,0.1361792371,0.1890252324,0.2637641645,1.6724867483,1.4527110883,-1.1583286868,-1.3016690051,-0.5012334922,0.3016884918,1.951623421,-0.4338702595,-0.2103317972,0.8443109357,12.9789205026,-0.5196922797,0.3200176173,-0.5828192505,1.8558668807,-0.1125853291,-0.1134581426,-0.4327627947,0.6642578646,-1.3783767521,-0.158610165,-1.119062486,0.5375367889,-0.44373377,0.8423537665,0.5948215019,-1.0348615097,-0.0546023818,-0.328156823,-0.2996377013,-1.2639713213,-1.0129098704,10.1921698315,0.9583755389,1.033932179,-0.0412050627,-0.5011766883,0.1778055365,-0.1056827075,0.629299851,-0.6313056417,-0.3127756049,10.3582941663,0.6337483228,0.6750583272,-0.6111556657,-6.8591590493,-0.1462328613,-1.2508795543,-0.5338115744,-1.1313730416,-0.3740556054,0.5099500089,0.7194618043,0.6603779999,-1.1042384675,0.4293161292,0.5623337681,-0.8491344754,0.7977168349,0.5015284136,-0.8842771119,0.5881399404,-0.1491448556,0.1280641868,-0.485305378,0.0473503778,0.4569496938,-0.3552047788,-0.1328081257,0.6603992027,0.1570287855,0.5180584672,0.5669133716,0.7294070309,0.3936944722,0.0353387887,0.0645097122,-0.1306797827,0.7922744042,11.4168045991,-0.5619309009,-0.3123458769,0.193747822,0.9207329364,-0.8269482346,0.9876461759,0.717611856,-0.4486710144,0.0876521301,1.0446945283,-0.3924961478,1.1843642509,-0.7925430939,-0.9573199919,0.6452902049,0.4850108818,0.8241536506,-0.6084118477,0.2307435356,-0.2015826557,0.1885223401,0.4305049014,-0.4985739776,0.2760411924,0.8388216509,-0.2908924697,0.8307809949,-0.8662624952,-1.3652175067,0.7119805137,0.3295681579,0.6358144455,0.1254083349,1.1529183097,0.9836717605,0.2114349212,0.2373449024,0.2629315922,-0.6535967726,6.2844213438,-0.1197005456,0.9066524231,0.2106037096,-0.7535488638,0.5478189563,0.9001023138,0.0194344487,-0.112358373,-0.5224446936,0.0821874685,0.1534394188,-0.2566599351,-1.1473284385,-0.3450168517,0.4815614762,-0.0128061877,-1.353742814,3.1564817235,-0.6831724199,0.3474149467,1.1579599915,-0.8828308314,0.7902620276,0.2066707381,0.1115563,-0.8126584392,-1.7354169277,-0.5357716777,0.893200212,-0.3340163256,0.5550355934,-0.9373656554,-0.1159834756,0.0261924737,-0.6310614736,-0.0686768962,-0.0385759741,0.124588326,-0.1109037287,-0.470710363,-2.8047534914,-0.0025155989,0.6663599785,-0.7676845519,-0.0932530173,-0.7255484517,0.4635900978,1.0412521151,1.0376985906,-0.1852130655,0.1884905753,-0.8693247426,-1.0362652837,-0.9327779291,-0.0397119161,-0.996933719,0.6337301891,0.3654381142,0.2789156867,0.2873960941,-0.9586324212,-1.0459922738,0.6171882,-0.7398744141,-0.3922281008,-0.2892629245,0.5829592843,-0.2798581353,0.2343729127,0.9574326559,0.4055144574,5.434517204,2.6191377052,0.3106631591,0.013852307,-0.8108149261,-0.9963298847,0.8796693642,-0.7336276301,0.1852355336,-0.4739063425,-0.1874185549,-0.6806427362,0.0795642621,0.2188989957,-0.7244965327,1.1528723911,0.4989592608,2.0449110019,0.1908372932,-0.2599767308,1.0049988161,0.7810520112,-0.1006877664,0.1020078812,2.6444997208,0.1331213537,-0.3869165387,-0.6021382905,-0.1491156403,0.0650549684,-0.5490136415,0.0337331737,-3.0245289259,-5.3732175947,-0.9207697992,0.0495939386,-0.6658859843,-0.7844943999,-0.9354357846,-0.7079286528,0.1456127476,0.4955924513,-0.5550833862,-0.821517528,-7.613063077,-0.0499199062,1.4507576243,-3.8806752786,0.0405528445,0.3340392249,0.6261608149,0.7345639686,-0.2981210009,1.1766125535,-0.6774898584,8.5037631827,0.6300597179,0.3437727203,-0.1972712183,-0.4701581135,0.0249979966,0.0452870963,0.0944688704,0.7682566041,-0.7452300865,0.5421570566,-0.1146780923,-0.031050991,-0.0779066447,-0.4447705988,0.5398016094,0.823481456,0.3848846564,0.3516047406,-1.0419364761,0.8701851773,-0.4667311254,2.2823376663,0.818756428,0.424734053,0.3550309242,-0.091360651,0.5913257623,0.7658604834,-0.8473617933,0.2375494714,-0.138432499,0.5545275155,0.7885334967,0.3866694969,0.0749670911,0.4551229906,-0.8782959628,-0.6075008103,1.3382136938,0.1881828724,-1.35841068,0.3399670139,-0.0901874778,-1.7428863435,-0.6850399928,0.3900427511,1.0503426663,-0.257812887,0.0630108872,-1.0646071326,0.8468375239,1.2147083706,0.7464099171,0.8472952216,1.0536492031,-0.7048397998,0.0098305383,1.0909517144,0.0657643394,0.0786634823,0.8430351353,-0.7754334993,-0.4267313102,0.3956237073,0.2210207995,-0.8893520266,-0.2394425551,-0.4219523472,0.1343197091,-0.6805724363,0.2825564417,-0.0951686255,0.360531097,-0.7164813009,0.799912194,-0.9085499491,0.1344404851,-0.1224537183,-0.3341520519,-0.3910914817,-0.110414656,0.2806380607,-0.3023760584,-1.0249913078,0.848994093,0.8198366151,0.7332706065,0.5595571596,1.0541387428,-0.1998342883,-0.5561868846,0.1490548092,0.1814891524,0.1655517729,0.2126368418,-0.4334691047,-1.5802958686,-0.3208991281,-0.0671193442,0.5397348973,0.6247356649,0.1157970066,-0.0083390934,-0.4569125392,-0.771618244,-0.7812425883,0.1468385573,0.4964173879,-0.5166256215,-0.2946275791,0.0477872324,-1.2450853853,0.2976923731,-0.3559158376,-0.8437264452,-0.5344096683,-0.9560080083,0.5948869061,0.7056599302,0.2059699101,-0.0974106059,1.0008929344,-1.0121375981,0.3424007869,0.7791039787,-0.7193290219,-1.4594081268,0.5467638408,0.5123173055,1.2178741776,0.6926755524,-0.6703306971,0.6099958413,-1.0672409224,-0.9570839842,-0.3671566964,-0.636489245,0.8824120074,-0.0633640263,-0.7170602646,0.9431033766,-2.1517658661,0.654510997,-0.0032711001,-0.8335582708,0.6078081711,-0.2153375699,-1.2096076666,0.9336289688,0.227650048,-0.1583648291,-0.3548416481,-1.3057975718,-0.1819388304,0.3507367785,-0.9245080307,-0.4124540682,-0.3585465891,0.2616129347,-0.8421303831,0.2095941618,-0.7881274769,-0.4384681276,-0.6630520044,-0.5294533521,-1.3191929404,0.5136817649,0.0454890794,0.1399468112,-1.0198698847,0.7024910177,-0.0643115485,0.2383387733,0.6333621089,0.2858460034,-2.3720989164,-0.0331638172,-0.5046291027,0.7830790772,-0.3340175029,-0.2833535995,0.4002847503,0.1542659548,0.1846357447,0.7376312078,0.0307708931,-0.9286559306,0.15584222,1.1786131782,0.8765820769,0.8181920108,0.7596808333,-0.1330877715,-1.2304491302,0.1609277599,-0.9827663429,-0.4849109256,1.1107289288,-0.8092953947,-0.1499421114,0.4489208845,0.4302117268,0.7822497372,-0.2201684838,0.0226950139,0.0094001124,0.4392140553,0.835677147,0.6850527305,0.9110512116,-0.5119779015,-1.1707257348,0.6345935611,-0.7184966357,0.2295892767,-0.2807707516,-0.6953467959,-0.1594515589,-0.9847286045,0.3108998242,-0.5035677265,0.3551979774,0.8567468668,0.2806955511,0.755759048,-0.6399754352,0.7280230656,0.4322985294,-0.5372906849,-1.0563399776,-0.0175155021,0.0879564468,0.5466272804,-0.8707654252,0.3057558715,0.1853603716,0.778427656,-0.3297935753,-0.5455542123,-0.4785517345,-1.0824577565,0.2016725927,4.5030863594,0.6955662517,-0.0580327586,0.7766687114,0.5399135176,-0.1078680318,-3.3707989081,0.96232721,0.8996984774,-0.8673551404,-0.4987630561,-0.4548374477,-0.4592235172,-0.4630656172,0.7572204957,-0.303582596,-0.3717955745,0.2828814151,-0.3196410494,0.6217521609,0.7133318067,0.9365750081,0.0415642731,-0.6544220874,0.9436075011,6.9121607918,-0.4091708598,-0.9271756579,0.9619475778,-0.0272626734,-0.7396495738,0.5996249432,-0.7597794817,0.5233038855,-1.8864365137,-0.1323198458,-0.5775586942,0.8478771564,0.461059588,0.7008942108,0.5959861086,-0.4618890268,-1.0361119098,-0.9657371961,-0.7315886736,-0.3488195947,-0.7404618278,0.5050953095,0.4665440574,0.3295227358,0.6883957376,-0.1723883469,-1.4615951192,0.2642633228,1.0208022979,0.5263013247,0.0085686043,-0.1661115064,-0.2125417023,1.0295415776,0.8317615743,-9.8407950773,0.2209060418,-0.1162534242,-0.3214229837,1.2638727994,0.8889657041,0.2527251903,-0.5473181835,-0.2601058972,-0.3526110201,0.0854561314,0.0651270184,0.7655973094,-0.6949094736,1.3966336974,-0.4828619039,2.0010430282,-0.7780068744,-0.8676583506,0.0475828816,0.9634006857,-0.0344764817,0.5742475116,-0.3556152391,-0.5498178122,-0.7325272708,0.3829783021,0.1284065275,0.7405356127,0.4605355262,0.1817072112,-0.3249484303,-0.5930111759,-0.7061390037,-1.5088172548,0.7943117249,0.2771004442,-0.0903538878,-0.7313932865,-1.0445517154,0.9156056105,-0.5745825232,-0.5598943349,0.2414114477,-0.514196533,0.564230744,-2.6378814598,0.2362323112,0.9292299722,0.5573172706,0.5106988014,-0.0639910054,0.3708137734,-1.0473377433,-0.8178169661,-0.1440796548,-0.570555478,-0.344325054,-0.8757425141,0.8116060938,-0.2562026662,0.1534235074,0.4394858887,-0.2517503303,0.2977663017,0.9606679485,0.1694873277,1.1990420915,-0.0844204123,0.5588415893,-0.7597009962,-0.4034056539,0.110706771,0.3060385329,-2.0229962451,0.4635821469,-0.5620799992,0.4644142706,0.8351991011,-0.6277887006,-1.2570767426,0.1976460191,0.2516716267,-0.8715471451,0.4740642689,0.5200963444,-0.5579213981,0.3888422502,-0.7081891939,-0.4421794433,1.0263801746,-0.2009091722,-2.0491133305,0.557908972,-0.6956681174,0.7233698818,0.6013762942,0.3011540664,0.3419617286,-0.4983606324,0.4439266122,-0.2878999026,-0.0497420721,0.6437802993,0.363082238,-0.418954886,-0.1576586356,0.9402409126,0.4096667765,0.5891257658,-0.7077434555,0.6337737153,0.3833692205,0.41797569,0.650235412,2.0937139151,0.0668940419,0.4909735607,0.0977844451,0.3198341691,0.7185018216,0.7954686308,-0.0543797346,0.0963785776,0.4623987335,0.0407842715,7.143325929,-0.0307222433,0.6621635345,0.2759571369,0.4709177578,0.8319477681,0.3215716617,0.7674810425,0.5908078669,0.8426373626,-0.4459044244,-0.3481129689,-0.7624973825,0.3972340561,-0.6026686091,0.217030444,0.4196866899,-0.6666752213,-0.793348793,0.9787065934,-0.8522958124,0.898389646,0.3764856472,-0.5750855388,0.001430043,0.4676113601,-0.3280631118,-0.6813515071,0.2780788925,0.4317301404,-1.169313686,-0.2825656019,0.3221369854,0.6483363476,1.1917656446,0.4646351828,-0.1211510726,-0.9465883803,-0.0342027336,-0.1774524569,-0.6712104427,-0.1788131815,0.4797312586,1.2528303981,-2.6598980308,0.0554873026,0.1285100237,-0.0429040162,0.3439152905,0.6885481682,0.6567145079,-0.4446180149,1.2516046397,4.7979720119,0.1342430405,-0.1743125407,0.6766943218,-0.7894522904,0.9827494319,0.7861164382,0.1452223879,-0.0367351348,0.9493245943,-0.0938384342,7.1011359332,-0.9061077229,-0.4841622532,0.4434100772,0.5792024086,0.0731314185,-0.7855669298,0.0440913069,1.0737653689,-0.7322656579,1.0488845294,-0.1058646186,0.4518467163,0.1028388691,0.9830481064,-1.0144372283,-0.2237369587,-0.2961232671,-0.6606028868,0.2408009238,0.0679192656,0.8543265647,-0.901639791,0.5866023556,0.6204947165,-0.339732234,-0.9218354716,0.789110751,0.8937752351,0.0206007518,-0.2660478579,-0.4684699569,0.9323833954,0.3876608906,-0.6620444063,0.2393554433,0.0270394757,0.3748401511,0.377925775,-0.682512353,0.0460644475,1.0832964423,0.4685462295,0.97931239,-0.5097060668,0.0923693036,-0.3338715342,0.7577652226,0.1378263299,0.0966257597,-0.1320164704,-0.1584020945,-0.288494666,0.9514525886,0.444697994,-1.0456049267,0.5301326481,-0.6363245097,-0.5224522824,-0.3036077694,0.6737628425,-0.7826684855,0.598385721,-0.4968336812,0.6083076254,0.3574686297,-0.477032035,0.3196358798,-0.74473296,-0.3588978475,-0.3191119724,1.2483353847,-1.0380991261,0.6455450376,-0.1875379388,0.7863471155,-0.8493317984,0.3163199565,-0.0633181131,0.0717229664,-0.0772674344,0.4199322397,0.4340765367,0.2543622477,-0.0386699736,0.4459534767,-0.9112892673,0.1248728055,-0.6856106365,0.4182597703,-0.1812962047,0.8124118487,-0.9167901545,-0.0255030449,-0.9314865824,0.3524776268,-0.6765889939,1.048465436,-0.9907889193,0.1015005608,0.3217381819,-0.6800285988,0.4599765227,-0.8032409919,-0.1682057109,0.6167676387,0.5404842123,-0.8991296328,0.6217447714,0.3345799129,0.2084619355,-0.1271979024,0.9400888388,0.861795045,-0.191788089,1.3874097852,-0.9910370003,0.7737757987,-0.4415427383,-0.5813941299,0.5767245053,-0.0003772036,0.104113441,0.4763851407,1.1847504676,0.9909476641,-0.5700067664,-0.7019624934,0.5367213423,0.1177349515,0.6330157931,0.3760653141,0.3832895556,0.4126769569,0.7242338353,-0.0993317903,0.9631416826,-1.0343306388,1.4449389454,0.4459753562,0.9960598051,0.6602596689,0.157739392,0.6165287314,0.8345972964,0.2683024421,-0.9985825514,-2.5828750663,0.2193533786,0.1386408434,-0.7787486836,2.2301456722,0.4782028672,3.0160123854,0.4998057768,-0.4556221989,-0.2352156017,0.4400938501,-0.6423725317,0.1498807047,-0.0761765802,-0.1344196543,-0.0707830564,-0.6822862875,-1.2495480084,0.3237422253,-1.3455937484,0.2805420732,-0.0521705912,0.0427851731,0.6776701892,-0.6877525587,0.7625788414,-0.2125780222,-0.4446953134,0.6979686645,-4.8499672711,0.8646556402,-0.3088905799,0.0018171835,0.7239522536,-0.06430592,0.4183987813,0.8552308843,-0.6140953382,-0.6390222298,-0.3994551495,-1.3425048483,-0.2608405323,-0.5422804457,1.9291325367,0.4573543646,-0.6654553333,0.8327740382,-2.0488370933,0.9851324254,-0.3588447831,0.71317729,-0.7428083637,0.162904777,-0.2914563381,1.3792632426,0.5275801287,-0.9880693024,-0.5100503037,-0.3051524846,1.2209378972,0.14499332,0.0455242582,0.3454356216,0.1611259597,1.0174806104,0.9872544118,1.2611295709,0.5689104516,-1.2129828986,-0.0290109076,0.6340849128,0.5184484317,-0.923041213,-0.2180390116,0.8650569598,-0.3754578364,0.9022596936,-0.1542420154,0.760704643,0.7210589691,1.323043569,-0.3886168693,0.8786009719,0.6063371037,-0.7870529505,0.1214486148,-0.1660631001,0.6952302776,-0.8801116407,-1.3317954877,0.0997555037,-1.1439861707,-0.0577182581,0.4881144651,1.3627313853,0.2396913444,-0.3512980676,0.7701377066,0.3021910728,0.6104641079,0.6807689555,0.8981499563,1.268089049,0.3944017953,-0.0579675995,-0.7533973975,-1.289207863,0.6896906011,-0.2554918385,0.1182440181,1.0248276533,0.8489078805,-0.2148316822,-0.2378618582,0.4758437061,-0.078629428,-0.422647494,-0.4511957688,-0.6344798525,0.222213018,-0.7940953184,0.4539596421,0.6867810357,-0.4379428393,-0.7895463888,-0.9961750654,0.5538429869,-0.2063373257,0.4180717023,-1.4879068099,0.9395046194,-0.3964078155,0.0316041122,0.7449231407,-0.3460304166,0.1750597995,0.6075496292,1.3772422654,0.2709225738,-0.2793579459,-0.4009474397,-0.6384900838,-0.4286282814,1.1068639006,1.3166653742,-0.5711811093,1.1868735323,-0.3733601813,-0.6194898315,0.5139050974,-0.3268571936,1.2995661578,1.3751216873,-0.3012377522,0.4570898508,-0.8222189219,-0.4544699133,0.2571382895,0.3253641664,0.3162622302,1.1269192315,-0.3323644631,0.012710717,0.4826211686,0.3149959165,-0.2862681933,-0.2555942515,-0.8405747993,0.7774376527,-0.1463208611,0.9480047914,-0.8121085065,0.5153072206,-0.6154428438,-1.5772275668,1.0842560017,1.3690829098,-0.7467599217,-0.5046917676,0.0270849547,0.6663049141,0.8900067398,0.4993763808,0.9129037274,0.4866564218
   -0.7492237821,0.6197491588,-0.0185781865,-0.3586374157,-1.5519444304,0.7863334073,-0.7596926879,0.1670264786,3.7474458676,0.020856539,-0.1569490523,1.1228100264,-0.5423643319,-0.1767157416,-0.4854004379,-1.0067400657,-0.6622800197,0.9550300358,-0.3891314501,-0.5134060772,-0.3049525388,3.9916923771,-0.9762466537,-1.1782409651,-0.1115239838,-0.6667455798,0.4667207547,0.5931401699,-0.7686137565,-0.8331026227,0.1143893041,-0.8683089953,-0.4007134962,0.883732065,0.8559127047,0.1341813764,0.5767188166,0.5027960983,1.0136081217,0.3378291328,0.7160612272,-0.5923798464,0.4783087755,-0.5670320772,0.3315093132,-0.0306187298,0.5382240126,0.062971454,-0.2875003511,0.3305047497,0.6392336104,0.0505121949,-4.8990263398,0.5088288833,0.3069449562,0.2134373568,-0.3299192307,5.052240951,0.4523118986,0.2426659379,0.2246027411,-0.2347437852,-0.0049415515,0.520821142,-0.1526547682,0.1926782428,0.5321890019,-0.1513316354,-0.4474318316,0.6480879366,1.7890305901,-0.2639139645,-0.2091840265,0.8373154912,0.4716893038,-4.3435990659,-0.7154847473,-0.9679824175,-1.1430135979,-0.6765742659,-0.6205800079,0.7556764381,-1.6546402853,0.7533190623,1.9398927436,-0.8676202108,-0.9573554946,-0.4809163987,0.3560824318,0.6447810308,-0.8339238546,0.2552968164,-0.0653303111,-0.3699522544,0.2610179352,0.7013240343,0.5294189512,0.9463199405,0.193941611,-0.6736460477,0.2194091812,0.6159373831,0.1239753818,-0.411641538,-0.0161037651,-0.4421180247,-0.1536028945,1.6014823687,0.2597194676,0.6491373973,-0.0008682351,-1.0244290819,-0.4666174672,-0.9142583004,-0.8887713841,0.8351850899,-0.0969419397,0.2895099046,0.3121387884,0.5570091952,0.1897096907,0.1904767138,-2.9072871217,-0.9105417866,3.8219674002,0.0162007278,-0.4216139037,0.326233597,-0.5643236224,-0.1152716939,-0.8716586996,1.1312786691,0.3811349748,0.2929342282,0.6223368176,0.8529587726,0.7705930951,0.6513930914,0.4423720899,-0.3465554143,0.3556747255,-0.9682659429,-0.3592559835,-0.3649409725,0.4762704542,-0.5132405158,0.1395217211,0.273625445,0.0537025717,0.0525519393,-0.1900847992,-0.3966489056,1.3755009493,0.7734899103,-0.7742539379,-0.6115593625,-0.0576102382,0.1100362209,-4.8881148471,0.5758860468,0.6707406162,-0.6844621881,-0.4836595125,-0.8747301265,-0.0161702729,0.9787794924,1.0289320894,-0.1236125763,0.7691040281,-0.1799932673,-0.1127089217,0.9406725952,0.6773775275,-0.3848564098,0.2784266694,1.0000744402,4.1519996703,-0.0184997931,-0.8943766413,-1.3230512552,0.2602597453,0.7321400357,0.3210472556,0.9086397835,0.4548319188,-3.3808230986,-0.6115617177,0.2858656827,0.4716046411,0.4900467205,0.8824491639,0.6530721605,0.4481354564,0.3264553943,0.2812427835,0.0373028751,-0.0121622704,-0.6095226157,-0.0735626508,0.8323978696,0.7288848823,0.2534343779,0.1807832089,-0.5894549413,0.254909609,0.8675090392,0.8574146619,0.7656865999,0.1034427099,-0.4049067858,-0.5617180037,-0.8074044604,0.1866538896,-0.309256229,-0.2564699081,-1.5527552812,-0.6240697028,1.1972963056,0.8871516452,-0.0177608193,-0.6606183222,0.7774996052,0.9552035901,1.3641304438,-0.0771665255,-0.2774942813,-0.9870100248,0.2315914771,0.2753085067,-1.3698214051,0.0333094853,-0.3755969743,-0.4669026985,0.9937130733,-0.7506170297,0.6358954658,-0.5588637091,0.8386679402,0.2553155486,0.5382092866,-0.2818684465,-0.5179582942,0.593276286,-0.4710764157,-0.5261157206,1.1291679238,0.0076011861,-0.3123715847,-1.2441317313,0.7666144926,1.1254637881,-0.5690728963,-0.2327605068,0.7282094941,-0.0592637764,-1.0212830284,1.1685884343,0.9913124767,1.220862836,0.9423131815,-0.5580193049,-0.7039362144,-0.9817729413,-0.0637073944,-1.5189196043,0.0731635847,0.248338124,-0.6244347398,-1.4940619049,-0.4490845943,-1.1651833919,-0.1673786529,-0.4369609026,-0.2876458555,0.5186784458,-0.188825647,0.8162773551,0.876631981,-0.8900098983,0.2252757708,-0.5377729393,0.4129533259,-0.2643481117,-0.1900967445,0.505366285,-0.5957514515,-0.175978915,0.8320278049,-0.6739292179,0.9346540131,-0.814384522,0.1914201775,0.8549623472,-0.5410511168,-1.5873252502,0.8881482888,-0.6247485276,-0.4195272174,0.25332539,-0.2591989975,-1.2163065283,0.1115015518,-0.3234629519,-1.0033780914,0.7591037107,0.5572543311,-0.8900519194,-0.7419784122,0.251834884,0.6426790774,-0.276525486,-0.228813873,-0.7578356503,0.9134869279,0.365335515,0.2985620679,-0.3102726583,0.0441158597,-0.4699865153,0.5563033465,-4.0482998694,0.8435651215,0.6965460071,0.6322348609,-2.6591848895,-0.3835536918,1.8656116063,1.0836046888,-0.2267290819,0.5965755884,1.1163780344,1.8178111331,1.2047195239,-1.2038936836,-1.0033787609,-0.7342010503,-4.4675626777,0.3559258427,-0.2108289757,-0.9995227939,0.8799369384,0.4785242008,0.4379007122,0.0763773899,-0.8629901702,2.6632388092,-1.3630230422,-0.7789870918,-0.2158616284,0.7538406798,-0.9532691899,2.558455449,-0.1671170042,0.0314869952,-6.4312285364,5.8400592299,-0.7357436106,1.0220387595,-0.6093280588,-0.6679513077,1.9202328893,-0.6473298059,-0.6752661376,-0.8691213865,-1.2281546061,-0.3955767706,0.5158288645,-0.0716378828,0.7403336074,0.7541753057,-1.4110640707,0.3257882494,0.4465404808,0.8351839087,-0.2862265502,-0.7428758694,0.1133162347,-1.3861293603,-12.2149477361,0.2545569307,-0.8095044844,0.7031770498,1.6686885795,0.227556039,1.1410338174,0.9525220419,-0.8272128023,-11.1006813709,0.6473422591,-0.2381352373,-0.0568484837,-1.2857590201,0.1324217743,-0.2439980169,-0.9017601018,-0.9660449656,-1.2704945182,1.2027602478,0.0715360156,0.5658161236,-0.2613602903,0.5146912601,0.0638913476,0.1991031261,1.1175962213,-0.2525472623,0.578268579,0.5041663762,-1.0450552937,-0.2574016889,-0.6823721303,-0.7228754949,0.3291807042,-0.4743137975,-1.0795594955,-0.1868700019,0.0745855217,0.2697456109,-0.7744860195,-0.6306888478,0.9982580743,-0.7689120897,0.5127385341,0.9514040516,0.7645848494,0.6763850701,-0.6400779126,-2.2797699555,-0.4783310764,0.8252334003,0.7221029798,-0.4276211937,-0.309563863,0.2182849122,0.7242298869,0.7594389767,-0.357375248,0.1555572252,-0.0549700593,-0.8736191193,-0.0179571132,-0.5220674584,0.9518930659,0.1945945613,0.6350136657,0.6388549449,0.7055620298,0.0495075216,-0.7355099144,0.8660253704,-0.3014929089,0.5845371617,-0.1802779853,-0.7364307737,0.0642041518,-0.380189004,0.1843775618,0.0655655707,0.0389249789,0.6603536364,0.3922409076,2.0067539307,0.6916215893,-0.4596160751,-0.7063920556,-0.7230961517,-0.9522740523,-0.9354164032,0.4599076154,0.9815915834,0.4164987566,0.4832405459,0.7335717259,-0.0563163752,0.9245938081,-1.0890239545,0.679838242,0.2021887756,-1.0660664676,0.2378732244,0.3301714108,0.1131926375,-0.2362385992,0.4950817077,0.7788677072,0.1411622272,1.0229541729,-0.1597867547,-2.6365752513,0.463660622,-0.1837996928,0.1107690054,0.4367120338,0.4344580003,0.3869595845,-0.4290415025,0.0600238514,0.3060018362,0.7944914841,0.0981168495,0.7943118537,1.3968497767,0.2163151538,0.5979477841,0.7644434689,0.2400256689,0.7761485228,-0.0062283056,-1.045940858,-0.6005149416,-1.3218945212,-1.0612127917,-0.6303292974,1.0123526287,0.0334142554,1.0649987446,0.2001143983,0.1248391754,1.1275517184,0.0974282262,-0.0755794437,-0.6920064623,0.9448811629,0.0222313897,0.3249911523,-0.4634092958,-0.6203993374,-0.8263944676,0.0491252317,-0.1947942797,-0.9376676901,0.2754103357,0.0185189353,-1.0412422367,-0.0698508216,-0.6316629968,-0.9684253172,0.7489220243,-0.9105948636,-0.984762205,0.3478110066,0.5369792223,-0.3689888427,-0.5000668022,-0.8744696272,0.6420536983,-0.2759810955,1.1961419802,-0.3113084032,0.8566228137,0.2048749714,-0.2903197026,0.1669938862,-0.3258477725,1.0480874496,-0.8655089526,-0.5849512645,0.9498696141,-0.4385702199,-1.1038319326,0.7203362219,-0.8911467563,-0.5369881976,-0.3204533441,0.3563087935,0.8858934633,0.2546284803,0.4063013769,0.5377388253,-0.6894495623,0.424928071,0.3315198466,0.9619495008,-0.4443380173,-0.6688692977,-1.0772417184,-0.6018071269,-0.4588427678,-0.8783468024,0.5840295657,-0.2529690335,0.0073207372,0.3012140859,1.1549714878,0.9134038343,-0.25746913,0.2436997723,0.5875321952,-0.4615700274,-0.5507791449,-0.2599342638,0.5266947705,-0.6675109552,0.0673242055,-0.9240664491,-0.8445317425,-0.019863948,0.878765264,0.0419014691,0.4172185848,0.1813847212,-0.4923020224,-0.3890646471,0.6578361893,-0.6139688964,0.2941758728,-0.0762017869,0.2706927909,0.3801628929,0.8212913548,1.0635240282,1.0919211296,-0.577590252,0.4380955151,1.2149535701,0.7305698228,-0.4230632244,-0.6993929183,-0.6634827778,-0.230473054,0.0257176515,-0.0825982146,0.7817382484,0.0615933781,0.371810023,1.1663702885,-0.8857804616,-0.8755310261,-0.9894180041,4.5791227847,-0.3770535067,-0.7882831282,0.8755405351,0.363368171,-0.5725120853,1.6384902322,0.5613295876,1.2292506797,0.0315145787,3.9147094533,0.5438937188,1.0440320733,1.4220771717,0.7452532745,-0.6128002949,0.2974969398,0.1113320271,0.3520232952,0.4788795941,0.9334981436,-0.8900281904,0.7423984417,-0.9186785886,0.3931049722,0.9008665051,0.1715788013,-1.0224993227,-0.6125671397,0.456830206,-0.2681537975,-0.0858447861,0.1270135523,-0.5111804445,2.2901268475,0.6338984923,0.7456739748,1.5403171809,0.30023355,-0.7183094502,-0.5601428749,1.1124864189,-0.4118583167,0.6284995324,0.038732205,-0.5316581338,0.8467239898,0.0036644477,0.2011273795,0.1075077218,0.8876102487,-0.5729429059,-2.5198624712,0.2232405378,-0.1693388539,-0.4534874078,-0.4590311076,0.7171958663,0.0830490327,-0.8290430509,0.3249819618,0.3429086516,-0.6429727691,-0.2666643938,0.432936695,-0.4761511146,0.9085766543,-0.0682125342,0.4458211104,-0.2374952321,1.5828145129,-0.4012605624,-0.8837561438,1.2489073805,1.1885066902,-1.568182081,-1.0344959857,0.4040312133,0.2604697516,-0.7785507035,-0.3728915224,0.89343078,0.2032912935,0.0889250552,0.7893303209,-1.0695266449,0.0881239752,-0.5047885349,1.0104705527,0.54199242,-0.0433005715,0.4586560363,0.7815060059,-1.2178787776,-1.2374466107,1.7773730224,-0.2215835213,0.4430390955,0.5017309569,-0.4494987731,-0.9426929202,-3.3755900466,1.7615309579,-0.87764176,-0.2732892242,0.8558461421,0.057658766,-1.265018283,0.2312533878,-0.7031860078,0.2828044967,-0.6599418055,0.2905276509,0.5357547866,0.5642840732,0.5725242942,0.3507253242,0.1868502947,0.244664859,0.0341039095,1.5158775454,-0.2736153528,1.3573738681,-0.5228734626,-0.0389493548,-0.4373652775,-0.8563930541,0.9273873531,0.7716779339,0.7922290971,2.9109810873,0.4869506084,0.278430809,0.19193392,-0.1310488189,-3.7221375989,-0.4046036571,-0.2486858738,1.279840579,-0.8472531932,0.9754260924,-0.3238952983,-0.699959937,0.8394474747,-0.0447992302,-0.1566388775,1.1107336776,-0.3230347552,-1.1978042398,0.2300918182,0.1664848156,0.7292216565,-1.3085266129,-3.8339164401,-0.4150696031,-1.3460164013,-0.6261626956,-0.488436039,0.7006427664,0.4917439928,-0.3444391547,-0.0476421828,0.2700368334,-1.2514979821,1.0909770414,0.4770195154,-0.3508025862,0.0328154219,-0.2553301974,1.1213170842,0.0694665929,0.1634364967,0.4075693327,1.0601573714,0.7552668703,0.3704831018,0.5650941695,-0.0983243402,-0.9914007951,0.5781812254,0.394119032,-0.3609630862,0.1669909119,0.8320001963,-0.5115367259,-0.3956619845,0.8841208928,-0.5316314599,0.5125095976,-0.3222196869,0.0304242676,-0.3849365788,0.762101606,0.4648112624,-0.1975249315,0.6137015751,0.0865495652,0.6702460497,-0.5236203022,-0.0401528982,0.9772006174,-0.3972351841,13.5576949101,0.4978006787,0.8147591848,0.2528651801,0.7185276616,-0.6326486893,1.4969501318,-0.6233201214,0.067384607,0.4379679303,0.8160587139,0.4630143937,-0.5988308914,0.5467747104,0.7305537258,0.2179370924,0.4970846772,-0.326965844,0.6458656612,0.3087151337,-0.3561934293,-0.3079582828,-0.0203669231,-0.1597110544,0.9706367838,0.7172335093,-0.467997135,-0.1555156173,-0.0786480159,0.6182973074,-0.9298206788,0.5633043241,0.6214969759,0.6824412956,0.806907658,-0.1667810911,0.8292199673,0.3148059334,-0.8598950761,0.8240492926,0.8223062769,-0.4532471351,-0.7970136042,0.1622963646,0.9110478056,0.1834888671,0.2692699207,0.1569459282,-0.7246055316,0.7273729677,0.0376231599,-0.3572035322,-0.8168925562,0.7989318318,0.9818633828,-0.7105109437,-0.757386738,0.5462661695,-0.1645809243,-0.3633536808,0.6367569638,8.8180383164,0.1462188881,0.5665347695,-0.410805116,-0.4099829451,-0.2870408965,0.1066729474,-0.1879042119,0.5893001225,-0.4534887601,0.2938472829,0.1332430707,0.7035721989,0.2540588396,-0.5527212755,-0.5460487986,-1.0181930549,-0.2952802331,-0.7019999832,0.3473993593,-0.51983761,0.0875360715,0.9656394339,0.6723400594,-0.060750598,3.3032561674,0.6957102457,0.0129701701,-0.7484412188,0.6061420671,-0.5646560073,0.0121896594,-0.5818275723,-0.9462093075,-2.2221867109,-0.6767896994,-0.661884871,0.0632823411,3.9255694158,1.5463351683,-0.693082124,0.2867147986,0.7231085516,-0.3331937007,-0.1523937147,0.2867406937,1.4876354653,-0.2586702176,-0.9219844007,-0.3922043569,0.098482036,-0.2077434278,-0.0777774635,0.8125067358,0.5616668192,0.6365797767,0.8327692739,-0.3253737347,-0.535271831,0.7151261003,0.8040759456,0.8162481473,-0.532742945,0.090703461,0.7202996658,1.0612618161,-0.6774629276,1.0232220229,-0.9046073819,2.0443141619,-0.9151671522,-0.1218175071,-0.4244905746,1.1201490277,-1.1064161689,0.6520459614,-0.7755337511,-0.5090305622,-0.559991369,-0.5721594208,-0.9119326497,0.387198804,-0.3196461663,-0.7336823749,0.638672681,-0.1011935503,0.3746438201,0.144115236,0.0586698633,-0.927303297,-0.3117660208,1.4376101327,-5.8038648217,-0.5690219732,-0.7571644098,0.5061373081,-0.3272999604,-0.6706265397,0.1266428347,0.4611499749,0.1980592887,-3.3270064804,-0.8263300434,-0.4640726761,0.4631945958,1.1510972689,-0.6027145167,-0.4788747489,-0.221935705,0.379321,-1.1341076579,-0.8808427718,-0.6523355999,0.3377270951,-0.3790277277,0.7122666445,0.1760648944,0.3887941141,0.3958428387,0.7317387948,1.462696371,1.1666766291,-0.1128727798,0.5830752077,0.6670056722,1.3720242046,0.6601258858,1.3334258847,-0.4611596274,0.6487886025,1.1955553038,0.4058883192,1.2517624344,0.2188111862,0.9345379877,1.0061692429,0.4121812271,-0.5713533826,1.2389048454,0.6559601954,1.0039622477,0.2739038409,1.1413367353,1.1910038805,0.5655149973,1.322547194,1.4901594324,0.821795485,1.1192615988,1.0026619516,1.370958229,0.3760129849,0.8736241982,1.215197054,1.2219678756,1.0471520332,1.0302632154,1.1429530148,0.7164431116,0.6265256623,1.0709896487,-0.2474632981,0.9198302099,1.0896962403,0.8224811801,-0.4004463794,-0.4881210415,0.8279199947,-0.2290729946,0.9099276096,0.9476736812,0.0843000907,1.2664977433,-0.1539984801,-0.2131059552,0.1325096578,0.2103424242,-0.4627743421,0.5267961185,-0.1821103043,-0.0959744143,0.987869883,-0.4895506488,0.0515753206,-0.5417998544,-0.4952173759,-0.1187255614,0.99081712,0.0660059389,-0.0982308257,-0.579202409,0.3028395472,-0.4900509589,1.2657279146,0.9205745155,-0.1096573376,0.4719256517,-0.0066959793,0.071299194,1.2049080636,0.7691827602,0.2235307317,-0.4574195528,0.5703097756,0.607701695,0.407695994,1.2590919889,0.4715653275,0.4978903088,-0.0584644802,-0.328609267,-0.2692940967,-0.6955501012,-0.2062392728,1.3528367474,1.2951675698,1.4713148169,0.6529124362,0.9128311204,0.4045514313,1.108034619,0.5346710598,-0.3664724384,0.9186232431,-0.1995122771,-0.310539338,0.3647614042,0.6870585928,-0.5460136528,1.006338312,1.0066376345,1.1171899492,0.4502676138,0.1073133968,1.457975461,1.4453709963,0.1036229394,1.1304260303,-0.1825341321,-0.1272918551,0.0390357403,-0.3233338466,-0.3044632657,1.1054883397,0.4720562723,1.159603227,0.5693491266,-0.3489930766,0.6197597708,0.9600357686,1.490093472,1.0031200283,0.8396114249,0.7124437508,-0.4133958676,1.3194502945,-0.4941750505,-0.0937121522,-0.1453935173,1.0120510514,0.5673928468,0.8642487497,0.1011018328,0.5494946388,0.3019780055,1.102882084,1.1060858543,1.3099554609,-0.468285294,1.475177623,0.3445941402,0.1472848188,1.1719998368,0.710967668,0.7330174704,-0.5446964357,1.4265518424,0.986262565,0.5668119459,0.1671969083,-0.0921171958,1.1335951352,-0.0814555189,0.966304011,0.0143029145,1.2105224678,0.3686643532,-0.1855891332,0.1037932751,0.978464046,0.8144714692,0.3469910782,0.4312421179,1.2423115435,0.3391778496,-0.2570252464,-0.5115171754,1.2816889393,1.2278696006,0.3378044912,0.5701323465,-0.3804589714,0.5154117616,0.2261076883,0.5424668402,1.3833149675,0.5165414139,0.2451387059,-0.0945844249,0.1949257467,-0.3978130809,0.3580762025,-0.0985583539,-0.3723242302,0.7571116389,0.507933756,0.2940433452,-0.3771452387,0.7926112555,1.0774604141,-0.2757947507,-0.0315196643,0.970305003,1.1955298453,1.3597656445,0.2586166069,-0.0463707944,0.759439294,0.3030148975,0.0696781566,0.7504518143,-0.3102884148,0.9738994114,-0.6835707413,-0.3340866763,0.743851689,-0.4681403569,0.9737527076,-0.5454179088,0.9454702783,-0.5910271156,1.1200227062,1.3384618134,1.3876292694,0.3157119564,0.7998207299,1.2713277437,0.8736123603,-0.6466984063,0.0293123619,1.2140002572,-0.4092713964,1.2551941802,1.0465432777,0.0861171817,0.822993993,0.2122373317,0.7292915012,0.5661622095,0.1014326405,0.4122641974,0.7515883555,0.8215101513,1.1148688835,0.5703908905,0.2957738166,0.4699311589,-0.2659391771,0.8127975328,0.7143335225,1.0239084212,1.2895220712,0.5431088021,0.6764682185,-0.2369366393,0.6753942294,0.1814606074,0.6748112858,0.4006650375,0.7813844352,1.2878645461,0.6057866059,0.9782470429,-0.0336365309,0.769309287,0.4289181344,-0.6387102822,0.3777597193,0.9224237752,0.334045922,1.2449264824,0.0521244032,0.7684101397,0.8390843263,0.0192565054,1.4441174673,0.5199347467,1.1469652405,0.1475690854,-0.2326970476,1.0380591728,-0.26864093,0.6351892368,-0.0897909106,0.9562381755,1.2307030866,0.1940508655,0.5386849293,1.1137953284,0.1852945825,-0.2363753237,0.1226145891,0.7421097836,0.1865021024,0.2186146276,0.5485255304,-0.077687432,1.2973391505,1.5211447343,-0.547574296,-0.6397948943,-0.1636694854,0.3895768518,0.8378280772,-0.4565485355,1.0594681761,0.3970038756,-0.291630251,1.4237800521,0.0450693152,0.2290268981,0.4317124712,-0.346519676,0.0630042287,0.9667497635,1.1886906947,-0.3879179935,0.0287852001,0.2082918976,0.7379077748,0.9907499438,0.6766143522,-0.9678285372,-0.3588472564,-0.3929458861,0.5603345826,-0.6661943944,-0.4085979502,-0.4034501889,0.0903563625,-0.2689133787,0.895440816,0.9528961662,0.1855549349,0.5322457065,0.5472848398,-0.0796670688,-0.091662492,0.083638047,-0.2803556812,0.4080472788,-0.3701795611,-0.4839886894,0.1431405419,-0.5984433355,0.3743559134,0.9838447751,0.7765891978,0.162514189,0.0503951863,-0.9802989516,0.1192180183,0.6910234868,0.9755075835,-0.041141888,-0.483866786,-0.746564331,-0.9394013243,0.5572681347,0.8423473759,-0.4308611595,0.5056371931,-0.2623310742,-0.2876745567,0.3357966433,-0.3145570497,0.3083937922,0.4508566342,-0.7621847942,-0.9845966743,-0.2156549452,-0.2183949776,-0.3215850255,-0.0589261791,0.9746176569,0.5136060381,-0.1300317355,0.0246199267,0.7282370389,0.2873659514,0.6263046489,-0.5260443066,0.1573954907,-0.7789993018,0.6008394683,-0.5717662072,-0.4346382635,0.3823391095,-0.7169879378,0.4950072987,-0.8816892531,-0.8874346206,0.0301504942,0.4707483983,0.0315223675,0.4649010677,0.6029583781,-0.4862822237,-0.3959195621,-0.6441216356,0.6541271783,-0.7209813359,-0.334653384,0.4140035549,-0.3741482736,-0.4421192672,-0.82199429,-0.6322431832,0.7259507771,0.6916504277,-0.7076805262,0.0739600349,0.8569214211,0.4077784088,0.3897257248,-0.9662889151,-0.9240136866,-0.8913097341,-0.1334687274,0.6801265144,0.5994854806,0.5180763808,0.3832291056,-0.9811447064,-0.0952868091,0.1554981838,-0.7365245861,0.1002304227,-0.9261917357,0.6207868141,-0.5291051602,-0.6841855128,-0.9144415985,-0.814785662,0.1008025041,-0.8655690424,0.9981119779,0.8752836413,-0.9640668066,0.2521907776,-0.5556844797,0.4398808616,0.176842401,-0.6275811196,-0.7958817221,-0.3142896762,-0.9170862235,0.8374773742,0.8391594722,0.4434201652,-0.583135657,0.5458496996,-0.6327130061,-0.2587583212,-0.5848597296,-0.8774531763,-0.0244474005,0.4558144666,0.4755354144,0.3306648579,0.8755026573,0.2719777617,-0.2858299454,0.2980703765,-0.2955528424,0.3373313216,-0.8511969039,0.6856303336,-0.6570972954,0.3097864871,-0.6863912586,0.0679936889,-0.0263874494,-0.8049294422,0.7160238365,-0.9684391954,-0.5606603641,-0.8977206371,-0.6046602911,0.1907330928,0.665867581,-0.3079354907,0.8759010253,0.0712982482,-0.3095946564,-0.0012851353,-0.5112505602,0.8554824947,-0.4799495075,-0.8888450337,0.4334833299,0.1177703383,-0.7186959615,0.59516918,0.8709342076,0.7073499302,0.4305664676,-0.4679186952,-0.5266945566,-0.616355859,-0.3554682187,0.4938276182,0.0009408502,0.2265541378,0.6408393984,-0.03730664,0.3083795445,-0.438133475,0.3505142055,-0.6321437546,0.1592931343,-0.5811870371,0.7354048924,0.3899770331,0.4232828988,0.3319144014,-0.5366285187,0.9224420838,0.3719638586,-0.9168522513,-0.9766742173,0.9526124195,-0.6656921708,-0.8310970395,-0.7061177741,0.4610258105,0.804229331,-0.8595156155,-0.626678483,0.0088482457,0.7445319483,-0.0471113483,-0.3842221106,-0.3477707827,0.7892199915,0.9584100647,0.1720151244,0.3107334629,-0.6396278687,-0.5007640993,0.9266152258,0.8790618276,-0.3347755676,0.158969369,0.7615612046,-0.9655811683,-0.9697993317,-0.4857347192,-0.4325164694,0.6717786144,-0.9750584634,0.8022213963,-0.8546882075,0.7571861204,-0.7714550387,0.9320287051,-0.6040508339,-0.563872141,0.2232466371,0.9233680956,0.245504166,-0.9555591392,0.6181076248,0.8351244517,-0.9953669826,-0.6770461551,0.4738296806,0.2623072009,-0.0939025906,-0.9693441544,-0.2334555831,-0.1909479529,-0.8003619655,-0.9246180138,-0.6616564813,0.4512588895,-0.5435126177,0.3245840607,0.8778923257,0.682200044,-0.5131105064,0.3481862907,0.0331904293,-0.5313566007,0.9113130539,-0.0841585051,0.7611023034,0.863042124,0.2478499693,-0.3025488533,0.9081674123,-0.9186025505,-0.4306084459,0.3638858261,-0.9427548834,-0.3441322393,-0.3807527291,0.6650069601,0.077331861,-0.8344855871,-0.8318546105,-0.6128264212,0.5872086691,0.6696443464,0.1426869163,-0.324359918,0.9151835257,0.4305323052,0.5433321978,0.2847758249,0.8103936876,-0.1236290826,0.9912174318,-0.1118049652,-0.7586775259,0.3102731211,-0.8943211276,-0.4565244821,0.6876189459,-0.7399335173,0.6604465962,0.5581844106,0.4813086297,0.2750254815,0.2372497271,0.200506898,0.7122541162,0.9181592771,-0.4710165365,-0.781595571,0.414876219,-0.1884544846,-0.68003707,0.7970728886,-0.3807661406,-0.1987400158,0.345399048,-0.4083989574,0.8910736149,0.128398459,-0.9879346758,0.1497868838,0.200440793,0.4975764736,-0.9272175739,-0.9775160291,0.7638182144,0.823670678,0.7772607653,-0.8317356999,0.4734827141,-0.52861941,0.8550836894,0.8810571126,0.155050138,0.4914074627,0.5272259789,-0.2751547343,-0.0145846345,-0.0676509814,0.0586347697,0.1689490922,0.7259004958,-0.6651260277,0.6497958607,-0.2695067852,0.9754095673,-0.2863643763,0.3240752159,0.8498076811,-0.6075631107,0.9063190646,-0.3172740349,0.1142703377,0.6078501333,0.2082045305,0.469124333,0.8513947223,-0.7067304228,0.0623165279,0.9475336663,-0.1773356403,-0.4041411067,-0.4508346944,0.9641362445,0.5927123956,-0.6816819461,-0.6510874699,-0.481307233,0.0675406565,-0.4549990565,0.5775051221,0.4160573231,0.21496125,0.4213630501,0.9220446095,-0.373979228,0.9000713127,0.5769374866,0.1201019305,-0.3715969158,-0.6952939103,-0.5462210701,0.2822887192,-0.8051175835,-0.1753411985,0.8412131721,0.1777849908,-0.7308245053,0.4733406828,-0.2953277815,-0.4641262968,0.6639819114,-0.1161342194,0.9259497746,-0.2557739866,-0.9928212794,0.9963445274,0.5701042601,-0.036105789,0.7517474134,-0.6379475056,-0.1305684138,0.9995168494,-0.1968068269,0.5451490245,-0.4984015696,-0.2300531516,0.3431562652,0.4870203596,0.9766481014,-0.9978824597,-0.4728631851,0.3579009728,-0.5790961863,0.0786035328,0.6037985628,-0.9796379366,-0.8015255249,-0.8541086233,-0.4003989432,0.8571374201,-0.3956278777,-0.0527323395,0.1397356464,0.4579458034,-0.2554356328,-0.8345354695,-0.1150347006,0.0009498677,0.8815514328,0.113803502,0.0060765923,-0.5299090256,0.8619602219,0.3660730397,0.500828636,0.0824104581,0.4257011586,0.1933015129,0.78119186,0.2557852664,-0.231018148,0.9290811854,0.9645267721,0.3286623052,-0.5593313909,0.5795600104,-0.8913925541,0.811671153,0.4891500335,-0.2536758333,0.5947476744,-0.9108667364,0.6935639045,-0.1883158453,-0.0445895988,0.9036451555,0.9968152907,0.2156876938,0.0357093509,-0.4853755785,0.8206152609,-0.7467978404,-0.2464730498,0.7730936947,0.7846075891,0.2344897616,-0.8578065511,0.9165158091,-0.0993212104,0.4773334565,-0.9542433506,-0.4769783828,-0.8451984588,-0.6689364846,-0.04538846,0.5464692497,0.7033703651,0.2176728108,-0.4645288929,0.3558318474,-0.6935123225,0.861893699,0.1479806851,0.7641202374,0.4074016999,0.5590071643,-0.1504225247,-0.6863797944,0.6456447521,0.3003799552,0.7880506707,0.4721385578,-0.3949977369,0.8576673283,-0.0276847627,-0.1607100308,0.9112431966,-0.4011596223,-0.6496825298,0.4992130053,-0.3282798028,0.4283043445,-0.8050934906,0.6471760893,0.1990368964,0.1745963359,-0.5921747308,0.9756903567,-0.9083854802,-0.9891263137,0.8302455683,0.0988455482,-0.7620916359,0.3785758913,-0.1652409545,-0.4166466797,-0.3625869226,0.9436197889,-0.0899301762,0.8796653597,0.1507003847,0.1991787651,-0.5546709735,0.550564022,-0.1467962807,0.8675328272,0.8985865842,-0.7476004169,-0.0863453079,-0.3683941363,0.4052203404,0.1492708243,0.2583518348,0.3285970823,-0.1784507299,0.2197833258,-0.1590030093,0.988969282,-0.1526444167,-0.30213805,-0.2805443285,0.1126946604,-0.4525071052,-0.8337142712,0.0645037015,-0.4631660835,0.8917496495,0.1294693465,-0.0135878744,0.9898619522,0.031284804,-0.7025651763,-0.4868343212,-0.8711702953,-0.9556204775,-0.2953167472,-0.8732232712,0.3434913768,0.6233573428,-0.894872977,0.4455167167,-0.2692887226,-0.0148491773,-0.1388403723,-0.892782177,-0.7518127262,-0.4691559883,-0.0794556595,-0.4994841058,0.3537421131,0.8200382395,0.9735532433,-0.2162778664,0.1714483696,-0.0660541163,0.5492142176,0.4843792406,0.2349369652,0.6470945909,-0.9272674282,-0.8111009834,-0.94474197,0.6211179857,-0.4051820293,0.8697654395,-0.7846098028,0.5899906968,-0.5651936932,0.5706612171,0.0781432982,0.1324536016,-0.0246463468,-0.3041617255,0.6487466363,-0.7429785365,0.3301991853,-0.8720357326,-0.7170727093,-0.2470755639,-0.6810070876,0.9579193212,-0.2057155916,-0.8541329357,-0.9909989994,0.362313393,-0.1246328694,-0.5131192386,0.8183361026,-0.5323515789,-0.9517530054,0.2024667637,0.3955144448,0.7175258728,0.4110187556,0.9166787425,-0.3484359478,-0.0147134541,0.5362293145,0.7747129604,0.4472174603,0.7185006122,-0.6864787459,0.9642666151,0.0967427125,-0.3250542818,0.9626433668,-0.047822321,-0.3536235123,0.9460740682,0.5227830267,-0.3748891702,0.003270074,0.2281591765,0.1497460264,0.0257107829,0.5366451735,-0.2955913236,0.2952798196,0.0490986381,-0.1250894254,0.6854218656,0.6457068437,-0.4065191745,1.1686951922,-0.1339269701,0.3228375711,1.1507640246,1.3610268332,-0.1189764964,0.8614151622,1.1073119494,0.0242619157,0.1899573237,0.4393409701,-0.1476894067,1.1413369969,1.016584042,-0.4229505019,0.5244299828,0.240936318,-0.4427292476,0.1361355312,0.1052922041,0.5866781262,-0.4061688794,0.4869004034,0.2160851223,0.59555651,1.3239847522,0.490900004,-0.0771675644,0.0930473041,0.1682042355,-0.5527037794,0.4352342066,0.8331077998,0.0870942998,0.8409908982,0.7646934311,-0.0768257264,-0.2545258701,0.9884006585,0.9021656141,1.0708906766,0.9261821259,-0.0509781327,0.0052392135,0.6455387797,0.3657417279,1.3358655762,0.4439198302,1.4630977497,0.468785499,1.4595235778,0.0282557557,-0.4593884644,-0.2904469423,0.4900078912,0.3425029323,1.2438136824,0.8349626693,0.1970378861,1.3076702531,1.3796920819,0.0834887833,0.4614288553,0.2424728693,0.9921003954,0.8308288496,1.0924931796,1.2495660849,-0.2102943622,0.0352350979,-0.1205411644
