encog,BasicNetwork,java,3.3.0,1,1437646582954
[BASIC]
[BASIC:PARAMS]
[BASIC:NETWORK]
beginTraining=0
connectionLimit=0
contextTargetOffset=0,0,0,0
contextTargetSize=0,0,0,0
endTraining=3
hasContext=f
inputCount=243
layerCounts=1,21,41,244
layerFeedCounts=1,20,40,243
layerContextCount=0,0,0,0
layerIndex=0,1,22,63
output=0.6987677258,0.8379655675,0.0002457618,0.7691897259,0.9774002233,0.2776569686,0.6344690863,0.0412554609,0.1306955423,0.9999087069,0.0111597156,0.9934081196,0.9999877509,0.0102380578,0.903575235,0.9753011151,0.0116316332,0.0015439805,0.2129761572,0.177519414,0.3286905651,1,0.7960869813,0.0018927036,0.0989825935,0.9965727396,0.9462359873,0.9136173625,0.680504258,0.3456761888,0.0921968871,0.9107698381,0.9597770806,0.2924030558,0.8010493338,0.5967659549,0.2795703111,0.7319279403,0.053000642,0.9935605853,0.9918713148,0.9924620823,0.6618012468,0.4879084319,0.0081195482,0.6113514778,0.9979469639,0.970848587,0.213209356,0.0021596631,0.0586965648,0.9823154466,0.9729682455,0.9983928173,0.0268023891,0.8747074694,0.5220735664,0.5736722697,0.9305268346,0.8951527061,0.9985856396,0.4914454548,1,0.1803921569,0.2509803922,0.2431372549,0.2117647059,0.1882352941,0.1490196078,0.1921568627,0.2235294118,0.2941176471,0.1647058824,0.1921568627,0.2274509804,0.1725490196,0.168627451,0.1607843137,0.1568627451,0.1725490196,0.3725490196,0.168627451,0.1647058824,0.2039215686,0.1803921569,0.1411764706,0.1333333333,0.1254901961,0.2117647059,0.4745098039,0.1764705882,0.1843137255,0.1882352941,0.2,0.1333333333,0.1137254902,0.1411764706,0.3254901961,0.6,0.1647058824,0.1764705882,0.1921568627,0.1843137255,0.1529411765,0.1294117647,0.1725490196,0.4078431373,0.6941176471,0.1647058824,0.1294117647,0.1960784314,0.1725490196,0.1764705882,0.1176470588,0.1803921569,0.4784313725,0.7607843137,0.2039215686,0.1176470588,0.1764705882,0.1764705882,0.1647058824,0.1137254902,0.2431372549,0.6,0.8078431373,0.2431372549,0.1490196078,0.137254902,0.168627451,0.1294117647,0.1450980392,0.3529411765,0.7137254902,0.7882352941,0.2039215686,0.1960784314,0.1058823529,0.0941176471,0.1647058824,0.231372549,0.3882352941,0.7176470588,0.7411764706,0,0,0,0,0,0,0,0,0,0,0,0,0,0,0,0,0,0,0,0,0,0,0,0,0,0,0,0,0,0,0,0,0,0,0,0,0,0,0,0,0,0,0,0,0,0,0,0,0,0,0,0,0,0,0,0,0,0,0,0,0,0,0,0,0,0,0,0,0,0,0,0,0,0,0,0,0,0,0,0,0,0,0,0,0,0,0,0,0,0,0,0,0,0,0,0,0,0,0,0,0,0,0,0,0,0,0,0,0,0,0,0,0,0,0,0,0,0,0,0,0,0,0,0,0,0,0,0,0,0,0,0,0,0,0,0,0,0,0,0,0,0,0,0,0,0,0,0,0,0,0,0,0,0,0,0,0,0,0,0,0,0,1
outputCount=1
weightIndex=0,21,841,10601
weights=##0
##double#10601
   -1.1042686411,-0.9189143588,-0.6606486835,1.0356177552,2.3766650882,0.0707242314,-0.4615039611,-2.233700946,0.8672101104,1.3980930135,-0.5380269212,-0.6600363008,-1.2424411373,3.3557782387,-0.5677361952,-0.852655283,0.2356130977,-2.8881544626,2.0429827848,-1.4463248074,-0.6513771648,0.1169148738,2.0489186617,-2.1064011577,1.1310696372,0.0664940014,0.3523993133,-0.3535850101,1.1783319481,-2.7415478666,-1.1793325273,-0.5132867153,-0.0457489258,0.4716667863,-0.5631099943,-0.1399568227,-0.9770744772,-0.5369018103,-0.1650281522,-0.6851289269,-0.1722463435,0.1545689798,-0.3982336219,-0.8845595505,-0.2518515171,-0.0262925839,0.2826224222,0.2011129324,0.4522087032,1.0158260379,1.610820884,0.7742470374,-1.084610825,-0.6623256873,0.7843869925,-1.9355830382,-1.4591229146,1.6212146342,0.065529119,1.8736363692,3.0618147687,1.938268093,0.6135405645,2.5604966266,-0.183954075,-2.1099577477,-0.6194574199,-1.8853939251,-0.0460761419,-0.1129282475,-0.6711325512,-0.5119166585,-0.1380812,0.1493064673,2.1325961672,-0.2332348866,1.5810965816,-0.4694144738,-0.3989202335,0.8819996539,-2.8452757633,0.4339596009,0.5014973492,-2.0708895848,-0.4921350116,-0.4230122701,-0.3270650666,-0.1569060458,-2.3572321253,1.1545674735,0.1697361566,-1.2703195421,-0.448537677,0.7841944605,-0.0604403967,0.7326065194,-1.7102148499,0.1347630388,0.758532146,0.1838530083,-0.2248328802,-0.970771415,-1.1470094781,-1.3970107756,0.496865531,-2.3853978204,-0.3739423144,-0.9328810532,-1.139594356,-0.8900546745,-0.8688530539,0.2879351405,0.9717971755,0.6742454447,1.1035066759,1.8903539558,0.6242195082,1.4103509695,-0.7311404505,0.5510032896,0.0057854817,1.1946034876,-1.1418995754,-0.2502381236,-0.2639337043,-1.9117113152,1.4160195587,-0.3638656601,0.567092812,2.3924512405,0.163236358,-1.880264902,0.0296770861,1.6171114937,-0.3131473977,-1.1288099307,-1.5166674246,-0.8528635324,0.6785308103,0.5879383601,-0.0496394173,-0.0710506462,-0.097604132,1.0352065044,0.2392741875,-1.6058771971,-0.9805031536,1.5714335699,1.4496808053,-0.1052563925,0.0870162861,-2.4779412926,-1.1708689347,-0.9854396388,-0.3582695351,1.7051586356,0.8523659225,1.1181093025,-0.4680713027,1.3475587569,-0.7160306624,0.997218532,0.238780167,-0.9247730436,0.7063277441,-1.4125630657,-0.8100841949,0.7978052494,0.9475661888,0.2180501502,0.3790659081,-0.9034926043,1.0292706804,0.7096984567,-1.1732319834,2.2644073122,-1.6603762603,-0.8829581338,0.1244353,-1.2864274886,-0.515986616,0.1764368057,-1.2228519123,0.999268616,-0.0908608766,0.6988261388,-0.84364163,-1.9617353694,0.8360846861,0.4354911002,1.7169255498,0.8927902227,-0.0860869566,0.565815339,0.3152008811,-0.7518734398,-2.3715897085,1.8139059562,-0.3131148662,-1.771330193,1.663523435,-0.6767591738,0.3527750394,1.352220783,-0.4414012601,-0.6646181941,0.4584399438,0.5614453552,-2.4289304413,-1.1617958907,-1.7441925724,-1.0805681017,-0.0428819898,1.9069414383,1.2201412037,-0.8422056206,-1.3645428401,-0.4362120207,-1.2993027591,-0.5907011218,0.7963464102,-1.2015908813,-0.484372848,0.3653306202,0.245010511,0.6354284025,0.6208089078,-1.7123820588,0.5629160491,1.6727114476,-0.8075723179,1.534232044,0.6766596978,-0.3129464703,-0.2031819407,-1.7061948221,0.0940812275,1.5188845351,-1.406454817,-0.3001272893,0.258096889,-0.3500995169,-2.3472634636,-0.5386396004,-0.5337481553,-1.188936101,1.7978132746,-0.7134636689,-1.3147449504,0.2456188452,1.6764228267,-1.3541683175,0.9974683052,-0.6070443978,0.0428480882,0.253053596,0.3467932128,-1.3161088821,1.470541763,-0.7775078249,-0.622244281,-0.2155809179,-1.3784022881,1.321056299,0.4013214372,1.5341426864,1.3068214118,-1.5485108406,-0.0869905255,1.3833523426,-0.9918304776,1.727036642,0.9521379015,-0.2922741356,-0.1956885006,0.9064429391,-0.1925953909,-2.6337253975,1.4285364157,-1.1962371406,-1.0232320451,-0.228145816,1.5089275279,-0.8585753292,0.0367458095,1.2696893278,-1.854456718,-0.2875063543,0.780672573,-0.6575700734,-0.1407163362,0.6384359012,0.3246030179,-1.5457431107,-0.4447073836,1.0997486745,1.9183238837,0.1165053202,-0.9476595095,-0.6127761165,-0.9101732378,0.5401091337,-0.250260067,-2.6796396781,-0.1250745605,1.3718692456,0.7660866115,-0.131219972,3.2603309364,0.649233854,0.2151894944,-2.059681964,0.2297521498,-0.3896247531,-2.1757444674,0.2384198779,-0.605261778,0.2001106112,-0.6402905638,1.4243653779,-1.4109749612,0.5829720768,0.0463590545,-0.8105618529,0.5108670208,2.193992299,-1.0538215087,0.2820924682,0.1362834225,-0.373769776,-3.7894931879,-0.4563323067,-0.0801855408,-0.3657228152,-0.7119638169,-2.2943972511,-0.1198437103,-1.7483385096,0.8545677029,3.8537097599,0.2867025957,1.3075409879,0.0937491841,1.1380573986,-0.1036922618,-1.2962901777,-1.6385834679,-0.3987141911,-1.466953385,0.9167182918,2.1447022569,0.210072675,-1.5303346785,-0.2354031631,-0.4647833405,-0.1831269578,-0.2945853607,1.7463475215,1.1943302392,-0.0772055472,1.6265950759,-1.2915858389,-1.9493955617,1.2237718136,2.8289298765,-0.2171843444,-0.4497785105,1.4165694546,0.065315429,1.559836742,1.9021577462,-0.6841503724,1.0427541365,1.3321756561,-0.3425206066,1.8545238169,0.880693624,0.1743427033,1.1059481778,-0.3248021861,3.2098341349,-1.4352614778,-0.0635920577,-0.3409430706,-0.8760342291,0.7829214366,-1.1255067121,-0.3057083791,-0.0827338354,1.2108862867,0.2530764405,-0.0930979167,0.6084081537,0.5078902456,0.1986064478,-1.5613951842,0.3370132282,2.2533609069,-0.8325985968,-0.3615056412,0.540763923,2.3752528548,1.6081339064,0.2765409173,0.1482637607,-0.8485824732,-0.5437662012,-0.1531408219,-1.7656182602,2.3323863717,-0.4040591797,-0.3819409613,-1.0202908717,-1.8134233394,-0.4126925179,-0.188383872,-1.4013746358,0.7618709659,0.0931740318,-0.3067727021,-1.6033899006,-0.3702513077,0.5952056896,-0.5468405293,-1.1969743809,0.2089478279,-0.8341227797,-0.4422965986,-0.8300618117,1.6259304167,-0.1579698984,-0.2870293267,1.068920229,0.5029606433,1.8120573195,0.2479056584,-0.5730850397,-0.5122670844,1.8820906614,-0.220357298,-0.9232684276,0.2172666839,0.243710962,0.1076504498,0.9382917964,1.5294163426,1.7909342714,0.9767411323,0.7536091536,0.1300250494,-0.041004338,-0.482877675,0.4332315045,-1.1229399966,1.3742958856,0.3199605008,0.1968630979,-1.3372746626,0.5715975766,3.455123073,0.0321504445,-0.0847909108,1.5775790933,0.6690338483,-1.2979909585,1.4129199677,0.2050109198,-0.503823062,-0.968190442,-1.357326209,0.0052318859,0.7969926495,0.4685968249,2.5012330956,0.3293896382,-0.2254826405,1.108700475,0.3226074235,0.094719807,0.8809137847,-0.104856293,0.9909023955,-1.7208048344,1.1644178695,0.6215633632,0.5928328822,-1.9165493067,0.9428396359,1.0514925988,0.2226568003,1.0062189224,2.0347180182,1.7873955191,-1.0264657335,0.6735975756,-0.0127166618,0.8563587883,-0.1379007596,0.9287799286,-2.4192242977,2.2991190803,0.5651410351,1.0274144984,-0.0514420383,-1.003343716,0.6289513707,0.216267856,1.2825223113,0.1073414878,0.8881168052,-1.3175972747,-0.1282764401,1.6055825637,-1.3021831313,1.295661569,0.8749755938,-0.2620807611,0.5187989694,-0.5903384999,-2.8672622749,-0.0595804342,-1.578496116,-1.3805160735,0.6929266802,-0.2410086015,-0.8034285961,-0.5690972935,-0.4334910135,-0.0322594996,0.0194646411,-0.4857066279,-0.0159677601,0.6566726518,-1.1205411339,1.4879061257,-0.4028128079,-0.5122177766,-0.0398792624,-1.5712660109,-1.2690583942,0.7194962837,0.0500293456,1.1214074469,1.0731856422,0.0839741375,0.0607687899,-0.2650418015,1.7003567758,-1.1691796246,-1.5529959569,0.8553394503,0.6418151564,0.7962911676,0.428278594,-1.0230179487,0.6632268557,1.7642333479,0.4316437909,0.1377832885,-0.1723831866,-1.0634850957,-1.2393634007,0.9302708663,0.1373859809,0.6163165516,0.2166984323,-0.2216568142,1.086877147,-1.8531599163,-1.353521039,-2.8359713323,-1.256832039,1.0109449171,-1.9851887271,-0.9043526122,-0.1150320248,1.0789355828,1.4049549835,0.4080374472,1.7985267934,-0.780315544,-1.7935813806,1.9015754841,0.2721600712,0.1998722654,1.6855775017,2.0953011613,0.3264869299,0.7786229134,0.3691256256,-0.8950805429,0.6731413515,-1.2736502896,0.0261746881,2.1609380021,-0.612649023,-1.2014833083,2.3047498081,0.2949461341,0.2476884011,2.3308923232,-1.1957290254,-0.314524965,-0.4854636306,0.418574521,-0.9571237734,0.7505717947,-0.0226121647,0.1124946059,4.3807354328,-0.5879856583,-0.5418803162,1.0658395952,0.044006694,0.1230204865,0.3639448831,0.9612236694,-0.1674051705,-0.9430909211,0.3719096687,-2.4235512599,0.0329536333,0.3264059097,-1.3153349369,-1.1350682876,0.1290599243,-0.0632730196,0.3753598083,-0.0616787189,1.2245262435,3.4121987606,-0.4002109169,0.3318731987,2.7216191214,-0.6727194574,-1.7957619542,1.2414540236,-0.2922605252,0.7782409006,0.3406111352,0.3648806275,-1.0383404515,-0.3972390729,-0.0496355248,-0.5709649581,-0.6530807331,0.8955163625,-0.0692603896,-0.2662324267,0.6431810239,-1.0465578113,0.9239915271,-0.5228654422,0.3333538749,0.4735990483,-2.176875058,-0.2880906631,-0.8337114761,-0.1714995215,0.9164155799,0.2540065788,-1.1070590648,-2.6325053631,-0.483991666,1.4336856468,-0.0299772474,-0.677429141,1.4369916191,0.0707079486,0.8051605262,0.3967618654,-1.4588258292,0.2880851302,-1.0476334678,-1.8785697162,-1.2371640934,-0.404491167,-0.7815293383,-0.5162430691,1.3848705376,1.2887337864,-0.8985475862,-1.9466069848,-0.8496957824,0.7348576983,-1.3614951923,1.610185236,-0.4503137842,0.130432051,1.2193460364,0.5163115127,-1.0712118526,-1.2415361814,1.259479285,-1.1032846753,-1.1242442795,0.6447474152,0.1783255448,0.8107767851,0.2767719043,-0.6464711597,0.4734104617,1.7493694956,0.0496824783,-0.3865543029,-0.6039021874,-1.4498325851,-0.9058913152,-0.3594037302,-0.2062746065,-1.060737208,-2.0244144866,0.524365199,0.0771102002,-1.5438229464,0.6073529539,-1.3289137159,-0.2327416833,-1.0648779059,-0.779145231,0.5768079505,0.1810758624,-0.7947913934,1.8597475631,-1.8269297441,1.2218984958,-1.8947412517,-1.7688726618,-0.582470776,0.5489715247,1.5770717303,-2.0989240874,2.1198228232,-0.757808685,-1.6770217471,0.4227511633,0.733253858,-0.2398683482,1.1533408711,1.6805355116,-0.2001768311,1.8321865238,-2.3434358541,0.4905825563,-0.6535400504,-1.0777449971,-1.007260311,-0.3009450744,-0.3911338906,0.4667201336,0.6104554377,-2.2002157672,-0.0823121766,-0.5958388137,0.4905067197,-2.9029961573,2.6066932305,1.3108196777,0.7695698247,-0.2521544975,1.5782983032,-0.5190103349,-0.5170621005,0.9591585721,-1.8616015677,0.7522828342,1.3228030018,-1.345974928,-0.5499577523,0.6650505023,-0.7289153606,2.769247552,2.1916180223,0.4440361491,0.7786286147,-0.3016306657,-0.2443406891,-1.8359396996,0.0849880861,-1.2691896006,0.2928061617,0.2261428057,1.0358065945,-2.3092439714,0.6669912816,1.7017941911,-2.1558025213,0.6885802733,-1.0127004525,-1.4199070109,-1.0090253615,-0.369869608,1.703146173,0.0431256952,1.6175404726,-1.0196915189,-0.3160404422,0.9470896167,-0.2984019134,-0.1142325832,-0.6693421108,-1.8823517025,-0.4900473847,-0.250390855,-0.2400488112,0.6156053862,-0.5086677309,0.9585715021,1.6195247615,-0.8680845075,1.5415401028,-1.6105735838,-1.1228521234,-1.340834249,1.5866844248,0.0300733052,-0.0077489713,2.2313709571,0.098924116,-1.3323775529,-0.14623109,-1.093571682,-1.5168009132,-0.473106877,0.8056244816,1.0513611776,1.0651542731,-0.7997907002,0.4154819247,-0.5846774948,-1.9254776285,0.6106337589,-0.8239522431,-1.0881144245,-0.4861710631,0.5293223045,0.1845780535,-0.2545796386,-0.1007358399,1.6044491976,1.0670684413,0.1061551964,0.2381359573,0.0552008096,-0.8803570601,0.2114831085,0.094441924,1.0158975448,-1.4935108094,0.8804187703,-0.4040592543,0.4533561503,0.4028265167,-1.9036955383,0.2121755339,1.3297724775,-0.5461456348,0.8197269804,0.0280113536,-1.6177386309,-0.9681285564,0.4497049438,-0.0857219901,1.2309590957,0.5951098932,0.8396993376,2.982459474,-1.8438945257,0.0819439347,-0.3815341178,0.0415130114,-0.5198209213,-0.8051147476,-0.0860352145,0.6919496075,1.2145408798,-0.6419643254,-0.3345793637,-0.0746094904,-1.3338280392,0.4577005371,-0.5311250458,-0.4138330432,3.2956448189,0.0945914982,2.4921216156,-0.552277229,-0.4542179085,1.5002948045,1.1144810221,1.2722779421,-0.4085521649,-1.6287861886,-1.2121967707,0.2526149007,-0.6048855698,-0.5381012889,0.0790670549,-0.1560753143,-1.3213985282,-0.1875823165,0.1327813087,0.3217453652,-0.2056477383,-0.0447700585,-2.728098946,0.3694853309,-1.0027958534,-0.1013301703,0.2505845192,0.7346101627,0.8046808112,-3.68179011,1.373342808,0.3766514402,1.6822715003,-1.4058984689,-0.5090537778,-1.9249203584,-0.7196459996,1.2498456999,1.1101331812,0.4793956028,0.0193516658,-0.1347771673,-1.2840711633,3.0383377902,0.1128250244,1.2329772937,-1.4761834393,0.8169264887,0.7552493192,0.5496239861,-0.2866392788,-1.0526219124,-1.8576739318,1.5624736665,-0.2462848821,-1.4938460081,-0.9534079589,0.7618768505,0.0986959969,0.0247005849,-1.0033939209,-1.3098413462,-0.1327888971,-1.078053748,1.5708340344,0.3927422743,0.1118069325,1.8556619235,0.3662885539,0.3860070614,0.3840470784,-0.7193310588,-0.4886437035,1.414893824,2.2382979837,-0.1792466073,1.413902465,-0.0550825478,-2.5173336854,-1.9587409765,-0.0418215009,-0.4614972291,-0.3495700403,0.5490296181,1.8606494538,0.4266187844,2.2655239341,-1.495783184,0.5405483867,-1.9902549144,-0.1318895108,0.1364549597,-1.0992311042,1.2792388727,-1.5876020669,0.0464952915,-0.5803169885,0.7356216002,-0.5362070176,-1.1994471393,-1.7811318108,-0.9751833717,1.4830157762,-2.2692698644,-1.1948857648,0.7008257985,0.02261416,-0.7585491883,-3.3909533789,0.4373966967,-0.1201204059,-1.7869850189,-1.2597530496,-0.6196812992,2.1934848787,1.3065966337,-0.6510152479,-0.1822953136,0.9170310239,-0.5660672222,-0.705046651,-0.4880230192,0.1768462898,1.2157365123,-1.4212628462,-1.8590743612,0.6820186176,-0.7281768777,-1.3808680162,0.1194729241,1.2915020126,0.2236317178,0.867995948,-0.0922514528,-0.6322697725,-2.0031701872,-3.3738919349,-0.7488569851,-1.1394308332,-0.8267396109,0.9204467707,-0.4495339754,1.9370609954,-0.4218456519,0.6643603925,-0.9339062419,-0.849884198,-0.6773254468,0.574728727,0.4322396077,-1.0555837295,-0.2450629403,-0.8218680812,2.0071294174,-1.4492653239,-1.6239944008,0.3466387079,2.1105310386,0.6782597917,0.2595082593,0.5794509096,-2.1061458588,0.1193393715,0.2592276206,-0.9006056097,-2.6692948913,-0.4197133793,-0.9654062734,-1.0466680585,-0.9191496021,1.4589242907,-0.4383132244,-1.4428903222,-2.6066675152,-0.3146558119,-0.4346059071,-1.3612467976,-0.8071044235,0.7346878872,2.7891674706,1.644912387,-1.0270700301,0.1146792908,-0.6252751771,0.0929829205,0.5042653273,-0.7345784293,-1.5138251435,-0.0230460522,2.9446573581,-1.4745501976,-0.8017609691,0.4359433275,0.4567838995,1.6219015669,-0.841800736,-2.5124184575,-0.7780349572,-0.2403882259,-1.2897306135,0.2707142848,1.0626581333,-0.0832789325,0.6251741077,-0.5736114089,0.10780321,-0.9909022665,-1.1029119851,-1.0341497437,0.4135390217,-0.5059787825,-1.5489042356,0.5646499738,0.8514243268,0.7493989838,1.3458529353,-1.127576578,1.5495978082,-0.8557109785,-1.7526600686,-1.8178548765,-0.137657015,-0.5204716724,-0.6122438856,-2.2331816786,0.6755566856,-0.5512459675,-1.9945279948,-0.5238981925,-0.3404051503,0.5351558048,2.2841046654,-0.0765907029,-0.3827072199,-1.1636469569,0.9367370565,-0.7045777788,-0.2429841134,-0.3617057939,-0.8658521008,-0.7352994377,0.6230179734,0.6162763412,-0.9682200361,0.0864324076,0.2840424712,-0.2587863268,1.7974951905,-1.0892122465,-1.0137643785,-1.7948318219,-0.7698632866,-2.745981943,1.1551968459,0.3410815246,-0.5525581501,-1.1668755513,-0.8772510385,-0.5283236138,0.6701709374,0.6688055851,0.2633984886,2.662483309,2.0236131966,-2.1484420018,-0.1417823549,-0.3199657042,-0.7946921955,-2.375841551,-1.4923199575,-1.9650112262,-0.5876775974,0.3518462419,0.4620415155,-0.364074519,0.0502228999,-1.273213305,1.1391203059,0.7496912777,-0.546729856,-0.8766627313,-0.9293581336,0.2599741052,0.7091284782,1.1315185438,0.420669255,-0.5425638422,-2.4124198374,-2.6275974831,-0.6761268813,-2.0010611053,-3.1294353876,1.0978208748,0.9224868573,0.1016475433,-2.151591869,0.6021661019,0.5993280965,0.9107515431,-0.5635584897,-0.1284381851,-2.0117575942,-0.2922483311,0.5826097186,-0.464673685,-0.3607632816,1.0399729268,-1.8988204927,0.277408081,-0.1654418964,0.2034183636,0.0215874056,-1.2699174011,0.744334369,0.0622371961,0.0088063237,-0.4634117538,0.9139638394,-1.192273938,0.8704729793,-0.5257636888,-0.6323741377,0.7308837752,-2.3468864293,-0.2443841698,1.3141283107,0.1143773436,-0.0697026849,-0.7404098722,0.766485871,1.8525648648,1.0082063965,-0.4250949149,-2.0631053512,-1.2055753889,0.5812260031,0.6924166481,-0.6510243313,-0.3307027562,0.1928682053,0.3360258935,-0.5365612576,0.0227587796,2.6599070874,-0.3541497249,-2.4420090002,0.2696307157,-0.3596629965,-0.8268001766,-1.0476263529,1.496123208,-3.38244447,-0.6626660483,-1.522230385,-0.3280564788,-0.5371723917,1.6174351423,1.9198002955,-1.0166001783,0.9131147766,-0.9520764738,1.2838123073,0.8655614487,0.7935344077,2.0627161976,-0.6361970404,0.3805908507,-1.001621664,0.0279652827,1.6933327233,-1.0527307182,-1.4257901958,-0.1170117859,0.8740366545,0.4812355272,1.6009190591,0.5300283411,1.5453390578,1.527680268,1.2180719796,0.4222383726,-0.0354943168,-2.7429276186,1.0758871684,1.7482917648,-0.069044108,0.6570720862,-0.7034420063,1.1459813192,-0.3651006456,-1.5199425836,-2.0454300923,0.3615796279,0.3317981177,0.4864327538,0.035678145,-1.7557186918,-0.6551351524,-0.5659663729,0.2976698624,0.429214831,-0.8334595303,0.8322278948,-0.0122222472,-0.8874037461,-0.41232144,-0.0837857579,0.6566246122,-1.6346377103,0.0743802128,0.1378641832,-0.9748870738,1.5724998727,1.2454259138,-0.4179638624,-1.9976053502,-0.7626956912,1.3440039514,1.5413930282,0.0954824637,-0.2808518757,-0.0958236649,-1.4650592709,0.1990527826,-0.618168588,-0.5083490029,-0.9737157535,0.6749249115,0.9271222617,1.3917136363,1.0217617376,-1.5886982235,0.2510967689,1.5818117671,-1.1723101748,-1.3409569336,-0.2546500264,-1.2654748819,0.0183121021,0.016405304,-1.6455196742,-0.9311761365,0.4730508796,-0.1735892694,1.0175253563,-0.8111459996,0.9310283278,1.0654198992,-1.5110966014,2.4985259608,-0.286370241,-2.370355219,-0.1968278814,-0.8329852902,-0.0418729453,0.1415506388,-3.4332650139,1.3901048083,1.4788161974,-0.0419543441,-0.55188626,0.1491797898,2.353209786,-1.0586428062,-0.8183544565,0.4883660776,-0.5099626934,0.4023070845,-0.1630140487,2.5106547006,2.2591704461,-1.1824421977,1.0102917228,-0.512141943,0.0072812081,0.4733913626,-1.2044641877,0.3153246306,1.239290728,1.3978731058,-0.4314894641,-1.9611810688,-0.1169331823,0.8809778829,0.7105216915,0.9025222166,-1.2275286418,1.9264206124,2.0757710537,0.2361098956,0.0106762279,-0.4078937737,-1.362899662,-2.1009407169,0.9534384402,1.9203641674,0.8122385462,-0.3577472489,-0.2982591703,1.0118201054,-1.7199030926,-0.6571146116,0.8789215126,-1.0502526914,-2.85961771,-1.5685550149,-0.3125880224,0.3230751384,-0.9884505749,-0.9986497743,-1.3354002336,0.4725978507,0.3303406619,-0.9178540044,-0.1949716191,0.3806719635,-0.5383924664,1.9847324322,-0.1750852931,-2.2468286847,-0.343795272,0.4391217639,0.4576209372,0.5464685746,0.2268426045,-0.3567740457,-1.3201442576,-2.2171308618,-1.0227803371,0.3740725463,-1.1842498756,1.0406844529,0.4393473492,-2.4577963155,0.1148540257,1.5989558454,-0.913155993,0.3691406626,1.715849217,2.356032538,0.4027671699,-2.8782115288,-1.8680859401,1.4398482155,0.9445017472,-1.1136369279,-1.8361612319,-0.8748280759,-1.3223293898,-0.1365461047,-1.0738119391,0.2453048635,0.6446730211,0.31072352,0.5242659049,0.1301740341,-1.4914311113,-3.1807996121,-0.6962851537,0.2367549855,0.1151902186,-0.6196559517,-1.4637924189,-0.7356503524,-0.9390233491,-0.1384739121,1.9421117237,-0.6604055942,1.6237898174,0.0107564816,0.261782772,-1.8375070732,-1.4404727989,0.0885609705,-0.4731592527,-1.1334774444,0.0549795775,2.2081132159,-1.1865424967,0.5846821214,1.25254737,1.5523980642,-0.8324181455,0.0693087595,-0.0683702613,-0.3898155216,-0.2312085828,0.323601848,1.0854255963,1.8057050125,-1.0368263692,-3.0926783009,1.6685320166,-0.7214269514,-0.8007848616,0.8430598163,0.0028990692,-0.4019679015,-1.2639855638,0.9919865275,0.6304595421,-0.0676331455,-0.3648995722,-0.6230789186,0.2606636201,-0.9647075591,-0.3353762584,-1.2672804455,1.2377352067,-1.3180683088,0.0044558453,0.3146494136,0.8110453108,1.9104599836,-1.0602378051,1.8045741894,0.1042855545,1.3525472734,-1.7104366496,-0.9498706718,-0.4576658459,-1.653329269,1.2602580196,-0.5670867374,0.092398303,-0.2146455774,-2.1815086315,-1.7478078741,-0.3248684895,-1.9637176458,-1.1166816992,0.2786938673,-1.5261694511,-1.5112618026,-0.7616038869,0.6452568751,-0.1446034571,-1.0470816127,0.0440096732,2.0879944855,0.2508873755,0.2279110015,-2.8540887452,-1.0261589787,-0.6330942821,-0.4724408849,-0.9704023556,0.444322614,-1.1571741762,0.1753325864,0.2507711479,1.1193634085,0.7405423833,0.7100164868,-0.195814708,0.7523031153,-0.0236430399,1.1595662979,-0.4240954461,-0.5362265526,-0.151964438,-0.9578788369,-0.7496415882,-1.0761651055,-0.0660051101,-0.6740174839,0.5816895141,1.2861868954,-0.1266716645,-2.3041618516,0.0931077794,-0.2459547282,-1.5469977537,-1.7955094161,0.882113796,-1.274575378,-2.5234353925,-0.5795890139,0.1015715702,0.2291726292,-0.2273807033,3.6792946897,-0.6727751031,-0.3088223154,0.8080311035,-1.426370529,0.8003588638,1.1980503435,-1.9823033811,-0.2121033232,2.7403837802,-1.6406384596,0.4677604598,-0.7811715238,1.6742812001,-1.9853475657,-0.8184409687,-1.8317531173,-1.3799571992,-0.6832218562,-1.6354157307,-0.5017157008,-0.3374618157,1.224487819,1.2967922312,0.2076470189,0.5237925988,1.2260078178,-0.669594373,-0.7951242613,0.5622134807,-0.1577994214,0.4846464917,-1.7398738071,-0.061015726,0.3391157488,-0.747130078,-0.6057106501,1.232961353,1.8920970841,0.7980315375,0.7029190576,1.1467522633,0.6303910104,0.0511535539,-0.3026530471,-0.788202293,-0.2900604493,-0.2726774398,-1.0237810595,2.0308635624,0.4257091332,-1.0796865652,0.5459370777,-1.3939715017,0.9282449726,0.5269264709,0.672228668,-1.5835211547,0.8972432749,0.395632425,1.1797114658,1.2330245521,1.3381832272,-2.0691945536,1.1271388531,-0.4846647834,-0.8930624128,1.2592396874,0.2592229748,-0.6524164932,-0.0782499258,0.4272911114,-0.6618197973,0.1909205,-1.5515036061,-1.1310187867,-1.2681796336,-1.0279988077,0.6023699902,1.2583653391,0.8800348712,0.6520905662,-0.1328377011,-0.6250187926,0.7714077035,-1.2038184244,-0.167037687,1.3046445346,0.7551795424,-0.2633090953,0.7139399232,-1.2634583144,-0.6649394573,-1.5669249232,-0.376133911,0.4777361629,2.1223658094,0.2431409681,-1.4420140629,0.1353812436,-1.2990925456,3.2197193014,-0.8935207403,-1.8307786436,-0.6391191053,-1.8991602782,0.2028080098,1.2115780153,1.1598425824,-1.6063717556,-0.7038746785,1.7756511147,-0.2693379223,-0.5271266303,0.6903463983,-2.0444783259,1.2343974043,1.2187959553,3.4987959257,0.4133244507,0.6363815531,1.2039432579,-0.2134827914,-2.3341811237,-0.8416897688,0.5404168664,-0.2812975278,1.0781965453,2.0705098667,-0.7198609135,-1.0042115864,1.5314684674,0.8824192436,1.0475163399,-1.1377701734,-1.7796616005,0.622912164,0.6164630263,-0.2818316589,-1.155133244,-0.0935220264,-1.7074680537,-0.0182796844,-1.2420113587,2.283067083,-1.3136751218,0.3862677246,1.0452828198,1.7859215302,-0.1942045269,-1.6707565022,-0.5185115969,-1.1100622278,-0.6075264267,-2.5941394423,-1.7455411583,-0.2318620371,0.8768409225,-1.3791767542,2.2071359292,-2.6587982118,0.5584704533,2.482222054,1.2754039224,-0.9790914961,-0.2184598305,2.2846533642,0.1301059909,-1.6993075913,0.5506412494,-1.2208364739,-0.5983202526,-0.989102123,0.4523279118,-1.2130726167,0.2125117215,0.0665417378,0.8778142091,0.6922621752,-0.1871038466,-0.2019342759,-0.3280051682,0.1069360764,-0.0945820299,0.4144733708,1.0992872777,-0.5753751545,0.7777505614,-0.796425423,-0.2251583162,-0.4919652808,0.6168676926,0.1197261311,-1.2603178562,0.650512454,1.5183213969,-0.3383951923,1.1239709014,-0.6150452456,1.9168334846,1.2780414226,1.4084838162,-0.6950315096,-0.720449324,0.1514655933,0.0118640163,-1.1343811307,-0.7206817873,-0.8124012713,1.0706067626,-0.1200713644,-0.2053547753,0.1069771357,1.2843044204,0.1777464836,2.3086395182,-2.0231370574,1.1838833032,-1.0816956684,1.2600947488,0.1218900815,0.0658526235,0.6313862836,0.3893900338,0.1238763932,0.0151026835,-0.6615564446,-0.7085992473,-1.3552266429,-0.1689738132,0.1569887754,-0.0456455886,-0.0547529915,2.7431324547,1.4113970965,0.1371490069,-0.4479665348,-1.1161056588,-0.4854843675,-0.5551846306,0.4843960078,-2.2327892175,0.815950496,-0.8796236737,-0.6353877073,-0.1424922327,1.5370162418,-0.4676465943,-0.469315599,0.3797353696,1.0943193842,0.8524666657,3.5655604005,-1.2110755639,0.762871511,-1.1139714605,1.9624729162,1.9568071029,2.5759415006,-0.2219621583,-1.5501989587,-0.8708128868,-0.5625112603,-1.1171300466,0.1404418665,0.4540502419,2.2712680086,-0.4286712079,-0.3151567706,-1.6870053085,-0.7247855099,-0.8470362072,-0.7621555036,-0.0686488967,-0.4847924693,0.1782431047,0.0735635362,-0.4747347759,0.6269196828,-1.5907349866,1.5067015563,0.3004116623,-1.267781825,1.8689102216,-0.7597744649,1.3256884249,0.4107951462,0.1812384816,0.4468774512,-1.5863215464,-1.7468684012,0.1875699334,-0.6659133155,-0.0639285708,-1.520968798,1.2446996235,-0.3898762163,0.5531460814,0.1090584203,2.3356726687,0.6647073201,0.583067136,-0.9425066052,-1.5473218619,-0.5423056442,-1.4365239676,0.4549026927,-0.2908664918,1.5791282582,0.6301050841,0.7189954074,1.4860000055,0.4055217222,0.0952389651,-1.1809702367,1.6141536779,-0.2178156271,-0.9399053294,0.9951383166,-1.6151890914,-0.8982353989,0.8901359109,1.6422382484,0.3793745406,0.2577328453,1.2355849918,-0.4889998227,1.4107292746,1.4604687304,-0.3078715555,-0.0996593867,-0.5949099452,0.9914475766,1.0987785834,-1.1939645441,-0.328008954,-0.6408395956,2.2073722591,1.2010956065,-0.1493404624,-0.2033427953,-0.7651269967,0.1036689099,-1.8478434865,-0.9455708137,0.9436331624,-0.9339003669,1.7725177498,-1.4792549507,-1.0884859075,-0.4227485052,-0.0615598717,-0.1314304805,-0.2662818952,0.8592935419,1.75895949,1.0117184649,-0.713197445,-0.9852271698,-0.5198749772,-1.5456438711,-0.700068799,0.1373016221,0.4117617031,-1.1450179724,-1.3104722906,-1.1477662853,-1.254231983,-1.3185679827,1.3246622117,0.8008386633,-1.0892125551,-0.3788067625,1.2617326088,0.3616440085,0.7039201152,1.0621784703,-0.3027771694,-0.1831635296,0.6225009913,-0.0548062134,-2.0187579432,-1.1861356295,-0.055051947,0.3429568954,-0.8035440783,-0.1025116151,0.0441766962,1.9640700616,0.7826961803,0.0385974724,0.9115601059,0.6779705212,0.7529820336,0.480907301,0.4624829836,-2.4791114454,-0.8990502497,-1.6031107967,3.1642087542,-1.8632074062,1.8758564118,0.1965108889,1.8417407446,-1.4436038518,-0.2059161915,-0.2973944889,-1.7971991865,-1.7249504437,1.2574496954,1.3875308137,-1.0163702587,-0.2689530194,0.9320568666,0.6515334913,-1.310368971,-1.4350283487,-0.9237167457,-0.4918063265,0.8826335015,0.5362784106,1.6884860415,-1.4427564819,0.0129631178,-0.4034682507,3.2091037814,1.2363117424,-0.6829539134,-0.748199147,0.0630801535,1.0457253665,-2.0295705363,0.5703288261,1.2485688926,-0.7334037831,-0.114892594,-0.5225387411,-1.4115166565,0.646590589,1.3217459195,-1.7321813952,-0.3383672151,0.3172826869,0.0471916129,-0.1352882673,0.894921403,1.8361287289,-1.2276923512,0.3594334931,0.8287424329,-1.3952034543,1.1522069687,-0.8173660941,-0.6137717903,-0.6398083754,1.283885187,1.2609024495,-2.532791886,-0.393903869,0.5334272507,0.6272881159,0.7989656024,-0.8280199822,1.4320951821,2.5197397479,-1.0796927846,0.4851258613,0.8856382255,1.829277389,-1.2819692601,-1.8840134291,0.4650382892,-0.7614927522,-0.6314406832,1.6073703901,-0.5760088318,-1.5263262583,-0.7780105561,-0.4371169773,1.0570685638,1.1479051411,-0.4047135159,0.3652206776,-0.6191383379
   -1.5041281934,0.3549426237,-1.2614096584,0.9710722804,-0.2575402388,-0.834652915,0.1139202999,1.1973863539,-1.0171159862,-0.7731293548,-0.1392094754,1.1843725773,0.5999518236,0.2832758307,2.4831133571,0.1606997507,0.1309870704,2.4444270617,-0.0886304955,-0.3200892324,0.5384244047,-1.0291698668,-1.1608557517,0.9661730037,-0.551067792,-0.5757611691,-1.2588047821,-1.2066616608,-1.2567819553,-0.5609297219,-0.1472696625,-0.4773252188,-2.6490116454,1.6979852217,-1.5061457062,-0.0067975017,-0.1476377124,0.4649215922,0.1024546951,-0.0150062708,0.7853331274,0.4697969672,3.7092329058,0.3717982599,-0.7307068721,0.781284181,-0.3172160868,0.8835717652,0.6397415782,-1.6092187628,0.5908224856,-0.3398193347,1.1306122841,1.1494378556,1.6913020492,0.6095388872,0.3410898978,0.2295536579,0.657996379,-0.6328710208,-1.6551361174,1.0810348463,0.4340579427,-0.495850313,-0.2162502853,0.5614031756,-1.3911286698,-0.6913979477,1.5842886111,1.2348727247,-2.6808447197,-2.1163447825,0.8615532613,-1.3039990832,-1.2203340487,0.3661826068,1.0563394754,-1.8317513044,2.4412399208,1.4250668157,0.7736351975,-0.769551709,1.131510502,-0.7108520385,0.9046888543,-0.145284777,0.08601642,-0.2302330069,0.7236399795,-1.2324486869,-0.4235569063,-1.0942595116,1.6086694248,-0.2393339144,1.0591939239,-0.032437479,1.2078911083,0.9723814004,-1.1933860003,0.2223695665,-0.0147696001,0.8120434056,0.0770042459,-0.0348150429,0.9138084168,-2.0536145532,0.3588395703,-0.7278218197,-0.7039695424,0.2409428338,-0.4476293108,0.5611251708,-0.229559403,-0.8703813863,0.5626540754,-1.1538226558,-0.4941824073,0.3228013501,-1.974443009,-0.3635695896,-0.7701244828,0.3556083277,-2.558429416,1.1419500898,1.5133415659,1.0050896226,1.5586997039,0.5605212275,-1.5761681141,0.4010182073,-0.7505848638,0.4011796901,0.4242431427,0.4347686097,-0.9263810867,-2.0084202607,-0.2465453723,1.6109101276,0.0508732771,-0.4690841489,1.0727371762,-0.1406076904,-0.324257121,-0.8409221091,-1.0150162516,-1.1620331668,0.7501948775,-0.7076020015,-0.776457495,-1.309300562,-0.018989916,1.0598123032,-0.2397184896,0.0619512112,1.7622321584,-1.0921119815,-0.7701276191,-0.2086469506,0.0311513744,0.613467198,0.4883470279,1.1777673526,0.7464131157,-0.3818941903,-2.7424296283,-0.4707138104,1.5400780469,-1.2075156138,-0.6703868648,0.7216019476,-0.6100281052,1.4671482116,-0.9120620495,1.0192488642,0.9449045438,-0.3186313362,1.808850231,0.984425515,0.8728971905,0.4307555823,0.3777681223,0.0502960326,1.7879108549,-0.3186630105,-1.6373275644,-0.1535040128,-1.810906087,0.0293647508,-0.7244678885,2.3810626021,-0.8389369705,1.3803588565,0.2959500252,-0.3080570404,-0.5552817895,-2.5212299005,-0.9726185345,0.2222617088,-0.6337345312,-0.3149382004,2.7835381684,-0.4907529186,0.1095676037,-1.5826802243,1.1255597186,-1.2806089076,0.6532899955,-0.0701988327,1.0325983106,0.4553403501,-0.5629221213,1.1354706447,0.3444301063,-0.2569291191,-0.0385110746,-0.2909500791,0.7834923965,1.2088207515,-0.2932085994,-0.6034161798,-0.902847921,-0.9360680396,-3.2824449527,0.2423679698,-2.3264432845,-2.5899014239,-1.5532154719,1.2243052837,0.8444474096,-0.2040902219,-0.3773900943,1.2864684191,-0.917627182,0.9875001372,-1.1752257202,-0.7303145851,3.1676877154,0.4874194265,1.5005213167,-0.4681654375,-1.1142006804,0.6988084479,0.3444697284,0.7274405135,-0.4443916185,1.8636489528,-2.0239677858,-0.9201031486,0.8055642983,-0.1533695086,-0.7472454373,0.3741264666,-0.0879344474,-0.4733120068,-0.446518104,-1.0081739445,0.9162894893,-0.0461774725,-2.4648528345,-0.06227743,-1.4394803798,0.8960857446,-0.9016583787,-1.1688200329,1.1241640777,-0.7460607121,-1.29682751,-1.3953494969,-1.606100399,1.4689025517,0.0948070275,1.8037845992,0.2726651333,0.8762648056,-0.8650253702,0.0542645586,0.549357479,0.2004049968,0.8642767808,-0.7007624051,-0.8689654825,-0.7195882179,-0.9099607911,-0.0269110503,0.3865485127,2.5782860908,-0.3153044331,1.409726462,0.3261847209,-1.0516819731,0.6925021007,-0.7325494853,0.5069914975,1.7801357705,0.783476443,1.2580213481,0.2041737195,1.0216431142,1.932598709,0.3551857375,1.9335136161,-0.9529012727,-0.9727186852,1.2596824088,0.9723403398,-1.0720317544,0.6405176047,1.0323086727,-0.8756400066,1.5811513452,0.0216516588,-1.1471907662,-0.6137827869,0.0335619179,0.684253502,-1.0307220796,-0.1816747933,-0.9305366339,-0.705343166,-1.9116653528,1.1848199791,-1.3504658431,0.0490048498,-0.733715205,-0.0376084145,-0.1281394835,0.7638327175,-0.220364845,0.4797765518,-0.7963697944,0.4461646827,3.5908523123,0.0586157853,-0.0268233234,-0.1396300488,1.5492774613,-0.989254625,-0.2004393079,0.0869925754,-0.2940336825,-0.6121166013,0.7310822995,-1.9599297557,0.264389298,0.0032743118,-0.5365393956,-0.4949850902,-0.7199843813,-0.0886729376,0.5537543513,-1.5910268153,-1.6416284682,0.378954874,0.0691410041,-0.3216394071,1.4592759326,1.2736930051,-1.4839729847,-0.3511382027,-0.8249492824,0.6329232444,0.0702521033,2.7855196588,0.9107550801,1.5074403357,0.2212058029,-1.0494662795,-0.6810622313,2.0679554179,-0.5647666967,1.2756434111,0.9825907435,-1.63916315,0.5690235173,-0.949977506,-0.8917751889,0.0262175778,-0.7685122369,0.6148604892,-0.5519545009,0.7902928154,-0.401163037,-0.304209991,-2.1698469697,1.4452335282,-1.086014278,0.6049514426,1.4060116841,0.9208581113,-0.1214165523,-0.1757613497,-0.8090141499,-1.1010195296,-0.8393157869,-0.6216706162,1.0196661578,-0.1800992211,-0.5574043333,1.4944272852,1.7456635078,1.1218642947,0.9795499369,-1.1909054297,-1.4934124727,-1.0318155766,0.1818345148,0.3705248341,0.5112825001,-1.1863010267,-0.264565697,-0.0509602145,-1.6028908798,-0.4740915695,-0.2176122719,0.6343946498,-2.5129628944,0.4300012814,-0.0404029815,1.4540418613,0.7263605739,-0.658316377,0.3746930079,0.6002078447,-1.6627750309,-0.4146660592,1.957859198,-0.9498338935,-0.3996200759,-0.9328206053,-0.4806129783,-0.1826145139,0.0741556993,-0.2101771208,0.5320208236,1.1777887224,0.188195338,-0.0224422232,-0.942245092,-0.3289711304,1.6214055804,2.2565910735,-0.7414927463,-0.2535678575,-0.6641386586,0.7460504005,0.1173523843,0.2680119173,0.3434455054,-0.7237954694,-0.5917484905,0.1743865674,-2.3770872963,-0.7101530308,-1.4777814534,-1.0485310824,0.8070885882,1.6239658366,-1.2045220357,0.9291459595,-2.9943949542,1.6047951904,0.7622420426,-0.0003020237,0.6287389248,-0.2644725676,-0.6675240392,-0.6368727164,0.3932363722,-0.650215846,-0.9427203273,0.1476724958,0.1191165021,0.5560657029,-0.5277176004,-0.190980048,-0.7344832611,1.4427204372,0.134065243,0.7179132717,1.9552798363,1.5402260054,1.1699810701,0.7301676161,0.9807699996,-0.1618213339,-0.9302703323,1.0168509617,0.9159577902,2.1820881046,-0.9147867486,0.9889298729,-0.306390327,-0.7231618425,1.4378387624,0.2396039575,-1.5457286414,0.0932341724,-0.6588099266,0.2474492716,0.1088404751,1.6837097951,-0.1686865599,1.0397240348,0.012777915,-0.2703405262,-1.173551651,2.0673147967,-0.4943857082,-1.3923790984,1.2834686594,-0.1232187617,0.0486552283,1.5969816441,1.2853920719,1.5754190847,0.1914058837,0.9361154291,0.1148709844,-1.6866623932,-0.697524401,-0.189078253,-0.1601294127,-1.2381907396,-0.1875085225,-0.6377653154,0.6832790927,1.3789903207,-0.7757425844,1.1310775591,0.040375502,0.0103828966,-0.4164663321,0.2321159118,-1.3218653425,-0.734112209,-0.156845889,0.7174281914,-0.772524122,-1.6417925976,-0.2113154477,-0.1371901704,-0.1001837317,0.7647708726,0.9995279221,-0.4345623368,1.9026758302,-1.8776614626,3.1241452267,-0.962180568,2.5261071271,-1.0115442855,1.7093757533,1.1895321441,0.3972086601,-1.1298502125,-1.156013104,1.9944527857,-1.2206507865,0.9419978458,0.0955040555,-0.4190947321,-1.3041823257,-0.2170542317,0.1015768854,1.9866359604,-0.0666703602,0.3696119954,0.6351681449,0.9625249168,-0.9622521561,0.5140231527,-1.2470853289,1.0795263391,-2.0875387499,-0.7629394539,1.2433701278,-1.5908515903,0.3674594417,0.0327716457,-0.9086928408,-0.2145900619,0.8996757638,-0.763055673,-1.0372920845,-1.4231737077,-0.9035149351,1.3725078218,-0.3600949555,0.8683618758,-0.9116048842,0.217653737,0.8852947274,0.1945319549,-0.2530932497,1.1401194149,-0.6717316529,0.1378014651,-0.3212939566,-0.544397664,-1.8177512611,1.3136379781,1.343350769,-2.0874361636,1.8546944441,0.1331453172,0.1037617166,0.0097437345,0.3348552716,-0.6821241879,-1.0016965955,0.3152785033,0.4560071536,0.8911623712,-1.0467607235,1.5186720201,1.1531595414,2.6188408869,1.3420733091,-0.8600938111,-0.7905515537,1.1182762472,-0.8498531279,0.9047062438,2.4038395306,0.1522873236,0.6753778717,-0.1545200581,-2.3762614144,1.0361313387,1.1560716528,-0.5169782512,1.710593134,-0.3608478619,-0.6176587727,-0.0121150743,-0.3933520956,1.1441821363,-0.6708435153,1.0640879955,0.2156045254,-0.7211423061,-1.8287983085,-1.6888147178,-1.6255088473,0.1046210337,1.3195430423,-1.0758668841,0.3662237602,-0.5486050097,0.9033646809,-1.1989399017,-0.1735139079,0.1568440864,1.0830637989,0.9654957409,-0.9697482539,-0.4215291417,-0.5196977675,-0.0661408936,1.7760413477,-2.5018062516,3.469179984,2.0715922937,2.0261251962,-0.6969564568,-0.2080322754,0.3564254513,0.7297318989,-1.3586844931,-0.3240434247,0.3206465663,1.2625483353,2.5738571996,0.1034011036,0.1231721018,0.8524483328,-0.4914791428,0.2616643772,-2.3341160973,0.3446645569,-0.1847719466,1.8021128791,0.3661460928,-0.6231848232,0.889095293,-0.5250488233,-0.1032900647,0.8517621672,0.9450940383,0.4020174006,0.5568058306,0.8084418818,-0.9103946374,0.6398501885,2.1296088756,-1.0243046906,-1.0894507403,0.931563268,-0.6321854294,0.0336735121,2.0169807251,2.7644114292,2.9999876014,0.9289819598,0.3095368833,1.5554393133,-2.1336910234,-2.1908570241,-1.1503925789,0.5350064141,-0.3041518128,0.8431401338,0.9215742253,0.1244093472,0.2864378889,-0.0558288912,-0.1753572993,1.0785569873,0.8933795079,0.4839539118,-0.1401359278,-1.2235737722,-1.7964339636,1.9575637916,0.2332019574,-1.3940227561,0.2218279292,-0.1872998875,-1.5203037083,0.1877499082,1.9941112789,-0.3667821106,3.5090168829,-0.2600609074,-0.4064525204,-1.6565892854,-0.3737239403,0.0184615698,-0.0187737398,1.9979833234,0.6400789647,-1.321951883,-0.4457339729,0.1385030331,-1.4070943845,-0.3181485933,-1.9322707068,-2.71207167,-0.1469356935,0.0867293113,-0.9787951686,-1.7443157449,-0.0958268546,1.5366048293,0.6618060194,-2.0855122046,1.168565545,0.9449787164,-0.7390268792,-0.9005008059,-2.9702667766,1.3698105939,3.1699130954,-0.6215806009,-0.4818430838,0.5645156521,0.7282863819,2.8055146028,1.0421532041,1.0046711384,-2.522026084,1.4870861969,1.6145926169,0.5554956929,0.275843716,0.562511839,-1.6896730931,-0.9588944785,0.9783610416,0.8781192608,0.1914158202,-0.4751257464,0.2057254985,-0.388649787,-0.6291684472,-1.6483409584,0.0569333555,0.4782405421,0.1711688414,0.2422276176,-3.0726567095,1.4480800273,-0.2086678531,-0.3542139806,-1.2689977316,-0.6497411183,0.5150373961,0.5368606604,-0.8555966223,0.4455139791,-0.182176209,-1.2362759975,-0.0430604336,1.0969845725,-1.3050823003,0.4634972906,0.1540466477,1.3594639011,-0.4250459451,0.2870518718,0.0432981335,0.2607883163,2.8604266046,-0.4075664096,-1.2619782304,-1.684453345,0.6063871532,0.0721257703,-0.427390247,0.6840118848,0.1618900025,-0.224316576,-0.5573035404,0.1197018167,-1.1434990369,-0.9729489072,0.037781684,-0.2588716042,-2.3202273873,0.8709363984,-1.5704120485,1.0540659501,0.0505813902,1.0136403691,0.1802918286,-1.2218111118,0.136082305,0.849317601,0.9036620403,-0.8639596261,-0.0136020183,-0.0966040692,0.186940066,2.9267495835,-2.1958469661,1.2904103975,-0.1651099136,1.0711289373,-0.8360606695,-0.1130877842,-0.2820067268,0.9288826688,-0.4145665924,-0.8871710885,-0.476131745,-1.2252245513,-0.0573704819,-0.5585395913,-0.8106689546,1.4678296593,-0.6690736953,1.7296511533,-1.3636060184,-1.5754303867,0.1998030511,-0.935323049,0.584745002,-0.4903400746,1.7860370843,1.3283067372,-0.9636453124,0.7629132043,1.1536011822,0.7541253466,1.5981001927,-1.2000124099,0.3800406809,-0.4909544048,-0.2361595466,0.8118547777,1.255770854,-1.7116691908,0.1295555644,-1.1952018743,-0.2104241522,0.1850814728,1.1504033045,-0.5220584923,-1.3695640476,-1.833462168,1.9614085304,-0.491384291,0.37124032,0.1985884362,-0.0775250327,0.1584550173,0.8651762945,3.4726946759,-0.1789577641,-0.7417828323,0.0852431599,-1.0096931692,0.3640817095,-0.4685715502,-0.3940241861,1.322570662,-0.3772065531,1.4572802013,0.2350337234,-1.2889758123,1.084470245,-1.4144680262,-0.5688719026,-2.6119662417,0.105293007,-0.7072959301,0.5902961824,-1.0770946433,-0.0401426793,0.1180560486,0.6634919382,-0.3757605505,0.0935691938,1.9038971677,-0.6918007925,-0.5981182997,-0.9468352227,-0.2880848513,-0.2731427786,-2.7455007765,0.0387206184,-0.7942613915,1.6526113373,0.6544881556,-0.8129201765,1.1959529538,-0.491045344,-0.6260527384,-1.2970276605,1.002404379,-1.8050039723,1.5329824308,0.4842746289,0.1964927577,1.9922958779,-1.0264191038,1.1685454585,-0.12860848,0.9455057206,-0.5107853892,1.5177460336,1.4555836858,1.1323080138,0.4477397238,-0.6693230847,0.0775513454,0.2732217928,-1.5384007095,2.0761058187,-1.34736935,1.3863548427,-3.1377499925,0.5515407424,-2.4724968441,-1.593088177,0.9525503244,-1.628091902,-0.5910943333,-1.8759247326,-2.3628967027,0.9992455209,-0.4008471978,0.0309644477,0.3491178855,-1.1599761124,-0.8338994771,-1.4754712318,0.2044504772,-0.0952530736,-0.4659379019,-0.193577637,-0.6257785277,0.1981918546,-0.113885318,0.7598462366,-0.8919758854,0.4515122781,1.9521114876,-1.4242030943,0.2186591014,-1.2002031687,0.2593622928,-0.4453760987,0.5126513026,-0.552996349,1.3087268375,-0.4700036368,-0.0769313301,0.6019140361,-0.5787913255,0.7008889166,0.8176927367,0.1771677178,0.0618205214,-1.1888340175,0.6721386925,0.6556904633,0.3528563758,0.0972951487,0.4226068297,-0.7999248803,1.9788388288,0.7550513451,1.1803479941,-1.3245512564,0.2145937072,-1.4894168413,0.4056240233,-0.687449782,-2.5902781801,2.2677328191,-0.7906491624,-0.7118051846,-0.5386476149,-0.08257012,-0.6592782803,0.8835932237,-0.3792633649,1.636851526,-0.2022145341,-0.2788683427,1.5229929214,-2.842405641,0.4416328144,-0.0156664445,0.0926648134,1.8240271755,1.0035053443,0.8346522592,-0.5495036459,0.6435209343,-0.0013345232,-1.1651686876,-0.0800608947,0.5908247563,0.2492016811,-0.3091563294,-0.179380303,-1.9382446253,0.8300945376,0.9787478264,0.5656422989,1.665424741,1.7027315413,-0.1538760194,-0.7992575429,0.4924873626,-0.8982452803,-1.491070269,0.3237310263,-0.1033834395,2.4947425427,0.4563759244,0.6858451954,-0.3626260118,-0.160752425,0.4743856236,0.7616568995,0.4068701782,-0.3216194269,0.3597137967,-1.4447501072,-1.5815520098,-0.3080905822,-0.5583394554,0.3645784797,-0.7904955485,-0.1876417729,1.6742955559,1.6928698336,-0.5171814901,-1.0035552234,0.2489232665,0.1166968484,0.4966041571,-1.212163373,-1.2113872995,0.664559214,0.0374326408,0.737676015,0.034781603,2.2321413535,0.0744745626,-2.7058629348,0.5065651703,0.4172854315,1.0790460087,0.4482820779,1.2568941853,1.472328821,-0.1091669798,-0.3537784244,1.8517479279,-2.3635908507,-0.8314113072,0.9170415087,0.1413941331,0.0743107942,0.0960647305,-1.3640657313,1.4789062683,-1.1173248063,-0.5891974822,2.5203389404,-0.7293963214,1.8480136568,-1.699525398,1.1486148923,0.6987227012,-0.3258288567,-0.2676508853,-0.1740466975,-0.0444635491,1.1377359471,-0.3281286039,0.3197239682,-0.1769839152,0.4126252065,1.361831459,-0.9027913077,0.2681127668,1.4711882313,0.9148154924,0.9129734215,-1.5209546756,3.042819463,0.5292447001,-0.9000366868,0.3309778357,0.7821211949,0.4175782337,-2.6393542154,0.2098881654,-1.6321989202,0.6401834832,-0.4167456622,-2.131118279,-1.7630064499,0.7612174069,-0.8967210486,-1.7668132719,-0.0534136729,0.075438039,-1.2483951647,-2.8519692397,0.5860210519,-0.0509350859,2.9646767751,0.66941336,-0.9280574035,0.3553151953,-0.4388190089,-1.0923987313,-0.3776840789,0.5839004055,0.1056322697,-0.5323366557,1.3566328485,0.5524089209,1.4058709215,0.6223548446,-0.6740586628,0.7162389208,2.0614656903,-0.5497125557,0.7680383887,0.2720102955,-0.8793801542,1.1111216171,0.879331594,-1.7681233237,0.8059092036,0.6179529111,0.6756755575,0.2780298539,0.410420888,-0.0321875372,-0.605891075,1.1161746739,-1.0434779315,-0.3234070951,-0.2761627021,0.7117236221,-0.2017503052,0.1745048204,-0.5096779839,3.8787049923,0.6097702178,0.2039525113,-0.5423740022,-0.7183241468,-1.1483062296,0.2886288675,-1.3516321471,0.9306626826,0.9068289113,1.5170830776,-1.7313152186,-2.5895779169,0.7463380555,-0.0033257787,0.0619340934,-1.6350179279,-1.3161685086,-0.2441112513,0.6305660423,-0.0268218021,0.086725325,1.6163903285,0.7690134791,1.2692104217,-0.6055295435,-0.0593459008,2.1964708401,1.8411816,-0.8392644939,-0.8888641894,0.0948787918,-1.5301931267,0.543206237,1.4001463645,0.1970419318,0.5998137817,-2.305444088,0.1845167015,0.984401315,1.2347782704,0.3784733896,-1.0397560006,1.6744363036,0.2495467199,-0.240038333,1.0016093244,-0.3359757123,1.6174558628,-0.1794480584,-0.8512759539,0.6964427397,-0.9604237575,-0.0371295756,-1.8070646909,0.5841579184,2.8902254892,-1.058151839,-0.0340024857,-0.2015512091,2.0585734998,0.5726221814,0.0434355509,0.1620464587,1.1816178927,-2.0917241792,1.9240573589,0.2558272098,-0.8074986044,-0.6718499304,-1.4254021522,0.7223438617,-1.0869236626,0.2810432415,1.3461618865,0.374620403,-0.37095893,-0.8880399957,-1.1968386488,-0.2783859293,1.1464703897,0.1234407209,-1.0656857318,0.8781326129,1.948878427,0.6944382717,-1.8553202479,-0.5179061846,1.9772502509,-0.672975876,2.0010532991,0.2454446218,0.6494317058,-1.1227150147,0.4070854319,-1.237394353,1.6400383939,2.7514403123,-0.0996053406,0.3767302716,0.5970945463,-0.6318636594,2.3655962296,-1.937874885,-0.1600622398,-0.6286452652,-0.3408560975,-0.461420553,-0.1355119937,-1.3205452917,1.7016790208,0.1006831539,1.4428276483,-0.8537338895,0.4420206683,1.5808696847,0.3029171506,-0.7740765101,-0.9002549939,-0.2526726992,-0.583699949,1.1894668135,-1.9044847921,-1.041962258,-0.0429961883,0.3183234834,0.8719577149,0.0253162952,-0.8328887673,0.8265157015,-0.2094028343,-1.2412626909,0.4296048938,-1.1665193455,1.3039315453,-0.7090891109,1.0465523273,1.0183738041,-1.4089131896,-0.240997033,-1.5293417548,0.1796977025,-1.5565286634,0.5720070277,-1.7198323905,0.2585195604,1.5339169095,-2.278297668,1.0049137451,-1.5667485443,0.4097240679,-0.1955836931,-1.7280869394,-0.7621127404,-0.6307985318,-2.2583141666,-0.894885262,1.7207701786,1.6202966385,0.6144920273,0.3083063358,-0.2799954175,0.8639029049,2.225828757,3.160182515,-0.719774976,0.5938596241,1.0035661266,0.6875209806,2.1679700166,0.2256543835,-1.476878095,1.9944094066,0.1246220736,1.0922997065,-1.0432244451,-0.3063967932,1.6683812175,0.8285586518,-1.7557509167,-0.8379249594,0.2064234133,-0.0906571409,-0.7260325628,0.2204674572,-1.0507355369,0.6387432899,0.019274397,0.5090710038,1.3947084485,-0.4262431094,0.5686579346,1.011659054,-0.6505416235,0.4136271427,-1.1043577832,-0.9910054905,0.8621751244,0.6432936769,0.9901197814,-0.2983285874,-0.6508488289,-2.0871694343,1.6387345379,0.4311964968,1.6328515839,3.5174784128,-0.9602059304,0.3399002889,0.683973887,0.0667465876,-3.0880293513,-1.1432132389,-0.7442128796,-0.302351894,-0.6738195019,1.0911241217,-0.9924139646,-1.4043779446,-1.4309208315,-1.4364233569,0.1662637206,-1.0713942891,-0.3344449747,1.2943442168,1.4885825214,-0.6081775962,-1.797637948,1.1653031905,-0.9450734554,-0.9627181947,1.3415129628,1.9690527584,-1.2170117788,0.806035542,0.9398543127,0.5932253997,-1.8148753344,-0.7356653677,-0.0188856697,1.3510918254,0.219951816,-0.3102696015,-1.0585474597,0.0116752249,-0.0035938603,1.067996418,-3.4032466571,0.6713275109,0.8736385319,0.9178598443,-0.1090094476,2.1241156327,-0.848010699,-2.2614396246,-1.6956632981,-0.3791671408,-0.533803041,-1.1880812337,0.2583949624,-1.9283495097,-0.8897796445,-0.6733497186,-0.2889582331,1.6140672956,1.5022254592,0.0826697797,-1.554767008,-1.0905171115,0.5081168082,-0.9177277914,0.7960018681,1.2788736927,-0.0453667016,1.5612831357,-0.6325083991,2.3405210759,1.0308162623,-0.1538079822,-1.2664503005,-0.0073396644,1.5692260929,-0.3634501866,0.0530376159,1.5808459322,0.1794896535,0.7248587153,-0.3813641287,2.1592981584,-1.4385087454,-1.450091875,-0.1100592675,-0.6651483828,0.5141199214,1.3238145817,1.6192591522,-1.9016484998,1.3383577094,-1.0904846869,-1.5782589369,0.2333455741,-1.0271146844,2.5238746123,-0.351865611,-0.0899332874,-0.4267194288,-0.1367214612,0.9176794015,0.4087519566,0.1673203481,-1.131589652,0.7411991525,-0.737246327,-1.4792518446,0.8450918144,-0.0174758888,0.4340673921,0.0052228274,1.8488411654,1.9213911757,0.7801651167,0.9458594951,1.1220000287,-0.0665651781,-0.1958727476,-2.0206196443,-1.6923835182,0.619534438,0.5967747344,-0.110537277,1.0915727161,-0.5097545701,1.2194839063,-1.2598600767,1.4608175274,-1.8507986303,0.3067518347,1.3562558474,1.2361578819,0.9275249222,-0.639434518,0.9334167646,0.4366739941,-0.5391370927,-0.8649808921,1.754145555,-0.1117328065,0.9484409811,1.4501793298,0.0960344028,-0.396886199,-0.8625324154,-1.2376854518,0.094477845,-0.0469989742,2.1361607741,0.5355293701,0.1804607952,-3.0552233423,1.9862012629,-0.2112976731,-0.7933288122,1.9004275136,-1.4964869198,-0.0601756364,-0.0076739777,-0.7696012454,1.487363969,-0.1877719553,-0.0382393302,-0.6509867316,-0.1128808785,0.4671542939,0.3343766479,0.4534506127,-0.6800228894,0.3726607296,-0.196967328,-0.5715365708,-0.2770942861,0.4358645463,-0.0825082341,0.2730782497,1.8043598002,0.2612487558,0.0056249303,0.0097637029,-0.570604099,-0.2697364355,-2.7166233555,-0.4699930252,0.3330222968,-0.1959595373,1.5679577683,-0.3936531894,-1.1515385159,1.3493375341,-1.212102613,-0.2824640312,1.8433633539,-1.4323887864,0.1893810453,-0.1195070097,-0.7069558145,-1.1361267567,0.2956590919,-0.2072782393,-1.4223368546,0.2209028697,1.0018484367,-0.3033578459,0.2186210316,-0.8651261539,-0.1489140115,-1.9808812788,0.8349200754,0.7691813864,-0.1982333469,-0.6927863839,1.3431614122,1.6852907577,-0.7797701872,-2.7475062975,-1.209626237,-0.9336453146,-0.1325360902,-0.0040293047,0.7725493337,-2.2122141259,-0.9293358337,-0.0691924613,-1.0615613393,-0.3364163995,1.5659146193,-1.0966949295,-2.9254624235,-0.1101622111,0.2605997379,-0.2334496996,0.1335893248,0.3550140813,-0.6471246174,0.2900170447,-0.2133815262,1.4083068751,1.0470779211,0.2556485662,0.2101504723,1.6548835437,-0.5719337969,0.2784285599,-1.2532562259,-0.2476954304,-2.5204417326,-0.9431346953,-2.0273241224,0.6274721011,-0.2061164184,-0.4634437581,-0.6523388162,-0.9842270245,-0.8159854785,0.295733085,-0.1674182308,-0.1003902688,-0.522772211,-1.1598600119,0.0406831045,0.4635290001,0.0249973073,0.2358881044,0.4540485064,-1.7527310842,0.7664939917,1.1233593146,-0.5715220169,1.8298079033,-0.6713623031,-0.8952506358,1.5729309942,0.3083850953,-0.0939300971,-2.843352848,-0.0021087268,-1.7888141646,1.0644622565,-0.2722863514,0.3955148825,-0.7754168871,-0.3718158038,-0.9655731578,-0.8969629842,0.1147149589,1.3363573986,-0.81911915,0.7895369931,-0.0655994684,-0.6478522293,0.157976834,0.3418057678,1.6245922163,-0.5752489752,0.3249387687,-0.0783242751,4.7102810457,1.4792085709,-1.4890031783,1.0898593739,-1.3505955526,1.4821422765,0.8329302202,-1.758463223,-1.5993495953,0.0483193005,1.6386155517,-0.6261100983,-0.4989533293,0.9006816199,-0.3131187765,-1.2156565673,-0.9218258925,0.5548893699,-0.4654784112,2.117480423,-0.7061742585,-0.4250018849,0.0726241025,0.212171768,0.6994164989,-1.9307196102,3.5753712112,-0.7440445017,0.0995261664,0.4533765233,2.0816957815,-0.7585483403,-1.1590075562,-0.2319621001,0.428042794,-1.4213422903,-0.7490298281,-0.7139713068,-0.761492702,1.8202172903,-1.203679003,-0.1060651146,-0.3380001221,-0.420694707,-0.0098138872,-0.1848858831,0.3240114374,-2.4077488029,0.6910907364,-0.3676713135,-0.7910691092,-1.7506946153,-0.940493794,-2.0305065089,0.270845628,0.6843652328,1.2966045501,2.2313135476,-2.1332828072,-0.8028303985,-0.6329695673,-0.8944827155,-1.1693906048,0.9227876618,2.0025740057,-1.4299602921,-1.3333541201,2.0014665461,-0.3169742458,0.5429505754,1.8764064647,0.5961606705,-0.4665784354,-0.8406306054,0.0823231795,-0.6117747086,1.778855808,-0.7444241083,0.1623254975,-0.0717197443,-1.5337070174,0.8192789805,0.7204158796,2.8237322919,-0.4649775244,1.6157305665,0.2355350894,1.6130445904,-0.7743668621,0.2485060776,-1.1935803996,-1.1329003579,2.7128395123,2.0355021965,-0.5086438545,1.6894650615,0.0850160293,0.6990445156,0.8276114752,-0.2305750838,-0.9550589487,0.4964222458,-0.8713579983,-0.2425954465,0.1949328267,0.0552125097,0.162017808,2.502147963,1.1835815881,0.1642744044,-1.6457284495,0.9044442668,0.4222292624,0.9716732979,-0.5880759341,-0.5571035124,0.6547718497,-0.3508646659,-0.6182708771,-0.6813223655,0.126100822,1.1178673939,-1.612490532,0.2606226309,1.3289387395,-0.4552262898,1.5689096466,0.081364181,-1.5384430993,-0.8372647495,0.5627180641,0.2064641212,0.4826986512,0.6773857845,-0.4246779897,-0.3937726713,0.2254175567,-0.9335394606,0.1585698228,0.0293550041,2.0151513179,-0.7718454633,0.3280051401,0.522472743,0.2222983697,-1.3029179791,0.4595088877,0.2872386107,1.2589450604,-1.4616116983,0.4119329961,-1.519590314,0.6685362457,-0.5461534253,-0.1853020483,1.1248255642,-0.411378449,0.1573349241,-1.194050006,-2.0907101599,-0.4061734095,1.7561379917,0.0314585605,-1.2926939734,-1.0455160335,-0.9494669721,1.2086781659,0.9218202661,-0.0191409951,-1.3287963259,0.5715041816,1.9179730289,0.0507067158,2.2113888378,0.0663900593,0.4209510568,2.4529856485,-0.001959224,-0.4665489869,-0.6143979204,-1.4713348018,1.1423382792,0.2841056772,-1.7650945524,-1.1057514322,-0.1471269365,-1.0996414626,0.0741489749,-0.8182214071,1.4832134324,-0.694958242,0.6320811943,0.4239093388,2.3834253692,0.0396578377,1.766739307,1.3648827381,0.804339053,-0.0509120699,-0.1846926332,1.5531611927,1.2536792588,-0.518047014,1.9612098744,0.9494639345,0.8273819754,-0.8398071392,-0.4257356916,0.4312467286,0.3671836186,-0.8296097046,-0.7665983662,-0.3821372171,-1.1224540374,0.2348764071,2.134607965,-0.3194607277,0.8684180831,-3.1543017953,-0.1099159469,0.7621972444,0.3652977749,0.1566828673,1.5378067212,0.446713642,-0.8827504336,-0.5701760803,-0.1906018151,0.5588211973,0.7460519707,-2.1136736063,0.686968232,0.1184023662,0.8213295859,0.7621289639,1.339137719,0.1724839397,0.6390706238,-0.6674655288,-0.186496989,1.0324025365,-1.2751880086,-0.3645832494,-2.4790186618,2.362709606,-0.2433695101,-0.5721747142,-2.2464304573,1.3042191718,-2.169697251,-1.2742315759,-0.9835940487,0.2111754683,-0.5489638744,1.1563628508,1.9918768827,0.4298607116,1.2842627657,-0.1933333732,2.056184716,-0.5651804352,0.3509936528,0.9467347059,-0.324375443,-0.9146427572,-1.6183414584,-1.9723709687,0.1011395176,0.0273665377,0.7886242844,1.1527712198,-1.3936461559,1.2121812776,1.7853313018,0.5154328546,-0.7605010001,0.7902455617,0.22060046,0.4422393639,-0.084245068,1.5267364811,-0.4826605753,0.1481966165,0.942703424,-0.2490312357,3.0766685059,-0.2302894161,-0.5274773964,0.1873906971,0.4800494863,1.0051265352,0.2812630506,-0.1542104685,-0.5082907572,0.9459913307,-1.0785033753,0.7387879354,0.2904182933,1.2992808139,0.3133662268,0.7899065301,-1.0047755787,0.5872702745,-2.3237845986,-0.3097174132,1.013435503,0.6243444011,0.3547082994,-2.3331145667,-0.3158128975,-1.1993471161,1.6097611077,-0.859300165,-2.4415772753,0.1405955148,0.292521734,0.8226987435,-1.8684187519,0.437447845,-1.734393106,0.6069076615,-0.7156567208,-0.1881973089,-2.1380319394,0.351300044,-1.4227485835,-0.4120866309,1.8244480593,0.1537769563,0.7173562923,-0.7613397632,1.5864026631,1.2443582196,-0.8600978015,2.0296780428,-2.0075355726,0.0656291225,-1.3137200477,0.900265828,-0.8225393528,-1.1153290427,0.4345727111,-0.581311619,-0.6995833708,-0.2809572826,0.7160876447,-2.1936149565,-1.6474381981
   0.9254820599,2.6664156848,0.7884384803,1.0279846237,-1.1408568561,-0.4568558628,-0.5516187036,-0.3250137565,0.1486348772,-1.5831492729,0.9591748018,-2.0312117567,-0.1326713468,0.1368843214,0.1212666061,2.0391578562,-0.5389754018,-0.5606681332,-1.0078998857,-1.7299015139,-1.2773523893,0.520815624,0.696656236,0.5323407379,0.3889137021,-1.7734281497,-1.4934974266,-0.9111695348,-0.5689287178,-2.1503422455,-0.9113338904,-0.0467984502,-0.2018264201,0.2030422284,1.6630087891,0.8775142594,0.6957051771,0.2426311731,-0.0976830043,-0.5598312358,1.1136531307,1.2458110186,0.8241526075,-1.2991992226,-0.2888198035,0.8972750423,-1.2875099388,-0.0325000144,-2.0128107514,-0.9966567409,-1.9551797793,-0.2872203113,2.5638550108,-0.7162499287,2.8849429319,2.6228618599,-2.0116646989,-0.7941832545,0.9839872372,0.28983564,-0.4090110235,-0.1400032306,-0.7673792829,-0.4673288661,-1.2936087534,-0.8541292601,-0.782232528,0.1453738903,0.1452920695,0.1527494403,0.8504459114,-0.732664922,-0.2490335023,-0.6754361594,-0.331911672,-1.5427738084,1.0064187866,0.4356241817,2.2480469931,-0.7605471664,1.2791329754,1.5706642248,-2.2031052193,0.1297118211,0.5825675148,-0.4808776427,-1.3393590504,2.0608895955,-1.7429659965,0.3550009899,0.9099021608,-0.0227979593,-1.6064558608,1.1589293377,-1.9107595494,-0.7576038328,-0.3964671184,0.358757749,-0.4952348538,-0.8034824086,-1.1361812426,0.0914453906,0.2268746332,-0.4541824649,0.4855499872,0.7495538969,-1.1537107486,-0.7344496027,0.940129273,0.3169554795,-1.928880406,0.2886921671,0.4796075063,-1.5276709117,-0.6376445163,-0.6665586662,0.321629264,1.9696721711,0.111059403,-0.636260942,0.8714691482,0.1157805615,-0.0550549782,1.2268854823,-1.1476043679,1.1216840365,-1.3275418177,-1.2812520463,-0.0970711526,0.9948550463,-0.6296664385,-0.1727063293,1.0567793039,-0.5911318425,0.3691607652,-2.4232148604,-0.5325140308,-0.0452386809,0.0370072886,-0.4878977894,0.104205602,-1.6395721071,1.1959594853,0.2383829463,-2.3916921153,-1.8597352776,-1.0204996644,0.8349338478,-1.595854899,-0.817675596,1.1863943403,-0.5008664551,-0.4070181282,-1.0168618803,-0.8285086685,1.8121776516,-0.2177693199,-0.2840727353,1.3055555462,-0.7734377437,1.0004255699,-0.0959373728,-0.1184871559,-1.2327570676,-0.0151091369,-1.0075060862,0.391069172,0.4732074745,-0.2533257263,-1.3585654426,-1.5536781496,-2.3195065024,0.3457397682,1.9121278586,0.4006339788,-0.8043335664,-0.3807056558,1.7232212729,0.2565008843,-1.7820367971,0.9075745297,1.3705737916,-0.0661673679,2.3001550289,0.7210412557,-0.1687886799,-1.6252061443,-2.037223935,-1.7826801784,-1.7084255904,-0.1241714077,2.0098083381,-0.8803929671,0.2130278989,0.2654760594,1.2289513682,0.4633527117,0.6634620855,-1.6209415737,0.2205485004,-0.7791652782,0.5098751174,-1.0987675118,-1.128405286,1.5530088184,-0.6783261559,-0.4305949174,1.2443319593,0.0429481583,-0.5880378679,0.627556081,-1.341788619,0.6966956177,-0.2527682784,0.3653955345,1.1454598812,-1.1373166821,-0.8616970774,0.8849330904,2.4528139315,-2.1659262954,0.3248828741,-0.3993701035,-2.6535988879,-0.4585146005,0.6984223527,1.6561551581,0.5171706476,-1.1623294584,-2.0174224206,1.5403795066,0.376647582,0.0089774209,-0.6202259883,0.0135863761,2.5210068314,-1.0756667368,2.2875464341,-0.7527630301,0.5172690917,0.1874046292,-0.0495069327,1.1643209327,-1.2030817871,-0.1972748823,0.3347881867,-0.5846062906,1.1263724121,-0.4562449913,0.2440023369,-1.5754328838,-0.9724142343,0.6023573646,0.5253539295,-0.5437394422,-0.3254597907,-1.7704391456,-0.2623109089,0.4193198695,-0.3050608385,-0.9329572802,0.3517935464,1.0819431429,0.1578644132,-0.7054849584,1.4402118423,0.3455449672,0.5519716185,1.5314124759,-0.8160456344,-1.4456849067,-0.2486449446,0.1237937528,-0.8088290789,-0.0439949129,2.4244913448,2.2557150876,0.091699521,2.0716126514,-0.1578295385,-0.994963474,-0.2327596366,-0.1242377304,-0.0739914337,-1.5522767535,-1.465145857,-0.6104954813,-1.455536691,-0.5163125291,-0.3625134573,1.1018842196,-0.6798649421,-2.3709901098,1.5973990314,1.6594999211,-0.8820064131,0.0029788175,-2.1960732253,-0.7688361161,0.9362472564,-0.8336812333,-0.8023588354,-1.0446390628,-1.1933465172,-0.6935324103,-0.3220571679,0.2366781888,-2.0755189194,0.4078017163,0.0028146179,-1.1928065863,0.2017816554,0.4020218645,-1.1690710493,0.6195609541,-0.3753131355,-0.2338245128,-0.5570661181,-0.8614878948,0.3289966657,-0.1142621395,-0.4189416865,-0.7814749013,1.7889197454,0.9552848846,-0.8439824587,0.0427457207,-0.0497092953,-2.3571390147,-0.0430343807,-0.1428632456,-0.0419929344,0.687311886,1.604934037,0.1404949698,-2.524465182,0.3338859771,1.0022351272,-0.5188370361,-0.2603371714,-0.2859589851,1.3658199507,2.1913806135,-1.0473529205,-1.4708314714,-1.738480809,0.9274085124,-0.7247248091,1.4597643801,1.4803183716,-0.2956760954,2.0269595529,0.0260533338,-1.3275953836,-0.6782464555,0.1707029769,2.2524066712,-0.3602156408,3.144413018,1.0171715726,1.0097109721,-0.4015314925,-2.1020661293,-0.9919778485,0.262810751,0.682813801,-1.1739560509,1.7459366351,-0.2419156703,-0.0058792056,0.8846538557,1.1044644418,0.2496430887,-1.1386255159,-0.2733980454,-0.8760623133,-0.5790925984,0.4372265514,-2.0764924631,-0.0323718358,0.5420543341,-1.371220971,-0.7506609381,-0.7044202896,0.834470197,-0.9613357821,-1.8046652903,0.2516817371,-0.5723715909,0.2152373775,-0.4976376442,1.153293146,1.252705752,0.6588489373,0.2048247246,-1.6232041983,0.2713724928,1.4677544422,1.6573803215,2.1337527269,0.8128677554,1.5518669891,1.6210356611,-0.9101109833,1.0712501364,1.7730891602,-0.4311769336,-1.2792064945,0.8489915283,-1.4580125578,0.9949054741,-1.2795559511,2.4370371138,-0.0594823486,-1.38943873,-2.6076611171,0.9800988291,-1.0854280653,0.9288199355,-3.4150633114,-1.6271928825,0.7032556617,-0.3510130786,-2.0380108984,0.965262343,0.084620598,1.677525835,1.6746483868,0.3113766269,0.4091789633,1.1492412427,1.2016092818,-0.2698438722,0.3032285147,-0.3443744116,-0.7735363589,-2.1094430658,0.0952141953,-0.359615373,-1.5163759315,-2.2185886417,0.2300588966,0.1927519774,1.6919804938,-0.0180072499,0.8361461772,0.9424163196,-1.6444006099,0.0435469159,0.5962841445,-1.1882612265,-0.6764272546,1.1488720122,1.3127474918,-0.4605726428,0.6185364679,1.3018512291,-0.5484770865,-2.031768722,1.5503429635,-1.2047938193,-0.4813130727,2.2636972271,-0.1061803246,0.8044634566,0.7885918612,-0.5677197442,1.7599401864,-2.4214459163,-0.0340779019,1.3169355951,0.551784189,0.5390506839,0.4176353639,2.5809694234,1.9098968116,-0.1851669286,0.2102335931,1.5571717534,0.5732466495,-2.069397416,0.3429161296,1.4933449718,-0.1454359644,0.8746742071,-1.6862029211,0.052058228,1.7359777047,-1.3220876474,0.4240341294,0.3516523853,-1.0246613848,-0.4741471936,-1.6206483322,-0.5007051404,-1.7361924354,0.6273050191,0.9326050944,2.2762709897,-1.0340647308,-0.4365722808,0.481309369,1.8676722576,1.2436534904,0.7823324129,-0.5482441979,-0.4840333902,0.9298720897,0.0939135641,0.6722067485,-1.6230222544,-1.4836824595,-0.0696192605,-0.2243513161,-0.0670282092,1.4888920185,2.4319925925,0.3078230922,-1.1874470044,1.7321510683,1.0328869698,0.6217410733,-1.1455956478,-0.7448060297,0.3409029636,-1.7110516984,-0.2579672265,-0.7833502431,0.0821732766,-0.29167997,0.1417679678,0.2192160395,0.0924001626,-2.2174265979,0.1123388244,-1.377410065,1.692280735,1.523252852,-0.7446574306,2.1555079555,-0.0304348744,-0.0639077802,-1.6669546837,0.6372353676,0.03138094,1.5294982131,0.3152919878,-1.1213886955,1.446698507,-0.7721884301,-1.1566391596,0.4979810972,0.5108179612,0.1263537233,0.8469006739,-0.9873294409,1.0927892434,0.1737013825,1.4661551408,1.7448851042,-1.3966561128,1.111152978,0.1993301799,0.9624587823,-0.5418830502,0.573985376,-0.8359900601,0.5155329931,-1.9833540566,0.5258505139,-0.576776597,-0.0508169522,-1.356235499,-0.2470091792,-0.2517941853,-1.2096401833,0.2173157052,2.6423656092,0.6629622113,-0.4704795639,1.3818819423,-2.894541217,0.2543181538,-0.759987868,0.9347531067,0.4364761768,3.00586497,-0.4538088222,-0.4235013098,-2.0947278897,-1.4247945461,0.2149557406,0.955551156,1.1975317738,-1.2091675885,-1.6951337776,0.779826649,0.8544673385,0.8809184888,-0.8149345149,-2.8234099843,0.1595470013,1.3640201518,0.6079960714,-1.1713704799,-0.1402094819,1.2604366482,-0.0962694549,0.2343747481,1.3259195923,0.1220256214,-0.8277825378,0.1629952056,0.2359827009,-1.8064693282,0.5194186321,-0.6941280972,-2.7981136262,0.7750579102,0.3460675008,0.661090621,-0.438641972,1.2144123483,2.2976222463,0.2453121589,0.3496623315,0.2347680818,0.4693583722,0.7635917483,-0.3239698068,1.2772321673,1.2047086444,1.3487181542,1.0987794505,0.152852393,-0.9278126983,0.1544647597,0.3520424315,0.8433822978,0.7828140883,0.589363735,-2.0159208979,0.7210563917,0.7590700743,-0.0703937552,-0.2082152976,0.1486464519,0.3967332521,0.4107404304,-0.3357465009,-0.9498272868,0.7200755594,-0.1650474454,0.9722476206,0.4022596162,0.852343118,0.5234439035,-0.5661922555,0.6315327162,-0.8401263943,-0.2897848143,0.8175279276,-0.8160858553,-0.5258661379,-0.0957589457,-0.0065081748,1.14596952,2.4841038874,0.4865269626,-0.0569787794,-1.1497981929,1.1496572305,1.7928417375,2.7533240877,1.6997595558,-0.3513650176,-0.0863737343,2.1615393537,-0.88060604,-1.7963949548,0.7997570044,-0.1834770671,1.1081772803,0.5671981649,1.6857903156,-2.387265294,-0.4110093634,-0.9021181432,1.2765874578,-0.0778955934,1.6068226065,0.9249215703,-0.3285628979,-1.6494881124,2.2160118328,-0.3444722736,0.1893270149,-1.1262113058,-1.4244962015,-0.5480577489,-0.363821258,0.5720538776,-1.2001287175,0.7490617612,0.5959769688,-0.9336434463,-1.5619030793,0.0505527084,-0.3803848453,-0.2317241555,-1.3387093062,0.0775383826,-1.1031541777,-1.5619860251,1.4791386235,0.7751495562,-1.0377186482,0.2199418116,0.2525404977,0.2165324658,-0.5591143761,1.9975886299,-0.6320510692,0.0160447554,-0.8264594591,0.3216658379,1.4471756222,0.0875753154,-0.2137107223,-1.2462965762,-0.1427479956,-2.4601236122,1.1596636177,0.1901890739,0.226440336,-1.8154650996,0.8355602386,-0.3152953618,2.0789968846,0.9182931832,-0.9428656734,2.4678515443,1.7933089916,-0.1370391976,-0.2093238981,0.2429582146,2.2681426656,-1.1192318669,-0.1577222119,1.0834752224,0.2560372032,0.6656565409,2.5717409047,0.3597649477,2.5631163296,0.6803670993,1.0547892867,-1.4800562562,-1.5055922693,0.8297585219,-1.5342085443,2.0938000972,-0.7251272075,0.5987071998,0.8675482911,-2.183274365,-0.713297553,-0.2128483724,-0.1455031752,0.6460305503,-0.9894568401,0.6659570976,0.5862218026,-2.0157647655,-0.4923807161,0.2996982172,-1.0658524833,0.9237170568,2.490539521,1.2549570203,0.8395545009,2.185451784,1.4026540726,0.2357598288,-1.8865934699,0.4863002617,-0.2041725291,-0.3457648046,0.8915419237,0.2989975884,0.3215847701,-0.6877393591,0.9640444892,0.4138611116,0.4594950332,-0.1746048304,-1.2300450272,-0.7594759368,-0.9504362891,-1.160999844,-1.3287594076,0.708421321,0.655625734,-1.2020040574,-1.8478655084,-0.4406458521,-0.665255674,0.276405154,-1.1746519032,0.3946870763,0.3339273625,1.8488114054,-1.248643006,-2.5393537649,-1.8965816567,0.0119955571,-0.0743689118,-0.8384644556,0.1408734346,3.2010731337,-0.0751923268,1.2639397169,1.7393584141,0.25646941,-3.2856546462,-1.457072185,-1.0361856176,-0.1492282103,-1.5121534522,-2.026097612,0.9387151559,-0.7121429354,1.3916214273,-0.3932846258,-0.5549723147,-1.8489836642,1.4686105803,-0.9361641339,0.5121133496,0.1369387837,-1.1719759339,-0.6975085516,0.0362181347,0.6749324881,-1.4093041123,-1.8598508945,-0.0859105982,-0.462505974,2.8532781215,0.1097443797,0.3592134998,-1.6822460588,0.8586617638,0.4223076996,0.232602647,2.0991968288,2.0039001773,-1.2492713015,1.6159577869,-0.8998289794,0.4004949045,-0.3816943396,3.0131534336,0.780594131,-0.2831816252,1.8840826887,-0.004086997,1.1343964135,-1.1701306791,-0.8252748249,-1.8605888256,-0.0896667264,2.0142898969,-2.0338060822,0.6260765263,-0.083503484,-0.6887397337,-0.1287702308,-0.3299041729,-0.4270127482,-1.4544902334,-1.0598423565,0.4570202447,0.6958678907,1.3911919628,0.7153431449,1.2768318634,-0.5791515305,1.7865952017,1.7865228212,2.1875473948,-1.1292319384,-1.5895682589,1.0930966254,-0.9494673735,0.0892901269,-0.0988917124,0.6177871193,0.1278439575,0.2182589424,-0.7500455304,-0.8641745632,1.6667484914,0.2647792922,-0.2515070005,1.5539597778,-1.2326176945,-0.8921644681,0.4503264505,-0.0760993095,0.3610209581,-1.4990820207,1.956647981,-1.5959119215,-0.3284258448,-2.6857387031,0.5031285845,-1.4648821939,0.7176202875,-0.1434619552,-1.7726189354,-0.4235285334,1.6335461811,-0.6894959126,-0.5482397894,-0.5410806573,0.8429521989,0.8141546548,-0.3242569532,0.5241027854,1.0894626945,-1.0822541585,-0.2455330873,-0.0876571569,0.9386065238,1.1139367945,1.4319768381,0.2927353683,-0.5172124095,1.9430579664,0.5369744229,-1.3932498511,0.1555069626,0.4940009495,-0.4766642721,0.1926530908,-1.1165270456,-0.0922780327,-0.7025280177,1.0480469302,-1.0194542296,-0.7757193627,0.3824168806,0.3432515599,0.8195530484,1.3230940959,-0.83881317,-2.0221999502,-2.3809230761,-0.4597066835,-1.600220013,-0.1652180728,0.3083554918,1.025852892,0.9517112159,-0.4853020974,0.6005350039,-0.7414916085,0.3378980116,-2.0393738706,3.2080763925,0.0305094201,1.6653559529,0.2272160178,0.6083358435,-1.4768631987,0.9309615483,-1.0840922736,0.2306560063,0.1336126645,-0.4262643493,-1.4559909376,0.6641841716,-0.0755448931,-0.0978395139,0.5705788737,2.8326198519,0.5040712,-0.201851448,0.4228193006,-1.6799068214,-0.7923836839,-0.2424221586,-1.8386318898,-2.3815725421,1.1471436929,-0.7722022636,-1.8602749966,0.6809006157,0.014400072,0.7377696189,-2.3408764234,-0.425339985,-1.0177737542,-2.887523254,0.0549658285,0.8476675882,0.4905596806,0.7980117236,-0.8689519787,-1.042671683,0.2624229893,-2.7113376045,1.7888954382,1.7243096178,-0.3213749239,-1.5217330823,-0.1100940693,0.9202351689,-0.459065527,0.693186348,-0.4802105568,-0.4474379141,-0.1571097138,-1.3117041676,0.2725325793,0.2933405379,-1.1142370258,1.2411306898,0.1585272527,1.2921334067,-0.3526496845,0.1657353977,0.564417525,-0.1588460738,0.7974378091,-0.0893443003,-0.2144519262,-1.3422628489,0.3911663115,-0.1273244211,-1.8030257533,0.6574927256,-0.4852378246,1.7629798158,0.0028856577,0.6359874747,-0.8583752475,0.7149648841,0.353318002,1.0867621874,-0.7820913655,0.2931768945,-1.2806696731,-0.2136405703,0.1543854113,-0.0560802662,-0.9718482895,-0.215630234,-0.3250292041,1.6975399044,-0.6907359972,0.0077703785,0.8128733753,0.2435131821,0.5939097444,-0.0309239958,-0.1181604939,-0.1458179971,-2.7717243401,1.3905343242,0.7988922355,-1.4132743604,0.2150338137,-0.3844188006,-1.7733923001,1.2881272891,-1.4593504675,-1.7400515187,-1.2195771278,-0.2984300945,0.4224029452,-1.2251606856,-1.1105206569,-1.4873008713,1.5198688913,1.2517893304,0.097799108,0.9648776147,-1.7675302219,1.8486478281,-0.5980218395,-0.3907673906,-1.235592975,-0.3675188375,-0.1163126274,-1.0832224299,0.4192169047,1.4520227797,-1.3814799332,-1.1294838924,0.8663998664,0.7965492174,-1.8782634369,-1.1921733257,0.8533107184,1.6358201276,0.3020448172,-0.4554039022,1.0653486912,0.6231509836,-1.5750143107,0.4605664412,1.4819576748,-0.3064865477,0.3037152259,-0.2980127756,1.1046371306,-0.2528506023,-0.3674165341,0.3741974887,-1.0401270663,0.6636962739,-2.6713492452,0.4472822028,-0.7184390721,0.8177904135,-1.248492521,1.6679984578,0.2789473404,-1.913607856,-0.0604436935,-1.0884337843,3.2104210608,-0.3404896731,-1.4050946639,1.542403202,1.2268790096,-0.4958590933,-0.8311611737,-0.630965759,-0.0692850917,-0.1729982757,-0.1767514683,-1.5298562286,0.6719929606,-0.0135352537,-0.6043739537,0.2499716143,0.9648381087,2.2960763337,0.813534367,0.2075895765,-1.4433588192,-1.6706147962,-0.8961394456,1.3612965568,0.5625614892,-0.3800117265,-1.2016285803,3.4688246513,0.6568215725,-0.3030969291,0.8658486152,-0.0307371812,0.4048610133,-0.9832280054,0.9207396219,-0.4681141587,1.114041043,-0.309280102,1.4765593006,-0.1879674824,-0.4889549395,-0.7106957689,-0.5893247747,0.8519994889,-1.4244693962,-0.9383655046,-1.0496042122,1.6525955153,-1.1397986898,1.1455555512,0.3533520593,0.5018793563,0.8551787521,-0.2433603141,-0.7497453216,1.3507068895,2.1890788796,-0.3417649056,-1.1645209123,0.8259277127,-1.2349449871,-0.5674825527,-0.4273868567,-1.3423992495,0.0150261558,0.3045790431,2.3855852308,-0.1972800908,0.8772525385,0.3711358306,0.1159990148,-1.1199057616,-1.2980481683,-1.1249647933,-0.9922565479,0.8183054231,-0.9775877186,-2.0440325674,1.1171566773,-0.1223046792,1.8219034269,-1.051082218,1.3813126162,2.5333664034,-0.4683462979,0.5034281257,-0.9448760973,-1.0733133429,3.1293690742,-2.3541940314,1.5880285469,-0.098424236,-1.7087530252,-2.7223793148,0.9825402821,-0.306491962,0.1290573642,1.4607874034,0.8709733675,-0.3339380049,0.8502301027,-0.3418284785,-1.0665537573,-0.112229574,1.2098953265,0.1911579236,-0.164881929,0.5096164643,-0.8260424388,0.0603142934,0.1439763646,-1.2106060688,-0.8253561927,-0.5478467292,-0.8767809444,1.656399918,1.659142397,-0.3974173944,0.4488059691,1.9951695581,-0.3333548631,-0.9634491296,-0.3552923311,1.7721572971,-0.5581816769,0.3387121903,1.8948197924,-1.07557877,-2.0800054535,0.2354721686,1.1898121626,-0.024235888,0.992301984,-1.71305932,-0.5559385763,0.3652066197,-0.9072442052,-1.2625834413,-0.4853061526,0.1574557002,1.2068818066,0.4485287156,1.0668952409,-0.8724890545,0.5355089711,0.6447773042,0.4380997739,2.0083504696,1.1720701751,-1.2505438301,-2.2024082625,1.6517578466,0.0457140087,-0.6471390411,-0.1199132738,-0.3314842489,1.0757794644,0.5028562049,1.3023836401,0.8718307709,2.4228682672,-0.086741838,1.4843216997,1.8486751976,-0.0389396275,1.0309199234,1.3944461066,0.0891671857,0.1184983153,1.5112374348,-0.6848757072,1.7951297181,-0.5308835011,0.7889808364,1.2137062243,-0.0755777069,-0.2421345722,1.1826509339,-1.3230832979,-0.828592381,0.9605510917,-0.4838049406,1.0694806525,0.9433845671,-0.6375371514,0.7603367137,-0.6461632282,1.3125474781,1.5867549,-1.8999370328,-1.1379772526,1.4067981656,0.2452519477,0.0373060546,-0.4489380343,-0.9946806268,1.9882617908,-1.3590932711,-1.4534222256,1.0478403861,0.9722000416,0.8425747391,-0.6313602148,0.4657909886,-0.9339352398,0.3899197673,0.323686962,-1.7520949378,1.3453821781,-0.0605328623,1.3570241539,-0.7041626651,-1.5259070527,-0.0829280286,-2.3451663803,0.1645527267,-0.0976427212,-2.0080129783,1.8452849399,-1.2429636221,-1.4960234563,-1.866528693,-0.4045843131,-0.1140494653,0.5760087098,1.4155941367,-1.4395744655,-0.0244798364,-0.8232924448,-0.491721749,-0.4904615462,0.6443729529,-0.7205632214,0.1721113285,-0.3710168175,-2.4380557649,0.5400101417,-0.0499038367,1.7662807117,1.4415682777,-0.8817678303,-0.1125787173,0.3272752971,0.235950795,0.1290941433,-0.3579260681,-1.760164721,1.0464014919,0.7459832453,-1.2084985864,-0.8721484707,0.4087109132,-1.6618990025,-1.8093159595,-0.5878575709,-0.6218922318,-0.9733365631,2.0158445488,-1.0455621136,0.6910066974,-0.5107008183,0.7615083513,-1.1394548506,-0.0805437962,-0.1677288535,-0.6677422174,0.2936987911,0.9125846698,0.2064353299,-0.7729831863,0.3812807635,-1.084095974,0.0518084375,1.0854708903,-2.8256683979,0.3477641339,-1.0369198025,-2.1549263759,1.036534529,1.4303826541,-1.3747923175,-0.8826834808,2.8144283758,0.1349501226,1.0486797387,0.2948227056,-0.3392172061,1.003296779,0.7842155775,-1.5615004111,-0.5936503702,0.5574369343,3.0472752514,-2.4235052791,-0.0854282711,0.6543534154,0.5518064229,1.4054728816,0.0598506549,1.549136536,1.1391635719,0.341390742,1.1975637114,0.5866639131,-0.1575323419,-1.3702703915,-0.3837523172,0.4416956736,-0.127647001,-0.8136886342,0.2531492202,-2.1127679923,-0.1597046028,1.0224342633,1.9303381817,-0.0426818298,1.1322586439,-2.7069676825,1.1030882651,1.9123356151,-0.1000507694,0.9974891302,1.8035994941,1.2508251928,-1.7931996822,0.1926143399,0.5801977806,1.6316200485,-0.2146964804,0.3634938748,-1.9996127934,-0.8467007567,0.1025819306,1.7957264934,-1.0003711835,1.1833564395,-1.6383417351,0.3145871833,-0.1091858458,-0.2148929205,2.472992542,1.8887472567,1.6931890052,0.4968327144,0.5430849197,1.0780760393,-1.907167576,0.6280923762,-1.2080698811,1.9694398169,0.2497239632,-1.7660303391,0.3036389009,-0.4112470699,-0.6128458325,-0.7015761032,-0.5070874414,0.56172343,0.6175421697,1.312943201,1.53316868,0.2613568022,0.4861280053,-0.7291303719,2.6267659897,-0.3485345797,-0.0937839241,0.686454925,0.7778291892,2.1125501533,-0.1600422099,-0.6184483165,-2.5202460446,1.4566891129,1.5693646837,2.4605614763,-0.5727193295,0.6519995838,3.0982568643,1.8667048636,-1.2122264692,-3.6761525081,3.405307812,-0.2051904107,0.1082442267,0.1046081002,0.4149919214,-2.1360745114,1.9768008686,1.0468262506,-1.0874153236,-2.0960861167,-0.3132338343,-0.2429379599,0.6077804614,-0.3416699785,-0.2797164497,-0.1934440176,0.5260648658,0.5989652995,0.0134117861,0.1394846476,1.1341575751,-0.4174968301,-1.790366661,0.5419383666,-0.19788631,-1.0626441025,-1.7975416349,-0.0771982322,-0.9379802948,-1.4042888639,-0.450092363,-0.4672337835,-1.0944788941,-1.259049798,0.4136215938,1.9923167559,-0.7018355015,1.7622726184,-0.4284495217,-0.5343468512,-0.9540194619,1.5614360771,0.4428741957,-1.0399219475,1.5998172523,0.2722679577,0.8496432558,-0.6676393411,1.6966561295,-0.4698686123,-1.0966261435,1.1590799214,0.4842728771,-1.7333222888,0.6492816953,-1.4970253062,1.0102116279,-1.1155447215,1.9277304755,0.2050682037,-0.7508925954,-0.1752692788,1.556169768,1.479486716,-0.1003106566,1.9220043942,-0.8466898128,-3.4763928987,0.5899251357,2.1210512938,-1.4139616117,0.8623339227,-0.4365001249,-1.7832786023,-0.134295085,0.0670029731,1.3509417937,-0.5364773608,0.6502660649,-0.7440383303,0.2771572649,1.4498869194,0.3330178419,0.9377725123,0.9538896075,-1.0646339416,-1.0970618328,2.4582627707,1.2373327963,-0.6548367635,-0.2088402751,3.0258748105,-1.2777370172,-0.0431822569,-1.1322398631,0.6038863179,0.6224658662,0.8942252995,-0.7945799012,0.7608781026,-0.1978813057,-0.8305080369,0.5527337118,-0.3753573564,1.1304274087,0.6815924352,0.1655648732,1.493132884,-0.2510918713,0.6255525404,-2.6538105443,-0.3302486114,0.3673012146,2.5142218523,-1.0625486131,1.6303975771,-0.64599907,1.3849499559,-0.4530898158,-0.2151378468,0.1734136216,0.6114062378,-1.4813363013,-0.6024031659,-0.1657309938,-0.6043378996,1.3116601024,0.2751631006,-0.198825542,0.4798647335,-1.0482507018,-1.1269392442,-0.1837509188,0.9682807882,0.7863616822,0.0657984433,-1.1221185277,-1.3754218461,-1.4080510536,1.6415004573,-1.9031372497,0.6784927906,0.1238778307,-0.7032009035,-1.0046944547,0.6484760549,-2.0189520895,1.737285079,1.1078747879,-2.6208996101,-0.1581101536,0.5116617022,-0.1315354434,0.1621013943,0.60930772,-0.0434352495,1.74597361,0.1778212727,2.6098819426,-1.0920216372,2.1857360797,-2.5411152314,0.617861303,0.2038448181,0.73441286,0.8552713765,0.5926432531,0.2763967651,0.9443478727,-1.1311923885,3.0288191921,1.3293979596,0.2752533008,-2.2442986566,0.1598499076,0.3110872327,2.7566353405,1.7736114101,-0.2405739529,0.0266782004,-0.1090916042,-2.6462336555,1.6195287737,0.0081105361,0.8298050097,0.3031567337,1.5837200823,-1.3839676734,-0.7125158107,-1.1976776774,1.165094793,1.6600279862,0.8513678332,0.0490131642,-0.5822534596,-0.4257380454,-0.6887109046,0.3351067933,-0.1370638276,0.577801947,-0.2306701899,-0.410851416,-1.3196987918,-0.6955080192,-1.9271818399,-0.1203881405,-1.0025733024,-0.4785785179,0.9477162267,0.8501413863,-0.0621132577,-0.9862930887,-0.5402492959,0.5525504775,1.5417309378,0.9392227114,-1.0905559262,-1.2847740271,1.543579279,0.5062246366,1.3794877065,0.865104912,0.2401935132,2.4468223357,0.9110977848,0.9831511131,1.6234369993,-0.001152548,0.3749178107,-0.2761728106,-0.8282781813,-2.2737256886,0.4826290272,1.7450389608,0.4229155278,1.2319542547,-2.9459016767,2.8088891094,-0.3777022834,-1.0451538773,-0.8103374343,-0.9435960318,1.5279973961,-0.9023282957,0.6018196513,-0.2815607297,-0.6603747599,0.4606198023,2.5678989349,0.2474063869,1.3835911883,-1.6236232773,1.2389652575,-0.5679085382,1.5150396583,-0.0355447138,0.7748275415,-1.683442123,0.6863639668,-0.154675898,-0.1709162678,-1.1287508777,-0.8810518034,0.0644068191,-1.2290426447,0.2165059283,-1.69755585,1.7612792895,0.2496417104,-0.5343013255,-0.7963955712,-2.0032585765,-1.6369060577,0.7860541833,-1.6968686383,-0.0285045062,0.5199814161,-0.279966609,1.000937047,-0.0248664344,-0.1306813383,-0.8271197928,-0.9602198927,1.0371417483,-0.2483845448,0.2482811917,-1.9558665821,0.277580153,0.4730402901,-0.6904336021,2.0011781133,0.6483885993,-0.6127882181,-0.2253395257,-2.4021170853,-1.208365522,-0.3305209586,0.1489124025,0.5607389004,0.0820826327,0.0602221543,1.5756578566,1.8489271537,1.2266774466,-1.2072984937,2.1912745629,0.6071201406,1.1565354802,-0.36690417,0.9581549341,0.2587304943,-1.2690820531,1.5890701122,-2.5723992637,1.9357813271,-0.2835863315,1.1046690937,1.8764700122,-0.0954661896,-0.288844663,0.0969197445,-0.4440970894,-0.3068939128,-1.1223610475,-0.1035107493,-0.0193646053,0.2273997185,-0.0493557476,-1.3917090531,0.0325519339,1.5096802138,0.9842259325,-0.0329369208,0.183521103,-0.2941006064,2.0071370198,-1.3719784303,-0.9449697388,0.7093800027,-0.3922749737,-1.0556138737,0.0261860902,-1.036280039,2.8303364312,0.0082366848,-0.4167891879,-0.245822536,0.0321273209,0.629818347,-1.223426804,0.0326038927,1.9484550323,-1.5214427321,0.1511269152,-1.1955053399,-0.9159202181,1.1059077941,1.157318071,-0.4025496287,0.5307314539,1.0168637826,-0.1324462024,-1.0919882838,-0.2912293435,-0.8706429294,1.305376908,-2.6001981434,-1.7446803844,-2.6320057211,-0.1204266334,-1.9864777008,-1.8378915568,-0.507795614,-0.0367236963,0.3718660014,-0.398821359,1.3250729508,-0.8415675496,0.3779345602,-0.3249036114,-1.3235723467,0.782723188,-0.0130863148,1.2288400753,-1.0974880114,0.6311947179,-0.476681484,3.3322188453,-1.5742545132,-0.0375393727,-0.0863377878,-0.794659569,0.5373648086,1.5447309433,-1.3307375135,-1.6888862612,-1.1861528831,0.9569647724,-0.7244628893,-1.9081028808,-0.3588428152,0.1417548962,-2.5668489404,-1.93692239,0.2442362435,1.564968116,1.5725626853,0.0682193366,-0.8034206306,1.1108602923,1.5630450893,-0.2926834193,1.3422659599,1.2879245125,0.2283636443,1.0647527148,0.1066362008,-0.4164268085,0.1449686198,0.1939431174,-1.3366793388,0.9691431568,0.1199031438,-1.4820414268,0.1155548878,0.6039096857,1.7710416446,0.2317683947,0.942777918,-1.564548766,-0.4062093514,1.3335007644,1.1525656781,0.4462004601,1.2425605064,0.1971824669,-0.1961055573,1.0329153749,0.1352386469,-1.1709240784,1.6268565832,0.7670447346,-1.3395291944,-2.9637361035,0.2044419303,-1.6527678204,1.1420312005,0.1239937326,0.3337276811,0.2745146945,1.6503139344,-0.1714880121,0.5450513854,1.4311317001,-0.4494431174,1.5199507376,-0.7391070446,1.0862544777,0.3849100423,0.8028278934,-1.1737482415,0.6114662628,-0.8606859614,-0.7242372231,-0.7076082593,1.0072652944,-1.2160012692,1.0787465836,-0.2939635742,3.5820711356,-0.4667567209,-0.228204113,1.2859135539,-2.0144026536,0.2527232742,1.6077067784,1.1964075337,-1.4917859827,-1.0086527125,0.5131077516,-0.4158481202,-1.3966205346,-0.5419584233,-0.316487937,-1.5121791641,1.2859650595,2.9081255685,0.4711456751,-1.2358861075,0.2120527705,-1.3957463239,-0.1091326015,0.2653289438,0.1152123514,-1.034252934,0.1023589242,-0.9167657404,1.6559993603,-1.6282977633,1.3623722088,0.7174674643,0.5660966792,-0.8526923885,-1.5262114192,-1.4263972414,0.5677336008,1.0123366553,0.8685741712,0.6374764635,1.6930161773,0.3640533165,-0.8130824331,0.0550166492,0.1944849357,1.8040983968,-0.2263419269,-1.3667131657,0.6924554187,0.0296199226,-0.4284092674,0.9278588093,-1.4227328098,0.3206759815,0.3314704288,-0.2928944144,-3.2362604637,-0.1081764434,-0.4126086106,3.5491534919,0.8541075429,-0.6190868179,-0.6787125234,-0.4507716917
