encog,BasicNetwork,java,3.3.0,1,1437644368131
[BASIC]
[BASIC:PARAMS]
[BASIC:NETWORK]
beginTraining=0
connectionLimit=0
contextTargetOffset=0,0,0,0
contextTargetSize=0,0,0,0
endTraining=3
hasContext=f
inputCount=243
layerCounts=1,21,41,244
layerFeedCounts=1,20,40,243
layerContextCount=0,0,0,0
layerIndex=0,1,22,63
output=0.6789513407,0.840744417,0.0005338513,0.7660512207,0.9867579881,0.1500861617,0.5455537811,0.1039999119,0.1387472781,0.9999377407,0.0054798258,0.9931097897,0.9999724676,0.0169697313,0.9116108984,0.873619275,0.0521275442,0.0029466096,0.1282027014,0.1870381932,0.2860678327,1,0.7252386236,0.0038411135,0.1882278045,0.9962559593,0.969794656,0.8540234934,0.7175565694,0.2632661478,0.0788721584,0.7991786206,0.9446578688,0.373698972,0.8619274234,0.5869569876,0.1959401478,0.8657329376,0.07600841,0.9803994335,0.993776098,0.9899786338,0.5489975757,0.3197529337,0.0083725171,0.7285942728,0.9967216693,0.9768516824,0.1400462833,0.0025328935,0.0618073507,0.987443404,0.9621020366,0.999247149,0.0190888993,0.8559875367,0.4292229818,0.5455135446,0.9161381555,0.8089178189,0.9970200072,0.340792798,1,0.1803921569,0.2509803922,0.2431372549,0.2117647059,0.1882352941,0.1490196078,0.1921568627,0.2235294118,0.2941176471,0.1647058824,0.1921568627,0.2274509804,0.1725490196,0.168627451,0.1607843137,0.1568627451,0.1725490196,0.3725490196,0.168627451,0.1647058824,0.2039215686,0.1803921569,0.1411764706,0.1333333333,0.1254901961,0.2117647059,0.4745098039,0.1764705882,0.1843137255,0.1882352941,0.2,0.1333333333,0.1137254902,0.1411764706,0.3254901961,0.6,0.1647058824,0.1764705882,0.1921568627,0.1843137255,0.1529411765,0.1294117647,0.1725490196,0.4078431373,0.6941176471,0.1647058824,0.1294117647,0.1960784314,0.1725490196,0.1764705882,0.1176470588,0.1803921569,0.4784313725,0.7607843137,0.2039215686,0.1176470588,0.1764705882,0.1764705882,0.1647058824,0.1137254902,0.2431372549,0.6,0.8078431373,0.2431372549,0.1490196078,0.137254902,0.168627451,0.1294117647,0.1450980392,0.3529411765,0.7137254902,0.7882352941,0.2039215686,0.1960784314,0.1058823529,0.0941176471,0.1647058824,0.231372549,0.3882352941,0.7176470588,0.7411764706,0,0,0,0,0,0,0,0,0,0,0,0,0,0,0,0,0,0,0,0,0,0,0,0,0,0,0,0,0,0,0,0,0,0,0,0,0,0,0,0,0,0,0,0,0,0,0,0,0,0,0,0,0,0,0,0,0,0,0,0,0,0,0,0,0,0,0,0,0,0,0,0,0,0,0,0,0,0,0,0,0,0,0,0,0,0,0,0,0,0,0,0,0,0,0,0,0,0,0,0,0,0,0,0,0,0,0,0,0,0,0,0,0,0,0,0,0,0,0,0,0,0,0,0,0,0,0,0,0,0,0,0,0,0,0,0,0,0,0,0,0,0,0,0,0,0,0,0,0,0,0,0,0,0,0,0,0,0,0,0,0,0,1
outputCount=1
weightIndex=0,21,841,10601
weights=##0
##double#10601
   -1.0190640845,-0.9395783784,-0.5790364043,1.0717657921,2.2268355048,0.1507004283,-0.4568780711,-2.2123383495,0.7649731364,1.3840600342,-0.646391563,-0.6392893293,-1.2594969891,3.2776553156,-0.6605388397,-0.7697101781,0.2182847117,-2.7455477902,1.8579552031,-1.3181434187,-0.6524351884,0.1528411664,2.0456539595,-2.0837022962,1.17329976,0.0846437237,0.262583131,-0.326046869,1.1187216615,-2.7517902038,-1.2082032363,-0.5263609921,-0.0814767532,0.3169683996,-0.5067251911,-0.1892137665,-1.0422223748,-0.4523438447,-0.1361197258,-0.8415182826,0.0113972565,0.210153742,-0.293314814,-0.9308199709,-0.2681954438,-0.0102544555,0.2662411752,0.2575875979,0.5989244897,0.8699012821,1.6989630836,0.7319358089,-1.0485925006,-0.5229767318,0.7127627567,-1.8069573707,-1.4830739611,1.6302201419,-0.0118307452,1.7181648101,3.0041334016,2.0578681512,0.5777373944,2.5018279226,-0.2008540723,-2.0521789119,-0.6900045934,-1.8778557272,-0.0662010456,-0.1130089747,-0.5120851146,-0.5126184945,-0.1115707448,0.1664035377,2.252799952,-0.2204731165,1.6103475673,-0.5982943325,-0.485444646,0.8419980991,-2.7901713122,0.4245277267,0.6587515112,-2.0609605748,-0.4939872539,-0.4153895602,-0.4237172747,-0.0753642752,-2.264906589,1.0154199552,0.0320331798,-1.0999921713,-0.5654241512,0.5900831143,-0.0699827736,0.8816626995,-1.5766240568,0.2487120746,0.6654262322,0.2013579798,-0.0056361075,-0.8780366542,-1.1478571966,-1.3670140564,0.4374022569,-2.4702269676,-0.3816690901,-1.1468869238,-1.1148944885,-0.8968285299,-0.8546960119,0.1448452211,0.8805355944,0.6621382273,1.1281884811,1.892689159,0.6907772754,1.4413154475,-0.669304621,0.5024566885,0.0062982433,1.3603601332,-1.01734027,-0.2551434609,-0.2319127385,-2.0560632826,1.3020061486,-0.4855347475,0.6015442696,2.406899223,-0.0006939482,-2.0461274736,0.0243280862,1.5147370302,-0.3993249332,-0.9903008421,-1.5841671857,-0.7068376705,0.726173628,0.6383434655,-0.0079378272,-0.1571669313,-0.0716809655,0.9553166639,0.1890726826,-1.5841670118,-0.8469763331,1.3927347537,1.4104677852,-0.1549021399,0.1690921917,-2.5157360181,-1.1261577922,-1.0379567448,-0.3774514361,1.7556308727,0.6877247902,1.2284634452,-0.4320501119,1.3474240922,-0.9005534761,1.0078674248,0.2631967156,-0.9231448391,0.6496484893,-1.3941172499,-0.8011118127,0.6186842385,0.9540405866,0.169265139,0.3709813091,-0.8959926281,1.0472108805,0.7440883157,-1.2843790141,2.2406108415,-1.5554372923,-0.7916828482,0.066479828,-1.5061211306,-0.3096121467,0.0550557163,-1.3410192706,0.9911693785,-0.0398632255,0.6422126784,-0.8533665336,-2.0039155898,0.8428089166,0.4481435011,1.6592608161,0.9115071187,-0.0496986016,0.5095550841,0.2241236613,-0.7302062339,-2.4754711995,1.7507183711,-0.3053951477,-1.6560400512,1.5214044398,-0.7744341517,0.3213158723,1.3013307489,-0.5049837273,-0.64334816,0.4852746687,0.5800059041,-2.3888336118,-1.2744972598,-1.8034643925,-1.1187307153,-0.0983751164,2.0265925324,1.2394271988,-0.8971268857,-1.4733254424,-0.4596824335,-1.3651800471,-0.6482569241,0.6812505388,-1.2381027727,-0.4505901655,0.2209462057,0.1183063871,0.6226868565,0.6430138768,-1.7108501448,0.4769633891,1.4987420434,-0.7257865187,1.3992912523,0.7509987788,-0.2435186987,-0.2429959618,-1.7258674889,0.059932293,1.5379810496,-1.4554331118,-0.4153715131,0.2177255255,-0.2680753552,-2.371591512,-0.5582449136,-0.5289038342,-1.2764847296,1.8534979276,-0.7150490474,-1.2803741055,0.2073492291,1.6927597507,-1.1966231057,0.9139161497,-0.5851294241,0.0525866233,0.33293059,0.4590289683,-1.3100102305,1.4603816758,-0.7578024471,-0.6973385438,-0.2810261254,-1.5222292808,1.3226655004,0.3183217854,1.6368946094,1.291277001,-1.4831149586,-0.0692965426,1.3178994279,-0.803325482,1.7879534704,0.9244260936,-0.2252278247,-0.2178289769,0.8679541029,-0.2954323241,-2.5790457451,1.3719087356,-1.1481856267,-1.1485867032,-0.2298761433,1.5551061317,-0.8167265887,0.0582556525,1.3323132365,-1.7450084228,-0.3617486858,0.81383888,-0.6049841917,-0.1650644223,0.7928338511,0.2027475265,-1.5135262069,-0.3901137556,1.149914247,1.9885167151,-0.0444928302,-0.8631437558,-0.5123762,-0.8594179862,0.4353202753,-0.2736256285,-2.6721035118,-0.0929049977,1.4094849731,0.8606953343,-0.2196675639,3.1596944539,0.6321093895,0.1528068905,-2.214196304,0.2228299012,-0.3548899329,-2.1897133305,0.1921442977,-0.6666680422,0.1655435488,-0.6755223325,1.6353717111,-1.4610708426,0.4753411679,0.0245907865,-0.7397355254,0.4015589736,2.2085614962,-1.0944694107,0.3755537938,0.06860505,-0.6039259369,-3.6790612506,-0.4192918384,-0.2214597611,-0.3975764614,-0.747416606,-2.2412539033,-0.1531321987,-1.8319854779,0.7649634978,3.8297560012,0.3731902234,1.4102858896,0.1557732878,1.1863101485,-0.1382873456,-1.2508474155,-1.619060875,-0.321570118,-1.4405430385,0.919741435,2.1502588208,0.1250248827,-1.6174794046,-0.0630670836,-0.4090744755,-0.232579119,-0.3124625933,1.9271437749,1.2873956833,-0.0948251894,1.6844850277,-1.2574195902,-2.024905026,1.4005117305,2.8551089567,-0.2185738744,-0.4487553787,1.4780955739,0.0170326419,1.4967487513,2.0603965926,-0.760328253,1.1053441684,1.4177679529,-0.4376139109,1.8922378594,0.7825226433,0.2086272439,1.0419630884,-0.14148519,3.1679794641,-1.4507008074,0.0104063123,-0.2294818208,-0.8591158598,0.916977742,-1.0210801501,-0.355180196,-0.1998013128,1.2221850602,0.1636699443,-0.0967074789,0.4429802823,0.6123394395,0.0072123418,-1.7188391072,0.1887456732,2.1513730287,-0.9788379045,-0.4828960683,0.4493920753,2.3793356244,1.5710347265,0.2177597668,0.121359719,-0.763271107,-0.4237428494,-0.0964766352,-1.6919365215,2.4124472457,-0.357999585,-0.434925877,-1.0771234577,-1.7372682271,-0.5214015887,-0.1278050133,-1.4323916839,0.8824085949,-0.0346225648,-0.3890930791,-1.5239227002,-0.4325153188,0.6312776114,-0.4320377954,-1.1141360428,0.1638687227,-0.9543725737,-0.4107176697,-0.8799933074,1.6697750934,-0.0677190712,-0.3058802915,1.1210445619,0.4990155848,2.0707030261,0.3624194674,-0.5473838151,-0.4108209493,1.9308906565,-0.2595465859,-0.7559728576,0.1387129658,0.2135839969,0.1123667367,1.0524102814,1.616041441,1.6775090011,1.0898908781,0.782506159,0.1043085572,0.0323690155,-0.5801556094,0.4907469982,-1.0466181023,1.271172669,0.4022071505,0.0591871369,-1.2569433975,0.7216023009,3.6193015969,0.0128895251,-0.0213296817,1.641364526,0.7665223336,-1.3592768341,1.4989694829,0.1209259016,-0.5169266707,-0.8518039888,-1.2691349493,-0.0165067796,0.8633969511,0.3695830948,2.4371611758,0.3130652249,-0.1471066457,1.0232717183,0.3925253383,0.3260945693,0.914909734,-0.1110252077,1.0105380706,-1.7511768772,1.1327756295,0.6649989219,0.5798835498,-1.9324266914,1.0368889447,0.9222532201,0.2326146142,1.1916070312,2.0957247432,1.6624657277,-0.9786961324,0.7108663515,-0.1060517902,0.9716663252,-0.2502801123,0.8645580582,-2.4637507208,2.3163702489,0.4428832517,1.0425756655,0.011945358,-1.1709513337,0.5867123063,0.1474799403,1.3139233047,-0.0117927438,0.8461500359,-1.4489333607,-0.0705936413,1.5764391147,-1.4005570972,1.324224527,0.9812096165,-0.1781603928,0.5934430348,-0.6076424955,-2.9163915614,-0.1377018147,-1.4738067302,-1.4119297878,0.579112324,-0.3142159086,-0.7837686578,-0.6341865053,-0.343364752,0.0345101137,-0.08146618,-0.5919999725,-0.0390261973,0.6011943864,-1.155057761,1.4735910323,-0.4429893078,-0.564846929,-0.068765963,-1.5185399161,-1.2788084779,0.737748807,-0.0388523023,1.2044017099,0.9628129545,0.1334172423,-0.1132589011,-0.2641379918,1.9204154646,-1.2059783461,-1.5463786027,0.9329670816,0.4822987843,0.8734422492,0.627393189,-1.1256664852,0.5695737478,1.6409420949,0.5292484203,0.0113659519,-0.0777517401,-0.9769279821,-1.4549399472,0.9142828488,0.0633028744,0.4930184526,0.2405772234,-0.2321626402,1.1373453548,-1.7182349275,-1.3311561315,-2.6753041518,-1.0528467052,0.9082926689,-2.1001526131,-0.8709698607,-0.0490289929,0.9058869369,1.396371405,0.4684974713,1.7621725013,-0.7102290799,-1.739337824,2.0274327269,0.2267549167,0.2213678408,1.6228711384,1.9680887179,0.4763975134,0.6600370748,0.2835493554,-0.783999181,0.7238018821,-1.3072672933,0.0785296284,2.0319614669,-0.5311638802,-1.2659159372,2.3530863636,0.385867946,0.3230499143,2.3910762948,-1.3180903229,-0.3258027547,-0.6298406137,0.2928227694,-0.8214175027,0.7721255512,0.0012223083,0.0530002959,4.4795429887,-0.4858850824,-0.6756398872,1.0270006612,-0.08400064,0.1729562882,0.3802940874,0.971462366,-0.1448943747,-1.0289949684,0.4760956191,-2.4964133669,-0.0357756037,0.335142494,-1.2399645613,-1.137289194,0.1055750116,-0.1451786499,0.3410358141,-0.058325175,1.1737727491,3.2846700177,-0.3740482798,0.2844442861,2.7386736019,-0.7175860437,-1.8358912176,1.2250765725,-0.1377906261,0.7514029897,0.3086643277,0.2771261884,-1.1512291624,-0.5228370645,-0.0515524108,-0.7167289604,-0.5017836115,0.8667674801,-0.1047606651,-0.2465725628,0.6853420892,-1.0122594144,0.8225209886,-0.471741878,0.539183911,0.3775297615,-2.1564361566,-0.1996556688,-0.7630028054,-0.271970546,0.995168255,0.213999255,-1.0737991429,-2.5819497734,-0.5573843002,1.3244960132,0.0052261219,-0.70423281,1.6000550259,0.0282979696,0.6989078526,0.4224937453,-1.4701384644,0.2423091849,-0.9673785744,-1.8129661351,-1.2397904649,-0.3547589025,-0.6813537913,-0.4994367869,1.4656521683,1.2145076116,-0.8049592392,-1.8140343981,-0.7659022506,0.5841677888,-1.4072098512,1.6576323766,-0.4336677784,0.0556511987,1.2305115698,0.498269535,-1.1258863376,-1.1745547889,1.4393009671,-1.2070547836,-0.9976037981,0.5840450614,0.1870973894,0.7216023155,0.1689777662,-0.6254783265,0.494913661,1.7351300983,0.0118489821,-0.3702151701,-0.6235289003,-1.4522748885,-0.9665375563,-0.4290191771,-0.171094596,-1.0420446859,-2.0666381491,0.4298467048,0.1161379621,-1.6075811853,0.589649931,-1.288408289,-0.1686738175,-1.0812145813,-0.8090927566,0.5732445285,0.1885467177,-0.7378735864,1.8222401586,-1.8139347513,1.1867463031,-2.0310689188,-1.8708959664,-0.5087337228,0.4934264253,1.4316994772,-1.9480579175,2.1575037464,-0.7752756947,-1.5681047198,0.5038005282,0.6543848408,-0.2515216758,1.1809789484,1.8400215627,-0.3141140169,1.7950570994,-2.3692409745,0.4729390065,-0.5144049047,-1.1402545518,-1.058999712,-0.3634941989,-0.3797464645,0.3852826988,0.6040445239,-2.2143748319,-0.0734188633,-0.5682776477,0.4401603827,-2.9860168399,2.5780680592,1.3357648917,0.8416833134,-0.3677252615,1.5143816136,-0.5091641756,-0.5503207757,0.9859669459,-1.7225767108,0.5961446657,1.448242485,-1.2056788372,-0.6020431541,0.6769231995,-0.6105579272,2.5355726232,2.0936717721,0.5403901979,0.8841709935,-0.2588489326,-0.3354894525,-1.6655746444,0.0747651582,-1.3002960844,0.4002066407,0.2627322284,1.0113480158,-2.3317943972,0.6744152715,1.5382106971,-1.9956715086,0.5831339183,-0.9725847786,-1.4173984501,-0.9171529755,-0.4463909497,1.770305921,-0.0148026267,1.5213411482,-1.0252852985,-0.278708234,0.8530675879,-0.1799031171,-0.1969090233,-0.5252292551,-1.7835086128,-0.5191548862,-0.3017080378,-0.3075845256,0.4993495022,-0.505991127,0.8565571427,1.5944317786,-0.8460509768,1.5841799806,-1.5307897169,-1.2289065058,-1.2937036382,1.6236918415,0.1040796359,-0.0133417095,2.3360693646,0.1070583607,-1.3050570574,-0.2059219183,-1.1637935712,-1.4720843332,-0.4511151883,0.6027040556,1.0062178141,1.009197091,-0.7556892923,0.3339879664,-0.5492366851,-2.0153427491,0.6234752648,-0.8457190861,-1.0603986761,-0.5256324108,0.4443135629,0.1056140136,-0.1753601979,-0.1513234518,1.615829556,0.97003635,0.202575072,0.2422056896,0.0867443989,-1.0596770404,0.2766279332,0.2310080414,0.8929110662,-1.5846796542,0.9399566334,-0.3528317151,0.4293890868,0.4174436562,-1.8199001629,0.2909386747,1.2979070383,-0.5443863847,0.9377894416,0.1020820766,-1.5682319139,-0.801246719,0.3961012543,0.0407760686,1.2682199111,0.699292399,0.8846040087,2.8855802234,-1.8860163053,0.1617387614,-0.6349403626,0.0876972245,-0.5663624722,-0.7914808199,-0.0677772919,0.7528993442,1.170024155,-0.5936149684,-0.2074757818,-0.0546579285,-1.263938885,0.5860613932,-0.4723175054,-0.4102516263,3.3598548034,0.3178825368,2.3696567267,-0.7624666381,-0.4689357315,1.5861734618,1.1713324142,1.2476378596,-0.4334912717,-1.5882026559,-1.1501420492,0.235683998,-0.5465479742,-0.722958737,0.1146776975,-0.128584618,-1.254846238,-0.2477509035,0.0884746382,0.3063523609,-0.251269288,-0.0262664299,-2.74842123,0.3576346387,-0.9965700385,-0.0035462084,0.2447458413,0.7912733988,0.800185115,-3.6515172509,1.5232221538,0.3619131551,1.6757960189,-1.3071259315,-0.5135599694,-1.8937622181,-0.8344601923,1.1780387259,1.1838316197,0.4905757413,0.121231447,-0.0872677758,-1.1916613849,2.8792104212,-0.0361186413,1.165882349,-1.431114431,0.8965119071,0.6697703695,0.5013878623,-0.2022924998,-1.0424139522,-1.8213340958,1.5576513904,-0.4286716421,-1.4530399426,-1.0153609649,0.7937724154,0.0767866793,0.1447770851,-1.0127230258,-1.1962302324,-0.019083706,-1.1523608272,1.5399375411,0.3276383465,0.1989328907,2.1169090888,0.3230206016,0.1886280192,0.3847334689,-0.7672659332,-0.4500253147,1.3378074966,2.1937078758,-0.1160300386,1.3650116267,-0.1741176416,-2.615361682,-1.9640741755,0.0655661725,-0.5396796905,-0.4209393778,0.5573481463,1.8578923295,0.4834216929,2.3809935763,-1.5672813054,0.4217612305,-1.9885596953,-0.1770516807,0.1626583296,-1.0428074542,1.3538544721,-1.5368688,-0.0371334919,-0.7058807404,0.8861980175,-0.4390187263,-1.165422571,-1.8832565144,-0.9385577038,1.4030377492,-2.2291421526,-1.1852021004,0.7943930477,0.0038411988,-0.7060114261,-3.4543602232,0.4011076812,-0.0793450318,-1.7896249162,-1.3651076161,-0.6698270964,2.2719079235,1.1124416062,-0.6565931254,-0.2899395394,0.9333971837,-0.558412759,-0.5874685699,-0.6052772642,0.0798023852,1.1029656953,-1.3604559009,-1.8624954064,0.6806924617,-0.7912009707,-1.404169765,0.1134121885,1.3218376879,0.1798744213,0.8970599746,-0.1257577461,-0.5647019822,-2.0567633287,-3.5250190092,-0.7445261324,-0.9408264519,-0.9527015533,0.8371080294,-0.3591556251,1.9443961645,-0.3641173673,0.765346459,-0.8938867508,-0.8737051403,-0.7237786278,0.6117794846,0.4040494404,-1.1323003293,-0.3138456331,-0.9340473761,1.9510603808,-1.4623803672,-1.5401790128,0.2951714143,2.172375695,0.5702358027,0.2424058655,0.4763489755,-2.0589780954,0.2154105538,0.135953801,-0.9443001231,-2.7617897651,-0.4464967003,-0.9642023698,-1.176419246,-0.9149818466,1.5224737526,-0.3588784369,-1.5986516374,-2.4995991491,-0.3629178305,-0.5895959832,-1.4464603056,-0.7566353217,0.832259221,2.7795728323,1.681678578,-1.117125688,0.1599696034,-0.6154525136,0.0067457963,0.4488422409,-0.6850984798,-1.4132902828,0.0105398775,2.8220535069,-1.3956791028,-0.7666687626,0.3248776348,0.3231748387,1.5601408058,-0.872399873,-2.5635413824,-0.8485077874,-0.3411129844,-1.3829438713,0.2753228096,1.1225727067,0.0007405476,0.5557147357,-0.5386852187,0.1508036433,-1.0158912192,-1.2654397359,-1.1140919241,0.4150732833,-0.3712910895,-1.4537739089,0.502327188,0.929712665,0.7326439231,1.3546039988,-1.2301421117,1.5342604947,-0.7721038944,-1.8256173757,-1.6338285735,-0.1590019937,-0.5178169439,-0.597050057,-2.2694152678,0.6432668451,-0.6642773574,-1.9578539006,-0.5113668299,-0.3420498768,0.4699841203,2.1375973723,-0.0260375179,-0.3342227059,-1.0206243429,0.9693026632,-0.6126915838,-0.298951281,-0.4086594289,-0.8044758717,-0.7989626299,0.6024172903,0.7653735299,-0.923884095,0.0426315393,0.3393856184,-0.1173015663,1.8375840224,-1.1258129672,-1.0560350506,-1.6688167852,-0.7755552471,-2.8605833131,1.0840424839,0.3849058192,-0.4322606633,-1.1296512659,-0.8350696736,-0.5153513676,0.7309623684,0.697068756,0.1889088745,2.5468374988,2.0614504254,-1.9887687081,-0.1473743953,-0.2214543026,-0.6970785235,-2.4816576785,-1.6182520003,-1.998979684,-0.5860385648,0.269557656,0.3938699678,-0.411898227,0.0241578318,-1.2734108481,1.1806578918,0.7586086216,-0.4895713674,-0.9329665739,-0.8125139778,0.4893116013,0.7146016209,1.0439690084,0.5047601715,-0.4871691689,-2.4714925936,-2.5482222858,-0.7281777353,-2.0297696233,-3.0615366336,1.0060634548,0.8885296796,-0.085651901,-2.12311307,0.5964088698,0.6943499343,0.7511351142,-0.6608746961,-0.1090153106,-1.9977072353,-0.1571537704,0.4948481613,-0.6484969053,-0.3036804476,1.0957719836,-1.7197309588,0.1900280165,-0.3543608693,0.1371834205,-0.0987116379,-1.3453249598,0.7234100345,-0.0297308176,0.0328127034,-0.4468391097,0.6836043826,-1.0867356836,0.9560430903,-0.4147408083,-0.5672673109,0.7032571467,-2.350703436,-0.1319630499,1.2798327101,0.0526176562,0.0072836511,-0.7210742761,0.9150817804,1.6967777505,0.9911743274,-0.3239840639,-2.0414027938,-1.2489977416,0.649370151,0.7487746154,-0.6934435202,-0.3470230036,0.0436642872,0.2749671609,-0.5785378507,0.0918074806,2.5700254359,-0.333838192,-2.4000926939,0.1907777835,-0.4332806146,-0.8575755834,-1.1582921455,1.5875386433,-3.3432671311,-0.6471961643,-1.5210109045,-0.2761241306,-0.5891641372,1.6814796441,1.925595455,-1.0007763253,0.9213855581,-0.867930704,1.2703176526,0.8873533338,0.8482406596,2.0129541931,-0.5726539818,0.428903227,-0.9073316681,0.04112701,1.6843150257,-1.1098187928,-1.461115137,-0.0184939181,0.9683909175,0.5522818675,1.6246695719,0.4875431594,1.5450098097,1.6376209097,1.1959363329,0.390752202,0.1313905148,-2.7897014115,1.0706439971,1.670375779,-0.1294848022,0.5391374024,-0.5778407677,1.2303107267,-0.3408883088,-1.4443363155,-2.0288608178,0.4798375012,0.4325344866,0.5791097359,-0.0014665556,-1.7688641155,-0.565339246,-0.5985309668,0.3681155563,0.4405821232,-0.8774959112,0.8387729548,-0.067214225,-0.9076766742,-0.348458591,0.0145600815,0.7388635367,-1.6008006789,0.0814895772,0.1709761692,-0.9395302584,1.476633849,1.2539763303,-0.4566402361,-2.0295657875,-0.687688594,1.2103548345,1.6804301767,0.0275788339,-0.1319822849,-0.0408236467,-1.4211080694,0.1598100729,-0.7512634942,-0.4938660827,-0.962478609,0.6901338804,0.9061173179,1.4148018303,1.0953953787,-1.5567583373,0.3578793403,1.4634937892,-1.2014248992,-1.4021705731,-0.3705373659,-1.2903275421,0.0704462697,-0.0184131597,-1.6958264547,-0.8048849105,0.3291898273,-0.1605425562,0.9345389926,-0.8761066413,0.8753235204,1.006735764,-1.648636663,2.5940890117,-0.2221957892,-2.3555274958,-0.1192043541,-0.8760965826,-0.1261719676,0.0966092584,-3.576158296,1.4210454559,1.5074612558,0.0129173681,-0.5944527499,0.2095637731,2.2672459991,-1.0300564171,-0.7007983564,0.4782857985,-0.4187822812,0.3987864043,-0.172515505,2.4274515756,2.2385675198,-1.0953908042,1.0421727715,-0.594321099,-0.1318400415,0.4790887107,-1.1633066113,0.3617961567,1.1669302579,1.3039357368,-0.4037185094,-2.089149129,-0.1170074284,0.9145417188,0.7529679236,0.8458529609,-1.2624482724,1.8772935621,2.1418065808,0.0786726162,-0.018637685,-0.4410166583,-1.2443463812,-2.2211853295,0.9209448562,2.0301146606,0.7242207098,-0.2634311736,-0.1466944179,1.0126450705,-1.8312947175,-0.7044950807,0.8307236853,-1.0705082364,-2.7627218454,-1.5408764512,-0.3526876111,0.2562837548,-0.8891631829,-0.9749405755,-1.3080051887,0.3987178417,0.4260500954,-1.075963996,-0.2037406242,0.3663710812,-0.5808931434,1.9118497359,-0.2050052789,-2.2157401633,-0.2751794316,0.4309490775,0.4917690335,0.5145980247,0.1608464255,-0.3088649257,-1.2074350046,-2.19131175,-0.9759053955,0.3562264867,-1.2329167534,0.913427442,0.4601187287,-2.4747148608,0.0763101867,1.4959536375,-0.8723628434,0.3835556781,1.6499438129,2.3558992297,0.3976408274,-3.00222704,-1.9225729771,1.3625141324,0.9321222968,-1.1058382015,-1.8042663983,-0.7806649332,-1.3222605779,-0.0993167677,-1.0762403436,0.1342384283,0.677491343,0.1710443028,0.5465676015,0.161387228,-1.4291955606,-3.2294803246,-0.6914073847,0.2252838893,0.1339103066,-0.5085826792,-1.4945519666,-0.7581572057,-0.8367840293,-0.0844640199,1.9313897078,-0.6305351094,1.6036270078,-0.0064768106,0.3599574956,-1.7622223461,-1.3849784879,-0.0236663234,-0.4728127192,-1.1177347108,0.1412191324,2.0828779167,-1.044746697,0.5630594462,1.3234158435,1.6183364273,-0.8918800417,0.1183012674,0.0683100614,-0.3822417784,-0.1896928193,0.464809559,1.1144563481,1.7988820007,-0.9003435584,-3.1617221054,1.7791343843,-0.8197491418,-0.7871251219,0.7653739432,-0.010902105,-0.5031827207,-1.2756778439,1.0492660938,0.6976883576,-0.1780291331,-0.3829648349,-0.6168288791,0.3283925925,-1.0677943068,-0.3625910801,-1.1958517783,1.1807459163,-1.1284335744,-0.0556619205,0.4101590277,0.6793877595,1.9467887617,-1.049700819,1.7111129948,0.0370074159,1.2584712592,-1.6412656656,-0.7997018235,-0.4178315064,-1.6864718666,1.3785170812,-0.6103576725,0.0080987812,-0.2975789473,-2.2955382338,-1.7389519165,-0.3174227714,-2.0327398845,-1.1743370679,0.2480422385,-1.4426919872,-1.5804209467,-0.8405395278,0.7861396885,-0.2263985104,-0.9428150833,0.040538857,2.046514599,0.4098847919,0.2276134317,-2.9537005188,-1.1239552734,-0.618284462,-0.5640934291,-1.0991148607,0.4233458223,-0.9952776106,0.0363108384,0.3719468407,1.1476814912,0.838572504,0.7155592924,-0.2055957086,0.805909786,-0.0316814303,1.0443573757,-0.3301850263,-0.457750812,-0.1188754162,-0.987089677,-0.7005378938,-1.1369564008,-0.0679903081,-0.6908045764,0.60119411,1.1949968782,-0.2852604678,-2.2901029776,0.1337770633,-0.2267235081,-1.6308311863,-1.8566697914,0.845433541,-1.3056494103,-2.4471383941,-0.527213124,-0.0307054513,0.2308352984,-0.2010326712,3.7813742464,-0.5785722847,-0.265049458,0.697441681,-1.3834636749,0.8627670213,1.1002715514,-2.0122095726,-0.1411230367,2.7426276527,-1.680866183,0.5376911614,-0.6671736417,1.5310521713,-1.9179507148,-1.0464048131,-1.9291299007,-1.4439773284,-0.7143048656,-1.6649745898,-0.6279925645,-0.3456291237,1.0212106642,1.2803773746,0.1984721214,0.5551449205,1.2026115902,-0.7036249923,-0.6421392714,0.5540777149,-0.2010580745,0.5413153575,-1.7070918843,-0.0047274174,0.452157596,-0.7308285364,-0.5127374867,1.1701202482,1.8449411653,0.7819276116,0.7652097631,1.0667257899,0.7446339224,0.0641059774,-0.3055053557,-0.8366278151,-0.403431918,-0.2699290231,-1.0868103726,1.9892237995,0.3761913601,-1.1893224665,0.6551740472,-1.3320066635,0.8991894092,0.5053508494,0.7661147125,-1.7576655354,0.7723065146,0.3329590808,1.2502419507,1.279976516,1.3903703334,-1.9518403473,1.1867867751,-0.4859608416,-0.8646518014,1.309504704,0.1018646026,-0.6695725738,-0.1290008767,0.4754072637,-0.5444352104,0.1159006366,-1.5246055951,-1.0818488797,-1.4637116961,-0.9093080987,0.5540407119,1.2144353177,0.8209177653,0.6208299792,-0.2365660283,-0.5434591179,0.8285240157,-1.2253729586,-0.1315567515,1.2754981397,0.6680495019,-0.2718629146,0.7205381676,-1.3819402936,-0.7399699233,-1.4776132465,-0.290802904,0.5210014828,2.1172478125,0.26791079,-1.3557348636,0.1397029477,-1.3015606269,3.2307772524,-0.7655661429,-1.7631575828,-0.7363454022,-1.8683423488,0.2840516522,1.2136802148,1.1012771238,-1.4521841261,-0.6615660676,1.9095117418,-0.2359146243,-0.4949744108,0.7396005941,-1.9661650515,1.3262871846,1.1546709386,3.5177449316,0.3798509605,0.6755554803,1.119643508,-0.2334529882,-2.2821259221,-0.8518800922,0.4944981245,-0.4079833026,0.9905816562,2.0852327747,-0.6679284319,-0.9983390004,1.4886029014,0.8387467732,1.1610903294,-1.0535456281,-1.8170276139,0.6828741618,0.7255466162,-0.1193193223,-1.0940389524,-0.0877043458,-1.8183022088,0.0965083895,-1.2101697277,2.2777469566,-1.3127971828,0.2868409529,1.14110101,1.7902887926,-0.2110241487,-1.6695626083,-0.4458402991,-0.9411374636,-0.5604665183,-2.6137167843,-1.6035900208,-0.2164869198,0.8956767968,-1.4166007271,2.2983456423,-2.8172395145,0.4872793419,2.5438611453,1.2284489702,-1.0852711408,-0.342532382,2.1883028844,0.0936482004,-1.7066801327,0.6780201024,-1.2397917807,-0.5051955389,-0.7938839015,0.4706097222,-1.0796483907,0.1947277138,-0.0139099898,0.9853859124,0.7135727659,-0.1347795391,-0.2682864941,-0.3792675995,0.1207233003,-0.1846281044,0.3516153765,0.987533904,-0.5603253831,0.7526747324,-0.8219437017,-0.2823225709,-0.5148007318,0.5562758653,0.1277735976,-1.2438585378,0.4063006434,1.6302456325,-0.1819153341,1.2255682468,-0.7015936135,1.972798941,1.3145263934,1.3059615055,-0.6582148444,-0.7983940703,0.1736366401,-0.0723002892,-1.2106441799,-0.6698460342,-0.8839374013,1.0769416741,-0.0932409625,-0.0964789242,0.1459489797,1.1271355138,0.1743105181,2.2816338843,-2.0900612846,1.0680141936,-1.1661468992,1.2486292517,-0.0135037897,-0.0366359033,0.3807929149,0.4541777569,0.099362233,0.0434312876,-0.6630634041,-0.7342086184,-1.3110468073,-0.2759121084,0.1951833021,-0.0445474811,-0.145335717,2.8041006099,1.4131942808,0.1577635405,-0.2690515208,-1.0869214565,-0.4034660901,-0.5795237276,0.4746883769,-2.2997711867,0.8262240438,-0.9340205273,-0.5950859795,-0.0200634547,1.5346120948,-0.4369304162,-0.5108511953,0.4595700209,1.2719462265,0.7832075985,3.5990526619,-1.2038375452,0.6264170312,-1.0264144393,1.8621439826,1.8840981712,2.6188447159,-0.2336454262,-1.6002557077,-0.9285425501,-0.5590464598,-1.144018891,0.1634127336,0.4355367772,2.3211532759,-0.5007828768,-0.181315582,-1.7802791593,-0.6155912141,-0.8597976245,-0.7636570828,-0.0511095783,-0.5945147348,0.2558493792,0.0481027779,-0.4042920344,0.6414325831,-1.5076296704,1.5170579977,0.2435292508,-1.2390802824,1.8473366303,-0.6987752624,1.3032838728,0.5213876871,0.2906349842,0.5433592746,-1.5671588134,-1.5031045733,0.2614125038,-0.8174992532,-0.1469084398,-1.3772429799,1.1101952586,-0.2878923297,0.5776569045,0.0468196207,2.4129376578,0.5910855405,0.6313292911,-0.9724637499,-1.6545390806,-0.5012189784,-1.4453659372,0.6904484639,-0.2673248519,1.5546047138,0.6971252746,0.772236498,1.4076644268,0.3533317576,0.2541393966,-1.2832044994,1.6162199248,-0.2284854239,-0.734894289,1.0207093211,-1.7519519653,-0.84988243,0.9426434581,1.6129562644,0.4526724778,0.2796134318,1.1267745554,-0.4050572745,1.3116908196,1.3199422215,-0.4476305916,-0.2478183655,-0.6410237077,0.9773370104,1.0782155766,-1.2246703803,-0.3177116305,-0.731132609,1.9811990013,1.1643150171,-0.1625572124,-0.1358789157,-0.6394087308,0.1150067096,-1.8395461484,-1.1005637112,1.0077645224,-0.8791769011,1.766454608,-1.4601865625,-1.0799583984,-0.6009805686,-0.057124095,-0.0862143807,-0.1470804596,0.8245186333,1.6921323456,0.9601948549,-0.8067403701,-1.0094000368,-0.4425485858,-1.595185903,-0.6217503397,0.1547437825,0.3920412835,-1.1252155917,-1.1803862331,-1.1730288375,-1.0980539003,-1.2290569589,1.3300303251,0.7813193283,-1.0814656386,-0.4616339997,1.2509682953,0.4543322534,0.867948215,1.0851551604,-0.3415282006,-0.3086255281,0.6140677002,-0.2068836233,-1.9398380326,-1.3269858823,-0.0443276899,0.2995116007,-0.9152630851,-0.042954141,0.1269151242,1.903327751,0.9047847125,-0.2202142074,1.0564332827,0.7160124794,0.7871172159,0.481550525,0.5003093725,-2.4134315445,-0.9421631627,-1.5163803986,3.1620279672,-1.9077935604,1.789420098,0.1899481123,1.8156148571,-1.4478972917,-0.0860078308,-0.3566928545,-1.8402351115,-1.7898555103,1.2317522203,1.4833694151,-0.9368499382,-0.4268147354,0.887699331,0.7168746158,-1.2439593049,-1.5161436562,-0.8663675622,-0.5786444526,0.8140745919,0.3840737912,1.6090723118,-1.448835759,-0.1035591639,-0.4356956086,3.2382236828,1.2324725647,-0.7996788595,-0.6666240471,0.0946689947,1.0712991143,-1.9039941179,0.6295424034,1.0571953865,-0.7356004622,-0.0126166939,-0.5781367615,-1.2401055424,0.6459449429,1.3039678753,-1.7121724552,-0.3683507845,0.2542696401,0.024365153,-0.1277998265,0.8990050925,1.9872481347,-1.1472552769,0.4077105076,0.6915188295,-1.277473216,1.0956113519,-0.8321297365,-0.5172556106,-0.7034244017,1.3778491595,1.2954600228,-2.5693904603,-0.3060452432,0.4799633194,0.307502241,0.6589388319,-0.8031764419,1.479168139,2.4682839792,-1.0486033958,0.5715303572,0.9818429455,1.8693564255,-1.3098132061,-1.7460321408,0.3608434099,-0.8128427488,-0.7356103847,1.5100426839,-0.4473500458,-1.480687084,-0.8680853349,-0.4758416349,0.9632642833,1.0349074703,-0.4216929995,0.3434918968,-0.5832760065
   -1.5669329035,0.3014103006,-1.2484527243,0.9546651329,-0.3811657729,-0.922473378,-0.0263327236,1.2563002454,-1.0555465732,-0.7264791298,-0.1682501665,1.2891919038,0.7013929286,0.303463756,2.4327163785,0.231464578,0.1531062202,2.5733726212,-0.0978832509,-0.2594070536,0.6123305611,-1.0802968157,-1.0878875594,1.0403935676,-0.5516544721,-0.7161236906,-1.1483584705,-1.188719146,-1.2726558306,-0.5032823656,-0.1891497399,-0.3735587147,-2.6602788432,1.62404125,-1.6072563126,0.0342867893,-0.2560715687,0.5644685413,0.0164849939,0.0865188382,0.7400935121,0.486467673,3.7308805763,0.3587393361,-0.6284339746,0.4875209808,-0.2936246341,0.829934148,0.730390816,-1.632660964,0.6091759615,-0.4228792509,1.0227775304,1.0637468024,1.5330868279,0.8006350958,0.3847928253,0.3213892593,0.6971803999,-0.7658976211,-1.606646536,1.2163900706,0.5355454542,-0.4579817515,-0.1581764425,0.4679033072,-1.4191708159,-0.5859410836,1.5225096456,1.2784755852,-2.7445650025,-2.153450752,0.9868214466,-1.1785142821,-1.3549116288,0.4938609987,1.0899075397,-1.7554292724,2.4592598541,1.4798555358,0.646579705,-0.8389828074,0.9836906702,-0.7122486802,0.890667526,-0.1260203993,0.1392042818,-0.2271479016,0.7553840283,-1.2959201706,-0.504332124,-1.2250925215,1.4998700468,-0.2195519877,1.135027885,0.0918376069,1.1891405889,0.9361260118,-1.1079391379,0.1656812397,-0.0199764469,0.7247506691,0.1064644125,0.0379314044,0.9489004392,-2.0146046558,0.4727336574,-0.684215345,-0.7105257677,0.3145208181,-0.4024253925,0.5788722255,-0.2612169852,-0.8246109102,0.4688627225,-0.9905348942,-0.4692901319,0.3534018574,-1.8866160726,-0.2988351117,-0.8617990951,0.2779054633,-2.5110107614,1.1718161618,1.3238280034,1.0027612364,1.5216375857,0.6210437829,-1.640244976,0.3464830923,-0.7730294471,0.2347543704,0.3678136089,0.3382022114,-0.9833297306,-1.8944387799,-0.2848663024,1.6418800924,0.1972961444,-0.401436019,1.2058720313,-0.3165472246,-0.4672418354,-0.8031486183,-0.9812723815,-1.0558010824,0.6736126692,-0.7358193799,-0.9658616395,-1.3067212457,-0.0805358851,1.0611258858,-0.1779406689,0.2187389015,1.7202186387,-1.1243884737,-0.7444420839,-0.1887197303,-0.0018154136,0.7400868456,0.4596016335,1.0211398088,0.5786866917,-0.3965214401,-2.7140307529,-0.2574675574,1.5411023388,-1.2366605142,-0.6056416508,0.7530195184,-0.7402747325,1.5199345653,-1.0022933026,0.9521966913,1.0119934297,-0.2933793577,1.9243481579,1.0811973867,0.6941268469,0.5472965146,0.3401830972,0.0088950685,1.7273412047,-0.3601278156,-1.6787977522,-0.0277606138,-1.7997880395,0.0350778942,-0.7220467965,2.2813933035,-0.7257727432,1.2653956343,0.3183749623,-0.0940054295,-0.5259464203,-2.5748963122,-0.9610281185,0.3991231706,-0.5106863983,-0.3602756917,2.7480250621,-0.5354475463,0.2087259582,-1.5612670664,0.9258187977,-1.2920642343,0.5267819516,-0.0791790217,1.0441161711,0.563024344,-0.6323910984,0.9664347976,0.2555144683,-0.20529253,-0.0327115969,-0.3023175497,0.6071623857,1.2465337463,-0.2333125949,-0.5982188883,-0.8605499296,-1.0446912493,-3.1403818442,0.1899981918,-2.146286335,-2.5524680568,-1.5371525731,1.1110667028,0.7952827756,-0.2380242495,-0.501130887,1.3085383341,-0.946125112,0.9316077806,-1.1593517698,-0.6902498509,3.1163313147,0.428709007,1.5186152817,-0.4182598453,-1.0200652075,0.8017410381,0.344024917,0.6580106791,-0.4258230503,1.8701838499,-2.0525670215,-0.7333483004,0.9827995824,-0.1304781474,-0.6263870515,0.4161133073,0.0674620318,-0.4267470327,-0.3557093354,-1.1073008783,0.839098256,-0.0052404664,-2.504630668,-0.0363697078,-1.5459325733,0.9745422875,-0.888775993,-1.2582369569,1.0624866043,-0.7553665495,-1.2425120086,-1.4377639745,-1.7798676216,1.5273199675,0.038498237,1.7724995648,0.2753221403,0.9703326007,-0.9232121425,0.0557652718,0.4778703871,0.1693714473,0.9460639993,-0.6786797693,-0.9303290252,-0.710193467,-0.9879599448,-0.0801522821,0.5568711888,2.6236873428,-0.1613177536,1.4965597509,0.3944091198,-0.9622364398,0.6044777543,-0.6710712792,0.5472857767,1.8798254331,0.637822163,1.2902993099,0.2810232852,0.9736375978,1.8929769487,0.4695843072,1.8033042165,-0.9943939964,-0.7934480434,1.2749924553,0.9514212094,-1.0833246929,0.6161462065,1.1202654746,-0.8113291752,1.6039647928,-0.2228331041,-1.053298279,-0.5639150111,-0.0939965216,0.5178968686,-0.9892749343,-0.3120886902,-0.8740144141,-0.7239221985,-2.0818766724,1.094982648,-1.3400921124,-0.0235230131,-0.7831176205,-0.0327361728,-0.1711835639,0.7394731182,-0.2227699744,0.4569416282,-0.8446236621,0.4970691049,3.528712218,0.0851635615,-0.1065287002,-0.2140583243,1.3755609741,-0.8575782222,-0.2882095706,0.0647828681,-0.2500269686,-0.6108172222,0.7481097397,-2.018141866,0.2654049583,0.0165163708,-0.5811484907,-0.5195859553,-0.7607305114,-0.0778907301,0.5396572749,-1.400818763,-1.7583424975,0.4258785133,-0.001144375,-0.3370603629,1.4481478496,1.1827574166,-1.6242389293,-0.2117721743,-0.7418671784,0.5697328581,0.0303743724,2.8927400423,0.8284857382,1.4709728302,0.1611350069,-1.0304996115,-0.6786070317,2.0592166111,-0.5243497362,1.2196613425,1.0745830951,-1.63613456,0.6870579883,-0.925799362,-0.8726265423,-0.0873007142,-0.6834065154,0.5690187654,-0.4900577814,0.8590062041,-0.38924817,-0.3539678219,-2.1280136232,1.4132299263,-1.0073643775,0.6302807598,1.3753223438,0.8797785442,-0.0270359619,-0.0761175946,-0.7708252095,-1.1317122723,-0.8762853587,-0.6246715568,0.8754633372,-0.1335530281,-0.5293819311,1.5196297896,1.6424922522,1.0449225956,1.0196118137,-1.1941705124,-1.638560105,-1.1480141746,0.1789072512,0.3776156718,0.6246089729,-1.2536832652,-0.3107297461,-0.0749664843,-1.6367577865,-0.3566382831,-0.1752162649,0.6973605372,-2.6416757619,0.5098725135,0.0320571964,1.4050366997,0.7644559654,-0.8058663714,0.4694104012,0.7162467061,-1.7749697736,-0.5068652361,2.0537785345,-0.8228932353,-0.3806749043,-0.9629060609,-0.5377982404,-0.1834388176,0.0457042227,-0.1830430835,0.6308368294,1.1654771493,0.2143309012,-0.129215471,-0.9291553198,-0.4971039724,1.5152436449,2.272911956,-0.7432988181,-0.334924331,-0.7540926598,0.5957461212,0.050319188,0.4175368036,0.2119875175,-0.7076058429,-0.5053095947,0.2031428869,-2.3343168381,-0.8327828098,-1.4430144726,-1.0035129408,0.8557199412,1.8103327521,-1.2002039717,0.9368551071,-3.0563615098,1.4433220908,0.7581024627,-0.0311339931,0.7578124596,-0.1388050988,-0.5785963682,-0.5324660389,0.4411619316,-0.6284514549,-1.0403701893,0.1658830465,-0.0137152182,0.5638190001,-0.6427119491,-0.0719905147,-0.8161094749,1.5213629655,0.0998756634,0.7067941037,1.9826372368,1.6778163572,1.1684180973,0.6759853227,1.0672558709,-0.1050515388,-0.8593634284,1.0302110855,0.9233855632,2.1414480558,-0.9559350416,1.151636911,-0.3052392781,-0.7769990457,1.447578933,0.1878095411,-1.553106931,0.1462909871,-0.7061263801,0.4285344145,0.0112306464,1.7364015279,-0.1895743784,1.0151812232,0.000144069,-0.2885536907,-1.1514091341,2.0135114187,-0.5107108938,-1.4692932127,1.2700355726,-0.0628577323,0.2413328664,1.4522069802,1.4206775834,1.425590233,0.2110520318,0.8990339235,0.1194571632,-1.7824356729,-0.748077162,-0.1238507702,-0.1463955326,-1.2703350764,-0.2586809716,-0.5077098053,0.7378932778,1.4836225391,-0.7454058206,1.3213136072,0.1856587504,0.0940195561,-0.4141746715,0.4799505527,-1.2657027072,-0.7309713508,-0.2753788539,0.6707486083,-0.8056666259,-1.5852169763,-0.2693117003,-0.0632074854,-0.040937855,0.6850420497,1.0505346359,-0.4952053626,1.8734775487,-1.9054841414,3.1427342571,-1.0345265044,2.5443248644,-0.9526135841,1.6509905195,1.0784679147,0.1710293968,-1.2512555748,-1.2260077005,1.9444315578,-1.149819689,0.9367506244,0.0312241382,-0.4178308248,-1.3365837265,-0.2270045205,0.0599219739,2.0225177926,-0.0888255127,0.2811605391,0.680690157,0.9149098142,-0.962344987,0.6447225819,-1.2329640445,1.0617397644,-2.070892325,-0.7718229592,1.2164816769,-1.5587662417,0.2266109241,0.0478306235,-0.8574682091,-0.1725017683,1.0911300414,-0.8184498861,-0.9408958616,-1.3095740087,-0.8928752128,1.2140436131,-0.3931087542,0.7108207419,-0.9299752352,0.3100428956,0.775085749,0.1028757838,-0.32246236,0.9657807066,-0.726938789,0.0649015119,-0.2777704009,-0.5323755381,-1.8661978394,1.3365076985,1.269061986,-2.036687004,1.9162903569,-0.0142709481,0.1854765772,0.0196877208,0.2851027851,-0.6915568512,-1.184229894,0.2829742237,0.5349176874,0.9163903646,-0.9816219802,1.4306367044,1.1634047935,2.5937866017,1.2173969427,-0.9427598794,-0.7364421105,1.0941312529,-0.8039890652,0.822625444,2.2997112736,0.2801321758,0.6234217678,-0.0895023425,-2.2516828908,1.0250690742,1.0989607253,-0.374587376,1.7296983865,-0.4267683308,-0.6321419321,-0.0948428973,-0.288066527,1.0802426464,-0.6306915136,1.2015251488,0.1924633874,-0.7116553173,-1.9178253109,-1.4675613263,-1.652825366,0.2027216027,1.1863628527,-1.0310805771,0.2654596549,-0.5691825061,0.8618066928,-1.2133107019,-0.0715298974,0.1865437327,1.1374223884,1.0869709897,-0.9815686216,-0.4281783754,-0.4378776782,-0.0929406053,1.9028650708,-2.5175219432,3.5122943059,1.9727322495,2.060320747,-0.845854901,-0.3836086159,0.3339658854,0.6187727338,-1.1721588581,-0.3232869008,0.3064818774,1.3170047477,2.6383874038,0.0479720653,0.1083684593,1.0000231859,-0.6479995985,0.4274088275,-2.2731530712,0.3025592136,-0.1301829077,1.8202617727,0.3478774185,-0.6139809655,0.9445703888,-0.4943650827,-0.0724817124,0.8916631544,0.9624884378,0.3990873452,0.6815205663,0.9050687237,-0.8665596282,0.7182783455,2.2338052087,-1.0807571162,-1.1295478694,0.9363335108,-0.5493408661,0.0811919306,2.0617470431,2.6756649459,2.9750201821,1.0426347775,0.336241203,1.5467220567,-2.1320062634,-2.0334858496,-1.1276157251,0.5448663125,-0.286744786,0.7393007311,0.9340004235,0.2301833284,0.2466878472,0.0038755341,-0.2157880028,1.0600936548,0.982340814,0.464678256,-0.1267711512,-1.2156863906,-1.730275897,1.8707084761,0.1245367609,-1.3633659427,0.1522041133,-0.1217764663,-1.3689322388,-0.014042461,2.0729998404,-0.2361914696,3.5428879138,-0.290286516,-0.3123416469,-1.736294601,-0.3676776761,-0.1070330812,-0.0511544556,1.9720147449,0.5993866617,-1.2749736422,-0.5009482177,0.2166196083,-1.300147384,-0.2642964667,-1.9255516036,-2.6882760066,-0.1058762931,0.1580458726,-0.8977901857,-1.930724012,-0.1486795442,1.3815555658,0.7620834972,-2.2308790042,1.0426619933,0.8822128301,-0.6569824854,-0.8740220029,-3.0405292107,1.3423855686,3.2120657731,-0.5940451995,-0.4832721875,0.5937404447,0.8420559839,2.7718860337,1.0458336911,0.9545671388,-2.5508018829,1.7336908358,1.5076970888,0.4965866753,0.2374381284,0.6228560955,-1.6525608194,-0.9631848504,0.9578837215,0.7932782756,0.2116140316,-0.2996080735,0.1463431905,-0.3112342069,-0.6321481982,-1.7134565038,0.0034172428,0.4879111557,0.2590869773,0.1671555772,-2.9560600916,1.3720025783,-0.1921654745,-0.2246899608,-1.218315117,-0.5522829772,0.4971470982,0.4647274064,-0.9428258865,0.3162109971,-0.201599392,-1.2657134159,-0.2715160503,1.08412638,-1.4098350811,0.4940899317,0.2240922034,1.3983531762,-0.3022525219,0.4233832253,0.1615141875,0.1750213276,2.9115923996,-0.347693485,-1.1900582452,-1.7791803935,0.7134672063,0.0427949764,-0.4797908864,0.6405798519,0.2304362564,-0.0851953493,-0.5743644584,0.216134569,-1.0296677114,-1.0184792964,0.1354723136,-0.268219387,-2.284721242,0.848612605,-1.6597419806,0.9530795869,0.0910876637,0.9481770122,0.0910042816,-1.2289329447,0.1686638041,0.7060478238,1.0501782319,-0.7402167943,0.0037829344,-0.1759954985,0.1629937769,2.91804023,-2.2388289707,1.3066097563,-0.2934936102,1.0036901944,-0.7051324593,-0.1383668662,-0.3324285812,0.9999198599,-0.3732116045,-0.8328294323,-0.503860578,-1.1348717979,-0.1371082049,-0.6071894465,-0.8949989108,1.614462542,-0.6368598314,1.7093688367,-1.4933826536,-1.441562706,0.0920683964,-0.8717576679,0.6085915042,-0.4114379918,1.7068292503,1.5837149694,-0.9962965272,0.9002686811,1.2267057646,0.8316770861,1.4413611332,-1.0826958005,0.3611634283,-0.5213406895,-0.1926257102,0.7538516926,1.0339625148,-1.6578960622,0.1261992284,-1.2625205701,-0.0734113102,0.2483385463,1.1252192806,-0.5142618771,-1.374424299,-1.7927463328,1.9552939575,-0.6371377116,0.433143551,0.2919629101,0.0261050104,0.1923360897,0.8707409787,3.4701347483,-0.1734662001,-0.7854130073,0.2368866062,-1.1498604454,0.3213319429,-0.3193650589,-0.3378791817,1.3069730901,-0.4417016457,1.494046708,0.3309920349,-1.4483665769,1.0502113045,-1.4320098104,-0.5882402443,-2.6397894042,0.1500066795,-0.5903140038,0.7052459388,-1.1346751494,-0.0595167412,0.3071397016,0.677076875,-0.341157584,0.2746918757,1.8677283427,-0.7569266501,-0.5056787862,-0.9125761488,-0.2052830605,-0.2792888138,-2.8129413788,0.1295127365,-0.6930026054,1.5575474929,0.6632749915,-0.8363880202,1.2542126862,-0.5534203659,-0.7152082852,-1.3036556479,1.0300520194,-1.8365687042,1.5301365744,0.4127962391,0.2465500211,1.9379888832,-1.1262081602,1.2117090958,-0.1020371011,0.9772698085,-0.5737698731,1.5866073539,1.4450981994,1.0547314246,0.4461354207,-0.6016804575,0.1702351413,0.1538594058,-1.5750492031,1.9570419681,-1.2589333996,1.2688972194,-3.1052919931,0.3536348216,-2.4564152304,-1.6215391648,0.8933434696,-1.4636579624,-0.4722805505,-1.8363384436,-2.3448552363,0.8441242639,-0.3753403219,0.0614047449,0.2003890117,-1.1162962363,-0.9514615038,-1.2299530108,0.167575767,-0.1939836637,-0.473107076,-0.2996903624,-0.6104375378,0.2401857596,-0.0117244107,0.8106190369,-0.9635732323,0.2957559158,2.0163786884,-1.5210418395,0.3702885196,-1.1550087484,0.2509810948,-0.5675511458,0.4346464387,-0.655656922,1.2801318691,-0.4933345185,-0.0644766989,0.5628542409,-0.5697166588,0.5708806132,0.8625801641,0.3234551842,0.0192623669,-1.1907051809,0.7016273726,0.673875957,0.3248324984,0.0717881194,0.4317328541,-0.8053159351,2.0074669331,0.7209014679,1.1376809051,-1.4268871853,0.2076445685,-1.6086753387,0.202564801,-0.6048950447,-2.6086766294,2.1474936761,-0.7560598224,-0.566868196,-0.5502922777,-0.0425908873,-0.4560117292,0.784346671,-0.2747617581,1.5009091904,-0.0237581298,-0.4350140606,1.5643018076,-2.7981294203,0.4619507442,-0.0000732234,0.1669074867,1.9193315065,0.9472438049,0.8515930221,-0.4577715215,0.5804533324,-0.1591852385,-1.1881916431,-0.0649794605,0.7402732362,0.3242686043,-0.4255151154,-0.1081969899,-1.9042854762,0.9741686339,0.9825211635,0.4717698156,1.6249577799,1.5527990981,-0.2120248793,-0.7079624692,0.3919520283,-0.9345478982,-1.4821946216,0.2733838731,-0.1626333693,2.2725459451,0.3391269266,0.8436162444,-0.4264603813,-0.1043318476,0.4630401375,0.8115023631,0.4272520002,-0.3463490382,0.3579102426,-1.2341398248,-1.72078579,-0.4049774584,-0.5831582991,0.3064257263,-0.6537737841,-0.2122214909,1.7058694699,1.6228209067,-0.4400111393,-1.1196562968,0.2998561249,-0.0327279426,0.4216736814,-1.1418543419,-1.1445136754,0.5406086478,-0.0063166606,0.7731017861,0.0263539688,2.2249035067,0.1897971735,-2.6205185744,0.4096245161,0.3100977731,0.9887129299,0.5383674394,1.0185877502,1.4608413817,-0.2029555814,-0.4011520066,1.9574225008,-2.4172462737,-0.7686209599,0.9317805648,0.215402296,-0.0063310853,0.1397821587,-1.4094602464,1.4620368983,-1.0676116078,-0.4950329166,2.6938997423,-0.8377817426,1.8433931545,-1.609227277,1.2509113953,0.6699511556,-0.3154073344,-0.189750216,-0.1495633594,0.061077074,1.3334431067,-0.3767625486,0.4300593184,-0.1378100899,0.3998001981,1.4518651551,-0.9042740622,0.2271630853,1.4608307922,0.8953532766,0.8418890458,-1.5572376557,2.9814017747,0.4567034321,-0.8504537202,0.2875116154,0.7873205881,0.3803659207,-2.5137003362,0.2239166458,-1.6431328646,0.7532818436,-0.5474596693,-2.1640432,-1.8544286187,0.7060492121,-0.8141862061,-1.8319407946,-0.0355404949,0.1281048293,-1.0062216158,-2.8683436571,0.6399581353,0.0696434975,2.9664173742,0.6203054124,-1.0005454499,0.367259786,-0.4533828154,-1.1081403082,-0.4920040961,0.4680947307,0.1128260902,-0.5917861435,1.3496375505,0.5284954505,1.3469345453,0.6072412104,-0.6006911432,0.7447491761,2.1169908484,-0.4815587868,0.8635666381,0.0457592975,-0.9349671546,1.065336427,0.9693347598,-1.8872352606,0.9102689476,0.4553673434,0.5762326879,0.188395291,0.3394399669,-0.0718255647,-0.5964929469,1.1591661053,-1.0018424309,-0.4349091796,-0.2599734328,0.7681295155,-0.3589488593,0.2056808113,-0.4878737973,3.8760146363,0.5479284445,0.2644457401,-0.5304491271,-0.7945439897,-1.1095788514,0.4034171445,-1.3522159757,0.969092087,0.7117439962,1.6249665746,-1.5482712582,-2.5019146232,0.7649303596,0.0133583815,0.1163650335,-1.6703385568,-1.2914380277,-0.235291212,0.7579316341,-0.076087924,0.1537895882,1.5875112936,0.615898608,1.1822676922,-0.5170541727,-0.0224589591,2.1767219971,1.8754906436,-0.8047674836,-0.9121288199,0.087491583,-1.6400440147,0.4625345046,1.3956990059,0.1187483369,0.6237894744,-2.298797183,0.12383025,1.0361561028,1.2380382312,0.284506749,-1.2069079092,1.5408602667,0.0509246362,-0.1916219756,0.9284993546,-0.392373701,1.6326665814,-0.2486256887,-0.9309263373,0.7161139076,-1.0034801615,-0.1450724046,-1.8148543034,0.602231981,2.6863399573,-1.2293572909,-0.1383237117,-0.2276722623,2.0908376608,0.5934971986,0.095365663,0.1687561058,1.2839585267,-2.1667201304,1.7408165244,0.140536007,-0.8815570143,-0.4555350097,-1.4774718104,0.6683246463,-1.1145435383,0.166973467,1.4062573863,0.3097405236,-0.3440516117,-0.8014004659,-1.1713277091,-0.3693354907,1.1608896599,0.1012877669,-1.0823366354,0.7883122518,1.8642644595,0.8354979606,-1.860473252,-0.5915010985,2.0908340456,-0.6289327999,1.9905102103,0.2491389069,0.5749779433,-1.1061535319,0.3423701242,-1.3091471724,1.6268538996,2.7996248266,-0.0552769466,0.2888138316,0.5336363166,-0.8128567813,2.4874461472,-1.9934241517,-0.0892119678,-0.668975169,-0.3105588214,-0.4357523688,-0.2313685149,-1.2726681331,1.6456653806,0.1357997719,1.3398083353,-0.9339643438,0.392415484,1.4663050935,0.1518702649,-0.9141989953,-0.8882679134,-0.2236233199,-0.618936742,1.3396436041,-1.8592317316,-1.035830415,-0.0435343579,0.3142407718,1.0059108854,0.0051418695,-1.0424880889,0.7518184252,-0.0809258989,-1.3246143232,0.348634368,-1.2291389905,1.2464742922,-0.6292107154,1.1202263335,1.0413210064,-1.5350558104,-0.0516831677,-1.456672726,0.366944093,-1.4983143751,0.4950220711,-1.6367051787,0.2998820357,1.4584641031,-2.455389053,1.052536641,-1.4895166965,0.4350234071,-0.1856417879,-1.5763626274,-0.8641222183,-0.5522950014,-2.0735294064,-0.9793346832,1.720392526,1.5624256596,0.6147164653,0.4036960969,-0.2786447833,0.7544098342,2.1324700265,2.983119361,-0.7849170127,0.5474229752,0.9753168948,0.6597128649,2.2918850207,0.2733520963,-1.5485781869,1.9903626837,0.1702001732,1.1292122744,-0.9467642943,-0.3722379996,1.640647867,0.8420793164,-1.9512592228,-0.7998364813,0.1322469633,-0.1821493203,-0.7249131655,0.1882969934,-0.8913093142,0.6532402696,0.0105697731,0.5189146106,1.2405184905,-0.3680328873,0.5810134818,1.0961746594,-0.5828752891,0.3759628077,-1.0260617749,-0.8701253282,0.9428675049,0.7205876608,1.0194377896,-0.2117869848,-0.6579650689,-2.1237094684,1.6086124933,0.5288806945,1.5853320084,3.4895364925,-0.9012968376,0.2295435631,0.7227437053,-0.0118364806,-3.0454774876,-0.9812424832,-0.7302719275,-0.3228916602,-0.5407569999,1.1714043175,-1.0382353727,-1.3732970545,-1.3407086217,-1.334718407,0.1757154177,-1.0571626153,-0.3035727896,1.2996203697,1.4778369491,-0.5208345863,-1.6813825322,1.2354990797,-1.0234985684,-1.1956269228,1.3991386186,1.9225151513,-1.3543322387,0.8068768094,0.9017835539,0.5959245839,-1.8457590612,-0.7283640288,-0.029045324,1.4954206729,0.2909862766,-0.2605470262,-1.3024086536,0.0136700916,0.0650102082,1.2015326647,-3.4466517537,0.5956390217,0.8959027414,1.0003503904,-0.0744903186,2.0130138149,-0.9039125681,-2.1696468088,-1.8213958579,-0.6433757062,-0.4108350627,-1.1167995133,0.1526220144,-1.9356412774,-0.8499331221,-0.7951873741,-0.3269308987,1.6212579351,1.565034078,0.1553295681,-1.6814784839,-1.0521819252,0.5638815776,-0.9509652153,0.9670421004,1.2525095409,-0.3063095934,1.4652979198,-0.6425543425,2.4417372668,0.8567197242,-0.0295480911,-1.2932161624,-0.0194371781,1.609807653,-0.2907369696,-0.048629184,1.6431447142,0.3122295326,0.7284956043,-0.3599765463,2.0381767491,-1.4097919264,-1.3574006701,-0.1027311097,-0.673136977,0.4724898601,1.4418874066,1.5090202768,-2.0428118038,1.33643573,-1.1253762544,-1.5045198395,0.2312259455,-0.9945268494,2.5210049882,-0.3582741138,0.022251383,-0.395477257,-0.1109858084,0.875538631,0.432994422,0.2192807924,-1.0329620362,0.7403626303,-0.7341732027,-1.4752412734,0.820514454,-0.1097823074,0.4751882765,-0.0561507905,1.8998663909,1.9789932397,0.6451239981,0.9358967621,1.2728146313,-0.1547959749,-0.1916358173,-2.0448898139,-1.788037836,0.5121550552,0.6335308585,-0.1239787636,1.133991128,-0.6207261157,1.2123690497,-1.191490084,1.4880770762,-1.9037217918,0.3613962761,1.3851358974,1.0615244118,1.0285000739,-0.4788934325,1.0052288261,0.4765422079,-0.4280344472,-0.8189920347,1.7016754019,-0.0995014054,0.8763778595,1.4731055539,-0.0071095918,-0.341112808,-0.8149034024,-1.168525761,0.1151908339,-0.1869774934,2.0942961643,0.7217009665,0.2802213026,-3.0626756971,2.0263799819,-0.0260879724,-0.7352542454,1.9485347359,-1.5942949332,-0.0287466868,0.034190429,-0.8967852692,1.4042755073,-0.2304872021,0.1561263769,-0.5706561605,-0.1374449839,0.4186422539,0.3257224964,0.3838771244,-0.5877938246,0.3314275256,-0.1746354382,-0.5947209416,-0.2255320329,0.51396064,-0.1665708153,0.3192512208,1.8957923816,0.2194179083,0.032136716,0.0481207387,-0.4610869411,-0.1864134358,-2.7060281959,-0.2833435664,0.4365143424,-0.2486706787,1.7030748198,-0.4905139664,-1.1651876269,1.3333129078,-1.2360058384,-0.357128229,1.7855964515,-1.3043958148,0.087264026,-0.1827251518,-0.7825105948,-1.0708326469,0.2769577393,-0.1760528758,-1.5099970198,0.1870423248,1.0061489397,-0.2583372828,0.2170128838,-0.8272017602,-0.1638468069,-1.9808090498,0.8320388342,0.7942117389,-0.1961082713,-0.7507243678,1.348856744,1.6126440103,-0.6595331595,-2.6787235518,-1.1309699451,-0.9461622533,-0.1107961674,-0.0045309776,0.8040295754,-2.0859996642,-0.8410779185,-0.1364835417,-1.0552712486,-0.3382706689,1.5710554096,-1.0618583028,-2.9235432616,-0.157996793,0.230761127,-0.1755196357,0.0347308315,0.4086931459,-0.6149311445,0.1897447846,-0.3174078093,1.3885673535,0.9821101663,0.1912314267,0.2570089374,1.6830921188,-0.6785347073,0.3316494964,-1.2066249877,-0.3782716112,-2.4824839603,-0.8705835286,-2.0624832978,0.5869755021,-0.3261222569,-0.5268616838,-0.6828378312,-1.0430857448,-0.89482342,0.2880768219,-0.1784634106,-0.1008072597,-0.4802153503,-1.1509800305,0.0018820776,0.3301254079,0.2414346387,0.3258715644,0.4282809858,-1.8230297759,0.7747997517,0.9252780397,-0.6969029336,1.8985361289,-0.566126185,-0.9936457995,1.5990575373,0.2225615172,-0.1402272612,-2.765994836,0.0055353804,-1.7965056024,1.0779713399,-0.2217452865,0.4810655219,-0.666254989,-0.341169245,-1.0102334381,-0.9930927349,0.0531867109,1.3662917226,-0.7627444938,0.8275889685,-0.0879226631,-0.7816991418,0.2476307421,0.4246183223,1.6235273929,-0.6315752745,0.3746862635,-0.122881501,4.5617349849,1.494143063,-1.5198471401,0.9999406465,-1.39746176,1.5308516595,0.7703676248,-1.8873210485,-1.548026374,0.1728988559,1.528738023,-0.5371640299,-0.3949860854,0.8767736373,-0.3662161602,-1.0674139975,-1.0655120394,0.6219524146,-0.4762118261,2.15103589,-0.6915034504,-0.5400177524,0.1765343496,0.3060992827,0.6424381123,-1.8929953997,3.4959697682,-0.5016342771,0.1203270845,0.3921796561,2.0632110682,-0.6127640474,-1.0944033958,-0.2537336342,0.4171632517,-1.4165932161,-0.873404415,-0.7114810088,-0.5656011734,1.7889657696,-0.9568378364,-0.15391204,-0.3510248402,-0.4027237019,-0.0600409904,-0.111506073,0.3908968538,-2.3847409608,0.7619191186,-0.3833040399,-0.7698696445,-1.6901486256,-1.035239995,-2.0718802189,0.2238537348,0.738973885,1.3671940751,2.3033646549,-2.1545459748,-0.9306970401,-0.7650568282,-0.8786327846,-1.1679700558,0.8153439163,1.9712689374,-1.3417335648,-1.3040394956,1.9679006724,-0.2549461654,0.5891702941,1.7972792167,0.4671001941,-0.4886686046,-0.869690348,0.0724057134,-0.539109613,1.7747616232,-0.64197388,0.1486886763,0.0912075496,-1.4189496817,0.9012640481,0.7857253941,2.7049237691,-0.453116874,1.5814225746,0.2697811387,1.5469992911,-0.6843242814,0.2539989896,-1.112711303,-1.2634877801,2.7796133074,2.1411533128,-0.6081170744,1.6194327496,0.1401390451,0.6118022085,0.7930479023,-0.3638120364,-0.8983862211,0.3569879837,-0.8587731692,-0.3088205192,0.0903038961,0.0651972657,0.1363312826,2.4700191191,1.1614036868,0.2842544555,-1.6514455216,0.9394322231,0.4538464283,0.9080551483,-0.5292111363,-0.5188642151,0.5350826774,-0.3086860675,-0.5312623655,-0.6193377669,0.234847452,1.0144121966,-1.5789131455,0.1368114742,1.3832332893,-0.4487512476,1.524929818,0.2887449251,-1.5186379229,-0.851413569,0.6390169108,0.1972971685,0.5992378631,0.616006165,-0.5309097072,-0.4709839868,0.1957225097,-0.9694464108,0.0826443186,-0.0405799547,1.9165577615,-0.7123499045,0.2572728256,0.6263887793,0.1198299844,-1.2816456964,0.3961043517,0.3649818796,1.2361528109,-1.4099146539,0.3520020227,-1.4610977105,0.7792549806,-0.4419649319,-0.2037773425,1.1293650413,-0.3810662143,0.1159122554,-1.320955121,-2.1476969461,-0.329628575,1.7433723715,0.0904085785,-1.3712393837,-1.122935683,-1.1036989045,1.2215397353,0.8883763542,-0.120570818,-1.2936364978,0.5764519142,1.9066265929,0.0677863051,2.1153159863,0.145965843,0.4249182389,2.3072303503,-0.0835586015,-0.4483768194,-0.6264133708,-1.4008516453,1.3149959344,0.0349007647,-1.8131049556,-0.926724559,-0.0707173778,-1.0597107554,0.1740868465,-0.8387857345,1.5818212943,-0.656890446,0.6534836339,0.3814237922,2.3302860753,0.2206308144,1.6991653128,1.4404716993,0.8662112681,0.0518977287,-0.1801783448,1.600938905,1.2284062817,-0.5911638436,2.0481590694,0.9747403247,0.7087511889,-0.7855062678,-0.2890093523,0.3222520665,0.3924697582,-0.7849616461,-0.7253257865,-0.4577203094,-1.1095438585,0.2257735927,2.1558337561,-0.4424480102,0.879447272,-3.0877298315,-0.1374562003,0.5657591246,0.3761741758,0.0931690076,1.4396437549,0.468132802,-0.9284830964,-0.6493649552,-0.176816456,0.5661405137,0.6779708479,-1.9785157317,0.5879800473,0.2123121373,0.7580245429,0.7630981927,1.3654806525,0.1319025026,0.590621895,-0.6567674315,-0.2632852046,0.9687949811,-1.1846194674,-0.4169919987,-2.5609231344,2.381820076,-0.4347583665,-0.3722636323,-2.1901668531,1.213821846,-2.0034211997,-1.1060450822,-0.9868560967,0.2399019698,-0.5018412165,1.2012124565,2.0008972553,0.3994195342,1.2660128038,-0.2866721353,1.9979474815,-0.6306121186,0.2911730763,0.8867744379,-0.2414332888,-0.8762529624,-1.5864920381,-1.9664704346,0.0833673484,0.0489315092,0.7930295563,1.0671740671,-1.4680506139,1.2084110736,1.9033071986,0.4883967233,-0.7752264654,0.7712501515,0.3243525501,0.4249910761,-0.2207671139,1.4536436634,-0.5297355655,0.2037161787,0.90150367,-0.2509167362,3.1954658646,-0.1900732148,-0.5811504499,0.1668277707,0.466120433,0.9773699147,0.1677589465,-0.193715337,-0.4917017522,0.9873473806,-1.0669631,0.8499970967,0.1715593744,1.3774361495,0.3774238473,0.8051192833,-0.9576561127,0.6683502987,-2.1948789509,-0.2540346678,0.9053031006,0.6758026082,0.3284113394,-2.3027419896,-0.2795669137,-1.2629056588,1.5430851243,-0.664584796,-2.3778327492,0.2183927852,0.2786268522,0.918773034,-1.8008981629,0.4941057976,-1.5756607697,0.5288471046,-0.7276435587,-0.1142313475,-2.1177948268,0.3772028594,-1.5220131561,-0.4052304344,1.8081385687,0.1106126321,0.4658249539,-0.752728047,1.4223212806,1.2252217873,-1.0003805636,2.0137482872,-1.9804992784,0.2485597385,-1.3118269617,0.8465557303,-0.8068693791,-1.0769427903,0.3958082438,-0.5506530544,-0.7897165483,-0.2368605702,0.6636567039,-2.1730282129,-1.6042189805
   0.9279193473,2.7570227719,0.7678422439,0.9414191675,-1.1221434401,-0.4449025262,-0.5035475031,-0.6497448835,0.177123728,-1.5407769263,1.078864377,-2.0589556682,-0.0600624352,0.1347720504,0.1212176818,2.1659196742,-0.4758794811,-0.4905170665,-1.0709081036,-1.8661919896,-1.2713581978,0.4681859359,0.7520768768,0.4807191156,0.4621067498,-1.8536915803,-1.4266624058,-0.7298517381,-0.3828507247,-2.2188587788,-0.9211497434,-0.1307694285,-0.0945782188,0.3257555328,1.6780359952,0.9049511988,0.5322280399,0.1967412562,-0.1874137681,-0.4758659421,1.1662660717,1.2835139464,0.8904435999,-1.3102494644,-0.3067071257,0.8700616372,-1.2005872379,-0.1537979388,-1.9064633228,-1.0204175835,-2.0096689731,-0.2894991351,2.4461705537,-0.755877179,2.8521281543,2.7205261713,-2.1535026088,-0.8039131344,1.0851151427,0.3885033245,-0.2248486655,-0.1402348474,-0.7852206722,-0.5017470142,-1.2384896359,-0.7736728518,-0.8285963334,0.1611413815,0.1142341386,0.1246667874,0.8085947939,-0.7793528318,-0.063495389,-0.6776469471,-0.3938871389,-1.4500656599,0.9670545196,0.3487265875,2.3833758422,-0.8097109743,1.2757590723,1.3487402919,-2.2022630981,-0.0473925615,0.6858908765,-0.5290379499,-1.3610800394,2.0461262262,-1.8026253087,0.2785794998,0.7885548761,-0.0465798565,-1.6348003539,1.2324220634,-1.9778457648,-0.7264229695,-0.303189775,0.262387901,-0.4150944191,-0.9305688661,-1.0674276859,0.2270991759,0.3580013921,-0.3728409797,0.5008487894,0.692028238,-1.0516582948,-0.7779087284,0.9021097468,0.3502284641,-2.0187596692,0.2683332851,0.4520833568,-1.5076695866,-0.6269017464,-0.6610390595,0.3944876036,1.8653690321,0.1241151824,-0.6992225009,0.8524672723,-0.0191126565,-0.1532066143,1.1433188286,-1.2942948698,0.9998311932,-1.2122795026,-1.3285326362,-0.0882610815,0.9491634268,-0.7217002386,-0.1001802796,0.9772277424,-0.5512432588,0.478264542,-2.1909664381,-0.5355294156,0.1261245455,0.0548235398,-0.5200080617,0.0927839873,-1.617001593,1.1236551429,0.2697631306,-2.2410856622,-1.7809810833,-0.9528714266,0.7465786964,-1.522088242,-0.8851492718,1.3076076824,-0.4586337585,-0.3210870784,-0.9962389552,-0.7765393529,1.7839314483,-0.185612366,-0.3174810788,1.2139885625,-0.8134115458,0.8993083272,0.0026405493,-0.1100312753,-1.2425028549,-0.0743849561,-1.0435878117,0.3368938442,0.3979096536,-0.2410825606,-1.4686703295,-1.6445259129,-2.2399383677,0.4066587081,1.8618282914,0.5026815441,-0.9048679991,-0.3859552115,1.7449947874,0.2530468419,-1.6293183255,0.8533652022,1.2683239861,0.0401897831,2.2628839588,0.6077068532,-0.2440874821,-1.5994546248,-2.0591263441,-1.7524315571,-1.7487679272,-0.047756583,1.935302807,-0.8236712723,0.1409893539,0.2480235252,1.1833516686,0.4168143342,0.8059172257,-1.5911115967,0.273478184,-0.7369684145,0.5156362427,-0.9476006618,-1.0716317264,1.4867060426,-0.6990810092,-0.4448134476,1.2074507096,0.0790093488,-0.5825922077,0.6564575188,-1.4555033306,0.5661082309,-0.4081097296,0.3829094849,1.107191611,-1.1737035857,-0.846116251,0.8958194819,2.3932720354,-2.136811998,0.410648786,-0.3375970166,-2.6388587401,-0.5272896242,0.6866947731,1.6850705072,0.5519690224,-1.0467526107,-1.9447034645,1.5631906259,0.4931148315,-0.0754021165,-0.6506100306,-0.0268766989,2.4540980184,-0.9196013799,2.3116720884,-0.7192843813,0.4517362812,0.1256488735,0.0333117041,1.1969396841,-1.2377640189,-0.0876440474,0.2451972377,-0.6969861488,1.3891112726,-0.410650203,0.3095943224,-1.6229736,-0.9148454439,0.6226718659,0.5027494436,-0.5517239166,-0.3866989591,-1.7995007036,-0.2259391726,0.5409741484,-0.2858937499,-1.0686221205,0.2722629573,1.1646748,0.1455151808,-0.7171883569,1.5012804728,0.4596024006,0.4101073983,1.4863935893,-0.7940058916,-1.4030176411,-0.1674352564,0.2908382959,-0.8735645619,0.1105715339,2.310390983,2.298386467,0.1811956919,2.1182677177,0.0554291545,-1.0992657894,-0.1655862559,-0.1220155153,0.011464565,-1.5288585245,-1.4583067401,-0.4917920039,-1.4611844456,-0.575959073,-0.1447861482,1.046354519,-0.6250120871,-2.3184675632,1.48141713,1.6481176632,-1.0411383694,-0.0023113014,-2.2081425528,-0.8924067593,0.9324068587,-0.7455319742,-0.7877835795,-1.1228592612,-1.2392204191,-0.6916766292,-0.3434247254,0.1377767397,-1.983683748,0.4420691911,-0.0347064451,-1.098704673,0.296951332,0.3246731054,-1.1898786408,0.3790064724,-0.276530812,-0.1979173673,-0.5349392655,-0.8111604265,0.3525361883,-0.0738890495,-0.4335871199,-0.789190293,1.723444909,1.0821298654,-0.8533284677,0.0426593212,0.0526223478,-2.2000632818,-0.0886167379,-0.0178468338,-0.0277565522,0.7218862275,1.5355391068,0.230447565,-2.5294444064,0.3221681968,1.0756466758,-0.3907938229,-0.1166782629,-0.2676229652,1.3409053954,2.2218669871,-0.9514703617,-1.6038434757,-1.7803456784,0.8785769221,-0.7026364562,1.370352315,1.5212359283,-0.1863979977,1.9963469647,0.1895127377,-1.3366471675,-0.4606419524,0.2091784661,2.2045713322,-0.4319803158,3.0916275673,0.8972156043,0.8637231904,-0.3635080951,-2.2051384772,-1.0013596018,0.3105745046,0.5648085718,-1.167500751,1.8988985621,-0.4716687156,-0.0627296675,0.8580254681,1.0693146872,0.1804582629,-1.0683012149,-0.2434604249,-0.8827844896,-0.4152677216,0.4363258797,-2.2398920668,0.0240436183,0.4830488542,-1.3351268672,-0.8268512559,-0.6869651684,0.8549590692,-0.9754454467,-1.682967816,0.2594709556,-0.6822879611,0.2627918308,-0.6163315345,1.2811052952,1.1235833286,0.7182038461,0.1915871124,-1.7295685457,0.2000815529,1.5317602845,1.6341217256,2.1729061517,0.8501828846,1.6338317614,1.5264247146,-0.9514385338,1.0072641949,1.6894477048,-0.5502372415,-1.2075342389,0.8962086144,-1.438036505,0.9389232488,-1.1581549358,2.4727524996,-0.0952983198,-1.3678353813,-2.5352881632,1.1113355708,-1.1365857444,0.9917866145,-3.4055163726,-1.6383777021,0.6318572822,-0.2467986632,-2.0688337681,0.9091589212,0.339994437,1.6685708062,1.6633334479,0.480834642,0.2239505815,1.1412901262,1.240384568,-0.2864751533,0.2827976807,-0.3680038203,-0.7488833582,-2.1497629025,0.113152441,-0.2098629558,-1.5509456377,-2.2565051401,0.2499613351,0.244106244,1.605606724,0.0718510012,0.7477459459,0.9382959715,-1.6877435254,0.1842749431,0.4828865275,-1.138004475,-0.6638628274,1.211790883,1.1479141658,-0.540433215,0.569565972,1.1705842973,-0.478750241,-1.9841019414,1.6462015166,-1.1835511963,-0.4108069832,2.2349446205,-0.0593320503,0.6772921068,0.7511050034,-0.5891628972,1.6694700626,-2.3921102276,-0.1432607417,1.3959795995,0.5103494801,0.5766638192,0.3682922004,2.512064925,1.9118356536,-0.2152047323,0.2439823967,1.5257808245,0.6692592665,-2.12327129,0.3114649006,1.4927305659,-0.2827940644,0.9443463829,-1.6047239038,0.0276576208,1.632047966,-1.4437658799,0.3855683243,0.397861961,-0.9582005398,-0.3717344867,-1.6932623754,-0.4266954208,-1.6305334106,0.573123773,1.0105888289,2.281022986,-0.9334598737,-0.5099363888,0.5848623393,1.6870385594,1.209594223,0.7735231599,-0.4741816581,-0.3849730016,0.8609861026,0.1380400328,0.6704624312,-1.4848283605,-1.5243675822,0.0160166335,-0.2128413986,-0.0499164963,1.5625640761,2.4595551771,0.1113141067,-1.1485154235,1.6924166981,1.1422780309,0.6683686375,-1.0391822798,-0.6118780204,0.4730593934,-1.7205194294,-0.2782345174,-0.8179050977,0.0700296303,-0.3786677813,0.1863297203,0.1355802028,0.0363533469,-2.0055893121,0.111460882,-1.4424145366,1.8684522529,1.6323396853,-0.880968843,2.0771455779,-0.041014409,-0.0611056651,-1.6322902336,0.5341654726,0.0583675814,1.5706454491,0.3545303077,-1.07150636,1.3595274899,-0.814933802,-1.3381832391,0.4695741225,0.5418481526,0.1636856555,0.9005431029,-1.0321048364,0.9941477099,0.0956613807,1.386861852,1.6814669214,-1.2232987427,1.104648865,0.1556077477,0.8860714572,-0.3808622575,0.4053008282,-0.8790300293,0.4910228801,-1.9722421315,0.6353391354,-0.7346092221,-0.0459271982,-1.2594758455,-0.2939365482,-0.1954747913,-1.3279980103,0.1115685606,2.585196811,0.8126603948,-0.4968488379,1.2275440915,-2.8010243231,0.1400947494,-0.6039041052,0.7465033758,0.2924980271,3.0268115209,-0.4986634996,-0.368370659,-2.031862013,-1.2153837708,0.1314902966,0.9416833203,1.1822031733,-1.1534732827,-1.7108245462,0.8370336218,0.8653272933,1.0407236012,-0.7617800841,-2.6902180122,0.0715364999,1.3459481458,0.3636672678,-1.2173141492,-0.2403994861,1.2493895368,-0.1369811432,0.2019362437,1.3509965776,0.1245754584,-0.6024959048,0.1255858432,0.2224215067,-1.7815371386,0.4576476016,-0.7496988793,-2.9552685365,0.8043511994,0.3241769476,0.7200779634,-0.3571488474,1.2108577269,2.2755316032,0.154457912,0.3831946858,0.3346022505,0.3851448568,0.7287004683,-0.3071550688,1.2839255055,1.2597139566,1.3756303781,1.0447603855,0.0490629602,-0.8770906913,0.1002717363,0.4092140596,0.8366962298,0.7506730895,0.631179919,-1.8858392903,0.5268248527,0.7523872128,-0.1351470039,-0.175864873,0.255045606,0.4657473532,0.4176993657,-0.3622417908,-1.1254820606,0.9322698477,-0.2834510421,0.8633457195,0.4848422477,0.6966086807,0.6011602669,-0.7065967594,0.6303075953,-0.9164640201,-0.2383606181,0.856313814,-0.8285469262,-0.5504306992,-0.1551404888,-0.0448509741,1.2789080705,2.4985823452,0.5873057089,-0.2429034616,-1.0490336152,1.0608590324,1.5698978274,2.7502325539,1.7169941805,-0.3333453126,0.0010773864,1.9634066631,-0.7762242732,-1.9192917663,0.9020806898,-0.2324875688,1.1749420141,0.4950637664,1.7259571952,-2.4816961565,-0.3410649969,-0.9116085841,1.2202414004,-0.0956667581,1.5774198025,0.9419092157,-0.3018671056,-1.5918703715,2.3182080872,-0.3600122442,0.1372964948,-1.0799948926,-1.2882217236,-0.5056082763,-0.418918831,0.6523815507,-0.910675235,0.7547140276,0.6317815099,-0.8753264386,-1.5145588391,0.1212253334,-0.4602945718,-0.2253868233,-1.2815112536,0.1345899623,-1.1835598088,-1.517052897,1.3816428712,0.6908813914,-1.0626543118,0.3220436251,0.238898579,0.160628181,-0.4899957847,2.0536425694,-0.6557412685,-0.1572055125,-0.7437591288,0.4486706889,1.4010373763,0.0625848377,-0.0743774069,-1.3129511518,-0.0059482835,-2.3547595143,1.1872734781,0.2787294994,0.21511405,-1.7991916159,0.8386728487,-0.3257838131,1.9446566326,0.9979973875,-0.8858008572,2.4075688153,1.833164576,-0.323192192,-0.1575214259,0.1855911643,2.2884392013,-1.1751421127,-0.2391121287,1.0805777343,0.2064888371,0.7460095227,2.5615508306,0.2664941767,2.6097775308,0.7656265913,1.0708120596,-1.4350019367,-1.4571353193,0.7647059461,-1.5585679393,2.0106815551,-0.7502740238,0.6526459403,0.8556332319,-2.0149039343,-0.7432736486,-0.1469752135,-0.2127652733,0.6343098745,-0.9857265144,0.5654256551,0.5276490573,-1.8509683489,-0.5377854591,0.3844397143,-1.1914284073,0.9872299241,2.4973082327,1.3819955834,0.9388818624,2.1342005456,1.4597755364,0.2335840361,-1.8772299981,0.4740009983,-0.1789590157,-0.2495675062,1.0031140414,0.1628684995,0.4037903304,-0.7778687565,0.9851493958,0.4455762418,0.5006022906,-0.1582663352,-1.2240594228,-0.7521110967,-0.9807010232,-1.2024468178,-1.3835044381,0.6871182648,0.6472709919,-1.2276775782,-1.898331835,-0.5564689711,-0.6349946816,0.2150562419,-1.1598556342,0.3037290134,0.333567416,1.8944939431,-1.2466433428,-2.5720174755,-1.9512008412,-0.0654606686,-0.0801515481,-0.7648962029,0.1245511943,3.1665839747,-0.0582148935,1.1586716442,1.6868508866,0.3776932762,-3.3403580155,-1.4930011821,-0.9627289553,-0.106693627,-1.5028937269,-1.9660213144,0.8853670886,-0.7775742162,1.3742764412,-0.317093552,-0.6985847175,-1.7558535356,1.399193071,-0.8459373842,0.4950863639,0.0759186131,-1.11639051,-0.8229678592,0.0917740804,0.5867713937,-1.4655552558,-1.9808332907,-0.0485164383,-0.3811518865,2.7792298653,0.2515702355,0.2793047982,-1.6256364679,0.6971415238,0.2297311504,0.1790623449,2.0847975434,2.0806844991,-1.270351478,1.5035697657,-0.9214408162,0.3907018823,-0.4697489495,2.8996792532,0.7474671619,-0.32844931,1.8252846115,-0.0662969803,1.0231469043,-1.0497753129,-0.8747931359,-2.0652071402,-0.054928383,1.8908309486,-2.1564879738,0.7170652902,-0.0535607152,-0.7984044104,-0.0663003021,-0.3813595381,-0.5002102587,-1.3370431737,-0.9571864785,0.5107846806,0.5938971323,1.4987878963,0.5807363903,1.2499995295,-0.656760511,1.7443818983,1.7094093364,2.18030335,-1.1048245051,-1.7100430141,1.0851012029,-0.9196702339,0.2008618565,-0.1519013551,0.5477716144,0.2810834724,0.4191149202,-0.6271575401,-0.9324378932,1.5830592396,0.1888324458,-0.2072449085,1.5752779854,-0.9792453052,-0.7945929222,0.3843226238,-0.1087194071,0.1836979027,-1.4679402645,2.0105096066,-1.6120417872,-0.2761670689,-2.6721650895,0.3596989963,-1.5151513874,0.6991220929,-0.1183729817,-1.8313415271,-0.486594724,1.5543793189,-0.5976153379,-0.6553885062,-0.6455241627,0.8767677622,0.7366243202,-0.4909186372,0.478487682,1.0192849257,-0.9635824818,-0.4045428094,-0.0130389565,0.9259429853,1.1679000736,1.4589268545,0.3226742159,-0.5757361334,1.9469053438,0.5578327356,-1.2087664136,0.1555935793,0.5703307688,-0.448011818,0.1400612293,-1.1675262287,-0.1690199536,-0.8656009057,1.0377101614,-0.8060880674,-0.7311267969,0.4606145088,0.4031669523,0.833628581,1.2582113709,-0.8245724722,-1.8864246003,-2.3329149952,-0.5271257786,-1.5961623528,-0.2295231254,0.5008920009,0.9473132465,0.8806804373,-0.5539814204,0.5522512963,-0.5497960633,0.3179798721,-2.0455578766,3.1840185437,0.119928338,1.7436808177,0.2196898144,0.6762839715,-1.5550676912,1.0166433446,-1.0097332941,0.3435988577,0.1420116457,-0.5103650383,-1.4310968356,0.5025883597,-0.1387896082,-0.1669898131,0.568705486,2.8120552553,0.5180316408,-0.1402759982,0.3886902812,-1.706953904,-0.7020401888,-0.1866111722,-1.80883772,-2.3175661102,1.2304749505,-0.7207187762,-1.9528369698,0.7834494599,-0.0336110201,0.5618408082,-2.1466303463,-0.4035422966,-1.114540801,-2.9273185992,0.0994148731,0.8621153162,0.440913351,0.6348858896,-0.8390730998,-1.0120446887,0.3114451585,-2.6726981114,1.7509290097,1.8369899011,-0.2496778211,-1.475690188,-0.1154807579,1.0847692061,-0.5310208119,0.7963111995,-0.5082065038,-0.3030689884,-0.0610957557,-1.2994251187,0.3415860669,0.2539004888,-1.1314060455,1.1904226257,0.2000701845,1.1881594465,-0.3307502431,0.1039163231,0.5718073826,-0.0537340844,0.7095672758,-0.1076711899,-0.2503398373,-1.1713471516,0.4973290399,-0.1887711334,-1.854864575,0.7062657126,-0.4976305975,1.7045702071,-0.0477977919,0.6655748099,-0.9166363312,0.6029647321,0.4039463288,1.0203658311,-0.7173381281,0.3530502061,-1.3803016665,-0.1027616907,0.0767754536,0.0350525374,-0.923664297,-0.3535119644,-0.4807477807,1.6020356123,-0.6139748176,0.1517423488,0.8443684623,0.1707749487,0.5964285354,-0.033537344,-0.2273819551,-0.1705349992,-2.8548931254,1.1655721598,0.8461504438,-1.3415302809,0.1004037542,-0.2846176303,-1.7338720379,1.3568759968,-1.515125618,-1.7115830256,-1.0296223574,-0.216429411,0.3912218412,-1.2823705031,-0.9862997401,-1.4685551421,1.5072492502,1.1709802499,0.0287098964,0.9333201905,-1.8370707128,1.8575033389,-0.4964202188,-0.4745667552,-1.2855819993,-0.2589844859,-0.2357687569,-1.1316369245,0.4674465937,1.5384190985,-1.3972005454,-1.1037570712,0.8918666806,0.7390601178,-1.713787828,-1.3322709447,0.8489425668,1.6231130221,0.1374156047,-0.4526273717,0.8689894076,0.5777568914,-1.601995246,0.4008420289,1.5254490898,-0.4048147652,0.1850169558,-0.319052566,1.1142137595,-0.2460200923,-0.2266761559,0.3033089992,-1.1123540598,0.569237027,-2.778842183,0.4176296479,-0.7918997835,0.756236692,-1.1572651883,1.6519436019,0.3107062564,-1.8397920508,-0.0525162917,-1.121790573,3.2252908815,-0.3790345527,-1.3287403305,1.5604072162,1.3084398643,-0.602055946,-0.8712260571,-0.5784117606,-0.0709849269,-0.0504237622,-0.2678648693,-1.4661936882,0.6613389293,-0.0041501974,-0.5599976713,0.285717718,1.0217330258,2.2789060485,0.8409644723,0.2711645185,-1.5242704594,-1.869537311,-0.9829465888,1.3089090786,0.5800391286,-0.3053807009,-1.3137252828,3.4439646245,0.5122378164,-0.2695356311,0.7602162475,-0.1002102799,0.4384684553,-0.9846685861,1.046817416,-0.4641083331,1.064917044,-0.3713152672,1.594317032,-0.2798040658,-0.5896834202,-0.7225764707,-0.6426099461,0.7508241037,-1.3634407774,-0.8977246517,-1.005696055,1.6700741543,-1.0901274991,1.1881102967,0.2856892309,0.4094527812,0.9261280709,-0.1859892434,-0.9581080388,1.2487427835,2.1117457667,-0.1074159427,-1.3190981723,0.8888701396,-1.2532863477,-0.4650630382,-0.4193092934,-1.3195730659,-0.1415750109,0.3057302292,2.3750599369,-0.2394716537,0.9293569263,0.3983306697,0.2827662404,-1.1020916484,-1.3365511029,-1.0897499078,-1.1047043666,0.7849618208,-0.9283983848,-1.8541694969,1.2196688085,-0.1641044519,1.776018619,-0.9946146817,1.3461616765,2.5793588525,-0.222943358,0.5035876186,-0.959915001,-1.0267274492,3.0533455213,-2.4693188757,1.7123360099,-0.0754183697,-1.7790721315,-2.7024276626,1.0175517831,-0.2762323991,0.226332382,1.3209207491,0.9010453603,-0.3525114838,0.7863823936,-0.4346886095,-1.017201799,-0.0523351054,1.2402493496,0.2430900115,-0.1386045812,0.4383642116,-0.8814936221,0.1556699239,-0.0000171522,-1.125442185,-0.7492940237,-0.4966615308,-0.924227871,1.6943193335,1.6757072943,-0.3326418931,0.2840525102,1.8665439367,-0.306035073,-0.9471880669,-0.213669948,1.7482002744,-0.5648420942,0.3479057021,1.9156424757,-0.9454548963,-1.9935872801,0.1342096277,1.3071810675,0.0692766617,0.8876328266,-1.708086169,-0.6467938077,0.5111744813,-0.8163963659,-1.2519186255,-0.4594041196,-0.0006046363,1.3433999163,0.4398604033,1.0966988291,-0.9613432295,0.5912553695,0.7881508853,0.4289280841,1.9912645241,1.1307055508,-1.2327804967,-2.1491750267,1.6396119229,0.1446564802,-0.686343666,-0.2364345978,-0.4170616611,1.1884623715,0.4758777101,1.4003318201,0.8332334139,2.4286725848,-0.0627274946,1.5690490213,1.8666932938,-0.1027239951,0.9618284795,1.3956598553,0.1957144639,0.1356584748,1.5661269337,-0.6302816374,1.715681618,-0.598958906,0.7111788281,1.1362435958,-0.1548014857,-0.0844924203,1.0698718306,-1.2747224274,-0.8727932657,1.0207603975,-0.4164766701,1.0562410248,0.9577423473,-0.5960719546,0.806797213,-0.7088038258,1.2784032792,1.7372843846,-1.8859063132,-1.1545472828,1.487134419,0.0502103501,-0.0163939363,-0.3033596613,-0.9951499664,1.9207163387,-1.4008545107,-1.292427546,0.8797273566,0.9098691848,0.8743154227,-0.6049857937,0.4612382798,-0.7769601148,0.3312349017,0.5580690433,-1.713867884,1.3177934292,-0.1644561877,1.2590958741,-0.6323394945,-1.3309901443,-0.1193074103,-2.2061788456,0.1328622355,-0.1839595395,-1.9408706431,1.7610866682,-1.4047436021,-1.5909004625,-1.9476022148,-0.4770815483,-0.1319678033,0.528856875,1.3575352614,-1.3605397112,0.1106423176,-0.804041972,-0.5133032946,-0.5551097458,0.9018072013,-0.7727355361,0.1858728587,-0.3916001425,-2.3075928514,0.6797791898,-0.0029556042,1.7172629831,1.4048217016,-0.9560915506,0.0170249199,0.1466067194,0.2923431649,0.1939630982,-0.4109617338,-1.7063502609,1.1260217483,0.7818145464,-1.1721300938,-0.7908896131,0.3397516311,-1.7462935676,-1.7090067852,-0.7481691932,-0.5861730879,-0.9378462205,2.0120072953,-1.1043541782,0.5745322204,-0.4871520164,0.7684467331,-1.2886625078,-0.0508813518,-0.1969139025,-0.638972976,0.1571336557,0.9975534969,0.261332745,-0.745339128,0.387502252,-0.9511643594,-0.1180718523,0.968385065,-2.7079111613,0.1810178542,-1.0771507149,-2.1223806546,1.118337849,1.4581622878,-1.2814833854,-0.7324367697,2.9005063782,0.1538930802,1.0011017719,0.2146389795,-0.2422979946,1.0398076148,0.7731986964,-1.6163328287,-0.5856871765,0.473437646,3.0139687506,-2.3554143233,-0.1129707107,0.5872890657,0.4893791202,1.4897104693,0.1904262188,1.5862389617,1.1794362464,0.2634380664,1.2627833955,0.4509453323,-0.0777062629,-1.3918578918,-0.3987699967,0.5521109962,-0.0588906061,-0.860883585,0.2701743627,-2.0565714313,-0.141225584,1.0801053361,1.8421725672,-0.1757612986,1.1410098751,-2.5624767267,0.9633518531,1.7351933402,-0.1897661556,0.9849909373,1.8123639327,1.2295633237,-1.8142408535,0.3203619446,0.5523764328,1.6604915815,-0.2606654566,0.4784598708,-2.2207979558,-0.707961985,0.1921860719,1.8090422582,-1.0286873921,1.2511116085,-1.6131109743,0.3671524477,-0.039239996,-0.0836084243,2.5432402421,1.8555414096,1.7741773124,0.5492892182,0.5687154278,1.1433042399,-1.9030545851,0.5874628893,-1.0776138844,1.9291459694,0.3243188086,-1.8617579105,0.4042162852,-0.435131575,-0.6317441472,-0.7374302715,-0.640728138,0.5838253242,0.5942403655,1.2889904433,1.444682361,0.1872209634,0.4267707671,-0.7211307138,2.61468961,-0.4422947392,-0.0288146752,0.7772855489,0.8207988641,2.0132230931,-0.2035207965,-0.5889033834,-2.5474107469,1.4764342514,1.5631559864,2.5395796853,-0.4332754442,0.7257208861,3.0165274395,1.8400167422,-1.118140663,-3.6169557119,3.3978973951,-0.173839029,-0.04133951,0.0164051272,0.4759330021,-2.0707377848,2.007043922,1.1462332508,-1.1090758848,-2.0502373873,-0.3625051615,-0.3669840583,0.7610659129,-0.3705487466,-0.2779523106,-0.1152243665,0.4729405067,0.6792442311,-0.0364174443,0.0615994137,1.1577060526,-0.3746913998,-1.8623654579,0.536758754,-0.2328370491,-1.1215503991,-1.795581733,0.0340157604,-0.9572054592,-1.4156837269,-0.3371314279,-0.3348705592,-1.0287951516,-1.3795751958,0.3968860035,1.9441688174,-0.6487327354,1.7266726345,-0.4401391908,-0.5756617138,-1.0288637052,1.740372671,0.5731247614,-1.070330271,1.6077344317,0.1287032046,0.8725979963,-0.727216395,1.6424905482,-0.3733316613,-1.174083092,1.3219973918,0.4322647974,-1.8657564595,0.6426985898,-1.5891848635,0.8636885483,-1.2023742733,1.8178705021,0.1919698845,-0.6569651761,-0.1485017311,1.5653112758,1.6326369884,-0.2223965873,1.8105315152,-0.9099871593,-3.3972163259,0.7181090846,2.1269410543,-1.3973403222,0.8445011908,-0.621731894,-1.7159750522,-0.1729765454,-0.0159064557,1.3639225474,-0.5239033597,0.7398686831,-0.8089889391,0.2163956422,1.3646727448,0.2803752012,1.0450944557,0.7913438565,-1.2638737953,-1.041341177,2.4246568191,1.4277438539,-0.6329025491,-0.3467969222,2.949632987,-1.3424887992,0.0150179427,-1.0560206999,0.6106175272,0.6950982611,0.9391925166,-0.9964097869,0.7087314687,-0.1875315827,-0.8433479568,0.6026457701,-0.4507708827,1.0061930332,0.572473262,0.10280124,1.4459295872,-0.3254170817,0.5788019359,-2.6202218694,-0.3321216973,0.2750238017,2.3352693046,-1.1390848514,1.6812102291,-0.6973399336,1.4015232004,-0.5091383259,-0.3626336787,0.0493930836,0.6886590046,-1.5669444319,-0.6639105132,-0.1336249415,-0.5165997617,1.2219186131,0.2745881321,-0.1520502395,0.4392459285,-1.0862568972,-0.9659609835,-0.3463889721,0.9868062547,0.9134038683,-0.0058208873,-1.2144532274,-1.4225711597,-1.3155813347,1.5665502202,-1.7385963424,0.6280866377,0.0612700361,-0.6390794313,-0.9452143688,0.7255246209,-2.0980627241,1.695262018,1.2529346162,-2.6233117951,-0.0872108701,0.5481865104,-0.0996050042,0.1869457859,0.7341596927,0.0542571657,1.6958302179,0.177414502,2.6156084975,-1.1756444599,2.0992264105,-2.5530962731,0.6350329235,0.1336908116,0.7710962665,0.8921971931,0.5039591746,0.3064414232,0.9136206293,-0.9939098941,3.2383189609,1.3465035454,0.3684743178,-2.3674212671,0.1459284518,0.3609933181,2.7867538523,1.7179514607,-0.1212099338,0.0866349037,-0.1665291208,-2.7672669081,1.6415530117,0.2193353889,0.7933856696,0.2301301405,1.5287606776,-1.2014590588,-0.6739560322,-1.2511269187,1.0442949588,1.6744458015,0.8816344462,0.1379017437,-0.5474882394,-0.4793885427,-0.6370697676,0.339844099,-0.0160715329,0.5440382972,-0.2728815374,-0.4982935752,-1.2651593107,-0.7045258345,-1.9208445702,-0.1103860872,-0.991274179,-0.4076765777,0.9119607345,0.8746289381,-0.1548345065,-1.0628957192,-0.4849444599,0.5011434422,1.4529767734,0.9823359452,-0.9448691995,-1.3007493259,1.5641552781,0.4910296343,1.4660380484,0.8173837941,0.2422389031,2.4926056064,0.8967696305,1.0007927973,1.4882574793,0.0468376423,0.3842574737,-0.2737031258,-0.8059092837,-2.1150232513,0.5417417191,1.6636330051,0.4873468194,1.091457419,-2.9410569144,2.7135670066,-0.413844985,-1.0244347222,-1.0204828818,-1.0023960937,1.6501357121,-0.9698228989,0.5987366583,-0.3237071998,-0.6448485076,0.4327548594,2.6409020467,0.3352618294,1.4452983216,-1.6639628143,1.2863962163,-0.4864323558,1.3538118947,-0.0167412097,0.8236169565,-1.6370932656,0.5935169836,-0.1593035845,-0.1519073022,-1.011785136,-0.8884147283,0.1246230143,-1.2751975736,0.1081272072,-1.5914059149,1.7435912511,0.2505716494,-0.3995878054,-0.8064444003,-2.0435434414,-1.6426887573,0.6604871037,-1.6810815068,-0.0779751864,0.524420245,-0.2803089816,1.0152682941,-0.0249820726,-0.0731218568,-0.7084727913,-0.9555083535,0.9480019865,-0.2405153224,0.2701801994,-2.0715567345,0.2772188612,0.3972175716,-0.6014019888,1.999968594,0.7138876991,-0.5521397605,-0.1980950062,-2.3128869225,-1.190984857,-0.2518987272,0.1986906267,0.6451944946,0.0080448241,0.072770263,1.6186287932,1.8549515889,1.2128608857,-1.1702203437,1.9720511548,0.6581988262,1.1565528159,-0.5011495092,0.9914167859,0.4774977299,-1.2954642239,1.6452621919,-2.7369414546,1.9961344152,-0.3114584325,1.038242642,1.8242419883,-0.1642206823,-0.2418841229,0.210182578,-0.3471303318,-0.3437337238,-1.0614317227,-0.2196328975,-0.1639732584,0.2359760135,0.0505623349,-1.5456401992,0.1596471394,1.5997668529,1.0288576297,-0.044220964,0.0981116488,-0.5229717993,1.9972821622,-1.3342185862,-1.0271377466,0.911613089,-0.3375204468,-1.2416960891,0.0618050367,-1.0400142777,2.7936790994,0.0444164292,-0.4115885105,-0.3128972456,-0.1151297548,0.5667615487,-1.1426345697,-0.0313376276,1.9282020884,-1.4623259924,0.0371309641,-1.0804650293,-1.0609740679,1.1391740896,1.1803393644,-0.3145063223,0.4837531521,1.0637879973,-0.2012588359,-1.0807938299,-0.458789748,-0.8256584219,1.3845900562,-2.6428065761,-1.677963473,-2.6499017594,-0.0259416297,-2.0256010442,-1.6575331018,-0.5399606683,-0.1086237639,0.4854299128,-0.5051247618,1.4357357175,-0.7479659616,0.4835130015,-0.4288969357,-1.216642495,0.7563816077,0.0624002577,1.1836758341,-1.0757462266,0.5461142801,-0.3610508141,3.1464766263,-1.4652481878,-0.0204428558,-0.0380876247,-0.924688043,0.4521075428,1.5358057208,-1.2998613771,-1.6554777186,-1.2604535349,1.0412590811,-0.7536154334,-1.9086896485,-0.2694880996,0.0121629369,-2.4662834037,-1.9622573792,0.1827325406,1.5365450787,1.5430530305,0.0369852469,-0.8413037143,1.0069390965,1.5292528408,-0.0829507042,1.324156189,1.4239968187,0.3763059541,1.0820159918,0.0878311861,-0.3249426263,-0.0177273443,0.1753483823,-1.35780543,1.0638473331,0.0770487736,-1.2405467158,0.0427165923,0.7047198028,1.6784588721,0.129530364,0.8868021439,-1.5559548325,-0.3333786591,1.1943441745,1.1763017804,0.2595392725,1.148236869,0.3648053447,-0.0468326303,1.0455911334,-0.0010342166,-1.294528304,1.6732433655,0.7308496748,-1.3671705455,-2.9755386798,0.2294615908,-1.5334756737,1.0629307074,0.2777920784,0.3915821062,0.3700762067,1.5618110316,0.1361653284,0.5063858235,1.4780979204,-0.4061751667,1.4346664273,-0.7393603163,1.1558823715,0.3719606089,0.7829434756,-1.1671631301,0.6482207183,-0.8601538659,-0.6607346631,-0.7114986422,0.8977178965,-1.2059029005,1.0721260485,-0.1780201772,3.399411483,-0.5053659733,-0.0210087146,1.1928242124,-1.8652692459,0.3950649983,1.4465897261,1.2696844127,-1.5018646985,-1.0461832254,0.4332082551,-0.3369569596,-1.4023236482,-0.6317233771,-0.352219076,-1.5222330922,1.3434017113,2.8638992741,0.5835604316,-1.1998837941,0.1974210905,-1.4708720826,-0.2392969886,0.3690119053,-0.0532978424,-1.102446801,0.0406255438,-0.9597103736,1.6504066556,-1.5095060361,1.4732413996,0.7976775314,0.4287530399,-0.8198022202,-1.5224740142,-1.4710139652,0.4405560126,0.9864677311,0.7959074698,0.5424593208,1.5942745339,0.2635969062,-0.9601883042,0.1716208865,0.1249218995,1.8168351954,-0.2056040308,-1.3114847795,0.6173797885,0.0052137229,-0.4126529764,0.9467402163,-1.2628024036,0.332048838,0.3869142997,-0.2372230394,-3.3090124516,-0.2290771045,-0.4771561766,3.52794845,0.8591041106,-0.4811783178,-0.6952691921,-0.3475394431
