encog,BasicNetwork,java,3.3.0,1,1437649904166
[BASIC]
[BASIC:PARAMS]
[BASIC:NETWORK]
beginTraining=0
connectionLimit=0
contextTargetOffset=0,0,0,0
contextTargetSize=0,0,0,0
endTraining=3
hasContext=f
inputCount=243
layerCounts=1,21,41,244
layerFeedCounts=1,20,40,243
layerContextCount=0,0,0,0
layerIndex=0,1,22,63
output=0.8790731933,0.706411361,0.000053585,0.8532130273,0.9914820682,0.2954937617,0.3446789978,0.0499092222,0.1642247213,0.999930245,0.0161522653,0.9929935483,0.9999973391,0.1008149607,0.8975230756,0.9847695018,0.0055427099,0.0006716299,0.2360096673,0.4480595629,0.4696456383,1,0.6070936656,0.0040259521,0.1168915934,0.9966190289,0.9904656861,0.876631172,0.7929394852,0.5650820613,0.0261064698,0.7084547463,0.9598812902,0.3435045696,0.764372686,0.6311377741,0.3140000549,0.771375057,0.0516777492,0.9939462049,0.988532167,0.9858005049,0.5684830224,0.5951589621,0.0081563106,0.5283509375,0.9977661288,0.9661949259,0.4450259024,0.0010886233,0.082032627,0.9859800047,0.9697697923,0.9989891144,0.0158495957,0.9182637537,0.7119160388,0.5632061565,0.9429751495,0.705530947,0.9978203517,0.4591437959,1,0.1803921569,0.2509803922,0.2431372549,0.2117647059,0.1882352941,0.1490196078,0.1921568627,0.2235294118,0.2941176471,0.1647058824,0.1921568627,0.2274509804,0.1725490196,0.168627451,0.1607843137,0.1568627451,0.1725490196,0.3725490196,0.168627451,0.1647058824,0.2039215686,0.1803921569,0.1411764706,0.1333333333,0.1254901961,0.2117647059,0.4745098039,0.1764705882,0.1843137255,0.1882352941,0.2,0.1333333333,0.1137254902,0.1411764706,0.3254901961,0.6,0.1647058824,0.1764705882,0.1921568627,0.1843137255,0.1529411765,0.1294117647,0.1725490196,0.4078431373,0.6941176471,0.1647058824,0.1294117647,0.1960784314,0.1725490196,0.1764705882,0.1176470588,0.1803921569,0.4784313725,0.7607843137,0.2039215686,0.1176470588,0.1764705882,0.1764705882,0.1647058824,0.1137254902,0.2431372549,0.6,0.8078431373,0.2431372549,0.1490196078,0.137254902,0.168627451,0.1294117647,0.1450980392,0.3529411765,0.7137254902,0.7882352941,0.2039215686,0.1960784314,0.1058823529,0.0941176471,0.1647058824,0.231372549,0.3882352941,0.7176470588,0.7411764706,0,0,0,0,0,0,0,0,0,0,0,0,0,0,0,0,0,0,0,0,0,0,0,0,0,0,0,0,0,0,0,0,0,0,0,0,0,0,0,0,0,0,0,0,0,0,0,0,0,0,0,0,0,0,0,0,0,0,0,0,0,0,0,0,0,0,0,0,0,0,0,0,0,0,0,0,0,0,0,0,0,0,0,0,0,0,0,0,0,0,0,0,0,0,0,0,0,0,0,0,0,0,0,0,0,0,0,0,0,0,0,0,0,0,0,0,0,0,0,0,0,0,0,0,0,0,0,0,0,0,0,0,0,0,0,0,0,0,0,0,0,0,0,0,0,0,0,0,0,0,0,0,0,0,0,0,0,0,0,0,0,0,1
outputCount=1
weightIndex=0,21,841,10601
weights=##0
##double#10601
   -1.366796062,-0.9166704497,-1.0691680093,1.0428560929,2.3512696788,-0.0244407781,-0.349064158,-2.5523003316,1.1104711013,1.4710302529,-0.6218532015,-0.6268583701,-1.0098230877,3.7796418407,-0.5581706073,-0.8771769124,0.3316897907,-3.0203289746,2.1846843537,-1.6248956529,-0.4119087878,0.3362376212,2.1528913726,-1.9675251523,0.9113678489,0.2103433542,0.0032737281,-0.5471617936,1.1909122353,-2.8547450766,-1.0828362613,-0.2228795704,0.0722598003,0.2420955475,-0.6432928294,-0.3192359587,-1.0142615398,-0.4680720282,-0.2248278318,-0.9170453578,-0.2146239212,0.0027614116,-0.2886018212,-0.757451247,0.1658596963,0.3328825872,0.2583155022,0.1112324097,0.5921217914,1.3537148145,1.5838882015,0.2943880579,-1.1254346275,-0.876325591,1.2193123431,-2.1384180022,-1.1197702296,1.594421039,-0.1472952527,1.6839508555,2.9454477725,1.9554881329,0.6736186899,2.3664268032,-0.4453846498,-2.1255603085,-0.7049018994,-1.8640992132,-0.0548374073,-0.2288493985,-0.449250967,-0.7285567195,-0.2583889487,0.4221820187,2.2866105425,0.0643267855,1.4185623085,-0.6149656021,-0.2717863178,0.9004417506,-2.7851789511,0.3269310348,0.3196226401,-2.0559968296,-0.3151705348,-0.0980287138,0.0281500632,-0.4004716325,-2.4347544458,0.9245983246,0.3911027946,-1.6781404321,-0.7460938139,0.9029387867,0.1991808929,0.8602080659,-1.607967263,0.0967261392,0.5822091901,0.1067332918,-0.2493150161,-0.8590381634,-0.8882586497,-1.1839136056,0.5739413188,-2.8361888863,0.2320305355,-0.9053937621,-1.297623034,-0.6979306312,-1.0326815104,0.0637765748,0.6777724686,0.7179719663,0.9874912041,1.7551834267,0.6658710522,1.1735532418,-0.563655425,0.5690863123,0.3593641925,1.1211147333,-1.0026545936,-0.4475528639,-0.161030742,-2.185422172,1.388945444,-0.3059967236,0.411977248,2.4317534855,-0.1339101377,-1.8923322282,-0.165839535,1.7924666832,-0.339626838,-1.1520516524,-1.8326822861,-0.5736292501,0.7820145128,0.7873696374,-0.4991413865,-0.310411414,-0.3052249405,1.1666778725,0.2619299064,-1.9843877545,-0.6854551166,1.7146583895,1.6436919379,-0.1060511255,-0.3452352594,-2.3332299075,-1.0157987554,-0.8722459162,-0.523334836,1.9227813567,1.1299036119,1.1482866241,-0.2093518736,1.4258637192,-0.8871748814,0.8364520758,0.3968043358,-0.619443235,0.9087124063,-1.3005476947,-0.8331924991,1.1671272836,0.8426015997,0.1807548129,0.2394899043,-0.945426119,1.1617734376,0.8704875118,-1.2511948575,2.142737834,-1.660003146,-0.9947745949,0.1969976967,-1.5020543604,-0.5993047935,0.1548950565,-1.2939905484,0.8313366266,0.0163378455,0.764050007,-0.230308364,-1.6186543304,0.819850208,0.8237683727,1.8505818398,0.71070638,-0.3714183234,0.616337703,0.4979044782,-0.7357497701,-2.3922840992,2.0493767583,0.0304821433,-1.5583783185,1.7269191287,-0.7623200943,0.2939551829,1.4527978325,-0.532534918,-0.6187955424,0.4541546773,0.6046660858,-2.5728583893,-1.0819811551,-2.1670242626,-1.2529648927,-0.1528614122,1.7620869547,1.4184511614,-0.8554857226,-1.0076896895,-0.3608161337,-1.3171098168,-0.5150916986,0.7528727134,-1.4389134924,-0.3155087358,0.4239291366,0.2961211934,0.4669743836,0.6404819029,-1.8632026446,0.564628983,1.5637329146,-0.5332610472,1.7683062281,0.5027497914,-0.311976802,-0.2606926972,-1.6036537924,-0.1129869098,1.3527640435,-1.500750417,-0.5529383884,0.0995930172,-0.543074618,-2.3254331705,-0.3984415496,-0.585377797,-1.2980386286,1.5592609894,-0.4813556877,-1.0868532761,0.1861324727,1.4324764418,-1.0859480886,1.074803941,-0.83436428,-0.1247111812,0.2797152109,0.3895864071,-1.4189465164,1.3609943346,-0.9353542824,-0.7171592283,-0.5761083101,-1.2893168054,1.4922962002,0.0784227271,1.6088701126,1.3442235837,-1.8569686075,-0.2502882443,1.2893453655,-1.234298847,1.8959404937,0.9334170756,-0.1559263936,-0.1964570945,1.1413743817,-0.2793803876,-2.5586674475,1.5415349811,-0.8076742476,-1.356977389,-0.2860594254,1.5723750438,-0.5424270606,-0.2014679088,1.229905544,-1.7484974639,-0.6099471241,0.8439514769,-0.6844462424,-0.0022022728,0.7684967011,0.2749295856,-1.4102787127,-0.241668588,1.0742016339,2.0481994088,0.0401201494,-0.8975623472,-0.4310549773,-0.9631508634,0.464343175,-0.2477602218,-2.6485497446,-0.2539906491,1.3851560884,0.5632632037,-0.0897338001,3.1866593546,0.4684065539,0.0026118221,-2.3905190225,0.0891466494,-0.2726734631,-2.1088993743,-0.1565979024,-0.5771313344,0.3254714522,-0.6397699646,1.3601594415,-1.4665774966,0.9233460053,0.2685811903,-0.8746209015,0.435417802,2.5649472765,-1.0245012709,0.2501490318,0.2301149319,-0.362550787,-3.7108663997,-0.6435236957,0.0289813648,-0.3424200781,-0.4326016571,-2.1082074882,-0.119416902,-1.4379497457,0.8761009184,3.9173907815,0.2235717324,1.5549112979,0.220622819,1.0334190359,-0.0109037629,-1.5752041305,-1.8017693974,-0.3851556004,-1.4315490026,0.8159944465,2.2746461139,0.0921855783,-1.2007347222,-0.1827352889,-0.8850253144,-0.0894678726,-0.3449022137,1.9216395797,1.3061889047,-0.1996993037,1.812056555,-1.1762527926,-1.7854055051,1.342826609,3.0901913852,-0.3731296888,-0.392017176,1.2328789605,0.0187970634,1.4830356344,1.7288817321,-0.6508922744,1.1583100228,1.4977151756,-0.5386236804,1.9438484385,0.8441882658,-0.3230150104,0.7955062295,-0.3135499294,3.1629946043,-1.359470034,-0.09939737,-0.2816283788,-0.861285729,0.9648537336,-1.0371131852,-0.128082626,-0.1345056909,1.3519710229,0.1756460318,-0.387614075,0.5357792331,0.6330951083,0.1227211689,-1.6806386083,0.4133071534,2.0041901763,-0.5666883,-0.2036077245,0.5752331148,2.6194518555,1.8257433059,0.4390634406,-0.1009569996,-1.1278052283,-0.9116766344,-0.4880260156,-1.8922731038,2.3723267567,-0.1630287429,-0.5521192721,-0.8754367988,-2.0315375586,-0.6545801817,0.0066692273,-1.5105205119,0.510665537,-0.3239016689,0.0310228784,-1.4856594725,-0.5694210452,0.7180361953,-0.1548469914,-0.6914208316,-0.043787404,-0.8580856241,-0.6367273652,-1.0527814724,1.4577326753,0.1290330241,-0.2473472943,0.979258223,0.6185579255,1.7802313503,0.4210311306,-0.8431005788,-0.3669369629,1.8381393232,-0.0845707576,-1.1413607336,0.0970438111,0.5764933457,0.121558896,1.3171274532,1.4349443004,1.1471643192,1.0365462168,0.5454635872,0.1405300069,-0.061431397,-0.1550859939,0.5496396434,-1.0002349537,1.2525803722,0.2358182669,0.4383568808,-1.2184886969,0.6908834969,3.3997138981,-0.0498798088,-0.0792383839,1.4091296175,0.8756558077,-1.3063840451,1.1150130536,0.1505694826,-0.3090777991,-0.9670900576,-1.3714644322,-0.2659628733,0.6635027141,0.3631885155,2.8104463224,0.2519963519,-0.144831024,1.197221162,0.13407733,0.2119588589,1.2877865333,-0.2962645067,1.0119788487,-1.5278217747,1.0634401389,0.4798675622,1.1208011228,-1.8577238809,0.8993235777,1.2286132841,0.3738732586,1.2063343308,1.9538851383,1.7474899776,-0.8277514487,0.6366567217,0.0778481609,0.9528728746,-0.1629741417,0.9659671452,-2.7694989227,1.8289536101,0.5215967152,1.3794360658,-0.1743329265,-0.9671109732,0.5885973191,0.4491899571,1.3416073467,0.0408489577,0.9968354176,-1.2695517241,-0.104529807,1.4705079255,-1.004908579,1.4882335923,0.9119296887,-0.2612086112,0.5611117604,-0.4761580823,-2.7084226927,-0.0856437181,-1.7538548632,-1.2369697166,0.3580703263,0.1497638015,-0.4951100082,-0.4261872517,-0.3921494258,0.1397989486,-0.4067426154,-0.1320770929,0.1041545865,0.6164557196,-0.9242402922,1.7516130862,-0.2887021647,-0.7371960204,0.0956308578,-1.6440842949,-1.3646128711,0.6939797987,0.6380244351,0.8509273497,1.3366921333,0.3905116761,0.1511872462,-0.5095531031,1.7211434083,-0.889037665,-1.6241028301,1.0904090314,0.4477601303,0.8624091945,0.3730978086,-1.0768445107,0.5889365528,1.9773796193,0.5927079044,0.1889017651,-0.3163951024,-1.0940150654,-1.0403257726,0.729852931,-0.1074676375,0.8067265914,0.0816538496,0.354392878,1.5117176322,-1.7992132554,-1.2686358218,-2.9638590883,-1.3657097663,0.949300861,-2.0005672582,-0.9367898691,-0.4642740865,0.9143690924,1.1022388901,0.3913498096,1.937998092,-0.8345707005,-1.7421103733,1.8215983873,0.3836859992,0.1098792067,1.8137038166,2.3920590108,0.3793054497,0.7724296042,-0.1095241669,-1.0144941998,0.9761160093,-1.1456608482,0.0520712385,2.0476877721,-0.5487226812,-1.2090699227,2.3031585059,0.6259635129,0.251466602,2.2928728404,-1.3969916812,-0.2225583039,-0.4131319073,0.6222050106,-0.7787699327,0.982759623,-0.2179913116,-0.0220482556,4.1524483863,-0.6373764351,-0.3175888825,1.0809444858,0.2298898828,0.2886903584,0.4874481962,0.6298607695,-0.1079563541,-0.6320150161,-0.032589799,-2.3236974678,0.2801656186,0.3170686293,-1.1622153214,-1.2272649151,-0.0811881642,0.0931842234,0.2285257985,0.3470069663,1.1732102162,3.2618658957,-0.5795777524,0.4498213362,2.6643544727,-0.6213025297,-1.6249631393,1.184817893,-0.3343853283,0.5415282006,0.3251589456,0.2443286767,-1.250725986,-0.4551037933,-0.0821773588,-0.3541149572,-0.3754930097,0.7426659034,-0.2926732663,-0.0976395147,0.6438135925,-1.0947690335,1.0406172734,-0.7336553429,0.3104688238,0.6646944202,-2.0071088294,-0.1848987951,-1.155190221,-0.0357141637,0.8784134187,0.1262707115,-1.6180705829,-2.3693496656,-0.4716256838,1.4862943766,-0.0018609038,-0.6676702861,1.1346283846,0.0902076123,0.8437363085,0.4296885247,-1.7326846779,0.0183451727,-1.046946086,-1.2332343563,-1.2399966046,-0.4391375338,-0.7381837469,-0.523744121,1.1836508309,0.9268163118,-1.0979536668,-1.7709931249,-1.0784167364,0.7537811609,-1.5105523384,1.8239877478,-0.4568756787,0.2953698036,1.0271241063,0.5849491641,-1.0954380755,-1.5446865228,1.4139940676,-1.1894263973,-1.0892874552,0.283380459,0.3290226671,0.89715155,0.0706151897,-0.3712648747,0.6921017333,1.8671867661,0.1895543995,-0.3064876258,-0.9551562996,-1.2489269943,-1.1257569784,-0.4174226968,-0.0217068195,-0.930153345,-2.2620815629,0.3767508107,0.2228573403,-1.8414443303,0.6243301516,-1.3656453772,-0.3629791976,-1.2860969925,-0.848567718,0.3556873826,0.1001619395,-0.8114799123,2.1007222952,-2.0337051314,1.374329484,-2.0612851226,-1.6174709659,-0.8557669582,0.5669211151,1.3290935655,-2.4056439508,2.4467709408,-0.9120596372,-1.1867466529,0.0712546359,0.8136572985,-0.0405886641,1.2906569919,1.6891611534,-0.3240955593,2.05639183,-2.6823056863,0.5986386752,-0.5783093846,-1.1981586095,-0.9210227728,-0.5111048367,-0.2959865242,0.9034964578,0.7122005309,-2.208566424,-0.105718343,-0.5604081028,0.5705737034,-2.8210884666,2.4270354747,1.2574273652,1.1223720138,-0.0576267333,1.6709674621,-0.2551988537,-0.5626479595,0.9059165374,-1.9732765638,0.5891851703,0.9846985579,-1.3728861838,-0.4518037094,0.6461917617,-0.7686887423,2.9845268665,2.2345800134,0.4633949916,0.7728409613,-0.6461341197,-0.1511899994,-1.3525071312,-0.0838056594,-1.4599891576,-0.004695323,0.0528304017,0.9181851071,-2.4485018492,0.4194812896,1.311285748,-2.2661780953,0.431531958,-0.5602899883,-1.5358417757,-0.9004707334,-0.3326763374,1.6717566032,0.0595899766,1.7472233159,-1.172706627,-0.5400465633,1.1939939498,-0.3280374067,0.0210466443,-0.4727304397,-2.1321810503,-0.4467613678,-0.1097535396,-0.4919530019,0.749369052,-0.4936239536,0.6499238908,1.3391641733,-0.9395272668,1.3175305017,-1.4955862671,-1.1043832873,-0.9508560774,1.8013705243,-0.1450274652,0.0027064945,2.0741703032,0.0444234261,-1.1283130115,0.0665465419,-1.2264309059,-1.5055846364,-0.4575126973,0.6193493291,1.1682283684,0.9361414354,-0.7836351716,0.5504078721,-0.6248361528,-2.132854846,0.5765292872,-1.1091634417,-0.849821345,-0.5330404679,0.7670384127,0.2162961849,-0.2463510779,0.1617057773,1.3160955654,0.870810675,0.306156021,-0.1512586277,-0.1124809694,-0.9946400656,0.324258603,0.2600553526,1.1309921289,-1.3261174423,0.7879257829,-0.5590362006,0.137763767,0.6207253565,-1.6523188845,0.1875257634,1.3911105405,-0.5716860058,0.6025286461,-0.3505964062,-1.4280054445,-1.291548775,0.0205533657,0.14051901,1.2234062068,0.6505800076,0.6578346149,3.039306775,-1.8802705873,-0.0087792794,-0.3196090657,0.0624850096,-0.8771263056,-1.0536625929,-0.0943555389,0.5638028647,1.0061591358,-0.7732920776,-0.1753351925,0.0574930275,-1.3544415217,0.5980291992,-0.7793424989,-0.4268190706,3.438726085,0.2616605711,2.5937068165,-0.4564117136,-0.8216461109,1.4462931705,0.9562475519,0.9768551428,-0.2305688039,-1.5882167337,-1.0624662475,0.1735026833,-0.4289192817,-0.7973747268,0.0102812618,-0.1359286236,-1.2379996202,-0.4543501247,0.2107234344,0.4194503701,-0.3836956978,-0.0931024224,-2.7135912287,0.2344457114,-0.9980842313,-0.0318324686,0.1870118934,0.8366119131,0.683301633,-3.6646847918,1.2034387039,0.8005103257,1.7906291747,-1.2297837557,-0.6970630498,-1.8071933255,-0.8276621712,1.2243694512,1.129423675,0.6836657836,0.1378896115,-0.1896843186,-1.2930193521,3.3561849702,0.2140226189,1.258782129,-1.5050342205,0.8195950452,0.9829296942,0.6816755955,-0.3313528618,-1.0998237599,-2.1211671867,1.9675264498,-0.0605365881,-1.7481237366,-0.9974574452,0.640154224,0.0578402326,0.2195908052,-1.2897861853,-1.2386131605,-0.3686306959,-1.3759243206,1.3734987306,0.2474645599,0.3050329469,2.002910917,0.3148155825,0.1886230196,0.4683345464,-0.7453567387,-0.6274033501,1.4532682637,2.3733293203,-0.2381322252,1.3659998421,-0.1387903997,-2.3713605887,-2.0533032354,-0.2534153712,-0.4981304097,-0.5459431138,0.4837598198,1.8877235911,0.2522960355,2.2060808237,-1.6536747428,0.7045572209,-1.9720412183,-0.0266637815,0.1163068409,-0.9042405373,0.9042573827,-1.9950728909,0.1682263026,-0.4572785849,0.5526206298,-0.4687703198,-1.1292077416,-1.475342856,-1.0069676664,1.7200038468,-2.1495458014,-1.0235311792,0.5270470346,-0.0483678225,-0.4790135853,-3.4193121575,0.5008367554,-0.0481432908,-1.8727922569,-1.6125614476,-0.6777860205,2.4920361374,1.4803151589,-0.5701189384,-0.3328708483,0.81124219,-0.3239527766,-0.5890784849,-0.3867104818,0.5346244134,1.2294799956,-1.4902104531,-1.6671270691,0.7695704057,-0.8149724255,-1.2088401075,-0.0428340181,1.5093352114,-0.0007754133,0.792767031,-0.3721550934,-0.8047327397,-2.0818563118,-3.5745789096,-0.3436943481,-1.1840065025,-0.6353033884,0.9703874353,-0.3067099966,2.1028438274,-0.6424562546,0.7425356608,-1.367644616,-0.584801507,-0.7009778839,0.539426613,0.717365314,-0.9320343688,-0.2503103676,-0.9112000647,2.120798226,-1.2893178058,-1.5173803168,0.3983335249,1.9636973419,0.6623334496,-0.0320842314,0.7462298814,-1.7988599824,-0.0177925791,0.1449902671,-0.7246050967,-2.7948062645,-0.3907411539,-0.6565180725,-0.8060496962,-1.2533116549,1.5039168638,-0.5133645017,-1.3405799994,-2.472147672,-0.5595473638,-0.7179590988,-1.4775090654,-0.900583584,0.7533867971,2.5225543681,1.8679232622,-0.9017654692,-0.0242791217,-0.3935939209,0.326498851,0.6312639899,-0.9539122402,-1.4557164912,-0.1271117294,2.7178037355,-1.2118561485,-0.9529861015,0.2513821181,0.7123387215,1.7014668696,-0.7566348329,-2.4479871849,-0.9151247444,-0.4002136993,-1.1638292965,0.4669554497,1.0996891638,-0.0705337179,0.762600298,-0.4922769451,0.1657956684,-1.1970926664,-0.9275119337,-0.9858313513,0.1805455341,-0.750027614,-1.3726150773,0.6910143844,0.9293332953,0.7785293771,1.2943847858,-1.1207644011,1.8918562658,-0.8219070749,-1.8355885358,-1.6117833796,0.019799385,-0.5012338577,-0.8644858872,-1.9925997844,0.6572409578,-0.6028506373,-2.2778169887,-0.7571402279,-0.3008397157,0.2380954509,2.4274500753,-0.2941600647,-0.650215804,-1.1914315159,0.856835978,-0.4772196397,-0.4480220528,-0.5440470206,-0.519875664,-1.0388688584,0.5606288523,0.6148228617,-0.9079098688,0.3764792045,0.5975414255,-0.2781396728,1.6502069294,-0.8511680701,-1.1358885068,-1.4353917676,-0.5169172052,-2.9545734511,1.2711610922,0.3764788579,-0.3992700726,-1.1761453274,-0.9813802241,-0.5276322547,1.2122519613,0.6008812821,0.3997484236,2.6303841311,2.208246502,-2.1761122188,-0.2602097821,-0.38440306,-0.887451109,-2.2849867595,-1.4011610877,-2.3139383983,-0.6167788086,0.1899297694,0.5984699933,-0.6008741257,0.3891213143,-1.8073078436,0.7598272764,0.619092859,-0.8493623275,-0.8300271029,-0.8716807275,0.5908492709,0.9543267175,1.1513555387,0.4083377946,-0.5549207601,-2.5496051823,-2.7060163893,-0.5091291434,-2.1189610492,-3.1836468361,1.1272753,0.6140413335,-0.2796960657,-2.1693607368,0.6804450953,0.6821087456,1.0019530161,-0.6616471352,0.096165466,-1.8051846697,-0.1847893213,0.5949815849,-0.2373889424,-0.2393888973,1.2442363438,-2.0067845118,0.4552340678,0.0047242563,0.4759926703,-0.024851978,-1.3704304627,0.5635336164,-0.1594944326,-0.2084022238,-0.2443292776,0.9031532494,-1.3002121388,0.6363135919,-0.5317558732,-0.5241006054,0.667966255,-2.282468855,-0.2046759436,1.4211564083,0.0392320195,0.1845254442,-0.84239646,0.5589105768,1.8879665979,1.2128762329,-0.7295023268,-2.0598404329,-1.2279065905,0.6111905606,0.8571812792,-0.5580033453,-0.3529150939,0.0369249575,0.2546094588,-0.5631258588,-0.2901275319,2.7675910517,-0.3015050559,-2.4401907383,0.4521270417,-0.1093453714,-0.7612553472,-1.148024036,1.7530871339,-3.4452762967,-0.339055248,-1.8043582219,-0.4210151618,-0.3487382167,1.6854936903,1.9755517228,-1.4818026198,0.9439621597,-0.6575724773,1.457773937,1.1735743149,1.0281345276,2.2064057895,-0.7181053287,0.7076009628,-0.740503254,0.3002206815,1.9246907545,-1.4379193793,-1.1985555918,0.0802479919,0.8791290944,0.6466402878,1.5680317801,0.4203883148,1.9109578733,1.7366565437,1.3214718534,0.6050459519,-0.3272272686,-2.7748352531,1.1789853074,1.4661093419,-0.0584174376,0.9712592672,-0.970967208,0.9484022164,-0.48194725,-1.5833048737,-1.8966277904,0.5446590838,0.4178948624,0.4914844976,-0.1756977085,-1.8201116323,-0.6491496265,-0.2867091975,-0.0380125851,0.3234012251,-0.7908078105,1.1585325425,0.1263894392,-1.074771613,-0.2771165203,0.0092728109,0.5113068038,-1.8833282271,0.1028637816,0.5229839624,-1.2972494894,1.3845428271,1.7180388276,-0.6446714453,-2.1762931453,-0.5081962492,1.1120076185,1.695988192,0.4603524609,-0.27713467,-0.1600641903,-1.3314431967,0.1299818474,-0.6938758853,-0.5299219306,-1.0671009763,0.6101876117,0.978903745,1.5670834368,1.185439467,-1.7301591283,0.2851656469,1.3117708879,-1.2648878303,-1.2479423846,-0.1880171009,-1.590685245,0.219502442,0.0261361368,-1.6453404285,-0.754305168,0.4289092574,-0.0482507424,0.9616322942,-0.5926449165,0.9206680807,1.1389686294,-1.3980874994,2.5646221022,-0.1912058335,-2.5393616206,-0.1617330617,-0.7104775575,-0.3284487986,-0.0814417482,-3.4174089782,1.3996302529,1.1187447945,0.2257316276,-0.6667231052,0.2183967891,2.375212851,-1.1472190858,-0.8497311796,0.6142323828,-0.2513071454,0.2087093284,-0.4554770309,2.7120929955,2.355845588,-1.1411625129,0.8825626963,-0.3827355154,0.0224725863,0.4793557044,-1.3037074367,0.3513928675,1.3698920446,1.3020606114,-0.48476377,-2.1003096555,0.0614431603,0.905836855,0.6268238118,0.6629190228,-1.197135165,1.8458728339,1.954417876,0.0547959151,-0.0638199568,-0.2189538111,-1.4428604193,-2.1225399448,1.1054066165,1.7785994008,0.678045147,-0.3955588215,-0.4268419695,1.4024108599,-1.990060261,-0.722276101,0.8128706289,-1.058429123,-3.2039271935,-1.6974756684,-0.3816068773,0.3942786214,-1.0524998986,-1.0941034672,-1.4579473934,0.4061313796,0.3737514811,-1.0759221803,-0.3602878274,0.2600232844,-0.5325616174,2.004866326,-0.2566138199,-2.0679651265,-0.0999797149,0.5617958744,0.610832871,0.8065259626,0.1077738231,-0.4475535179,-1.2783955448,-2.1974755806,-0.8661079172,0.1410916118,-1.2270410323,1.3125547669,0.5274798939,-2.3377349712,-0.0676756193,1.7234249829,-1.0558217352,0.5772734699,1.5635474597,2.6934707284,0.5466656346,-2.7103572942,-1.6150727698,1.4610635633,0.9204341698,-1.4135394025,-2.0074853259,-1.1090064892,-1.1502607589,0.0749436922,-1.1471874229,0.1053028927,0.5091069577,0.295841421,0.5224924049,0.3352838392,-1.2742631893,-3.3384300338,-0.8495619565,0.4697298127,0.3559755384,-0.115117987,-1.4156298498,-0.9062607436,-1.0491828744,-0.1614136727,1.8730792275,-0.871841841,1.5251821009,-0.0504350336,0.3173524414,-1.8575296175,-1.5930378908,-0.1293273086,-0.4292517435,-1.1750513635,0.2759257879,2.2277737388,-0.9525578687,0.9292075963,1.2705523818,1.5228877526,-0.6446566229,-0.0700007809,-0.3578386644,-0.4484209626,-0.0599929271,0.0291121054,1.0689233074,1.8111411697,-0.8137440056,-2.7086488571,1.7871858589,-0.7394988508,-0.801234093,0.8991655386,0.2652045397,-0.4077243925,-1.221694131,1.1038115421,0.7815703841,0.0830944955,-0.3571712656,-0.696006171,0.2809642168,-1.0196571508,-0.5836737482,-1.4801883719,1.1909975782,-1.2406149658,0.3296252217,0.3519144787,0.3237492124,2.0320662666,-0.9536263576,1.6675716755,0.3825050228,0.9825458613,-1.7798502132,-1.2022408462,-0.2505488456,-1.709760623,1.2776663477,-0.6275070456,0.1284471139,-0.2780738793,-2.1699176582,-1.4348756247,-0.3536735641,-1.9015218096,-1.4587898602,0.5401894783,-1.4719860578,-1.6597170886,-0.4922089125,0.7219726452,-0.2676777151,-0.9527863046,-0.1883939259,2.1726894394,0.5066428485,-0.1891348277,-2.9683928138,-1.0340324885,-0.4622923274,-0.2784812635,-0.851347565,0.1898665928,-1.4675278164,0.1832492452,-0.0429597713,1.1436702344,0.5588438289,0.6676306613,-0.2885299441,0.6718858024,-0.0394374401,1.1904726018,-0.2123280574,-0.3658932846,0.0387188932,-1.20085208,-0.567802725,-1.2634594059,-0.3934203617,-0.3052316324,0.8493419579,1.0862574841,-0.506843939,-2.4013721922,-0.3131428372,-0.2549162998,-1.2013894847,-1.7577694951,0.9256690892,-1.2857584857,-2.2301111491,-0.6439091954,0.0221626933,0.289885518,-0.3004476595,3.7758083658,-0.6631162418,-0.0712204397,1.0968091705,-1.6023243254,0.4961477086,1.260731642,-1.9619314423,-0.1523944414,2.9199061165,-1.3441846922,0.7325415111,-0.9690489434,1.5052587346,-2.050579811,-0.7381687006,-2.0557288227,-1.7670324038,-0.4358903548,-1.2479608845,-0.5462171165,-0.2112837619,1.2917814289,1.381566096,-0.14073979,0.7478219434,1.0481092576,-0.7054855469,-0.9861280389,0.7500583498,-0.046922268,0.8964290341,-1.5685629337,-0.1159118037,0.3720838134,-0.7615578,-0.460114967,1.0967396123,1.9542591393,0.59365295,0.7682791401,1.0687498574,0.7714188515,0.3390243737,-0.1575460937,-0.7640324847,-0.1148326074,-0.3414028531,-1.0377736652,1.7934053829,0.4715941165,-0.9925931498,0.7513217551,-1.4066906542,0.8188615809,0.5278044657,0.8792628744,-1.9250948145,0.9123384437,0.5538144229,1.1509053542,1.2668054557,1.5062336445,-2.3273063254,1.4700235712,-0.3374675114,-0.8327132835,1.1887508094,0.2408351882,-0.714361553,-0.5321393397,0.7487411282,-0.8199853955,0.2396053654,-1.3739373597,-1.1038286786,-1.4840171367,-1.0735106675,0.4512497524,1.0657953184,0.6457538835,0.7233693999,0.1799972805,-0.6933766677,0.9552325354,-1.154461949,-0.213835018,1.1317063758,0.6532420891,-0.3470054184,0.8429791561,-1.1514946282,-0.8775905411,-1.3375960664,-0.5683096894,0.585656395,2.0555791448,-0.2568837971,-1.5068458578,0.4008450791,-1.3083551391,3.16768675,-0.9477971796,-1.6050871413,-0.559626269,-1.9385953184,0.2987219054,1.3924130648,1.1348094359,-1.5969883028,-0.6636372907,1.8002432666,0.15421108,-0.5872540404,0.7039006922,-1.8281499904,1.5246939936,1.1456916478,3.3815624584,0.6551722803,0.5814527601,1.5256510448,-0.4196902569,-2.1203549094,-0.7592368913,0.4789583453,-0.5434054412,1.3046021604,2.1444442387,-0.6257531699,-1.1063153727,1.4581631862,0.9670645038,0.935826284,-1.6266377911,-1.6276251934,0.7435199016,0.20936543,-0.3476935076,-1.1462192123,0.1627083622,-1.6932028855,-0.1826737247,-1.0693679272,2.6808331183,-1.2692500758,0.5500724315,1.016692405,1.8430265928,-0.1476148844,-1.4866006714,-0.8836991187,-1.0952003236,-0.4786192118,-2.587726285,-1.8447909377,-0.2526565146,0.8778253998,-1.4644430765,2.3937822582,-2.8872923433,0.4078575119,2.2901896762,1.0880911394,-0.8314237875,0.0023543025,2.6690372563,-0.1323761952,-2.0343767709,0.7436982486,-0.9981547278,-0.7632577665,-0.9534916909,0.9046697497,-1.0989430465,-0.1102495489,0.1838348025,1.1054937311,0.7643009586,-0.3688115599,0.1496653591,-0.4710792203,-0.0146419323,-0.1801235344,0.2602063505,1.0933802089,-0.4513196506,0.8689049041,-0.6943315772,-0.7019660226,-0.6074588874,0.6866367057,-0.0705871895,-1.1456750012,0.6174144575,1.4876820276,-0.1780900848,1.4444593253,-0.3820132715,2.0215904964,0.9271124901,1.4943766701,-0.4850590457,-0.7871480825,0.2003805887,-0.078805963,-1.0844053784,-0.9393934597,-0.8287151861,1.2357168605,-0.384946529,-0.2602803731,0.1638271192,1.5211117829,-0.1642520907,2.3698144465,-1.97168364,1.0840579195,-1.2325529303,1.276339382,0.262970468,-0.1838020446,1.0703670272,0.5011364395,0.1341400308,0.1267741763,-0.4170711607,-1.1875257245,-1.1503119844,0.0610533686,0.4668007235,-0.2741674881,-0.1892330978,2.5600549853,1.5424946613,0.1050126555,-0.4228074821,-1.0105372267,-0.6225924261,-0.8588757865,0.2048996421,-2.3117446791,0.9927345609,-0.9151044818,-0.7730229185,-0.3413966255,1.4905265261,-0.3545728178,-0.7931041202,0.7731198182,1.2783728967,0.7567633225,3.4407942275,-1.1676249189,0.7511867314,-1.2814468548,1.7044710613,2.3248273112,2.5237834458,-0.1433390021,-1.2905860451,-1.0056620766,-0.4559817971,-1.0544375806,0.1516125839,0.133740501,2.4253107699,-0.6744254155,-0.093527477,-1.4625456089,-1.1287319011,-0.9134681911,-0.8284524857,-0.1376313467,-0.1512586252,0.3410678055,0.0216182763,-0.6215107477,0.5878116027,-1.6143428671,1.9715115015,0.3642875961,-1.3045029154,2.0075159343,-1.0407312272,1.1942648394,0.4886569022,0.1448630401,0.6665575519,-1.6329568369,-1.9253173399,0.4515224549,-0.565979424,-0.3687652776,-1.5101861298,1.4106429187,-0.5039674668,0.8664471903,0.1210878131,2.4557077872,0.9607581363,1.024803007,-0.960024762,-1.472555131,-0.5733160767,-1.5922998218,0.6564093937,-0.2481125782,1.5686963707,0.7575690233,0.7013963466,1.4420044721,0.2680666471,0.1718386694,-0.9324652977,1.2405622604,0.1033962464,-0.8603323172,0.8620040811,-1.5559329886,-0.8659449153,1.0192925878,1.7923242382,0.767014939,0.4542662383,1.0949390863,-0.6649481603,1.204249232,1.5011781029,-0.4864436279,0.1225102201,-0.3961699089,1.1016067216,1.3879076753,-1.1363680765,-0.5457559471,-0.8846263035,1.9444208834,1.0772766912,-0.0856514483,-0.4149290108,-0.8065838084,0.0836847004,-2.0048953018,-1.0469490209,0.8637454041,-1.014478025,1.6131855676,-1.1189514912,-1.3181926097,-0.4259612033,-0.1080918328,-0.1669902659,-0.2866235758,1.151191539,1.4893233829,1.1266592325,-0.5264271803,-1.376274739,-0.7282525508,-1.6242263909,-0.9880904621,-0.174416399,0.6506136254,-1.1416576087,-1.2716433177,-1.093382457,-1.4067584633,-1.3369248459,1.7348964726,0.5888854477,-1.1235318956,-0.3968714968,1.3172456458,0.5818052957,0.7476070666,1.1560461534,-0.0108693835,-0.121316609,0.6876644787,0.1185711194,-1.8898697496,-1.5790046924,0.0661717911,0.1267679347,-0.661329591,-0.0207123271,-0.0988283122,2.4006784552,1.169330423,0.2569478415,0.5906723596,0.6903510916,0.8949417204,0.338362242,0.5751407535,-2.6121852397,-1.0828049042,-1.3347436202,3.2560360592,-1.8456508277,2.1938025539,0.7662421848,2.1102753021,-1.3911035562,0.1410598216,-0.3587309464,-1.5643464988,-1.6332600193,1.1726631889,1.419725271,-0.7799100661,-0.3068036642,0.7320753653,0.7240637103,-1.1554657756,-1.0478628561,-0.7174873779,-0.5276247928,0.6562686775,0.2210998068,1.8209330796,-1.3974056559,0.1471757433,-0.3381399064,3.1361488929,1.2300918843,-0.9486443111,-0.7146568615,-0.1590113311,0.948134906,-2.266252264,0.5524170779,1.2893534659,-0.8846906046,-0.2256110207,-0.5574736243,-1.1920847781,0.0671804355,1.4426887947,-2.0897346828,-0.2721972424,0.3894873949,-0.2003225633,-0.1968692536,0.9870114798,1.6670165444,-1.0520267688,0.2229821981,1.0225850638,-1.2124969122,1.2612402727,-0.7280605035,-0.6943209822,-0.6035466843,1.2153465116,1.0222951881,-2.5106823607,-0.6965566236,0.7096283943,0.7079428368,0.6453696419,-0.6814477801,1.391175944,2.5552937052,-1.1760274334,0.3920055744,0.7104908966,1.6790642516,-1.195969048,-1.6953554158,0.6074818624,-1.0605985238,-0.8272943368,1.756333671,-0.4430951703,-1.4379150302,-0.8657221745,-0.3420997588,1.3656470019,1.0288446085,-0.427482486,0.6783716994,-0.8156841112
   -1.6410553651,-0.0202859431,-1.4806968503,1.1868516293,-0.1547919996,-0.4171470012,0.3740483433,0.9602905755,-0.9374346087,-0.6560400917,-0.0827329156,1.1743372262,0.7564246651,0.0730200357,2.3988478518,-0.0434880079,0.0962590719,2.5368936075,0.0243732461,-0.3884952915,1.0818054805,-1.1373303695,-1.1987633372,1.0689114435,-0.46539861,-0.4810307333,-1.0894199027,-1.3241441134,-1.3743806557,-0.8014949967,-0.2303811184,-0.3491618734,-2.869320463,1.2873783786,-1.8235222355,-0.3121509779,-0.3311930466,0.1668971693,0.2064962378,0.0341489171,0.7241884231,0.6319699417,3.5496387877,0.2824257637,-0.8845077935,0.4998061796,-0.2933593904,0.8250500953,0.8023134303,-1.7322898653,0.6875499037,-0.6635818832,1.3864090755,0.7597893878,1.5244349841,0.4226785838,0.2533290179,0.3311007083,0.5063161908,-0.7213452682,-1.6225837773,1.3003578243,0.6829778294,-0.1444763416,-0.3975227706,0.5229617462,-1.7111079699,-0.6559880718,1.2902110506,1.0648777107,-2.8948642978,-2.3879149355,0.9037854601,-1.6428450475,-1.1489787007,0.5102271369,0.7401118118,-1.8211490734,2.9420192192,1.512912833,0.8295429534,-0.5022118255,1.083297143,-0.6793854684,1.0753519234,-0.1791990246,-0.127294694,-0.710645917,0.6011427098,-1.390319178,-0.5722062383,-0.828730852,1.720804224,-0.2001831934,1.2393962236,-0.0325919794,0.993811599,1.1035388497,-1.0997344436,-0.0426599852,-0.2881061264,0.6619119066,0.2220875877,-0.2241628163,0.9834240138,-1.840512518,0.4393054279,-0.9231062886,-0.5598158646,0.3327193175,-0.1125234037,0.6448371238,-0.2722700446,-0.8581209372,-0.0429190903,-0.9526134367,-0.5114298677,0.2704002783,-1.8203555226,-0.5438541699,-0.9498635664,0.6553267887,-2.808840097,0.7698534323,1.5380953568,1.1822799497,1.9533042005,0.4362339859,-1.4645471328,0.4348292256,-0.5899408838,0.217333721,0.6471942276,0.449722908,-0.8840568786,-1.9999487489,-0.3009690623,1.4883800979,-0.0049577353,-0.4143820121,1.199383378,-0.1920300716,-0.4210375976,-1.016273658,-1.032585065,-1.2763505644,0.7387643544,-1.0573507635,-0.8544620038,-1.3609055865,0.1205568678,1.0738076365,-0.5327157534,-0.2066143747,1.3793387097,-1.1253040279,-0.6792084195,0.1264114113,-0.0568644973,0.5806133424,0.3172932195,0.8654300301,0.9144774393,-0.5720591664,-2.6512759647,-0.3440238612,1.4177560064,-1.1824024758,-0.7625240826,0.6846568522,-0.7006022179,1.0507732663,-0.7717221919,1.007599737,0.6136353945,-0.3416686423,1.8104948125,1.1203687576,0.574928707,0.3848724754,0.4516775754,-0.1582871397,1.6877710236,-0.3952904925,-1.5234708586,0.0512020665,-1.686755476,0.1310015859,-0.8697415635,2.3647475367,-1.4135796284,1.1625847452,0.4401453963,-0.6040813217,-0.7990338218,-2.4489726166,-1.1633154459,0.0752051556,-0.5171220759,-0.2096400899,2.7030540336,-0.5235411235,-0.0105099071,-1.7659479825,1.4236778417,-0.9835107922,0.4790397056,-0.1619846209,1.3167394544,0.6086369042,-1.0250559238,1.3250861413,0.4717110377,-0.3064779318,-0.1725253262,-0.2168569159,0.3540982389,1.1148132407,-0.2576192091,-0.5842431306,-0.9072093037,-0.9614722181,-3.3245570331,0.5576801038,-2.2328812213,-2.3671543321,-1.656410992,1.5018789011,0.63607346,-0.0339199323,-0.417471292,1.4897840075,-0.6486180997,0.489679548,-0.5033342828,-0.7294504457,3.0308084191,0.3958088123,1.3877846434,-0.3328300293,-1.2008724868,0.477516479,0.4124277881,0.648338891,-0.100001994,1.884440862,-2.1989217944,-1.0308526524,0.8671475301,-0.2606375492,-0.7542610235,0.398144978,-0.2102585633,-0.6455814478,-0.6540651231,-1.1543249001,1.0569774109,-0.1184871564,-2.4744170621,-0.0863623687,-1.3640586165,1.0396765049,-0.8727492425,-1.1513901387,1.4866841066,-0.7671859092,-1.1510182456,-1.3793180785,-1.6725482719,1.4912950957,-0.0938881656,1.4206136188,0.4375448042,0.8380063124,-0.8882112082,-0.0414510541,0.3991509691,0.1162648232,1.3626093481,-0.6144228181,-0.9743620853,-0.5301155064,-0.8849835439,0.0441427807,0.4906860076,2.5659648126,-0.3451336566,1.2400643983,0.4597419172,-0.993038678,0.7981687691,-0.8765530061,0.3288810934,1.7449823571,0.9152076042,1.1946145791,0.3222358585,0.9879891048,1.8574887106,0.2472207204,1.9224889815,-0.7312260623,-0.8657086619,1.1308698766,1.049602932,-1.0516515482,0.8858630662,0.8477118128,-0.5606030187,1.4014672553,0.1468395348,-1.1418861178,-0.3376358854,0.0573293518,1.1534562744,-1.2087444426,0.0856941192,-0.9412178696,-0.7524385562,-1.6581610101,0.9125055653,-1.6196687529,-0.0881343675,-0.3714180315,0.094744507,0.215455406,0.5908835748,-0.1897150721,0.3355697031,-0.5752409872,0.3747551989,3.9866301427,0.066630926,-0.0209586801,-0.1324343149,1.5449252773,-0.8057490085,-0.0303409093,0.43346662,-0.3885412434,-0.4809270815,0.7092195795,-1.9630665872,0.3986029602,-0.2695982606,-0.6498246641,-0.6652519177,-0.9458745024,-0.1977178239,1.0392335484,-1.3272134655,-1.6920450643,0.1429090908,0.0182367018,-0.4058327262,1.4523510809,1.7242380084,-1.9542550185,-0.5507852277,-1.0480679776,0.9250438604,-0.0011096849,2.587982672,0.5166002528,1.5866497084,0.2304680391,-1.2875647202,-0.9049462646,1.8168168143,-0.8220805185,1.2191078538,1.1843842066,-1.8369048388,0.4519372052,-1.166989489,-0.846169546,0.1725682204,-0.7514399498,0.9027260583,-0.2808230675,1.0345442197,-0.337186145,-0.1980104657,-2.1627973881,1.5056467558,-1.1118212089,0.5269846039,1.7416600627,0.475865638,-0.0306361631,0.0038576808,-0.6725174901,-1.3301584384,-0.6787769565,-0.6041094406,0.9493462214,-0.2084701733,-0.4488176742,1.6361439944,1.315105116,1.1816268139,0.8907862585,-1.1274937498,-1.7039812823,-1.0140311936,-0.1289314912,0.2833620553,1.0523120982,-1.2646196198,-0.335262536,-0.0224373586,-1.7642313067,-0.8403838006,-0.0376623354,0.669396585,-2.4517834626,0.2791370723,0.1547142611,1.4243556842,0.7675399876,-0.6340578895,0.2848378775,0.4718890451,-1.4837475646,-0.2496683503,2.0600390889,-1.5119433711,-0.5409526997,-0.8404702365,-0.9702102295,-0.321828392,0.2141859003,-0.2814190408,0.7625635419,1.6268360164,0.2135062836,0.0236190386,-1.0522246354,-0.1093895852,1.3144769627,2.1473957772,-1.0238704263,-0.1786513009,-0.9505027022,0.829376411,-0.085397251,-0.0813172353,0.2725166018,-0.6834964934,-0.8064297564,0.2477488728,-2.46202061,-0.5671689475,-1.4906215517,-1.0387870846,0.8373581568,1.48711469,-1.5106829827,0.9356911149,-2.706282734,1.7057164381,0.8254227276,-0.1147123621,0.4840824252,-0.1530659532,-0.771417726,-0.5962460238,0.1430959437,-0.9052357524,-0.9657909602,0.2469408958,0.1927654826,0.6807288696,-0.5151776585,-0.1332219185,-0.5191534417,1.5606373097,0.397026143,0.8450417714,2.1698418018,1.5404853399,0.7500842212,0.738792682,0.9273863622,0.0351154477,-1.0578628996,0.868208022,0.9234778922,2.1722605995,-1.1128224557,0.8072164019,-0.3879693003,-0.7748862595,1.498960251,0.07058069,-1.5189038753,0.1358384341,-0.4383202839,0.0486618812,-0.0853954764,1.4576046205,-0.3438983334,1.1395377132,-0.0036556545,-0.3202328439,-1.0328465485,2.5639794024,-0.5544357519,-1.1264318027,1.3989021877,-0.0765540817,0.2378574283,1.944262197,1.004454828,1.7049177334,0.0940355408,0.8768432481,0.076989829,-1.3753177011,-0.9062848281,-0.2466472888,0.1304731002,-1.101513645,-0.3046515121,-0.4006437712,0.9797906761,1.3312991704,-1.1181299508,1.3075308043,-0.0895426578,0.2171252686,-0.1336912511,0.3497071267,-1.3925444282,-0.6139870711,-0.2015451358,0.9845389131,-0.8025668048,-1.3703055978,-0.378848884,-0.0103568265,-0.3281150074,0.5693747191,1.0486281133,-0.1707406583,1.8034996306,-1.8088147468,3.2185501046,-1.0284078478,2.494073408,-0.8168207399,1.7354829636,1.3779829204,0.7329083612,-1.2344063437,-1.5053109148,2.1608341992,-1.2934301407,0.7285694031,0.0378326895,-0.3066315006,-1.0548041497,-0.4256475518,-0.3251243351,1.7584348504,0.1111901596,-0.070228062,0.5497999001,1.1055726313,-0.9697353978,0.8033910695,-1.0684771223,1.2761552532,-1.5704552762,-0.516411941,1.237623752,-1.4775014215,-0.0529819245,-0.1047179884,-1.0955468736,0.1177474036,0.6650759066,-0.9341961727,-0.8529502343,-1.3788360325,-0.9707564612,1.1478637411,-0.4164582065,0.8949125853,-0.6630640499,0.2189053538,0.7785295009,0.2906895995,-0.107637466,1.2536408752,-0.8992169195,0.2891725906,-0.3133135925,-0.5688888588,-1.7956332975,1.4147901237,1.4192914528,-2.3998631653,1.810811046,0.210069571,0.4646194146,-0.1234938765,-0.0056176771,-0.8743184648,-0.7534523655,0.1649655115,0.5515030418,0.8723631456,-1.1027889612,1.2969588008,1.0228888228,2.6548425103,1.3182713007,-0.6333447715,-1.0340107876,0.9340235484,-1.145099464,1.0155433124,2.4324431949,0.1030001489,0.8921254462,-0.4651336705,-2.5715881842,1.0813643292,1.3047923005,-0.5290266691,1.470700275,-0.2168242514,-0.7873325338,-0.2882331263,-0.4713207935,1.5283723665,-0.45503912,1.1587256605,-0.0575595528,-0.7869491737,-1.6896412862,-1.6206650685,-1.8523580176,-0.0675626086,1.7815592189,-1.1793573118,0.5327606105,-0.7472450338,0.582537533,-0.7682623798,-0.0590611311,0.1963963809,1.1731030494,1.1083441608,-1.1624052164,-0.7936913701,-0.6693550902,-0.2377724413,1.9916354909,-2.6568150948,3.3827604238,2.2796166768,1.8931564255,-0.853584971,-0.2014184044,0.1645989924,0.623442544,-1.4470291467,-0.1749966955,0.5710856255,1.5243822317,2.6002918867,-0.0467611271,0.4772379062,0.9306208729,-0.202399465,0.2887981299,-2.5222904811,0.6041351047,-0.3594081994,1.8107874755,0.3991503666,-0.3289582479,0.7002227881,-0.8387689465,-0.2176621219,0.8301046612,1.1587104304,0.494554394,0.7839688886,0.6044917201,-0.7144709753,0.9844277143,2.318301092,-1.0706759248,-0.7664114476,0.7284758941,-0.7722902176,0.1304356282,1.9634059976,2.4589267754,2.8021450785,0.85759323,0.4261988753,1.449700784,-2.579686125,-2.28209554,-1.1231028276,0.0563659471,-0.196207566,0.8680387141,1.2049189173,0.2425903398,0.3029285149,-0.3083971224,-0.1311296734,1.3043414548,0.5726157429,0.7125747013,-0.0365462889,-1.3395886289,-1.9634275488,2.0495389189,0.2464091839,-1.5069475801,0.2966136529,-0.0769292101,-1.4461651924,0.0026844204,2.1288384236,-0.4775244029,3.2355283182,0.0785158632,-0.2841645639,-1.4737462383,-0.1296962003,-0.2717780201,0.074212586,1.8797931688,0.764426332,-1.5451500676,-0.4071955105,-0.1503198532,-1.5263820277,-0.5517147135,-1.9320711714,-2.5585833525,-0.0499742676,0.205406498,-1.0377395296,-2.0281117012,0.1490119159,1.5426937865,0.9600428483,-2.0842144234,1.2365306262,0.5895410211,-0.5595849201,-0.7147503214,-3.342664963,1.1068121851,3.3043088177,-0.8072647865,-0.3310679109,0.7620878796,0.7624444307,2.4349798545,0.8446568968,1.1989401759,-2.7123195005,1.5682287422,1.7892582374,0.543546002,0.0414463419,0.5964741265,-1.8221118568,-0.9998175745,0.981787366,0.733942699,0.2141704802,-0.4601270276,0.1659489471,-0.2595881546,-0.7755940956,-1.5272014164,0.038316491,0.3951571533,-0.1524911229,0.0435423705,-3.1653932407,1.6837414008,-0.1870362171,-0.4671153815,-0.8214072794,-0.6808566531,0.1588986032,0.499727811,-0.8233277085,0.1588864777,-0.3176693076,-0.9875115432,0.1538114623,1.1285051913,-1.5644355419,0.6312725261,-0.2663812894,1.6826786643,-0.5121346643,-0.1361996245,-0.0509122008,0.3061094207,2.8920244931,-0.6757136407,-1.1526186671,-1.8047711694,0.2716912491,-0.0001340032,-0.2684185483,0.3034565313,0.017941032,0.1389812229,-0.4002984259,-0.0953195978,-1.2937001634,-0.8901289322,-0.1224031584,-0.2105398044,-2.5676884911,1.1404935633,-1.6341519182,1.2313883726,0.2906387973,0.8241626912,-0.037754378,-1.2370678647,0.3011842612,0.9755887852,1.130019423,-0.5902800398,0.0841242288,-0.0300279224,0.4992309981,3.1420362511,-2.6126738646,1.1898771681,0.0606115069,1.0009231943,-0.8894154243,-0.0308044814,-0.1393462753,0.9129456425,-0.1510019476,-0.7788287648,-0.5222616403,-1.1605328683,-0.0754660917,-0.6285868396,-0.741687525,1.5252440113,-0.8565846272,1.7821181173,-1.6719437375,-1.2495253209,0.5266564451,-0.8897011131,0.6184603916,-0.4532939446,1.7663305299,1.0754354703,-1.0348749791,0.8824904652,1.1312723293,0.5710215442,1.7045379708,-0.8322934638,0.5153605272,-0.4674883271,-0.3934196403,1.2422844445,0.9887772289,-1.4519260291,-0.0104329072,-1.5827756831,-0.3850905878,0.1616570153,0.8696668517,-0.7139478813,-1.4944401049,-2.0283980576,2.1185960714,-0.4058064584,0.3958868731,0.1326855742,0.0972372517,-0.0392636376,0.8077102877,3.5827645382,-0.3412003655,-0.766017633,-0.0630878309,-1.3846938172,0.3287358035,-0.2374122154,-0.0052958435,1.3727845191,-0.2663614586,1.4131002073,0.5147995118,-1.4577072049,1.3449706769,-1.2800786597,-0.3717140425,-2.6809767919,-0.0658092234,-0.6328306488,0.6182560876,-1.1505433653,-0.194745145,0.6032950457,0.4909577471,-0.3192990453,-0.2093104654,1.9057798336,-0.7898900421,-0.7705429091,-0.9408083452,-0.3428708745,-0.0991751992,-2.6938423714,-0.0390774443,-0.8458819654,1.836995366,0.4871833662,-0.779848709,1.1257923165,-0.3649597783,-0.5869264932,-1.5144129553,1.1339791408,-1.8196341224,1.688133566,0.3701963484,0.2834298698,1.9030310832,-1.121279432,1.3952233957,-0.3157416228,0.8552342585,-0.5064509735,1.3529509022,1.4423380676,1.2044943165,0.9464017273,-0.3123926795,-0.1062770401,0.330468447,-1.4062221988,2.0020080029,-1.2647226357,1.2370884607,-3.1582160987,0.4179076553,-2.2752580525,-1.305295856,0.9767877653,-1.6981563464,-0.4504557874,-1.7696795089,-2.1721303275,1.0183208148,-0.5858674111,-0.1353794429,0.3689744195,-0.8793019279,-1.20644563,-1.3377330325,0.3282490319,0.007927682,-0.4445260252,-0.5072354226,-0.1749187687,0.2239845429,0.2343670713,0.4690085825,-1.2408726036,0.5497954639,2.1721885522,-1.5304997919,0.175888261,-0.9359629036,0.2656189395,-0.7062275719,0.6083270424,-0.1966383701,1.0777413741,-0.4971838269,-0.269690169,0.8621017,-0.4884930792,0.6483625167,0.9345920961,-0.0322702242,0.1539855478,-1.2851969772,0.7641566216,0.8602312138,-0.1045590631,0.0860956611,0.4697228221,-0.7789942548,2.0053441273,0.5503005441,1.4099593488,-1.4231187234,0.1031480233,-1.646841693,0.3630384603,-0.6278845596,-2.7178001641,1.8414395648,-0.7603046977,-0.6305883344,-0.9507503493,-0.3613750107,-0.4333777693,0.8127577393,-0.4294840633,1.2648245559,-0.4748919121,-0.4556088731,1.5489628064,-2.5608158497,0.3769683887,0.2942467699,0.0075399426,1.7380602282,0.9985442212,0.9341851969,-0.6021564621,0.7419350644,-0.1960842875,-1.1355835857,-0.178329483,0.8135176066,0.0932913583,-0.378877283,-0.3809835831,-2.2221725874,0.851156269,0.6099196607,0.4091729685,1.8913318759,1.7785507343,-0.1030645521,-0.9276168281,0.4143145536,-0.9601000246,-1.7701901164,0.527611863,-0.0244825924,2.2222327804,0.391544759,0.8049153763,-0.4117002108,-0.4815999041,0.2370811566,0.9415981535,0.3915385152,-0.7328098004,0.5765119965,-1.5978514111,-1.4225575647,-0.1772840098,-0.3943311524,-0.0541494949,-0.6842305813,-0.1856028023,1.5448744523,1.4916466168,-0.5828075758,-0.8708210275,0.1754112956,-0.0926391511,0.4107232669,-1.1689246364,-1.4142522775,1.0173237556,0.2409805113,0.6809192303,-0.1267603669,1.9892547163,0.1265119696,-2.9462442606,0.5359012472,0.4039876686,0.5419165867,0.212527666,1.6094290944,1.3601502986,0.094765524,-0.3186577075,1.8476003429,-2.5891136783,-0.602313055,1.0398997189,0.0808691837,0.0953454471,0.5565667408,-1.4189775912,1.4845492795,-0.9176093542,-0.5916625093,2.641419965,-0.6348706336,1.961065124,-1.5001888242,1.3537574858,0.7216766444,-0.3001857436,0.0592425033,-0.1177088379,-0.1180490729,1.2971127853,-0.1262702633,0.1240228864,-0.2778627452,0.5462050432,1.4142011453,-0.839306143,0.1702277132,1.3968025214,1.3669189517,1.1751609729,-1.5756538034,3.022793986,0.4083041474,-1.2269161387,-0.0146048524,0.8243034374,0.7552653064,-2.6233943648,-0.01789763,-1.3824420742,0.7536674198,-0.5746186167,-2.5695938554,-1.7006433658,0.7745521065,-0.7546705957,-1.8477887157,-0.0300598584,0.114957795,-0.8905034614,-2.8505232902,0.820045747,0.2061779048,3.1799149984,0.5779193002,-1.3853593521,0.1587416222,-0.2633917639,-1.1498368505,-0.2227918655,0.6429690231,-0.1252921384,-0.8641030422,1.2548977249,0.5619928283,1.3485039408,1.0481025274,-0.6790609895,0.6519180458,2.3361133527,-0.6284461052,0.7020367037,0.3796260033,-1.1808690185,0.7742924477,1.195274335,-1.4787130353,0.8908769067,0.4246045364,0.620969057,0.3192917535,0.5912674508,0.0558324068,-0.6941487991,1.1934009097,-0.9920628188,-0.5428521705,-0.617102373,0.3933752233,-0.2645067808,0.3277183309,-0.4969078802,3.761749917,0.9342407538,0.0558463275,-0.5709121684,-0.3995995241,-1.1853171556,0.3667407796,-1.4482138278,1.0494359272,0.6825292674,1.5973884567,-1.6953050672,-2.7563011515,0.3585271218,-0.1176879493,0.0934434936,-1.730252454,-1.1432701773,-0.4844018159,0.8944114447,-0.1608401351,-0.0450313439,1.6095066092,0.8440149507,1.3789256666,-0.9322313491,0.1060421934,2.2654691576,1.7778265158,-0.7842286913,-0.7888370714,-0.0356162645,-1.6306304526,0.8711012049,1.5686743383,0.0726941289,0.68718144,-2.3477563565,0.2665032575,0.8426654197,1.3466780689,0.2147020416,-1.0715101007,1.6562763034,0.1753574974,-0.1635019863,0.8957631771,-0.2595665079,1.659779387,-0.2291934814,-0.8441733153,0.456410611,-1.0913338688,0.092314111,-2.0038792429,0.5461114365,2.7985601792,-0.9929992298,-0.4472842466,-0.1741992896,1.9823068085,0.5069665185,0.3763777098,0.3588997632,1.1226326488,-2.0563453103,1.8306387023,0.3016277996,-0.4318880101,-0.3725610405,-1.1711312596,0.9696099179,-0.9672688581,0.1823650643,1.3125454912,0.4407051383,-0.1212672769,-1.1741946346,-1.1665792151,-0.228254929,0.8458317578,-0.0399033927,-1.1833200194,1.2631254128,2.3458237222,0.7080009553,-1.8214494466,-0.1952807521,1.8179700486,-0.7285312048,2.2134416708,0.2832246294,1.1704888001,-1.0647969279,0.1709783254,-1.1461797159,1.5075114435,2.823478707,-0.2600376044,0.4796641348,0.6657151787,-0.8582335767,2.2002506163,-1.6815211897,-0.2652061027,-0.7845540315,-0.4977597211,-0.1728446997,0.0160055859,-1.1503767618,1.6568790169,-0.0275949184,1.3749789346,-0.7159677269,0.243071361,1.7718261567,0.1024643805,-0.8868718995,-0.9343331301,-0.4748180145,-0.5818907158,1.4440961494,-1.6314439654,-1.0633663342,-0.0268931219,0.3526934528,0.623030776,0.2103335834,-0.8477481197,0.8376563174,-0.1873311071,-1.1535592117,0.3682683569,-1.143078823,1.4010881281,-0.6678182536,1.0656811465,0.7466918125,-1.6738253875,-0.1841290796,-1.6355248648,0.4220174579,-1.5366026123,0.5052431561,-1.759065044,0.228106466,1.5470193008,-2.3278973265,0.8392922873,-1.1975479811,0.6795148269,-0.2680124666,-1.851947755,-0.76858706,-0.5667668353,-2.4043191093,-0.9085020847,2.0219287916,1.2905375053,0.6457191409,0.6105963679,0.0027274135,0.9810568736,2.1741380352,3.3354393838,-0.9412697185,0.8302706058,1.3473424693,0.6325516119,2.2149310283,0.0882324823,-1.9181758843,2.2697834117,0.6292356037,1.2529124352,-1.3027562521,-0.2846076138,1.6686880259,0.9295755976,-1.724036748,-0.7755852881,0.1107386172,-0.2289458382,-0.5078377826,0.2175366181,-1.1019206475,0.7444024287,0.0570434176,0.48511281,1.3835495216,-0.3882371794,0.6067729967,1.1149639179,-0.6606340538,0.2840004779,-1.421461731,-0.8581970387,1.0496054755,0.5993691932,0.666253464,-0.2647698693,-0.3434844688,-1.9795133157,1.6963363983,0.7268997567,1.5523860897,3.801690424,-1.1942868157,0.3257680557,0.5476039738,0.3933000333,-3.0193562211,-0.9475409759,-0.8358639986,-0.4856919726,-0.7367496884,1.2100652359,-0.7235884303,-1.4734298686,-1.5880391637,-1.2677418665,0.0264001619,-0.9581157764,-0.3769058324,1.1148370075,1.4832331741,-0.3404108623,-2.1462548324,1.3152923984,-0.8788897989,-0.9387897031,1.2582107059,1.9760450087,-1.1984175491,0.9090798409,0.9395883656,0.722034832,-1.966393392,-0.5824459296,0.3718928855,1.6124295762,0.1679857786,-0.3843063557,-1.0213901388,-0.0456560197,0.3338236695,1.2590824588,-3.2000392887,0.5671216384,0.9679287075,1.1064215973,-0.1811920335,1.8877032783,-0.896976792,-2.2746504947,-1.9292054,-0.2965789075,-0.2149576638,-0.9624282451,0.2044085437,-2.0058872878,-0.9925952662,-0.5736669709,-0.4581080324,1.6565128782,1.6791950693,-0.0470679228,-1.8702856173,-1.0220040699,0.5169992269,-1.1934196697,1.1236558849,1.4469739546,-0.4794154928,1.5588216718,-0.9421415072,2.1881168943,1.1736074889,-0.0124205316,-1.4129597805,-0.0695760581,1.633191425,-0.2404268544,-0.1001206318,1.7749278098,0.5353754755,0.57905543,-0.5612881008,2.3053873254,-1.2428476421,-1.3485990254,-0.1996131884,-0.7637530749,0.6226685295,1.1781295511,1.7037480828,-1.6014148124,1.3062603725,-1.0671802578,-1.5103306968,0.3266573443,-1.0923331939,2.2507267059,-0.1620018243,0.1429961337,-0.4590868848,-0.0939150857,1.1115465912,0.5107282998,0.1628465977,-0.987190604,0.7836942586,-0.7027059245,-1.8080605214,0.8635848796,-0.0258800194,0.1813590429,-0.1318203169,1.7498416829,1.8993576409,0.7687359618,0.6520860014,1.0158222659,-0.2074794234,-0.3315869083,-2.2485745474,-1.7150192684,0.5865109716,0.5272175718,-0.2606832638,1.2646979943,-0.5528688497,1.1129621447,-1.2805389885,1.5353629999,-1.9000453291,0.1522323194,1.5712884696,1.2087728332,0.6601199651,-0.3765765065,1.2877535265,0.4884635675,-0.5787566742,-0.9252610275,1.5993572097,-0.0892363504,1.209841208,1.7880688142,-0.0906776143,-0.3291363948,-0.741679812,-1.3923326042,0.4109861849,-0.0670521882,2.0257431896,0.5871673781,0.1870360854,-2.643011935,1.9364382393,-0.2865254607,-0.5593510084,1.9968607351,-1.629909891,-0.0632730901,0.1852425523,-0.7507649077,1.6876201352,-0.0574774808,-0.0859321992,-0.7694229395,-0.4573313344,0.6930749192,0.3573305173,0.5440573924,-0.3958715305,0.4342967256,-0.149961037,-0.4562594332,-0.1051198925,0.2639703054,-0.4513736641,0.0989890118,1.9679067119,-0.2420549342,-0.2412342769,-0.0249108747,-0.7081650007,-0.0243845121,-3.0233165925,-0.4385208975,0.8010223689,-0.4031603148,1.2770770934,-0.4458703872,-1.0693288631,1.0522219128,-1.1222854884,-0.3864693982,1.8957631316,-1.4939404477,0.1766338265,-0.3665498326,-0.5603358934,-1.0584376141,0.5308037327,0.0006862286,-1.6168723076,-0.3287487579,0.8294356872,-0.5965040805,0.2575937288,-1.0458470487,-0.1621209566,-2.0298667797,0.9594355008,1.131123842,-0.284709043,-0.7366515303,1.4251508964,1.5541272367,-1.1722706197,-2.7298034815,-1.4188860302,-1.2917667958,-0.0709784372,0.034629948,0.7148382689,-2.3446129956,-1.0225724235,-0.1376218759,-0.9038306963,-0.1387597093,1.7301306366,-0.7425719653,-2.7291215911,0.1320922974,0.2760515854,-0.0490759865,0.176089715,0.127035461,-0.6443895066,0.2470429505,-0.2941878774,1.6725274191,0.7757015086,-0.0178785479,0.1650177362,1.7068869147,-0.5076805992,0.2215976309,-1.6075811055,-0.3150851658,-2.649120782,-0.6500401984,-2.1022668046,0.5881902055,-0.374791453,-0.4083998418,-0.5974196662,-1.1770375302,-0.6121563741,0.378581598,0.002479403,-0.2889632551,-0.626887322,-1.1257183346,0.2211426473,0.678688739,-0.059991265,0.1243623839,0.5427110982,-2.0308364923,0.4905552429,1.2411442764,-0.7053892931,1.8978082374,-0.3732762827,-1.0169426697,1.4230690798,0.2101887763,-0.0493919849,-3.011380293,0.2621196665,-1.7851521513,1.0177493929,-0.3137194753,0.1944257219,-0.8298114188,-0.4590579679,-1.0928137991,-1.2280037266,0.1806196923,1.0537409265,-0.6784545845,0.8660147314,0.065256644,-0.5315315688,0.1057678922,0.2265993318,1.9071751256,-0.9823964315,0.2611478538,-0.5437375166,4.667087467,1.2383295117,-1.5713883631,1.3994820873,-1.25257373,1.3454892889,0.9819782901,-1.6179799856,-1.5425759229,0.2838736542,1.6654090874,-0.5710941951,-0.4734645747,0.5035398265,-0.6365917062,-1.3631126618,-0.9543197762,0.5954274819,-0.4083624624,2.054136708,-0.5610237657,-0.2974347123,0.2767846685,0.4461358018,0.8213273245,-2.0114423244,3.6579708391,-0.9104358543,0.2858559575,0.3214528811,2.1294988725,-0.8834334733,-0.9769779688,-0.1214818494,0.1836087735,-1.6910792492,-0.9839737272,-1.0725336549,-1.1453895568,1.6293185871,-1.1203403542,-0.253925895,-0.0940486413,0.162759958,0.0156543535,-0.2083583882,0.5154159538,-2.6217237749,0.3047887642,-0.2070320585,-0.7672467301,-1.6720788936,-0.8185157427,-2.1147536202,0.4482064965,0.4899444923,1.1762141459,1.8131886414,-1.9344709577,-0.9977403742,-0.5311625745,-0.825598123,-1.0647260615,1.1588436474,1.8158588999,-1.3737590162,-1.2966715373,1.8867512544,-0.4675737118,0.6835776589,1.5842495399,0.3754461654,-0.5680569436,-0.8601802114,-0.0638560924,-0.9453791232,1.6946715193,-0.8280080557,0.361794145,-0.075566697,-1.2414712336,0.7965147015,0.4699905789,2.8164260654,-0.7412662582,1.8024458833,0.1480270077,1.7225551388,-0.7762614959,0.3774727536,-1.091002177,-0.9811291555,2.7927851236,2.071668385,-0.6695917752,1.5849629599,0.6779586325,0.8093969977,0.6265358035,-0.2058134287,-0.8807018033,0.361272223,-0.9494198516,-0.6170124056,0.3360712873,-0.0366617911,0.1960231586,2.3535046692,1.1150460082,-0.1241400903,-1.3186480755,0.5958412544,0.5282449535,0.9707542191,-0.7006567725,-0.6087107462,1.0362824121,-0.7483735909,-0.7527149303,-0.5463232427,0.2012457054,0.8563048345,-1.4793604492,0.2660735179,1.4239620265,-0.330548869,1.5207333285,0.0747108054,-1.2617021712,-0.8220039797,0.3427354248,0.2006664152,0.8424798012,0.491328545,-0.1686208886,-0.3490330321,0.1861553196,-0.8922297592,0.1377032585,-0.2288373781,2.0991988677,-0.7348010845,0.6324451056,0.5692245154,0.5115960337,-1.6013992496,0.8673143525,0.3322304804,0.8571969228,-1.3825364886,0.3635373388,-1.4254978158,0.852022581,-1.0079121461,-0.0102646723,1.2833173456,-0.8419507336,0.2846799654,-1.2240674008,-2.2554288115,-0.4840699838,2.0643677622,0.009620474,-0.9564723062,-0.9758817928,-1.1310091282,1.1136387445,0.9834173635,0.0349428413,-1.0485233156,0.4753068123,1.849025539,-0.0258169305,2.5677658082,0.1843044113,0.0129944244,2.0429499509,0.0372013777,-0.6397018771,-0.5060928864,-1.503539621,1.0924834333,0.7075598138,-1.7086778548,-0.9139675496,-0.016295776,-1.0971988882,0.1100341918,-0.9671543787,1.3698148894,-0.6919779002,0.6324335762,0.5687492997,2.5678961137,0.068331465,1.4606303618,1.3938999532,1.003825819,0.1731984879,-0.0621547564,1.7141611478,1.6906975016,-0.7375397954,1.9792195742,1.0497002008,0.7541577762,-0.4604409449,-0.6121570112,0.5722139151,0.2556523137,-1.0641911105,-0.9365711532,-0.4228349184,-1.2385942602,0.2009679981,2.2723849908,-0.4293797273,0.765125166,-3.0224718787,-0.2234482209,1.031549894,0.6157943987,-0.028500062,1.5012503363,0.248799646,-0.9202369243,-0.5967590864,-0.5073355407,0.2084680095,0.5218602302,-2.1232845732,0.4704200124,0.2868415632,0.6799676493,0.9348880975,1.672253369,0.2207499177,0.5208477915,-0.6273275559,-0.1196396429,1.1653398527,-1.4279452751,-0.2264541823,-2.5049545652,2.2364729469,-0.2221181315,-0.4347320932,-2.5422404931,1.2505271706,-2.0693268408,-1.1932190863,-0.8680064414,0.1254776241,-0.5434242734,1.2937000706,2.1989277894,0.3445142758,1.0492708838,-0.2645257594,2.3644134834,-0.5615545324,0.3366034273,1.0733472844,-0.2082879591,-0.765225187,-1.7044929332,-1.6495678825,0.2349220678,0.2525804778,0.7464744179,1.1515451451,-1.5184373916,1.3856447566,1.8808962534,0.3238510368,-0.8991153385,0.4117633628,0.1313520094,0.3402983229,-0.4092792772,1.5754341659,-0.0843724829,0.1037283828,0.9215606439,-0.1733411279,3.0958454904,-0.1537091622,-0.5447332951,0.3090250331,0.5274774894,1.0865912462,0.4383611056,-0.3700410577,-0.5176894509,0.7624699631,-1.0495279685,0.8423795833,0.1289941854,1.4144273752,0.1334749692,0.8084425907,-0.9326398034,0.7071704404,-2.5982901962,-0.1772745508,1.292953017,0.7902259475,0.3759962492,-2.3780581369,-0.0374802224,-1.1410168717,1.5958757391,-0.6936144909,-2.2747357948,-0.0139116667,0.0602980902,0.8173636727,-1.8242507643,0.8376990639,-1.7434416533,0.6732705102,-0.5323049608,-0.129152225,-2.0967135161,0.1560484089,-1.4134065774,-0.3355229779,1.7755570367,-0.260660123,1.1083219198,-0.5573490098,1.4368061225,1.177694034,-0.7785432266,2.041185536,-1.9769351402,0.1000856263,-1.064075252,0.953032657,-0.8468982797,-1.0078354673,0.4038986928,-0.8526715287,-0.8470180257,-0.9471741428,0.7229332095,-2.4306790366,-1.4027970955
   1.023411254,2.5926378698,0.4798557316,0.9354649926,-1.5512779359,-0.3825389366,-0.6724960224,-0.6450918603,0.212967599,-1.9657712757,0.9958095389,-2.1444383349,0.0182568211,0.1939848555,0.0831313976,1.885510045,-0.424764735,-0.2491062254,-1.2293664754,-1.5172343631,-1.383931019,0.6097579099,0.7814151586,0.6758247096,0.3229710073,-1.5532808406,-1.4148813181,-0.7276532894,-0.5118137293,-2.1036232064,-0.6187135078,0.063295552,-0.2306870519,0.0125664418,1.5793611808,0.9858447454,0.6160585698,0.138674804,0.0779432119,-0.436545071,1.2379990056,1.627827317,1.0234669296,-0.9351621442,-0.1158317066,0.6486600434,-1.1216132904,0.1416130371,-2.1758235599,-0.8052186421,-1.8504340956,-0.1039592421,2.7543130321,-0.8567756555,2.5426217538,2.6755469029,-1.8482455327,-0.7085356237,1.2672346918,-0.0625899395,-0.1667703176,0.0494385985,-0.5086559425,-0.8618397941,-1.2441059043,-0.9392775714,-1.0063951341,0.1885401764,0.076272523,0.2774478455,0.5424055986,-0.7753705452,-0.0168846754,-0.491875815,-0.2348435351,-1.8904049367,0.8895245489,0.3813248185,2.5435013077,-0.6185432148,1.3372657438,1.5320972604,-1.9136736872,-0.0982085953,0.754259089,-0.4796390068,-1.5993101255,2.0886224426,-1.8636628182,0.3869737545,1.0794809601,0.1602065318,-1.4924077886,0.9760990992,-1.6816528339,-0.9565497506,-0.5366677079,0.2684768721,-0.5530607069,-0.8547532385,-1.1492930807,-0.311792743,0.1828056839,-0.4650339726,0.2570987758,0.6428094758,-0.7487636224,-0.8759983455,1.0515437276,0.2288846552,-2.0056941213,0.0019657367,0.6326459979,-1.5425784742,-0.4966502428,-0.472608852,0.1762166773,2.1008964281,0.2874898423,-0.9340688106,1.316111719,0.3693750631,-0.0665516996,1.2964805492,-1.3336367674,1.0741216943,-1.1539942699,-1.3765662624,0.0146846615,1.0178041417,-0.8473454361,-0.0478091707,1.2884579768,-0.6011110356,0.2780860626,-2.1774965858,-0.7129203906,-0.1242244448,-0.0659586872,-0.2449673981,-0.052005831,-1.5961021934,0.9006340354,0.1550597164,-2.5423817883,-1.9578237978,-0.7911756973,0.730026737,-1.6507497641,-0.7405378494,0.8608790087,-0.1922893855,-0.2591718702,-0.9900852518,-0.7790902907,2.3301267923,-0.529285303,-0.3927343496,1.377145979,-0.8687310564,0.9085291821,-0.4083438499,0.0787194443,-1.3236014042,-0.1165316314,-1.090797429,0.7818436133,0.2481326544,-0.2537698112,-1.6191952005,-1.4310237948,-2.3452936168,-0.019640565,2.1558448763,0.4176460137,-0.8149532698,-0.2022786717,1.8118827882,0.0692473867,-1.6708317483,0.9804144904,1.4143752622,-0.0978163882,2.1981968797,0.5758681716,-0.1620640462,-1.7560545776,-2.3396683605,-1.7022324156,-1.4061699321,-0.5029498399,1.7315682527,-0.902361775,-0.0494721589,0.3988306172,1.2866110434,0.6756634791,0.4662067147,-2.0562137517,0.0609590916,-1.0051245013,0.5588098453,-0.7786046664,-1.2666289505,1.5854779286,-0.5525265382,-0.5238831902,1.2085639675,-0.4475920687,-0.413003093,0.5787254946,-1.2323064211,0.9044875483,-0.3602915882,0.2617602329,1.1637488718,-1.1441601237,-0.7278395527,0.938434429,2.296131238,-2.190958015,0.313920729,-0.5085613698,-2.7756860591,-0.2882887781,0.7337015903,1.7083809589,0.8758435742,-0.9320072013,-2.2069084882,1.3458561067,0.6466262528,0.1411755508,-0.2294207012,-0.2284692094,2.3177147414,-0.8243201042,2.4751213611,-0.7851515531,0.4270464266,0.1607363331,0.4071959558,1.3815450756,-1.1736061536,-0.0436421701,0.3471217362,-0.6721548054,0.9769891584,-0.3441140657,0.1713533145,-1.3360721471,-0.8843717018,0.7979015664,0.77499684,-0.6584909357,-0.2522994561,-2.0574556338,-0.4074755082,0.4331758361,-0.5249594691,-0.9029631682,0.666155497,1.1950216742,0.3314901261,-0.419526843,1.0633777011,0.1512925047,0.4860197409,1.8762108839,-0.9703243311,-1.3027766165,-0.1231925233,0.3201987651,-0.4427338668,0.0934337937,2.3833476192,2.2461667861,0.2476559033,2.4364075086,0.0879625251,-1.1167197328,-0.0367363165,-0.1383017427,-0.3151998799,-1.59891491,-1.643867829,-0.6286324028,-1.352639371,-0.8138825428,0.1367828111,1.0235325833,-0.641627175,-2.3715584882,2.0381189698,1.7351566304,-1.1528651104,-0.1762572606,-2.2670263249,-0.8928276421,0.899304388,-0.9602917717,-0.6423465113,-1.0255178526,-0.9347148531,-0.7263982314,-0.2753424074,0.3975433866,-2.250963184,0.6857138136,0.0112827151,-1.3983511768,0.1569535551,0.5306686271,-1.3580273867,0.4368457922,-0.357406323,-0.098439229,-0.5875013062,-0.6212024578,0.1199316794,-0.2173483071,-0.3640576017,-0.8187311826,2.075949198,0.9740395631,-0.5929260937,0.063227918,0.3886965852,-2.2029380005,0.0105317916,-0.1532111143,-0.0484036902,1.1259626157,1.4595259886,0.2546545156,-2.1768366379,0.7258952367,1.0341551896,-0.3817775405,-0.0749697957,-0.8163538782,1.5422396639,2.1478248678,-1.3172191022,-1.3812873506,-1.2722418301,1.1380424123,-0.7509707978,1.2540407272,1.5998247935,-0.4925970694,1.9971482713,0.1660422095,-1.2624458585,-0.8957479895,0.2002156485,2.1609952504,-0.4338502683,3.2582935378,1.1333043626,1.1464422922,-0.5895574575,-2.1678103472,-0.6198826716,0.184938086,0.6939129045,-1.0289296842,1.6634897508,-0.5535938192,0.0835716133,1.0512990617,1.1482965238,0.1873678685,-0.9920146804,-0.4587118672,-0.7145471937,-0.5947080129,0.3493609069,-1.8654566742,0.0625632361,0.5022511186,-1.5334272881,-0.7017017956,-0.4689296602,0.6154300557,-1.0165474342,-1.844156015,0.4553002063,-0.7516408495,0.5404138291,-0.5423040138,1.075723027,1.5870353439,0.6368189904,0.0932942201,-1.5406528044,-0.0948754341,1.3171045697,1.7616049585,2.1913407992,0.8267692456,1.3238114217,1.4461236072,-0.6517033658,1.4383541392,1.9780572458,-0.2499712385,-1.652754184,1.2226489577,-1.6319064662,0.7343852924,-1.0973804483,2.3954797463,0.2812639849,-1.2065960812,-2.4428888519,1.3076872787,-1.1351005697,0.7948836948,-3.5004658683,-1.5719046968,0.9439892187,-0.6584560896,-2.2677437263,0.7232834301,0.2572936071,1.7700540913,1.7405177783,0.0976342381,0.4241626149,1.4519104526,1.114126721,-0.0657792594,0.3026149154,-0.4755569859,-0.7949248179,-2.4349917498,0.2125341808,-0.2804881552,-1.3188256956,-2.0343801412,0.5507131972,0.1109690161,1.2632842312,-0.0293173456,0.778918118,0.9629341934,-1.5540149909,0.2387016851,0.5612470425,-1.2377914632,-0.7133467001,0.9830972138,1.4363281805,-0.4808873331,0.7361259112,1.0935137102,-0.5642769148,-2.0409623647,1.772587451,-0.9072146055,-0.3903198325,1.975451853,-0.0788571846,0.9734632381,0.6331679817,-0.7842242354,1.8822002048,-2.5300569886,0.1225102212,1.4896391349,0.7077213386,0.4974238497,0.0799041465,2.5489818036,1.7777399589,-0.2959608502,0.2222436339,1.5185105051,0.8490605281,-2.1102027364,0.4425064634,1.1934996116,-0.3283625126,0.7266833481,-1.6186511599,-0.0289052888,1.3744391242,-1.190488774,0.2932969862,0.4365692544,-1.0997836162,-0.6892739507,-1.7962301768,-0.5913179695,-1.5879942032,0.6105160435,0.7933395369,2.3159840143,-1.2776283446,-0.4349682271,0.4902840174,1.7423773046,0.984596926,1.0903053366,-0.3070172638,-0.4401136045,0.9221906561,0.1521919427,0.2130349437,-2.1375228841,-1.6524626138,-0.292506781,-0.0267489387,0.0681125197,1.622172562,2.3891635481,0.236278436,-1.3707392946,1.7855693601,1.0459731381,0.8742125183,-1.1374082547,-0.8601108693,0.4119770034,-1.8779390098,-0.0231648676,-0.9101500347,-0.1138461464,-0.5335654803,0.1666060393,0.2399051238,-0.246998431,-2.2732377137,-0.1293536138,-1.7362564633,1.7006298274,1.3203864701,-0.6103593782,2.1257400859,-0.1166359251,-0.0164966088,-1.8399909689,0.6536719127,-0.2086961087,1.7351019227,0.3165774548,-1.128781409,1.962005042,-0.6595697582,-1.4637835469,0.7564804287,0.5357966978,0.0395568826,0.5610757425,-1.1734766846,1.2355139178,0.6593582655,1.6090552246,1.8976255279,-1.4454604732,1.0457235708,-0.0180795841,1.1270897171,-0.1595487646,0.5043743146,-0.7842865319,0.6985097308,-2.2049010399,0.6136684435,-0.8066256729,0.023131947,-1.464243678,0.062350187,-0.3400388979,-1.180479553,0.0324879278,2.8831208801,0.5943078685,-0.8776785461,1.3557612468,-2.9596898127,0.1919141469,-0.9065548657,0.9292478501,0.4280469502,3.0063520795,-0.6313789048,-0.6056616879,-2.117915544,-1.2849556003,0.3109583538,1.1048500062,1.2544028554,-1.1633644707,-1.6963794594,1.1375162178,0.5826271459,1.1394049573,-0.9181740181,-2.961298614,-0.1006356079,1.2672037453,0.4662095723,-1.2779251854,-0.1893542843,1.3107388525,0.0883952745,0.1202501596,1.3123064844,0.3164498387,-0.895980935,0.0382862949,0.3944562165,-1.8393721754,0.5604375097,-0.7461919784,-2.768475398,1.0113159034,0.867158518,0.7994675972,-0.4318738148,1.3171067487,2.2684786205,0.204001144,0.2538313008,0.0987258632,0.5398188737,1.0030366116,-0.4212097025,0.8160154585,1.2820644309,1.2385947435,1.2961606383,0.1285192736,-0.8635896357,0.1586063559,0.0749372529,0.8820174423,0.7263663436,0.4802185619,-1.912779024,0.8077525462,0.4467077576,0.1160347196,-0.1080682147,0.0994548021,0.0640219691,0.4376402622,-0.0119973635,-1.073105616,0.67873803,-0.412371829,1.4473031394,0.319907826,0.5348826926,0.9099913198,-0.3318189849,0.4481418076,-0.9060212126,-0.5679442035,0.9928730236,-0.8690296873,-0.4105401443,-0.017007243,-0.1228288639,1.1914218365,2.6284179432,0.5611902993,-0.3805669895,-0.8543658937,0.9452458385,1.9108342566,2.7091757034,1.4460429569,-0.0769903618,-0.0016609077,1.9809511303,-0.850639335,-1.4561491401,0.6418010954,-0.2216950754,1.0462323409,0.9653128188,1.4286405111,-2.1298277364,-0.1494773333,-0.5249405003,1.1503534604,-0.1682206547,1.7014698662,1.0615123843,-0.5707083078,-1.8681699519,2.2804441141,-0.5732957739,-0.0164893728,-0.8871445244,-1.5384897502,-0.4876545318,-0.2940163462,0.6921139825,-1.2404862465,0.3474736436,0.6118119463,-0.9498217487,-1.5033673907,-0.1313436985,-0.4464070507,-0.4694775895,-1.5138054543,0.236950093,-1.3820416927,-1.413074073,1.5305828528,1.1646313529,-1.0341507139,0.3477540893,0.0687551989,-0.0280500753,-0.6576153976,1.9166284639,-0.6980410307,0.387274668,-0.8779878555,0.3349719984,1.4550885571,-0.0407057266,-0.1303300654,-1.270834739,-0.120645177,-2.6288277007,0.9895289467,0.684901875,0.3721243022,-1.3951519087,0.7372346089,-0.4147643944,2.2698775163,0.9749390813,-0.7994158336,2.5124707811,1.6903702331,-0.2182253123,-0.3693131676,0.2564574369,2.5420881052,-1.380940249,-0.2897014111,1.1892457843,0.1448239938,0.6662909648,2.3860200712,0.2971292365,2.8803867989,0.8573398353,1.0732660305,-1.6302615808,-1.5707643032,0.737173733,-1.7935790586,2.4238072831,-0.7940946048,0.6196016049,0.9470557854,-2.0948117631,-0.4638510717,0.1054460205,-0.3563905977,0.4265979225,-0.9317459409,0.5265945372,0.4437380741,-2.1389367608,-0.1610677074,0.1835439707,-1.4221138416,0.8866333761,2.8024854877,1.2539752133,0.672611812,2.0804567718,1.8364789555,0.1352849592,-1.8714674673,0.3990272769,-0.3188377263,-0.3963524465,0.9766633038,0.0487657105,0.1463696998,-0.5215524941,1.3881716261,0.3731858083,0.6656940444,0.0447707493,-1.3002574232,-0.6854755931,-0.8137606132,-1.055549379,-1.3648917177,0.5856708832,0.8851760018,-1.5932830635,-1.910770847,-0.4106044606,-1.0649052238,0.2064961747,-0.731081866,0.4105822873,0.5777372546,1.9811577284,-1.3387143746,-2.5177662813,-2.0683666775,-0.1652826059,0.0978628933,-0.7144239933,0.1413408619,3.2830879606,-0.1232099112,1.0367943874,1.8731463952,0.3252816517,-2.9651175192,-1.7499767793,-1.3560446385,-0.069300801,-1.4754850087,-1.9227833182,0.9815992759,-0.8569542513,1.3217748383,-0.5201599186,-0.7233451822,-1.7170870734,1.5126284696,-0.8219111616,0.6456336853,0.0251620896,-1.2048850583,-0.8858697376,0.1836840236,0.6253675733,-1.3770288045,-1.8117291879,-0.2272000873,-0.4012973874,2.7385013831,0.0262200005,0.5411190705,-1.6895798387,0.7251692555,0.4397429425,-0.194328838,2.2908157997,2.3351558958,-0.9920620722,1.481172067,-0.800316856,0.3706591977,-0.1244203533,3.0200750467,0.9246786518,-0.3497084169,1.8759280155,-0.1859474407,1.0900124902,-0.99047836,-0.4063116573,-1.7965099705,-0.0217137625,2.0439802165,-2.0790022441,0.694848866,0.2907825105,-0.8625586184,-0.4136608576,-0.260776538,-0.5470403297,-1.1066055691,-0.9042731054,0.4757402439,0.4165368918,1.1285084156,0.3681358274,1.3125715675,-0.5538358458,2.1976700645,1.67481396,1.9491075459,-1.0188517847,-1.3238783185,1.1633581273,-1.2349429044,-0.0600149655,-0.2900929044,0.4341282982,0.3732392279,0.2613838025,-1.0426348036,-0.8657254516,1.907405483,0.3833065077,-0.1194396427,1.3467767787,-1.0704790738,-1.0156261234,0.3476651958,-0.2080061351,0.7827004977,-1.6476480716,1.8727075745,-1.4946265951,-0.0774843697,-2.5933014468,0.8741877195,-1.6533944931,0.5761922995,-0.0308607277,-1.7531803203,-0.3466829622,1.6608471416,-0.8518292877,-0.4284954904,-0.536454478,1.1236781557,0.8142470387,-0.4614220792,0.5028472699,1.1514897103,-0.8523836626,-0.6013020714,-0.2939143042,1.3444146273,0.9382848425,1.5074394482,0.337910975,-0.4995750142,2.0572009545,0.7669644145,-1.7068190259,-0.1035992342,0.42980807,-0.4928503331,-0.4461236011,-1.1205524019,0.3761368842,-0.6732518688,0.9221932085,-1.1061078051,-0.818378395,0.4770110057,0.354988497,0.8698441137,1.4174148603,-0.534923142,-2.3014535231,-2.2633558985,-0.8408233783,-1.292804829,-0.5018119765,0.3393855582,1.051620667,1.1696344234,-0.7686933519,0.7372989813,-0.6123475123,0.3004587228,-2.2188037126,3.2198044351,0.0744764116,1.8765322797,0.5285783552,1.1331959131,-1.3479863898,0.9123036276,-0.883933151,0.2094524762,0.1202145318,-0.1077199653,-1.472676408,0.4245793119,0.0622946471,0.0425401378,0.1908676007,2.994174922,0.602330628,-0.1778622041,0.2259034031,-1.4694926456,-1.1170059019,-0.1486044162,-1.9395557969,-2.2196917697,1.0430901439,-0.5946638765,-2.0585476844,0.805468654,-0.0597710314,0.3090305585,-2.5525964805,-0.628977261,-1.1418247183,-2.7385636334,0.0305450693,1.1274361251,0.4580826633,0.6683189133,-0.7231361668,-1.1567266115,0.4191689042,-2.7072883776,1.6914626394,1.868073656,-0.6219721936,-1.3856172025,-0.0611253674,1.0998108672,-0.4203876329,0.6801617082,-0.223735434,-0.2376712863,-0.324868903,-1.2594118056,0.2525754888,0.6219753003,-1.3372499683,1.2727917159,0.4446163493,1.290267897,-0.7002700633,0.012364069,0.4550229782,-0.2445156486,0.5004811791,-0.2615933639,-0.1667535337,-1.0463178749,0.4159246334,-0.3503633645,-1.3705949223,0.5325837902,-0.2720703532,2.0328842167,0.0275461891,0.659999648,-0.6928383951,1.0299196249,0.6324593347,0.9826520118,-1.034175524,0.2152135114,-0.8268703177,-0.3645697101,0.001201904,0.1047028789,-1.1738265206,-0.1818919251,-0.2120801003,1.8242491449,-0.7231480877,0.1179963331,0.5672852734,0.139091509,0.716713992,0.440951972,-0.2498298278,-0.0614219701,-2.8352937332,1.3686810941,0.8042038893,-1.4161307055,0.383812997,-0.5275797378,-1.8033358064,1.2717240208,-1.1382487336,-1.7361610448,-1.4448137267,-0.3029723106,0.3237609882,-1.2579242143,-0.8571154492,-1.4526224133,1.7595732938,1.1636880153,0.0440485416,0.832415284,-1.6281048657,1.816734899,-0.7896230278,-0.4971355808,-1.0971668951,-0.190530747,-0.2532478838,-1.0888494466,0.3953488253,1.3927089258,-1.5960340006,-1.0015462399,0.7319599357,0.9340340417,-1.894989505,-1.2229011955,0.8708490299,1.4378279739,0.2632729815,-0.8817101472,1.1486956602,0.2731408943,-1.5229461174,0.8315832711,1.133644942,-0.5319723427,0.3557255763,-0.6062427176,1.1214646721,0.1053903931,-0.3292055297,0.4614626062,-1.0651792847,0.8794410866,-2.4487243396,0.6711980911,-1.0409772108,0.8367983005,-1.1103596435,1.7879791562,0.3231345095,-1.8946377196,-0.0073519865,-1.1636376348,3.0852653547,-0.522887799,-1.3034450876,1.4276567182,1.1027617024,-0.5273862184,-0.6406284149,-0.5324196354,-0.3893502746,-0.2217752299,0.1029545105,-1.4127543388,0.7421246809,-0.007655073,-0.7573221661,0.4172008346,0.9099646877,2.7068843872,1.437638094,0.5500067328,-1.2425285642,-1.8840789139,-0.8325130282,1.3991532834,0.6108577329,-0.0746450146,-1.4431429771,3.0800030061,0.7282286774,-0.3764037117,0.5918419452,-0.2931647811,0.5207013484,-1.2201190819,1.2319842083,-0.2990970953,0.8696630392,0.0201260186,1.3754738733,-0.333878318,-0.4290436238,-0.9533266559,-0.7514166277,0.889962283,-1.3478613133,-1.029955128,-1.0654130475,1.6103460851,-0.9984977668,1.2774719759,0.1273107207,0.3825832086,0.6644553841,-0.4337083169,-0.7512907356,1.1845360184,2.4740510577,-0.0632850015,-1.141927944,0.5329590453,-1.5283907881,-0.1432454194,-0.1520162867,-1.1738619114,0.0278556729,0.2735801005,2.8409594597,-0.4003862466,0.7266482127,0.3033186293,-0.029891602,-0.7948142723,-1.7544069199,-0.9565270204,-1.4589254351,0.5967255582,-1.027226653,-2.4714967926,1.3072320307,-0.1199295137,1.7196195212,-1.1260473176,1.2407282742,2.2509274672,-0.3175153523,0.5299540064,-1.06775137,-1.3071950173,3.2841643974,-2.2782923429,1.6738186086,0.1801318822,-1.7983202147,-2.2426915006,1.1006051359,-0.1674348495,-0.2174536954,1.5094017419,1.1399658334,-0.1253199799,1.1280481112,-0.3953477372,-1.0184870464,-0.5395268675,1.3477523457,0.120607453,-0.1911935746,0.4645187194,-0.8153136024,0.0638791247,0.0683151775,-0.9859286311,-1.1830293277,-0.8019495997,-0.9155624549,1.5498685289,1.3904550771,-0.3479849162,0.4437722627,1.940681572,-0.2191035316,-1.0916620343,-0.5394376076,1.801993262,-0.349872832,0.5379067635,1.844333047,-0.8934450463,-2.0948704542,0.2299960702,1.1538027329,-0.1645415592,1.1030760953,-1.6094906242,-0.4598235993,0.1074503329,-0.7869805428,-1.0723487716,-0.1927916188,-0.2933513465,1.1409272536,0.4673778535,1.0753964144,-0.7729164322,0.4910960385,0.2961479405,0.5282257881,1.976240645,1.0839362846,-1.1028681968,-2.236174283,1.7690119671,0.0068432698,-0.6028992219,-0.2757721947,-0.2540728655,0.7365273627,0.5496093067,1.2496711036,1.014559282,2.5090701605,-0.2144766258,1.5558474959,1.9125187142,-0.4966047737,0.841821963,1.105580432,0.2614256303,0.1198911529,1.8291277756,-0.3120820272,1.8320119266,-0.4667806296,0.7941822858,1.1564688916,0.1539127949,-0.1384145625,0.9009496301,-1.1534830691,-0.7933119309,0.9626569441,-0.5864202875,0.7964191778,0.8621611503,-0.653468459,1.0586720801,-0.7367764298,1.3487859642,1.7012010414,-1.8879572123,-1.3329568592,1.4084312427,0.0784727634,0.2443556862,-0.5760064784,-1.1888260946,1.9076083361,-1.2514498235,-1.3598766164,1.1226507851,0.8483471123,0.6170958592,-0.5756749721,0.6997212248,-1.0811611465,0.2294703772,0.543758546,-1.8695365102,1.1950815618,-0.0796106952,1.3089853528,-0.8244394142,-1.1099053789,-0.216300431,-2.2898743203,0.0389703083,0.045819173,-2.035233284,1.593124347,-1.1407396105,-1.5739911245,-1.8724964251,-0.1603311385,-0.0488592053,0.466686402,1.4211934329,-1.436537384,-0.0100502136,-0.7843519766,-0.5692502088,-0.4803598988,0.5355474102,-0.3424027623,0.1630605755,-0.4011052445,-2.2762604484,0.3130028878,-0.098154485,2.0280337962,1.0426119849,-0.9809095676,-0.1677819311,0.479014592,0.1063061753,-0.0913782133,-0.1332631139,-1.6728308441,1.0321228496,0.8529132612,-1.3006054988,-0.9508978439,0.0869301896,-1.9118420955,-1.7716384658,-0.8047041858,-0.6726046441,-1.0743678965,2.2380268048,-0.9188126231,0.5146927605,-0.604767343,0.7529533486,-1.08096493,-0.0731481808,-0.0245704674,-0.9149673362,0.1465532648,0.9210694053,0.3060816915,-0.8588379682,0.2436318976,-0.8345210584,-0.0050420136,1.0140240351,-2.7771018092,0.1819318285,-1.1769592116,-1.9509926146,0.8565203331,1.6734015439,-1.3049788131,-1.0486684932,2.8054107753,0.0750163977,0.9830786999,0.3503343637,-0.0667370769,1.2807343559,0.6066989515,-1.5503507473,-1.1045485555,0.8977091348,3.2290709819,-2.0936577497,-0.1678213339,0.3817184935,0.6108365371,1.6220296473,0.1680151081,1.5975933808,0.8822778521,0.3134952436,1.2492291863,0.6739107412,-0.0595679558,-1.5812475688,-0.0604761278,0.5467414247,0.1330724872,-1.2000922144,0.3208129053,-2.2486764049,0.2979743621,0.874885419,1.9149744372,-0.2024693277,1.2877212928,-2.764021768,0.79949498,1.7780507766,0.2940548209,0.8104133469,2.0185910305,1.4187992499,-1.9312375109,0.1137731711,0.7174000439,1.5725134647,-0.3245600756,0.6626059054,-2.1292021087,-0.6574482859,0.090327604,1.9287838071,-1.0611309474,1.2285563956,-1.7284425403,0.3992473981,0.1270798527,-0.2998935883,2.9132055572,1.9304362115,1.5421859957,0.3567588606,0.3074776749,1.0686492494,-2.2310452923,0.5469587029,-1.0521906227,1.9358121997,0.0170184149,-1.5730939865,0.4522604346,-0.4003685314,-0.3584966457,-0.7657089593,-0.4809254176,0.4919769769,0.6735809337,1.1582887572,1.6895608586,0.033783441,0.4010399592,-0.7064359922,2.6557880535,-0.1301419208,-0.0652582867,0.4714169848,0.6901018661,1.9468978918,-0.365766735,-0.8196197977,-2.5208364711,1.765785541,1.6703542101,2.539732029,-0.5924112211,0.9089587419,3.3093034006,1.7611791242,-0.9877605001,-3.6236314979,3.4410484399,-0.2741583325,-0.08888432,0.2977749115,0.1196031174,-2.1322200235,1.9267228919,0.9705695564,-1.5480569987,-1.9811680612,-0.3597210606,-0.184139581,0.6558142061,-0.195581623,-0.0557795041,-0.5922670295,0.577500771,0.6732114171,0.232400642,0.1194491852,1.1531046152,-0.3772469729,-1.7313392016,0.2482306579,-0.1664282361,-0.7812385164,-1.7207891066,-0.2794739475,-0.8737563711,-1.244826268,-0.3957293405,-0.5284991713,-1.1817412828,-0.9967252533,0.3061437443,2.0133798778,-0.8142621093,1.533005116,-0.4885979707,-0.505807473,-1.0554369483,1.2759453593,0.5101600836,-1.0357066016,1.597705647,0.1190942076,1.0756118128,-0.7498295581,1.5315268431,-0.4846454078,-1.0657827281,0.8844315166,0.6966785024,-1.5760700078,0.4599669257,-1.920005597,0.8757318992,-0.9254948406,1.6566621724,0.1969907072,-0.9996744465,-0.3115663645,1.8486177369,1.4279172944,-0.4277849915,1.687731522,-0.8764166735,-3.2709939449,0.9457629393,1.9860063453,-1.584507757,0.8006806235,-0.4962418338,-1.8873626315,-0.1844252386,0.2614390857,1.3217275849,-0.7188509888,0.8438639439,-0.7712001329,0.2233937027,1.2704493315,0.152496059,1.2614419852,1.1159170417,-1.1111810448,-1.1248979662,2.1838537701,1.2754891631,-0.5126587706,-0.0673762591,3.2004741429,-1.3675713908,-0.035430112,-1.1432415544,0.4694878531,0.601438958,0.9520556791,-0.8923860066,1.0556684639,-0.1918998106,-0.9035640137,0.448382424,-0.1171655212,1.1735977912,0.1203628434,-0.0455668732,1.6415426088,-0.0136484649,0.6284488134,-3.2397594619,-0.0936050176,0.6242964391,2.6403597899,-1.0346490421,1.2180921038,-0.7788373188,1.103824273,0.0394736281,0.1770056003,0.0800836628,0.5515178408,-1.2223172401,-0.4203743549,-0.435365014,-0.6575670898,1.1454950272,0.6246123619,0.2142093114,0.5931395545,-1.0641661557,-1.173710991,-0.1045706338,1.3031041674,0.807746272,-0.390401107,-1.0391221422,-1.420092229,-1.4207922399,1.3897434474,-1.7251199367,0.6135340376,0.1271425653,-0.5848019155,-1.0314298643,0.6792123225,-2.0404046065,1.6661465331,0.9008733115,-2.6790682805,-0.1800979575,0.6814105299,-0.1935764569,0.079688607,0.5235588947,0.1136871477,1.9847142027,0.2353149993,2.6373919789,-1.1875473685,2.2179030075,-2.605591018,0.7355856001,-0.1493868921,0.6454640924,0.9701118415,0.8321890851,0.2098423459,1.1512481604,-0.9753471693,2.640253295,1.3734505737,0.1958273104,-2.2430442076,0.4815178967,0.5555886985,2.5623993234,1.9098311387,-0.4069981125,0.0514524054,-0.0625772467,-2.7680736529,1.6731896173,0.1140688795,1.1549972557,0.419790434,1.4239580897,-1.6365855792,-0.824619572,-0.9663004387,1.3449849735,1.8348832369,0.5223201054,0.1849170608,-0.219975743,-0.6741889773,-0.8382812523,0.7295623565,-0.2435325521,0.3915378322,-0.5183835123,-0.35993111,-1.4320776939,-0.6614904794,-2.0212822588,0.1267659495,-1.0235586125,-0.3984003849,1.1215958831,0.786858587,-0.1136266311,-1.0602427274,-0.605150083,0.4918634899,1.4854747573,0.975800748,-1.0573341277,-1.392146318,1.7028101116,0.6133752926,1.3637524617,0.6059520671,0.3864992502,2.20268668,1.1730158927,1.2252380577,1.6648051616,-0.0356782378,0.3393496952,-0.1364311798,-0.8580321432,-2.0175298836,0.1612853118,2.1677793474,0.5069446249,1.1359493743,-2.849607946,3.0111143441,-0.4771489041,-1.2686524651,-0.7818629889,-1.0950153584,1.5659998722,-1.0277857092,0.850164691,-0.235088939,-0.5696188381,-0.0132572989,2.9020703411,0.2474178305,1.2571837497,-1.9870787392,1.5246995573,-0.5431712567,1.7366744521,0.0746515135,0.5966158103,-1.5981978251,0.5839400463,-0.4764746059,0.0478642868,-1.2456594629,-0.8039618462,0.1977129486,-1.3361476479,0.2053799418,-1.423842297,2.0158463169,0.1287726207,-0.4599530532,-0.8926043039,-1.8810296741,-1.4420854929,0.8664405466,-1.4840455863,-0.118643258,0.6405886275,-0.3784389186,0.8519296914,-0.3103420022,-0.0237158916,-1.0645482936,-0.6792869497,0.8986373402,-0.1234020489,0.0942943219,-1.9389724372,0.364027873,0.4439717122,-0.7963412062,2.039256073,0.9688905281,-0.696704489,-0.2774235594,-2.4659477671,-1.2833369334,-0.353145179,-0.0260895762,0.6039011969,-0.129284313,-0.2306288082,1.4754155905,2.2664843399,1.2630147985,-1.6629659652,2.3389260348,0.6800186761,1.1986575673,-0.3085366276,0.9970070711,0.2728050584,-1.2927111196,1.4882316265,-2.5560390267,2.0951956512,-0.0887634868,0.8477904265,2.1632013537,0.1538080313,-0.200227994,0.1816559742,-0.3299715777,-0.278911188,-1.0265721139,-0.0332203669,-0.227559339,0.2630415911,0.0399190415,-1.5517066107,-0.0557316552,1.5096885209,0.9876746972,-0.031880169,0.2222716833,-0.0840529892,1.8722581491,-1.4766688866,-1.0954599948,0.8278916451,-0.1713893716,-1.2020745372,-0.1459567181,-0.818201871,2.6181164609,-0.3447332156,-0.2343543043,-0.6240575238,-0.148628669,0.6326069286,-1.246241167,0.1467949325,2.0318920794,-1.7105537962,-0.1108079037,-1.2372066919,-0.7339385717,0.786395911,1.4036792943,-0.8963649462,0.8596926296,1.2874358707,-0.493489848,-1.3897789187,-0.2484738216,-0.7856174289,1.4986514366,-2.5977980069,-1.6294303248,-2.9129503195,-0.1775786914,-2.1230687791,-1.8319322118,-0.5966047445,-0.4222884884,0.3811928682,-0.4261379759,1.4819193083,-0.9323301277,0.2275161607,-0.695113974,-1.1729270609,0.8381641009,-0.0427887176,1.0786934864,-0.8420638258,0.704247198,-0.7017798649,3.0012352615,-1.2834792221,-0.108363503,-0.1990947968,-0.5723078799,0.2335693874,1.8630770058,-1.2917305212,-1.2640445355,-1.2003405239,1.1166930207,-0.9518173976,-1.8597299949,-0.1333944026,-0.1976783811,-2.4235909677,-2.0806358768,0.487631468,1.6942364081,1.4987650977,0.2926399609,-0.8163518474,1.3343329245,1.6378621241,-0.5694446073,1.0563340894,1.0380735441,0.0436189061,1.0581566869,0.3201523111,-0.5099105439,-0.0544414524,-0.0029603774,-1.3005159969,0.9070665106,-0.1938313927,-1.7945396654,0.2286626887,0.8165132095,1.7810722254,0.1878052005,1.0973752006,-1.5911817811,-0.5671347869,1.4305374637,1.4242458468,0.749135805,1.3352635448,0.0164831148,-0.1551617734,1.100043634,-0.0148928985,-0.9093583818,1.6110369779,0.600854388,-1.1888871905,-2.5965862901,0.4167037033,-1.6716565359,1.1799846958,0.4040037581,0.3160473199,0.400869786,1.3518848146,-0.0466221661,0.6377574655,1.4084461293,-0.0900580664,1.2152082882,-0.6358699095,1.0834582004,0.3797585712,1.0391196143,-1.3870708311,0.2914766126,-1.0090193471,-0.8755913335,-0.4292065332,1.2155449322,-1.5124952842,1.2312303841,-0.5284957538,3.5389701295,-0.2902990032,-0.3657942201,1.3774390728,-2.0491740175,0.3511476453,1.5307606185,1.1698086389,-1.460149434,-1.0919520406,0.7117641359,-0.4288090456,-1.2587286834,-0.4500038095,-0.4780056958,-1.5035980016,1.316216914,2.6758376697,0.4345201978,-1.3227750542,0.2800800387,-1.2649870712,-0.0329123418,0.4089607719,0.0126848899,-0.8997822246,0.0435438266,-0.6662437861,1.77891256,-1.3171278591,1.2840073335,0.8306978035,0.1812840956,-0.5687069611,-1.7621786613,-1.4605627714,0.6108929862,0.6846895442,0.5040546411,0.6978774618,1.5322193603,0.2696207224,-0.674869649,-0.1536518251,0.0529673163,1.5252773379,-0.4751694051,-1.2328764026,0.515067878,0.2394497745,-0.4123232442,0.9690632168,-1.2994463359,0.3947596757,0.3653716787,-0.083055882,-3.3508427224,-0.0559944057,-0.2118836891,3.7303326802,0.9698776822,-0.5894891499,-0.7794484893,-0.2887047231
