encog,BasicNetwork,java,3.3.0,1,1437654884818
[BASIC]
[BASIC:PARAMS]
[BASIC:NETWORK]
beginTraining=0
connectionLimit=0
contextTargetOffset=0,0,0,0
contextTargetSize=0,0,0,0
endTraining=3
hasContext=f
inputCount=243
layerCounts=1,21,41,244
layerFeedCounts=1,20,40,243
layerContextCount=0,0,0,0
layerIndex=0,1,22,63
output=0.8757555239,0.7775483757,0.0000551937,0.8206920705,0.9956405825,0.3262059218,0.3233114858,0.0604055811,0.3183866248,0.9999775117,0.0143725886,0.9817179649,0.999999302,0.1588556678,0.9005905287,0.95538261,0.0035627074,0.0011820219,0.1339621015,0.2996877718,0.1669466396,1,0.6477200343,0.0033531224,0.160319639,0.9939142912,0.9931950314,0.7661018643,0.8767813289,0.4070752717,0.0259286934,0.83930442,0.9887368057,0.5754501788,0.6126583542,0.6985197657,0.159036024,0.8710674103,0.0258465101,0.9926872058,0.9909973391,0.9796219932,0.5899472581,0.6818182924,0.0182241216,0.6428594985,0.9974349197,0.9572073182,0.4669610524,0.0020483088,0.093730779,0.9808379065,0.9626883633,0.9987960573,0.0149313101,0.9347956779,0.6943535116,0.4991234875,0.9629848654,0.8190638019,0.9955641305,0.5023164184,1,0.1803921569,0.2509803922,0.2431372549,0.2117647059,0.1882352941,0.1490196078,0.1921568627,0.2235294118,0.2941176471,0.1647058824,0.1921568627,0.2274509804,0.1725490196,0.168627451,0.1607843137,0.1568627451,0.1725490196,0.3725490196,0.168627451,0.1647058824,0.2039215686,0.1803921569,0.1411764706,0.1333333333,0.1254901961,0.2117647059,0.4745098039,0.1764705882,0.1843137255,0.1882352941,0.2,0.1333333333,0.1137254902,0.1411764706,0.3254901961,0.6,0.1647058824,0.1764705882,0.1921568627,0.1843137255,0.1529411765,0.1294117647,0.1725490196,0.4078431373,0.6941176471,0.1647058824,0.1294117647,0.1960784314,0.1725490196,0.1764705882,0.1176470588,0.1803921569,0.4784313725,0.7607843137,0.2039215686,0.1176470588,0.1764705882,0.1764705882,0.1647058824,0.1137254902,0.2431372549,0.6,0.8078431373,0.2431372549,0.1490196078,0.137254902,0.168627451,0.1294117647,0.1450980392,0.3529411765,0.7137254902,0.7882352941,0.2039215686,0.1960784314,0.1058823529,0.0941176471,0.1647058824,0.231372549,0.3882352941,0.7176470588,0.7411764706,0,0,0,0,0,0,0,0,0,0,0,0,0,0,0,0,0,0,0,0,0,0,0,0,0,0,0,0,0,0,0,0,0,0,0,0,0,0,0,0,0,0,0,0,0,0,0,0,0,0,0,0,0,0,0,0,0,0,0,0,0,0,0,0,0,0,0,0,0,0,0,0,0,0,0,0,0,0,0,0,0,0,0,0,0,0,0,0,0,0,0,0,0,0,0,0,0,0,0,0,0,0,0,0,0,0,0,0,0,0,0,0,0,0,0,0,0,0,0,0,0,0,0,0,0,0,0,0,0,0,0,0,0,0,0,0,0,0,0,0,0,0,0,0,0,0,0,0,0,0,0,0,0,0,0,0,0,0,0,0,0,0,1
outputCount=1
weightIndex=0,21,841,10601
weights=##0
##double#10601
   0.2764544589,-1.0338045685,-1.2207531888,-0.6039475271,1.8174331414,-0.1500980242,-0.7245528498,-2.4209934696,0.915679179,1.8091077863,-0.5688542502,-0.4101064642,-1.3078434441,4.0381543079,-0.5062216425,-1.2916215669,-0.69643675,-3.0558388277,2.3812823899,-1.6366047041,-0.3629946047,0.3869015495,1.8461846565,-1.9416970656,1.2168031668,0.2774879513,0.0063582029,-0.281316199,1.1750129282,-2.7465059649,-1.1504630805,-0.5839189048,0.04925836,0.3645202408,-0.689886339,-0.3857144681,-1.0232397542,-0.6290919539,0.1026919558,-0.7897722435,-0.3809815645,0.2306779769,-0.2531244527,-0.9741416822,-0.3946640173,0.6607453535,0.3797770916,0.0643411699,0.6179083298,1.4441584109,1.4437403219,0.7929344769,-1.1932386296,-0.7034435679,1.4846667519,-2.1815658642,-0.970020072,1.8473057424,-0.1604077567,1.5342550409,2.8645606194,1.928841482,0.6852058926,2.3524062612,-0.621492134,-2.1017685856,-0.5161820188,-2.152527292,0.0145851676,-0.3348991837,-0.6804229443,-0.8727232422,-0.1873458103,0.5175114513,2.2049946271,0.2616580112,1.6013145066,-0.2834311854,-0.3870373072,0.7224918479,-3.1417212317,0.1908007044,0.566128695,-2.223839151,0.0222866535,-0.4335757048,0.1415928065,-0.1535836668,-2.4581875016,0.7866446884,0.5946281068,-1.6183702362,-0.519355493,0.9851152532,0.0159690692,1.294994031,-1.3872902463,0.2778722306,0.6472471222,0.3077482684,-0.255976943,-0.8499442722,-1.0549636243,-1.5178289921,0.8236137669,-2.6922465069,0.4099545097,-1.0457595764,-1.0378388304,-0.468843857,-0.9419829784,0.1265265801,0.5503372048,0.6660539547,1.4169649941,1.6719935305,0.7725585426,1.0245616757,-0.3283557768,0.3381560005,0.4271997752,1.4343830435,-0.9529136174,-0.6340191182,-0.3425650408,-2.1223699557,1.1054831478,-0.8580316626,0.5166568722,2.310602011,0.016289192,-2.1342939342,-0.3562741151,1.7381782151,-0.4341513043,-1.0421465302,-2.0908835779,-0.4818545625,0.737399944,0.5372402126,-0.3955036087,-0.2312646583,-0.3414470515,1.4393017415,0.3968914412,-1.7444433596,-0.8038749196,1.8236373348,1.6048512598,0.4319564989,-0.6522652322,-2.1589887844,-1.1071639387,-0.8229706705,-0.5060097861,1.9904507779,1.3529965626,0.9968572274,0.0193355636,1.4772201751,-0.9463165689,0.6732758525,0.572760998,-0.622074812,0.8481477276,-1.6585393353,-1.0308922583,1.2610151471,1.0049482196,-0.1128291575,0.1072836606,-1.2051750454,0.9264327022,0.7433253288,-1.3112112396,1.7219470047,-1.8678858575,-0.7488946372,0.3274099606,-1.492701883,-0.6242313999,0.4285598787,-1.3689571393,0.5775067136,0.0545489264,0.6648121164,0.019018623,-1.7328364012,0.6269921358,0.6498221173,2.1154616624,1.0916420992,-0.8358548162,0.6383010027,0.4183779074,-0.8379490202,-2.4792396417,2.3663031629,0.0849535372,-1.4592683877,1.7407527121,-1.1688019516,0.1076403829,1.1356604407,-0.6793677113,-0.5825844167,0.555405233,0.8597159741,-2.7567068026,-0.9421186082,-1.8705823064,-1.2785695504,-0.19805315,1.6054686469,1.4161189105,-0.7961952252,-0.6182942483,-0.1751425639,-0.9921689394,-0.2958848689,0.7263623011,-1.3884623259,-0.0294569538,0.6658795816,0.1067875619,0.3752597945,0.7433163885,-1.9295585102,0.9225834044,1.40474301,-0.9045604011,1.5920573434,0.5660480396,-0.2038079548,0.0476021572,-1.7935908948,0.1037941983,1.3093209868,-1.7917583524,-1.0381198444,-0.004618615,-0.7607930757,-2.1726547848,-0.7993643102,-0.5058324697,-1.4780427505,1.4304555139,-0.3206498449,-1.3369678964,0.1931375774,1.3282108425,-1.0651313632,1.2260529761,-0.9431640375,-0.3501549545,0.7006148541,0.272638969,-0.9788378984,1.3051514613,-1.1834329853,-0.6872366239,-0.854083293,-1.4321935278,1.9853043268,0.585918374,1.5245965619,1.5475388137,-1.6413918528,-0.1770051462,1.2208811294,-1.1972717783,1.5289942069,1.0969089152,-0.2472115698,-0.041850117,1.1845596921,-0.3210728817,-2.3169340799,1.4303341084,-0.8611881823,-1.3881542408,-0.3307804474,1.5484229678,-0.6620030983,-0.0443768085,1.2704704309,-2.112381002,-1.0516152251,0.7333064194,-0.4731951262,0.060458222,0.8147861968,0.2724396033,-1.7003405625,0.1426820921,1.2455486382,2.3438312664,-0.1531656362,-0.6907446849,-0.6173655289,-1.1281318405,0.4119640153,-0.2613150063,-2.3217371716,-0.0135510986,1.3493016879,0.586330303,-0.3824963145,2.8799189904,0.5741621215,-0.2802719312,-2.2098314413,-0.0115642377,-0.6747396592,-2.1270292229,-0.3488000043,-0.5235172246,0.5440842615,-0.6648903107,1.6408953725,-1.2971897292,0.7510750573,0.0954645643,-0.7503684991,0.6816776652,2.3962308517,-0.840183704,0.3169902282,0.0481003177,-0.309235621,-3.381584657,-0.5357966421,0.4350033311,-0.3179926662,-0.3303455469,-2.029055938,-0.0210335605,-1.4800786423,0.6430747164,3.8472025745,0.3073454525,1.8505271507,0.4427323006,1.0979410703,0.0038893784,-1.9640824535,-1.2811992156,-0.3007453294,-1.3528042407,0.7716683194,2.1398934372,0.0467642755,-1.1933546131,-0.0114436394,-1.1238695446,-0.1268661119,-0.3138464352,2.0927498923,1.3796916437,-0.1898799584,1.9024313778,-0.9780460787,-1.7575340038,1.4032935363,3.1579660003,-0.3798819704,-0.4137446184,1.0146439404,0.2708685345,1.3139588862,1.6954297658,-1.0120405023,0.903119563,1.7404350196,-0.3287285073,1.8485692175,0.0535035335,-0.3615777566,0.6287146411,-0.520259327,3.0822887795,-1.2507545232,-0.2975495065,-0.3522629623,-0.8873891811,1.085417499,-1.1004639756,-0.4081245688,0.1480573486,1.5692297143,0.193172897,-0.3748094855,0.6644320124,0.6381587773,0.1116980774,-1.859151797,0.3026437481,1.7730973186,-0.5525375356,-0.186879026,0.6320534552,2.5134349123,2.0767854408,0.5490969055,0.0328680629,-1.1216208503,-0.7767247398,-0.880882025,-1.777080213,2.4615988566,-0.2765743909,-0.4910123413,-0.4989033132,-2.1165860734,-0.5996569914,0.0786650371,-1.2937309137,1.0446961075,-0.0697825863,0.1261966402,-1.422851493,-0.4198306981,0.7376292974,-0.1113038642,-0.3883118593,-0.2309621133,-1.0912148893,-0.6397185162,-1.0678533761,1.5693830594,-0.0761830499,0.0196666391,1.1202547098,0.7063643961,1.6586596,0.3350340228,-1.1500174029,-0.2376386939,2.0357570913,0.1237032526,-1.3203081034,0.0473152157,0.2880131588,0.5180864801,1.3084220727,1.2439879159,1.2032216755,0.9814119799,0.3397059122,0.278124518,-0.2219399067,0.0710920235,0.3752413416,-1.0098724128,1.01847769,-0.1910970038,0.6049883631,-1.3041992921,0.8947800726,3.397530768,-0.1514928747,-0.0198186623,1.7533455929,0.8860050784,-1.0845352099,1.2745157262,0.1017399621,-0.2869220392,-0.9739706292,-1.8492200032,-0.4545804176,0.6900020106,0.7065467163,2.6814097323,0.6712924031,-0.3436421912,0.9643830326,0.4706499475,0.3636394788,1.3159990816,-0.2397834873,1.0377974462,-1.5425751462,1.2014947633,0.5576213762,1.4008619022,-1.773475625,0.9213338675,1.2005409481,0.1632311911,1.1837496614,2.030297132,1.741844567,-0.5102343542,0.8154654183,0.2192062496,1.3021545738,-0.070386901,1.1877878954,-2.8068930346,2.0170546401,0.5513743992,1.4573318343,-0.2257686783,-1.0475348751,0.6481738014,0.354320924,1.1350595599,0.1686703604,0.9159295772,-1.478158678,-0.2463256468,1.4865269969,-0.8417770128,1.311568918,1.459997382,-0.0701265325,0.3434047231,-0.4743544605,-2.778911719,-0.2398460723,-1.9557829507,-1.263815008,0.6189134738,-0.1679900988,-0.563240016,-0.5205793394,-0.4136744979,-0.1772653367,-0.4212985871,0.1504260116,0.4668153822,0.7367746148,-0.9939463198,1.7965337421,-0.5820077024,-0.9356167607,-0.0516221546,-1.4895056562,-1.7007575413,0.7291031783,0.7123660618,0.8371540894,1.0799810042,0.4568834238,0.1425089431,-0.4524726892,1.7883910101,-0.5714348718,-1.6434144258,0.952123271,0.6223052815,0.7327115052,0.5023693288,-1.527140221,0.7232678065,1.9262611234,0.5700735113,0.120623838,-0.4608930811,-1.1237615121,-1.2046240272,1.003870201,0.0192904228,0.903612398,0.1474010526,0.6246501982,1.5912936583,-1.5978478888,-1.3103678141,-2.9554640332,-1.3470392597,0.9825777375,-2.0145543877,-1.195677476,-0.6193644419,0.8298338167,0.9658735044,0.3521266599,1.8961000778,-0.675878999,-1.8009433493,2.152785292,0.7506075594,0.022848039,1.9937029608,2.1191099339,0.1383442699,0.7609556816,-0.3841904483,-1.2029793826,0.7906537643,-1.1920695661,0.1509888869,1.9660025481,-0.2614036972,-1.2879024804,2.3451440735,0.3571886889,0.4906043471,2.4096274238,-1.2655232466,-0.157980548,-0.3786806076,0.8283723883,-0.5107176532,1.1853434623,-0.5593439606,-0.1302164073,4.0132548105,-0.4619217441,-0.1496295131,1.5043266382,-0.0028492205,0.0153278273,0.3478773446,0.650200734,0.1651718763,-0.5626063707,-0.3562728961,-2.761485383,0.4348061034,0.072933516,-1.3349553808,-1.324306053,-0.3578824785,-0.1500631035,0.1373735893,0.2455614873,1.2031546517,3.4419411792,-0.5047545267,0.4874016805,2.6627755833,-0.63819057,-1.4709547499,0.9744333802,-0.3200484477,1.0366491126,0.1120831825,0.4959287112,-1.1004099128,-0.4417898332,-0.0836334533,-0.4654063848,-0.3636276256,0.5851622695,-0.2265205694,-0.4356313405,0.581880895,-0.9979851432,0.9043628991,-0.6776871148,0.5006559278,0.5423223656,-2.0335503936,-0.2524210289,-0.9455660294,-0.0383076828,0.886102234,0.0929588252,-1.5531407702,-2.5243934033,-0.4790056648,1.6562290639,0.1674341424,-0.6748185738,1.1868313048,0.3769695282,0.8925011462,0.3305205978,-1.5522602604,-0.366921128,-0.9777251495,-1.2945236331,-1.4287563391,-0.8199271203,-0.8937421922,-0.2405813735,0.8755252122,1.1249318713,-0.8638529008,-1.7618436606,-1.3026081224,0.916539645,-1.8092282422,2.0166416146,-0.4188322753,0.2753107199,0.9232965878,0.7381870552,-1.01586723,-1.5192413423,1.1973450447,-1.1418567639,-1.0937229923,0.0790305273,0.2263802205,0.7743760159,-0.0352435684,-0.0733324235,0.616925082,1.6944924489,0.1829124554,-0.230810626,-0.8409404955,-1.040419994,-1.1103491586,-0.444068264,0.1058822284,-0.9125871907,-2.1786375612,0.7365601788,0.1707763625,-1.6653414543,0.3987544964,-1.1517000306,-0.3866847453,-1.2526481453,-0.5464264393,0.0096324616,0.2977791571,-1.2253374913,2.4650677716,-2.059101257,1.4580754907,-2.0158848381,-1.495823991,-0.9374714255,0.8317501644,1.3466158283,-2.4447603967,2.4383173653,-1.1178440285,-1.3216979169,0.4017600368,0.8834442057,0.2451634307,1.1030907994,1.9582199781,-0.1701463959,2.1279434644,-2.6585432411,0.5736014418,-0.6379173249,-1.1443198356,-0.9058746826,-0.4776211671,-0.2343509207,0.8761123786,0.5321890072,-2.5399295234,-0.341923698,-0.3912037332,0.8583688566,-2.7446722666,2.6598670305,1.0123602041,0.9649115634,0.1016698884,1.2124203639,-0.5702325268,-0.6333072643,0.7921338912,-2.035931166,0.6872069448,1.1164537336,-1.460909993,-0.4169111279,1.0349981216,-1.0244028947,3.1714267476,2.3229428588,0.452254341,0.8788591654,-1.1561794425,-0.3145588058,-1.4248818161,0.0495315506,-1.5276284548,0.1030247527,-0.1359343015,0.6236774684,-2.8660328254,0.4687872623,1.265798735,-2.1808023544,0.4880458339,-0.1176927043,-1.6956640396,-0.8944348748,-0.3371328719,1.6164883045,0.04553778,1.7673018915,-1.5304937792,-0.6580397368,1.263806121,-0.2232244755,0.0772600959,-0.5529573069,-2.0697214588,-0.4832197829,0.0396967385,-0.6281029777,0.6080671619,-0.4888168826,0.8304644655,1.3966934788,-0.9470427312,1.3677737187,-1.358857673,-1.2344870693,-1.0121644296,1.8256695754,-0.391076975,0.3389753482,2.0773004916,0.293268104,-1.2229359546,0.5036592628,-1.5524348417,-1.8095848906,-0.3377923651,0.6210327106,0.9943563959,0.9169414042,-1.0195925659,0.4818392998,-0.3003956847,-2.2791218478,0.3792633724,-1.1039878171,-0.9291918982,-0.7690845589,0.7239017417,0.4336353487,-0.0992207853,0.059703959,1.1906829638,0.6887623708,0.1650067978,-0.0462505872,-0.3058925151,-0.7121712655,0.2993552829,0.1899534796,1.2061804571,-1.0566384214,0.5843236186,-0.3602859688,-0.0450434813,0.3110118293,-1.7783660133,0.0245079296,1.7131018517,-0.4359515287,0.6763915757,-0.1299706922,-1.4095441674,-1.4216386394,-0.2254619588,-0.2183738851,1.2434417304,0.3271444895,0.695003722,3.0052978049,-2.1657517329,-0.3796203497,-0.3609431733,-0.0155335406,-0.7218816782,-1.122034515,-0.0425495617,0.8410343199,0.7380383762,-0.7540381023,-0.1233658914,-0.0236149572,-1.2935531113,0.5555724035,-1.0103965565,-0.3551412187,3.4637617428,0.2096883694,3.0031309682,-0.6664752952,-0.808458313,1.3961125125,0.897088673,0.9840833045,-0.5909044355,-1.7833843462,-1.536543846,-0.0161213728,-0.5731642332,-0.5986165877,-0.1025487269,-0.416521551,-1.0966215831,-0.3210939282,0.2364229519,0.5688532076,-0.2726200679,-0.3034555465,-2.7527966945,0.1221686166,-1.0025270705,-0.3924206637,0.3550505748,0.7495944316,0.7134923495,-3.2152211416,1.2446209997,0.8085567587,1.8894429534,-1.0753574538,-0.4059158963,-1.7771483219,-0.8137218259,1.3007050745,1.1670775308,0.9373586642,-0.100014945,-0.2240639877,-1.0773253957,3.4887652945,0.4006435623,1.5520759771,-1.6598063165,0.9643129373,1.0337973641,0.5345548447,-0.819561696,-1.1747701803,-2.5459157804,1.6125414858,-0.260275488,-1.6761503478,-1.0815790833,0.814153222,-0.0523891611,0.0865135031,-1.5295766086,-1.1770471998,-0.3235579738,-1.3909682857,1.7669534701,0.1463937574,0.2137533168,1.9860042802,0.1192204089,-0.0017449336,0.6238611847,-1.0067628916,-0.6894009882,1.7810446274,2.6342530987,-0.3035145803,1.4091396119,-0.2089398614,-2.007558152,-2.1413927808,-0.0119764783,-0.3482089658,-0.5736598128,0.9263895387,1.8271830028,0.3709453464,2.2119867906,-1.7416151758,0.6502957139,-1.7510135756,-0.0574933569,-0.1226545863,-0.7431438352,1.0672895148,-2.1926886081,-0.2642453325,-0.23219593,0.5082548727,-0.0237021314,-1.0006942455,-1.4185710559,-1.3279784028,1.5482968189,-2.1181411988,-0.8949271928,0.4146588307,-0.1263721831,-0.3408293197,-3.488183619,0.3916714868,-0.5120628201,-1.7884122216,-1.4469990843,-0.6479321452,2.9185794955,1.5428077152,-0.7912914536,-0.647023562,0.9487348553,-0.1250633617,-0.5458375036,-0.234929469,0.549190396,1.4504691185,-1.5777032238,-1.7564481785,0.7335126447,-0.5829788634,-1.3001317737,-0.0694722068,1.5216386108,0.1219323829,0.91412305,-0.4636601807,-0.8613845859,-2.1534736873,-3.7901051618,-0.187622309,-1.0730553024,-0.6509589618,0.7795280471,-0.3107804232,2.0776782739,-0.557086369,0.6381329042,-1.1458705602,-0.8930005263,-1.1889937661,0.7612463295,0.8762093004,-0.9110960219,0.0724101739,-1.0981061366,2.4027380794,-1.3123237129,-1.7184578981,0.333252635,1.5464872433,0.8815209983,0.0314946857,0.9655007828,-1.9413050196,-0.3367848021,0.2534994556,-0.9377086714,-2.8321507715,-0.4641385822,-0.49412068,-0.6656828998,-1.4473036418,1.6601967961,-0.4620063812,-1.4759050832,-2.1459306688,-0.9018093943,-0.7516410521,-1.3954064979,-0.9242648361,0.6886568316,2.3024523885,1.9384448138,-0.6068111907,-0.0874269581,-0.271746011,0.299321236,0.7729026972,-0.9103032714,-1.6323801829,-0.027664051,2.5815701559,-1.300998305,-0.7749916547,0.3913673015,0.829074101,1.8967487392,-0.7028835096,-2.5722611756,-0.7920949847,-0.4191702272,-0.8843138117,0.4361595984,1.2599613766,0.3602352304,0.7630901431,-0.4991030547,0.4514741962,-1.0752240251,-0.6167485621,-1.1595387078,0.4955258856,-0.6762183655,-1.4250283185,0.7214473734,1.1086757543,0.7459662826,1.4583073028,-0.9536679957,1.6158532579,-0.8108004504,-1.9234189185,-1.7464782611,0.1826409143,-0.377154517,-0.8465002058,-1.7009001508,0.5378984735,-0.7086401107,-2.2153551693,-1.217786901,-0.5944751189,0.1289513249,2.3982088019,-0.2289769277,-0.469261922,-1.1090260708,0.5774600556,-0.2393681716,-0.3318914606,-0.6103827023,-0.4949878494,-1.1683918008,0.8064521446,0.6379589069,-0.9236227073,0.4417711506,0.1952891865,-0.3856972953,1.4849013769,-0.792795805,-0.8710312426,-1.3921570731,-0.465982423,-2.8172318497,1.3707593408,0.0642069753,-0.3200515014,-1.2110651751,-0.7783918135,-0.2721410883,1.0912600786,0.4068338974,0.4821048736,2.3789411871,2.3637489653,-2.0072385976,-0.2268642888,-0.3456249724,-0.7946932986,-2.2087515874,-1.3284503252,-2.2974510505,-0.9133942987,0.192606873,0.5443190204,-0.7237369985,0.1547458668,-1.9557067061,0.9028497237,0.8510893293,-0.8751008039,-0.7102577547,-1.0645409385,0.6846756839,1.1574786106,1.2000942698,0.2165895941,-0.0925096012,-2.5603433677,-2.5958454681,-0.6014857827,-1.9409114173,-3.3261061472,0.8488571014,0.2932617195,-0.4257901615,-1.957208795,0.8212055989,0.821913414,0.8590704896,-0.7067145292,-0.0326227688,-1.7507145398,-0.2491159119,0.5472589588,-0.2408795972,-0.3189431092,1.6004478789,-2.4869391707,0.4628366032,0.1194312818,0.510402551,-0.1176293522,-1.0760101868,0.5724212735,-0.2716327738,-0.1694983876,-0.1703544704,1.0872219444,-1.328641483,0.5802482995,-0.4452959279,-0.656652081,0.7206162605,-2.1385410097,-0.0599352901,1.3906548219,-0.1052731289,0.4061426153,-0.7528211272,0.4703245308,1.8429860843,1.361660113,-0.8628182339,-2.0255270669,-1.3629225682,0.5242340547,0.8416839253,-0.6911331062,-0.5601621276,0.2372038727,0.1020683575,-0.4334112464,-0.4441919492,2.8741216379,-0.3583412292,-2.6191145387,0.4267788509,-0.0301832614,-0.7171955195,-1.2619456822,1.9236259229,-3.8489796545,-0.6932936312,-1.8031009054,-0.3195826625,-0.3092937746,1.8589474723,1.9491037501,-1.6682743689,1.3092085901,-0.6401800974,1.6111686645,1.0333464482,0.8150982077,2.073197771,-0.5894038781,0.9854637574,-0.7691664856,0.2326754587,1.6766503016,-1.3691196126,-0.945531343,0.0507247641,0.744444221,0.8138449318,1.9634867496,0.2402140001,1.8213596271,1.2387329809,1.1526656966,0.6974480793,-0.4145107508,-2.9820202282,0.7362561006,1.6017576546,-0.1940283173,1.1057889396,-0.689045257,1.1436059791,-0.5253875018,-1.5509643061,-2.1398068155,0.4491706835,0.2854347542,0.2910022017,-0.3432505161,-1.7961243899,-0.7445388743,-0.2504827444,0.0209946066,0.2316928688,-1.1819478848,0.9913703094,-0.0708586866,-1.4252772767,-0.2565144447,0.0604874157,0.5559749726,-1.7754680092,-0.042432054,0.4430415408,-1.3784050169,1.4601543437,1.9089272801,-0.890131096,-1.9821468252,-0.6621740126,1.2558052377,1.5762512385,0.6898554077,-0.4012434574,-0.4444058457,-1.3898100471,0.1784563801,-0.5159828394,-0.8611051352,-1.2241040549,0.496590636,0.8683440763,1.4509796677,1.3888596654,-1.8210311094,-0.0219390149,1.3545052498,-1.4070368202,-0.9845130933,-0.2343851017,-1.3849067514,0.1004663606,-0.2551598487,-1.4529541978,-1.0647616662,0.1889167428,0.1842633455,0.9762657754,-0.6109729059,0.7591843285,1.1448820015,-1.3494314549,2.3533744398,-0.2040316639,-2.281760968,-0.4914879094,-0.626927298,-0.2056705304,-0.0835105671,-3.4460798507,1.4934901078,1.1076705449,0.1800008622,-0.9365691241,0.2073662629,2.4673598416,-1.0091066427,-1.0834513393,0.6906504573,0.1802997973,0.2868231363,-0.5049692282,2.7714641952,2.2663280736,-0.9989522712,0.9526291671,-0.3720891612,-0.189553519,0.6431040849,-1.4560800852,0.4383407787,1.4484712683,1.064678425,-0.4316770032,-1.8845878575,-0.1272948233,0.9481261631,0.3467867029,0.6730611714,-1.1978821475,1.5300839019,1.9050251785,0.1471293154,0.042886479,-0.7185125102,-1.2539709187,-1.8763634484,1.2407333299,1.7522777883,0.9273441674,-0.7659351022,-0.1977391025,1.3878323708,-2.0122725358,-0.5671389237,0.6818367039,-0.6340659967,-3.4244532276,-1.910382825,-0.4949540257,0.5228979861,-1.1961179253,-0.9345076122,-1.4549659696,0.3316201005,0.485110091,-1.2522540135,0.1487247177,0.1483576168,-0.7438731118,2.0434668163,-0.4372149227,-2.1327743794,-0.0331665553,0.3177673503,0.711551046,0.9489645189,0.0890215455,-0.5736169862,-1.0981675505,-2.3080381913,-0.5162179636,0.0995089022,-1.5979353518,1.2636598168,0.6984323413,-2.6504452165,-0.3790514169,2.0111814468,-1.1267664213,0.5481350683,1.6436769026,2.6838924051,0.4413126264,-2.6751365186,-1.6090950807,1.8378851128,0.9205112057,-1.1901477771,-2.016523148,-0.9154020332,-1.3782983556,0.2481151361,-1.1238455652,-0.1242849154,0.3294848272,0.3736526018,0.6614427035,0.2976372027,-1.3097189903,-3.2620579534,-1.0953766555,0.5227271042,0.5348691246,-0.0508180271,-1.3487917895,-0.9157010609,-1.0304367707,-0.3144270516,1.8547989135,-1.0146950746,1.6137392963,0.3288091329,0.2665970109,-1.6780781807,-1.3131701319,-0.1075344356,-0.4481725054,-1.2372193491,0.0462477145,2.1171980118,-0.8212866275,0.9925229775,1.1139976924,1.5534090925,-0.8843607526,-0.0203520726,-0.4447602815,-0.3726739249,-0.4520333085,0.3826794611,0.9404300278,1.810144536,-0.9622292811,-2.3316342174,1.8970450975,-0.6951857127,-0.7994542179,0.9201798224,0.185977816,-0.049276984,-1.0541541479,1.2149847839,0.8624567475,-0.061385709,-0.2573846708,-1.022770052,0.3592516457,-0.9442495009,-0.4349765379,-1.7640447997,1.2151164002,-1.0796346152,0.0751669569,0.3355652943,0.4126926043,1.5612823118,-0.9162828437,1.6486871813,0.2011343877,0.8681449305,-1.8837310408,-1.4603911457,-0.2580156976,-1.6564126825,1.8052003787,-0.705139366,0.1625748212,-0.5147189449,-2.2355294184,-1.6518229487,-0.2688546893,-1.9549663262,-1.0972877304,0.3593199823,-1.814000499,-1.4917203202,-0.3450608643,0.7980841202,-0.1490740554,-0.9170355916,-0.3080149759,2.3860896135,0.264510531,-0.3554401931,-2.8975722736,-0.9265819678,-0.8589423243,-0.342449127,-0.6744713132,0.122371906,-1.5497127781,0.3640801184,0.4561780399,1.3729825694,0.7326537463,0.642897753,-0.0887249788,0.5413548782,0.0484790749,1.5586156773,-0.1542352171,-0.50908545,0.2290109303,-1.055916365,-0.2624792371,-1.0588368556,-0.4901973984,-0.1959789999,0.775796976,1.2183686443,-0.480473179,-2.6460093932,-0.256432511,-0.5660759788,-1.1811927299,-1.9224104121,0.8913125207,-1.1348310748,-2.1646054946,-0.4011486621,-0.0297610018,0.2800637887,-0.5170166462,3.6537364707,-0.7016014985,0.1715899609,1.2456677392,-1.3947919663,0.4763996634,1.5136545167,-1.8968035522,-0.0186478815,3.0651013032,-1.574837686,0.7416708154,-0.9781179788,1.380344674,-1.9991552076,-0.7734956578,-2.047455121,-1.4330310951,-0.3752928558,-0.8339689364,-0.5431916684,-0.0952103273,1.2405453419,1.617319848,-0.0281037462,0.5443739111,1.2738110004,-0.9098494846,-0.9682581941,0.7964291822,-0.2436625939,1.0575703118,-1.6954237622,0.1569600506,0.1126134942,-1.1151702068,-0.1527969783,1.108031318,2.0301590177,0.6520076862,0.8340393849,1.3021949885,0.3726913788,0.3160197155,-0.1583817508,-0.7355062231,-0.266796354,-0.2000361988,-0.9569067706,1.8074311765,0.2386544971,-1.2738672085,0.4165759366,-1.3762001476,0.6788767531,0.0665336676,0.601565929,-1.5428268316,0.8095871752,0.5443916193,1.4183875936,1.3118983104,1.4069068572,-2.0824408384,1.2370619657,0.1828393482,-0.8024209356,1.4271602893,-0.2103212091,-0.4170473308,-0.6812718664,0.6557931924,-0.8456448623,0.1047667158,-1.4521689302,-0.8141607672,-1.3444602223,-1.4361580885,0.2946619823,0.9010209186,1.0828301286,0.7140241185,0.1104887283,-0.8775175541,1.1935338239,-1.2416408243,-0.4320818642,1.0864152812,0.3406088344,-0.8097613736,0.8890047344,-1.0218637729,-0.6594358618,-1.3959073392,-0.4800723371,0.3601723735,1.9716986593,-0.263424594,-1.7560264692,0.1355648105,-1.3949380147,3.2993253867,-0.7962118161,-1.9231734836,-0.4599318983,-2.0051343895,0.3139219906,1.2155472141,1.1175911913,-1.7000947118,-0.670283562,1.5879096195,0.0697146948,-0.6365233231,0.9324795413,-2.0213362844,1.4096557939,0.9680180648,3.2254896143,0.8715281658,0.2890867293,1.4269197935,-0.0259134169,-1.9503611148,-0.5228722943,0.5340185008,-0.3118993795,1.3272245668,2.0911966857,-0.5217964425,-0.6022807248,1.5621196206,0.9308642451,0.9052434461,-1.4837920973,-1.5518279518,0.9006777621,-0.0428849583,-0.3681115755,-1.0262923756,0.4438923501,-1.6819079525,-0.4809492054,-1.2426474975,2.7297895688,-1.3321768602,0.3639895322,0.8498465629,2.2490555329,0.1034738193,-1.4996372115,-0.7004266083,-0.7076451698,-0.4155800284,-2.3094410099,-2.0497108675,-0.320186439,0.8551022079,-1.5383508028,2.345733819,-2.5830844341,0.5926697901,2.0038823796,1.3556194794,-1.0198873996,-0.2035786672,2.7531408905,-0.2534190618,-2.0189193896,1.1007864481,-1.0258041357,-0.5083528861,-0.8668115059,0.9194698788,-1.1900571931,-0.0223345772,0.3195439135,1.0881704573,0.5599036119,-0.2397460401,0.3756153603,-0.695928172,0.1517484448,-0.310865316,0.3846637726,1.0586826896,-0.4111598224,0.8566617204,-0.6457637538,-0.7592154542,-0.6488558905,0.7218044066,-0.0107255448,-1.1884135953,0.5021197325,1.4498290723,-0.2613701786,1.2618296366,-0.5105008965,2.0991348851,0.6488073145,1.4131437412,-0.2634648122,-0.8642345442,0.2104504969,0.1276645446,-1.0522812836,-0.8496507979,-0.8006965923,1.2534812319,-0.4727717227,0.136956403,0.1816804304,1.6657105442,0.1204885193,2.5269219597,-1.9129806071,0.8469817524,-1.1599988907,1.17509769,0.4612825263,-0.2678270582,0.9049538967,0.4218227816,0.1099417358,0.2064220679,-0.3886960578,-1.1414583076,-1.418185695,0.1508618779,0.353880342,-0.3321236623,-0.240821306,2.742447535,1.6098027957,-0.2673279868,-0.7256228679,-0.9083105804,-0.257971745,-0.805136318,0.5213063832,-2.4057821355,0.8012815301,-0.8328247603,-0.8553639743,-0.4591211745,1.6683708988,-0.3165591207,-0.9346105996,0.7612783055,1.2215222119,0.6532978413,3.5900352801,-1.4515859406,0.7808937372,-1.3729166105,1.4781487578,2.5773184626,2.3920922694,-0.0880791278,-1.2904693034,-1.3230347642,-0.4398186451,-1.2106306272,0.2891298309,0.249640444,2.5086810949,-0.504099167,-0.5086219727,-1.5514268486,-0.9802958967,-1.0234801851,-1.1285474099,-0.3898069067,0.02221376,0.4827829629,0.1088595866,-0.6819756661,0.3760057895,-1.4476058779,1.674131227,0.1393969014,-0.8150062692,1.9586535526,-0.7220928978,0.8329520491,0.2940520923,0.2105924692,0.8287673614,-1.5344498504,-2.0639563051,0.2312109873,-0.5379964882,-0.4890474117,-1.3289703294,1.3120712907,-0.5286670837,0.8450861936,-0.0869208574,2.547466599,0.9840970684,0.9779134205,-0.6534258183,-1.2167784959,-0.6597139852,-1.268891926,0.5226785337,-0.2033837783,1.4368112648,0.8524730622,1.0483394742,1.0531167339,0.2496414995,0.3784102364,-1.0833104332,1.3633752486,-0.2547626971,-1.0885320276,0.8260136,-1.3586626542,-0.9940557764,1.0934244344,2.0816691914,0.7885448879,0.4832321781,1.2803266551,-0.4895104723,0.9893008658,1.5863122514,-0.2706390483,0.2205859952,-0.456093243,1.2946029377,1.6260065065,-1.2840393955,-0.8851065177,-0.9446176706,1.811356306,1.1926155816,-0.1710640967,-0.2527624737,-1.3994073288,0.1194366239,-2.3501681983,-0.8920197541,0.9332075692,-1.0676546722,1.5239800125,-1.1955973528,-1.8189432957,-0.1872677422,0.1973419999,-0.2722085929,-0.4462352202,0.8888388517,1.5117889764,1.1916938289,-0.3025795058,-1.3706692471,-0.6003596104,-1.5730866791,-0.902691425,-0.4345571299,0.5528597567,-1.0595895498,-1.4837843689,-1.0278488731,-1.1827844983,-1.4076882081,1.7965854846,0.5017486209,-1.1025820831,-0.2250524253,1.2081792629,0.3723547647,0.7831182548,1.0787458456,0.2006461606,-0.0875730713,0.2775298962,0.1940037706,-1.5606936663,-1.1675764319,-0.0827902136,0.0873082255,-0.5879463841,0.0729655371,0.025190328,2.7319295559,1.3550372149,0.2488414733,0.8358218425,0.6001277477,0.9152598128,0.5416423271,0.3883820805,-2.4018714102,-1.0808015667,-1.2037584207,3.1369626668,-1.952368867,2.233667794,0.4295073655,1.5903453408,-1.4280788927,-0.1081021275,-0.6385722827,-1.6282421786,-1.5951189543,0.9422319815,1.2700223156,-0.8372814376,-0.5661838516,0.9337494794,0.5667219857,-1.0730978755,-0.8136321034,-0.2896003757,-0.4238533767,0.8715450376,0.0856363743,2.2440431865,-1.5704141483,0.0632567695,-0.1922850397,3.1655680399,1.5953858309,-0.9946491077,-0.7132514603,0.0169171752,0.8303541715,-2.0986254762,0.68156503,1.0968584771,-0.9326365254,-0.2683046004,-0.5344326854,-1.2455397804,0.0279080673,1.7733968385,-1.7083957212,-0.0295508571,0.6437287992,-0.2576694828,-0.270529445,1.218661331,1.9303823762,-0.9762574196,0.2320437049,1.0752186712,-1.5269454521,1.305964472,-0.6943797929,-0.5790561177,-0.5391852083,1.6326761459,0.6063476806,-2.5927036355,-0.6052493014,0.7317921594,0.9397896705,0.5547438178,-0.8243928932,1.2920363124,2.6496522736,-0.9893703442,0.1517457812,0.6222581807,1.9636213655,-1.1680219188,-1.6982356087,0.3791771783,-0.8052688671,-0.930257365,1.820496407,-0.4384282649,-1.2669198833,-0.9132056944,-0.3314040663,0.83902732,1.0999184371,-0.396778353,0.219607609,-0.8200729242
   -1.3436287544,0.138963096,-1.2828269707,1.1899127542,-0.0619517881,-0.3927245842,0.1379543326,0.7324148585,-1.1211680783,-0.6753560266,-0.5244321633,1.0407822875,0.472642918,-0.0723703247,2.6003383725,-0.3713768351,0.280812024,2.4981782826,-0.0057247841,-0.1970774218,1.1768050582,-1.1013541664,-1.1259059166,1.0071600518,-0.4161361594,-0.7655138948,-1.1934078457,-1.2834797101,-1.4410496498,-1.0880962693,-0.5609915723,-0.0964518959,-3.0827578144,1.1106446416,-1.7952974918,-0.323491183,-0.2440740593,0.2299445767,0.1696898327,-0.1008098258,0.4342668931,0.6658872862,3.5661626842,0.1730645773,-0.6914524485,0.3929926793,-0.4101277643,0.5837516599,0.8555051503,-1.7036585872,1.1449083223,-0.8062573245,1.5897211318,0.8331114597,1.5205922165,0.1528532818,0.2334555642,0.1657285566,0.4210466031,-0.7827120596,-1.7394103769,1.182500395,0.3139068158,-0.0557784148,-0.3682921215,0.4230552463,-1.6498367809,-0.6817860725,1.5610562042,1.1639244372,-2.9952030793,-2.2930176474,0.9976859791,-1.6627523073,-0.9481564063,0.4430284079,0.8185575615,-1.6577959342,2.8318902959,1.2200990348,0.9941000463,-0.4851228399,1.4348188195,-1.290947429,1.20994382,-0.3989516723,-0.1453341255,-0.6917653628,0.5634551094,-1.4938978113,-0.4204609528,-0.5822351436,1.7008365752,-0.2207900323,1.4609911897,0.228698912,0.9734470634,1.3194520525,-1.1805633571,-0.1487114407,-0.3309614334,0.7012150166,-0.1413649042,-0.2316769514,1.1594668937,-1.7871187983,0.2700261516,-0.7881083747,-0.5119683562,0.3739290186,-0.6489582658,0.417861352,-0.3973061408,-0.8304506383,-0.1305669209,-0.8639601321,-0.4888314439,0.0441455963,-2.0345646421,-0.1055020687,-0.831824105,0.5228108536,-2.9066711531,0.940353413,1.328989113,1.250812369,2.0751354045,0.531585548,-1.1873743708,0.4139101154,-0.5541173958,0.0631836525,0.734641074,0.5567841671,-0.7653400345,-1.8457051735,-0.7738667209,1.7586195036,-0.0669490677,-0.1756973847,1.0016489942,-0.2203347544,-0.6816049817,-0.9296206318,-1.021138674,-1.3865575831,0.0582366809,-0.9873832913,-0.9966179994,-1.3831776282,0.2167723566,0.8364323361,-0.6572498266,0.0374228887,1.0583349421,-1.3156011499,-0.6483508793,0.3148362518,-0.0475686991,0.4049673289,0.3424969474,0.9382859157,0.7427786155,-0.5399398282,-2.7424007209,-0.7608209638,1.5799393987,-1.4346896591,-1.1203019891,0.7515553385,-0.4075237504,1.022969468,-0.847268628,1.2697301733,0.6927448088,-0.2838516739,1.752767347,0.9454066866,1.1014680544,-0.0335788033,0.0814993162,-0.1601455189,1.4709023877,-0.5279554968,-1.7557382631,-0.0236130335,-1.6230840259,-0.1212795529,-1.0041616345,2.3165969624,-1.3127549291,1.1465467868,0.7143197858,-0.7418764015,-0.7507453032,-2.6095662593,-1.2280655787,-0.146826939,-0.5651812763,-0.1666749718,2.9495078347,-0.4139518137,-0.3705885801,-1.7749965638,1.9279199063,-0.7322236779,0.6361803042,-0.2402024755,1.2031798796,0.5578486524,-0.7365881425,1.1224361603,0.5142635431,-0.2034571,-0.2441157116,-0.0626270206,0.480167559,1.3820772075,-0.4280933199,-0.5055737759,-0.937506024,-1.0651882462,-3.1989569951,0.8158490654,-2.0871885425,-2.4235470056,-1.5416989342,1.3087806711,0.485342134,-0.1802771068,-0.4630194484,1.6204476185,-0.480909973,0.5729193656,-0.5505016578,-0.8832626579,3.1504486975,0.2339446028,1.4131286198,-0.3800898464,-1.0924699617,0.0044264426,0.322617167,0.4650625855,-0.1787155099,1.6818913587,-2.2962143901,-0.7815416901,1.0196656825,-0.2826020319,-0.8483552097,0.1822130681,0.0026491578,-0.6524060559,-0.8835849725,-1.3084127248,1.0687131628,-0.4831642047,-2.2871206673,0.0719384615,-1.4493376896,0.7821549262,-0.550005081,-1.0864781388,1.5988792495,-1.1079523365,-0.9364025008,-1.2608712563,-1.8505923754,1.6366267305,-0.1552538894,1.2348774506,0.8306723358,0.7623195314,-0.9075556508,-0.412646807,0.2472766716,-0.1629168187,1.4957226779,-0.6961974473,-0.8762923282,-0.4705142996,-0.6356384219,0.0972306703,0.5677952633,2.6038411152,-0.3202205259,1.4396099368,0.7059850415,-0.9545301969,0.407763954,-0.6759252056,0.3873633534,1.9637332571,1.0134941887,1.4361401023,-0.0840551162,1.1380201994,1.5505537305,0.3397996895,1.5975876532,-0.854881182,-0.7505453031,1.3550722508,0.744827915,-0.809603613,1.0209501102,0.8250431967,-0.4136462881,1.497558225,-0.0278450379,-1.1657182367,-0.2711552049,0.0910207114,0.9561616308,-1.2139097798,-0.0189344403,-0.7905687432,-0.3854069608,-1.1864118402,0.982315895,-1.6035438939,0.220636789,-0.443849684,0.2395541442,0.3313315411,0.8549330103,-0.0749871673,0.1798248337,-0.8429112455,0.3324082676,4.0878187985,0.0203430791,-0.5867394632,-0.0662585373,1.6567174308,-0.7543865105,0.1727236915,0.5954954251,-0.0676310714,-0.5120791667,0.7368484295,-1.7971281756,0.6396097495,-0.1286247452,-0.8231096876,-0.763650815,-0.6306447922,-0.3825822268,1.3790805091,-1.0856325732,-1.4014207368,0.0746334949,0.2080637217,-0.2821084767,1.2943088801,1.5927195229,-2.1156582759,-0.6276865581,-0.9352925772,0.7433485495,-0.0279468211,2.5778865298,0.3806283915,1.7514927853,0.6129594088,-0.9435901593,-0.8402757011,1.9147783567,-0.7610363403,1.4006157716,1.1828040765,-1.6623940164,0.2839689986,-1.1731039513,-1.0184710103,0.2222933404,-0.6967015039,1.2444791593,-0.3653414783,1.1691695293,-0.1616163127,-0.0305351908,-2.0760438466,1.3474269655,-1.334633164,0.3094833083,2.0128475484,0.3755090368,0.0091367971,0.0262704469,-0.5826114298,-1.4850254031,-0.8922777904,-0.5000373983,0.9366789364,-0.1405998494,-0.7314794288,1.3364251807,1.1568929494,1.0551842784,0.8143831167,-0.843585757,-1.5375250428,-0.8710897808,-0.2206606109,0.0403700212,1.1029566901,-0.998786059,-0.2546407717,0.1658956784,-1.7831732819,-1.093426763,0.0082719332,0.5612813282,-2.2898722927,0.1215315538,0.2200071436,1.2166536595,0.6859336686,-0.6903407639,0.4784554765,0.2356183251,-1.2410077676,-0.1035870272,2.0410238419,-1.7064618309,-0.5275152064,-1.0780207395,-0.9421651577,-0.4461254376,0.3417809458,-0.5500535549,0.708547511,1.8034938269,0.2381631553,0.1032886743,-1.000979311,-0.1405923419,1.4404366794,2.0297892822,-1.0026339381,-0.3635645957,-0.9547557979,0.5593476943,-0.1970177739,0.0271824605,0.056488917,-0.8502683499,-0.5692613397,0.2325702758,-2.6091137953,-0.718276962,-1.80019069,-1.2046989537,0.6956335116,1.252496488,-1.6886822855,1.1483568522,-2.6450833632,1.5892149432,0.9303825577,0.1593517078,0.1848180415,-0.045798712,-0.553319735,-0.6612231417,0.2868866334,-0.8374203961,-1.1485660347,0.240904527,0.2653867444,0.6779751279,-0.5368578076,-0.2621346851,-0.5045827951,1.2578300894,0.3967512893,0.7982375949,2.260838066,1.5359008272,0.7640035675,0.6683936581,0.8520349008,-0.0275519959,-1.2332353411,1.0809370338,1.0831682887,2.0755555573,-1.3397542619,0.7423103784,-0.2072409187,-0.8256323676,1.1049445126,0.2024490056,-1.422058428,0.1506822081,-0.3321163513,-0.2793438424,0.0069909347,1.2782081955,-0.2262300842,1.1375552014,0.0067059787,-0.5324402102,-1.0728631593,2.5883927599,-0.6230574475,-1.2726188171,1.1857953584,-0.1053003974,0.2324392522,1.8778351919,0.5320641863,1.5637589453,0.1865053354,0.856760862,0.0484294872,-1.6218395099,-0.8408941819,-0.2044967322,-0.0408110931,-0.8449230294,-0.4669748712,-0.4735433735,1.0625779277,1.315193906,-1.078729317,1.0965603221,0.0337213105,0.3890538811,-0.3332149318,0.2572627495,-0.9785322911,-0.6862182716,-0.3306800931,1.1808585912,-0.7499632544,-1.2799164075,-0.2464147076,-0.0025031068,-0.6403865582,0.8014944422,0.997734742,-0.431778237,1.7109098983,-2.0287435546,3.3010302224,-1.0600958699,2.5190049919,-0.8891747916,1.7351907476,0.9309257802,0.6340519616,-1.0558020702,-1.3856891954,2.3175170814,-1.1724856896,0.8929485532,0.0168955767,-0.2719886832,-1.2054217317,-0.3472926345,-0.2287995054,1.0237836645,0.2921466379,-0.0773799712,0.4718962454,1.1470657566,-1.0886416809,0.8220759095,-1.3278803836,1.0402293992,-1.4370891591,-0.667201691,1.5426662933,-1.4450986252,0.3330549113,0.0128119924,-1.0620287133,0.063812265,0.7963733608,-1.1119094133,-0.9890998902,-1.1981719713,-1.2103997914,1.123135672,-0.2977785913,1.3436613331,-0.7462385914,0.1773221104,0.8365050428,0.2259538468,-0.0426884933,1.2344095359,-0.7560515338,0.1013194508,-0.5176547033,-1.3723011692,-1.5405726998,1.2250184342,1.4112283978,-2.1701927453,2.0149976491,0.2390486137,0.5205666173,-0.1532510772,0.0018722259,-0.8182406984,-0.5347585543,0.3630021094,0.3430171572,0.676285167,-1.1797096606,1.1699365989,0.9018960832,2.6578610222,1.0582714783,-0.8869216222,-0.8085903669,0.9903389278,-1.3834486408,1.1375516158,2.2965216685,0.0444520377,0.956507672,-0.3878531677,-2.5797540172,0.8117983356,1.0937028705,-0.3895638121,1.5224868517,-0.2570381304,-0.8911511285,-0.256411404,-0.5828619888,1.4204026951,-0.4541239149,0.9491384816,0.1562268611,-0.7689195692,-1.4575776855,-1.5629918906,-1.8738615516,-0.1476801432,1.8597270705,-1.277290551,0.2820520919,-0.2954745964,0.4332749675,-0.6352146469,0.029963371,0.2851935305,1.4992311774,1.3078299827,-1.2947907643,-0.6089914677,-0.9680150036,-0.1384035538,1.7868879669,-2.6913239726,3.6551873357,2.2787678513,2.1052317554,-0.9577781479,-0.1656778007,0.6191699182,0.1721705647,-1.3435079907,-0.3273395983,0.5492293292,1.83282399,2.6223565082,-0.0144718733,0.0554545389,1.2144698315,-0.4409136741,0.2523139586,-2.6870324393,0.3958271091,-0.2051600861,1.8788174304,0.4049805957,-0.373063195,0.6486716785,-0.69365008,-0.63568516,0.6976979229,1.2994780254,0.3298845959,0.9436940669,0.6924431093,-0.794465074,0.8640341212,2.2892262366,-0.9925201495,-0.8874938105,0.5581327688,-1.0246753548,-0.2090470005,2.005007307,2.4967911144,2.7245632637,1.3698282509,0.5833828231,1.4925747211,-2.5765579419,-2.5956380131,-1.1137906688,0.2636629471,-0.0972324246,1.0878285986,1.1933602819,0.1811870732,0.6293467556,-0.1918394484,0.2472910323,0.9156608102,0.6265461824,0.5139966188,-0.0792449896,-1.3515956778,-1.9305062982,1.6830185031,0.2418135643,-1.2614371674,0.0083178765,0.105543571,-1.3364418946,-0.1296147365,2.0194388645,-0.555144336,3.3492244335,0.2528369043,-0.2935727995,-1.1384486784,-0.3623133767,-0.5670522546,-0.2832481657,2.0387321859,0.5630841295,-1.469574143,-0.6671741661,-0.043151844,-1.5176906087,-0.6378965748,-2.189317003,-2.9525805786,-0.0401153075,0.0802996748,-1.0113733484,-1.772504233,0.2556327159,1.1907955154,1.0731745643,-2.3615976791,1.4529299892,0.4746213892,-0.6001089194,-0.4432414528,-3.5237175531,1.1694765721,3.5044777766,-0.5865342548,-0.6842474857,0.6521754849,0.6473329111,2.5985198318,0.6636301719,0.944646375,-2.622056589,1.6111769332,2.025626989,0.2737767259,0.0665302984,0.3686137157,-1.7680844345,-0.8323668886,1.0261869364,0.3778000509,0.4114445285,-0.497814591,0.2451242415,-0.1889499755,-0.722356738,-1.3800790857,0.0507299667,0.4316570791,0.0135079153,0.1617046368,-3.0687446523,2.0035479921,-0.161331977,-0.4054338503,-0.7909645941,-1.2431016368,0.1571842252,0.4206039796,-0.8013879606,0.454256984,-0.2267953877,-0.9213531078,0.2755820425,0.9363574395,-1.6193429818,0.6105453247,-0.3462687013,1.4506935216,-0.3546651663,-0.2966861018,0.0823737021,0.3948063407,2.5722997422,-0.4884568528,-1.1496179719,-1.5916414676,0.1292546942,0.2651033389,-0.2963101087,0.5782716226,-0.051947196,0.0193073646,-0.5034079786,0.0236052198,-1.1310834796,-0.9729469468,-0.1000416583,0.2018735432,-2.5001778944,0.8391190303,-1.5286016151,1.0527958812,0.2815337522,0.8279194518,-0.0677213183,-1.2877577189,0.3101300574,1.3136254135,1.3229866557,-0.6165342803,0.0235690239,-0.0700570112,0.7420488431,2.933368232,-2.8990155332,1.2459776852,-0.0953338772,1.2934740137,-1.0246539219,0.0063465964,0.0210602805,1.2926836938,-0.3498420231,-0.9626249043,-0.5676304898,-1.1576783018,0.1987489139,-0.2612849744,-0.5801769551,1.8425951302,-0.918317043,1.6962607661,-1.5346945307,-1.1732931986,0.5156488337,-0.6354551525,0.4261045928,-0.6047102098,2.077463683,1.1480098694,-1.1511341302,0.8864764196,1.0647198503,0.7148333557,1.8737649496,-1.0204907345,0.4501737153,-0.5742222764,-0.1767064287,1.3034002114,1.1988829331,-1.9277508502,0.3235537293,-1.7277450189,-0.4245352964,0.0219030809,0.9863904819,-0.4705855179,-1.5879354583,-2.0401589934,1.988836469,-0.4471588975,-0.169771893,0.2488239258,0.2823274669,0.1488684189,0.9716800334,3.709789937,-0.2179840963,-0.757286559,0.0898516904,-1.1950809648,0.4585805113,-0.1066284102,0.0610874825,1.1665597395,-0.4967880696,1.5335699422,0.4243696235,-1.7166440782,1.4259653799,-1.5314166375,-0.2621363327,-2.8238218672,-0.3402669908,-0.5314588415,0.4893377889,-1.0624026108,0.0465275762,0.8541873309,0.4814541777,-0.3201796544,-0.3784109617,2.1427023141,-0.8427778038,-0.7788538183,-1.1116806073,-0.6397635744,-0.2398421481,-2.7455990164,0.0065484456,-0.8665388415,2.0729676184,0.3284981068,-1.0754116554,1.4924247452,-0.4001198856,-0.8623861121,-1.8582770869,1.060143561,-1.6087670514,1.4485177869,0.8338015092,0.0638183598,1.9703235721,-1.24263527,1.4298987991,-0.7959991176,0.7022325322,-0.5408286846,1.4444429074,1.9337768238,1.105564192,0.9213124754,-0.0482255599,-0.1685099886,0.3881180102,-1.5168991411,1.8426196902,-1.3830146577,1.2027570293,-2.772458442,0.6971236911,-2.2991171123,-1.2137649287,1.0236041634,-1.7929977363,-0.8908675946,-1.6617369227,-2.3078242487,0.8989894135,-0.6018363133,0.0572015446,0.4140490019,-0.8101911936,-1.2418042463,-1.5513755727,-0.0927513723,-0.0225363565,-0.2952565556,-0.6763630853,0.05626565,-0.1542656784,0.3027885521,0.57257773,-1.4214861058,0.9239161022,2.3106843379,-1.5195360574,0.0346933808,-0.5070962943,0.475892329,-0.8493787181,0.8139244837,-0.2395953254,1.4595583554,-0.3241166401,-0.2000976357,0.6701077085,-0.6213662909,0.6614072153,1.0619941263,-0.0418557996,-0.1216638524,-1.1328127217,0.6570803907,1.0324182907,-0.2133880313,0.3019335471,0.199725205,-0.5869882985,2.1608797728,0.665599188,1.2688182823,-1.5497793517,0.0871910882,-1.8103885526,0.5968728475,-1.0052217815,-2.4926199502,1.83507766,-0.713478504,-0.6398900951,-0.9373331674,-0.3107381879,-0.3710687498,0.5807839823,-0.4371366075,1.2941726857,-0.4234869403,-0.149402767,1.693673799,-2.5035546178,0.4679950237,0.7914106514,0.172843191,1.6635718176,1.0925686753,0.7507631463,-0.5149256072,0.6477144971,-0.1523589565,-1.3139317032,-0.2871556074,0.9664864718,-0.1081178016,-0.2544924324,-0.3125815509,-2.2067568592,0.8484275418,0.6700928577,0.2689822257,2.2134781513,1.8471025847,-0.2542608727,-1.069277614,0.714724817,-0.6973435054,-1.7705031296,0.5181488507,-0.030432876,2.185848191,0.2744649552,0.7551773301,-0.5296435213,-0.4528868431,0.0122794581,0.9311793195,0.5461697245,-0.6668680087,0.5747324538,-0.9494880242,-1.7755263787,-0.1563409218,-0.235933841,-0.2851740682,-0.5938459206,-0.3950158412,1.7935692015,1.6307618299,-0.7711909134,-0.6018004278,-0.1029011183,-0.149719806,0.4965887819,-1.1431440725,-1.685737208,0.8485258226,0.279683681,0.0497531206,-0.010075783,1.7869848322,-0.1480994732,-2.9324644523,0.3317054605,0.4460079078,0.7378229437,0.1732644123,1.5279346579,1.4019047972,0.4356666627,-0.4546423065,1.876772416,-2.6964348741,-0.4726029039,1.0890298972,0.2791472638,0.3009960412,0.2272597516,-1.4207165723,1.2350297937,-0.8711479,-0.9530642855,2.8240563378,-0.8997938801,2.0446632645,-1.147587456,1.1677280385,0.3191675972,-0.1166067499,-0.0593850936,-0.0576061084,-0.1361442678,1.4311250903,-0.1932078972,0.2351999348,-0.3552366855,0.4671335156,1.41349728,-0.9884103031,0.5594877925,1.315781146,1.4812278774,1.5631917227,-1.5191700549,2.8094833272,0.3252084882,-1.2294244074,-0.1123462855,0.7252746256,0.733625639,-2.5316018275,-0.1429968872,-1.2350052579,0.9612837201,-0.5359267605,-2.4978432151,-1.9218162779,0.5546107502,-0.6343845271,-1.6492924809,0.002835056,0.0177037998,-0.8710029326,-2.9391486075,0.8927610494,0.1076430888,3.2986905555,0.4977323395,-1.3718305977,0.1156177656,-0.5049508854,-1.1855807166,-0.3371186325,0.769403796,-0.1926289045,-0.8215139026,1.258778738,0.6264512983,1.0992730992,0.9863250225,-0.9290966938,0.4517216299,2.1643785557,-0.5675092451,0.901866623,0.2358753458,-1.1221864951,0.8384373794,0.8415975495,-1.6133202724,1.170046368,0.3713575253,0.7380783348,0.4746438764,0.2821344081,0.0349328693,-0.6171326837,1.3933860859,-0.8393543638,-0.4776344475,-0.5602144356,0.5193540152,-0.0366279921,0.0640565919,-0.6174553642,3.7654513568,1.0089387595,0.1498201189,-0.6580858105,-0.1291984185,-1.3751869361,0.353897298,-1.6029198636,0.8622461846,0.8413506564,1.6492068526,-1.8525036226,-2.5311565397,0.1248763238,-0.2500707225,0.0035239292,-1.7712233376,-1.2821087223,-0.3208844929,0.93177133,-0.2779921475,0.406882734,1.7166824146,0.5707946652,1.536402168,-0.4748570009,0.1287563669,2.1325519008,1.7474880365,-0.9386112917,-0.879743518,-0.0977416896,-1.6514503855,0.8156286591,1.6023388558,-0.2455582146,1.0004509946,-2.1381745129,0.4213628929,1.0987703874,1.5613834862,0.0457207328,-1.1963008948,1.3432802939,0.2037837344,-0.1682231867,0.9102986649,-0.1033985863,1.9608922329,-0.6064391028,-0.7877525252,0.4869189383,-0.8882759405,0.1645187103,-1.7346967114,0.3489733449,2.9727463217,-1.2322775567,-0.6484730703,-0.2695851969,1.7210805025,0.5965306038,0.8535740002,0.6560489293,1.1004578588,-1.7829032366,2.3702673149,0.1807649095,-0.3020819672,-0.4193030737,-1.0601550219,1.3879037728,-0.9477947299,0.1100637915,1.3908626773,0.3280843923,-0.185928676,-1.3769140818,-1.3565682025,-0.1508654833,0.9600296946,0.0329622122,-1.0928866637,1.2483557484,2.2385457752,0.5704833996,-1.9292059604,0.0214315612,1.7791887802,-0.2907303091,2.2978657929,0.0578577961,0.8794076994,-0.9491105331,0.2870614464,-0.8756611429,1.0380472221,2.856751305,-0.3790343487,0.6700107112,0.7359781478,-0.874468685,2.3906824601,-1.5261815861,-0.1156456552,-0.7270206505,-0.3605549832,-0.439498331,0.0755668355,-1.2958908022,1.4582247372,-0.0483695438,1.5312356537,-0.7749494089,0.3764064267,1.5069254102,0.2762897623,-0.5814377827,-0.6556714515,-0.5095805023,-0.5760659179,1.2298878359,-1.8183827456,-1.08061936,0.0385350955,0.2619398323,0.6288918581,0.4499418661,-0.7742841405,0.6781347831,-0.2474052822,-1.3030584417,0.5284722125,-1.1352057008,1.3403663856,-0.8438991684,1.0772966045,0.7703354066,-1.8850373553,-0.6238014853,-1.5023794632,-0.1122718907,-1.5157500114,0.5234686789,-1.8367780596,0.2665356727,1.6962390426,-2.0854392711,0.8959650994,-1.3419015833,0.6834388346,-0.5150036919,-2.0644673119,-0.796354649,-0.4483722547,-2.3991295917,-1.0986833176,1.9537345454,1.8219882415,0.6224842166,0.7053510767,0.1692629189,0.5397397533,2.1647696562,3.2735020477,-0.7390875986,0.6176211481,1.2740653854,0.5443779509,2.3644494614,0.0483463189,-1.929780975,2.2197281743,0.6418223521,1.3949201165,-1.5533531164,-0.3715357582,1.6608242541,1.1078188485,-1.8676691227,-0.8611056158,0.0080455079,0.062002082,-0.724080258,0.2307469259,-1.2291474144,0.5959255994,0.0610591842,0.5347990764,1.1683817777,-0.3672432131,0.5015269331,1.2526986016,-0.8965848796,0.1464757747,-1.314220843,-0.9013094932,0.7780252214,0.6772069017,0.7237422809,-0.4656723056,-0.4444417076,-2.0023273643,1.4844178959,0.7889286374,1.4115305497,4.1739642345,-1.1086501863,0.3494331691,0.4778007396,0.1091706882,-3.2339447626,-0.7291724362,-0.9610263108,-0.360393152,-0.4302891424,0.8745816752,-0.7112069839,-1.3167685887,-1.3892498271,-1.1232133557,-0.004797294,-0.6986754821,-0.2792321914,1.1735050982,1.5661205697,-0.2492682592,-2.4980886205,1.4031138051,-0.9574590547,-0.7567232976,1.0558039658,1.8501713172,-1.1191001551,0.8676389806,0.8975130974,0.7345197471,-1.8058912378,-0.6522780967,0.3269347145,1.5884596005,0.0669781839,-0.2112367317,-1.091114076,-0.0535530551,0.3431364395,1.4326875895,-3.122359919,0.1911866619,0.9242057455,1.2147956934,-0.0158183836,1.5958621576,-0.697865009,-2.487747746,-2.0057413252,-0.2218782807,-0.256651245,-1.1872317371,0.0832090511,-1.9175362916,-1.0041875397,-0.3711261943,-0.3521312021,1.5966206304,1.663778087,-0.0470375369,-1.6572303947,-0.8299884574,0.3724231905,-1.2275270747,1.076028446,1.3399971058,-0.3805700157,1.7115782095,-0.7305429152,2.1172554102,1.3506886632,-0.3248483277,-1.4546445976,0.0279657517,1.3562756402,-0.0759462884,-0.0298353482,1.9784324092,0.3381161573,0.6531038982,-0.4135318186,2.4725366199,-0.9555593672,-1.115321737,-0.1533041531,-0.4135777837,0.8647851973,1.2551111214,1.5805612669,-1.8627072624,1.213384517,-1.0572138727,-1.2933164368,0.489276679,-0.8761137428,1.8566156667,-0.2255526059,0.2133966546,-0.3085520127,0.3189048579,1.0151739622,0.3902243654,0.5454682671,-1.2402026343,0.861617832,-0.9421313365,-1.9724703393,0.5887626294,0.2252817336,0.5090295248,0.2070299249,1.8914202655,1.6023557272,0.9843727464,1.0083633755,0.7679186218,-0.2773592675,-0.6564590873,-2.3096186476,-1.5756990553,0.7080027311,0.5375498384,0.0336769615,1.3931256395,-0.5657878554,1.0254759804,-1.3927583518,1.5741091973,-1.8423946237,0.4790123534,1.4259502493,1.1795492339,0.7402856891,-0.1446345839,1.3316470206,0.8536487782,-0.6219146893,-1.0252689113,1.4573549455,0.0966456602,1.730009751,1.958401265,-0.4796131114,-0.3368308755,-0.8217875204,-1.3225218694,0.1216060535,-0.2847677445,1.7194215962,0.6149853884,0.5282539914,-2.4093137168,1.5545322824,-0.086953878,-0.4952740676,2.2515832911,-1.7988944284,0.1082939322,0.3968122363,-0.6762127633,1.9121828514,-0.0707150717,-0.0563087251,-0.9172877285,-0.3571062356,0.987871395,0.2677146315,0.3950149641,-0.3940328577,0.5075718326,-0.0485240759,-0.2481692099,-0.2933382122,0.6705802981,-0.4179503619,0.2288543729,1.9922848257,-0.6550509558,-0.1218794706,-0.3793770563,-0.8379396858,0.0162750066,-2.9466935431,-0.2995888685,0.7344044852,-0.5282086164,1.3107046407,-0.637962793,-1.1781691275,1.0492484554,-1.0879490819,-0.6287304472,2.1419098443,-1.1848358702,0.0561330626,-0.0869843994,-0.8029709605,-1.411628835,0.7696781674,0.2353722946,-1.3587022589,-0.1821064981,0.9470118793,-0.7688316587,-0.0908795144,-0.9098460655,-0.3856148969,-1.899241084,1.1991744735,1.2489127376,-0.2318153962,-0.9041556752,1.3332372216,1.7592952667,-1.2398088269,-2.8121475197,-1.2743218426,-1.5083436859,-0.2442826468,-0.0603642777,0.8005922871,-2.3151593786,-1.1556332467,-0.3333622472,-0.4626929092,-0.2291044513,1.6605548678,-0.9217603951,-2.6445848131,-0.1265397871,0.1172120214,0.174864661,0.483266448,0.1140451616,-0.5602010052,0.3519478554,-0.1602204462,1.4744166942,0.7951683109,0.1060708657,-0.2122895681,1.5550908815,-0.2671835161,0.4015470846,-1.4996426681,-0.1895737058,-2.6525682353,-0.510030524,-1.903938169,0.4159726819,-0.2885189303,-0.0963772427,-0.5765257047,-1.2983348757,-0.8198081014,0.4680142523,0.0925514618,-0.260024554,-0.6528372649,-0.8271567609,0.1999569782,0.6713331282,-0.1015604736,0.2376546174,0.7930178326,-2.1570652409,0.6330485328,1.4255636345,-0.720592085,1.7640180232,-0.2791604875,-0.7824271938,1.6718944764,0.3063268019,-0.032170904,-2.738473397,0.2416606817,-1.7881751187,0.994172363,-0.0175803894,0.135581389,-0.6814031299,-0.4625945655,-1.326029353,-1.0197199977,0.0359694563,1.2916147405,-0.4423527244,0.6218939424,-0.1287390028,-0.708638344,0.2474168134,0.3148802741,1.9957229816,-1.1774634382,0.5342340867,-0.6702026875,4.8609974626,1.3633846842,-1.6637462714,1.3934153999,-1.1815383001,1.1273011609,0.7784522204,-1.5545973417,-1.369918129,0.3850746887,1.7766668184,-0.4641764915,-0.1860434005,0.5606420203,-0.6595489437,-1.5750564239,-0.9008902523,0.6383925834,-0.8646901958,2.1238379325,-0.4971766221,-0.1202280039,0.3361029147,0.2280755954,0.7796833607,-1.6894630227,3.8828267432,-0.8072509069,0.2832843395,0.6540968874,2.3794591411,-1.2442699841,-1.5443842957,-0.1483230715,0.259954842,-1.6972361603,-0.982854022,-0.7094394289,-1.2057295743,1.6904489782,-1.3488500744,-0.0403880072,-0.360514422,0.1586375963,-0.0553205291,-0.3724382748,0.8037072832,-2.5528178242,0.2427237673,-0.143115765,-0.8868779118,-2.0044670313,-0.8806445583,-1.9529244494,0.6432059191,0.7115060722,1.1047516607,1.7106899513,-1.9869396941,-0.6863497057,-0.607801194,-0.7978775034,-1.0810460601,1.458027011,1.5764956387,-1.1742878605,-1.3052149508,2.0240558378,-0.682598188,0.9403775541,1.7142825373,0.3344967398,-0.621774136,-1.077867449,-0.1309630349,-0.7704722788,1.6284020959,-0.6909286578,0.4429882623,-0.1690857017,-1.1163399689,0.7937940152,0.334501744,2.8058077217,-0.845986906,2.0110500494,0.2482847134,1.5976124032,-0.8184931371,0.2443155015,-1.3091445757,-0.9652853658,2.4766102949,2.4273781373,-1.0853041927,1.623065442,0.5146869244,0.707002528,0.8218225988,-0.4846913979,-1.2023232073,0.3844911281,-1.0976644099,-0.5735588172,0.1220440175,0.0250631661,0.5370418911,2.1026980135,1.397260524,-0.1554319273,-1.7494475309,0.7064728791,0.2317359654,0.9646802343,-1.1491077047,-0.7067336466,1.5747205138,-0.6613253893,-0.7163113167,-0.6256142201,0.3575346499,0.6824598057,-1.2893073414,0.2123034524,1.1783224909,-0.1176887824,1.2703810745,-0.0179255027,-1.1947396257,-0.997518354,0.7441152862,0.1823136866,1.0349148793,0.3136312528,-0.5148344348,-0.4220599732,0.3103942591,-0.8632281378,0.3792067741,-0.1556244141,1.9724483651,-0.5979991423,0.6048518983,0.8839651222,0.5576728274,-1.6479768861,0.6199344754,0.1155634124,0.8971403433,-1.5330872294,0.3139731874,-1.3478633119,0.8023829459,-1.0806078216,0.1856069949,1.3907644072,-1.1089303464,0.5594955718,-1.4053338701,-2.0558359799,-0.6613835132,1.6661024128,-0.1097062408,-1.346758709,-0.8904935378,-0.7140386111,1.2004828181,0.937271642,0.1280890897,-1.1250738462,0.736388757,1.7556208647,0.0830920773,2.5289418113,0.2695891943,0.0838884149,2.5864732549,-0.2533571203,-0.6008278524,-0.3258651,-1.3887895034,0.9401498943,0.6249004942,-1.8353056951,-0.5300589029,-0.3432362517,-1.1326315781,0.0185214191,-1.0457470159,1.208229368,-0.7271611012,0.7890056276,0.4963511184,2.7546168082,0.1675570493,1.7140843325,1.662579563,0.9932633017,0.3883705784,-0.1947373223,1.7700405814,1.7909356616,-0.6054461382,1.907869688,0.7159049738,0.68430817,-0.6068407693,-0.3192555165,0.3747599533,0.3286720412,-1.1043637865,-0.6930246186,-0.2892384295,-1.2270394012,0.3016594078,2.087146239,-0.1934610558,0.7048794283,-2.8428413147,-0.1353614563,0.9729523449,0.371920441,0.2451723963,1.5498659035,0.021479721,-0.7311748637,-0.4939003144,-0.7424525257,0.3829740058,0.4708749974,-1.8897943254,0.4363446837,0.2499759335,0.4380515869,0.7210194366,1.7144715423,0.0929864989,0.3898286942,-0.6435814175,0.0758757002,1.3286003119,-1.3482469145,-0.24810693,-2.6478982203,2.1110356753,-0.4958090046,-0.6923327429,-2.2363697738,1.3598258379,-2.3878502732,-1.0776992725,-0.5410348709,0.0827189685,-0.9601113014,1.4374201655,2.0003120896,0.1730201688,1.001222079,-0.3812012263,2.0775213909,-0.5931913147,0.5283463525,0.8399913313,-0.4029945018,-0.8528930191,-1.8088456831,-1.416387848,0.2798745183,0.2646075828,0.3730825893,1.1656189049,-1.4595781004,1.5210938388,1.866618891,0.365497603,-0.8376410295,0.4845275618,0.1883926101,0.386178084,-0.2816195634,1.6060300229,0.1008028157,0.0279441867,0.9783658015,-0.0324132955,3.1669812286,-0.2340240115,-0.6036397799,0.4446220861,0.7027865123,1.1283638073,0.6189900209,-0.6247233069,-0.6682940478,0.8915580145,-0.9315918011,0.9877925605,-0.2629798386,1.6602719058,0.1705335042,0.6694199374,-1.1163231502,0.7196022385,-2.8761696565,-0.3166368692,1.126727841,0.7089116644,0.1484712821,-2.4014090492,-0.01967415,-1.2425618439,1.5119098278,-0.441936847,-2.3102312393,0.2806446179,-0.0683545806,0.6915716607,-1.874036937,0.8795027136,-1.5991584532,0.6383647386,-0.7594479555,-0.0641759051,-2.1545505316,0.0056451167,-1.1747323292,-0.1594319412,2.0143748395,-0.2874967471,1.2348875457,-0.8259801579,1.200982202,0.9226051102,-0.6879150789,1.9450566844,-1.7439086993,-0.132682381,-1.2072890715,1.2280335874,-0.8091873164,-1.2712519212,0.2250737226,-0.3276387634,-0.6234432235,-0.8689242722,0.7546362491,-2.5672027138,-1.4119078622
   1.2861314256,2.6510924888,0.5261206479,1.1628439776,-1.7951141452,-0.1542459217,-0.8196364206,-0.7928140579,0.204908523,-1.9458645727,1.1952366215,-2.0445960487,-0.1846409416,0.5107377797,-0.1870974542,1.8049204648,-0.1663846408,-0.5419526973,-1.0025500564,-1.7484829452,-1.3202833234,0.5847147692,0.8116268453,0.7012339655,0.1205530514,-1.2675404732,-1.6689452037,-1.0253042471,-0.4639901188,-1.8477321297,-0.4856639386,0.0141447969,-0.1853804305,-0.031400347,1.4038972661,0.8768246317,0.5899702055,0.2713906434,0.120256533,-0.2776713289,1.1485131697,1.6499908197,0.9705403757,-1.1580324338,0.1567747448,0.9339168518,-0.9947907154,0.3225955991,-2.1882427851,-0.6554629793,-2.2416356925,-0.280838097,2.8251628861,-0.753943096,2.4822570802,2.8573925143,-1.6964560761,-0.617488586,0.8250430509,-0.1833251851,-0.3820599678,0.0911923586,-0.4300928395,-0.8781534927,-1.0812783941,-0.9039666894,-0.9865767132,0.1463525626,0.0452907058,0.3643430097,0.160044064,-0.6679114993,0.1651459299,-0.497871786,-0.2904335437,-2.2526681629,0.8185282175,0.3426050378,2.6353169911,-0.8771731966,1.2593316223,1.1609439294,-1.5826447952,0.0843404988,0.8724250418,-0.422718189,-1.4624835117,1.9537454173,-1.9592166039,0.1663185874,1.1677486011,0.2885968839,-1.4376191711,0.8627663095,-1.5666961835,-1.1410104811,-0.7586143578,0.4162141908,-0.3935718486,-0.8237538295,-0.9416993395,-0.1591870955,0.2859847892,-0.479599078,0.2690061509,0.7032252916,-0.6276470717,-0.5475028196,1.1121392566,0.285728788,-1.9772638245,0.1238258598,0.59817015,-1.5069404655,-0.6234205282,-0.2875715919,-0.0392589053,1.8854700446,0.2254732,-0.6032197307,1.5035086472,0.0709384638,-0.091033045,1.1793149649,-1.5917321093,0.7376060619,-1.1769565364,-1.5740991005,0.106601095,0.8304859248,-0.8929215121,0.1187652289,1.2982236419,-0.7027043864,0.3398213908,-2.3198659291,-0.6166969685,-0.2511859386,-0.3483853651,-0.2572579485,-0.1055631917,-1.5880081072,1.1170943541,0.1439420789,-2.4844302337,-2.0320068023,-0.9978440424,0.9998165894,-1.5507136098,-0.591227592,1.3196929022,-0.1752276154,-0.4849039793,-0.8326825473,-0.6212953964,2.1615612627,-0.3898091552,-0.2129755296,1.5971104649,-0.6741080085,0.5805159578,-0.2854916103,0.3216563547,-1.2463326093,-0.2694485181,-0.8809064515,0.7396098943,0.1493802045,-0.0808240533,-1.7884365763,-1.273146466,-2.5297124955,0.0112185909,1.8136848448,0.8396611983,-0.58686087,-0.1881418282,1.8664707671,0.0989254925,-1.7166969954,1.1198662437,1.4025041753,0.2563363607,2.3410445768,0.4430043697,-0.0909490478,-1.8098215168,-2.5687223693,-1.774331264,-1.5422836558,-0.3829711282,1.7167475621,-1.0847958827,-0.1979155193,0.5891771337,1.5111637375,0.6843296722,0.7591309739,-2.3538481136,0.1144846003,-0.9263385251,0.5897386119,-0.8894666149,-1.6024165688,1.3942967451,-0.8395371225,-0.7857528772,1.0379125983,-0.3081629292,-0.521826977,0.8997124766,-1.2757586243,1.3908416195,-0.2518154332,-0.0572521781,0.9607955503,-1.1003522058,-0.346584986,0.7022464876,2.3341965859,-2.3906047706,0.1887555383,-0.3820928616,-2.9712620122,-0.4040639031,0.8124566108,1.9729152377,0.908574521,-1.1144247799,-2.1343338748,1.3723240351,0.4237987883,0.0793771651,-0.414830603,-0.1035706459,2.0987739747,-0.7625122055,2.598007232,-1.0206504403,0.1348816649,0.138493455,0.3386195925,1.6047947585,-1.470185841,0.2952699854,0.8380339421,-0.5387675508,1.0335058691,-0.5348193202,0.1944382629,-1.4253867174,-1.0165732433,0.447881584,0.8543985986,-0.5626939792,-0.0836399525,-2.1011433671,-0.3260194609,0.4045209946,-0.452017066,-0.8572101357,0.7646517722,1.3290278598,0.2395994387,-0.3050953022,0.9866711177,0.059377024,0.4422485748,1.9056781166,-1.2747235573,-1.228073744,-0.5710875892,0.3371048935,-0.5279880864,0.1250818633,2.1893783472,2.2868778044,0.5509201949,2.4532159154,0.2107367892,-1.2768805938,-0.0271854373,-0.3198657874,-0.0711890306,-1.8663942469,-1.7831406137,-0.4809454196,-1.1778920485,-0.6747224551,0.2623190058,1.1720370633,-0.5087343529,-2.6779061996,1.893381895,1.3731351767,-1.0616425807,0.2079915435,-2.2372773542,-0.8087047727,0.5968866249,-1.0644418933,-0.1434505716,-1.2683308505,-1.0327954502,-0.4579041348,-0.5602362875,0.7127961065,-2.111918364,0.597961981,0.0078847074,-1.2637027481,0.0493244643,0.6074266484,-1.2982163531,0.329522309,-0.4639330732,-0.0186593604,-0.490649543,-0.5283119613,0.2293810179,-0.4523512136,-0.2455529284,-0.8445835891,1.8266134359,1.0788592169,-0.5072371963,0.2559563207,0.1435240769,-2.6294961143,0.0310361165,-0.2979173527,0.0677748141,1.3475286472,1.1115305416,0.3220823144,-2.0412037489,0.6378889096,0.8304011816,-0.304513525,-0.163399404,-0.615402435,1.3738562659,2.1340118562,-1.5458231742,-1.3241812337,-1.0694572926,1.133429391,-0.1920026869,1.1612289447,1.6494404241,-0.5253121694,1.800422632,0.5224614172,-1.1964482944,-0.9421193584,0.1079024042,2.3990642178,-0.4088183549,3.1694753983,1.1015505345,0.9119076544,-0.7888858223,-2.0256993453,-0.6110586385,0.1613985228,0.9180080635,-0.8767797904,2.0225607383,-0.4976255493,-0.2486458105,1.0666756211,1.0399753657,0.164559154,-0.7773851786,-0.2618522196,-1.0944519884,-0.6582288036,0.2109593199,-2.0098105346,-0.0077289719,0.7192364591,-1.7242075635,-0.8330924797,-0.4178606686,0.5778458384,-0.762221742,-1.9235715997,0.495801688,-0.5696107094,0.4961681241,-0.5365418646,1.3678332386,1.5610394898,0.6594178415,0.5127513679,-1.4547998766,0.0016459193,1.5812105761,1.7366157366,2.5543086283,0.5103677098,1.4425056502,1.7929220093,-0.9749242512,1.5133802297,2.130700487,-0.3715097161,-1.5849576393,0.938289838,-1.8562649367,0.7373638366,-0.8480893046,2.4407972235,0.5666411831,-1.303336402,-2.4015938957,1.0941489888,-0.7986464756,1.0301357731,-3.3206952713,-1.6889431691,0.9568950179,-0.7524205302,-2.3175843252,0.5602137448,0.0854388246,1.7631575158,1.7903978725,0.3182019724,0.2241956102,1.5937600053,0.8778816059,0.1477812309,0.3651738258,-0.2524500159,-0.9253359858,-2.3155663151,0.4233366876,-0.3304934226,-1.2996082306,-2.0679437069,1.0599436754,0.3489293297,1.7265699911,-0.1079494399,0.9556000904,0.8496041739,-1.5532263525,0.2498691946,0.5321318711,-1.1818374491,-0.8212771539,1.3212895173,1.4741490092,-0.65075531,0.7739920053,1.018606404,-0.5539814308,-2.2441422138,2.0524384394,-1.1474181093,-0.1673578616,2.1108085919,-0.1739722926,0.8622989914,0.3874430185,-0.8153844608,1.9389955008,-2.5713441854,0.5072175868,1.8302930315,0.729021727,0.7212397061,0.0977357641,2.361940413,1.8831578598,-0.2405778674,0.1084036194,1.449309391,0.9103378126,-1.9284029706,0.3161151622,1.1487993892,-0.0994784818,0.6637084776,-1.5844994909,0.131686998,1.224676397,-1.2185198739,0.3515595699,0.6650676329,-1.2167754097,-0.7139781515,-1.7892146299,-0.2456329879,-1.5476191616,0.4985012532,0.8666202031,2.2563244739,-1.1151481301,-0.2023235227,0.3084255362,1.8591404014,1.0172817128,0.84844627,-0.4799502756,-0.4845837948,0.9970043609,0.1294267368,0.3479672063,-1.585318073,-1.9088838465,-0.3961194156,0.2439274845,-0.1702602459,1.8957693149,2.5810983416,-0.4243714375,-1.2928453565,1.8471184688,0.9474396689,0.6314300989,-0.9257918894,-0.7246746119,0.3512377721,-2.1430498191,-0.2844951536,-1.1201049893,-0.1973214981,-0.5467612295,0.2046005821,0.1866065423,0.0584550076,-2.4167605939,-0.1355718453,-1.7107367602,1.3924081398,1.371672301,-0.6552753506,2.2008146103,-0.4667515979,-0.0840264849,-2.0213755049,0.4145501491,-0.3531349431,1.3483612146,0.295761632,-1.0920054384,1.9806729337,-0.750846744,-1.969887008,0.9046895001,0.6310382719,0.1808469675,0.7711530836,-1.0792441762,1.1642856612,0.8280022256,1.9422921544,1.8414350129,-1.3139957403,1.243966269,0.3451571375,0.6237352953,-0.1616781327,0.6294595406,-0.9748620548,0.9181904201,-1.8812755162,0.5213034628,-0.5468281852,-0.2067444775,-1.4871643141,0.2458116322,-0.2486495165,-1.2264070284,-0.0873559877,2.8198055437,0.3362558608,-0.689654703,1.2841522681,-3.0717534102,0.2605825941,-0.6813772237,1.1294131371,0.0895402887,2.9931250235,-0.8393415175,-0.2613765216,-1.9441202323,-1.0908934508,0.2308442515,1.180173253,1.2796315081,-0.9530321505,-1.6445888535,1.2735531339,0.5399297011,0.885962289,-0.8734582886,-3.0109988943,-0.0151800465,1.0488891535,0.2317020158,-1.474777244,-0.0975913468,1.3251127852,0.1205638382,0.3925132269,1.2583664436,0.1488015418,-0.6726845013,0.1445975284,0.4192031432,-2.1412931173,0.5702519275,-0.7282659681,-2.7093557822,0.9155100285,0.854449592,0.8592044608,-0.5068929748,1.0543872115,2.2633890263,0.3140348499,0.3283139358,0.0669044684,0.1727456412,0.9592669742,-0.1421576544,0.7427840022,1.3261615923,1.3742233736,1.3797813436,-0.04766474,-1.1243324831,0.5085364358,0.0204973572,0.9784379367,0.4438311622,0.1423903866,-2.3072496833,0.5350415778,0.506782428,0.4695644889,-0.3913499908,0.2224580392,0.2140188063,0.7189754294,-0.3057108683,-1.2073920332,0.6113367576,-0.414281648,1.5829656752,0.4112388489,0.6792692912,0.9949350147,-0.1770231501,0.4433692505,-0.7169075578,-0.5790310827,0.8928906856,-0.811762781,-0.4905822124,-0.012334391,-0.2961334253,1.1048306104,2.9567592003,0.5542340449,-0.4582033097,-0.6636202968,0.8992178575,1.5181956407,2.9492779699,1.682798472,-0.1054999487,0.2363366161,1.8969193231,-1.0880005941,-1.4681129217,0.3894907717,-0.5454567167,0.7444699724,1.1177698567,1.6526209931,-1.9682746771,-0.029719295,-0.3334022939,1.2106554616,-0.3442094191,1.8050423397,1.1724858028,-0.5611877879,-1.8273400309,2.2002927073,-0.573530619,-0.0113493588,-0.7990972637,-1.8471843021,-0.4949469152,-0.2473899438,0.6638028123,-1.7666478787,0.6650702031,0.6764724967,-0.6383373815,-1.7088006258,0.0928058287,-0.2637126308,-0.0858018512,-1.2947981091,0.014274405,-1.3121692314,-1.0838254361,1.5785374409,0.8792354711,-1.1086882334,0.0828025786,-0.1354444749,-0.1507411338,-0.8400801379,1.8117890792,-0.7829579429,0.5190218849,-1.0363011067,0.4617385638,1.0772061559,-0.0085868797,-0.3140257881,-1.4652338012,-0.1237476463,-2.7995369134,0.732067108,0.6798045219,0.8601107882,-1.2900944657,0.4978991983,-0.5352910719,2.4060223874,0.7194073476,-0.7782449776,2.535143174,1.6818072484,-0.3512740988,-0.3589767836,0.4808028082,2.8141743319,-1.2683438249,-0.2312311563,1.2470660622,0.3385284776,-0.0213761272,1.9764003116,0.6865059375,2.9657244,0.4196922558,0.9077099237,-1.5756162887,-1.6029280777,0.8368634901,-1.5477807645,2.3325904917,-1.1804261212,0.43329758,0.9314599886,-2.017795428,-0.8713218657,0.1668344448,-0.1673002649,0.5945661594,-0.8595600619,0.5772535789,0.4214377102,-2.438651368,-0.1850373813,0.2782110902,-1.2356768425,0.9025453857,2.6676036231,1.0065433255,0.8297060527,2.2587143133,1.6790709822,-0.1379787732,-2.0816810819,0.5139409124,-0.2558686686,-0.7151715504,1.0093919662,0.1354487326,0.0985969057,-0.4780050639,1.3879534446,0.3275520415,0.9637236171,0.3646464747,-1.3093902557,-0.5351655541,-0.6866594385,-1.2803440455,-1.2490249835,0.6287257837,0.8561897125,-1.5669435555,-1.7307657404,-0.8537676093,-0.93994312,0.0672251252,-0.5996471475,0.3972895779,0.5688321117,2.0033123032,-1.5348372989,-2.2124895338,-2.2219553995,-0.0032791724,0.3135916298,-0.8514558736,-0.1126833209,3.0857087386,-0.231170662,0.8755307308,1.8976510596,0.2586553536,-2.6851849937,-1.5715806138,-1.2999483724,0.0343550749,-1.554971985,-2.1323019078,1.0741307543,-1.1201367766,1.3156531998,-0.4495974668,-0.6925078335,-2.0004846917,1.6231298003,-0.7948780229,0.4611117894,0.2338910389,-1.4023331645,-0.7123605126,-0.0467079569,0.4110015256,-1.2757097843,-1.56218709,-0.0817796953,-0.8238131092,2.9065268359,0.2467271625,0.4890684951,-1.6421758462,0.36537714,0.5180958806,-0.1582640858,2.4481894233,2.2873122654,-1.2503767841,1.7604200795,-0.6939291979,-0.0601154335,-0.237845892,3.0505750254,0.9231353966,-0.0412347768,1.8694166609,-0.0567403873,1.1763967101,-0.7930326172,-0.5650401038,-1.9505364894,0.0010627382,2.4507406445,-1.9421883696,0.8512934883,0.0925973687,-0.5994761457,-0.3906698223,-0.6077194843,-0.5433412228,-1.193339202,-1.1078042204,0.680545569,0.4431275504,1.2586497244,0.5630322384,1.1869203951,-0.476071539,1.7339536451,1.9821035143,1.8594572178,-1.126254388,-1.3813546155,0.8608291429,-1.1282146447,-0.2891575312,-0.3669808524,0.4442495428,0.0754365937,0.4342257073,-0.8982125812,-0.5769247676,1.8553598767,0.5255959666,0.039825244,1.3029537795,-1.076840154,-0.7399845256,0.6714395272,-0.0483319992,0.7583015673,-1.9139654924,2.0079795801,-1.5977099262,-0.0795084033,-2.6542009688,1.086282042,-1.7935761853,0.7941508596,-0.252006669,-1.9027214117,-0.1499700225,1.5925647778,-0.9144164213,-0.207682238,-0.4612363014,1.2288385129,0.9615675481,-0.6638506029,0.6178309147,0.9467764709,-0.9173346701,-0.7528097828,0.153423022,1.348870494,0.7689414095,1.5544937632,0.2775919036,-0.6180343245,2.1625747673,0.5046162795,-1.6777152761,-0.2493369239,0.57617277,-0.1904514944,-0.2339784857,-1.3750880428,0.3590158581,-0.5986346734,1.1091304997,-1.1871623113,-0.8763175868,0.3615119276,0.2463195968,0.7292268372,1.5055500126,-0.7263231125,-1.9691033994,-2.5873423614,-0.9468636027,-0.971931572,-0.5702623965,0.3586025682,0.8237768763,1.1329685317,-0.5769656132,0.6107820811,-0.3888081686,0.4462672109,-2.3910237383,3.1019330917,0.0483508105,2.2212011032,0.4861726685,0.9344634868,-1.5693817489,0.9290490905,-0.5908690754,0.1701145847,0.3524408215,-0.0205873936,-1.6118358621,0.3169140741,0.2628222427,0.2662174533,0.1992676668,3.2522925868,0.5314189964,-0.0354774267,-0.0908616543,-1.2492348521,-1.4410656039,-0.3108790639,-2.1220858967,-2.0105941947,1.2367339259,-0.8797589424,-1.9614398735,0.3278040319,0.0567343737,0.2391052352,-2.3463302942,-0.5553233425,-0.8419410827,-2.9450787416,-0.0371404885,1.0712920386,0.1854285748,0.7181882489,-0.5142314828,-1.484995222,0.4799871964,-2.6431680186,1.6032961815,1.7315635928,-0.7224414853,-1.6439518798,-0.2742693848,0.8224568024,-0.5178054578,0.7610336703,-0.353669365,-0.6605308127,-0.7928180492,-1.5037734871,0.1410745105,0.6363164402,-1.2364347563,1.0969921522,0.6235086721,1.5542082046,-0.1892247908,0.169075342,0.3852567719,-0.2009085907,0.3941234746,-0.2849120989,-0.1384271285,-1.0632743796,0.5759385614,-0.1483884449,-1.5381719434,0.3396670208,-0.2374544872,1.9911550381,0.0674215461,0.7164331508,-0.7407209543,1.1841107435,0.4715575892,0.8389618644,-0.8071760949,0.3230565127,-0.8625807346,-0.4253160596,-0.0142200331,0.3853297271,-0.9487876813,-0.0979294306,-0.1398510381,2.124639799,-0.6082476312,0.2319929685,0.8028642909,0.2502014852,0.5372958044,0.4668631802,-0.1795309985,-0.0662103816,-2.9438925182,1.6572306623,0.9940614947,-1.3135479199,0.351465487,-0.3857333867,-1.7191475883,1.222904633,-1.3818492143,-1.746255051,-1.3348306882,0.0342045038,0.2328559585,-1.4265417646,-1.0591617904,-1.6979737677,1.5238379744,1.5002229295,-0.3540960931,1.2124964739,-1.7153654332,2.0642405706,-1.2536877542,-0.6807756186,-0.9266146594,-0.406680808,-0.3456187545,-0.9939073204,0.5198245983,1.3998796256,-2.1200681952,-1.0631869069,1.1452204277,1.0033432336,-2.2127505285,-1.0709988014,0.8209550569,1.3682705673,0.4055090352,-0.9167680283,1.6076442419,0.3742235799,-1.3883786428,1.0168946961,1.269260126,-0.2291612794,0.3771552963,-0.8483785501,0.9580579695,0.0726147908,-0.471875674,0.469374918,-1.5421065466,0.9395075475,-2.3858549923,0.390248353,-0.9839370492,1.1324940681,-1.029528093,1.7170235275,0.3844848056,-2.0744167826,-0.0329646929,-1.0167133295,3.2434212521,-0.3110191015,-1.1394126176,1.3484214889,0.974037314,-0.1738013619,-0.6000556014,-0.1471281208,-0.0971530685,-0.3343792063,0.065816189,-1.6637602258,0.6020663866,-0.1298328992,-0.4785366578,0.3361994591,0.8045870918,2.4507171344,1.7242067235,0.5774176161,-1.4383844111,-1.8009345573,-0.4252012134,1.4539853332,0.2013820797,0.0154011598,-1.4278058939,3.0215904074,0.7792772057,-0.4419239236,0.8893342482,-0.1932429145,0.1872674259,-1.2093319962,1.2974483509,0.0430469811,0.7610972422,0.1537087432,1.3684522726,-0.5069463964,-0.622208843,-1.1502053736,-0.5214132338,1.095090829,-1.5210172146,-0.9147240735,-1.0518553679,1.7666105881,-1.0890644115,1.4960630035,-0.2232546558,0.1919894429,0.7442996659,-0.3710326772,-0.6547486635,1.2812020283,2.5847134117,-0.3850943996,-1.2484310676,0.6362721315,-1.6417294061,-0.2257818924,0.059756732,-1.4253656355,-0.001751891,0.5773179953,2.7741673218,-0.2306469223,0.5578453239,0.433539708,-0.4057535438,-0.7075285866,-1.7675651066,-1.0993073962,-1.6752397587,0.592099822,-0.9970389025,-2.0415002597,1.269542739,-0.1659740737,1.8119696176,-1.1435043069,1.4208454785,2.0571368947,-0.1863210603,0.8169662007,-1.1006465411,-1.194358078,3.0253913312,-2.607478199,1.6470102647,0.2737833848,-1.8734063253,-2.1748426672,1.0036524524,-0.3522410608,-0.2052863944,1.730159687,1.1299992048,0.2392903735,1.0954483437,-0.3729959901,-1.1559046655,-0.6421355217,1.5974551206,0.4844309702,0.0125587058,0.7040203257,-0.9498303175,0.0008053001,-0.1875575082,-1.006649216,-0.8091678795,-1.2481179992,-0.8137688208,1.3857376896,1.8510144805,-0.0798569181,0.4510456285,1.7127374093,-0.0429344346,-0.9702469801,-0.8452484841,1.795326146,-0.0996369264,0.3220669111,2.2441991689,-1.232262777,-1.8119852127,0.3774399727,1.1766989597,0.0430329449,1.1057436182,-1.9325553791,-0.351530109,0.4681104102,-1.0135667598,-1.3577929352,-0.2277711671,-0.1293503536,1.1901203608,0.6966031795,1.4080530401,-0.7828441052,0.5371395937,0.522209742,0.1077415699,1.8215418411,1.0049707991,-1.4290296245,-2.2159469103,1.7617317688,0.291557185,-0.6659754447,-0.5452139751,-0.2975400686,0.866266647,0.2372992308,1.1699694602,1.2996241619,2.6966917082,-0.2471696616,1.5948129258,1.2999929686,-0.3489727882,1.0670586701,1.5667261014,0.2538759242,0.1577551264,1.6581609803,-0.3235609646,1.863469922,-0.2904496947,0.8721715651,1.0283884687,-0.1599230451,-0.3370605653,0.7365382547,-1.7106731715,-0.4869356993,0.901882783,-0.3875688427,0.6450246177,0.9356103037,-1.0491858392,1.006084518,-0.53059347,1.3288978537,1.2558687975,-1.64487146,-0.9677135786,1.1558754005,0.1305120558,0.5333747954,-0.4524486392,-1.1506806151,2.0754947614,-1.1009927994,-1.5001185222,1.0461691341,0.8474818105,0.8570743085,-0.2299584985,0.5374781336,-0.8475093475,0.1779887289,0.6828788792,-2.1201279273,1.5908294197,-0.2044074963,1.1660334651,-0.9238853984,-1.1616187301,-0.3509615453,-2.4783042444,0.2730691919,-0.0207315073,-1.7155777734,1.6070370489,-1.1877542773,-1.6137839903,-1.9617161577,-0.0556785787,-0.2178694846,0.4964231308,1.5562769576,-1.477640585,0.0403593091,-0.8854286596,-0.5983879641,-0.5433088149,0.4690979205,-0.385152039,0.3364890964,-0.6592036959,-2.3536017438,0.3482268267,0.052012799,2.1436040194,0.9616843722,-1.2069135752,-0.0979382185,0.5147601734,-0.2381472215,0.055544943,-0.2635898056,-1.9584748171,1.3387350973,1.0362849505,-1.5987193659,-1.0062486179,0.1054134537,-2.0278924666,-1.4502668978,-1.0201628846,-0.6342896696,-1.1740905127,2.1168544943,-0.9575627094,0.9154638314,-0.9228111046,0.8308520703,-1.0017681989,0.0603815564,-0.3882345273,-0.8660805208,0.0530623328,0.8354914482,0.3640279921,-1.2743585043,0.2344475857,-0.6851820055,-0.2470701152,1.1748741071,-2.7123550194,0.2792980651,-1.076730694,-1.9841737103,0.8653158452,1.5070845886,-1.4075550088,-1.1858120701,2.9115759118,-0.1073346952,1.2531240898,0.2573891608,0.0042077254,1.1206380166,0.4487247197,-1.5707381859,-1.2001797418,0.8349205797,3.3866563417,-2.19640135,-0.2107358977,0.325062309,0.8074815762,1.7310010569,0.2629207803,1.6443699461,0.743353671,0.0245317292,1.0739171984,0.3646473464,-0.027475066,-1.7792749537,-0.0207953696,0.6771873449,0.2926172792,-1.1213255434,0.1661628624,-2.031145688,0.4050262304,0.9055247331,1.9588027521,-0.5241843672,1.1717889932,-2.8586779909,0.5163829731,1.8855358487,0.3423920504,1.0317507078,2.2558223331,1.6953767366,-1.6394401827,-0.1351084683,1.2285223786,1.5004298286,-0.2105050861,0.4437805042,-1.9841974377,-0.7976686002,0.1211618862,1.7670644275,-1.0137078059,1.8158696269,-1.7642303912,0.541503612,0.3516541698,-0.5147333378,3.1243561731,2.1784734964,1.4885288381,0.4578093062,0.1150821905,1.1235115833,-2.2668340786,0.6724809936,-0.8955279365,2.0633320869,-0.0908766681,-1.5185752888,0.3410124876,-0.4313328847,-0.3532611127,-0.7215598705,-0.3939194307,0.8139153302,0.0919378713,1.1337787227,1.4764794573,0.0090150354,0.6637419105,-0.7210302434,2.4181766054,-0.2389241244,-0.2052314984,0.2801780503,0.3774347976,2.1202698414,-0.3604102072,-0.6972895637,-2.6802955593,1.8322770789,1.8938492375,2.4563042369,-0.9369850751,0.9519043221,3.3275012325,1.6914790325,-0.9087879315,-3.4855211048,3.4575695092,-0.4417984685,-0.0780813934,0.2352204378,0.2154933009,-2.0166255956,1.8391437621,0.9749072722,-1.3284642425,-1.6624409719,-0.5359639499,-0.3106544104,0.5215118495,-0.1286672761,0.3560426797,-0.3908889771,0.3032558937,0.5320387497,0.4622664321,0.2190599878,1.276024293,-0.5236963236,-1.5427633361,0.4574893545,-0.4807354567,-0.9983181087,-1.6545922259,-0.356274671,-0.8517377307,-1.2766716227,-0.4331908765,-0.4569912697,-1.4151145228,-0.8880055731,0.2798992127,2.0542971779,-0.7788206271,1.4263735736,-0.2775644812,-0.5460013643,-1.2151488677,1.1191429472,0.3094423919,-0.9763857904,1.1926741127,0.3188562982,1.3449834604,-0.508978863,1.1947009744,-0.4052544306,-1.1018297638,0.5164562494,0.9170852039,-1.2693622505,0.8745023203,-1.9458542388,0.7569752819,-0.7597302596,1.9605016093,0.5233189447,-1.0603907791,0.0147507524,1.8857853553,1.4343626069,-0.1751210406,1.5952901973,-0.8978320324,-3.3556067629,0.9957879511,2.1043939027,-1.4108298401,0.8078384899,-0.6277204473,-1.9702053667,0.1950305854,-0.1694822879,1.1159804674,-0.8614186744,0.8259883424,-0.4825594978,0.2874724242,1.3824340055,-0.0345375156,1.1802863682,1.0763224694,-1.1455027753,-1.0569950978,2.1452448942,1.300740072,-0.3804679804,-0.0326460324,3.0357804848,-1.1448541135,-0.0055722138,-1.2739033431,0.3568435806,0.6079553918,0.8789795805,-1.0248524437,1.1753934253,-0.3481970025,-0.8922080974,0.7096522633,-0.0071646395,1.3451561676,0.30882078,0.0361139463,1.6175116695,-0.4145014722,0.5937055697,-3.6410240517,-0.1112283621,0.8773886666,2.3740207803,-1.2875223582,1.373391377,-0.5859849133,1.3994443544,0.055796981,-0.2207606594,0.0308061476,0.8055903538,-0.8186653198,-0.3226754208,-0.7179891619,-0.5099386124,1.5680549923,0.5632112145,0.2036715914,0.925412247,-1.2257161552,-1.150149691,0.1224560079,1.1997547083,0.3984108913,-0.4417358383,-0.8373977961,-1.3721315191,-1.3166964456,1.4221215933,-1.736196845,0.5460851852,0.2884219485,-0.9570633197,-1.0842584642,0.7726430388,-1.8775861784,1.5421837631,0.8516393917,-2.349654412,-0.2006655729,0.8246712019,-0.0303136061,-0.1448379,0.2474554754,0.2401177106,2.0937958633,0.0709791617,2.6053256178,-0.9489440043,2.2245690782,-2.6295161756,0.9905227339,-0.0337434892,0.4976939549,0.8158501285,0.9549281962,0.1274999685,1.2662063719,-0.8763626978,3.004710048,1.2216006092,0.2763943984,-2.0844885254,0.613738734,0.3456598781,2.2932936602,2.0751497143,-0.5337937585,-0.1836251269,-0.5003332256,-2.4516236429,1.9120679225,-0.2576098768,1.3182888059,0.6834439455,1.1941052393,-1.8659518216,-0.8656240558,-0.9956047805,1.434690747,1.8935639442,0.4374421227,-0.0073953572,0.0959780238,-0.5743484081,-0.7413083081,0.6157731566,-0.3689381596,0.3413594947,-0.6311878684,-0.4681557783,-1.6388178733,-0.6964900079,-2.0195093368,0.3611885061,-1.1485499221,-0.3630945562,1.0106310638,0.7984142778,-0.0996987798,-1.2682718675,-0.5449835242,0.7474489984,1.6134590737,1.1470255535,-1.1474824986,-1.3439448933,1.5055139683,0.6880426127,1.6280588607,0.1228183412,0.2766172229,2.1054214664,1.4365785048,1.4114844333,1.2537720755,-0.4483891232,0.2824346547,-0.0966913697,-0.6534310459,-1.8508483315,0.0998535364,1.9463869609,0.5967063462,1.3471672952,-2.6680374678,3.1403176282,-0.6373962361,-1.5229255157,-0.5137042315,-1.2432039879,1.4819157701,-1.0318957078,0.6998383732,-0.0400030121,-0.2292522717,0.1610630333,3.0726425675,0.3138382921,1.1043072531,-1.8612529003,1.9818540822,-0.4682991778,1.5337937864,0.0430655334,0.5993659949,-1.69618613,0.4537166377,-0.0090177048,0.1694282329,-1.5649242046,-0.7878259791,0.4777227898,-1.2128516437,0.0798141232,-1.3878445321,1.7892714329,0.1217256712,-0.5608137889,-0.6400733131,-1.6155103435,-1.2767219684,0.8243767229,-1.2526455313,-0.227105365,0.6568207278,-0.3315802174,0.8659296915,-0.4772104049,-0.0726535187,-0.921505215,-0.9333494484,0.6277192392,-0.1216260805,0.1000626048,-1.6610210043,0.1197122068,0.7395074061,-0.4358628019,1.8101804557,1.0135104988,-0.8440142996,-0.2670742582,-2.6163219141,-1.1420798854,-0.4344105871,-0.0110351311,0.7568418475,-0.1306535438,-0.0492626502,1.8696877285,2.1246348071,1.2707941456,-1.9026212675,2.1131420843,0.6894253394,1.3498294875,-0.3357918269,0.9341995498,0.080631521,-1.3641001531,1.2423582798,-2.3447293384,2.4207997321,0.0561867774,0.8077837312,2.1105239314,-0.1939144785,-0.0157282952,0.3204366415,-0.0510174929,-0.2094591259,-1.3523250066,-0.0836729199,-0.2545962835,0.1465876376,0.5204296997,-1.5693908056,-0.3587433836,1.4253094273,0.9105748623,0.0014790259,0.557615247,-0.2936569631,1.7767791359,-1.4352360301,-1.0871044607,0.6234506929,-0.4038270627,-1.1769447152,-0.4276878294,-0.7538971627,2.8549393599,-0.1139198067,-0.209473819,-0.4174623175,-0.1494379267,0.68870434,-1.3456149454,0.1732132092,1.9073126841,-1.6979207519,-0.1127078035,-0.9470704384,-0.6875174549,0.8414317142,1.5187088508,-0.913812192,1.00860876,1.3316854832,-0.4528910286,-1.4715228059,-0.1232849954,-0.9579896576,1.6210091809,-2.2050550998,-1.66717935,-3.0427879658,-0.2082190701,-2.0307167243,-1.6685764254,-0.4280289589,-0.5042153402,0.3108137531,-0.2102478585,1.2137580514,-0.4944918187,0.2835458442,-0.4880558739,-1.3853983796,0.6821563759,-0.3049868905,1.0087053273,-0.8503680548,0.8237714148,-0.7021371515,2.7586932979,-1.2707242165,-0.4005934166,-0.3856712056,-0.4451120398,-0.249154981,2.1548106248,-1.4789336476,-1.2101686842,-1.1748436877,1.0399810409,-1.0953826664,-1.9930361531,-0.1157810793,-0.0579802246,-2.422183509,-2.1555126366,0.6856184407,1.8338508616,1.6611209502,0.7314472805,-0.9330092683,1.3010056164,1.5534675794,-0.7469022776,1.5030742927,1.0224360877,0.4456280325,1.1945160074,-0.0774679592,-0.6289982917,0.0268643082,0.0905443094,-1.6005508259,0.5327128898,-0.1353019028,-1.5891945878,0.3676687034,0.9308127177,2.0964725049,0.5446374494,0.8373115491,-1.3982473585,-0.8364622902,1.6210432512,1.6032776278,0.6394090261,1.3592445652,0.1064979221,-0.0583559194,0.9182550259,-0.1888690644,-0.9384495139,1.5607514316,0.5548772918,-0.9260920992,-2.3739736285,0.2890218653,-1.2507861194,1.4813729548,0.6218776368,0.4379537683,0.2421456206,1.1873426058,-0.0829129013,0.5705469196,1.6200093215,-0.2594909335,1.3465825415,-0.7787790812,1.0757848052,0.4566613124,1.2968105341,-1.5111060779,0.4299635799,-0.9797546211,-1.1509783893,-0.0966638845,1.3737767376,-1.3611082475,1.1574393903,-0.6973551943,3.2330002787,-0.3934242306,-0.3402881276,1.3958468032,-2.2025186085,0.4880272165,1.2945535788,1.2751458198,-1.5965626108,-1.2513572369,0.6119473423,-0.6683542927,-0.8302454761,-0.3762124232,-0.433139812,-1.2532087082,1.1161529357,2.6218403802,0.4332795894,-1.3677359653,0.4083065344,-1.3448704941,-0.3152431836,0.1519094044,-0.0184224129,-0.9008858917,-0.0729120237,-1.0785466277,1.8834807676,-1.4217438557,1.0419703134,0.6139868905,0.3640990993,-0.7609810873,-1.6287649383,-1.4844892566,0.6926977876,0.6098367538,0.5142419637,0.4805287478,1.467577429,0.2172962796,-0.914903635,-0.0836709445,-0.1101455607,1.6020600001,-0.2239037545,-1.0139116138,0.4719931645,0.2576687227,-0.5373327947,1.0009007884,-1.3484328967,0.3457608228,0.1466261341,0.1430397988,-3.156969029,-0.3549162903,-0.5511838394,4.0605348954,1.0565706286,-0.4974986483,-0.6051830152,-0.1815333701
