encog,BasicNetwork,java,3.3.0,1,1437653224535
[BASIC]
[BASIC:PARAMS]
[BASIC:NETWORK]
beginTraining=0
connectionLimit=0
contextTargetOffset=0,0,0,0
contextTargetSize=0,0,0,0
endTraining=3
hasContext=f
inputCount=243
layerCounts=1,21,41,244
layerFeedCounts=1,20,40,243
layerContextCount=0,0,0,0
layerIndex=0,1,22,63
output=0.8761153883,0.7626283889,0.0000538529,0.9021885083,0.9957750387,0.3663201446,0.3872972008,0.0588209101,0.2623802067,0.9999615286,0.015782836,0.9914672547,0.9999997555,0.0510573755,0.8692751667,0.9669232588,0.0058866339,0.001447282,0.2304635988,0.3078673885,0.2202778956,1,0.6295249966,0.0058137735,0.1592246024,0.9932703691,0.9911442948,0.8247434215,0.8522247333,0.5307495684,0.0190561717,0.8270469922,0.9869553579,0.5766124541,0.6882228236,0.6882922652,0.1599306072,0.8163248094,0.0377808763,0.9932731517,0.9905144928,0.9800391105,0.5787034018,0.6177923301,0.0161843623,0.6018176219,0.998149813,0.9784386233,0.4212265446,0.0014056894,0.1030909365,0.9821953182,0.9548794427,0.9988604069,0.0136541051,0.9339391533,0.7082630482,0.5064488831,0.9571184346,0.7823618452,0.996283625,0.523371076,1,0.1803921569,0.2509803922,0.2431372549,0.2117647059,0.1882352941,0.1490196078,0.1921568627,0.2235294118,0.2941176471,0.1647058824,0.1921568627,0.2274509804,0.1725490196,0.168627451,0.1607843137,0.1568627451,0.1725490196,0.3725490196,0.168627451,0.1647058824,0.2039215686,0.1803921569,0.1411764706,0.1333333333,0.1254901961,0.2117647059,0.4745098039,0.1764705882,0.1843137255,0.1882352941,0.2,0.1333333333,0.1137254902,0.1411764706,0.3254901961,0.6,0.1647058824,0.1764705882,0.1921568627,0.1843137255,0.1529411765,0.1294117647,0.1725490196,0.4078431373,0.6941176471,0.1647058824,0.1294117647,0.1960784314,0.1725490196,0.1764705882,0.1176470588,0.1803921569,0.4784313725,0.7607843137,0.2039215686,0.1176470588,0.1764705882,0.1764705882,0.1647058824,0.1137254902,0.2431372549,0.6,0.8078431373,0.2431372549,0.1490196078,0.137254902,0.168627451,0.1294117647,0.1450980392,0.3529411765,0.7137254902,0.7882352941,0.2039215686,0.1960784314,0.1058823529,0.0941176471,0.1647058824,0.231372549,0.3882352941,0.7176470588,0.7411764706,0,0,0,0,0,0,0,0,0,0,0,0,0,0,0,0,0,0,0,0,0,0,0,0,0,0,0,0,0,0,0,0,0,0,0,0,0,0,0,0,0,0,0,0,0,0,0,0,0,0,0,0,0,0,0,0,0,0,0,0,0,0,0,0,0,0,0,0,0,0,0,0,0,0,0,0,0,0,0,0,0,0,0,0,0,0,0,0,0,0,0,0,0,0,0,0,0,0,0,0,0,0,0,0,0,0,0,0,0,0,0,0,0,0,0,0,0,0,0,0,0,0,0,0,0,0,0,0,0,0,0,0,0,0,0,0,0,0,0,0,0,0,0,0,0,0,0,0,0,0,0,0,0,0,0,0,0,0,0,0,0,0,1
outputCount=1
weightIndex=0,21,841,10601
weights=##0
##double#10601
   0.3453667623,-1.0110960269,-1.1649374091,-0.6554687295,1.8367996281,-0.1432573053,-0.698525764,-2.4206666575,0.8362897716,1.7565403304,-0.5421422142,-0.4507037637,-1.3656386665,4.0958956787,-0.5366020501,-1.2287449657,-0.6570168597,-3.0004752369,2.3783023935,-1.6163559744,-0.4097861682,0.402277137,1.8321820774,-1.8833468183,1.131047383,0.2389281092,-0.0175665565,-0.252805676,1.0931702913,-2.7388499497,-1.1242581947,-0.6059366081,0.0586957464,0.254045455,-0.7168795843,-0.3038799737,-1.0527925959,-0.6243736355,0.1446846576,-0.7817871247,-0.2585993014,0.2862467991,-0.2116282695,-0.984650611,-0.4408712066,0.6400952548,0.3502150885,0.0551084811,0.6492946047,1.4334290892,1.4465571661,0.7024065937,-1.2754942027,-0.672454493,1.5081944256,-2.1765727823,-1.004689644,1.7703105925,-0.2448974138,1.5234618114,2.8867864124,1.9795036759,0.5630444643,2.3604552009,-0.6476912751,-2.2191885116,-0.5027405499,-2.1230549507,0.0941740609,-0.3613298752,-0.6882297073,-0.8726272723,-0.2152652135,0.6423784714,2.1514898823,0.2382721554,1.620741367,-0.2340970478,-0.4638807933,0.6739173337,-3.0263578047,0.1394578161,0.6084910637,-2.1537682269,-0.044831134,-0.2955320478,0.0099318269,-0.3143461734,-2.4426828182,0.7279603244,0.5182503353,-1.7357795735,-0.6374104239,0.9368970952,0.0579620675,1.1614861538,-1.4321497551,0.2249466069,0.5531283123,0.2644108718,-0.3110520151,-0.8137352316,-1.0619055849,-1.2093638376,0.8859531856,-2.6162137371,0.4525871624,-1.061983514,-1.2152074056,-0.5389120301,-0.9527828004,0.0428664835,0.7305342896,0.8261028147,1.3783855829,1.6650514432,0.6392340272,1.033215716,-0.4354082813,0.4004008395,0.5127106537,1.2715564825,-0.8799087862,-0.4694738507,-0.2986723745,-2.0305118645,1.1434855326,-0.5775778824,0.5289134102,2.3399933899,0.1580476643,-2.2193583149,-0.2719343354,1.7885216261,-0.3916639054,-0.9835388052,-1.9759991879,-0.4859910613,0.8008640865,0.6209039281,-0.4627617704,-0.2181459745,-0.4369532829,1.4334660544,0.4257610439,-1.8490643737,-0.5865120032,1.7657338257,1.6386932195,0.182903455,-0.573773824,-2.2283379682,-1.1850618545,-0.7680834032,-0.5956439836,1.9141281995,1.2501695387,0.9171608691,-0.0502154467,1.4761657267,-0.9754296868,0.8415243793,0.495820273,-0.6606502815,0.9249496486,-1.6847423641,-0.8817642065,1.2533858968,0.9682445179,0.0807476662,0.1843201012,-1.1527670921,0.948380573,0.8995989495,-1.395035296,1.8655198124,-1.9630912069,-0.763077278,0.4801378563,-1.5411911087,-0.6991257699,0.3312326223,-1.3340438857,0.5984758323,0.0482123778,0.7795606135,0.090742187,-1.7154725344,0.5734601731,0.6684548768,2.0849265674,1.0426708,-0.764954077,0.7489619269,0.444459829,-0.8252364282,-2.4589438688,2.4841923888,0.027931064,-1.5548333544,1.7305664235,-1.0887706932,-0.0535446114,1.1395313587,-0.6031498407,-0.6233361432,0.5476709771,0.8322245554,-2.7253355923,-0.9647406947,-2.029159653,-1.050093403,-0.2171660907,1.693941248,1.5439040524,-0.6321768442,-0.7105734162,-0.2359729728,-1.046607827,-0.3196550488,0.7398755528,-1.4423457908,-0.0302427307,0.6281440487,0.1445941397,0.4577528124,0.6939603526,-1.907120969,0.7534327431,1.555757086,-0.7216117203,1.5624624952,0.5526876936,-0.151383147,-0.0441031955,-1.7479126628,0.1028525973,1.3313917128,-1.7372414204,-0.9658373049,0.0113033431,-0.7438810176,-2.1761159776,-0.6999236722,-0.5805987432,-1.4956545701,1.4906363876,-0.4101133645,-1.1929735181,-0.0547748741,1.4015651899,-1.071372516,1.2246984158,-0.8265063917,-0.2176139291,0.5761698806,0.3589207211,-1.189963776,1.325744771,-1.1963238739,-0.7412610381,-0.8890800046,-1.3358767476,1.923913398,0.6005614236,1.4689516375,1.5957294214,-1.7275981242,-0.2130576666,1.2609709222,-1.2981293565,1.6945461754,1.2459449875,-0.3234631871,-0.1811572585,1.2335084965,-0.2971461794,-2.4227505805,1.346609224,-0.7197914198,-1.4395784806,-0.2832938223,1.5735810933,-0.710720459,-0.1666365246,1.2679194367,-2.0102754751,-1.0199390234,0.6034516099,-0.4800011361,-0.0438417201,0.8380283592,0.1282760445,-1.6792049341,0.0604634813,1.1937130384,2.3401331847,-0.1343572683,-0.7497943661,-0.5179056171,-1.0036056314,0.4317707326,-0.1767623143,-2.4118469467,0.0686534695,1.3292623572,0.5148657166,-0.103112923,2.8993368416,0.5902006023,-0.1375710806,-2.2226196285,-0.0131710943,-0.5971576454,-2.109829112,-0.4700352009,-0.3912425556,0.5012397177,-0.7450621849,1.5140188056,-1.3143472781,0.7650664559,-0.0629531415,-0.7798507058,0.6732928812,2.4852182811,-0.6628093676,0.1962123752,0.1428531438,-0.4334377866,-3.4838014096,-0.6518482706,0.3313801782,-0.2702708303,-0.3500807346,-2.0430249929,-0.1563154443,-1.4122445339,0.6612641369,3.8359940845,0.2979056158,1.7799162482,0.4815666659,1.0823554895,-0.0870161206,-1.7748915207,-1.5824097409,-0.166179552,-1.33464954,0.4746632301,2.0993602433,-0.0098337829,-1.1909723415,-0.1042396329,-0.9932374812,-0.0568144961,-0.3616896591,1.9990676848,1.4433480457,-0.1343716969,1.8167291218,-1.1013595127,-1.8601935206,1.448905979,3.1554544757,-0.2850841914,-0.410106153,1.1539152102,0.2675257907,1.4072407505,1.7320145561,-0.9295774846,0.9076035363,1.741843565,-0.403904933,1.8660495261,0.2707233577,-0.2428259706,0.5077389838,-0.4289199176,3.0917572387,-1.1533559455,-0.2018615768,-0.3145103214,-0.8837797978,1.1351048388,-1.0497508309,-0.4269077832,0.0613914358,1.4789042428,0.0871116671,-0.4106349662,0.5752499976,0.7007161494,0.3470869291,-1.8039076873,0.4815508566,1.7229371111,-0.5842359626,-0.3025250858,0.6301907147,2.7360305408,1.9656210177,0.3329954129,-0.059418485,-1.0960979687,-0.7384040766,-0.7575007591,-1.871542877,2.415386469,-0.2142042244,-0.4073477063,-0.5646196177,-2.0876421598,-0.5444459448,-0.0033677595,-1.4093820438,1.0147493882,-0.2116953601,-0.092442533,-1.4513503157,-0.4024888641,0.6655307931,-0.2762681715,-0.5712566783,-0.2539789411,-1.0122242038,-0.6966568352,-1.2839080292,1.5391902889,-0.0181381978,-0.0621774525,1.0223500336,0.6915535643,1.699035496,0.3361565248,-1.044749068,-0.2406536439,1.9858698602,0.0715286225,-1.0906659566,0.1655166207,0.5494292172,0.275360413,1.2453460397,1.1729660706,1.182673792,0.9484893464,0.5512454149,0.1189092262,-0.1262106072,-0.0188484016,0.5487723235,-0.9979333419,1.1341083845,0.0521464463,0.6449956082,-1.2136544791,0.8954256136,3.3560030621,-0.3707584859,0.0167740565,1.7606416396,0.7122298665,-1.0906376161,1.3102136705,0.1856559033,-0.3884771926,-1.106288482,-1.7394884463,-0.4133465177,0.6827313802,0.4997973591,2.7602391263,0.6305679809,-0.3974677856,1.1463295776,0.3747896487,0.3356968607,1.4198069846,-0.2925796112,1.0625670836,-1.460248306,1.2411320037,0.5683560849,1.3340395364,-1.9249358012,0.8716117371,1.06244052,0.2366613682,1.2115070445,2.1005937939,1.8800029459,-0.5222194736,0.7051369152,0.2701798376,1.2407010096,-0.0026604288,1.2444859585,-2.8176109188,1.9960820957,0.5966988054,1.43805946,-0.0781236975,-1.1058246627,0.6106245826,0.5245458892,1.115775226,0.1574319975,1.0020334527,-1.377813455,-0.1874494621,1.5204675,-0.9830386105,1.2915077628,1.275901355,-0.1300386898,0.3476820148,-0.5144509981,-2.7822528258,-0.2306251338,-1.7955342384,-1.3906755737,0.4513445137,-0.1197323883,-0.7488934811,-0.4832935881,-0.5206286986,-0.0518499691,-0.4764468921,0.048056386,0.2723840701,0.6315182146,-1.0174327119,1.7805338997,-0.4444532971,-0.8506019838,-0.1517834498,-1.6532287028,-1.5368387489,0.701715593,0.8207473704,0.9366284198,1.0740364529,0.5057683104,0.1064692406,-0.39964204,1.9338704301,-0.6868570626,-1.6126127866,1.1274603407,0.4115610593,0.7944668601,0.4002173325,-1.4691525429,0.5753858632,2.005173047,0.5369290768,0.1039771317,-0.4713873277,-1.2095866661,-1.2049270831,1.2027076926,-0.0925280389,0.8328151968,0.2058974326,0.6304277709,1.6219697161,-1.5829984046,-1.3143424403,-2.9491932319,-1.3448459786,0.9489773848,-2.0643629447,-1.0844486172,-0.6809579391,0.8196146567,0.920391092,0.4213063184,1.8478943433,-0.5051071793,-1.6217975046,1.9227459091,0.727357035,0.1257475789,2.0037523239,2.1954142625,0.1948388099,0.7768808661,-0.3195331631,-1.0784288712,0.7739121902,-1.3541408802,0.1259379566,2.0736042123,-0.3916962205,-1.2592268406,2.4063953962,0.4485455021,0.5204130167,2.4429893341,-1.3369027767,-0.164456899,-0.4162736118,0.837113788,-0.5247235829,1.1659441211,-0.3884797636,-0.0585442538,4.0508686744,-0.3847390554,-0.2153451315,1.3080443135,0.0879524543,0.0632922323,0.3639324662,0.5745202071,0.1162379398,-0.6014427563,-0.2702601483,-2.7116880245,0.3592901223,0.0982174983,-1.3633037488,-1.2113705521,-0.3514518174,-0.1223016742,0.2374116738,0.2695076503,1.2120921419,3.5206191082,-0.5295050647,0.4648720804,2.674024316,-0.6678394646,-1.5196526015,0.9552443949,-0.2580235912,0.9194339813,0.2298748545,0.3562248603,-1.0532539049,-0.5324322894,0.1711576625,-0.4705555678,-0.3529761989,0.7794863871,-0.4044173501,-0.4059573781,0.5680794576,-0.996101193,0.9351446346,-0.6175093101,0.4760578806,0.5690564011,-2.0400550463,-0.2333995159,-0.9888834058,-0.0927374321,0.9708661209,0.2788395359,-1.6852000695,-2.5511872127,-0.6246510232,1.4907336515,0.0862953777,-0.7198659589,1.1184983553,0.2749694683,1.0589568592,0.4590293603,-1.5068895993,-0.2371055645,-1.0175443388,-1.2246259284,-1.4153235657,-0.757943272,-0.8627696808,-0.3478944498,1.0056808356,1.1096004658,-0.884920352,-1.7272335162,-1.1151103189,0.6775339886,-1.6278259189,1.9979725127,-0.4275360195,0.3495346386,0.9693737744,0.7451889883,-1.1934803473,-1.608865773,1.3000136916,-1.0749701314,-0.9989726998,0.1291085067,0.2534202687,0.8170700392,-0.1702225631,-0.1185553323,0.6382290358,1.7078739557,0.0705833323,-0.2148844746,-0.8819621016,-1.1889160245,-1.2170515316,-0.4526524904,0.0620811659,-0.8948414749,-2.2012473522,0.735532957,0.137151461,-1.6139083124,0.4726970363,-1.2109244799,-0.2045256229,-1.3103160795,-0.5712708437,0.1076215471,0.1986032088,-1.0581526584,2.3168753706,-1.9019916966,1.518107175,-1.9236602278,-1.5522810476,-0.9613860541,0.8670970159,1.3567482487,-2.3960939928,2.4478503166,-1.0153708473,-1.2994900198,0.3219828081,0.7626878131,0.200100344,1.139586783,1.882317243,-0.2793690026,2.156014983,-2.6430207178,0.6856737086,-0.715222934,-1.0608435929,-0.9103743456,-0.4468295831,-0.2302066926,0.9662335732,0.5152514653,-2.4806564609,-0.3885805631,-0.3360615719,0.8464868857,-2.6628701357,2.67003299,0.880231546,0.8654276131,0.1460528715,1.3462274452,-0.4393998602,-0.5377282609,0.9061552775,-2.0645844912,0.6120138018,1.128777478,-1.4290546315,-0.38688758,0.9470343653,-1.0548862545,3.218441525,2.3778874557,0.4857485649,0.8243279144,-0.8626904427,-0.3338007539,-1.490070626,-0.010134483,-1.6361710577,0.1001023186,-0.0259304701,0.5954322785,-2.7944021656,0.3589634612,1.2709925205,-2.2481736228,0.3890857966,-0.313515238,-1.649877032,-0.7723711193,-0.4835862282,1.5937500488,0.0705960942,1.7750733568,-1.4705031649,-0.5799557345,1.2387970784,-0.309268384,0.053540279,-0.4854599966,-1.9725627766,-0.5817658944,0.164232133,-0.4942318245,0.599188548,-0.398187511,0.9529430396,1.3846540985,-0.9413051119,1.3734276024,-1.3112542891,-1.2178336946,-1.032604603,1.8196094625,-0.4142713987,0.1501904909,2.1694922427,0.2413886247,-1.2194032483,0.2904767647,-1.5881073896,-1.7359283349,-0.4285444101,0.6642353686,0.9876865226,0.787858772,-0.9925596791,0.5014571079,-0.3698091153,-2.2945213265,0.3680568419,-1.0667254244,-0.8756636179,-0.6676723824,0.6973803176,0.3329402623,-0.0768849726,-0.0099102137,1.1474452797,0.6861162344,0.1635791645,-0.0062539389,-0.1874096846,-0.8451832895,0.3421983438,0.1604221974,1.2616223871,-0.9676114142,0.6392252926,-0.3213445029,-0.0538205298,0.4498336122,-1.693028279,-0.1237989199,1.5739190252,-0.5398836876,0.6581796251,-0.245176088,-1.3474996969,-1.3307310213,-0.1860737045,0.038970778,1.143259166,0.2922098245,0.7760420217,2.9922672097,-1.9959313723,-0.4202852527,-0.420666986,0.0579038321,-0.6717919674,-1.0492661875,-0.0952998134,0.9299786542,0.8221852067,-0.833093099,-0.2233726096,-0.0507740347,-1.3594345413,0.5704691963,-0.8078183914,-0.3008651671,3.3966813124,0.2122034344,3.0157459092,-0.6097938169,-0.8233604726,1.5084158233,0.8750298572,1.0357039198,-0.6309036088,-1.6273427972,-1.4862782625,0.1109768868,-0.3022703791,-0.6274791402,-0.0303840072,-0.3596920291,-1.1088261377,-0.3209825321,0.2359912719,0.5506729668,-0.2846535598,-0.2973314496,-2.8868757184,0.2359162182,-1.1239581963,-0.1674366296,0.2204649046,0.8240457369,0.7245331842,-3.3799930034,1.1937897066,0.7441919948,1.8494845209,-1.1207112564,-0.501683699,-1.7945601845,-0.8293316707,1.2253656198,1.14342931,0.9264380984,0.0345902999,-0.0809038187,-1.2979403384,3.5525853796,0.3437050148,1.4089699599,-1.6748372111,0.9486343931,1.0901815366,0.5620591454,-0.7799754645,-1.0230939849,-2.5379752951,1.6512171559,-0.1270637247,-1.6736315283,-0.9965730832,0.7886432555,0.0378929919,0.0532752666,-1.3686171436,-1.0753851186,-0.4578981739,-1.420745096,1.5608321861,0.148527657,0.097741033,2.1996404854,0.2719789781,0.0223000667,0.5407252873,-0.8227976739,-0.6798588025,1.8355908584,2.6105214523,-0.2654282331,1.4369436236,-0.1236954012,-2.1547666333,-2.0783078875,-0.0390178083,-0.333550368,-0.5172222529,0.8295300927,1.8243070165,0.3963186912,2.2670931566,-1.6149778244,0.7572753427,-1.8059028304,-0.0637637708,-0.1774133231,-0.8821954355,1.0781626824,-2.0258973253,-0.0482864295,-0.3567537585,0.4672092004,-0.0795789626,-1.0173370364,-1.5902624026,-1.3863049415,1.4860868664,-2.0064060818,-0.97851398,0.5000284052,-0.0520516048,-0.3530562479,-3.4718950477,0.3439527302,-0.277322401,-1.8638801163,-1.3830327774,-0.6189051237,2.7904223263,1.5324614246,-0.8403592076,-0.5559897633,0.9538061836,-0.2420257893,-0.5963379582,-0.2859964936,0.5554427173,1.3429743709,-1.6775776598,-1.7436782623,0.6512271284,-0.5852553085,-1.3652976393,-0.0515487793,1.5687249629,0.2284272539,0.9628684521,-0.4029556331,-0.9390865711,-2.1569310806,-3.808350019,-0.2065374048,-1.0723903101,-0.5640013404,0.8107695505,-0.2971918753,1.9631113838,-0.6048034556,0.7331072937,-1.1674700746,-0.8760961889,-1.0982388264,0.5806750423,0.7228899453,-0.9280574621,-0.0645892569,-1.0070107486,2.072614403,-1.3465829171,-1.7248358672,0.2813935302,1.5908231155,0.6491222782,0.0892706421,0.9806135599,-1.7440729194,-0.1875546686,0.3924695101,-0.964695336,-2.9303917079,-0.4771674787,-0.5544752842,-0.8060273003,-1.5184343419,1.5589127704,-0.4761579215,-1.3220116582,-2.2670221044,-0.7472470986,-0.8234996202,-1.5073564858,-0.8442378948,0.8440941194,2.3620160419,1.8747475563,-0.6650011645,-0.0651025114,-0.2846029258,0.2494606948,0.7307492482,-0.8799875684,-1.7119362273,-0.0400907335,2.5308841796,-1.1608121739,-0.7297992806,0.2847213936,0.9707788996,1.8647545066,-0.6149608161,-2.4289897858,-0.7628460442,-0.4318763966,-0.9974729266,0.4588468861,1.1419053618,0.1981120981,0.803823523,-0.469168313,0.4374768871,-0.9337583705,-0.7462393889,-1.2252749689,0.3161458254,-0.7749645105,-1.4067335527,0.7534664306,1.1361428112,0.8093758956,1.343976253,-1.1460203548,1.8454687044,-0.8476022667,-1.8475925281,-1.706263357,0.078079135,-0.3818243481,-0.7903965277,-1.8287510658,0.5971443957,-0.8213608086,-2.2505478122,-1.1193961615,-0.465297288,0.1605369489,2.498861656,-0.3287936176,-0.5084751072,-1.1356237161,0.7170861913,-0.1537158867,-0.4681642204,-0.6528627169,-0.4262774791,-1.2318089027,0.804231832,0.6499761853,-1.0117730139,0.4418429806,0.3766547408,-0.2351279761,1.484471001,-0.7326976256,-0.9922095351,-1.3302793717,-0.4019271789,-2.8133819445,1.2413502143,0.2142363144,-0.1903710021,-1.3250873375,-0.8926010847,-0.3065647485,1.1734753925,0.4645472811,0.5493606017,2.4567741327,2.3842628394,-2.0614422096,-0.4132814882,-0.2283494647,-0.7667021041,-2.3528159013,-1.4484797651,-2.3659639756,-0.8620609775,0.209577152,0.563913508,-0.6918663164,0.140915499,-1.895528016,0.9333356534,0.7251219135,-0.7684969376,-0.7304329961,-1.0035729562,0.6419729305,1.0765504248,1.1853785646,0.1601497266,-0.2436435471,-2.5361367155,-2.6707482485,-0.70461111,-1.9445162266,-3.536173297,0.9771004731,0.3762926212,-0.3643400415,-1.9830065755,0.625009125,0.8431404069,0.9128671298,-0.7102999108,0.0524909044,-1.8917054997,-0.3364052593,0.5418064008,-0.2622418157,-0.5576389135,1.5089301606,-2.3451784788,0.4359031994,-0.0868209283,0.4689421408,-0.043079958,-1.2366347693,0.5189287485,-0.2136690541,-0.2538717345,-0.2500824709,0.9893561884,-1.3580254638,0.5536044963,-0.6596478195,-0.6456870487,0.5433839453,-2.0652986241,-0.0689395564,1.5003217519,-0.1074706531,0.32312149,-0.7173716317,0.4531969765,1.9027771224,1.1839043464,-0.7702825755,-2.0770381752,-1.3094888077,0.5637809717,0.763498099,-0.5232369778,-0.2563830228,0.2738856859,0.1711403866,-0.3910105102,-0.2878070244,2.8143802385,-0.4105167837,-2.7186682205,0.4516759231,0.0923974152,-0.7505837713,-1.2904838446,2.0165046922,-3.7909969809,-0.5935395761,-1.7187928334,-0.317785234,-0.4281045624,1.9556049498,1.9362071182,-1.5254875908,1.1404495619,-0.6982279373,1.569435865,1.1472921734,0.9620768439,2.0508933715,-0.6272708647,1.0146237677,-0.7766204789,0.2600599645,1.718377232,-1.4984939071,-0.9346798876,0.1633851743,0.8387630663,0.7423708067,1.9573129046,0.2224142476,1.8174744615,1.2725384082,1.1139485685,0.6292691501,-0.4058712809,-3.0174527391,0.9392492088,1.68511743,-0.2764506594,1.0870808664,-0.9380904735,0.9002216021,-0.4204339202,-1.6380366778,-2.0962409999,0.5506014325,0.4209748308,0.4364237408,-0.2804286426,-1.7247458764,-0.8217118911,-0.4577624857,0.0774964494,0.2532851416,-1.1449788079,1.0905306194,0.0349108248,-1.3487642547,-0.3211317577,-0.0163422026,0.5924788508,-1.7744299769,-0.0154731968,0.4355178045,-1.3729330481,1.573423063,1.8553690076,-0.92231471,-2.0310787443,-0.5450024607,1.2812126722,1.5485505441,0.4057286104,-0.2576689885,-0.423667977,-1.3397624106,0.182088077,-0.5345339396,-0.890105691,-1.0612161096,0.6184672877,0.8791265254,1.4095126623,1.3471557363,-1.7634264995,-0.0059841554,1.3758162115,-1.3005949546,-1.0699530831,-0.2115833924,-1.338171562,-0.0039213741,-0.3200376638,-1.4591439227,-1.0388705994,0.2478860169,0.1071369771,1.0005813567,-0.4993593874,0.8699115625,1.0377754506,-1.4094242706,2.4188403039,-0.2362844074,-2.5882232243,-0.4114013619,-0.5387949221,-0.1269228904,0.0342791323,-3.4328633694,1.4010326139,1.303032659,0.2138569859,-0.826825409,0.1482676835,2.4275431938,-1.1685932294,-1.063903263,0.5902905579,0.0146217103,0.2827187781,-0.4022131537,2.8873021396,2.3219957794,-1.1152365214,0.9215562781,-0.3728486676,-0.1742779993,0.5755438445,-1.4016428609,0.4334897743,1.5195127342,1.1499292541,-0.3288190168,-2.0101234164,-0.1018300117,0.9143620194,0.4972453144,0.6920661809,-1.2111156667,1.5186473523,2.024002626,0.116846371,-0.0159500795,-0.7842744346,-1.3417634993,-1.8893547045,1.1120713239,1.8912280702,0.8928418672,-0.8172396199,-0.0791883147,1.4354129516,-1.9952802862,-0.6198102792,0.8541104129,-0.6806906351,-3.373311438,-1.8656966741,-0.4511094297,0.4292063661,-1.0614113771,-0.8726078049,-1.4831604757,0.3316018393,0.447934597,-1.2790527517,-0.027689567,0.2458392486,-0.7626994723,2.0969681457,-0.3943361994,-2.0094556688,-0.2186242534,0.336167849,0.6205036517,0.8492401574,0.1369170777,-0.4192860721,-1.1369705643,-2.2913413686,-0.7258295622,0.0252760949,-1.5212036324,1.3204031981,0.5436252104,-2.4910266051,-0.3416273834,1.9339483136,-1.1663528944,0.6732163161,1.7417420332,2.8787259249,0.4560748788,-2.7178657732,-1.5222776646,1.7134118644,0.9124286605,-1.4593527916,-2.0610843902,-0.9089587578,-1.217019832,0.1293973734,-1.0689123268,-0.1085176157,0.2369637305,0.2905353945,0.6982987109,0.2795361022,-1.3573417816,-3.220019588,-1.122213574,0.4817103099,0.4862235057,0.0327593131,-1.3909990873,-0.9550030261,-1.0671416854,-0.3028025941,1.783901937,-0.9303658043,1.554580275,0.2983156985,0.0566213463,-1.6838893778,-1.3245845152,-0.1447813936,-0.4536388466,-1.3152123502,0.0630876571,2.1183785571,-0.9838265542,0.9679532449,1.0554056703,1.5931409393,-0.6614456623,0.0379109279,-0.3266842654,-0.4368277516,-0.328352131,0.2607879567,0.8976903629,1.7683550564,-0.8672301441,-2.3993260032,1.7307090188,-0.8654730067,-0.639845034,0.8965595601,0.3757333518,-0.1069191813,-1.160766277,1.0755401095,0.6450635019,-0.1338820886,-0.3384739062,-0.9866263879,0.178152689,-1.0082755959,-0.6008559196,-1.7625619636,1.3120283932,-1.0910408845,0.1580233722,0.3534842311,0.3739574607,1.6921825797,-0.9776465686,1.6157786343,0.1760830881,0.9377397542,-1.8111930854,-1.5095519343,-0.1893374188,-1.5378701122,1.7528577437,-0.5841153509,-0.0337286655,-0.3227824868,-2.2042161572,-1.649544319,-0.289818847,-1.9478785261,-1.2487985182,0.4721228537,-1.7433517899,-1.4490289153,-0.5212628146,0.9725230554,-0.2048061107,-0.8498669307,-0.3138525549,2.3761030454,0.259866678,-0.2974584872,-2.9248358493,-1.0457374035,-0.7977816432,-0.3673043516,-0.773161977,0.032848981,-1.618846238,0.2109745305,0.3749416734,1.4095392677,0.6120440633,0.692053804,-0.2813479101,0.6494883454,0.1068660896,1.389345386,-0.1874882546,-0.496292094,0.3524305222,-1.0458464486,-0.391090355,-1.1273766721,-0.5290488832,-0.2303000119,0.8180077125,1.2735851693,-0.6158310019,-2.5894512452,-0.0410275881,-0.5513585428,-1.0893144026,-1.9213399212,0.9221668118,-1.2063259609,-2.0749927633,-0.4712524985,0.023576967,0.2413043166,-0.4775191984,3.7243056667,-0.7234849949,0.2224176812,1.1844530097,-1.5082906268,0.3902713617,1.3795882047,-1.8596071914,-0.0191394461,3.0868704684,-1.4849549046,0.7403452611,-0.8821682679,1.3539749329,-2.0054871735,-0.6239402344,-1.9606185131,-1.3657323567,-0.5462133103,-0.991106844,-0.6792690176,-0.1714678414,1.4276680667,1.3346676475,-0.1141084431,0.7887996423,1.2034428899,-0.9360722332,-0.9861737533,0.6580061003,-0.1068754158,1.0330234594,-1.7400155202,0.0088347169,0.2349405558,-0.9543224031,-0.1873120935,1.0903368942,2.0199920311,0.6635243174,0.8044684077,1.3911102859,0.393248538,0.2131242108,-0.1441674332,-0.8243288103,-0.2497395723,-0.2782629,-0.8659692212,1.8340266159,0.2869451831,-1.2856506043,0.6040144843,-1.369650228,0.6489948219,0.2087987086,0.7455925084,-1.7502413448,0.7185906965,0.7083794151,1.3350078111,1.1859305605,1.2179312926,-2.1566621182,1.3908055656,-0.0468509647,-0.735918537,1.308953208,-0.1173475137,-0.6573654867,-0.3596790759,0.6249158175,-0.9863406198,0.2256667483,-1.4001760174,-0.9325675785,-1.4014508717,-1.1911806833,0.2383957135,0.9835932513,0.7954645566,0.64921048,0.1333047793,-0.8924554074,0.9681306486,-1.1750499645,-0.4299604667,1.1342392386,0.3589308588,-0.5339494753,0.8173467,-1.1926894917,-0.5578687343,-1.3464585705,-0.4553258716,0.4649745951,2.066751178,-0.274041832,-1.629109638,0.1725230756,-1.2899401378,3.3838445629,-0.8805141914,-1.987014659,-0.4141608737,-1.9872121105,0.3340130921,1.4242706271,1.1638285669,-1.6470495634,-0.670562157,1.7004062913,0.0679785438,-0.4894377631,0.8640166974,-1.9384371585,1.5464208969,1.1255591525,3.0479094062,0.7621145213,0.2919915987,1.3852547768,-0.1962245126,-1.9521286598,-0.7239427849,0.4093100706,-0.3513705234,1.2766091341,1.9963422238,-0.5745897416,-0.7028784711,1.5798795839,1.1068632935,1.0052386637,-1.5889060074,-1.662569655,0.8315126036,-0.0024111369,-0.27349706,-1.0866788457,0.3565405699,-1.6592542724,-0.5039023192,-1.1310955111,2.8048942357,-1.2966374484,0.4374620705,0.8779011106,2.1335710576,0.1296169033,-1.6085705753,-0.9098021358,-0.7951875124,-0.4315944872,-2.2954459457,-1.8774182584,-0.3149865344,0.8571939276,-1.5418412037,2.3950696227,-2.5748524078,0.6952932937,2.0251432792,1.2580936045,-0.92179836,-0.1593195048,2.7640419481,-0.2058193741,-2.0639647423,1.0011868714,-1.0514438846,-0.5680228615,-0.9610886595,0.994022136,-1.1619044408,-0.0769969547,0.2421736392,1.2301182591,0.6148167896,-0.2053700816,0.3930286765,-0.7646114664,0.1323620344,-0.3021349013,0.290227961,1.019442899,-0.4867030627,0.8545977757,-0.5456615392,-0.7186096631,-0.496125506,0.7803510544,-0.0230889785,-1.1606160325,0.4430383666,1.4941381334,-0.2247993682,1.2488866205,-0.5266544204,2.2108588207,0.7127856003,1.2096276652,-0.2936025595,-0.8335004336,0.2095893786,0.1286304338,-1.1426257028,-0.8627718401,-0.8014339244,1.3378531905,-0.5792323454,0.1828843757,0.0631223405,1.5856911622,-0.0150871918,2.5211667765,-1.8609997056,0.9763130888,-1.1903396675,1.3454441889,0.3995829414,-0.4024213455,0.846689379,0.5965208363,0.188432644,0.338003154,-0.4176608422,-1.0686303812,-1.4340831114,0.1188925239,0.4876794307,-0.4468745863,-0.1643495981,2.7531956468,1.5888021169,-0.2643510506,-0.559091628,-0.9470628198,-0.397923595,-0.7929618489,0.3525429274,-2.3862120833,1.0585455089,-0.9408651471,-0.9549932671,-0.5155101114,1.5624056124,-0.2873924,-0.9175878837,0.9931037229,1.2021729998,0.7469676546,3.5258460208,-1.2429240314,0.6933915721,-1.4154130324,1.5760495906,2.5532551181,2.3946730256,-0.1217232158,-1.4914618513,-1.2502624911,-0.3562496651,-1.1673776367,0.3000862116,0.3048818002,2.5007170739,-0.6524692733,-0.3463284264,-1.5537172232,-0.8844888952,-1.0763217645,-1.0324268228,-0.3642731882,0.0559479826,0.5954335162,-0.0412650485,-0.5519976784,0.4137558934,-1.5007940937,1.8234221394,0.2053563246,-1.0249799769,2.0111457103,-0.8457897234,0.886839083,0.3332606231,0.2478453489,0.7278758056,-1.5231321356,-2.0668752329,0.2852466261,-0.7639113178,-0.6527929111,-1.4997580088,1.5100625085,-0.4971417132,0.7451584852,-0.066764038,2.5129248535,0.9996212007,0.9044606018,-0.7066636952,-1.3825757041,-0.7468492007,-1.3079246665,0.5535910277,-0.1592379526,1.4902051845,0.7910331214,1.0342777085,1.1454056908,0.2557806975,0.3372179706,-0.9458238531,1.2727490112,0.008305846,-1.0341139932,0.8467040137,-1.317057703,-0.9665271967,0.9654744058,1.9497543815,0.8249845817,0.5491849412,1.1663424292,-0.4893121754,0.9507388362,1.4916859123,-0.2609181107,0.1514948697,-0.3628346188,1.2099181566,1.5508690659,-1.3149267071,-0.8144722951,-1.0074036385,1.8734414322,1.153185222,-0.196037193,-0.2075094148,-1.3033602581,0.0558958477,-2.2592739173,-0.8525710018,1.0252663215,-1.0132618395,1.6013811,-1.3009789993,-1.6181380266,-0.3350519735,0.0798464031,-0.1533078827,-0.4092691988,0.9060368167,1.5261580982,1.1532618824,-0.2831344399,-1.229016237,-0.7325633583,-1.6375423749,-0.8441011914,-0.3311715775,0.6433837992,-1.1470270255,-1.3812746138,-1.0015698712,-1.2809189809,-1.2310068714,1.9204870023,0.6733439806,-1.1138379678,-0.231417332,1.325951858,0.4360442476,0.61637847,1.1354235431,0.2003727264,-0.1375687064,0.264955906,0.2242865165,-1.8191405689,-1.3448931081,0.0676249664,0.1650157796,-0.500788104,-0.0224391983,-0.1410235791,2.6174824041,1.2190344294,0.2478453429,0.7451536916,0.7028666006,1.0113395238,0.537589312,0.4358042456,-2.5183005136,-1.0845943691,-1.1470718297,3.0578582535,-1.8112996011,2.2486102121,0.6840940146,1.7070471458,-1.4854921085,-0.1111792985,-0.4912171888,-1.6082820139,-1.5077598886,0.9901834139,1.3279539799,-0.9019445525,-0.6051624059,0.9950083838,0.5543993285,-1.029972235,-0.7700890869,-0.4131603894,-0.5687308908,0.9904493608,0.1488703703,2.1600511685,-1.5172805055,-0.1778660548,-0.3295694154,3.1547742204,1.488185729,-0.9205464732,-0.7215258087,0.0356696272,0.9426191823,-2.0826218183,0.7038199333,1.0993105627,-1.0910833424,-0.3005555229,-0.5035049706,-1.3177056183,-0.0172736185,1.6623611911,-1.8268874675,-0.1079720037,0.498272761,-0.243014712,-0.2336216327,1.1344263341,1.8777198262,-1.0060332661,0.3145980485,1.0483337202,-1.379232252,1.254692632,-0.6291709847,-0.6117834084,-0.4986003685,1.3928520214,0.7757461292,-2.4854767537,-0.61439393,0.5777854363,0.7662435827,0.6242411156,-0.6996148008,1.408780605,2.6106583746,-1.1049506213,0.2604957654,0.7700285792,1.9147339353,-1.0469956833,-1.5811351857,0.3692634012,-0.9381397722,-0.8729047287,1.8195353647,-0.4164463383,-1.3208267931,-0.8215047176,-0.3010639446,1.0003167344,1.1805964685,-0.4361418963,0.2564662558,-0.7480468476
   -1.4292868245,0.0652567373,-1.1379451612,1.0649510702,-0.0959304151,-0.3091813942,0.040841562,0.8432007959,-1.0674233336,-0.715388934,-0.5294530834,1.0939067144,0.4879015768,-0.0644501002,2.477359507,-0.331243567,0.2300446478,2.5031361897,0.0292380266,-0.1351206582,1.2008273141,-1.0761118391,-1.116794458,1.0525723879,-0.455731164,-0.6492445277,-1.155788535,-1.2568326696,-1.5873383709,-0.9096929526,-0.4510940382,-0.095075755,-2.9689205317,1.1928233172,-1.7061825052,-0.2131880973,-0.1979130708,0.3225769381,0.0805872359,-0.007201455,0.6996366765,0.6486579683,3.579949167,0.2001275674,-0.72057392,0.3847903365,-0.2702726857,0.5424507938,0.8230803752,-1.8411702972,1.0919163028,-0.7867978698,1.5664098859,0.8752064091,1.612918649,0.0738357225,0.1160709365,0.3097369137,0.2870817025,-0.8345193824,-1.7296999005,1.0603702251,0.383296225,-0.1116816218,-0.2642509605,0.3905346851,-1.7942695393,-0.5886241223,1.5226613074,1.1581916924,-3.0811121246,-2.5189812641,1.0179084202,-1.7135833653,-0.9810854849,0.5826200465,0.7553878162,-1.6543177702,2.9228162991,1.3262716345,0.9004954891,-0.499998686,1.2977458434,-1.1650801315,1.2661650265,-0.2129206781,-0.2079645859,-0.903102701,0.5980270152,-1.5091058313,-0.4030769459,-0.7243566422,1.831085348,-0.3056489378,1.4543078073,0.1453742312,0.9792524448,1.187142177,-1.0583958562,-0.0107137421,-0.3592161901,0.6394528273,-0.1263751663,-0.3122349904,1.1248600234,-1.7376466749,0.4617076805,-0.7416300321,-0.4994550401,0.3403140561,-0.4248593595,0.4462585651,-0.5200567249,-0.8544237675,-0.1346059251,-0.9211114001,-0.4205323911,0.1374457374,-1.9731730946,-0.1709505998,-0.8082086827,0.5250993726,-2.970761574,0.9388695773,1.6545334799,1.1942610871,2.081874822,0.5231102211,-1.3575911269,0.4923954084,-0.5707528768,-0.0540060255,0.6784647078,0.6251880129,-0.8023381256,-1.9254401057,-0.8219831072,1.6179178472,-0.1309959154,-0.0505051975,1.1042241126,-0.2493411504,-0.5072968861,-1.0633248075,-0.9930189387,-1.312337001,0.3304908421,-1.0385971129,-0.9745831714,-1.511850869,0.1370778272,0.9747206549,-0.7462053005,0.0178951976,1.0919602499,-1.3306763441,-0.706533263,0.2104794164,0.0754883042,0.4446217866,0.3399190595,0.9127157601,0.8676267637,-0.7156952073,-2.6144621161,-0.612328926,1.3754745266,-1.2761052924,-1.0387599049,0.7779745477,-0.4306160344,0.9078002662,-0.8982609886,1.3735835975,0.8160315717,-0.3420391157,1.7613702215,1.1827878158,0.8792076709,-0.0367672478,0.1803891368,-0.1455484446,1.543813138,-0.412338697,-1.7463384823,0.1183545377,-1.5673500147,-0.0688369916,-1.0189060762,2.3859901831,-1.2712941448,1.2514315662,0.5509482403,-0.7516310168,-0.7547885124,-2.6474340463,-1.2297530293,-0.0315048856,-0.5090309241,-0.2578670227,2.7876490096,-0.3337135874,-0.301670314,-1.7635728882,1.8898105865,-0.8090332441,0.4877523952,-0.1461933263,1.1629676097,0.5317658668,-0.9331258982,1.145379034,0.3841304208,-0.2371229352,-0.2585906419,-0.1215735042,0.6355331717,1.3980479735,-0.274525576,-0.644508239,-0.8288780571,-1.0842746848,-3.2075593337,0.5746291732,-2.1022552752,-2.3193676811,-1.5133007586,1.3583092397,0.5634807167,-0.1228334097,-0.4007787735,1.4452366614,-0.5264445408,0.7018528683,-0.4691872586,-0.7265699874,3.1728235886,0.2669940151,1.4151168052,-0.2747863536,-1.0770350305,0.0620541965,0.2881218784,0.4426882419,-0.0677022117,1.6879624788,-2.1339393851,-0.7251295892,0.9543705885,-0.2051396862,-0.7683713236,0.2873025756,-0.0889230323,-0.6750394439,-0.8594062842,-1.4076504533,1.0795742025,-0.3602590263,-2.2547828759,0.0005788427,-1.3663006356,0.812793102,-0.5535140494,-1.0922783521,1.5937882744,-1.0333297331,-0.8857382462,-1.2698852491,-1.7977919146,1.5683473607,-0.2035167409,1.1702309166,0.6120460403,0.7917468694,-1.024120457,-0.2642814416,0.1997084078,0.0219855936,1.3523883951,-0.6480806014,-0.7925092139,-0.4552675775,-0.7895802824,-0.0558990553,0.555433789,2.7922530159,-0.4207304753,1.3994541027,0.7636090303,-1.0889006771,0.5200848844,-0.6846891421,0.4482665943,1.95622482,0.9382046312,1.287999401,-0.0946824569,1.003657109,1.5639083386,0.213330334,1.6993659956,-0.9368636309,-0.8785147118,1.3377285018,0.8461294488,-0.8767118592,1.0621569522,0.7201148765,-0.4501986825,1.4501117229,0.0276099821,-1.1244472381,-0.3695492497,0.076539251,0.9849043539,-1.0304618114,-0.1105772112,-0.8576090678,-0.3162289159,-1.398836665,1.03213079,-1.4417930606,0.0212563922,-0.4612123263,0.2398806448,0.3883210974,0.8911956345,0.0043807248,0.2023748624,-0.7213785165,0.3429032175,4.0821143021,0.0328685176,-0.5625626257,-0.0721505929,1.6246313358,-0.824124398,0.0874915694,0.5888514836,-0.0681505862,-0.43495706,0.6174449252,-1.9213709459,0.4206094818,-0.0760070066,-0.5884281166,-0.7223002937,-0.6394357778,-0.2998767467,1.2538014291,-1.2166608393,-1.5726509982,-0.0057338472,0.2495835477,-0.3221548223,1.3414296279,1.4702284663,-2.0134077635,-0.6791054366,-0.941221519,0.6993445233,-0.0634846448,2.6236454036,0.4587696642,1.7903486894,0.6315604232,-1.0057178768,-0.8284457399,1.8828528248,-0.6886502172,1.3619190372,1.1969913643,-1.6054403712,0.2813594108,-1.1572269974,-0.9933067899,0.2189156861,-0.5929235771,1.2618062336,-0.4028579539,1.2464673243,-0.2221295551,-0.0057028365,-2.1552280341,1.4761038527,-1.4165298749,0.3965154174,2.0029543007,0.4106650101,-0.0478295526,-0.0426627083,-0.5901318142,-1.3750098469,-0.8285086012,-0.4104709268,0.9219967848,-0.02427792,-0.7301686055,1.4084651728,1.2643432569,1.0497214508,0.8409549818,-1.0071309465,-1.5602237677,-0.9134325222,-0.203508828,0.0445627692,0.9821490203,-1.0334897734,-0.3930927289,0.0167134455,-1.8232529392,-1.0532446341,-0.0895130474,0.4049533522,-2.3387299412,0.0656449827,0.1362801461,1.245569288,0.6144888756,-0.6079858603,0.4776725389,0.3053238366,-1.3761893732,-0.0987182161,2.1142130279,-1.7902144794,-0.5663926506,-0.9939084513,-0.8634835118,-0.3068493858,0.1921381077,-0.3857876145,0.7621182916,1.7598520331,0.1887288238,0.1991889587,-1.086999927,-0.1255809352,1.4291713865,2.0520790539,-0.9650010118,-0.3013704457,-0.860882426,0.6926086294,-0.1093189709,-0.0786691565,0.0781029296,-0.9007050908,-0.6069138539,0.1506030328,-2.4815632391,-0.7397555981,-1.7113953926,-1.1796696,0.8648252968,1.3580446718,-1.6586769076,1.2077377484,-2.6910438764,1.5235842206,0.8477714541,0.0966902145,0.2347053584,-0.0418754872,-0.625131293,-0.6424270227,0.1595448506,-0.8298064791,-1.1330998039,0.1358572193,0.3103327103,0.679665234,-0.6028030612,-0.2648730723,-0.3278697077,1.4060061319,0.2802750002,0.8994099199,2.3307752935,1.6415567623,0.778486284,0.7239656466,0.8606843648,0.0080483112,-1.3163550342,1.0316836982,0.9901342809,2.1288432306,-1.1897764632,0.7794914427,-0.2752690951,-0.8333279271,1.2647488573,0.1489525969,-1.4971714879,0.1954098291,-0.3541651344,-0.262244851,-0.1547627485,1.3393008421,-0.1947631117,1.1499935031,0.1566276488,-0.3718675768,-0.8639080503,2.5305941106,-0.6826992579,-1.3229772111,1.2209547564,-0.1513398959,0.282470641,1.9257007969,0.8727618996,1.5359377064,0.1661346963,0.925066025,0.1214929208,-1.615264484,-0.8111242204,-0.0887974299,-0.14794189,-0.9591907334,-0.4723272549,-0.6077668297,0.9937843221,1.5570283385,-1.1069034988,1.1614875494,-0.0879123393,0.371987737,-0.2981946084,0.3786662488,-1.0996025265,-0.6786622948,-0.2407305565,1.119348049,-0.7823980867,-1.3319723779,-0.2230571819,0.1246386795,-0.4611725094,0.6285441234,1.0032085252,-0.4562092087,1.759700387,-2.0551745007,3.3174995241,-1.1324566253,2.6289642679,-0.8951413698,1.6740158213,1.0509756343,0.6924620326,-1.1536375496,-1.3282115192,2.3238530797,-1.1880597973,0.9935857477,0.0103879854,-0.2611555949,-1.1666005081,-0.2695782865,-0.149479303,1.0587016676,0.1489718306,-0.0861605919,0.4871255349,1.0588519277,-1.0197182176,0.9007793429,-1.3326227074,1.2813787654,-1.4395861464,-0.6202078387,1.446287892,-1.6695337926,0.349255872,-0.0834735562,-0.9166422436,0.1369537358,0.6395037443,-1.0849216163,-1.0554833733,-1.1187612724,-1.128979354,1.0719665265,-0.3365679241,1.2248625355,-0.7123840129,0.1344127692,0.8003022555,0.1646570413,-0.0498541573,1.1996977319,-0.7640045042,0.150677473,-0.5640549247,-1.1516600222,-1.4738061175,1.3228648169,1.4324710996,-2.1058933057,1.9512307949,0.3404522684,0.6434004294,-0.1157683065,-0.0304227886,-0.7261408195,-0.7707980702,0.3643133289,0.3760162331,0.5966707614,-1.0616170331,1.2306874568,0.9313752132,2.6615675346,1.077475956,-0.7271975617,-0.9655445271,0.9469951508,-1.3294190347,1.1471141991,2.2877461064,0.0334719883,0.989891831,-0.269009251,-2.5497960459,0.913079857,1.1743699896,-0.3632460278,1.5485163654,-0.0706296039,-0.7597650475,-0.3306036729,-0.4684360555,1.5389428151,-0.2399339346,1.0451907766,0.2658926446,-0.7952798766,-1.502496845,-1.5966834489,-1.8017877309,-0.1091538861,1.7831718972,-1.2023592087,0.320551417,-0.3717441655,0.3306338776,-0.6535608933,-0.0196774371,0.2243722784,1.470350381,1.1967611144,-1.1985766201,-0.5808867654,-0.7571614235,-0.3168490937,1.7039940935,-2.6158712241,3.635148575,2.3795371504,2.0924575198,-0.9091617974,-0.3251903459,0.3578433424,0.1163549909,-1.3029705399,-0.1763917067,0.5310300084,1.67604258,2.5820665448,-0.0304571603,0.2902443219,1.0910203789,-0.3027456196,0.3122239271,-2.622102952,0.6306615458,-0.3935754964,1.7623493082,0.5079388485,-0.3053118542,0.7093164962,-0.8546203151,-0.6688905524,0.7574670148,1.1532611993,0.3255163709,0.9065798055,0.7184367336,-0.6475461375,0.7640231015,2.3360529696,-0.8462896404,-0.9842022349,0.6435486916,-1.0963247763,0.0527342389,1.9784533679,2.5048276899,2.7497844179,1.1921418236,0.6211179223,1.5970152526,-2.5819837162,-2.3737232961,-1.179770001,0.1453165943,-0.1873719619,0.9525602053,1.0780858049,0.0428080882,0.3776294476,-0.3709525857,0.2501640774,0.9575931513,0.6695544007,0.648553918,-0.1285941751,-1.2860828783,-1.9184612904,1.7179879443,0.4631488696,-1.2948424661,0.0852486764,0.1413475203,-1.4027822294,-0.0738729503,2.0949405687,-0.4291309827,3.3858151897,0.1801192871,-0.2517519027,-1.0685569986,-0.4381560609,-0.5191962969,-0.0978220919,1.9420447773,0.7049537192,-1.5172818783,-0.5077975279,-0.0879305986,-1.4545784948,-0.5665534444,-2.0073481162,-2.8724524739,-0.0216191089,-0.0124871547,-1.0302502197,-1.7975453035,0.2183286503,1.0506709503,1.0686181706,-2.2379711935,1.2858122785,0.5140434273,-0.6353340374,-0.6480531399,-3.4448110155,1.1768386589,3.1964933218,-0.6796071369,-0.638989921,0.640421218,0.6769388304,2.4428893533,0.833396206,0.8378489654,-2.7208976462,1.7533704244,1.908400627,0.3710477471,0.1516259925,0.353030327,-1.8332135618,-0.8705967338,0.8506263407,0.5213863405,0.2267218321,-0.580805094,0.1987134411,-0.3907390582,-0.7072300353,-1.4195402249,0.0448603622,0.5361655174,-0.0603264911,0.1334122362,-3.1542504364,1.9222922133,-0.126398736,-0.4148546678,-0.9083365363,-1.131795513,0.1594825571,0.4438337297,-0.8173830592,0.27158532,-0.2188676684,-0.9487660216,-0.0262311366,1.0826079512,-1.5990318978,0.5941019675,-0.2757640946,1.5267863344,-0.4246958169,-0.2468587516,0.0657486194,0.3893855474,2.7578104812,-0.5221569031,-1.0549519204,-1.7599500866,0.0904803943,0.183635083,-0.1808216664,0.4647052629,0.0298351175,0.0292702553,-0.4811438169,-0.0365890016,-1.1801519078,-0.9198077044,-0.1860196061,0.1415487445,-2.5083525772,1.1333649829,-1.5346700167,1.1996435901,0.2218336982,0.9389549447,-0.0161564237,-1.3223639295,0.1931600953,1.0697097367,1.2992872706,-0.612586619,-0.0122881425,-0.0421383034,0.5645931409,2.9506871998,-2.9303648734,1.1413167813,0.0564585893,1.395100936,-1.1381757688,0.0138537836,-0.0073002258,1.2097217275,-0.2508275811,-0.9666860775,-0.6284937589,-1.2808165666,0.1299004858,-0.2842001668,-0.6036196645,1.6325416747,-0.8654179944,1.828179452,-1.533255997,-1.2239970353,0.5953044728,-0.699430731,0.5360190975,-0.5264059028,2.0606137153,1.1369455196,-1.1130765127,0.9333890566,1.1312440125,0.6257183554,1.8276969555,-1.0775564453,0.4676336244,-0.4194379951,-0.2335337227,1.0863446914,1.1380099748,-1.7882575005,0.2938785023,-1.6387131086,-0.4273697429,0.099142934,1.0565534302,-0.5349969584,-1.6688675228,-2.1675568859,2.0130996046,-0.4426225773,0.008923421,0.254263851,0.2580405384,0.199933745,0.9290647591,3.5958163685,-0.1662749602,-0.7721130372,0.0945049461,-0.9586297597,0.4676823901,-0.1204582757,-0.0707996179,1.1910683021,-0.4288645534,1.4942686918,0.3075507435,-1.725343399,1.4424646219,-1.5033140309,-0.3457519792,-2.6934330839,-0.1849799917,-0.42414521,0.4462693413,-1.0008636643,0.0625455073,0.8036539696,0.4038988575,-0.3586674735,-0.2972691821,2.1435246486,-0.8102624591,-0.8666920341,-1.1923428431,-0.5573203201,-0.1948645125,-2.6230239074,-0.1986986809,-0.9808861353,1.9005555075,0.467062004,-1.1451276826,1.3438783404,-0.4222587751,-0.8282407523,-1.7235626642,1.2196844873,-1.7402490618,1.3889024999,0.4800302369,0.0121867151,1.9452190725,-1.3358486463,1.5042880004,-0.6238035052,0.6986950423,-0.5274887891,1.4858738784,1.8619039338,1.1003255945,0.9433345156,-0.0603242102,-0.1322480049,0.2359089613,-1.445196568,1.8650634902,-1.2425863763,1.1450666757,-2.8420461916,0.6725175228,-2.2583261432,-1.3686671186,0.8139752867,-1.8385203401,-0.670425166,-1.6538413012,-2.2195834713,0.9532398292,-0.6980708568,-0.090928648,0.5304725388,-0.7381916134,-1.1700578943,-1.592045844,0.0888323706,-0.0943131572,-0.4813158229,-0.5904944776,-0.0031340552,0.0105181567,0.2347660104,0.4587256916,-1.3136088592,0.8154018956,2.1762938642,-1.4555656299,0.0525740726,-0.5864502168,0.3891434202,-0.7770479713,0.7862295418,-0.1928816423,1.3054682107,-0.3111124228,-0.2402322148,0.5863401696,-0.4457797577,0.7474251948,1.1611869238,-0.1189896954,0.0588088828,-1.0511205486,0.6279250072,0.9153196127,-0.0878747469,0.0063763557,0.4052775907,-0.644481018,2.2073624278,0.7579600914,1.2453652985,-1.4339572839,0.0549505763,-1.7255815925,0.4963644432,-0.7382163561,-2.6092297924,1.8812970737,-0.7581998241,-0.5955434357,-0.8494668949,-0.434677035,-0.309583238,0.5575416199,-0.4915252877,1.1419139832,-0.4885448449,-0.2474518626,1.6994027382,-2.5868524513,0.4496256036,0.7882463724,0.0908773746,1.7293080426,1.0776517119,0.8459965459,-0.6130000005,0.571317846,-0.1359675041,-1.2099169526,-0.4336544891,0.9215252624,-0.0348647289,-0.2349934535,-0.3336466032,-2.2754400762,0.9039101992,0.5138670895,0.3426755906,2.0560024724,1.8855437505,-0.1877174744,-0.755492254,0.5099717797,-0.6505347401,-1.7791543761,0.5417044474,0.1208346266,2.1909080047,0.2474663541,0.8226075991,-0.4915031656,-0.4658045411,0.0199263116,0.9327832442,0.5409930817,-0.8327403646,0.6385127606,-1.1241691708,-1.5913386107,-0.2517578313,-0.1178555435,-0.1500511527,-0.6963728898,-0.4148319606,1.6880114664,1.7248247336,-0.8826992306,-0.9695845401,-0.0047398717,-0.1754277793,0.6527050723,-1.1699594667,-1.7272521318,0.9343334659,0.3126562221,0.1916380168,-0.0509754989,1.786549441,0.0043268234,-2.9567468122,0.3817315693,0.4873159237,0.7457932433,0.3215445325,1.4373834679,1.4381937796,0.4242013765,-0.5665295669,1.8845461557,-2.6941639878,-0.3786829809,1.2737282107,0.1905170215,0.3782121063,0.3436381831,-1.3692698411,1.2495961251,-0.8326372106,-0.879483473,2.8300377672,-0.7106994281,2.1467147256,-1.118583962,1.2104858509,0.5465224559,-0.1798138696,-0.0104713246,-0.0982314682,-0.1269271592,1.3554946999,0.0095578024,0.3190965656,-0.4396202371,0.5748261904,1.4309623002,-1.0035773195,0.4017089235,1.2913263019,1.3427482505,1.4815874739,-1.4058631129,2.909226107,0.365794815,-1.2354262428,-0.089950147,0.8022411967,0.8360567362,-2.4972159516,-0.1670093776,-1.1456062431,0.8296867211,-0.6390335774,-2.5428027229,-1.8589171954,0.4666944417,-0.6543776805,-1.7837743018,-0.01975226,0.2196665076,-0.9693255562,-2.951395367,0.8497376044,0.1459401664,3.1849389915,0.4192821235,-1.2811140828,0.0370328001,-0.3743645904,-1.2527713836,-0.3281576465,0.6342014226,-0.0583601436,-0.9067631823,1.2438916723,0.5386125898,1.1033238229,0.9960944937,-0.7842810884,0.4847377921,2.2326612318,-0.5050531683,0.9410003153,0.2412373971,-1.2362363538,0.7884560755,1.0533890135,-1.6426435608,0.9771459829,0.2305323332,0.7368693889,0.3972758795,0.4335959986,0.0420695113,-0.5935787668,1.2336291209,-0.8889951325,-0.4914821762,-0.5080000113,0.5455398145,-0.1249939345,0.1792471329,-0.472414017,3.6317598431,1.0896223934,-0.0457981346,-0.6459302709,-0.1955684784,-1.233400911,0.38927165,-1.4888612294,0.8916014153,0.8742928091,1.5356506036,-1.8938770904,-2.5819734991,0.2489068162,-0.2086343009,0.0030448735,-1.565984665,-1.3690485044,-0.4122305218,0.7964656889,-0.1862753602,0.4147474854,1.7131508592,0.7261339272,1.4650518652,-0.6244808928,0.0167064283,2.2179739159,1.7428216415,-0.8457811298,-0.7647606225,-0.1831807686,-1.6431182667,0.9628916656,1.6128116085,-0.1317629607,0.9686494513,-2.2943301825,0.4030714001,1.0580817758,1.4744630941,0.0677032947,-1.0260839893,1.3640190314,0.0470622941,-0.2437163237,0.8750900784,-0.1767263687,1.8416483164,-0.4358033381,-0.8399055217,0.6543325345,-0.8713473646,0.0758620374,-1.8329253511,0.4832949862,2.9670303717,-1.288425982,-0.5981014932,-0.2938600186,1.7437644963,0.6210950259,0.6349047487,0.5840796801,1.1433808426,-1.9081185307,2.1753359302,0.1770584789,-0.2637222944,-0.3628685338,-1.0228319875,1.2988197095,-0.815548961,0.1327403312,1.4911260663,0.4821674448,-0.181853201,-1.3231744872,-1.4164635585,-0.1397177481,0.8376685287,0.052684653,-1.0627541866,1.2714498346,2.3680097425,0.6278898793,-1.7234515356,-0.1256162963,1.8140062155,-0.1802836382,2.2298290186,0.124804882,0.9459159682,-1.0410628098,0.2083193185,-0.8932309553,1.2428773743,2.8443365327,-0.264737534,0.594218916,0.7104570629,-0.8065444069,2.1875929872,-1.671850634,-0.0111668914,-0.7128541328,-0.4273656229,-0.3870322216,0.1085813021,-1.2623721196,1.4942542109,-0.088087474,1.5254710641,-0.8679138033,0.3595694261,1.516387179,0.1964464357,-0.5824691797,-0.6599211969,-0.4452636828,-0.5576374905,1.2922318085,-1.9145784947,-1.2087984203,-0.0783703174,0.2238869741,0.7389194452,0.2624028169,-0.6106164464,0.6176164841,-0.1658084832,-1.3486771186,0.4875620966,-1.1726480182,1.3394572347,-0.8955834402,1.1821111956,0.6374640438,-1.8404719451,-0.501617792,-1.5362014908,0.1754463298,-1.5919541143,0.4378776629,-1.7577524474,0.2764702278,1.6418729287,-2.1044557766,0.7962758122,-1.3597051029,0.523978961,-0.5706730727,-2.1690130375,-0.7746502039,-0.4965060141,-2.4142186544,-1.0198717156,1.892867379,1.6629552207,0.5368294569,0.7508286705,0.0489689491,0.686607941,2.2026973368,3.3601951339,-0.8974794071,0.6515994592,1.2270514145,0.6211231934,2.3202408335,-0.0794080611,-2.0342246978,2.2107856512,0.6627336984,1.2868008231,-1.4680185581,-0.2739190671,1.6220115979,1.0632554071,-1.872509368,-0.9182095663,-0.2269163094,0.037498625,-0.7524234562,0.1852498776,-1.1975664857,0.5513070112,-0.0148830758,0.4861366477,1.2307040775,-0.3600718902,0.415588656,1.2637532551,-0.8064378148,0.3018787919,-1.371224285,-0.9345434005,0.8620433085,0.6284317717,0.7102848443,-0.5214836082,-0.4877699178,-2.0388751542,1.6381605744,0.8375842902,1.42497246,4.0249766794,-1.1006901117,0.2448553141,0.5730059988,0.2994669816,-3.1975040928,-0.7303339429,-0.9385468189,-0.5263153586,-0.5036146643,1.0498255577,-0.7401166083,-1.3665649761,-1.4777256043,-1.1611681203,0.0274040334,-0.5352018104,-0.3286008821,1.0739881849,1.5270648094,-0.3624015825,-2.3392708878,1.3545920929,-1.0719055635,-0.7915782302,1.1154814713,1.7975438319,-1.0944076477,0.9730258028,0.8883399139,0.7788586742,-2.0325537297,-0.5243222351,0.1926831028,1.6102243762,0.2413159982,-0.1468795971,-1.0441180026,-0.0774760774,0.4539673581,1.349898573,-3.1425017553,0.3122407483,0.8555960262,1.1170838536,-0.0415105132,1.6145559578,-0.6821682497,-2.4827373211,-1.9407610762,-0.2927398565,-0.1148257393,-1.1912880239,0.0592026452,-1.8874963811,-1.049573563,-0.2578436905,-0.4524742983,1.5941314662,1.7574801748,0.0493036625,-1.8549255761,-0.8641293836,0.3669074696,-1.1282216433,0.9692409987,1.6277117289,-0.4236040487,1.6683703482,-0.7102747023,2.1557152391,1.24645664,-0.2778203219,-1.3073091001,0.0149507148,1.4772980232,-0.0418372082,-0.1107982257,1.9406646822,0.3267606344,0.6668565829,-0.328927589,2.304762008,-0.9756607756,-1.2259939638,-0.2616994303,-0.5085241177,0.9268456275,1.306596834,1.530495328,-1.7129107944,1.2954724737,-0.9716336296,-1.4094916232,0.5594110333,-1.0152842846,2.0061728017,-0.193730281,0.1916141694,-0.1912592419,0.1060848247,1.0806997434,0.4239582054,0.40920219,-1.1657534534,0.8971829372,-0.8732552402,-1.9402836419,0.643455226,0.1642384473,0.3983059317,0.0624607771,1.9102107793,1.6778732963,1.074639389,0.9878000725,0.7709068639,-0.2050516314,-0.5255504805,-2.2891851789,-1.590727558,0.7565688053,0.4688932662,0.1548329384,1.361793245,-0.5406412839,0.9465241897,-1.3804639274,1.6717228885,-1.8540630032,0.2571366694,1.4136246539,1.1321589236,0.7244599626,-0.3246952334,1.3207008017,0.7908216587,-0.4900025524,-1.1473312766,1.4557375426,-0.0236847547,1.5644160964,1.996998048,-0.335252535,-0.343744099,-0.9522633439,-1.4123290451,0.3729322076,-0.216183683,1.8115141778,0.6639854757,0.3924317657,-2.4305824963,1.6900253124,-0.2177596169,-0.5620828515,2.0287547909,-1.7365750881,0.147961167,0.3534200397,-0.6172028524,1.8154188093,-0.1722360073,-0.0112593592,-0.8984227493,-0.2774363566,0.9502949096,0.348505367,0.3902715365,-0.4765722466,0.4150844389,-0.0521059659,-0.3297863568,-0.4169288786,0.5987849132,-0.5440550934,0.1978018794,1.8785464475,-0.6179318141,-0.1362322577,-0.3243595084,-0.7812747263,0.0009007846,-3.1059939968,-0.275820962,0.799823519,-0.3824880354,1.3253284881,-0.5781535945,-1.1601173926,0.9987481348,-1.0076880752,-0.5555271329,2.1525503548,-1.2958361787,0.1298344706,0.0008501566,-0.6942651402,-1.3149095469,0.7961967356,0.1117406101,-1.382831019,-0.1676953581,0.8087582533,-0.8128557118,0.0151560603,-1.0796816072,-0.2788144872,-1.8627719576,1.2330652473,1.1591217017,-0.3397839237,-0.9300904575,1.4208996552,1.7890910744,-1.0966582605,-2.8132499706,-1.3472971099,-1.42308288,-0.2018984278,0.1726317275,0.7097041331,-2.2384387885,-1.0509968204,-0.3691871715,-0.5511881233,-0.1879584101,1.8008249139,-0.8728937486,-2.7728632053,-0.0169463527,-0.0008959309,0.0709634007,0.3445275981,0.1191284693,-0.7048817653,0.3844526194,-0.295139276,1.4667320483,0.7885091355,0.1190997348,-0.2205455586,1.5552632552,-0.4048888319,0.3493327532,-1.458184658,-0.2916083961,-2.6799135239,-0.5151470155,-1.9948925151,0.4297948976,-0.3143360185,-0.1727436063,-0.7210814455,-1.1951114166,-0.6601647211,0.3375768698,-0.1092140812,-0.4279336595,-0.7458633527,-0.9842683148,0.3319050111,0.7244599109,-0.0358523791,0.0898852458,0.7345749507,-2.0946708948,0.645626767,1.2886700921,-0.7771993576,1.8144314725,-0.3197215329,-0.8209629922,1.5260210733,0.1351804455,-0.029493284,-2.796021237,0.230150567,-1.6663748596,0.9532472809,-0.2268937964,0.1528303225,-0.8875723815,-0.3551778692,-1.3460912334,-1.070933966,-0.0942820421,1.1887920054,-0.4094144413,0.6863255684,-0.1479069115,-0.7105080773,0.24111825,0.2710448854,1.957355772,-1.1610640297,0.5211272817,-0.6972322593,4.9372671459,1.4200575614,-1.6088723875,1.4225403812,-1.2245667569,1.2790198176,0.8156598867,-1.5943316569,-1.3600159602,0.3673830519,1.7420700744,-0.4860335796,-0.2107956423,0.6295758275,-0.5842424154,-1.3638743624,-0.8216581435,0.6772997686,-0.6728896105,2.0315943453,-0.3876458804,-0.187266714,0.3811088279,0.2330325413,0.8329451377,-1.962798938,3.9374625973,-0.8216206257,0.3142262406,0.4282149037,2.3405930869,-1.1685089379,-1.5222306789,-0.1367149125,0.3111368351,-1.6793999797,-1.0794447106,-0.8554526025,-1.2492671865,1.6128602801,-1.4510764078,-0.1235219795,-0.366617535,0.2363717663,-0.1173605474,-0.4412723057,0.7373599017,-2.4698157878,0.4452475553,-0.0517599834,-0.8163800412,-1.9347975596,-0.7586542781,-1.9477182281,0.5417907572,0.7033504235,1.3213603099,1.7496739967,-1.8838008271,-0.6165911597,-0.6276005872,-0.7958674621,-0.998568022,1.3256220534,1.6305846355,-1.192786246,-1.3750581403,1.9845912881,-0.5545941476,0.8620554311,1.6753069599,0.3955458956,-0.6512192331,-1.0844559106,-0.045155559,-0.7804746421,1.6562110928,-0.7813651952,0.5251053364,-0.1975635814,-1.0526695125,0.7469277997,0.4102349499,2.812902698,-0.931611517,1.8989767311,0.1938704784,1.8016444763,-0.7981757713,0.2790202723,-1.2310736255,-1.0914034656,2.5424755018,2.2589493437,-1.0401704312,1.5163828687,0.462309259,0.7238324794,0.7109350344,-0.4223844776,-1.1331028366,0.4140252466,-1.0748400445,-0.5544609431,0.0924153084,-0.0681757467,0.4054453359,2.2698586481,1.334587564,0.0103218147,-1.588536764,0.5945224152,0.3820271875,0.9150368291,-1.038479663,-0.7992782424,1.187565534,-0.7098228803,-0.7398723391,-0.5235445091,0.2680077541,0.7051518985,-1.2822472252,0.240047349,1.3526844991,-0.2691112875,1.321220654,0.0110117578,-1.1888818006,-0.9259738961,0.6330901986,0.1507520141,0.8996001416,0.3217433731,-0.3860300714,-0.3574287026,0.3182538556,-0.8870395386,0.193501535,-0.3215330258,2.073322116,-0.5338314,0.6485673185,0.7538455527,0.6742793018,-1.6395758085,0.63147514,0.1642200468,0.9020079908,-1.510413268,0.3757044381,-1.351516723,0.8096675773,-1.0579435273,0.0352134012,1.4484591859,-1.0696595656,0.5540310019,-1.366677295,-1.986794063,-0.713267496,1.727173532,-0.0792956322,-1.162527187,-0.9529719541,-0.8020553434,1.00492841,1.0478396319,-0.0548076179,-1.2081358202,0.6564861316,1.7743573449,0.0504478682,2.459188159,0.1523608607,0.0251018917,2.4913373253,-0.1623001723,-0.5242908628,-0.4423425588,-1.3990583917,0.9863989799,0.6236074717,-1.6810761939,-0.6122843185,-0.3734055654,-1.1245688767,0.074617967,-1.0351873542,1.305609562,-0.7752038822,0.6988886739,0.5613570541,2.7681108427,0.2138222537,1.5525014745,1.6499063554,0.9782429326,0.4029436889,-0.1799462003,1.7626707066,1.7151559412,-0.5782130258,1.8910865458,0.6957984927,0.7591023364,-0.5156169441,-0.396805089,0.3834693024,0.2403746494,-0.9561108156,-0.8685599855,-0.2692199366,-1.2642745281,0.1350625705,2.376650305,-0.19790049,0.6514144143,-2.9449192215,-0.0083973998,1.0851992068,0.4122489621,0.1945732769,1.5639932012,0.1262946444,-0.7512000284,-0.4944738781,-0.7786260429,0.5112084173,0.4320806872,-1.926454329,0.4168438051,0.2450238317,0.4914171643,0.7833447829,1.7269254198,0.0862343471,0.5425733721,-0.6953849146,0.1316032773,1.3693150377,-1.3541816834,-0.3297981734,-2.6644778706,2.1194027054,-0.5077955257,-0.7548698411,-2.3916837393,1.370359325,-2.5649679382,-1.1687390487,-0.6557395927,0.1545708825,-0.9304016944,1.3174284041,2.0404694328,0.3022903418,0.9978705795,-0.1541310772,2.0879471127,-0.5275325152,0.5012016703,0.8869326589,-0.3623208303,-0.7068098885,-1.8024241422,-1.4413342725,0.2741753002,0.3828043169,0.5965074857,1.2879371443,-1.6314701635,1.5184481505,1.8207094735,0.3127867415,-0.8551449813,0.3595488667,0.0942366781,0.4281405947,-0.4088420856,1.5869909683,0.0817724918,0.1666192042,0.9547892603,-0.1675755864,3.1389445669,-0.2926593854,-0.6516959878,0.4351375209,0.5452420719,1.1700069835,0.5562137118,-0.6377793764,-0.5070356464,0.7841672589,-0.9654113568,0.8612679933,-0.1595626835,1.5619643189,0.2338701211,0.7064368812,-1.0077381676,0.6527021574,-2.5467013649,-0.3556222822,1.2108883233,0.7871121506,0.1455493236,-2.4004175012,0.0995458114,-1.1242278263,1.5769114875,-0.4161095998,-2.253443057,0.1611083041,-0.0104816258,0.6827490566,-1.8925414905,0.7362878537,-1.6439123652,0.748542525,-0.617685443,-0.10623989,-1.9287106014,0.1942226499,-1.1370143293,-0.1756653815,1.9410147954,-0.2381498283,1.1663997898,-0.8233306261,1.1721270178,0.8599098383,-0.7445886474,1.9893878057,-1.7216756059,-0.1266225681,-1.2047998361,1.1373583323,-0.8742813491,-1.3079104937,0.435472198,-0.3433798947,-0.6899042347,-0.7683262714,0.7291018602,-2.5270508362,-1.4083564804
   1.1634919042,2.4874452389,0.5025342947,1.178002991,-1.6951479392,-0.2670015163,-0.6306564756,-0.7484082892,0.1026351132,-1.9825483857,1.1951837589,-2.0852345763,-0.088641372,0.5771093624,-0.1529270107,1.7112078061,-0.2187641516,-0.459209593,-1.013927412,-1.6150055927,-1.4286831895,0.4558706827,0.7907270292,0.6141283861,0.1401401344,-1.3966738541,-1.6807143841,-0.8951682157,-0.3632244171,-1.7915306705,-0.4988352557,0.0286146446,-0.1110293953,-0.1616464333,1.4775828305,0.9661024826,0.6733896653,0.2942500852,0.0228730187,-0.5332169569,1.185574276,1.5874257557,1.0099684447,-1.084970365,-0.020948207,0.7767116061,-1.0806009585,0.2411952367,-2.2209183446,-0.6314902048,-2.224790297,-0.1037362368,2.7705756344,-0.6569058541,2.3562221915,2.6856808356,-1.7466136289,-0.5450395348,1.0111439205,-0.0580453609,-0.3928208243,0.1495595933,-0.4581495954,-0.8538957714,-1.0892166431,-0.9070944827,-1.0084171377,0.2480888087,0.0319938278,0.4467008072,0.2927609207,-0.8951690096,0.0633097618,-0.5731637249,-0.5176338409,-2.1395651125,0.8063179269,0.2630496682,2.6479612443,-0.8452723368,1.2233910032,1.3794788554,-1.7446652076,-0.0577679074,0.7949255093,-0.3412958693,-1.4226347292,2.1019713548,-1.9608663782,0.3739575194,1.2579763224,0.3698559767,-1.5706059275,0.9246864513,-1.5285510217,-1.0373861414,-0.6802016788,0.5148037865,-0.298499354,-0.885970443,-1.0168762417,-0.192755887,0.3714253305,-0.4385478243,0.3028813973,0.6763168263,-0.7079351371,-0.6512748807,1.1362561182,0.3852504178,-1.9597720552,0.1524006774,0.6448699023,-1.6892944395,-0.5577451517,-0.2332060392,0.1222512252,1.9241301578,0.2167178251,-0.5834289374,1.4683705585,0.1504178381,0.042652681,1.2620064629,-1.3972342702,0.8272906026,-1.1777822037,-1.4463777123,0.2091461448,0.6852985831,-0.9684516176,0.1014750907,1.43326517,-0.5192790279,0.3085407903,-2.3243862623,-0.6629976875,-0.2112053567,-0.0686788584,-0.2093024768,-0.2160913052,-1.5235907919,1.0914642178,0.039517703,-2.5093391629,-2.0154553476,-1.0421010305,0.8747900021,-1.5825065311,-0.688716609,1.2031686341,-0.1875458659,-0.3798796812,-0.8543624805,-0.6813592498,2.2620597069,-0.396499266,-0.1790794146,1.4560693565,-0.663957779,0.576176254,-0.2271248416,0.3018652238,-1.2417739616,-0.1827377602,-1.0659171644,0.6941726869,0.2542730647,-0.1314537691,-1.7404158714,-1.2379346599,-2.5255402332,0.0007676382,1.8502933293,0.7943675458,-0.6479213919,-0.2038467785,1.8196076017,0.1103794894,-1.7928695485,1.0628176772,1.3412398521,0.1051319257,2.2888576178,0.3913514668,-0.1113705689,-1.8218558886,-2.5685429126,-1.6710189763,-1.5237484223,-0.4339764514,1.7286551769,-0.9782090987,-0.1984318335,0.5922262689,1.5101433155,0.6344861054,0.8149030874,-2.2886171666,0.243662307,-0.9827637643,0.5517088181,-0.9822463693,-1.6406569212,1.5317791785,-0.8163550056,-0.6540359627,1.053267386,-0.2189414555,-0.6076959364,0.8446165283,-1.2393258274,1.3794869949,-0.2432452668,-0.2245012774,1.0758460975,-1.2236318525,-0.401884859,0.7813150073,2.3041310945,-2.192927546,0.4177593954,-0.401593901,-2.9228585046,-0.6218936013,0.6838008922,1.9584642409,0.8212332508,-1.0088984489,-2.1081845808,1.3170768904,0.3741815102,0.099249158,-0.4531884823,-0.0795316021,2.0865893428,-0.7594839374,2.504113745,-0.8057518686,0.2451994812,0.1869519099,0.312506831,1.4578205021,-1.3873786621,0.2092222952,0.5369735166,-0.395481637,1.1401316096,-0.4406465499,0.2133632096,-1.2793889483,-1.0486324515,0.5883125359,0.8292351482,-0.5131411972,-0.1715385614,-2.1163100286,-0.5697028219,0.3600757957,-0.3644842681,-0.7449842485,0.8096637931,1.2202327831,0.1280268478,-0.3524676893,1.1904955915,0.3051759032,0.4069755786,1.8864737802,-1.2025730478,-1.2874449706,-0.4486636138,0.3054111875,-0.4737311824,0.2497722046,2.3053799434,2.1148623736,0.4359086203,2.3499137896,0.157260829,-1.1833042575,-0.0767468602,-0.1996849926,-0.1037280105,-1.7992983262,-1.8727238812,-0.5124571226,-1.2879445607,-0.6501460113,0.2670559241,1.0870992122,-0.5361164686,-2.6163873798,1.9169353602,1.4507138358,-1.0886995701,0.1774286556,-2.4036308248,-0.8463263931,0.7754975129,-1.0146096218,-0.1714469273,-1.1937903023,-1.0299807024,-0.6013113905,-0.645413518,0.631093411,-2.1892290195,0.4719766327,0.0178282533,-1.2087641309,0.1948712606,0.5980338329,-1.5006693029,0.4053928449,-0.3092937119,-0.0794826113,-0.5147731008,-0.5150434961,0.2560165414,-0.3010305626,-0.2957706461,-0.8770887287,1.8490313997,1.0978606631,-0.579669735,0.2181495734,0.437804042,-2.59801389,-0.0486645531,-0.0132690854,-0.081460904,1.3399807361,1.183104382,0.2561124459,-2.1441204692,0.7385103058,0.919197969,-0.4947161556,-0.2326814925,-0.5643448377,1.4593765172,2.0763316757,-1.4232935425,-1.4784996925,-1.2769595179,1.1832711936,-0.2183149589,1.155578671,1.8245740747,-0.4991263827,1.9098089886,0.31092126,-1.2782812565,-1.0241689132,0.0282366969,2.2233055207,-0.3500714806,3.0637530413,1.1302976184,0.9910166653,-0.7594695437,-2.0568282644,-0.5688762405,0.1714586547,0.8615414547,-0.8837631374,1.9422474998,-0.5129276934,-0.2253745468,0.9933170531,0.9105695871,0.2073642969,-0.7490276732,-0.366955172,-1.1392225914,-0.6727328515,0.2523067627,-1.9481767279,-0.0660071588,0.6573331882,-1.7359747703,-0.8462149969,-0.4128182422,0.5218251146,-0.9012747918,-1.802704997,0.5587552964,-0.5614949652,0.5897732738,-0.5368861034,1.2756479875,1.7684669102,0.6981368613,0.4946922259,-1.4910597134,0.0016139815,1.6045266314,1.8246128966,2.4343719679,0.5295191509,1.3827015422,1.6650664255,-0.9895664935,1.4283061771,2.0392751518,-0.3942679826,-1.5580888155,1.0010069102,-1.8028694609,0.7913208902,-1.0611986781,2.4056194529,0.4419132776,-1.4231031035,-2.4220600409,1.1325053528,-0.7698012391,1.038995423,-3.3193905819,-1.6942470128,1.0364572112,-0.7741619375,-2.241221423,0.7237484708,0.1249410111,1.6992094013,1.8200836467,0.3200517003,0.310955689,1.7077389046,0.9751932703,0.0945966117,0.2050594107,-0.405642722,-0.9924428423,-2.3796402594,0.5599136678,-0.2867791747,-1.3736513957,-2.0812728572,1.0562847255,0.3665344846,1.470230043,-0.0087593213,0.90281451,0.8724159909,-1.4826951251,0.3780683495,0.6156296188,-1.2049668463,-0.6893402746,1.0948793863,1.5932461512,-0.5470808689,0.7624904346,0.9352861433,-0.501436701,-2.168376033,1.9348707377,-1.0323424358,-0.2531822758,2.1553191881,-0.195104975,0.7915582268,0.4182809814,-0.7806823528,1.8213235294,-2.6956255457,0.4250328034,1.7494082951,0.7142769726,0.8689609257,0.1443709744,2.4031592274,2.0398362005,-0.3820469405,0.2272822364,1.3343962755,0.8695942454,-1.8803367121,0.3501272886,1.0849722979,-0.1900982822,0.5723144961,-1.6821044157,0.0530669095,1.3375793855,-1.1837911521,0.4581812574,0.7502675087,-1.1889527879,-0.6425990731,-1.7051640901,-0.4099085466,-1.49057712,0.7169269066,0.9097177333,2.143501971,-0.9099971735,-0.4103950712,0.3098122139,1.8197509356,1.0854210073,0.868436833,-0.6035203083,-0.3846074788,0.9398793666,0.1028784081,0.318378419,-1.9455543956,-1.7706260702,-0.2453115734,0.3019931847,-0.1108159209,1.7883470016,2.4914744011,-0.0771371566,-1.2558174558,1.8051322411,0.9284796808,0.8151804418,-0.9461266293,-0.8024856175,0.3670445437,-2.150219374,-0.1166067883,-1.0453262392,-0.077154895,-0.5447900647,-0.0872150047,0.2628873609,0.0080932092,-2.4288194966,-0.1774396016,-1.5963698384,1.5243593725,1.3581616719,-0.6252307517,2.1870546365,-0.378996149,-0.0741284375,-2.1261857085,0.5887001254,-0.2780920476,1.4699452764,0.1863110013,-1.0736868898,1.9142621247,-0.8519420839,-1.759292375,0.9005369477,0.7608167931,0.0547240516,0.7392290017,-1.1468190558,1.292328857,0.79679737,1.8914061606,1.9005452559,-1.2357616473,1.175557838,0.1222943681,0.7790589571,-0.1821739448,0.5320852228,-0.9171609033,0.8630076323,-2.0858127411,0.6242496917,-0.5044197175,-0.2161430619,-1.5358843792,0.2128443618,-0.2754699858,-1.2450748441,0.010535285,2.7004476581,0.2782759058,-0.7156480228,1.2206449738,-2.9561471498,0.2495618989,-0.6593477637,1.0099878623,0.1522189842,3.092177163,-0.6530192492,-0.3357576042,-1.9591234648,-1.047854807,0.2336721362,1.1580873982,1.1138124919,-0.9969927373,-1.6458823007,1.0810017791,0.598025252,0.9010115645,-0.8581706029,-3.0142802524,-0.0335216106,1.2204545427,0.3270299778,-1.3304286104,-0.1818324959,1.2462672725,0.0725446426,0.3115181067,1.3676520522,0.4732882475,-0.8171850446,0.0323377914,0.4772467416,-2.0355510613,0.4647378431,-0.7898936441,-2.7488108591,1.083913101,0.9764739496,0.8752302264,-0.5241061455,1.0927232056,2.4002467284,0.4495012355,0.2059609856,-0.0198349066,0.1996059894,0.9638959464,-0.2408180735,0.8413256379,1.2326618857,1.4054329904,1.2388967343,-0.0130874232,-1.0895196387,0.4925181976,0.0515169079,0.9738141933,0.4861130895,0.1489232387,-2.331428775,0.7257588996,0.5053790369,0.2800738886,-0.2905900701,0.2220862869,0.1527147937,0.6879633197,-0.3218136664,-1.1490333779,0.7050425617,-0.4210178606,1.5467827976,0.3533872743,0.679613406,0.9721241453,-0.1729909768,0.2292121778,-0.6613621869,-0.5991394931,0.8533455287,-0.8947617995,-0.5190040548,0.0172980359,-0.2707062496,1.116644823,2.971572243,0.5432402354,-0.4078037303,-0.7214664016,0.9109035303,1.595346289,2.8249767843,1.626879483,-0.103556566,0.2029931493,1.9466444725,-1.063905319,-1.4791067483,0.4463816624,-0.4893067491,0.8627849895,1.2633368434,1.6608428852,-1.9849183764,-0.0894837783,-0.2874180916,1.1039913268,-0.4501384302,1.7756324337,1.0333300978,-0.4521172753,-1.7408563269,2.3077353049,-0.5694737192,0.0186104428,-0.8190053614,-1.7203770956,-0.5825702584,-0.3658070089,0.6913599912,-1.6482308617,0.6843511614,0.7306752376,-0.6367577442,-1.5857775446,0.0146607326,-0.3671341313,-0.1010147028,-1.3282293177,0.0110265664,-1.3423173502,-1.1932432415,1.5582391843,0.8679082816,-1.1067597928,0.1013734311,-0.0601326216,-0.0024710957,-0.7751505118,2.0003286248,-0.7625915808,0.3828570205,-1.0513551008,0.4713708306,1.1229112881,-0.0418918662,-0.3220065716,-1.474363379,-0.1499042646,-2.7681301655,0.7524226787,0.6774150544,0.6295829121,-1.3621313689,0.6567612621,-0.3675686309,2.3643416136,0.5854108553,-0.7791736211,2.4334983206,1.6737661461,-0.4089536089,-0.4910290564,0.4272233324,2.8050130522,-1.3117876384,-0.1705836805,1.4464539101,0.1830683148,0.1640127888,2.254904891,0.5501872669,2.9083784247,0.3000361891,1.1454993768,-1.3561876478,-1.5665296561,0.923696393,-1.6863877955,2.3819806485,-1.2046371764,0.5028447297,0.9683948673,-2.1216904213,-0.7042103403,0.1106845095,-0.3366922565,0.5481881716,-0.8999255638,0.489948937,0.4217608922,-2.2740378489,-0.1674201168,0.2709158736,-1.3013057877,0.7988859934,2.7306292371,0.9790732796,0.8167429198,2.3393777167,1.7506901185,-0.0318441412,-1.9529812874,0.5181417224,-0.3408110162,-0.6405526617,0.8768260198,0.0707742727,0.0156411492,-0.5578596472,1.3761071784,0.3078554321,0.9177960882,0.2396385772,-1.304850228,-0.5423506993,-0.7659807025,-1.1778856529,-1.3174673661,0.454411814,0.8022139584,-1.580335802,-1.8094172262,-0.6868847172,-0.9777101463,0.1219215428,-0.6637217636,0.5204431157,0.59731598,1.9233395972,-1.6392838524,-2.2092570711,-2.2126146557,-0.0980702525,0.3844462949,-0.8799567512,0.1858981417,3.2916450321,-0.2327477357,0.882653524,1.8382864488,0.2709939815,-2.8118515781,-1.5449488282,-1.4150844152,-0.0027245419,-1.5402879859,-2.2584966974,0.9763863393,-1.1868258221,1.2619622704,-0.4790493288,-0.6748893588,-1.9517762714,1.5702756506,-0.6858627081,0.5943615031,0.2115585308,-1.4553056309,-0.7325675558,0.1475945427,0.4487882511,-1.3427884088,-1.6516811682,-0.1458446516,-0.7179973973,2.9046622212,0.0460024481,0.6720969784,-1.7092873246,0.3585123127,0.5753604525,-0.1475784626,2.5753281784,2.2948487037,-1.1709401232,1.7532899566,-0.7806941811,-0.0868760418,-0.2353482755,2.9990874889,0.9990247701,-0.0655509967,1.921633464,-0.1620572645,1.2771032138,-0.8250981794,-0.5361001106,-2.1920392975,-0.0944087969,2.344203639,-1.9788441171,0.7790067656,0.1140455237,-0.6523424172,-0.3103577405,-0.461926201,-0.5239147579,-1.1790839431,-1.0009602039,0.7395363768,0.5433625952,1.3010432028,0.549827888,1.2897512621,-0.4924861691,2.008962819,1.8594498247,1.9998180432,-1.2308978246,-1.3803695654,0.9324853366,-1.1496365062,-0.2616126189,-0.3686740311,0.4544668232,0.0454161041,0.3543706079,-0.9640759944,-0.6145242394,1.9108794434,0.5037603532,-0.0215004344,1.2896841006,-1.1175615261,-0.8195394789,0.5718080214,0.0948831362,0.8008590349,-1.8265656229,1.9066978657,-1.6700372316,0.0072386887,-2.536248188,1.0472081622,-1.7980468453,0.6626710974,-0.0546525968,-1.7709051475,-0.31444133,1.5762245792,-0.8191637262,-0.3894060532,-0.5099163702,1.1362275976,0.9150736776,-0.5157533049,0.5974705356,0.9563781397,-0.9374424659,-0.6151779676,-0.0260108913,1.4266598509,0.7477462375,1.6267676626,0.135680334,-0.5183329843,1.9826336424,0.5898658194,-1.6144649748,-0.2540538095,0.503159229,-0.2471979374,-0.3469307527,-1.4047889605,0.450838511,-0.5858810509,0.8905005787,-1.2376900057,-0.8877290086,0.4485652044,0.2734417949,0.7604427928,1.5344649258,-0.7249270155,-2.2187537159,-2.4651495821,-0.9310177579,-0.949686668,-0.6205731715,0.4790305847,0.9225229288,1.1406830618,-0.4335634445,0.6340429559,-0.4172134406,0.3284760924,-2.5280059951,3.2164006752,-0.0351451034,2.0724417492,0.6748130833,0.9861927414,-1.4244708046,0.8954239081,-0.7515060866,0.3553342416,0.4075805107,-0.0319576578,-1.4686475945,0.5041538025,0.2573982318,0.3307670087,0.2101046021,3.299822017,0.5488421152,-0.0062135643,-0.0700385244,-1.2980666567,-1.5569566421,-0.5038618187,-2.1169668176,-2.1340019474,1.127777729,-0.9146432346,-2.0258915828,0.5528530423,0.0733703776,0.2837256056,-2.2928503753,-0.5653543884,-0.9150528795,-2.9488821366,0.0327009053,0.9542077811,0.3004044467,0.7635459823,-0.5353349503,-1.3538242582,0.7816997652,-2.6914789217,1.6142877736,1.6253935582,-0.7213849092,-1.6811331178,-0.1500495882,0.6501400114,-0.4256322665,0.5379253218,-0.3256886207,-0.5742332668,-0.6878488876,-1.5411090377,0.1811361447,0.540320158,-1.298578208,1.1379640042,0.648538992,1.4253699921,-0.2861527564,0.1230404759,0.4083276411,-0.0188115464,0.5267933277,-0.2593926761,-0.2475452186,-1.0623457294,0.5981174999,-0.3277934585,-1.3921928383,0.3330784099,-0.1819436112,1.995632213,-0.001859388,0.7856832465,-0.7751553836,1.2351189504,0.5376887441,0.9282324833,-0.9557339732,0.3032177983,-0.7960603943,-0.4106891754,0.0698073062,0.2012433212,-0.9014961971,-0.1985156312,-0.1259022654,2.0556295038,-0.7478628021,0.2151787331,0.7168396989,0.0935259523,0.5919769219,0.366433242,-0.3632319733,-0.0521914879,-2.9556353107,1.624946669,1.0401863802,-1.3446841221,0.3263501484,-0.3574085596,-1.6325183398,1.2197893265,-1.3960504209,-1.6463017295,-1.3774398993,0.0180404391,0.2079622181,-1.5866985771,-0.9580039435,-1.6053435839,1.6043341068,1.3997945135,-0.2063438519,1.1587585737,-1.8204677419,2.0677140934,-1.076284108,-0.6516340333,-0.9276755443,-0.3306238117,-0.3645065525,-1.0571309512,0.4785441953,1.2492920054,-1.9340438103,-1.01294454,1.0532304944,1.017429743,-2.1913110457,-1.0442916621,0.7224976131,1.4823858798,0.5120531365,-1.0645902954,1.5010367658,0.1069831534,-1.3584510394,1.005324497,1.1953211186,-0.2922935126,0.375876221,-0.7336792769,0.9421136759,0.1076659696,-0.3968372634,0.4067061761,-1.4747621311,0.8443461966,-2.3173473333,0.5727490237,-1.0058491978,0.9792870556,-0.846610833,1.7621176137,0.2974261878,-2.1921504798,-0.0269460666,-1.1983467485,3.1524869311,-0.3357904621,-0.9857746332,1.3643420652,1.0230888357,-0.1906895619,-0.6702580782,-0.4157231838,-0.0289414607,-0.2462767982,0.0247790465,-1.661359635,0.6010860752,-0.0958549532,-0.5349719167,0.3519041064,0.8879989862,2.4211865507,1.7548141527,0.5917968858,-1.4397002459,-1.7834633127,-0.4868242821,1.5524334515,0.3870967433,0.0327508967,-1.4172937765,3.0104628229,0.8678142166,-0.3957311209,0.9238498248,-0.2279378155,0.243923583,-1.0127735912,1.2232595339,-0.1029200296,0.7492727228,0.1974732327,1.3865770031,-0.4307710341,-0.5323660025,-1.0898560115,-0.6925754123,0.9979420223,-1.3265322933,-0.9543190453,-1.0783372102,1.7968751301,-1.0517929608,1.3936160253,-0.2394808869,0.1807768039,0.5607236834,-0.3551510935,-0.6467707426,1.4287485639,2.4321785082,-0.2801117771,-1.1171391506,0.646253288,-1.5101802346,-0.1957813033,-0.0462764426,-1.2540949005,-0.062340128,0.4440310894,2.7351736598,-0.2150210423,0.5590042149,0.4839216769,-0.3639811897,-0.6270626374,-1.7802272764,-0.9467915856,-1.6342849011,0.6127952168,-0.939108151,-2.1833699395,1.1860627643,-0.1306835642,1.7834265599,-1.1678771779,1.3627322417,2.0643052666,-0.1828430833,0.8691945597,-1.2051879319,-1.209463376,3.1173471636,-2.5287217698,1.6185948235,0.3197898035,-1.8257788886,-2.0876970729,0.9966386688,-0.3164343166,-0.1704002868,1.5810893228,1.0446416566,0.1296478712,1.0552547587,-0.3699428412,-1.2703062299,-0.6217759525,1.5787708655,0.4766307006,-0.0843993801,0.8131244688,-0.7967717705,0.0111236357,-0.0608099449,-1.1229559061,-0.8002651755,-1.1278930033,-0.8606971147,1.5043718654,1.5995332328,-0.0668014464,0.5424408292,1.8947553563,-0.0451010251,-0.9067194132,-0.7241235926,1.7887697742,-0.3177409386,0.4108653438,2.0645705006,-1.241740731,-1.7750446129,0.4217192762,1.1104747299,0.0456202553,1.1645397076,-1.9068885471,-0.4408058527,0.3678395996,-0.8592336583,-1.2003157246,-0.2295691078,-0.1466814669,1.0307446744,0.5235179021,1.3229176173,-0.7961218716,0.4330550049,0.3331355005,0.2454014948,1.7883563919,1.0588807326,-1.3299754165,-2.2696991082,1.6809477409,0.1176017641,-0.5991959999,-0.5760343354,-0.3572739868,1.0538077779,0.3316793473,1.058597482,1.2718378137,2.6512278629,-0.1990057426,1.614765794,1.5161197327,-0.4580222559,1.1155682604,1.4978860921,0.3190608127,-0.0049766203,1.7145083609,-0.3435482964,1.748392056,-0.219308232,0.8450060968,1.1459902804,-0.2594397478,-0.2598281892,0.7870130344,-1.5932215302,-0.307862473,0.7905735164,-0.4122984527,0.717067597,1.0015277814,-0.9735687338,0.897557884,-0.6530222046,1.3351814732,1.3599494181,-1.7752846293,-0.9215396555,1.1883795777,0.0840378367,0.3990572684,-0.5501435954,-1.0828827811,2.1838470905,-1.1317302676,-1.4441825434,0.9834431409,0.8061691343,0.6751225607,-0.4029806545,0.5607928868,-0.9365466489,0.2588546106,0.8012008581,-2.0994384656,1.4526044209,-0.2735468691,1.2124071186,-1.0204416978,-1.2174367414,-0.3159150298,-2.4844157011,0.1624730424,-0.0109696729,-1.894472965,1.4955785131,-1.1349137825,-1.5946393722,-1.9946926967,-0.1043334281,-0.0811244458,0.334350361,1.4946330949,-1.3673540124,-0.0045112873,-1.0142478406,-0.4920589154,-0.5674235892,0.459884611,-0.5094400583,0.3725441129,-0.5788879364,-2.4135445879,0.391762971,0.1524250132,2.1598309959,1.0776309833,-1.0269170963,0.0382344976,0.5010970949,-0.2599594734,-0.0879528076,-0.2363823646,-1.8288530549,1.1032899375,1.1403763067,-1.4767227304,-1.1122415945,0.0796772401,-2.0325848417,-1.5435330675,-0.9695713107,-0.6364487453,-1.2441013983,2.2414453842,-1.0489968942,0.6527571559,-0.7925668616,1.0191742473,-0.9419844439,0.1102738441,-0.3952258224,-0.8447636755,-0.0025249757,0.825721662,0.4506681841,-1.1440677542,0.3557425881,-0.6417247976,-0.1074050982,1.1158767578,-2.8187996632,0.1738661387,-1.1911776826,-2.0418789396,0.8345300461,1.567530217,-1.2923834994,-1.1897278174,2.897156599,-0.1222355905,1.2590883225,0.3043235007,0.0734510129,1.3169296779,0.4702898235,-1.6478763678,-1.3298515469,0.8368303579,3.3336087641,-2.3041616313,-0.0743203615,0.3743025836,0.7740963019,1.8381695831,0.2235185066,1.6809826832,0.7742871923,0.0033342301,1.124149426,0.4655115683,-0.0256159064,-1.8616417309,-0.0021295608,0.779674927,0.2098023186,-1.1289099647,0.1669076111,-2.2388436545,0.3853229893,0.8408030056,1.9704611233,-0.3703756989,1.2822764993,-2.8114737983,0.5322544952,2.0778199743,0.3989780851,1.026376588,2.2454804396,1.6145181986,-1.877005377,-0.0968959639,1.1824684517,1.6891679302,-0.1782579211,0.6187552331,-1.9160400926,-0.7629797952,0.2514609064,1.8283898515,-1.0352675528,1.9458219983,-1.7663615348,0.4629073864,0.226404865,-0.5139111317,3.2314028613,2.222740296,1.5380782109,0.3282835789,0.1279745061,1.0927630837,-2.1962464768,0.7449960532,-0.9883553541,2.0790412442,-0.1100029469,-1.665523099,0.3198831585,-0.3502754923,-0.5033597805,-0.7201562756,-0.3856495139,0.7134245967,0.2656110555,1.0775369435,1.4268305366,0.0958961233,0.6539498671,-0.6560288239,2.4208775929,-0.2744638565,-0.1739670282,0.3485536329,0.509289803,2.1468943004,-0.3300471433,-0.856682759,-2.7224529865,1.7264609075,1.8264645311,2.3917310882,-0.827136469,0.9169364188,3.2118402024,1.8801226751,-1.0319056958,-3.5484793464,3.5320060013,-0.5733298184,0.0129396465,0.3460406417,0.2131324781,-2.1347101822,1.7622174012,0.991934054,-1.3666524154,-1.8518566606,-0.5121986675,-0.2102061352,0.5375662177,-0.0470644147,0.1994240504,-0.0889374431,0.3820139532,0.5011248607,0.3137922417,0.1026217671,1.1881084997,-0.449129161,-1.6350871346,0.3109547373,-0.4317121619,-1.0461481125,-1.6346914951,-0.3167519191,-0.776076727,-1.2410990487,-0.3512602473,-0.5164319356,-1.4416285992,-0.9318696195,0.2556188778,1.9476059279,-0.7534689922,1.4717506144,-0.2759258304,-0.6155218691,-1.2794167616,1.0969239362,0.3535676727,-0.9579680431,1.3844855213,0.2672882421,1.388972769,-0.3889116217,1.3074186065,-0.3003942116,-1.1118344955,0.5804162543,0.9666979192,-1.3924457836,0.7022125064,-1.9738236114,0.8395648938,-0.6642693609,1.9089611002,0.2996894909,-1.0199843583,0.0602466643,1.8615602861,1.4360359368,-0.325656899,1.7514895816,-1.011355162,-3.319942993,0.9974334417,2.0535827178,-1.4022402836,0.771841336,-0.5819138348,-1.8821550463,0.051524357,0.0190952734,1.2803167736,-0.7062345068,0.7244021767,-0.5479592728,0.3309804099,1.2403560209,0.0098655614,1.1291390195,1.2054721594,-1.2069676852,-1.1605701138,2.1407084988,1.2366910086,-0.4956754908,-0.0608032947,3.1489584533,-1.0864547312,-0.0456414635,-1.1100569311,0.4485176223,0.511786057,0.8977725139,-1.0969884269,1.2602230749,-0.2701298687,-0.8294301274,0.6399079037,-0.0474961269,1.2529686565,0.292590523,-0.0255512529,1.5135860091,-0.5060700054,0.4095251058,-3.6459667167,-0.1375743124,0.8446653911,2.4344167001,-1.2682630575,1.2149284728,-0.5107624915,1.2112868335,0.1203888479,-0.0614727056,0.1689718469,0.5877096913,-0.8559786919,-0.3583053936,-0.6715754951,-0.5390838264,1.5007444329,0.5911790454,0.1360775236,0.779813473,-0.9754495941,-1.0675083563,0.0304539967,1.247483849,0.5787062895,-0.3790492048,-0.9327107175,-1.4216502438,-1.5504047237,1.3827954592,-1.8449862508,0.569776683,0.1555838829,-0.901079262,-1.1218909853,0.8921026125,-2.0312480157,1.5596913111,0.7950174948,-2.5308345531,-0.0868426753,0.7287937279,-0.1797910414,-0.1847686254,0.4876379688,0.1803785556,2.1729870673,0.2009142964,2.5727019637,-0.9133789571,2.1533614084,-2.662566611,0.9333197565,-0.2285109539,0.6839233019,0.7706237508,0.9543901126,0.1216714688,1.2907982473,-0.8584090952,2.8652876912,1.405641837,0.3075468067,-2.0230862482,0.5395383261,0.3188786626,2.2346987346,2.0199349746,-0.3788910697,-0.2468074724,-0.3064116824,-2.5638488855,1.8498459386,-0.3380135365,1.3814073114,0.6594863545,1.1370899912,-1.7543622574,-0.9936933566,-1.0080728325,1.3095719628,1.8968987164,0.4049623133,-0.0161469034,0.0764117751,-0.6090976056,-0.8290948545,0.6585931525,-0.2884940783,0.3808370701,-0.7202390067,-0.3835770963,-1.4725792485,-0.6224375358,-2.0983284684,0.156429148,-1.0819034322,-0.1871659145,1.1024627824,0.7032272278,-0.2925470336,-1.2336457519,-0.6365554326,0.6946901635,1.6945985713,1.1292703223,-1.23107019,-1.2568049447,1.5463229487,0.6840484502,1.6631199416,0.2153099091,0.2759153201,2.2210537736,1.4542018327,1.4704042197,1.3997708615,-0.3203361981,0.3009398215,-0.1337873258,-0.7022125476,-1.9833565359,0.0252394065,1.9207892861,0.5911392365,1.2345873999,-2.7286172821,3.110775658,-0.6106398959,-1.4045231631,-0.4374097557,-1.2126092911,1.4721617645,-0.8469383744,0.846252797,-0.0137089714,-0.3257221032,0.1012915547,3.047474702,0.1599696508,1.1441320265,-1.8384289897,1.804846002,-0.4144693485,1.6213347359,-0.0899051337,0.4366749719,-1.6814516382,0.4632468749,-0.2522122104,0.0519403344,-1.5608597661,-0.8487407386,0.4057962997,-1.230420285,0.0123844258,-1.3691833127,1.7266716829,0.1097886222,-0.3713910426,-0.7279659335,-1.6832706078,-1.4697699257,0.718417236,-1.3121031358,-0.0781023651,0.6208820252,-0.2688264625,0.8727273753,-0.3364124016,-0.0010514914,-1.0648855935,-0.8701840349,0.8283095097,-0.1966666734,0.1474244819,-1.6154808345,0.1725524132,0.6780592392,-0.5902800985,1.883038608,0.9748428164,-0.7447466543,-0.2235891446,-2.5304732175,-1.2414181848,-0.4170099465,0.0069502823,0.828052043,-0.1987533259,-0.1611808905,1.5936853441,2.2385064623,1.2386831559,-1.8154780225,2.1861609091,0.6357519059,1.2964438312,-0.3538392279,0.9960921894,0.1855350968,-1.2507032289,1.2937565313,-2.4765109621,2.466484863,-0.0668057481,0.6853842174,2.2534169112,-0.0675109354,-0.0413275392,0.292460556,-0.0735390547,-0.2232738701,-1.2523467538,-0.0725804441,-0.2371395797,0.1932923071,0.4226419984,-1.6315993138,-0.2787328499,1.3996723489,0.9242134833,-0.0646331374,0.449307568,-0.2353431311,1.8902208551,-1.4092542473,-1.1167006354,0.5961931471,-0.3211524717,-1.2418316993,-0.3277666852,-0.8002982516,2.8490879978,-0.1006053381,-0.2856732513,-0.4329892349,-0.1902384298,0.8584415745,-1.2131086425,0.2064491201,1.8682997203,-1.6204007311,-0.0346544332,-1.1473096614,-0.6435653403,0.8823127185,1.3964371976,-0.9183096466,0.9960303492,1.3184776227,-0.6607323559,-1.4885550714,-0.1624496392,-0.9995553818,1.5362929077,-2.4197182392,-1.6772763618,-2.9346985163,-0.4164546964,-2.0168805662,-1.7051362221,-0.4665117984,-0.5706835307,0.2430899533,-0.2732942274,1.3003001843,-0.5201633677,0.2333386023,-0.4412636728,-1.3486760922,0.6202872302,-0.2187753772,1.185560644,-0.9404157291,0.8457350664,-0.7466359421,2.8349392417,-1.3895654406,-0.2904687442,-0.3833277682,-0.4933769552,-0.2222538326,2.0168031561,-1.3339054326,-1.226400374,-1.1173628482,1.0949244382,-1.1866187596,-1.7692795623,-0.1033229462,-0.0432957164,-2.2985069054,-2.1112766934,0.6584155448,1.9177808837,1.4726976779,0.5578513748,-0.9034264081,1.2548995716,1.5909406187,-0.6209705709,1.3473747401,1.1291440617,0.5685352467,1.1294187149,0.0572440744,-0.7132099477,0.1302149326,0.0286169138,-1.4881112475,0.7994330863,-0.1146405428,-1.6242573348,0.360426343,0.9059624605,1.9330384584,0.4666640488,0.9730914925,-1.4077695411,-0.8325981373,1.4214880971,1.5213182213,0.6494171131,1.3154638768,0.0894779308,-0.139833766,1.0720316812,-0.2919438696,-0.9418186398,1.5517651063,0.6980516246,-0.9038281333,-2.4272338994,0.3840591813,-1.318629585,1.2506752385,0.6266249952,0.5414723526,0.405786134,1.291628379,-0.0612569785,0.6115043749,1.6573870324,-0.2904478671,1.2182004836,-0.7319765261,1.2043320716,0.4160429549,1.2578687074,-1.3943478586,0.4735887182,-0.9164767091,-1.1033460241,-0.3237555652,1.3410475851,-1.4295100418,1.2191869455,-0.5241463859,3.3021902604,-0.3235024688,-0.3291684266,1.3330437335,-2.2296662598,0.4825659219,1.4273726436,1.2800723451,-1.5982492903,-1.1977593003,0.7217603454,-0.4682217774,-1.1203480812,-0.2401959829,-0.442617551,-1.2655389972,1.1508352054,2.7388164777,0.490705615,-1.400778724,0.4273682241,-1.2025303462,-0.2185935106,0.1551007578,0.0182736182,-0.8171631664,-0.0656886418,-1.0436506114,1.7254451203,-1.3459965085,1.0384665984,0.5302639623,0.3134993686,-0.6196155272,-1.694063252,-1.3895104373,0.6150872685,0.6661874018,0.3189302101,0.5689650664,1.4704969362,0.1828312333,-0.8793034581,-0.2016134536,-0.0066359873,1.5683435302,-0.2321599507,-1.2634248741,0.5000407361,0.3868670004,-0.3928980822,0.8683880131,-1.4927923339,0.4524036436,0.1125308382,0.2866580897,-3.2735349763,-0.2277939376,-0.4899317952,4.0441532096,1.0463511381,-0.549834373,-0.7671588481,-0.151059632
