encog,BasicNetwork,java,3.3.0,1,1437647924304
[BASIC]
[BASIC:PARAMS]
[BASIC:NETWORK]
beginTraining=0
connectionLimit=0
contextTargetOffset=0,0,0,0
contextTargetSize=0,0,0,0
endTraining=3
hasContext=f
inputCount=243
layerCounts=1,21,41,244
layerFeedCounts=1,20,40,243
layerContextCount=0,0,0,0
layerIndex=0,1,22,63
output=0.0766053765,0.9973565653,0.985268328,0.9863176196,0.9900981726,0.9958206581,0.9769982049,0.0000657307,0.0009311125,0.0014359138,0.0198486084,0.9100299457,0.9273761361,0.0003660885,0.8379082514,0.6688895246,0.2807193837,0.1298758643,0.9998225535,0.0167141516,0.8222494557,1,0.9815839239,0.2504904573,0.9805330574,0.5383366136,0.9975979279,0.0043522183,0.5880601312,0.0942569043,0.6850372124,0.3702285814,0.947309313,0.0609550192,0.7765199738,0.6083883954,0.7685693898,0.0000193199,0.9892550618,0.750381016,0.0479359101,0.0655141097,0.6874096613,0.1723836452,0.0821021041,0.0001630585,0.0057750355,0.0014271951,0.3725141836,0.1523202453,0.1541257524,0.9551457736,0.0014861032,0.9686471075,0.0912926602,0.8284166678,0.0090842719,0.5323925375,0.0156187278,0.0056137712,0.8728043878,0.8195518951,1,0.1803921569,0.2509803922,0.2431372549,0.2117647059,0.1882352941,0.1490196078,0.1921568627,0.2235294118,0.2941176471,0.1647058824,0.1921568627,0.2274509804,0.1725490196,0.168627451,0.1607843137,0.1568627451,0.1725490196,0.3725490196,0.168627451,0.1647058824,0.2039215686,0.1803921569,0.1411764706,0.1333333333,0.1254901961,0.2117647059,0.4745098039,0.1764705882,0.1843137255,0.1882352941,0.2,0.1333333333,0.1137254902,0.1411764706,0.3254901961,0.6,0.1647058824,0.1764705882,0.1921568627,0.1843137255,0.1529411765,0.1294117647,0.1725490196,0.4078431373,0.6941176471,0.1647058824,0.1294117647,0.1960784314,0.1725490196,0.1764705882,0.1176470588,0.1803921569,0.4784313725,0.7607843137,0.2039215686,0.1176470588,0.1764705882,0.1764705882,0.1647058824,0.1137254902,0.2431372549,0.6,0.8078431373,0.2431372549,0.1490196078,0.137254902,0.168627451,0.1294117647,0.1450980392,0.3529411765,0.7137254902,0.7882352941,0.2039215686,0.1960784314,0.1058823529,0.0941176471,0.1647058824,0.231372549,0.3882352941,0.7176470588,0.7411764706,0,0,0,0,0,0,0,0,0,0,0,0,0,0,0,0,0,0,0,0,0,0,0,0,0,0,0,0,0,0,0,0,0,0,0,0,0,0,0,0,0,0,0,0,0,0,0,0,0,0,0,0,0,0,0,0,0,0,0,0,0,0,0,0,0,0,0,0,0,0,0,0,0,0,0,0,0,0,0,0,0,0,0,0,0,0,0,0,0,0,0,0,0,0,0,0,0,0,0,0,0,0,0,0,0,0,0,0,0,0,0,0,0,0,0,0,0,0,0,0,0,0,0,0,0,0,0,0,0,0,0,0,0,0,0,0,0,0,0,0,0,0,0,0,0,0,0,0,0,0,0,0,0,0,0,0,0,0,0,0,0,0,1
outputCount=1
weightIndex=0,21,841,10601
weights=##0
##double#10601
   0.086938336,-1.0012140017,1.5426487159,0.8621169923,-1.2009953157,-0.3554515557,0.3506514283,-0.8927102626,-1.0707947599,1.7857832805,0.9139489273,-0.4010793101,-0.067365161,-0.0283209937,1.0364743476,-0.8919545713,-1.422999374,0.0070028287,-2.9049794108,-2.8885506336,1.0391405645,1.8878569869,0.299034034,0.6758055234,2.7513937308,2.5778264057,1.8015980648,0.0979868082,0.5085179528,0.8084039036,-1.7497765549,0.0704773044,-0.1837577633,0.490942645,0.165169781,0.3559611163,-0.5229716532,-2.29731236,1.1887580928,-0.3135365783,-0.2364033469,-0.3703673437,-0.6765687623,-0.0403041736,0.5297036904,-2.1003781205,-0.2228344413,0.617602442,1.2490185631,-1.6226081619,-0.0723548194,-1.6431855008,-2.3343056923,1.4393526989,-1.5045266298,0.0001515815,-0.3459226797,1.5226812995,1.7220606342,1.7789139305,-0.5031194153,1.2919116866,-1.4283851094,0.9565071108,3.653840345,-0.2296328726,0.2394933327,-0.0326837865,-2.1677133555,-0.7027401073,-1.7870361157,2.7448110076,0.035763499,-0.6235817858,0.9410487661,0.342805459,2.4757372913,1.7400501227,0.2651089483,-0.1845610553,-1.0790661485,0.0795920996,0.3694187796,-1.3562050538,-0.2840741593,-0.2951370849,-0.0326658187,-0.2675641796,-1.4402403499,0.5714890622,0.5823943627,1.7434105748,0.8342046058,-0.1065853184,0.8741740422,2.1958470474,2.2965730408,1.8318863721,-0.9223338856,0.7988731132,-0.6154720022,-0.3463393788,-1.1477290644,1.7463285681,-0.6669895209,-0.8387181813,0.5900593292,-0.7713638108,1.3667071805,1.1903207774,0.2475901502,-0.4006757569,0.1291609172,1.2847419905,0.5422112202,0.5047808344,0.3552394632,1.4742465349,0.4101089383,0.7493044498,-1.5800621848,3.8404210217,1.7077960584,-1.860587379,0.4288537162,-1.5468078449,-0.3393646131,-1.7788619205,0.5297587972,-1.8792139825,-0.7982131964,-1.4488873673,1.1830308997,0.5788694332,-0.3494826536,-1.5510182072,-1.3968858883,3.0688631812,-1.962819256,0.4392976033,0.8313334864,2.6048587487,2.6708360853,1.3357978383,2.3048764849,0.7498305873,1.7842462822,2.2230671315,0.3494951708,0.5479869431,0.8802210917,0.7760764719,0.6995226808,1.2252372244,0.0111676787,-2.7313789011,1.7325215203,-0.9202661235,2.1422413415,0.573412848,-1.4705093487,0.2921599599,0.2046789234,0.1380686233,-1.1183840149,-0.8399357352,-0.5715513297,-0.9948992276,1.6565097214,0.9233436918,1.4893925821,1.1084225505,-0.5931021612,-1.989803972,1.5367691603,0.4689354278,-0.3130907482,-0.8188474441,-1.3385721639,0.141902115,-1.0818269572,0.587553433,1.5141128521,0.3517367686,-2.2043906784,-0.1396412171,-0.3632745466,-0.9953429041,0.5089056582,-0.2346013527,-0.5360856825,0.4889545192,2.3064278026,2.0502558614,-1.0860449654,-0.3783715747,1.6200239391,0.8588278332,2.2478750528,0.5473560212,-1.6333875775,-0.5980348505,2.4062026074,2.1235026322,-1.093355485,-2.2276685056,-1.2162419083,0.2136926993,-0.5701059934,-0.44189338,0.4670320028,-0.7931896956,-1.6147795166,-0.880212536,-1.23365152,0.1023229152,1.5745417698,0.5663271676,0.6371231634,1.3723137063,-0.1562088037,-0.6715933899,0.5901046157,0.5105276125,1.5789504851,-1.4024925087,-1.2567101797,-0.0696212629,-0.7288778029,0.3177959352,-0.0055611819,0.0140319894,-1.3773474323,-1.0448424445,2.278031015,1.6856396158,-1.3003901304,2.9239489275,-1.1729106291,0.1051086001,1.2364493292,0.6416832867,-1.1475427568,3.2243147776,-0.9091761793,1.6241073656,-2.502733491,0.3484756154,-0.3279407562,-0.6514734225,-1.3751856274,0.9781606892,0.6959644807,1.0952720909,0.822618954,2.705825784,-1.0338195055,-0.1622347637,-0.142083058,-1.3255777231,1.1825478822,0.1124862845,1.799325185,-0.715315073,2.7771903492,-0.3038722364,0.0361570448,-1.7875391079,1.4361716388,-0.9394915093,1.1189660131,-1.551730287,0.9213702612,-2.3608684781,-1.3958978175,-0.5342080736,-2.0278332108,-1.6291143743,2.5951759452,1.4343615203,-0.8802570764,-1.0656565767,-1.1392187015,-0.9992173113,-1.5460670489,-0.2166311091,-1.14891837,0.974794853,-1.2882212544,-0.8505715128,1.4392019968,0.5519478184,1.5832926438,-0.7624665423,-0.8116391588,-0.5360098174,-0.869509798,2.3451530257,-1.4961621423,1.620808479,1.2652541874,-0.294369402,-0.8287144901,-1.1198448018,-3.1455645002,0.4678975117,-0.8819711075,-0.6618118028,1.0815956347,-1.446555054,0.5089040942,0.3677593918,-2.4461523554,1.3382780361,-2.0112697479,-2.7465870225,1.8648199618,-0.6699361786,-0.7357224676,1.0572902615,1.8190346374,2.0843604931,-1.165848706,-0.1800245392,-2.2527114576,1.3254625294,-0.4911204816,-0.5346795626,-1.087266104,-1.1840251845,-0.054577352,0.6084927022,-1.5040605253,0.5973925381,-1.2290915171,1.5609757692,-0.6444426319,-1.7802853451,1.1966833326,0.6306292544,-1.2750930086,-1.9219993309,-0.8090305031,1.7781471972,-0.8961024431,-0.4797637301,-2.4523225061,-1.3196339555,-0.7719869906,0.0711547215,1.3034587468,1.0818701303,-1.8015382429,-1.7509850053,-0.6023150874,0.1869123982,2.035495041,0.2012013547,0.0985941115,-1.1463397345,1.6886496753,2.9037666014,-1.0696922125,-2.0852502223,-0.3766630149,0.8975931155,-0.0176401109,-0.5623119348,-2.3938659844,-2.3538098698,1.0860632029,0.0816688649,-0.7221303597,-1.6047004537,-0.3332529335,-0.8614299187,0.3706444583,0.0293738755,-1.7198688185,-1.2911872428,-0.9308631811,-0.4271208302,-1.8521058308,-0.145553712,1.767838817,0.4361986389,0.2948748937,-0.570897104,-1.2715433753,2.2492652665,1.4032664102,-2.1797025461,-0.1589715484,-0.118698555,0.927732911,0.1607528411,-1.1340224201,-0.963499625,-0.930245685,-1.512576652,2.2221241521,-1.4852162069,0.0804863387,-0.7015177062,-1.3556537868,-0.7913161075,1.0951018274,-0.3846120182,1.1796163314,0.9741986521,-1.189188521,-0.2770762037,0.222567948,-1.3539610541,0.0425056331,1.0666250522,0.2383226809,0.1024945076,-3.4605538366,1.2345104342,1.8978208722,-1.7012567949,0.6849293572,0.0238380706,-1.2897476813,1.4300132131,1.9043977478,1.0436565258,-0.4862959904,0.8976370974,-2.4134304906,-0.7672085987,1.0343745216,1.1380571926,-0.9753686708,1.1820248285,-0.1295837281,1.5842309903,-1.1168772529,1.4978026752,-1.9481934944,0.6899699374,0.7574271869,-0.6492814202,-0.6427805804,-0.111083668,-1.3512347153,0.3617113609,-0.7646341333,-1.010971632,-1.6819527166,-0.7035337697,0.8337261898,-1.9497707027,1.1542310254,-1.2438413897,-0.2600220103,-1.2938353388,-1.1873619096,1.0342593218,-1.3125666932,1.2476321774,-1.3921663765,0.6114049193,-0.0062724356,-0.4130429612,1.8394114798,-0.613211466,1.761546098,0.2976278535,-0.079240893,-0.7350628912,-0.4789209905,0.9750387081,-0.9751393294,0.6225118925,1.0066779824,1.3230559675,-0.8991851193,-0.1781049054,1.592853886,-0.0152074677,-1.3466766846,0.0010934526,-1.0247563253,-1.1245897069,0.0625991513,1.630222331,1.0029062918,-1.594054069,2.4283852909,-1.0435342025,-0.1061930305,-0.6555947974,-0.4454784055,-2.9817667111,-0.9457541418,2.1644424271,1.0966553377,0.1002765779,0.6200645255,0.5176290444,-0.0159612474,1.1127089755,1.5018290661,1.4780051972,-2.5566457366,0.0673307486,-0.3865930219,1.5647621145,0.0436136499,1.991990485,-0.5566209218,-0.8595908634,-0.5421357254,1.8603837548,-1.0796511663,-1.7277631452,-0.6531782538,0.2328941649,0.1792243234,-1.972302705,-2.103446624,1.7350180149,0.1340193405,-1.4478119681,1.9280083453,-1.650484078,0.7002662332,1.0287044658,0.2821402291,1.0111245306,-0.1373857055,-1.1750591114,-1.3383246885,-0.7635224714,2.2007849458,-2.1397568023,-0.8608756231,0.2129819639,-0.7520832767,-0.7125100632,-0.1237168838,-0.742756453,0.0865350921,0.5357061667,-0.8805925141,2.2187514126,0.5942879746,0.8592031219,1.7136978275,-1.1129970061,-1.6096850344,-2.0767852968,0.7058747614,-2.5827823277,-0.0858942769,0.1612829191,2.9580440237,2.9104286232,-3.0726398699,1.7043075898,-0.9336524087,1.7078995623,-0.6305391998,-0.5074116365,0.5231706193,-0.9731699974,0.5708467676,1.7160841644,1.6537805017,0.0224019292,-0.0633760876,-0.1006547066,0.6685216217,-1.331726091,2.7775082413,-1.3251161803,0.914572266,-2.5702973974,-0.3535375278,0.4453544247,2.018877648,0.2995062848,-0.6632594299,2.5122861212,0.2541429093,-0.549423719,-0.3431252405,-0.4098301788,2.1740359383,0.5839588142,-2.0925734482,-0.0264767785,0.5217939386,0.8064224401,0.6885333471,0.6606903395,-0.0026606275,0.0402849379,-2.194244388,-0.8250422131,-0.3018506025,-1.7500561338,1.775638254,-1.9837178281,0.8245219257,-0.6101792709,0.8547749891,0.6299155102,1.0531996558,-2.5139423969,2.4540730101,0.028978083,0.6619409517,-0.9503293461,-0.515684517,0.4013680916,3.3152746168,-0.6035057689,3.4353552131,2.2617241339,0.7111860205,2.1399427759,0.6624006772,0.0753587405,1.4564562719,-0.5780967581,-0.0688027419,1.3251379123,-1.3695538061,0.1380859858,0.4594515641,0.3729560452,-1.3315553003,-0.6262054869,0.0468468986,1.5485121991,-0.0233667931,3.0975342929,-1.6627501918,2.0680593577,1.3051250383,-0.7872445568,-0.3602851811,-1.9302840889,-1.3310942131,-2.3565950646,-0.15255793,0.8030451574,-0.8145788165,-1.8676394647,1.3918658412,0.4378605091,-1.6261008665,-0.0938151654,-0.691962413,-1.107288621,-0.5047040447,-0.8118632096,-1.3723426051,-1.232711567,-1.6847413335,0.2688937975,-1.2073435589,0.5690979027,0.4119885033,-0.0353592527,-1.8694815598,0.5477553355,0.4795039181,0.4497809335,-1.0195255297,1.9172604066,-1.8917773879,0.1397561574,-0.1064156377,1.1041750406,2.6755772349,-2.1766199584,0.5898787252,0.3930446679,-1.5001748323,-1.0917362523,-0.644522901,-0.772377194,1.0604469894,1.810672021,-1.2437814899,-1.5591668221,2.6169436926,-0.8825449312,-0.9418072023,-2.6821328696,2.978105717,-1.0411312761,-0.5527983724,1.3147497215,-1.1935665328,-1.3600770764,-1.6755811151,1.4906767269,2.8915147492,-0.9022525388,-0.4408368954,-0.8405161374,0.7106046169,0.4902540873,-1.0856818058,1.0356665044,2.5517352221,0.09989669,0.2044423855,1.1434472497,-0.8115543013,0.1692665071,-1.1590911158,-0.754227672,0.1492782765,0.122321677,0.6552663365,-0.8522657493,0.473577821,2.2736641178,-1.2401393776,0.8843327617,1.8823021387,-2.1259430506,-1.4041792965,-0.6008880242,-0.2209919508,2.5613914167,0.4023956593,-1.3531161883,-1.6932359402,1.9260216095,-1.488195171,-0.6854384104,-0.3431354391,1.2957785058,-0.6062838221,0.0269556199,0.0780424584,-1.0916212789,-0.6415348414,1.3518487128,2.1017603158,0.7779235643,3.717225668,2.0402403614,1.096390535,1.7528745979,0.0987598738,-0.7569615616,0.1801466095,1.1302409008,2.2443479866,1.3740484723,1.4890583449,-0.1751973861,1.3542399566,0.4834865447,-0.692183217,-0.5565196659,0.1474637467,-0.0056520893,1.7730399827,1.5688120389,-1.9453986547,1.4797500823,-0.8391843936,0.5049195328,-0.1649753724,-1.275124242,-1.6086325874,-3.4573579521,0.7448967063,0.1944523325,-2.6768034802,-1.6214088868,-0.4353135857,-0.8628082648,0.3655892869,-1.9226873755,-1.3045811009,2.6882268808,2.2816285079,0.6003675284,-0.1073716971,0.1746296541,-0.2551401372,-0.7808831444,1.6899484626,-0.7331602448,-0.0842927741,-1.037091338,0.5623033655,-0.5781501154,0.3868492295,2.0339263103,0.2174150034,-0.550827755,0.1089486259,1.8821392967,0.4239346012,-1.037540052,-0.6912378634,0.5681107028,1.7831512517,0.5069593345,-1.6184048048,-1.1548438911,-0.3879983968,1.6440913301,0.9879973658,-0.8541550023,-2.2503280387,-1.2214962209,-1.0539798846,-1.3116369441,1.0262545103,0.6090470504,-2.165253809,-0.8653552447,-1.0061485345,2.0224210895,0.0089552533,0.4716511961,0.4911337503,1.1041018498,0.7507730707,0.1670863341,-3.5942336308,0.6896737172,0.0645933228,-1.7673226574,-0.1948211395,-1.3450662248,0.1727329754,1.6974806571,0.4273626213,1.4921509528,0.9021513524,-0.4405122735,0.6274863123,0.2308581513,0.7299730084,-0.0986155309,-0.0503181536,1.4212768365,0.1440096529,-0.9942348133,-0.8986621468,-1.8718307196,0.9968719634,-1.5642098035,1.673833023,0.7975601431,0.1136041343,-0.7304054772,2.6540164068,0.7334134141,-0.540886493,-1.3533312954,0.2476737893,-1.329439591,-1.4449234432,-1.1229347455,0.8065035927,2.1288851663,-2.2722857555,0.2158570298,0.7497897727,-1.1756779458,0.5276954191,0.899694901,-1.3908708993,-0.1542485763,1.1721799782,-0.8052485231,0.0438924597,1.6927094676,3.4776787259,-0.7644289066,0.2912320512,2.1182358668,0.7903375368,-0.0476411463,0.6427553787,1.3346329296,2.8984744294,0.2114250917,-0.0029583863,-0.124717755,-0.1903176824,0.2969148519,-2.0079422618,0.6946771495,0.4181915312,0.043880329,-0.302074346,0.044044888,-1.6304639853,1.2519994615,0.683188147,-2.4075673048,-2.1132033761,0.995154642,-1.3843475229,-0.1371551425,-0.9915459442,-0.1811020991,-0.2198778822,0.134249001,0.3270167666,0.3032248627,0.9763423021,0.6521622058,0.1545203937,-0.9810871056,1.4820230039,-1.1844108466,0.2127379658,-0.0151327816,1.9455343428,2.8301133378,-0.8728509467,0.1053543925,-0.1061936188,0.3354234576,-0.4427524989,1.2273326583,-1.6385686815,0.3087144682,0.3228750643,1.6342460018,2.4513733406,0.9896059277,1.3231637669,0.142977612,1.1755914743,-1.0988276264,0.6127430787,2.5490546105,-0.3642023698,-1.1447347843,-0.9515384494,0.8060108171,0.7622216551,-2.5599532688,-2.5686399376,-1.3464331769,-0.9771594735,0.4611374192,0.295722468,0.5954223645,0.6100280987,0.1926080135,-0.4446015976,1.3065208498,0.5712024379,1.7659103869,-0.120767517,-1.5314815183,2.8725315255,-0.0475826799,-0.2798982328,-1.3524705746,1.821667241,0.1582181064,-0.1931492676,2.5528374694,1.0628665224,-1.0256109785,1.1845245999,0.0117158662,1.527612266,-0.4688557174,0.6031019018,-2.1070093806,0.362040635,1.7297276513,-0.8883400929,-0.4874900784,-0.8401866034,-1.9117638708,-1.5827869392,-0.3548514833,-0.2353421128,-0.2557148514,-0.4868948004,1.5246495024,-0.2165702629,-0.068891181,1.7147874304,-1.8993459062,-1.0739941507,-0.878407139,-1.4945351065,1.2293001286,0.6774613359,0.4303458297,1.3427880048,1.5843126885,-1.5222489094,0.8559107942,-0.5790706026,-1.03844087,-0.6079392644,1.8279007273,0.4983960673,0.0669692497,0.4926064129,-1.7024692067,0.0924149541,-1.483612181,-0.0648218327,-0.0382739454,1.1855323024,-1.7032738187,1.7938442962,-0.5371077889,-0.9668089859,1.1499968065,-0.3940604496,0.4249082329,-0.7238650053,-1.5126851199,-1.753974601,0.3811919531,0.8143624199,-0.7954235416,-1.3003379926,-0.6231981038,0.0285255076,0.4996154595,-2.4248981841,1.4149698437,-0.5598756725,-0.230934083,-2.1351811384,-0.1976475409,-0.8222559179,-0.9806527981,0.0267997685,-2.304925454,-0.4659156721,0.7295596691,-0.3392751874,-0.2632132021,1.1885214046,-0.4755980776,0.0483358857,-0.1337622804,-1.7630993772,1.1333128943,0.6575740315,0.9814555084,1.9059123717,2.2209320487,-0.2608225665,-1.7842796742,0.784276388,-1.784859745,-0.2224768944,1.6377624687,1.2067069649,-1.1477952089,0.3747083858,-1.0046510054,1.5475679561,0.7174505457,-0.0567301838,-0.3721022402,-0.333023736,-0.120758588,-0.257121446,0.7584477439,2.9263915247,0.5182531537,0.6232162646,-3.6253630568,0.2009602751,-1.4742240884,0.9654113838,-2.3902914794,2.5283682661,0.7443217008,-2.0811558676,2.3437967082,0.2985891499,-3.0906756732,0.3024125257,0.7249243738,-0.1347519159,0.1719128346,3.8427920983,0.9513813746,-0.008393163,-0.8727986318,-3.1896696968,0.1982738416,-0.9960770122,-0.2263573689,-0.9801344605,1.2440665939,0.5237879751,-0.4416856309,-1.042002527,-1.9341309688,-1.1158774083,3.5212896599,0.1013272383,-0.3288303093,2.906276394,1.7303537503,-0.4226575017,-0.2857887467,0.1025978793,-0.5674317707,-0.1490031287,-1.6852122745,-0.8136670536,-1.1612711551,0.3391936484,-1.8081729632,1.4428144933,0.9816767748,-2.3209665607,-1.7933335684,1.8044906731,-0.621141547,1.4850052951,0.9838109155,0.7471711632,-1.5083834551,-1.3254393912,0.3409896849,1.6743505466,-0.553716377,0.7457344425,-0.0115356003,2.5683866218,-1.7788143018,1.9056168207,-1.3497492228,1.0429459572,0.228292361,-1.6960368164,-0.5965886157,0.2371879452,-0.8001844415,1.2774244367,-0.6553435679,2.0219764736,-0.7528123122,-2.1720098884,-0.2008673942,-1.2483366308,-1.1828940753,-0.0933287912,-1.1403721158,0.2320597243,0.8997500859,-1.2179590144,-1.730064437,0.2713734288,0.3296034634,-1.6546005058,0.9379481225,-0.6722686854,-0.9681882234,0.2794373342,1.2985114374,-1.334449426,4.3727922852,-0.3709348184,-1.0311330715,0.3153063111,-1.8587200244,-0.9658819414,-0.5125702161,-0.3113186036,-1.7122187686,-0.8773436794,0.4292755656,0.561688784,0.9110023201,0.7916533411,0.896111174,-2.0876616238,0.4518452518,-3.0375988178,0.6853222762,-0.5695027264,0.8489972355,1.2143977053,-0.178976445,0.5126193735,1.9404789844,-0.963124561,0.6116242722,-1.0378183492,-0.4898700055,-0.7864412036,0.3357919691,-1.6343585799,-0.5145639183,-0.918055713,-0.4494752899,-1.3397370003,0.0331148068,0.9886047068,-0.800237084,-0.0537698811,1.662422512,-2.9051389204,0.9135569487,0.5042193588,0.961716177,-0.2498157838,-2.0022134479,0.2086034074,-0.9179949334,-2.6226530315,-0.0780584569,-1.0317323079,-0.2103789619,0.2784609965,-0.1607562455,0.1821445105,-1.5377259382,-0.7010177277,-1.2463931525,-0.819132016,-1.0981316229,-2.1129876451,-0.2976364575,-2.0423603912,0.4083850498,-1.0895808148,1.9641475462,0.014584429,2.4998591429,-0.1653183484,1.0239201906,-0.5660304942,0.3076854464,-3.0824750178,0.2170263687,1.2114739668,-0.0704271336,-2.0325769316,-2.234603089,-0.9304739481,-0.1242684153,-0.0190627508,0.6071124391,0.0777463627,-1.5998770525,0.5843294105,0.704038621,0.0225925837,0.0477618457,0.7976918723,0.6698893516,-1.1789277913,0.2180190917,-0.1149196455,-0.1483804436,0.3642987157,0.1091761641,-0.8828164135,-0.1444200399,0.310834626,0.3116040723,1.488245656,1.8729464286,0.2981236959,-0.4084450748,-0.9401927552,0.119181525,0.5309421899,1.3905562441,-0.2152052648,-1.7893874678,0.4431678494,1.1325789478,0.1750195475,-0.5964904379,0.4705778474,1.6977351588,0.8718200801,-1.9297066974,1.3405049911,3.6605209879,-0.3623718334,-1.5904755702,-1.4674528161,0.1361869129,2.3624743994,-1.6322169648,-0.6802720199,-1.2679407329,1.0497004183,0.5407140378,-3.4764907519,-1.7273204106,-0.7766949653,1.2825392595,-2.0626139421,-0.9285907244,-0.7007329478,-0.0210379536,-0.0721479052,0.4837540671,1.7796830639,-0.475080299,-0.8309208245,1.554035723,-0.0233605988,0.5221873756,-1.5181861888,2.9039573464,-3.3655018937,-0.6537578129,0.7477187775,-0.192558353,0.5043554707,3.6012914532,-3.6921196589,-0.0696847023,0.0061802875,-1.2899777112,0.2502627192,0.7289712572,0.0512009643,0.0541657004,-0.8280099825,-0.4129124796,-0.1045183008,0.9776504029,-0.7791221431,1.1659232023,0.8385911556,0.2153366637,0.776586409,-2.3116199735,-0.2704584477,1.0824406084,-1.9136904857,-0.7025845913,-0.7745968549,-0.3691794741,-1.5750522992,-0.5355772404,0.0865076072,1.1703421018,1.2869305648,0.3571737655,-0.6366199254,-0.7277278068,-2.0950352521,-1.8908824426,0.1594600369,0.6123533553,0.9016415051,-0.293238974,-1.2439475522,-1.0101506065,-0.0126298152,-0.1952265578,0.983112709,0.5954738021,-1.4625944142,-1.5232948812,2.3419394731,0.2976898973,0.3672078493,1.9089116808,0.4583543789,0.6271535833,2.082286019,-0.5440983428,0.8156269127,-0.0746742115,-2.0967477221,-1.4871048122,-0.6922939204,-1.9967905074,0.6304387964,-0.4961099308,-0.731246287,-1.4251617428,-0.4151962748,0.5901698653,0.7807415604,0.763888849,-0.6575791128,-1.3453943191,2.556787906,0.2943030096,0.7711824779,-0.4716030233,1.9271720383,1.722363567,-0.54628153,-2.4403900374,1.5710461243,1.1479802726,-0.8686049649,-1.553506532,-0.8757715908,-1.195413694,1.2193513469,0.7999499109,1.3935852599,0.5470121509,-1.9675985742,-0.7309602562,-1.9452626434,-0.0559734792,-0.3642786141,-0.6415264304,0.4353405546,-2.7946093849,2.1760544541,-1.1505457739,0.3787262389,-3.6142545763,-0.5985381657,-0.6543756823,0.9424829616,1.5634553857,1.7854651875,3.2324454916,1.3006627355,1.0917484398,0.7562394433,0.7463096239,0.0346168847,2.3351349098,-1.0697691067,-0.3451714273,-2.0238874364,3.7954844158,0.8693344055,0.7213973725,2.7768960827,0.1029780124,-2.3699448843,-0.6754389114,0.0572047308,1.2923066969,0.3077598887,1.3321843264,2.0022820598,-1.0023562142,1.5983842388,0.9837184381,-0.3054496456,-1.2291411482,-2.0015631794,1.918894004,0.0231947582,1.0694245691,-0.7255411985,0.9506464671,-1.3335102405,-1.2242441741,0.6574827153,-0.1147370378,-0.096491589,-1.3585562169,0.2796157143,0.0147493192,-1.3537089199,3.2280028036,2.4945619696,1.5458666504,-0.3872976077,0.6683771359,-0.3299316879,0.4702746405,-0.8046847456,-1.7753352894,-2.8007325117,0.3575953197,-0.0163365302,-0.8703161913,-2.527782883,0.0394776122,1.8037038639,0.4117313779,-2.0935534517,-1.0797426545,-2.0784260436,2.4290510646,1.7548329269,-0.6787804297,0.2076704782,-1.784956354,0.4716296153,1.8789118109,1.1403720924,-3.1733626807,1.342973794,0.429734863,-1.2601330505,-0.2413110638,0.9507421655,1.1117286193,0.5808891579,-1.3233772619,1.1512966849,0.9234699598,-1.9544271891,0.1209340021,1.666140012,0.2730994842,-0.1348545142,-0.5684818439,1.4132589653,2.4026156437,-0.7883401893,-0.8304316887,0.7103271938,-1.2210089435,-2.0334054883,-1.4050809453,0.1791373425,-0.8407067882,0.5867536886,-0.5033977091,0.0610456698,1.0090330382,-1.1029795916,1.4610956887,0.1345475284,2.3630425658,1.7927136218,-1.3809365924,-0.0925577695,-1.0160626894,-0.2602788911,0.205484214,1.6967070605,-0.9065852222,-0.8276178106,2.0964849383,1.2436342539,0.6419757366,0.1952017816,-0.6179654572,2.2788631598,2.2785910825,0.2394189356,1.1735260286,-0.7709390285,1.1688229084,-1.0075656698,-1.007702643,-0.4272404905,-1.9901247068,-1.7367827132,-1.7976110263,-1.0525632533,-0.0898593598,-0.322402556,2.1934202367,-1.0716858005,2.3264748407,0.4662236973,-2.4499959807,-1.749958966,0.1439337522,-0.5093372844,0.5831688473,0.3551399714,0.2293104472,1.2035464022,-2.5495397541,-0.5286282349,0.687095726,-0.783153742,0.3407256255,-1.4129209195,-2.0403667726,0.8315912205,-2.1435741308,-0.9877335099,0.2215214276,-0.6561759652,1.302033701,0.3743730757,-0.0211270371,-1.0138486596,-0.2025385764,-0.0773174806,0.3186050485,2.617705005,-1.0845420979,0.3762187316,-2.9886283077,-1.2974429009,-0.6988349991,-1.6177264542,-0.4869066484,3.2527472338,-0.3824979956,1.2143674981,0.3328345907,3.2932196069,-0.7561538093,-0.6276707727,-1.6479660821,0.7217946592,0.2190717173,-0.4790215132,1.4498451926,0.3824937036,-1.1627948856,-1.3610090995,1.0995510085,-1.0189570423,-0.378802534,-0.706933287,1.737029851,0.5272530066,1.2764932565,0.6795065773,3.6279784762,1.2963858374,2.3386804746,-0.1233364911,1.5871783764,-0.9437055458,-0.9012488011,2.0607639327,0.9808512839,-0.1497396539,-2.6538615328,-4.4537163129,-1.0055119352,-0.6755112188,-0.1212171975,3.7437982642,0.9813774621,0.1016303523,0.9212083247,0.5430205774,-0.5609402895,0.0445079396,-0.4512296439,-2.042357508,-1.6910315741,-0.0740679211,0.7032415578,0.4680774374,-1.4424670403,-0.6250643157,0.057628498,-1.4914375309,1.4403238489,-0.1330188266,-0.0229359919,-1.1673180612,2.4589304322,1.9316228738,1.7798862897,0.174084461,0.7454874826,2.0569646216,-0.7545984691,0.8248810331,-0.4509151142,1.8806160329,-1.6887129395,2.1548752362,-0.3410995953,-0.0451413984,3.6220932499,0.3225020786,-0.637116212,-0.7319153199,1.0506820117,-1.7732522747,2.5833370295,-2.259791435,-1.4486238083,-0.3515175713,1.4609315736,-0.4378852068,-0.1070364753,1.2052273511,1.6512920401,2.1052082174,0.2427594859,0.9958247076,0.3642246156,1.2394271491,1.0980502158,0.8668323719,-0.5708998665,-1.6926854002,1.8805654548,1.6365196897,0.774858029,1.0408384127,1.588243512,-0.4546853913,0.1630831969,0.7044555756,0.8012002983,1.3710441559,-0.5745840903,-0.8309643298,0.1004994823,-0.5166195691,0.2919628081,0.5440275723,1.5761260617,-0.5471476365,-0.5369674982,-1.6925812923,0.9063911694,1.5792171204,0.5517537528,-1.6664593453,1.5487026201,1.4891221383,-0.6054831529,-1.399810083,-0.4078602629,-0.5387722593,0.9428163949,0.5337824011,-0.0863720712,1.9807258733,1.3668903151,-0.0789893871,1.7636960502,0.0269869186,-0.4166754202,2.050172575,-0.2837063867,-0.0630522767,-0.3118442717,4.3495500795,-3.0237177315,-0.0197243949,-0.7907048773,-1.1158359042,-1.169226921,-0.1277691451,1.8218605602,-0.916190863,0.09431373,1.5968915888,-0.8235871824,1.9155588888,0.1732331643,1.7163327149,2.1432770028,2.0631131562,-0.0308935952,-1.7327223604,-0.7087210936,-0.2786963869,2.1599456377,1.2075656354,1.2563739659,-1.1201640814,1.5874522028,0.1444895897,-1.1119831229,0.5009111963,-0.4187904622,0.4268449576,-1.6585583586,1.0179558645,-2.3405404839,1.0472016554,0.7421128174,-0.3800816529,-0.5854532976,-1.3047256298,-1.2478497931,-1.1735312783,2.1137111923,0.6737172756,-1.877345134,-0.3401428354,-0.1231461809,1.4312831904,1.2936677549,0.2391292539,-2.555784667,0.8760309837,-1.09326161,-0.5605277274,-0.223870217,0.0481533225,-2.7511940889,0.7508072147,-0.7604940439,0.2040968008,0.1058195817,-0.3665498784,-0.5900458436,-1.5534296331,1.8260797625,-0.7972003406,0.1754625884,-1.136475816,-0.5012159063,-1.4524056446,1.2834324667,1.2573267513,1.4294675167,0.6439035077,0.8083611428,0.5481324685,1.1004756703,1.9114546035,-0.666070863,1.4480924984,2.4837570135,0.6773768566,0.2455404733,-0.3050771757,1.1686736205,-3.2940431673,1.8746719801,1.5546883689,0.1033367209,2.9756702729,-0.5008953606,-1.0051719943,0.6700732552,-1.5022698441,1.2415141418,0.3280032508,1.416528356,0.1282549461,1.3237720704,-0.2493138201,0.3271429239,-0.284502695,-1.9038960117,-0.2948530269,1.5919494693,-0.8739908803,-0.8126065903,-0.7611498157,1.1231959418,0.8567055442,-0.5175200148,1.6366760408,0.7344677212,-1.1190281544,-1.6588599694,0.3102683806,1.8179233911,-0.8572539478,1.1103549086,0.7388854759,0.4502685521,1.4082772678,0.7912026233,0.3713315615,-0.1662530009,-1.2197230519,-0.0404811169,-0.0500304598,-0.1986129154,0.3398974216,1.6176107418,1.6510832121,0.3940781834,-1.4539966625,-0.8314538266,-0.9292022488,-0.5897264974,0.051838434,-0.7481600704,0.5728135469,0.4508407903,-0.9138643815,-1.7264550654,-0.4763988096,2.74754368,0.3730127457,2.0321273385,-0.3982615536,-1.3502567046,0.1638137004,-1.3373310946,1.4695858953,-2.0632085526,0.047611489,-1.0946787109,0.5332514902,-0.8776816188,1.1177534357,-0.1116016307,-0.4999301503,-0.9313424376,0.9024282404,-1.0855468787,-0.4958536255,0.4906346535,0.2073223676,0.5555301405,0.2832256358,0.8247861059,-1.2007438866,-1.1319938457,2.2404817128,1.3989094885,2.1649855069,-2.1228238578,-0.4632250698,-1.1599224264,-1.2112948148,0.3520708307,0.694241723,2.4619241494,-0.7982529851,-1.1158228641,0.2038581548,0.3897059532,0.0042541479,-1.2965385372,-1.5895920531,-0.2574843205,0.1130648343,-0.4136378527,0.1432181002,-0.8874246138,0.6337733651,-1.2837999757,-0.6456415554,-0.1198058146,0.9813817779,-0.9832645298,-3.0221733061,-0.0568626832,0.4690911026,1.6271278278,-0.5384421591,0.3489151923,-3.7808115422,-1.3595332944,-0.1503771463,0.6048916663,-0.3613079304,-1.771508961,0.1012544459,-1.9966995891,1.3502800205,-1.9102004329,0.1037590474,-0.4960978288,-1.0761486591,-0.2804977155,0.1147251752,1.3000167407,2.360755705,-0.0814985815,1.4631341045,-0.3325932572,-0.865777222,-2.2144142389,0.2327021501,0.011877177,1.6800443828,-2.1862779282,-2.271532009,0.9994031276,0.5766984061,-1.0199757775,-1.2265866016,-1.7924054728,0.3158168829,-1.1837276099,1.6087417745,-0.1881868663,-1.1598579951,-0.1730377026,-1.1782738391,-0.2573818918,-3.1272590694,-0.6998441899,1.2996518303,-1.1730997681,2.1128860006,-0.5593387671,1.1099916538,-0.6364016664,-1.9793099297,0.3976372105,-0.5269379925,0.8905287717,-0.3229340526,1.5896693857,0.9781692998,0.0986321865,-1.8981781962,-0.6124313584,-0.5947348423,-1.6544593176,1.5084374764,1.1215915574,-1.4227079829,-1.7590582233,-1.5581769463,0.1274799876,-0.1629495882,1.4353761044,-0.0952656847,-1.8048674059,-0.7694005085,-1.3541272037,-1.4750048684,1.6373196547,0.0363869839,-0.6950968127,0.6865231327,-0.4274961743,0.4773784065,0.4571417647,0.2024454463,0.9628199901,-3.4984320371,-0.4012501096,-0.793429732,-1.4663454009,-0.4422702342,0.6965169661,-0.1278049652,-0.4083867486,-1.7184713206,1.4996335037,1.2738358386,-0.458489187,0.8908186364,-0.5068447908
   1.3865029234,-0.9185264519,-1.9087718009,-0.8653978924,-0.4587530835,-1.9123024669,-0.7975474419,-0.2501672102,-1.9761632142,0.1073171519,-1.1078125859,0.9568757832,0.9372273595,0.0751213103,0.3096721614,0.4559114754,-1.891324281,-2.3326037023,0.5944868037,-2.0541407046,-0.0597256657,-1.4264841746,-1.0770832316,-2.1071227709,-0.1941619164,-1.218121821,-0.179201019,0.5967882223,-0.2753334083,-1.6123493805,-2.301617156,-0.1379306063,-0.8497379854,0.591142922,-1.6108665539,0.0452222413,-0.7211725486,-1.0145978151,-0.1065461879,0.9967604737,0.5142695637,1.6786443916,0.7984829475,1.4992476425,-0.4038954684,0.9196713881,-2.8658893245,0.7502362344,2.3219741091,-0.9047402465,-2.4577802658,0.3182926895,-0.5845564428,0.7970879295,-1.1511064639,1.0522077684,0.4107365035,-0.3409362148,-0.4755558689,2.6100652647,0.1293900206,-0.2778307523,0.4489291339,1.7557047599,1.3257408608,-0.7814886497,-0.8621865225,-0.4482979657,-0.8413760325,-1.7529657051,1.9162108391,2.1377768493,0.9869955484,3.0258670525,1.4140254872,-0.6526308987,-0.6566982994,0.0573421926,0.0860668228,-0.2124755128,-1.5426186299,0.7548683013,-1.8199751758,-1.7629847313,0.3708539734,-0.3746500532,0.2394787009,-2.9879731571,-1.5537756392,0.2836657286,-0.8901429363,-2.8284753454,0.7487675497,-1.8521709886,1.9778868471,0.2146882704,-0.3483668803,-0.9775553025,1.0847953573,1.0447172397,-1.9035959219,-1.3891028417,1.0388884174,0.2366520251,0.7340368082,-1.1406134334,-0.3304130583,-0.1814810793,-1.2961280034,1.1271457092,-1.4117868986,0.4704854317,-0.0720951584,-1.8039308356,-0.6978889371,-0.5463421638,1.6279518166,-0.7268753059,1.0349487132,1.2955550018,-0.4568247939,1.1776119552,3.2570953245,-0.2767680793,0.3329339886,0.1889475049,-1.7488570172,1.4291499533,1.1176134008,1.2627374961,-1.1365540215,1.0720252306,1.0417444846,-1.0816233744,0.957951474,0.5402541966,1.0171181006,-0.0290127113,-0.766105625,0.8401556777,1.837872733,-0.4594141561,-0.8656981546,-1.0010689387,1.6191606617,-1.4881157806,-0.096535678,0.6186541216,-0.0908783117,0.2517281378,0.4808002938,0.4707815696,1.4181420871,-1.3979025457,-1.2836823673,0.2172195284,-0.7689464544,2.5169868147,-1.6475551557,-0.4107474266,1.0958011961,0.2517073656,1.0619348111,-0.9944255092,0.0504985761,-2.2322255042,-2.9639935188,0.8585998396,-0.8543426614,-0.5835982925,0.9066532019,-2.5085862048,-0.2845039866,0.410959412,1.9278724805,-0.2838816212,1.3809787003,0.103539585,-0.5526707329,-1.5060115489,-1.0011937278,1.3038082113,2.6264940876,0.1831919014,0.1301735118,-0.9386180733,1.1316380821,0.0770380357,-0.3992274039,-0.8512436221,-0.8511245231,-1.1349889235,1.2488339591,-2.2760726127,-0.4539204462,0.6226713074,-0.3938060458,-0.438203285,0.3415133709,-2.5670318921,-2.8640869069,0.0307009365,-1.496919602,0.858156733,-1.4969564279,0.228315783,0.7473259543,1.511390634,-0.6623407245,-0.2665461094,1.511200264,0.5661737367,1.2460496454,-1.5934946696,2.531387587,-0.2025161333,2.8363678856,2.3496382574,1.638014029,0.2962148673,0.9837328151,1.1062147115,0.9868102687,-1.4064955447,-1.0405612766,-1.6536644342,-1.0108474504,-0.0049283952,1.3323988508,0.224124022,1.4679583608,1.0790538753,-0.4645932421,-0.4697510247,1.3960821184,-0.1599717558,0.2846184641,0.0450970974,1.4190600696,-0.1636851642,-0.779276449,-1.2491760133,-4.1169946356,1.2331381584,-0.1648028134,-0.7088654943,1.3680455859,1.5994138044,-0.2969086378,0.7054380029,-1.201089859,-0.2661124031,-0.6110459728,1.5817394537,1.2740180109,0.8411309207,1.435085722,0.1164221077,-0.670550151,0.4418253626,-0.8346221244,-0.4090094288,0.6712784295,2.6820207193,-0.6550073756,-1.1121082087,0.7258675599,-1.3595395029,-0.517304778,-0.3879660302,0.7311732119,-1.3757930901,-0.4267352645,-0.5070414511,-0.3688782602,-0.5991980311,0.7215135032,2.2309469974,-2.2206866663,-1.3056794347,0.5296811501,1.4872637548,0.508947557,0.4886747642,-0.8885824327,0.6173266293,0.963158806,-2.2329992367,-0.220022004,-0.5987454148,1.0778644143,0.4267390317,-0.4629424632,-0.8221530398,0.3626545589,-1.6064507699,1.4184784621,0.4316231813,1.0595094195,-1.1169632034,0.767887122,-0.8841333999,2.0792574937,-0.9721649919,-0.1981906155,-2.7707249829,0.9589165428,-1.3375146409,-1.0877336179,-0.5345759792,0.4578163076,-1.1288225147,0.443789321,0.6748468181,0.0630507183,-2.2198837624,-0.4475130848,1.4696331897,-1.364705344,1.7985899362,-1.3527090697,2.032765144,1.228011345,1.1978609466,0.8929995532,-1.4989811175,-0.3764496268,0.260991415,0.931807206,0.6802121721,-1.4176877645,2.0042031237,-0.5666809278,-2.3623272365,1.8668264218,0.9741760998,-1.7135326838,1.1430882154,-1.5722357643,0.9925777799,-0.5665703566,1.7126918611,0.8679071017,0.9333654378,-1.5115501817,0.0069243822,-0.7637887835,0.2398926211,-1.7437562882,0.4725772295,-2.2714808796,1.5189683602,-0.9267098869,-0.3049718458,1.2307402195,0.4290384692,-0.6667063595,0.6892833536,0.0426948815,1.4196192218,2.5654253965,-1.498240813,-2.0720366141,-2.52522297,1.9096891449,-1.7027914125,-0.9404229463,0.9361905242,-2.4185091175,0.2422318836,0.0389488526,0.1971694227,0.4085632353,-0.0962346324,0.3018145876,1.3427518443,0.2672520979,-0.110546344,-1.4428002159,0.9776844252,-0.2910411089,0.2972469414,1.1106827514,1.9393841383,1.4193372475,1.6860903109,0.5926306226,-0.9054732142,2.2051531656,-0.6053420499,0.9821105574,0.4084603105,0.2039678479,0.2156565626,0.4825938261,1.1844759378,0.8278296797,-0.8993015703,0.4744918662,-1.0123710367,-1.9497815626,0.1499974046,-0.4836872818,-0.9239446076,1.3797490514,-0.9098854821,-0.1091995443,0.0981906912,2.9632902886,0.3648430269,0.3180283631,0.1256052684,-2.5305997292,-1.6402948981,-1.0636374757,-0.8593228989,-1.1098690293,0.7729331641,1.6393831744,-0.1216847788,1.0812827181,-0.7640392194,0.2630306658,0.7872511926,0.582243936,0.7170740924,2.177092786,1.950340372,1.6578859294,1.192970925,-0.8925176892,-0.6865203396,2.2395990923,-2.0646300177,-0.7905616049,-3.6887423421,-1.3107788393,-0.4131225727,0.0344220336,-0.9493666413,-0.2426833132,0.4671459395,0.2899391033,-0.2816622062,-2.5910899608,-0.1489389978,0.7120787339,-1.0303443398,-0.465319363,-1.0813087454,-1.5764078042,-0.1729540518,1.1523166689,-1.4336607709,-1.3459929143,1.6325490862,2.3324899772,-0.3807557223,0.1131693909,0.3264638337,0.1358723992,-0.6302275831,-1.5339739577,0.4899042091,-1.9662175055,-0.3758867893,-2.0958941915,0.4504473968,1.8106342069,-0.1514370737,-0.41231406,-0.2881619976,-0.4774778708,1.7825616656,1.2821108971,-2.1984458193,-2.9371363433,1.0090207647,0.7459451979,-1.2869554579,-1.2888354697,0.4749290374,0.1862965141,-2.2231549431,-1.3897735142,-0.5876266229,0.8240632245,1.1987783438,-0.0524015881,0.110067319,-0.7766444393,-0.4524329984,0.5609103423,-1.5511402874,-1.3561107314,0.2678462173,-0.4023931027,-0.1048880914,0.9111567558,-0.6708249207,0.020949375,0.2124774566,-0.0942464549,0.6837407952,-0.1771733709,-0.6319537293,2.1552538716,-1.3833102675,0.472702176,-1.6628130185,-0.6741182129,1.6455316915,0.0554006364,0.956559402,-1.3530293245,-2.1395851437,0.7213292677,1.1639551295,-0.492305086,-3.9810613209,0.4603449808,1.5543590651,-0.8629123355,-2.7034208084,2.005422005,2.4718838586,0.4322392299,-2.1561349037,-1.3125307814,-0.7736315043,-0.81359626,0.3610090337,-1.7390233849,-0.8051611931,-0.1459358682,0.8527885164,0.5286331351,-3.1796987636,0.6852788301,-0.947437066,-0.2348933711,-0.8778943609,-0.5715397585,0.2752391464,0.9680899985,-1.1154545577,1.2472747919,-0.137380579,1.8422929766,-1.62450217,-0.7354945894,-0.2932333548,1.3789393631,-0.1870086491,-2.066107903,-0.5775616254,0.0990781593,1.8669038531,-1.3944526502,0.5776238505,-0.2874914701,-1.3880754444,3.1879560374,2.0288187513,-1.9190885438,-0.9616453523,-0.2017336976,-0.6593427233,0.4178146834,-0.2530043842,0.9377099882,-0.8373431982,-3.4398934445,2.4060699231,1.1194586491,0.5819028216,2.3460131837,1.1888450627,-0.0962412279,0.5873441542,0.6754211545,0.1809148571,-1.3594667185,2.355229248,-1.9544103475,-0.294202166,-1.5422575576,1.1659669091,-0.2516113125,-1.1790624088,1.7333102691,-0.3938126668,0.2348206324,0.8862703389,-1.0747384563,0.1721868,0.5031960643,0.9538507671,1.0766749225,0.72753862,0.2558483611,0.456998648,1.342171138,2.1014723569,-0.6141809686,0.872490831,0.4905601042,-0.2509950847,0.3746704627,-1.0013164635,-0.5134578897,-1.0311178252,0.7283566182,2.6317733597,-0.62558188,-1.0030436342,-1.7450637166,-2.4699676578,0.5506107638,1.5995414631,-1.6641305209,-0.8514006639,0.7073855648,-0.8746268874,-0.8793331556,-1.268829768,0.216938409,-3.0300558632,0.147974884,-2.7874501455,-1.1946987161,-0.3316341796,0.4853262811,1.0338748828,1.780073689,-0.3689486328,0.1244410131,-0.9637020105,0.3514818116,1.3315417922,1.6057178047,-0.1383650088,-1.6504781235,-0.2695640898,2.0096473635,1.3489839709,-1.0867771119,1.0972969802,-1.0037137554,0.2019104386,1.3706678082,-1.1869239182,1.1806132875,-1.1020452084,1.1923952225,-1.780271969,1.2951865672,-0.8577499243,0.0868578674,1.5434303161,-0.8784253668,0.7479685233,-1.7840776443,1.0224498715,-1.5330650786,-0.7445154879,-0.8598538755,1.0392315893,-1.3282930895,1.6972828778,-0.2535850156,-1.1486852364,0.2855263014,-0.8960960299,-1.8023191308,1.0790262652,3.0647346984,-2.5526328075,0.2570256324,-0.6574763782,-1.3420646614,-0.4340660174,-1.9090755218,0.3925497903,0.1307055127,-0.8425383838,1.0278045756,0.0174416227,0.4498568141,-0.5054308327,-4.607928499,-1.0779500762,1.6223826218,-0.5737156199,-1.2311134543,-1.0715523202,-0.2044499243,2.0335717286,1.5495102776,1.5520023743,2.9634086861,-0.2852176355,1.6819186524,1.6139768219,-0.2214218722,0.167606798,0.2680370118,-2.0867174156,1.0100923245,0.7234193908,0.4473270427,-0.7598846896,-0.187200015,-2.2011467748,0.7409559969,1.4977489268,0.6005838208,-2.1493376977,0.6825165825,-2.2685503716,-0.134157165,0.2003943894,0.0922614322,0.7198261083,0.377396236,-0.2293315344,0.8817090204,-0.3408801017,0.2558057993,0.1760847309,-0.7087586228,-2.2285382028,0.2458323238,1.4632490717,-0.2163824494,2.8121586571,-0.2072326257,-3.0683200614,-0.8502428189,1.6938626353,-0.4489382359,-0.026997455,1.6510030219,-0.4199412265,-0.5537087207,-0.7441292243,-0.214857743,1.6893078388,0.9688698598,0.8732443718,1.6650926182,0.9992504021,2.2988307173,-1.5216457085,1.8535819859,0.3141632573,-1.2508542267,0.7371459297,0.8588330157,-0.5348623675,-1.7720554925,1.2707880352,-0.6953577574,-1.5692535018,2.429540857,1.2182940872,-0.2835120068,-0.5644648522,-1.2531764459,1.3082732581,0.7870769704,-1.7334368438,-1.3508056044,1.052570946,0.4128375953,1.6442804434,-0.0101761501,0.9064389831,1.2889911155,1.0728514919,0.4658847322,0.9868960715,0.4220836402,1.2243841251,-0.5384989325,0.216651673,-0.1640000004,-2.2303951507,1.1155977309,0.3531114515,1.5245730008,0.914971425,-0.6526411374,-1.6069573875,1.0346378734,0.6774354465,1.2891430028,0.6207338042,-0.5584128935,-0.7567697632,-0.2933774293,-0.8499380406,0.6805709398,1.0681608642,-0.5750726835,-1.3884821085,-2.1115126761,-0.3518393905,0.5349148555,1.4538119495,-0.9014917997,0.4835977046,2.1553131109,1.6541149612,-0.7078021652,-0.6722452411,0.0462818722,-0.4566048405,-1.3593516646,0.124066507,3.2839686338,-1.1051602838,-0.1364011902,-1.6298412456,-0.9433138335,2.6364915098,0.0096728931,-0.7554401129,0.1027305248,-0.2238623713,2.3466436278,-0.0848282451,-0.4493429698,-0.7783679882,-0.9670326288,0.0668647952,-0.9990631018,-1.6538295937,0.0839097983,-0.9587073539,-1.5410425159,0.9542783249,1.1782734046,0.4269650854,0.7124584386,-0.6928645494,-1.8619460091,-1.0390044082,-0.0839337873,-1.596646336,1.4848328273,0.3859872223,-0.4450655477,-0.2415520304,1.3443628073,0.9362598456,-2.2130169336,-1.5536658446,0.7073337554,1.508964965,-1.9835293723,0.9456706286,-1.5445805531,-1.6503933973,-0.0885108733,-0.2813105369,1.413188081,-1.6383542405,2.3087252332,-0.6625064528,-0.9634303647,0.7887341392,0.7768039808,-1.3494061508,-0.193897757,0.2540223289,1.454856065,-0.1021413398,-1.2089028889,-1.3104339999,1.6578300796,-1.7673926216,0.2101435022,0.0099147293,-0.3802304533,1.5308358104,0.6100635687,-0.3773596349,-0.9309295514,-1.5913040004,0.9485777845,0.1772171398,-1.2556580793,1.5535965761,1.2701508549,-0.4613206442,-0.511597988,-0.4205105609,3.0424309017,2.4117449296,0.4341462474,1.7406740374,-1.3521400849,1.8100237314,0.6364525736,-0.9268947688,-2.0181314259,0.5000086505,0.0700982387,-1.2008356262,-0.1275108931,-0.1386962313,-0.3896026664,1.1683730434,0.8706246844,-1.2045380129,-1.98508852,-1.3545935334,0.9002107461,1.0264767803,0.5648313209,-1.4024056494,-1.0039851813,-0.2566784367,-0.0679356069,0.7188609741,-0.7746897418,1.2027411805,-1.4577959052,-0.9772857768,0.454826537,0.6590839805,-1.9380834948,-2.1858917432,-2.0282176685,0.2038824834,2.1441913069,0.4202428394,-0.7458548382,1.3705587013,0.0354563629,-1.2232943672,0.0358120021,0.8684631949,-1.2215541275,-1.4394646512,-0.9175269956,0.2209695048,-3.6205756113,-0.79241205,0.117561291,0.8356792379,0.2967093078,1.5928809424,1.7683835919,1.8437027741,-1.0904511148,-1.0727954702,0.0862148837,-2.0115993692,-0.4577020504,-0.6723424569,-1.6336145295,-0.4582911901,1.839618516,-0.1259401225,2.2974842674,-0.7306558249,-1.4599631735,1.2371441156,0.0802352715,1.4300847436,-0.3632432892,-0.8248762194,0.2775594674,-1.0620080726,-2.0073417547,-0.6308956547,-1.11245756,-1.0598832665,0.4280327172,-1.1135338328,0.5738453971,0.3886140722,-1.6008196155,-0.8469207517,0.2904215774,2.4279666741,-0.904229813,2.4111679043,-1.95887934,0.711470697,2.5001549264,0.7770564742,-0.0542568388,-0.5615080913,-1.754158992,-2.4836783482,1.1303977277,1.3325308927,-0.2140127403,0.6230145657,1.6491990755,-0.9306580053,-1.5694462484,0.4833773874,0.9761125806,-0.2659638527,0.8243284523,0.7782825145,-1.0788251432,0.7189560701,-1.9033314502,-0.9040622968,1.3892553375,0.0417203016,-0.4114732775,2.1839368125,-0.5882742468,0.8547517291,1.4930103285,-0.6269031101,-0.4321446004,0.0118145564,-1.883470664,0.2991221797,-2.4638463875,-2.4706545519,1.5683043634,-0.2521389088,-0.2837368266,-0.0338825121,0.3122926843,-0.6948117721,-0.1946317081,-0.5888963088,0.7911247761,-0.5067698166,-0.9150412371,1.600874543,-0.2492676836,-0.2980296782,1.9132210222,-1.9279729774,0.212636108,-1.0748523273,-1.1055871203,-0.9515233909,1.0230739644,2.4589222127,-0.7563321068,-0.9077348653,1.4244115779,-1.2051536047,0.4539141319,-2.106224195,0.9816815705,1.1879662513,1.6017037715,-1.1017684696,-0.3053621539,0.8694875751,-0.4193294277,0.7752343397,-0.108039945,-3.4735581606,2.1843347703,0.7133986363,-0.0337666864,-1.3054046178,0.3486765807,-1.2829786223,0.5397913011,0.1708605045,0.0430928824,1.9956321744,0.2157078541,-2.1438156204,0.6885395774,-0.6826084303,0.8031270989,-0.2706829195,0.6043538495,0.5788284521,1.4558182034,-1.5325189426,0.8113673197,-0.5867836278,-2.0580330055,0.4718620352,0.459352934,1.9931499901,-1.301053663,0.3970813743,0.6777297453,1.1021502301,0.5454653877,0.660061389,2.8219966419,0.4686719902,-0.6658063902,1.1081315473,-1.4714862822,-0.4440741903,0.641417703,-2.1636947218,0.1585580552,-1.1349155898,1.0293138725,-2.2668453629,1.3481083838,-0.8679193348,-1.3082840032,1.2408839148,-1.0878864983,1.099083181,0.2101603647,-0.1102809276,2.608579399,1.4073690014,-0.2378147857,0.5888734536,0.1349553777,1.0878457988,-2.2069530473,-0.4985189893,0.1761041188,0.8185873587,-0.1753106144,0.7846705431,0.9147148281,1.4645947145,-1.7468597702,-1.1115429401,1.3614329363,1.0951639504,1.2882059094,0.5845228942,1.7747168087,-1.9045327184,-0.4173080172,0.5217450566,1.6588532614,-1.0371415412,-0.1729292238,-1.8261492853,0.1906842639,0.3879286962,0.1370525235,0.3086832518,1.6464002439,-0.6678696106,-0.5952685787,-2.0992808631,0.0593500025,-1.303680139,0.5928211842,0.5593620347,-0.1061797451,-2.3005983879,1.0092841182,-1.1669931278,1.028360849,-0.9516258035,1.029095335,-0.7167902281,1.3067185689,0.3609624036,0.9791793681,-0.0880884586,-0.0248658254,1.209531369,-0.6449765386,0.2495382475,-0.7898357878,-2.6159381055,1.1320256391,1.4809905413,0.1222759878,1.9328268901,0.4656400381,-0.9303191503,-0.38335862,-1.0349754998,0.2350201415,1.479052386,1.8494808702,1.3505307826,-1.2513463626,-1.444311234,2.1551106276,0.5194181584,-1.5684493997,0.0682301239,0.859439983,-0.2734590838,-0.3303187145,0.5338478913,-1.3958353234,-0.2434048457,-1.0323765505,-3.1610968583,0.2597199297,0.484518845,1.2173542237,0.8326259925,-0.4341768346,2.8840163534,-0.8143938235,-1.4952313111,-0.1750667707,-1.8689979259,1.2246764347,0.7658249814,-1.4214947496,-1.9457084919,1.9938451563,0.0351693026,-0.7382861215,1.0383419512,0.0805025241,0.3684506592,-0.0718441972,-0.4520000281,-0.1991478249,-1.7768289996,0.591157271,-0.3859391731,-1.7250679673,-0.5158600813,-0.547594747,0.8133344422,0.8558580358,1.0357284088,2.0494393925,1.3782231441,-2.2684635807,3.9598451984,-0.3974564728,0.0267388043,-1.537082354,0.6679446082,-1.2511944518,-1.6118024849,-0.8524104707,-0.9168433999,0.0427726177,-2.5154793175,-0.4064639149,-0.3616945152,-0.3043549425,-0.3024683228,0.190525601,0.5063229952,-0.6869543203,-0.1405623536,-0.4834696611,-1.6406361149,-0.5093490926,-1.0830547709,1.8149034734,0.1932130664,-0.7886538808,0.4949754147,0.9052226889,0.9010573301,-0.5125529189,2.5273708351,0.7105756646,-1.7432315188,-1.0709868387,1.6039616786,-2.0208219764,0.7320450192,-0.4204362571,-1.6747838439,0.6605637609,0.2436034489,-0.3839846179,0.7060541944,1.2552267222,-0.8389324916,0.6204653143,1.9502149242,0.2209607658,-2.7255017085,1.4611789028,-0.6173529241,1.4616223862,1.1158002538,0.0921588111,-0.4165090037,-0.3236708105,0.5500725265,0.3215247745,0.068074033,-1.5032667255,-1.112375053,1.5714193383,1.5422150186,-1.5700305974,1.6316004403,-2.2271081159,3.5383811391,1.0723006,0.8000045334,-2.3288089975,-1.8519320457,-1.7506104868,-1.5954618393,-2.1092953037,-0.7001041574,1.389350065,0.0500417973,-1.0744910925,1.8588200297,0.3081598281,-0.0477627754,2.1918150251,0.7711568922,2.287967896,0.7780659218,-0.813984107,-1.2667206527,2.4692381845,0.4319658032,-0.7061288895,-0.4952166652,1.1049548594,1.1283769359,0.4589799456,0.633219223,1.5396569723,0.2666314549,-0.3100771685,-0.9191678472,-0.3949885085,0.8493731369,1.3595275114,1.9807289366,-1.0142269749,0.6262191211,-1.008873226,0.5466391561,2.4130761614,0.3677802374,-1.5989572788,0.9989493927,2.106588444,-0.4013433421,-1.4888996531,1.9103393614,1.6502657224,0.192508878,0.92951646,1.18492265,2.9640289196,1.8022100269,-0.4702884134,-1.1379328514,-0.3317902947,0.4703508064,-1.7042196449,1.48364711,0.1890491736,1.0920809791,0.1106036607,-2.1080611811,0.3654569721,1.4911225603,-0.852677634,0.4671121796,-1.2042924512,1.0449215765,1.7838029977,-3.0716138296,-0.4888765237,1.1566156597,1.5033457221,-1.1846608065,-0.5276714488,-1.3417851321,0.0668565481,0.4518928539,1.8616912148,-0.1783634018,0.4114777479,0.5006970521,-2.7362607609,-1.7713423981,-2.8278506073,0.6560771199,-1.5216383601,-2.0556253466,-0.3901794844,1.6466726719,0.6953228776,0.1093069479,-0.0374292708,-1.8961910337,-0.6673694527,1.1422503979,1.3968800796,-0.2534291398,0.5577255692,0.4462016289,0.5851208564,-1.9725256177,0.9482977464,-1.5796912016,-0.0329056005,-0.9817712198,0.5975689845,-0.9413040121,0.0157094001,-0.0107504238,2.5853155005,1.4408201649,1.4637142293,-1.6042983834,-0.524649343,2.4253447259,-0.3886186832,-3.0362391148,-0.7927111086,0.848597962,1.1373181895,-2.6542832353,-1.1697533601,0.6503818676,0.8129707055,0.5908831362,0.4007443762,-2.677981165,1.356920061,0.5835865624,-0.3153782668,-0.7675471505,0.5429941906,-0.1487751469,-0.0366387358,2.4504374661,-0.5177743993,-0.8136289993,-0.1952886672,-2.8603464399,1.3341933526,0.5144236669,-0.6811909882,-0.591380295,0.9577505775,0.9811256282,1.0697108729,-0.5818784115,0.418589938,-0.3236733588,0.3488186234,0.7525342008,-2.0431429428,-0.45798643,1.8282262013,-0.5594711581,2.0094124098,-1.3314319955,1.5097807639,-2.3169166131,1.7431114025,-0.1687739802,-0.7705274382,-0.7216893004,-0.6885039983,0.3699707214,0.5814285575,-1.0765340077,0.9420256719,1.1059092412,0.133087192,-0.7254389024,0.727569315,0.2554965269,1.8809209064,0.1593694186,-0.9096165148,-0.4637552704,-1.2580165854,-1.692223495,-0.6033387079,2.1764411348,-0.7153503908,0.9568220642,1.7346316489,0.8898284753,-1.2442256969,-0.6685905853,-2.0091795029,1.9321611763,1.7297404273,0.4935626023,-0.6296937001,1.0786944919,-1.4418926973,1.2422087662,1.1535000603,-0.6344341559,-1.1687691364,-0.5078139727,1.1496177282,-0.7431855903,-2.3468739684,-1.7026798934,0.9601827658,-2.098616703,0.7678541068,-1.1697693867,-0.6093027749,0.2969773618,-2.7036453874,0.5546014372,-1.9808787644,-0.4539823885,0.2814544572,2.0719441065,-0.9018713149,-0.6457537834,0.736433332,-1.7394698314,0.5835710306,-3.6028170497,-0.4893215999,0.3984014766,-1.4611680764,1.2918169126,0.2908574411,0.6896162354,-0.5181680053,-1.7497253508,-0.9577778307,1.723906307,-3.0903470997,-1.8872411286,-0.853272996,-0.1606320026,-0.2539437231,-0.5513528739,-1.4158810285,-0.1595014173,-0.1118358996,0.7416889091,-1.7947803536,-0.6171589852,-1.565443222,0.7507641864,1.9693009155,0.0524946298,0.2436620178,0.0519772238,2.3025808602,0.5270956985,2.7671734682,0.010183971,0.479531256,2.5525532753,-0.7823402402,-2.2136684317,-0.8274462886,-1.2566033184,-1.4918242565,1.3018055502,1.03026725,-1.551226046,-0.5817365998,-1.5252770347,1.4679800815,2.8308934516,-0.7980688103,0.4743632473,0.2755012088,-0.0449436229,0.4894140773,0.8723564363,0.1299302283,1.5896072157,0.5185754754,-1.0609537693,-1.594536143,0.5367791291,2.3965782956,-1.3595392033,1.180574265,-0.7992791503,-0.3185051255,1.2362860009,0.5025060553,1.788513754,-0.1137568189,-0.0670712407,1.0619197351,-0.2806103818,-0.7892228207,-2.1536510576,0.9102687299,0.2023592379,-0.7375099297,-0.4441237464,-0.9469516401,3.0902800059,-0.2765537181,-0.7433056704,-1.4463935903,1.2541754494,0.9986515802,0.7682704458,0.4243941984,-2.1298839262,0.2675773677,-0.6145295959,0.8171074678,0.271532776,-1.1606867245,0.692787856,0.134278543,0.1900975944,1.3566720661,1.5894546255,0.5484116443,-0.8597152461,-1.6035863082,0.063814831,0.0156402487,-1.3964230162,1.370344723,0.419375525,0.0342353815,1.4698445336,1.6678954186,2.7971020737,3.5023190197,-0.4656621653,-1.1654315717,0.5068990893,-0.1727053484,-0.2787990272,-0.3471158782,0.0510713611,1.3270970345,2.0525878278,1.0493945278,1.3410544353,-0.2174502672,1.4060033664,1.7786082804,1.5640144701,1.1892279811,2.771306591,0.6787192378,-0.117215965,0.5972849217,1.5206273684,-0.3045004668,0.0034985872,-0.3344076332,0.8156497596,0.9647203763,-1.492055224,0.5112249629,-1.6997556831,-1.9676481507,2.017035359,-0.9615789754,0.4061411804,0.3433668774,-2.0658058705,-0.7903231726,-1.3723851499,-1.6231173911,0.4137898201,-0.3610972147,1.3942954979,-1.2109252566,0.5069812945,1.8947157032,-0.2536426043,0.428399064,0.436369955,-0.0132502583,-0.7995201976,3.4509676256,-0.3112982869,0.0093940983,-1.1339148897,0.0786216843,-1.3946874505,1.6702526255,1.9344019759,-0.1729746496,-0.6996350173,-1.7547962201,0.7734689914,-0.8195379988,-0.8653932697,0.6523424187,-0.2188988096,-1.2853369872,-1.6391411072,0.3653365003,0.8679766099,-1.4196567458,-1.7622961217,1.6056766805,1.1924359674,1.4013100239,0.0639000505,0.8956162338,-0.9435150673,0.2534845173,-0.6330207034,0.7987688923,-0.7633203496,-0.4624285072,2.6469114746,-0.3737574659,0.233354485,0.2659628247,0.0326462609,0.3329519938,0.3272536986,1.2106735663,2.4257100309,0.9755827122,-0.4696694242,1.0564505991,-1.6429843003,-0.6912306704,0.6320737558,-0.9618978818,-1.8254237786,1.177507863,0.4151453996,-1.2133838755,-1.0843003483,1.5533009804,-1.9464104586,-1.9481989902,1.813122982,-0.6551646077,-1.7588407608,-0.6483530534,-0.5044408102,0.3308008858,0.5173726439,-0.2099534625,1.4737974909,1.2799964656,-0.1216311442,-1.4645433528,1.428427957,-1.7392787528,0.388634501,-0.6360221963,-1.9990781904,-1.0902695549,-0.9096083535,-0.7759922124,0.7938153975,-0.990031861,1.444204223,0.0097917689,-0.1888352773,1.5094595206,0.5230257754,-1.2959038,-0.3566452126,0.0661150469,2.1615179398,-2.1791713284,-1.0424369479,-1.2900770375,0.5790771368,0.4266067159,0.6332891427,-2.553751193,2.0227932916,-0.698537728,0.8626228078,0.304559217,-1.2471717961,1.6157982634,0.6438688921,-0.0936883654,2.1104346597,-0.2068692101,0.6646616744,-0.4386970812,-1.1246825024,-0.8092228604,2.2595694565,-2.8895125304,-0.7305794529,0.3440803678,1.2314992319,1.337623819,4.4003136965,0.2432491133,1.7678998315,-0.8717646835,0.5664567728,0.3398941742,0.2552534502,-1.5284489328,-1.0733620263,-0.99287845,-0.1982257163,0.505202526,-0.0976274127,1.0201127289,-1.9543040251,-0.0774177069,-1.8224621798,-0.5722124745,-0.7891543025,-1.9094338754,-3.1877782047,-0.6152144741,-0.443200734,-0.8188161051,-0.5508970507,-0.0274257627,0.3820396907,0.199188433,2.1220339986,0.6387840246,1.5288427843,0.45743898,0.2322687647,-0.4109231402,0.0594374244,1.7796354597,1.2273219347,-0.3400865851,-1.0449273429,1.8723190862,0.6479409904,0.5051995386,-0.636376286,1.6802903521,-0.7200248248,-0.4751571963,0.6916135448,0.5724796379,0.1018309034,-0.187053259,0.8590284104,0.0609398616,-2.5937687736,-0.6036660305,0.7935510084,1.3357323427,0.243231947,0.3796100046,-0.4267643948,-0.9003358415,-0.5558838664,-3.072636118,1.5673186242,-1.0150763565,1.720566667,-0.4454151378,0.5907225269,0.2039107231,0.3345272323,-0.2883265143,0.1243533555,-0.2428949044,-1.3517731325,-0.9147872036,-1.6012097862,0.9637218697,0.2949350048,-0.0154104291,-0.5192160583,0.8619762004,-1.0640322929,-1.6026650863,0.5491065587,1.4179576731,0.2263368946,-0.3328092773,1.1204852389,0.2761290543,1.4809992406,0.7794639797,-1.4430949094,2.4177251331,0.5579304122,-1.1961963856,1.4832372333,1.1528609223,1.2428077798,-0.5902818383,0.8758166668,-1.6832115002,0.3258061145,1.0904927075,0.9110429636,0.1564660852,-0.4691229465,0.4744927064,-2.0977096249,0.3418671499,-0.5045129438,-0.7087685785,-0.226062559,-2.5089235105,0.1877828746,-1.4226032573,1.674686239,-0.5163439935,0.5376725601,2.0283587669,0.0769797218,0.4191195976,-1.6847350577,0.7968086403,1.8238788456,0.0688945967,0.7256602639,-3.6788050209,2.3107554199,1.406449411,1.0401368028,0.6589950441,-0.1352238693,0.5012492303,1.5410552139,1.5845326458,0.3460295896,0.0424260567,-1.8597502444,-0.479053772,-1.5641326163,-1.4659118371,1.0101546214,1.1432334809,-0.3393898643,-2.0756260895,0.4457641433,0.0537740445,1.6279758001,1.2464769607,0.1943069367,2.0371332718,-0.7457436754,-0.4224441347,1.380887634,0.6511331517,-0.4002632196,-2.5681459252,-0.273509699,-0.3081299078,0.9372689315,1.7522119017,0.496550732,0.3340353874,0.7090797281,-1.3695347249,-0.4464858345,-0.2839102581,2.5493592115,-1.2891041679,0.2913307804,-0.4059527566,-1.7799073704,-0.3640395182,-1.2957957049,-2.2149258602,-0.0588398684,-1.0485565336,-1.4690243431,0.7930506817,3.0291451986,0.4058738351,-0.0783252645,0.3012406644,1.0684974025,-1.1547027386,-0.1033437974,0.3711798153,1.3014416909,-0.6149404116,-2.6068578134,0.2376243845,0.2758614851,0.4606722492,1.4200752884,-1.044119176,-1.0952717167,-1.5584299061,0.5216436452,-2.5900709456,-0.1236335113,0.2311423427,-1.6781856699,-2.1737839254,-1.159317034,-1.7676005467,-0.5947342883,-0.6361693027,0.131208708,-0.5150342355,0.4020593927,-0.4192675966,-0.8885960775,-2.8716031389,-1.0876691214,-0.4573254836,-1.0363186738,-0.7340384961,-1.1765548535,0.0321203739,3.4379537908,-1.8659664668,0.6289571264,-0.6136577381,0.5805154162,1.2556103732,1.6208944954,0.5014458732,-0.2612351639,2.4140299578,1.1681977942,1.3860861416,0.5089666258,1.6134295598,0.0764939549,-1.5003783635,-0.7949090744,-0.7746379114,0.0256770688,2.276547181,-0.505293628,-1.2121189856,-0.5441321016,0.2233087626,0.401811408,2.610322495,0.6122162762,-2.1723202893,-1.3694566062
   -0.7028580908,0.7912152638,-0.1639039218,-0.5104658946,1.0104210933,-0.5342997962,0.2408154406,1.2631797193,0.4478828216,-0.6166413826,1.4203742469,2.9750393856,1.353971608,-3.338604812,2.5059142868,0.7375033051,-0.7460074392,-1.2409162366,0.5788322632,-0.168066012,0.537183063,-2.6863249167,-0.3995376098,0.7555437333,0.3560337835,-0.3578342921,-1.4721207261,-1.6675511171,1.5260448293,-1.337132395,0.1019847676,0.0303177261,-3.1385496244,-0.83760763,0.8512761992,0.0990692361,1.4075295601,1.9041135501,0.6335038109,0.625766343,1.9504366217,-2.3774339749,1.0090101898,-0.4921892672,-0.3569454513,0.8432359636,-0.3359455203,0.9958885028,0.6457328682,-1.1633341444,-0.0746405088,1.3267957804,0.0091887877,0.2653112751,-2.5865763124,0.7118243987,-0.2870818772,2.3515413383,-0.0075253957,0.6619637928,1.2128169497,-0.4242728781,0.5272649256,-0.0447623184,-1.7550088612,1.2554119328,1.3608484175,2.3011121654,0.635130404,-3.0834052405,-0.2218791378,-1.2076136339,-1.4486595871,1.172789712,-2.765092279,-1.1211602658,1.2863029741,0.3953063728,0.5694466274,-0.8253878618,1.565279605,0.7202336243,-1.6589270294,-1.4202246566,-0.7593948016,1.0293027593,-1.4275653052,0.0924913584,-1.3640765324,-0.1525328555,-1.365154571,3.1191055034,0.9102620627,0.3710921996,-0.0821397238,-0.4808294221,0.9168233348,3.3991616683,0.1378897437,0.0605147747,-0.7901095228,2.2980064736,-1.3413602345,-1.6215791558,1.7238592675,2.0936688362,-1.9245872894,-1.0047588558,0.5926692967,-0.9642973841,-0.1175780229,-1.3148852231,1.6918080193,2.359136446,-2.0568382717,-0.0635117567,-1.8815563637,-0.9210557946,0.4147412419,2.1837260386,0.4845578131,-1.7083604291,1.3433412634,0.2231752447,-1.5211594647,1.8363519983,1.4817747724,-0.6207875463,-0.4325621676,1.1466981108,1.3374019716,1.5885400846,0.890583126,-2.0744786164,-0.9370808392,-1.2089871378,1.5033148673,1.0672728314,2.574846564,1.4780891701,1.7135158531,-1.2358200406,2.2312452792,2.3834243454,0.1526417031,1.2294262407,0.1715422983,0.4531343508,-0.9007896202,0.6502626475,2.5414808394,-0.5666077173,-0.3965577283,-0.114385937,1.71219043,1.2387501676,0.2989390889,-1.6972991975,-0.0621369218,-2.3330095173,0.8748979968,-0.3956370098,-1.1388664811,0.9947366827,-0.0047752548,2.1973543639,-1.0533439537,1.8347864574,-0.1779304348,1.6455087791,-2.9570950787,0.4303306884,-0.8589132188,1.3973258541,0.7797917138,0.5148796412,0.1508505629,-1.1787682984,1.0956209279,1.9589509972,-0.3542494294,0.147302249,0.1289460009,-1.439376651,0.6188184507,1.0704024403,2.4587124335,1.1922408906,-1.26511716,-1.533045791,1.7422228739,-1.8161630596,-0.3596800702,-1.2611580663,0.506681737,-0.4129275707,0.6037441612,-2.0943599623,0.8272708783,0.901050847,-1.101771257,-1.4939499064,1.1682650545,-0.0754023466,0.1472390785,-0.3841200562,-0.7442168206,-0.3872932984,0.1908133422,-0.6954497747,1.3213704881,-2.4593538099,0.329054695,-0.5053709646,0.1233470886,-0.0589290288,-0.0054022645,1.3507370452,0.530941357,1.4924442053,-1.4579388705,-1.5556785527,-1.1932621673,1.3622849891,1.6325401029,1.0844275587,0.7522158744,-0.492754779,-0.6260104647,-2.937816233,1.5654449818,1.3826417939,-0.7407668202,-0.0587559591,-1.4150995832,1.3576339449,2.2998682572,1.1291262838,-0.3371507997,-0.6494774009,2.0173049663,0.1376362173,0.3675086616,-0.020575645,2.1601289932,-0.7569287693,1.1384089664,0.6545881982,-0.9839076229,-0.4850719002,-0.6602794808,-0.3889305486,0.4274549692,0.6304468855,3.8018082171,0.6738675673,1.2777503627,1.0791915483,-1.1010333377,0.5544596523,-1.6399379312,0.303712332,0.6491297562,-1.2862463096,1.7226598335,-3.0428384066,-2.8678282517,-0.2635888739,-0.533892037,-0.3728970184,-0.0488025961,0.2660616584,0.9115857941,-0.2485950024,-0.0700276428,-0.7273508625,-1.5241667676,0.6806678881,-1.1542559621,-2.3434284763,-2.485468195,-1.251189514,0.9034291877,0.0777340029,0.7980713849,-0.7201509601,2.5390937954,0.9669088632,-0.250453519,-1.30761291,0.9621173144,1.6224964224,-1.2111718333,0.6392503592,2.1661069471,0.7046293461,-0.9609245233,-1.8515574815,-0.2463506406,-1.2713997723,-3.1193784779,1.184652246,0.6349054781,-1.1852715522,-1.4154570306,1.3030339503,-0.1027748648,1.6798368665,-0.5844307031,2.3968741007,-1.1557378357,-1.6550790043,0.3883384667,1.5886777273,-0.7416647813,1.498240489,0.4583817342,-1.5439121711,-0.6754955884,-1.0177605017,-0.8818448093,0.3808480175,1.0395287756,-0.2035491429,-0.788314235,-0.3390438405,-0.7492406673,0.6772197088,0.8971228332,1.9448046008,0.2668112708,-0.1427867004,-0.0119043307,1.3854421767,0.8306728662,-1.3078376939,1.2321030415,-1.89057489,0.0840509685,0.5036147244,-2.3761915064,-0.6298759187,-1.4065485749,-0.2970157257,0.4893356133,1.1137393292,-1.053910685,-0.1066966369,-1.5840871891,0.867966901,-1.1830276061,0.9630146654,0.8150194046,0.5322345139,1.5638637969,-0.1326688342,0.1781612905,0.9929996474,-1.3503925416,-0.5065883167,-3.3155954697,0.0577503152,-2.1191837426,-1.2077051028,-1.7529904985,-0.8563184372,0.584346702,-2.6902192169,-0.5966374623,-0.8587635862,1.8870406948,-0.1462978535,1.235464214,-0.311408744,0.8454495204,1.0985771457,-0.3919612495,-0.0386073553,-0.915335784,-0.7120694356,2.5480837781,-0.0349126608,-0.07162742,-0.6601490096,-1.0813909128,-0.6332764394,-1.1190089727,0.1309880672,1.1303376091,-0.8022925413,2.4223560749,-0.111674798,1.7761273147,0.5057113684,0.8628212948,-0.7789895124,0.3903777142,0.6924983987,-0.3211956749,-0.7807219896,-1.0942870714,-1.6222844758,1.4182690072,-1.0660754554,-0.3712402587,-0.5257501374,-0.8389473005,-0.4748273427,0.9891064369,-1.1079996785,-0.2209417469,-3.2516506846,0.5482608529,0.2462044085,-0.7674503258,1.0587200706,-0.2830506788,0.6116989913,0.3288517232,-1.0889634798,2.1198484064,1.1137531123,-1.8545519738,-1.1776485454,0.5814386459,-1.5594047839,1.0250656622,-0.2471820844,1.9656009364,-1.8373671542,0.173364323,-0.8839160941,0.4960566987,-0.2411207748,1.1219329709,1.5469982975,0.4046342126,1.0315438914,-0.5906036414,0.1846513082,-1.4235287679,-2.1884942004,1.1752700881,0.2778296895,-1.1613821811,1.2307816829,-1.0665772026,1.0140667969,-1.3083320542,-3.4171113335,0.2996112494,-1.3503926365,-0.5073432227,-2.3295918038,1.3603085913,1.4238971984,-0.9586033614,1.7326844256,2.1393511964,1.336119426,-0.8170803714,1.3816354098,-1.2931086167,0.2087662316,-0.8536129844,-2.3599355941,-0.5337189706,-0.4665519732,-0.2826676403,0.5002078316,1.329765483,-0.3819802002,-0.6564657474,-0.3538656799,0.6554630242,0.6369533706,0.3587435075,-0.1246742768,1.1498161374,0.2266307402,-2.308662892,-1.2271612913,-2.0742095116,0.4476782867,0.237780319,-2.0159991863,0.3469721451,-1.1282562527,-0.3511786078,0.0951260058,0.9604809191,-0.5554626036,-1.0572871604,0.0988903733,-0.6152274639,-1.3360004875,-0.8529390733,-0.935918393,-0.1792644065,-1.6149520504,-0.2462801283,1.0405649106,-1.8959076145,-2.2350058552,-2.1551198823,0.3029872574,1.2055454995,1.9804914807,-0.3247958425,-1.3861415751,0.2649024603,0.9944132682,-2.4795935065,-1.3828871632,-1.821031041,1.4772079618,1.9827370746,-0.6551678217,-0.5712454107,0.1133676372,0.5010763093,-0.712342677,0.9779115429,-2.3925562363,0.6957752301,-1.0722565795,0.7462166707,2.5336138264,-0.7398585254,0.6658429239,1.4063900103,0.5614311802,-0.5456878892,-0.4661242127,-1.5404337501,0.6262089468,1.8062773987,1.6691910591,-0.4523857118,-2.4242610381,0.1581983837,1.5682749388,0.6925235169,-0.3213513366,-0.7311074959,0.98152516,0.5686117521,-0.0085068433,-0.3049892714,0.7043932683,0.6463292246,-2.2782569501,-0.4769486776,1.4915677068,-0.9882851947,-1.1832060392,-0.7465465617,0.8729729698,0.2882755316,0.3501934533,0.2726029578,1.1893230387,-0.2365085788,1.2609600104,0.2872691567,-0.1373793973,-0.3324548757,1.3081613513,-0.1356077083,-1.3438012314,0.428791845,0.944567003,-1.2029845909,0.1719606371,2.7572092103,0.5431175615,-1.3748819236,-0.4926538764,1.5042758509,0.0239006829,0.9304798746,0.9714193583,1.0365774797,0.2910645265,-0.1061503482,1.0747007987,-1.5535407218,1.1894522125,0.5714068455,-0.5440729016,0.5831729602,1.8379337958,0.8954153722,0.1361266816,0.0640535091,-1.439467922,0.7911125759,0.2689252894,-0.5101598068,1.311124643,2.0412008636,-0.2214280311,0.1183227431,-0.2853257741,3.5081005418,1.2104112853,0.0433796065,-0.0215666484,2.5755769652,-0.3744172522,0.7938510448,0.0834449369,1.0340261101,0.301715836,1.3760768537,-0.6582108239,-0.7293688487,-1.3810608101,-0.7114824119,0.8541382875,0.6809878083,-0.9009143454,1.8789239391,-1.2994608253,0.1117584646,0.5936374995,0.9458691439,0.8826104665,0.4220868497,0.0126442918,-0.8809859021,0.6607848772,1.1642608202,0.5022237259,0.6483398657,0.3270079206,2.2638056027,1.6097601482,-1.9107630172,-1.4860596335,0.701042414,3.2244530714,1.6117295422,-0.2892352676,0.19433637,-0.3305106884,0.2354378052,0.7061583397,-0.564060426,-0.2329174145,-1.8047623019,0.6195731718,-0.7342637786,1.344240201,1.2094843143,0.5865715003,-0.3868549017,-1.2265431269,0.3701642549,-1.0182776859,0.0320319098,-0.2153354846,-1.0192518631,-0.4147874191,0.5535975467,-0.364778933,-0.0743522377,1.7182145576,-1.7929271273,-0.0685997412,2.3947567293,-2.7640975872,0.9019624259,-0.5861317323,0.4246886188,-0.962534102,1.9007710086,1.647230294,1.2786000377,1.6172580909,-1.2154751142,0.3668135289,-0.8745567307,-0.3121069061,0.9278179348,1.8793905393,-1.477508247,0.0264505199,-0.4537226813,0.0361207324,1.0422830674,-0.2924959988,-1.5065879042,0.4756742287,0.7541668277,0.1826701204,1.6885606615,1.6154971362,1.6829413031,0.5747990153,-1.2994572651,0.9262331457,-1.5425017948,-1.9481279292,1.6159225979,0.9211989958,-0.4825589203,-0.6686988891,-0.3905174153,0.5877441346,2.3417129664,0.6617141587,-1.0674410976,-0.2169355145,0.499330621,-1.0018384942,1.3344682619,0.1408177196,0.5070939197,2.773212634,0.4409747237,1.4285294987,-0.6735395755,-2.0291422673,0.824772908,-1.845049543,0.5776932484,1.6983928834,1.3222995786,-0.7132373526,-0.7659687285,1.3019460653,-2.4187017482,1.7310457676,1.7407397884,-0.6460857014,1.9771409905,1.4135033925,0.2463136497,1.1597165384,0.7754929793,-0.6238988433,0.4841966439,1.078253422,-1.3699137929,-1.2105760391,1.7627505598,1.0475456077,0.1294976495,-0.6939391331,-0.8562071015,1.611900549,-0.5237122405,-0.0720211624,-0.4633889925,1.1713649347,0.3446135803,1.0747449596,-0.7578092898,0.4717954091,0.2403252611,0.2113133708,-1.3103380415,0.609266463,0.6549945192,-1.2538482565,-1.5080111859,0.5560885129,1.320350314,0.0014910085,2.0724564004,0.1956330832,-0.8916649724,0.6553785069,2.3857188953,1.0919112171,-2.6435883942,-0.3143460176,-0.2849551242,-0.9919837343,0.0690593028,0.6269540535,-0.324916473,-2.5285720493,-1.4101312048,-0.705239785,1.339415725,-1.2935698218,-1.0690806735,-0.708006569,0.0736349862,1.9734352235,1.3325816343,-0.5858831417,0.5225660062,0.6842669,1.3737847249,0.7897818684,0.8275381278,0.6080820968,-2.7576078012,-0.6326560671,1.1295762771,0.2053104933,0.6971999496,-1.4860352326,0.9978682838,0.4008895289,0.4575415206,0.0265685029,-0.2020533074,-0.9371669633,-0.1509822845,0.6546032217,-0.9422115311,-1.4186052606,1.853318018,0.5244597236,1.4299553311,-1.3865329691,0.9217456339,1.2693630421,-0.777539359,-0.4106650132,1.4692090724,0.4181482294,0.5667153776,-0.7776345037,-0.0333467141,0.7838425361,1.0634433738,-2.2448829679,-0.9185568893,0.7724578694,-1.0349555656,0.3288936773,-1.0417732154,0.0189718547,-1.0239048192,-0.5477092316,-1.3886496287,0.3779468732,-1.5565121067,-1.6070779968,0.1437138039,-0.1748051122,-0.4236084662,0.3267917378,0.6697922572,-0.6494015209,-2.3465296883,1.5643429845,-1.4904671669,-0.3143058039,-0.3562612085,-1.1915591589,1.1432538261,1.983884618,2.2433698271,-1.308304807,2.0466125681,2.1709051889,0.8676636788,-0.5377013171,1.3385469028,-0.3781083415,2.0746881804,-0.5474644639,-1.5446199902,0.0314100142,-1.6078010355,-0.6995940081,-0.9471973983,0.8881609076,1.0462578782,1.1085465263,-1.0068979305,0.1630586689,0.84352633,-0.9438333992,0.7653896229,-1.0287215132,-1.0971549406,0.9424007337,-1.13342947,-0.7747312783,-1.8001033109,-1.3745667494,0.3672301457,-2.093946927,-2.3388634503,-0.1817741814,-0.4561034146,2.5087353909,1.1399104021,-0.2288961818,-0.0481033933,0.5789128863,-0.5489199627,1.4395234766,1.9124145583,1.1865675605,0.0312619302,-1.2195928594,-0.1436955144,0.983668421,-1.0474784107,-0.7916374306,-0.5272865181,3.5518269819,0.4057296669,-2.156130437,0.0124964412,-0.3354411395,-1.1611957022,1.7673889689,-1.9989277527,-1.0120166086,1.7540979438,2.9749231969,1.6398321644,0.5726908128,-0.3255177602,-0.6505167136,0.9933061821,-0.4035074261,0.7527555535,-0.334670302,1.3399740013,0.1797361795,-1.0130232602,-0.1092822679,1.8548814494,-0.5312220088,-0.1673491014,0.2723306447,-0.8042654953,-0.6963403734,-2.1184125353,-0.9540033228,-0.2543866885,-0.0206666976,-1.3075151003,0.9923207501,0.2511301642,-0.3003205625,0.0258556126,0.4027098206,-0.4121840458,-0.7853672266,1.2007888627,0.5091385276,1.3419244147,-0.5134255919,-0.0923276516,0.334071185,-1.3291881243,-1.3701119482,-0.6984023196,1.8844461919,-1.1212807811,1.4708459862,-0.9241477588,0.8181455388,0.3198472706,-2.2739781544,-1.403220051,0.1187744914,0.3859346853,0.234887408,2.3251844951,-0.2155531848,0.9769101136,1.5272206317,-1.0150556172,-0.5731404387,-0.4302017152,0.5834321208,0.7145694542,0.1280193997,0.8543303061,-0.0385439226,0.140066731,0.9268376685,0.576804796,-0.9823439786,1.5310608008,-0.2506171013,-0.5832674128,-0.5021871537,0.4273241126,1.1186489886,-0.4066729415,0.5046949438,0.2754742907,0.3682960746,1.5244331946,0.0349918033,3.0241917826,2.2265602722,1.5017954579,-1.904119417,1.6466353808,0.0367908775,1.1317533647,1.4155422084,2.4330016747,0.0997989077,0.8041746841,-2.9640442253,-1.8912481524,-2.2584889935,1.2925226065,0.695376199,-0.5709537089,1.8365543349,-1.8816869508,1.7636657404,0.6788084452,0.7161679593,-1.9120208466,-1.8710414315,-1.5045349171,-0.9831195358,-2.2223562184,0.7232967011,0.1336105707,0.0971765276,-1.1893646469,0.4334160089,-2.5330841206,-1.1785450172,-1.8232635457,-1.8095213264,1.0816398397,1.0255193813,-0.5169485623,-1.2568800969,-1.2599359015,-2.207190133,-0.0230561361,-1.6392962593,0.058949145,-1.091212502,-0.8918854357,1.5355475547,2.2551992711,-1.293925529,-0.7623336128,-0.8456511209,-0.5079804665,0.3509442566,1.7411377348,0.7520568128,-0.7836731806,1.7205993072,-0.0048259843,1.6745218158,-1.9109164638,-1.6006252426,0.0482963503,0.844878357,0.3314893624,1.1620171991,-2.0307089535,0.8632428297,-0.1550297003,0.8275786057,-2.2055923994,-1.8446315274,0.0183088392,-1.2733792334,-0.3779569916,-1.4562980284,2.0615860171,-1.1464616533,-1.6133126503,0.0908460795,-0.1776758032,-0.3000915353,-1.2982972492,1.4163516765,-0.8273621811,-0.5864220902,0.3632412192,-0.0442020939,0.5853779292,-1.8140082394,-0.0380439208,-0.4178005569,1.0143720894,-1.2044819774,-1.1075710119,0.439695954,-1.4666186868,0.4138633442,1.0438279849,1.1482922068,1.4411185524,-0.5347495745,0.6957670459,-0.7604203636,0.6566741336,-2.8770029047,2.5957052648,1.3636092771,1.4617040976,-0.264382473,-0.3088758108,-1.266682771,-0.3547488519,-1.3921091883,2.8054869016,0.5936034323,0.5507182496,1.0825715319,-1.9104161794,0.7458586981,-2.382976437,-0.7724147561,-0.8947492506,-0.2822482589,1.9018503798,-0.8016730827,0.153194012,1.1975557733,0.5296717255,1.1688430016,0.9627621453,0.5168205051,1.3646523736,-1.0310527729,-0.218228485,3.1538298444,0.8273262708,0.333851663,-2.2303239763,0.675536762,-0.5515288445,0.8227836477,-1.2352228818,0.1367524577,-1.5283540032,0.1719092089,0.4987818299,1.0655512913,0.7479607511,-0.4136218672,-0.4443744257,0.3989475226,2.9293332678,-0.844199863,0.0399533267,-1.7728034238,-1.8127687242,0.5142745472,-0.6698746462,2.8291291097,-1.6464662169,-1.556727914,4.5537017755,0.9371132151,2.1864376779,-0.9554199068,0.1655597704,-0.812666858,1.2933313528,1.0948343961,0.6588915052,-0.0013197199,-0.6184768801,-0.3462141732,-0.7077259607,-2.3609674673,0.3669266438,0.4609111046,-2.9686940404,0.5507146371,0.2210009462,-0.9242326275,-0.43113551,-1.7319556583,1.6212573373,1.1460352073,-0.3476089208,0.5885493889,-2.2304054887,1.4680486838,0.3065415574,-1.6305772102,-0.3233368904,0.2464879299,-0.9536752234,2.3320935367,0.0654580984,-1.0993894942,2.9852452115,-2.0064811009,0.2709645969,2.5422806264,-1.4718855529,1.870320855,-0.4158391478,0.00257343,0.4114210996,0.0879193855,-1.406033335,0.9829640815,0.2065475925,-0.5520859218,-1.6146244905,0.4633283632,0.8675877106,2.1527264301,-0.1310852531,-1.3332056125,-1.3856188078,-2.731303797,1.8335129894,0.8307529456,0.0650825797,-0.9173679869,-0.9185600969,1.0072373788,-1.5678666661,-1.7632214664,-1.1320619696,1.1871930468,-0.1118647866,0.4548709165,0.9241791518,0.5681066742,0.131423848,-0.4025450487,0.12344663,-0.2994075369,-0.5422736208,-0.1158596352,-1.0835715585,0.0313946208,-1.0509862241,-0.5647926049,1.3347158775,-0.1629233923,-0.7989174863,1.9600040586,0.4966792532,0.483416824,-1.7704801652,0.1320639202,0.3317208973,1.3235155096,0.6647311292,2.2996663779,1.2404889479,0.7552210209,-2.0840402716,-1.1167713995,0.8736645782,-0.3282994234,-1.609505793,-1.5735931385,1.8281948769,0.3686657569,-0.9677249146,2.1121883517,-0.0745527963,0.2252578368,-0.759659214,0.2230998835,1.6124232598,1.4718637809,0.9559820991,-0.1811243946,1.8621407419,0.2266342687,1.6233286907,-1.3368133079,0.8801481857,-0.0951480756,-0.3498329855,1.2980318158,-0.7809757659,0.2496192531,-0.7619781008,-0.1794388473,0.5698099865,0.408126926,1.1121620432,1.4939454859,-0.7768581438,0.0931890009,0.0622874565,-0.3344647209,-0.1432597447,-1.0597724233,1.2167315562,-0.5110206616,-0.7789582095,2.4374119362,-1.9637848671,-0.1201947258,0.06956341,0.6574340327,-0.4634919722,-0.064958716,-1.9423046294,-0.2040335681,-1.2441355788,2.0418210262,-0.1670341852,0.9863510582,-0.9788367019,0.0234580931,-0.120574974,-0.5274281072,0.1386620014,0.0787302906,0.853797421,-1.3273909297,2.0256682889,0.6949252086,0.52991688,1.4469486834,0.7203854943,1.0243494276,2.550444141,0.6650534232,-2.5835864312,1.1019453204,-1.5032782585,-0.256152677,-0.6532317376,-0.418779281,-1.0990779188,0.5572388817,1.2696182179,-1.5826656502,2.1932869943,-2.1361384609,-0.560351359,2.3297504662,-2.8531444647,-0.0118899274,-0.2496279474,-1.0611426526,2.1025519611,-0.3644843191,-0.6646073935,-1.7486385727,0.7086575369,-1.7832366513,0.1956430727,-0.8081476228,-0.1516998358,-1.3808137496,0.9911858497,-2.3097784611,-1.1712349365,-0.0908812413,0.9221632812,-1.4671835351,1.5191524951,0.4082750116,-0.8375378467,-1.7063456687,-1.6491586723,-0.9933343501,2.9343465182,1.193081021,0.394985691,-1.3370885416,3.5401274873,-0.1764216535,-0.7759972152,-0.9055191902,-1.1874590589,-0.6246531846,0.449348687,-1.633330108,-0.0595695019,-0.6973108894,-0.3523122739,-0.3206909375,0.7750225863,-0.2746122977,-1.3662095009,-0.5367997695,0.7642414146,0.0980939399,0.319253205,-0.1693216901,-0.4356073267,-1.8499484106,-1.2835510981,1.2291529226,-0.4077771821,-0.3105352996,0.4438575189,3.9373579882,1.1237587489,1.4317074725,1.6366148064,0.2575688458,-2.1532312672,0.2091160002,-1.1577457457,-0.032100635,1.5986241213,-1.0932667988,0.4911723037,-1.0050809169,2.9547048268,-1.7521286362,0.0651096663,0.2507093048,1.4023570535,0.5787090878,0.6120605334,-1.4445770777,-0.6967151248,1.3423706957,3.9810897756,0.1315943918,0.6007063592,0.76341198,-0.2606048585,1.2269740447,0.9265231337,-0.3916785492,-0.7063798057,-0.6210173388,1.0478953357,-0.1581159115,-3.6548762253,0.4867043252,-0.5818593347,-0.2625815778,-2.8189930945,-0.821774877,0.0219572813,-1.7376206451,-1.4213038507,-0.6331108728,-1.4204790764,-0.5546515255,0.1867172484,-0.2101493464,-1.1991397354,0.2943268481,4.0393362184,-0.8448357395,-0.0217695003,-2.0790491754,-0.6323334598,-1.4735747223,2.31484502,-2.0176684687,0.6830140609,0.2390300464,-2.9292860717,-1.4194713891,1.0887051727,-1.3878088338,0.0947670088,1.3953597323,-1.0240045567,2.0279440373,1.2530889763,1.0068956185,0.0298142114,-0.4697871215,1.1929991317,1.4763033521,0.3780147428,1.2930950808,0.2870390785,0.4787075361,1.3788684855,-0.0102463318,1.6793334634,1.7347221309,-0.4665713441,-0.2988481062,-0.7933974966,-1.7220208048,-0.9531349463,0.9462165432,0.4431521129,0.026969237,-1.6063815464,-0.5560027097,0.6444571998,0.7989161028,0.0889926262,0.0171340224,-1.6999995113,1.8769510814,-1.1524876416,-2.0017762821,-1.0826560114,-1.1302553099,1.2998657585,0.6644097304,-0.9061703966,0.1659726692,-0.7223106914,1.2402010869,0.0089133426,0.7412020205,-0.0542487155,-1.261764763,1.032328896,0.8816042818,-0.1950808962,-2.0441654452,0.6673975167,0.006379884,0.4827405671,-1.2390794975,-0.1322039521,-0.7170374396,-1.0749980683,2.0847478214,0.2722350588,0.7095474221,-0.5454010659,-3.5014967121,0.0491314594,0.3354022792,-1.3618158209,1.4343970493,-2.4703735854,0.4047523772,0.935280125,-1.1270067647,-1.2492694967,0.5205775441,-0.7391222585,1.3076255738,0.6110568267,-0.0531480864,0.9872512707,-0.5614797592,-1.1423734735,-1.7989549412,0.4711233619,2.5687369022,0.3932393259,0.416781319,-0.9676880852,-0.463851242,0.3520982702,-0.1457019902,-0.1820160678,-1.527103323,0.8609835104,-0.0989382176,-0.7430033691,-1.0229145316,-0.435369908,-0.7676499408,-0.9314600283,1.7513919588,-0.2418815854,0.0608310915,2.4687810193,-1.8416016723,0.2316266063,-0.0368719339,0.3434684909,1.8669516622,0.3264447941,1.1939504229,0.2462753748,-1.4284168304,1.459636078,0.2193633718,1.4736976208,0.8207367586,0.8682774334,-0.0999751357,0.3327085238,1.6654253194,2.2232434008,-1.148401978,1.0171704658,-1.5928839671,0.3252042299,-0.5562648738,0.7137876283,-2.3445140056,1.3046013175,0.2475185298,-0.0474557111,-0.4589679455,-0.9877895625,-2.0617889567,1.159640458,0.9362780318,1.0110298523,-2.1463048622,0.3023289454,0.9996181351,1.7185515662,-1.4947017793,-0.4226648918,0.3842411663,-0.3841246779,1.4031238475,1.0125267935,-0.5234149415,-1.1528195049,-0.5886199089,-2.4644865013,-0.9189477708,-1.4423843028,-0.5611861951,0.6019351328,-0.8231199398,-1.021994424,-0.3268361649,-0.7563150542,-0.4734224367,-0.1421194528,-1.5231384618,0.7416343949,-0.3441689216,-0.3495079684,-0.2196834648,0.7752910724,2.0727072712,0.1465903617,0.8596703111,-0.8939407483,1.6372939213,0.1905428226,1.5239751296,-2.7349781627,-0.7617276469,-2.3218493743,1.1556551951,1.1589673751,-1.7846761384,-0.7099989971,-1.8077997379,-1.8905483243,-0.9751694045,2.1462278446,-1.1711203237,-0.6258266935,-1.954709599,-1.0570611674,0.9087557148,2.0981852172,-0.3949256995,-1.5433333685,2.0267729155,0.639470238,0.2920405382,2.2462582503,1.9224736198,1.7090002369,0.2638972952,-0.7910856348,0.0455810345,1.2169570721,-2.7800241769,0.2790744351,-0.6572059993,-0.3453172768,0.3639653775,1.1771252451,-1.1776767235,-0.0357765261,1.142001423,2.3954639582,-0.7531339446,-0.0497064285,-1.047042307,0.5420362391,0.3727059042,-0.112345394,-0.3215483337,-1.9445642562,0.6922179157,3.3660438044,-1.478989925,0.9627172959,-0.4777310825,-1.0732076285,3.0536425824,-0.3656306933,-1.1402852634,0.3755280325,-0.7431243041,0.85172046,-1.9902056095,-1.4807659659,-0.8789610931,0.1288215137,-3.18237809,1.524080564,0.985810023,1.7817960923,-1.6964096493,0.2483261035,0.5911215274,-0.9740440584,0.5538348487,-1.295854054,-0.6343993915,-1.2508925316,-0.4503655747,0.3355555695,1.1555934217,0.7723805125,0.7581933958,-0.3238760151,-0.3866209973,0.4908661437,-0.4883774829,0.4486183856,-0.1804055443,-0.0904231071,0.5671754514,0.4361141857,-0.1825811495,-0.4976830537,-0.363925325,0.686014237,-0.1212985008,1.5444220557,-0.1238180167,-2.0096898455,1.0924263431,1.207906673,-1.1094023945,-0.0597461855,-0.1244594127,3.0689421816,-1.1852786897,-1.6175492518,2.3143690847,0.777545948,-0.3040330235,1.9052419619,-1.5236953248,-1.4355250964,-0.3210613622,-0.7843372568,0.049705534,1.5173057011,-1.3243858699,-0.432263651,0.9693263829,-0.1208519115,-0.6808633337,-2.1649430787,-0.1365994144,-1.9379563198,-0.3083763883,-0.7102955342,-2.8729050551,0.998017652,-0.7388182994,-0.138588225,-2.3839491863,-0.9936155696,0.5578282595,-1.4952110634,0.6240510396,0.6800582981,0.4450656899,0.5958207721,0.4259917628,0.9856591966,-0.6943459216,-0.9088735309,-1.1430642768,1.7519833831,0.9344081631,-2.3812203587,0.6249124682,0.8334053423,2.6778426828,0.2806353927,-1.5090632118,1.8378824598,-0.2240180874,-1.6754459609,-0.123257018,-1.918368624,-2.6930057073,-1.0713525574,-0.8285425634,1.3165369197,-0.7188979927,0.4799348564,-1.4911561485,-1.1432498159,0.8151325493,3.8896346552,1.1539454748,0.6703669079,-0.8643651912,0.4549872034,-0.3459268925,1.8908852174,-0.3077022089,1.0625149652,-2.0869911279,-2.3418850912,0.3274431493,-0.7247742048,1.9081213707,-0.295346346,2.2741104438,-1.0603433217,0.1698166965,-0.8742190237,0.3558871072,-0.412777254,0.6229528674,0.6241321876,1.3594712482,-2.4334654026,-0.8506437077,-0.1310551542,-1.3419663467,-0.7739677425,-2.0739176091,-0.2367441693,-1.3094292185,0.492839549,0.5251610479,-0.5596502976,-0.8290049632,-0.9941413216,-0.6566374186,-1.0232607275,1.8423658018,-0.2980056285,-0.3146522754,1.7818715323,0.6080206231,0.952442636,2.2229193306,0.8327937889,1.2404416762,1.8253486644,-1.6111580467,-1.5700952959,-0.4854107728,2.2329547882,-0.1897238951,1.5522064881,0.7357272212,1.377337962,0.7372094561,0.1265341521,-3.4720194432,0.07493474,-0.0374769868,3.267993884,-1.2506194391,-0.0678352938,0.5914010012,0.5497069167,-2.2550234807,2.9377804329,2.9809194285,-1.8789982899,0.7266601772,-1.756592447,0.7642162474,-0.3222018793,-1.6414013063,-1.8262619528,-0.3111371847,0.1029478335,1.4730668216,0.210539508,0.4842020815,-0.3090164801,-1.5596382941,0.0068856196,-1.6978848924,-1.164844309,0.3170467838,-1.7557637271,-0.6337881647,1.8616838257,1.5670621896,-1.8618916001,1.1033616672,-0.4362839014,-2.8051217832,0.3210334842,-1.2475526461,-2.1417050067,-1.2311027545,-1.046390932,-1.5127785976,2.5147529393,-1.9863577926,-0.9193613122,-2.342536036,-0.0065718604,1.0472816019,-1.1273822643,0.6468742547,-0.3075627633,1.1214206054,1.8655553762,-0.7258557123,0.0814384989,-1.9313853518,1.0910687908,-0.0238943008,1.2355750512,-0.1053790392,-0.0942868839,1.9683322588,1.3006608644,-1.2333640898,0.0941208936,-1.4954783505,1.9886913414,-0.3560811931,-0.0747404966,0.943853882,-1.804781287,-0.7519036391,-0.3091953365,-1.2737232663,-1.966512081,0.0497117423,-1.7846109777,-0.4390390537,0.6503450921,0.3411505822,-1.2114814947,0.5991290953,1.6737732637,2.9091792705,-0.8675890811,0.4024319911,2.1942891349,-1.7439963968,-1.3837383061,-1.2221457514,-0.9256009191,0.7349158283,0.3732221275,0.8137180857,1.6946695499,-0.2658331326,-0.382988554,-0.7027711884,1.6582375562,-0.3399376213,-0.8986102047,-2.2690504066,0.4461318617,-0.5962166728,0.1208812692,2.057558965,-0.0242147435,0.3826895781,-0.5853090709,0.0109067372,-0.3250778293,0.3606029625,-0.0060929268,-1.1632075405,-1.1765822522,1.3208338408,-0.0930493883,1.0632238134,1.4448541117,2.3196189036,0.6438011742,0.7777935696,1.7132450446,1.7575096086,-0.861799551,1.1893848628,-0.4306263064,-0.3021938852,-0.1372975647,-1.7631592515,1.7456254646,0.8617734784,2.3944428067,0.3421325795,0.2916874467,-0.9238332174,-0.929520779,0.4120616104,-0.1192939074,1.9211561121,-2.0213196063,-1.1646317199,0.7519211004,-0.3545127112,-0.5635327309,0.2850782859,0.4437903771,1.5615367793,-0.8273528654,-1.4203899366,-0.5161794029,2.3989176184,-0.8342499719,-0.1602363814,-0.5628706915,-0.9524028987,1.0166963542,-0.309684123,0.1227805218,0.3031613972,-2.1941946728,3.6031123058,0.9009678452,-2.7713381736,-0.5634839902,-0.6420061028,-0.1165916826,-2.3536335804,0.298472822,0.0601754519,-1.1873523293,-1.8039906712,0.4477070288,0.6395901286,-0.5838385368,0.8173626698,-1.3269360793,2.2991880454,-2.01188293,-0.348256363,-1.8902859856,-1.5486881832,-0.3107111606,1.5319423,-2.1186509292,1.8719028776
