encog,BasicNetwork,java,3.3.0,1,1437646999943
[BASIC]
[BASIC:PARAMS]
[BASIC:NETWORK]
beginTraining=0
connectionLimit=0
contextTargetOffset=0,0,0,0
contextTargetSize=0,0,0,0
endTraining=3
hasContext=f
inputCount=243
layerCounts=1,21,41,244
layerFeedCounts=1,20,40,243
layerContextCount=0,0,0,0
layerIndex=0,1,22,63
output=0.3590390031,0.9893586155,0.9788383695,0.9982284767,0.9756229502,0.8589848772,0.9594548184,0.0000005222,0.0000785762,0.0203690343,0.1199906525,0.091890401,0.4636507366,0.0006084454,0.9994245734,0.5110896728,0.0068388875,0.1837248591,0.9998484174,0.0947559398,0.5074263964,1,0.9284719181,0.0888521162,0.9475487744,0.0889433094,0.9854200435,0.021595671,0.5859404608,0.0443431241,0.6102493454,0.2005710742,0.9373043074,0.0093014496,0.8416420228,0.3727806063,0.9726994474,0.0041210126,0.9936744325,0.9629605636,0.0302408884,0.0020437692,0.8394025319,0.1565517369,0.5274127856,0.002151283,0.1142752548,0.0023425017,0.2089304234,0.0232317185,0.3196764173,0.9899920635,0.001529608,0.9465802669,0.0330384412,0.0898127491,0.0315897824,0.0593824052,0.3086148679,0.1498804149,0.8723040214,0.739761923,1,0.1803921569,0.2509803922,0.2431372549,0.2117647059,0.1882352941,0.1490196078,0.1921568627,0.2235294118,0.2941176471,0.1647058824,0.1921568627,0.2274509804,0.1725490196,0.168627451,0.1607843137,0.1568627451,0.1725490196,0.3725490196,0.168627451,0.1647058824,0.2039215686,0.1803921569,0.1411764706,0.1333333333,0.1254901961,0.2117647059,0.4745098039,0.1764705882,0.1843137255,0.1882352941,0.2,0.1333333333,0.1137254902,0.1411764706,0.3254901961,0.6,0.1647058824,0.1764705882,0.1921568627,0.1843137255,0.1529411765,0.1294117647,0.1725490196,0.4078431373,0.6941176471,0.1647058824,0.1294117647,0.1960784314,0.1725490196,0.1764705882,0.1176470588,0.1803921569,0.4784313725,0.7607843137,0.2039215686,0.1176470588,0.1764705882,0.1764705882,0.1647058824,0.1137254902,0.2431372549,0.6,0.8078431373,0.2431372549,0.1490196078,0.137254902,0.168627451,0.1294117647,0.1450980392,0.3529411765,0.7137254902,0.7882352941,0.2039215686,0.1960784314,0.1058823529,0.0941176471,0.1647058824,0.231372549,0.3882352941,0.7176470588,0.7411764706,0,0,0,0,0,0,0,0,0,0,0,0,0,0,0,0,0,0,0,0,0,0,0,0,0,0,0,0,0,0,0,0,0,0,0,0,0,0,0,0,0,0,0,0,0,0,0,0,0,0,0,0,0,0,0,0,0,0,0,0,0,0,0,0,0,0,0,0,0,0,0,0,0,0,0,0,0,0,0,0,0,0,0,0,0,0,0,0,0,0,0,0,0,0,0,0,0,0,0,0,0,0,0,0,0,0,0,0,0,0,0,0,0,0,0,0,0,0,0,0,0,0,0,0,0,0,0,0,0,0,0,0,0,0,0,0,0,0,0,0,0,0,0,0,0,0,0,0,0,0,0,0,0,0,0,0,0,0,0,0,0,0,1
outputCount=1
weightIndex=0,21,841,10601
weights=##0
##double#10601
   0.0260247871,-0.9970349129,1.5366863439,0.765489124,-1.1985214473,-0.2908290072,0.3840408877,-1.0109474512,-1.138730835,1.7217561953,0.8224097656,-0.3731194845,-0.1329065724,-0.007720519,1.032203436,-0.8210436653,-1.2258872581,-0.1642568002,-2.8290147835,-2.7507244123,1.024126291,2.0152998285,0.3662535174,0.630339197,2.7124721493,2.4940536034,1.7366797323,0.0849445675,0.6631591805,0.8894381103,-1.8440657812,0.0144838805,-0.2032756253,0.5637882774,0.2212657985,0.2884416894,-0.5012812551,-2.3226988313,1.1390365818,-0.5252404715,-0.3462707609,-0.2802647339,-0.8180675266,-0.0316591155,0.4676762846,-1.8971730693,-0.2684122282,0.7061856835,1.3763049845,-1.6371481347,-0.0503934357,-1.5975176921,-2.4139626411,1.3566565257,-1.623755412,0.0257177195,-0.2692737493,1.3401468169,1.5837071307,1.7553332993,-0.5462460191,1.2969919142,-1.3179975446,0.9345440438,3.5218092077,-0.3016829748,0.225175915,0.059787579,-2.1605262558,-0.7244720535,-1.6353122412,2.5801622326,0.0331351332,-0.8045732031,1.036771896,0.2854339737,2.5131888094,1.7722312627,0.2336245779,-0.1974756332,-1.1588757739,0.0088202596,0.2896977416,-1.236690613,-0.2017792347,-0.4162061066,-0.1284242845,-0.4406109341,-1.2953421533,0.5480762622,0.6103045997,1.6609057917,0.8311053987,-0.1744681187,0.872710392,2.0640926788,2.4609966471,1.7952044455,-0.801972364,0.9216444237,-0.8251843688,-0.2749349447,-1.0572611362,1.7676614453,-0.6171018863,-0.8481961224,0.5641750418,-0.7810905983,1.1902244073,1.2120341134,0.3799903648,-0.5657635429,0.1867143253,1.3333776314,0.5178337946,0.6176030352,0.3385838752,1.5931927772,0.3439021916,0.8441679736,-1.6047239229,3.8131251219,1.9202065879,-1.9559033198,0.480926625,-1.5751409633,-0.2839668689,-1.5213517168,0.527261973,-1.8083923422,-0.8403222882,-1.4204435651,1.1013228857,0.3877200416,-0.4748183816,-1.5401809128,-1.4015685315,3.1659269025,-2.0294719789,0.4691239196,0.5863357804,2.6710996323,2.4723409252,1.364281154,2.3633857838,0.7378541417,1.6776084671,2.1872180232,0.2780236971,0.568359139,0.8649810737,0.7290726008,0.6492838117,1.2167930292,0.0943468499,-2.5970848447,1.6240663811,-0.9063076784,2.2829525633,0.5580118777,-1.4548442608,0.3721680231,0.350915736,0.2874359611,-1.1460130768,-0.8284846472,-0.6152442227,-1.0406938638,1.5896092983,0.8507874155,1.4563555817,1.0644901469,-0.4374300415,-2.0207973324,1.5540172998,0.510308765,-0.1036684551,-0.930331892,-1.1541162901,0.0260542541,-1.1224428416,0.656963507,1.3630487142,0.2650021331,-2.3806452199,-0.0832740056,-0.3288200994,-0.9675799502,0.5119019652,-0.1309023448,-0.5750318732,0.4752731964,2.1523453371,1.9748479207,-1.1314481969,-0.3104409783,1.8592793429,0.6045639506,2.2909540905,0.5518422811,-1.5545043726,-0.5614453611,2.2927734855,1.954876256,-1.2306294654,-2.1082807686,-1.3870378943,0.0943719377,-0.6220589229,-0.3302425719,0.4633467224,-0.8314582635,-1.7897609898,-0.928475752,-1.0532817951,0.0374097546,1.5814454141,0.7304683777,0.7665384448,1.4885823596,-0.009284008,-0.636382799,0.3963174055,0.3701554283,1.6351924703,-1.4736266699,-1.3075207224,-0.0747191005,-0.7866540234,0.4295227337,-0.2832638286,0.0554455778,-1.2731757305,-1.1341619997,2.3549053254,1.7344233923,-1.3202725727,2.8169814741,-1.2796578632,-0.0553619926,1.2633886702,0.7289804867,-1.1711349756,3.3795787076,-0.9155623373,1.5387111918,-2.4159163103,0.2908599449,-0.3924955442,-0.6288932198,-1.311851737,1.1033217331,0.4540920788,1.1919474386,0.7121702935,2.7367796552,-0.9035419236,0.0038247147,-0.1105225892,-1.286362647,1.2473808412,0.1984418635,1.6405556207,-0.7416103976,2.9015399663,-0.4326877338,0.0210941885,-1.8514582052,1.3173783478,-1.1368320453,1.1707353363,-1.5568273066,0.8879469571,-2.3600836081,-1.3412652463,-0.6189832276,-1.9101003767,-1.55247769,2.5729525523,1.4034837501,-0.769978041,-1.041977906,-1.1281546181,-0.9793063161,-1.6818416677,-0.3113871089,-1.0497766635,0.8987888456,-1.1672083219,-0.9419350436,1.4079415305,0.5480833802,1.4683025634,-0.7405866513,-0.8567368738,-0.4444109714,-0.8794143032,2.3346041609,-1.4964790452,1.5118886974,1.2501143178,-0.3232469322,-0.8311662847,-1.1200805126,-2.9142072267,0.3269846289,-0.8761571648,-0.6457653043,1.1688355523,-1.398463557,0.551765212,0.244387536,-2.5520176323,1.4810268084,-1.9371117454,-2.8517895847,1.7361269219,-0.6260046513,-0.8814386184,1.0234081717,1.8708985787,2.0419781267,-1.2119573835,-0.2281421032,-2.3768431885,1.1202493671,-0.5174205518,-0.5418304217,-0.9735359419,-1.2043398676,-0.0553878336,0.3669253438,-1.3834915468,0.7681906886,-1.1700215881,1.5822483686,-0.6202661562,-1.7900569834,1.1360724225,0.5391266489,-1.2656663498,-1.9961952273,-0.6366616246,1.9775198127,-0.9044021979,-0.439921279,-2.5984021867,-1.2966928855,-0.700178336,0.1066296276,1.1298909547,1.2342988919,-1.676752713,-1.7841583106,-0.536161464,0.1437187026,2.0434122959,0.1812051875,0.2380988209,-0.9992351942,1.6118906208,2.6622796023,-0.7700612019,-2.1057456251,-0.2365528919,0.8520834666,0.0097449879,-0.5334011548,-2.3321808501,-2.2744322995,0.9918030503,0.2306775275,-0.8531766185,-1.7265856014,-0.2444752705,-0.9495093835,0.2000215614,0.0677503975,-1.5761831845,-1.1971655356,-1.0315779419,-0.47017805,-1.8876223057,-0.3224127851,1.6986325044,0.4339716061,0.2532961611,-0.6058182418,-1.2791892423,2.2687025654,1.2835959339,-2.1433293158,-0.2271368735,0.0350531547,1.0080979448,0.0229738504,-1.1179757282,-0.8696137659,-0.8810386064,-1.5076009757,2.2726688556,-1.511417394,0.1052699574,-0.5797785995,-1.2906367305,-0.6952823833,1.1166693645,-0.5118376524,1.1256252879,1.1707821143,-1.1025374999,-0.4188230854,0.2194646057,-1.2779090287,0.235729831,1.168128873,0.2938022623,0.1672602699,-3.3632565486,1.3861318486,1.8870959311,-1.7352463081,0.8351916702,-0.0080593672,-1.2248458076,1.5114738239,1.9524989105,0.9444708029,-0.6984528443,0.8211488424,-2.4078783193,-0.7369527624,0.8399619423,1.1874979895,-1.0102852184,1.1099704857,0.1784730795,1.6075516391,-1.0770492312,1.51289297,-1.8480871548,0.6341109333,0.8266392271,-0.560447842,-0.8374389426,-0.1863022218,-1.254192774,0.3929174983,-1.0016511444,-1.0198403389,-1.782226403,-0.6488372252,0.9111807423,-1.960181312,1.2197017431,-1.2852486394,-0.1560259204,-1.1496959386,-1.2773912829,0.9244774471,-1.4164697141,1.2738193376,-1.2136686945,0.7147974045,-0.029073593,-0.4365591465,1.9171260254,-0.6440589654,1.9276021506,0.4273088748,-0.1516427782,-0.8133355309,-0.544491687,0.8961994097,-0.8033809757,0.4718482468,1.0105288923,1.166287899,-0.8323978106,-0.1294161986,1.5626661484,-0.1709716706,-1.4862142444,0.1177963055,-1.1170391913,-1.0869498538,0.2116104977,1.732311343,0.9842320445,-1.6296108661,2.3023200254,-1.2164539353,-0.131192064,-0.3338734613,-0.5540841383,-3.0131982182,-1.1136284533,2.2377719413,1.0329243248,0.088155274,0.645383299,0.3635894333,0.0282205965,1.2142384958,1.6111599911,1.4493027982,-2.6007201169,0.0204646327,-0.5289392121,1.6003784754,-0.1971342209,2.1628537887,-0.5636139787,-0.9309496793,-0.7198032959,1.8691367746,-0.9963274026,-1.877601899,-0.656291174,0.1261633719,0.3315246589,-1.8723798215,-2.0298999126,1.8852071121,0.1159027329,-1.4641488941,1.9636788847,-1.6681727281,0.6169884972,1.0237090318,0.3057582204,0.8922622244,-0.0753206875,-1.1656681914,-1.2080850734,-0.5472532743,2.1273381197,-2.0517840867,-0.7840106082,0.2888054213,-0.839321225,-0.8013965239,-0.1907978036,-0.8137567269,0.1219400905,0.5872657525,-0.8612079783,2.1989844999,0.6468189002,0.7704431578,1.9015619516,-1.2059656326,-1.6186664963,-2.1406834359,0.7849029696,-2.5077085464,-0.1837407347,-0.0323917225,2.8325464226,2.9586199035,-3.1106015901,1.6213562324,-0.8937236123,1.8026621567,-0.5081928766,-0.4317159276,0.4571970227,-1.1003741119,0.8162213277,1.7821714437,1.6959189359,-0.0771501314,-0.1814069056,-0.1069117015,0.5725308608,-1.2181704942,2.7231163535,-1.2013972617,0.9145432774,-2.6143803339,-0.5013308135,0.4236200478,2.0944352979,0.4043504013,-0.5641189921,2.4988348241,0.2613771989,-0.4225510186,-0.0517328289,-0.5183401438,2.1488689127,0.6365084315,-2.1316646555,-0.0567905693,0.2575547598,0.8443135218,0.6573732884,0.7710905713,0.1487807716,-0.0645962912,-2.2474204667,-1.0241046948,-0.2640115635,-1.6926406231,1.6263713521,-1.86446478,0.7545685169,-0.6770208277,0.972455567,0.5785723507,1.0436471215,-2.5574776916,2.619900945,0.0274098342,0.7784042391,-0.8158339235,-0.4470796218,0.3155435308,3.1298101626,-0.5147326996,3.4553756472,2.0685997996,0.6989969674,2.2913905656,0.5648410039,-0.0100735207,1.28244273,-0.5671686404,0.0957574577,1.2447761168,-1.5267363922,-0.0798495183,0.379379302,0.5566408588,-1.4519384031,-0.5811169226,-0.0391301208,1.4578835351,-0.1278632792,3.0900522733,-1.5513321053,1.9506166954,1.4217378821,-0.9187898502,-0.385956745,-2.0020362843,-1.27486416,-2.2647838612,-0.2156472325,0.9494413733,-1.0449019601,-1.8812862628,1.3388853355,0.1357634863,-1.668855478,-0.0264004888,-0.6711790038,-1.3430109832,-0.5110543281,-0.8841334494,-1.4428009254,-1.2911959104,-1.6298091662,0.0452418926,-1.3290202619,0.5885605731,0.4154730292,-0.0547128824,-1.9065182666,0.4956922339,0.364509638,0.5753380348,-1.229393155,1.9806509154,-1.9434669461,0.1120067513,-0.2131627452,1.1820727724,2.5523388747,-2.1530260875,0.3773113501,0.3513642286,-1.4722190681,-1.0887090773,-0.6165332401,-0.9031229359,1.2646964634,1.8853316216,-1.2473993437,-1.3209703295,2.623071001,-0.8234205869,-0.783367586,-2.5756460885,2.8454403999,-1.0541053512,-0.50789509,1.1195802984,-1.3461306243,-1.2831204616,-1.7354169338,1.354512087,2.9526195692,-0.9108184586,-0.3739842546,-0.8482693871,0.9313164633,0.4644561814,-1.0510044798,0.9629658982,2.5057122947,0.017322487,0.2833925867,1.1199712649,-0.8530512849,0.1839924202,-1.0651973109,-0.7199085812,-0.0381998883,0.1727388257,0.7227506004,-0.8748533541,0.3089337968,2.4373230687,-1.2562417647,0.9972179919,1.9677984881,-2.0905503234,-1.4576597203,-0.5626336479,-0.3366972755,2.3649015139,0.5512941837,-1.5293596783,-1.6587236868,2.054231009,-1.4374154388,-0.5747752639,-0.32547975,1.186734918,-0.4874351556,0.0765291026,-0.2141196127,-0.9511168366,-0.4384602732,1.3919586036,1.9629731453,0.7815008741,3.7652225225,2.2134789204,1.0292330984,1.7475996257,0.0291546285,-0.8417686889,0.0790708308,1.275154641,1.9904324007,1.3617320343,1.5898084245,-0.2252460634,1.2967170365,0.4865003617,-0.7676223479,-0.4240501434,0.0657034808,0.0942527576,1.7252855627,1.4298190157,-2.0417713796,1.428445667,-0.7863477138,0.2776048177,-0.2557054977,-1.315876996,-1.6542428905,-3.3897440003,0.7138918344,0.2480134928,-2.5446753867,-1.449615754,-0.1628867752,-1.0051337494,0.4517503352,-1.88770893,-1.3554417221,2.7076204325,2.2477019197,0.5302231961,-0.2324726347,-0.0183195853,-0.401815471,-0.7165284759,1.5843763074,-0.5565576458,-0.1881748182,-1.0042543403,0.643991648,-0.5851656906,0.3375100598,2.0586948666,0.220656285,-0.5788410896,0.2919351533,1.8117446983,0.2617991481,-1.1116096042,-0.5841338715,0.362998021,1.6046941195,0.7583731564,-1.7396405893,-1.1559749405,-0.3912097555,1.5025424682,0.9230543497,-0.862561376,-2.3263676672,-1.061453773,-0.9280861012,-1.1617752542,0.9574923202,0.7741359389,-2.3121146865,-0.7563664469,-0.8920300748,2.0177806181,0.0127975006,0.6016335841,0.3862857903,1.16514854,0.7339720732,0.1862969641,-3.545653249,0.7174391373,-0.212084244,-1.6523162739,-0.187282151,-1.2525301203,0.112352263,1.624469156,0.2897654173,1.5666646991,0.93460049,-0.3450392273,0.6321358524,0.2217327236,0.8673629122,-0.0603815681,0.0090141328,1.472596745,0.0981798977,-0.8890198718,-0.9112741789,-1.7645583021,0.8540304986,-1.4658974849,1.7203489031,0.8287158642,0.0653690479,-0.609214767,2.7855555042,0.7933377224,-0.417700485,-1.2966435063,0.1906700094,-1.2759051567,-1.5410094403,-1.1738434772,0.8011244878,2.1731382263,-2.2596860041,0.2553628177,0.8022837684,-1.366208282,0.4238765229,0.6365645737,-1.3474116882,-0.0723862526,1.1483867968,-0.9461522626,0.1341449148,1.6503241805,3.3414198698,-1.0608117053,0.3970123993,1.9658372225,0.7786570237,-0.1815937803,0.5822697294,1.3069681794,2.8844081234,0.0965647901,0.004996568,-0.0739616483,-0.0128744121,0.1503297316,-1.9978807145,0.5753063325,0.5140523976,0.235325654,-0.404742609,0.0022847245,-1.6884007867,1.1842151234,0.5359532676,-2.4037244185,-2.1253991933,1.0764245848,-1.3389406213,-0.1663613895,-1.1167882356,-0.0112298234,-0.2875927082,-0.0922991368,0.4982624243,0.1427004408,0.8833420209,0.6920382732,0.0789667053,-0.8767269571,1.4696893818,-1.1170073488,0.0878769912,-0.1599244078,2.0399877308,2.7993865607,-0.9361772039,0.1270833522,-0.0169399003,0.3321847095,-0.4260237897,1.2781270543,-1.5654758498,0.2965560059,0.3658989984,1.8034635236,2.3208370695,1.0317181572,1.3977089371,-0.0295016599,1.1981294267,-0.9412536553,0.6437709951,2.5140005155,-0.2439451555,-1.0174027928,-1.0910568261,0.8574729267,0.6485236527,-2.5347912731,-2.6352027081,-1.1083097937,-0.91505172,0.1116348721,0.1713696674,0.5408090146,0.7462046547,0.1203247204,-0.2815236456,1.1633265018,0.4516572331,1.738777463,0.0720145402,-1.5698663953,2.9753444972,-0.1869869558,-0.2758811639,-1.4849926093,1.7368527708,0.1157626599,-0.1604166878,2.5332457366,0.8186922807,-1.0884653259,1.2272856267,0.2121362909,1.4346856287,-0.3815856298,0.5589392633,-2.0724023114,0.4178503836,1.5705604672,-0.9317137286,-0.6383097054,-0.8302217444,-1.8109116311,-1.5432993807,-0.2718742663,-0.4126706063,-0.103559141,-0.5105274538,1.5118022369,-0.0658581692,-0.0647874527,1.5280739115,-1.6747079377,-0.9666186099,-0.7709944229,-1.4051732121,1.0397531432,0.6963798288,0.4978143223,1.2987771947,1.6588013196,-1.4709953414,0.8086141133,-0.7474831366,-0.987810391,-0.4690208569,1.8546041454,0.3735398385,0.0339658607,0.5154351223,-1.5298558119,0.1861046515,-1.4781643722,0.065775161,-0.0072052019,1.038540273,-1.5891060056,1.7371157625,-0.6124372988,-0.8064634414,1.106941961,-0.3034884415,0.5563969087,-0.7361202569,-1.4065927143,-1.5951425221,0.293295663,0.7467889428,-0.6647038888,-1.3963387585,-0.6738744394,-0.1183386389,0.5320703486,-2.2933553386,1.5116697569,-0.4594950734,-0.1045116736,-1.9640054364,-0.0384734993,-0.643685438,-0.8556483854,-0.1022581224,-2.1913000076,-0.4710667624,0.7526187673,-0.3517276672,-0.3835112405,1.2819382482,-0.5040842609,0.041904088,-0.3602413942,-1.7664717047,1.1430376924,0.4656255152,1.0979514871,1.8088446173,2.3329972828,-0.2054466292,-1.6831840883,0.9922743166,-1.9823688928,-0.3710254341,1.5744001088,1.1254943881,-1.0666163089,0.4033743767,-1.0510767702,1.3737994048,0.7833306525,0.0079932944,-0.3599553864,-0.1026379041,-0.1096866251,-0.2083512091,0.6879087779,3.0211656913,0.3833857058,0.5197819731,-3.708745424,0.1776548436,-1.3863852393,0.7285761961,-2.3716158049,2.5482577035,0.9372464999,-2.121246817,2.262202861,0.2195977711,-3.0762993116,0.3082150395,0.7196751659,-0.1008423025,0.2352827875,3.737257517,0.8869281098,0.0069498092,-0.7549221358,-3.2636404205,0.2153774502,-0.8504390681,-0.2558164457,-0.8704231208,1.3642795806,0.4145130854,-0.4308450875,-0.884141628,-2.0931484404,-0.9187791553,3.51449271,0.1098853193,-0.5671454314,2.8313633877,1.8229439517,-0.5043101141,-0.1502339257,0.0717099678,-0.6008326352,-0.3346744024,-1.5639258946,-0.7101226088,-1.0574087172,0.2747940173,-1.7854149965,1.5086767309,0.8765788227,-2.3369897226,-1.7826847376,1.9342739341,-0.5663136067,1.4848941644,0.9314316701,0.5945602748,-1.4709037604,-1.4654522278,0.3384178202,1.7022449229,-0.6445114955,0.7558043175,-0.0904146823,2.5187535331,-1.6602030335,2.0148783352,-1.2185097602,0.9892264278,0.1619291881,-1.4907490117,-0.5156846939,0.2408272498,-0.7885904067,1.292816397,-0.7591101745,1.957774691,-0.7075533512,-2.1542480469,-0.1479316229,-1.2611869635,-1.0409967989,0.024078629,-1.2178338348,0.0662996147,0.816901059,-1.3968208833,-1.7239573008,0.1661885156,0.4129443621,-1.6196737265,1.0468602999,-0.5479341383,-0.889821185,0.2601137557,1.4655733618,-1.3925495913,4.2691657894,-0.5219533508,-1.0575261874,0.1369214773,-1.7125007086,-0.8284936852,-0.4517724106,-0.2328775201,-1.7215257032,-0.8734065801,0.4125227619,0.6870406253,0.8092160698,0.7234963743,0.8336056738,-2.0640726295,0.3103687255,-3.0002819427,0.6696197423,-0.7267249198,0.9067494662,1.2854773906,-0.3014002295,0.4749322677,1.9407188964,-0.7880436826,0.4767240943,-0.776238175,-0.4165223283,-0.8123134245,0.3819342386,-1.8072288689,-0.3707127344,-0.8558810704,-0.3924450113,-1.3231285863,-0.196186601,1.1276231802,-0.8073403967,0.0770473078,1.7534783686,-2.8221619642,0.9378507374,0.3444842836,1.0795265252,-0.300869855,-1.9833669156,0.0549197865,-0.8191079449,-2.6728055773,0.0025705124,-1.1591158815,-0.3089758901,0.259084744,-0.1535864369,0.2723431828,-1.5191381897,-0.5862492488,-1.265982992,-0.7745689826,-0.9282927994,-2.0355892335,-0.3492922022,-1.9513168424,0.3274213621,-1.0615479514,2.0252508469,-0.1289920614,2.5243287803,-0.1225153777,0.9273015807,-0.749065131,0.484653038,-2.9935589431,0.2033909914,1.1926753483,-0.0472412718,-2.1004690739,-2.4904916212,-0.9273540666,0.0192985095,0.1324941108,0.4382818533,0.0081713818,-1.656762117,0.5191906518,0.6786849993,-0.0703476296,0.0916543167,0.7878192234,0.5656647929,-1.2619205208,0.1283297934,-0.1569386873,-0.0095216821,0.3490775936,0.3187133037,-0.8969236891,-0.2716130599,0.3079266912,0.2612071662,1.4834752732,1.8981237087,0.3044856792,-0.5506465696,-1.0555673094,0.2232519483,0.5930758333,1.5043369349,-0.3573220903,-1.67111402,0.5064582057,1.149602234,0.1495774191,-0.5520266384,0.4293965078,1.6328186711,0.768580083,-1.8005678532,1.2244143317,3.6363298161,-0.4519219799,-1.7483998077,-1.5185119906,0.2080197774,2.4119559151,-1.5934997716,-0.7847377077,-1.119390938,1.085475806,0.7545480412,-3.4552568902,-1.650876759,-0.9094183098,1.2506229021,-1.992921565,-0.8435655275,-0.6035678988,-0.0004567268,-0.0797955087,0.5112789177,1.6637626452,-0.4354971318,-0.7303539314,1.6181745504,-0.1291113812,0.4738018785,-1.6097130762,2.7271495621,-3.1840305383,-0.6322478363,0.8257207528,-0.1149086218,0.4889361971,3.7940668185,-3.6616733486,0.0387541052,0.0538930273,-1.2368751454,0.2435902365,0.6740916384,-0.0126556086,0.0919548635,-0.7940746783,-0.4211535573,-0.1672179185,1.1015841601,-0.8666263819,1.2413382886,0.6135726778,0.2276412759,0.8163962773,-2.241819851,-0.3177125535,1.1290174563,-2.0910663496,-0.6809040081,-0.8341515513,-0.4307870914,-1.7584587993,-0.6171621351,-0.0752750085,1.1628969321,1.232995719,0.3977044541,-0.6633301195,-0.6732388395,-1.9751472681,-1.7564530025,0.1673093864,0.7190375439,0.7759268449,-0.3575642217,-1.3251601826,-0.9875803988,0.1538955123,-0.2234915596,1.1415637652,0.7572298965,-1.4167935128,-1.7150682238,2.3628275018,0.1475983077,0.3873992065,1.92797245,0.5737925158,0.6971823733,2.1407069942,-0.5131773712,0.899969481,-0.0615372717,-2.1143434002,-1.3757642118,-0.5898224395,-1.9709437207,0.6036834782,-0.5851385683,-0.6837137857,-1.4201204961,-0.4012164756,0.5630850846,0.9323169897,0.68689469,-0.6051963969,-1.3834595374,2.5487615761,0.4872249915,0.8469846477,-0.5470453246,1.8803175147,1.7912253961,-0.5787449907,-2.5415988264,1.6001626355,1.2385677825,-0.939751254,-1.4932069653,-0.9093151495,-1.2192412028,1.2055923997,0.8463769815,1.3526790829,0.4778903722,-1.9074370966,-0.7457575607,-1.8795366823,-0.2492340332,-0.3972411943,-0.7442211836,0.4376759371,-2.9192300643,2.1713432051,-1.3750003,0.2964394911,-3.4034242415,-0.598221547,-0.6437838067,0.9208397858,1.4762682391,1.6989674691,3.3539567627,1.2569637216,1.0860981229,0.819368898,0.6613913299,-0.0197318628,2.323410694,-0.9129481261,-0.3806790112,-2.1053300965,3.8212144211,0.9565171541,0.7413607927,2.5625009391,0.1198922921,-2.4475613209,-0.7582549489,0.0630207484,1.3012021868,0.3006689639,1.2952755921,1.8501735406,-0.9206262956,1.6141721047,0.9449458356,-0.2768146388,-1.1949751735,-2.0089827927,1.9476652761,-0.1330313463,1.1434669953,-0.6040485062,0.8141991378,-1.436794334,-1.4032958178,0.8090273174,-0.1691617575,-0.0994577342,-1.4985481365,0.4057457257,-0.1022705267,-1.4656629489,3.2704224676,2.528074427,1.5088185508,-0.3582359384,0.532551022,-0.4582369979,0.4756014866,-0.8404626556,-1.6942418918,-2.8563940156,0.2743397039,0.1281229958,-0.8863054409,-2.5041591661,0.1072501155,1.8138066224,0.4214515011,-2.0279854717,-0.8720182029,-2.1974802312,2.4645927864,1.7387827807,-0.7836682615,0.2049521715,-1.8935356681,0.2842420473,1.9121347818,1.0530864224,-3.2022225007,1.3864014039,0.5525006249,-1.2619196199,-0.1175391642,1.1034989795,1.0425783131,0.5422787642,-1.1438657229,1.1095743327,0.9202913553,-1.8829906611,0.378613826,1.7450754215,-0.0132723401,-0.1548594989,-0.5558660479,1.4010014213,2.3798370962,-0.6205378877,-0.8196147016,0.7284038966,-1.0451501824,-2.0920765307,-1.3710242609,0.0139194133,-0.7088958696,0.5586624404,-0.4288719227,0.2092639845,1.1458253031,-1.0753529552,1.4293873654,0.1423653934,2.4228911556,1.8320533568,-1.2486147496,-0.1131743789,-0.9838041909,-0.2802959707,0.0843439689,1.5626252227,-0.8033384344,-0.9454878523,1.9889257881,1.0795645718,0.7233331158,0.216303307,-0.7565313994,2.2778871774,2.1973047204,0.2670793138,1.2623209472,-0.6806581255,1.2104818048,-1.0120481332,-0.9289599358,-0.3735651105,-1.9854719682,-1.66863038,-1.7888474846,-1.103844285,-0.0782479733,-0.3445657926,2.2131184252,-0.9483746008,2.0108791312,0.4533280955,-2.494099779,-1.7506817011,0.2373035161,-0.5108767661,0.5583425722,0.3615334822,0.1014217703,1.0717014426,-2.5643585871,-0.5639447764,0.5571263618,-0.7602937195,0.4860378122,-1.4295042759,-2.1583188255,0.6990448242,-2.109648955,-0.9996410377,0.2332384969,-0.745642718,1.1900534544,0.475539564,0.1234296187,-0.9850988508,-0.0708648173,-0.1790424317,0.4393590496,2.6931567888,-1.1556093083,0.4835144331,-3.0141118991,-1.3128137147,-0.8104993042,-1.745034873,-0.3293822485,3.20666261,-0.4307930318,1.222300707,0.3602161104,3.3733324902,-0.6410676431,-0.7735787657,-1.7841332086,0.522774751,0.2159721966,-0.413393924,1.6396371579,0.3723074055,-1.0534603965,-1.4498038813,1.1652534284,-0.9156448664,-0.3727190274,-0.8038613858,1.696512386,0.7044471751,1.1811385469,0.7330569293,3.584136082,1.2415334013,2.5840074583,-0.0562982301,1.4438704576,-0.7643943094,-0.8333609355,1.9165382682,0.9265859214,-0.0159891185,-2.8131146265,-4.4774037131,-0.8607236353,-0.6963407166,-0.0394767755,3.7129812975,1.0226413074,0.2213714053,0.7171298603,0.6110459487,-0.5920541802,0.0357964711,-0.3588713943,-2.0838071545,-1.6875190652,-0.0691786787,0.8860306929,0.4620292644,-1.4673155722,-0.6116202383,0.01594139,-1.4446773231,1.199715359,0.0301171568,-0.1800626306,-1.250801569,2.4519520652,1.799719874,1.6980495634,0.3453463514,0.7250872965,2.0899826459,-0.8595527406,0.8017281242,-0.3980072685,1.7277896851,-1.7112102721,2.2796575718,-0.0641054,0.0047945748,3.5708782561,0.416430231,-0.5419460018,-0.8567512793,1.1522513543,-1.7680142247,2.5238077636,-2.0913259152,-1.3843679105,-0.2148329313,1.5769572412,-0.2446760987,-0.3184473138,1.1544622284,1.6459430795,2.1317675169,0.4492929846,0.8813498379,0.304340896,1.2689417825,1.066540904,1.0134759802,-0.5855111969,-1.7874357219,2.0829849593,1.6121220705,0.7377967398,0.9916583428,1.6165538507,-0.3822064967,0.1687852686,0.6344657506,0.8631117952,1.3081476614,-0.6732566634,-0.9865132868,0.2858135375,-0.6116358394,0.1923540927,0.4816453782,1.6159568207,-0.5005718243,-0.5324758884,-1.5371538801,0.9417828866,1.6428029529,0.6792415757,-1.7200744822,1.4630691646,1.3490341421,-0.6215590469,-1.5053266753,-0.4621728323,-0.4575832141,0.9124044389,0.5967949297,0.0507483229,2.0302830472,1.3561555593,-0.1053935703,1.9578898469,0.0073599379,-0.3645607101,2.1170312212,-0.432105416,-0.1125348449,-0.3856688092,4.4785400951,-2.9781409033,-0.1469411751,-0.7087463229,-1.0241494475,-1.2175303124,-0.150595403,1.7368913482,-0.9213285075,0.1012840971,1.7133297123,-0.863993262,1.9034765892,0.1310637414,1.8891521312,2.1941026017,2.0878131084,-0.158575998,-1.7844722002,-0.7140527842,-0.3858959017,2.214158562,1.1565360823,1.2173645372,-0.8056177543,1.55577693,0.1716281424,-0.8926731868,0.4952710975,-0.5407542922,0.3692656669,-1.6824786531,1.0313603707,-2.3058367663,1.207546091,0.8515449518,-0.3274012108,-0.5220060163,-1.4215429373,-1.5621167381,-1.1415755464,2.2230543213,0.6787392747,-1.9866629262,-0.2281707981,-0.1844200262,1.5810508592,1.3265646496,0.0671232243,-2.5699532874,1.0162074363,-1.1803282012,-0.5877817654,-0.3165876743,-0.073762315,-2.6980622492,0.9610705755,-0.8152407753,0.0789058522,0.0046300737,-0.1986472703,-0.5165829115,-1.5626476134,1.8195714377,-0.9508172651,0.3126765485,-0.9906761235,-0.5058135056,-1.4973876025,1.318903195,1.1497783339,1.3636730871,0.5830453005,0.9413108636,0.7052762537,0.9817377143,1.8045772394,-0.6741478494,1.5273997707,2.2660284508,0.6290489971,0.5225723566,-0.1723862021,1.1918862166,-3.1817530374,1.906843031,1.3501033871,0.0541927009,3.0283620544,-0.4186081651,-0.8665903725,0.7178121568,-1.4930913124,1.1574830906,0.4101921777,1.263491456,0.1051636014,1.531629798,-0.2704665663,0.2937988878,-0.3049512362,-2.0597864258,-0.1511880276,1.7030393254,-0.899439576,-0.9002598588,-0.9638148732,0.9175335972,0.8544555349,-0.6179819933,1.5877362553,0.5818521589,-1.1928734061,-1.5509729368,0.3947094853,1.7701260976,-0.9882415153,1.297348654,0.6043281865,0.4849488749,1.4078795185,0.7946288387,0.4435031953,-0.2153252042,-1.1776964935,-0.1035566149,-0.1358743104,-0.2154794063,0.3584817747,1.6499809594,1.6051897922,0.3874202338,-1.4269034651,-0.6840276761,-0.8203361164,-0.5167941127,0.1021885435,-0.5810698272,0.5672258136,0.4338950336,-1.0959874228,-1.6119727712,-0.4182399627,2.6524764932,0.3411064897,1.9993681285,-0.4396897078,-1.3164463961,0.0827543131,-1.3018893277,1.6269635334,-2.1362256735,0.0645984658,-1.0565219475,0.5631949668,-0.7735293641,1.194293602,-0.2135016747,-0.5484740144,-1.0374946528,0.6772135827,-1.1851050284,-0.626002785,0.4267102234,0.0635628105,0.5859952151,0.2932944943,0.9669276822,-0.9733765506,-0.9865334422,2.4008178594,1.3111626223,2.1612153411,-2.2733457258,-0.4353085874,-1.1444919027,-1.2510594379,0.3488050749,0.6545932419,2.3025014757,-0.723086645,-1.0787721333,0.3285422773,0.4782131875,-0.1820601839,-1.3292544308,-1.6870273866,-0.2339518411,0.0890159899,-0.3823038724,0.1148279817,-0.9672259445,0.5500765454,-1.4194434547,-0.56795906,0.0541458928,1.0904766978,-1.0046795205,-3.056706143,-0.0819458097,0.4203477687,1.4792724172,-0.5363888333,0.1857487898,-3.8667294475,-1.1638482865,-0.0837428628,0.7819439799,-0.250310997,-1.798887671,0.1470677781,-2.1098623014,1.6471795147,-2.0270839943,0.0639538408,-0.5726567353,-0.9391989869,-0.3514230448,0.0448420898,1.3772476805,2.3654907003,-0.2314479817,1.508160402,-0.2034728662,-0.9124870033,-2.4639349344,0.251734857,-0.0729638791,1.4779743062,-2.2766316123,-2.1682653114,0.9762969036,0.5994469445,-0.9438267319,-1.0596935887,-1.7461842074,0.3830887134,-1.1807139399,1.5790095973,-0.3180190581,-1.1675997257,-0.158633272,-1.2114500483,-0.0867987523,-3.1723434664,-0.6824608032,1.2562187267,-1.0920523023,2.0364153143,-0.5258284894,1.120928234,-0.6486717145,-1.9697507849,0.3473211907,-0.5437608318,0.8566599235,-0.1403192652,1.5523548777,0.9989456829,0.0571917698,-1.7714017303,-0.4963593323,-0.6385874183,-1.4897045813,1.4984080367,1.2704706167,-1.4104765831,-1.6205831648,-1.7728910166,0.0408945395,-0.0543984735,1.7186794251,-0.3144088452,-1.782358815,-0.7441829889,-1.3473308484,-1.5053495485,1.7836332554,0.0734660304,-0.6147345054,0.7345628217,-0.2037674607,0.1725141242,0.6665811898,0.2377305237,0.7957625273,-3.5353463536,-0.618660695,-0.777084786,-1.3176268212,-0.4695297297,0.5730510284,0.0168360471,-0.4923519485,-1.5978482356,1.4111168828,1.1473752255,-0.7017004112,0.8260039697,-0.7350897825
   1.4947001701,-1.1427384099,-1.9499733763,-0.865134485,-0.5121016834,-1.8795127746,-0.6969053526,-0.1489758066,-1.9069902712,0.0901654484,-1.2025788667,0.9778665923,1.1024955685,0.1088719281,0.28982655,0.4276688413,-1.9854657791,-2.431604135,0.5348419081,-2.2180112027,-0.0875456403,-1.3282908886,-1.0007476938,-2.2371411643,-0.121944423,-1.1969171841,-0.059388948,0.6646160475,-0.2845860289,-1.6988287407,-2.3615880448,-0.1310977857,-0.8481744871,0.6274017417,-1.6476553425,-0.10782302,-0.7953236851,-1.0556957753,-0.2184577833,0.8199323478,0.7416461623,1.8758624865,0.7040053352,1.4297205938,-0.3428960692,0.8052306946,-2.8807952553,0.6097242454,2.3346998413,-0.8692737957,-2.5458534631,0.4069786063,-0.7960675471,0.7539017614,-0.9987869639,1.1383313499,0.4419800001,-0.3878304141,-0.6123685422,2.6536716703,0.0684846593,-0.4832041864,0.3930207807,1.6978665645,1.2089663057,-0.7678954853,-0.9594101252,-0.4572782529,-0.9137021771,-1.7004135876,2.068229999,2.1217909001,0.841057957,2.9203379181,1.3404134903,-0.5831033788,-0.6885868315,0.0942999343,0.0846664147,-0.3586529675,-1.5643598887,0.8911976926,-1.8317622597,-1.7303429425,0.3561195166,-0.2821299706,0.0194262061,-2.85495619,-1.5292332565,0.3737838731,-0.9295724768,-2.8040800818,0.7871307366,-1.7231982421,2.1123863338,0.2106611856,-0.4635958677,-0.8239165471,0.8815910501,0.8553382251,-1.7257610125,-1.382994197,0.9619248249,0.4146014826,0.5658847777,-0.8813292125,-0.1091896363,-0.1750867683,-1.309043161,1.0996493248,-1.2580881713,0.3741256405,-0.0210023334,-1.6424150594,-0.6907905367,-0.6023236715,1.7226436028,-0.7498475676,1.0717390124,1.365361985,-0.3940756059,1.0571417685,3.2642807937,-0.1453182328,0.4069222291,0.3691418507,-1.7084882992,1.3458393408,1.107888507,1.2722855333,-1.0132387917,1.1602521852,1.0219042131,-0.97339313,1.1353758281,0.5501310332,0.8579061542,-0.0123729805,-0.8288272067,0.7457357069,1.6741504856,-0.3983855919,-1.0041218943,-0.9231730673,1.3901644786,-1.5955716317,-0.1444381456,0.5848136253,-0.148513394,0.1004787932,0.5677648474,0.2276711003,1.6197200654,-1.3274600208,-1.3051081119,0.1500312437,-0.8445557368,2.6066951454,-1.7889077408,-0.3148443613,1.0897912591,0.28306394,1.1308019067,-0.8562152282,0.3434986787,-2.3026194181,-3.094707445,0.9116785979,-0.85418662,-0.436465104,1.0913167555,-2.4806284137,-0.1130497525,0.4144240647,1.9268768836,-0.2071100318,1.495181461,0.1550184693,-0.5900411212,-1.5627816497,-0.8935593349,1.3728432911,2.4826142121,0.1138906613,0.2174243203,-1.0771953635,1.0911745457,-0.0435808462,-0.2835485684,-0.9021163947,-0.8924680321,-1.1722232075,1.6128369315,-2.2987629038,-0.5583663251,0.6274525319,-0.3636488326,-0.4179663456,0.1796004355,-2.4252562573,-2.9145118089,0.1796158235,-1.5080265606,0.8351150155,-1.5040238847,0.3659585884,0.7286460096,1.5837992616,-0.6951983516,-0.1142894469,1.5034915238,0.5955087783,1.1174413242,-1.6338443934,2.4921334351,-0.1888480366,2.6815397274,2.3569264279,1.5856895148,0.3552343145,0.9919077534,1.0429403807,1.099981988,-1.587763381,-0.8667187982,-1.5806584995,-0.8711715573,-0.0020293241,1.3652368943,0.1808214492,1.407897709,0.9910393802,-0.4494016179,-0.4161546937,1.5510505489,-0.2545266604,0.1789073973,0.1571342312,1.3795134962,-0.2071844642,-0.8306892767,-1.0330607822,-4.0557273202,1.2034406868,-0.0981376303,-0.8609058061,1.4462858032,1.589445439,-0.5510573676,0.7122708014,-1.308768444,-0.2377728968,-0.6094669065,1.6026393902,1.3690462726,0.9318075646,1.5271000688,0.1168027959,-0.9405706888,0.5021304953,-0.8609051373,-0.4055251365,0.8301539885,2.7951539735,-0.5779702843,-1.0373372178,0.835126711,-1.3489839581,-0.5080805628,-0.3939938706,0.7735868828,-1.1926864173,-0.3230007758,-0.6041836018,-0.2613364048,-0.3694179673,0.7572155471,2.1785195027,-2.3592004075,-1.2842859981,0.570974736,1.5150188199,0.5046184444,0.5084387399,-0.745395737,0.5033818162,0.9569526062,-2.053377297,-0.190824797,-0.6889958425,1.1544924774,0.3466459374,-0.5302144709,-0.8491303795,0.290952302,-1.5744683355,1.5832616328,0.376331377,1.2331858082,-1.0631809431,0.8075431452,-0.9924942953,2.1366713924,-0.8848219064,-0.206282814,-2.7091419187,0.7998718691,-1.1588892327,-1.0669209231,-0.3486843116,0.5801433909,-1.2112646568,0.4510636166,0.6297625086,-0.0074349272,-2.2567201512,-0.4774619863,1.41655031,-1.3209437988,1.8559649192,-1.4498894689,1.9753441609,1.2576591685,1.3077816206,0.8607785699,-1.5889811979,-0.3659208531,0.3336353075,0.8935377475,0.6838104752,-1.3954212406,1.8955374759,-0.5433948021,-2.291065934,1.8905971453,1.0186937136,-1.7762263559,1.2485892353,-1.5271364994,1.1000060485,-0.5601059564,1.9497370314,0.8616067733,0.9279448324,-1.4912132577,0.0460385592,-0.700973693,0.2539305639,-1.6764122824,0.3681961637,-2.2573001016,1.4700553473,-0.9489965584,-0.3454114137,1.3893166622,0.4445553348,-0.7190754498,0.7372684241,-0.0857054439,1.470394013,2.5310828704,-1.3635235836,-1.845463626,-2.4463332962,2.0472451632,-1.7417679808,-0.8336431928,0.8260085525,-2.3331878969,0.2622190738,-0.0430955506,0.0914838296,0.3395958307,-0.0166912504,0.3172260571,1.3394258025,0.1686294557,-0.0947781768,-1.4003383476,0.9160443492,-0.1325256667,0.4260122043,1.1785044899,1.9399959934,1.5060690205,1.6937459467,0.5882003235,-0.8254312319,2.2008070333,-0.7164947764,0.9763851846,0.4329306254,0.1880102978,0.2497878936,0.5049106989,1.043179629,0.6909880381,-0.7957778346,0.4999874896,-0.98780141,-1.9525693525,0.2099165012,-0.6835122525,-0.9812227934,1.3994745367,-0.7589654792,-0.1892868378,0.1485612702,3.0596376061,0.2827197405,0.4143152348,-0.0755142758,-2.5794281404,-1.6212588306,-1.0368589425,-0.8452924252,-0.9767245956,0.5398961446,1.7548682928,-0.058252622,1.2233799974,-0.8778761068,0.2912666725,0.6485728854,0.5397782409,0.856432009,2.2477248951,1.9242666459,1.7536238746,1.2121461973,-0.8237980709,-0.6510332837,2.1725234796,-2.0270218989,-0.5606752349,-3.6921937052,-1.5551599537,-0.4630575524,0.2099130375,-1.1234820779,-0.3576559097,0.5990397771,0.4415853935,-0.2721482409,-2.5565971706,-0.0443646659,0.7913485576,-1.0066244797,-0.3678412693,-1.3607347952,-1.7239455472,0.0834935742,0.9417562991,-1.3732958118,-1.1062237338,1.8050647789,2.285078858,-0.264889791,0.1172837814,0.1050401147,0.2797960587,-0.7594071517,-1.5285306074,0.5795945745,-1.9761290208,-0.2315587626,-2.0254446234,0.5053819191,1.4195343127,-0.2901476431,-0.2714127202,-0.3325988501,-0.3666474722,1.628455179,1.1546879908,-2.0162524352,-2.8708527549,1.0308010179,0.6832965442,-1.2636756276,-1.2991215299,0.4857868747,0.4410373386,-2.231770034,-1.3281286598,-0.5181573682,0.6548409533,1.2661250416,-0.0140336149,0.0646472452,-0.8003255292,-0.537394131,0.6216180835,-1.4855050264,-1.268293614,0.1898044863,-0.4395940514,-0.0460823356,0.8495763502,-0.4491462032,-0.1045341629,0.4176437839,-0.0326915996,0.7319847452,-0.2590682012,-0.6570271473,2.4138280572,-1.5136106179,0.4048338082,-1.4768428048,-0.688660927,1.5956158284,0.0205011223,0.8310836367,-1.3835569054,-2.0024790835,0.6121558821,1.2102993617,-0.3746924054,-3.8754694612,0.6172644126,1.6940225415,-0.7599955397,-2.6928573888,1.8405941448,2.4461791659,0.47830667,-1.976420048,-1.441276053,-0.6063527429,-0.8150051504,0.2955467898,-1.8846628997,-0.7616131264,-0.1536051941,0.8537492951,0.4814556669,-3.1902245428,0.7678328619,-0.921991206,-0.4196529602,-0.8768571723,-0.4928471509,0.1537918444,0.9625294649,-0.9817417105,1.3230515877,-0.0597825304,1.9956602732,-1.6130487894,-0.7777442889,-0.3096182249,1.4322894829,-0.1511628115,-1.9023910931,-0.6170966663,0.194292255,1.9321466658,-1.4333096552,0.3299203656,-0.2508400603,-1.6134202793,3.0721571395,2.0079012855,-1.9799070489,-1.1310822264,-0.4087795788,-0.7062097896,0.3594608597,-0.3206213364,0.8143197523,-0.8686102565,-3.4567337814,2.4703155205,1.1010195972,0.6434285708,2.2775478813,1.1866567839,0.0043195287,0.5939359275,0.7486110361,0.3418092381,-1.3504398979,2.3466232683,-2.037248304,-0.4415632769,-1.6273374666,1.3085784329,-0.2755088444,-1.2705132633,1.7032991021,-0.3347057619,0.2603631842,0.9312251782,-1.119931561,0.2793138571,0.4482038099,1.0616940941,1.2210875178,0.6959464257,0.3847792219,0.4851255708,1.3359851432,2.0452679208,-0.4476535787,0.8793904965,0.4292354642,-0.3771682947,0.600583308,-1.0049020375,-0.4164210042,-0.9160332798,0.7959013871,2.6539482585,-0.6202537791,-1.0125683,-1.8131179658,-2.431596421,0.559986117,1.549561739,-1.4298802019,-0.8767108987,0.7172482163,-0.7628373287,-0.9402077662,-1.1544406355,0.2835262919,-3.0291791849,0.0700049871,-2.6035381511,-1.1649821521,-0.3413442465,0.6740240752,1.0947494586,1.7242958219,-0.3767549535,0.2515382741,-0.7676692621,0.4598921382,1.2476012287,1.6544334956,-0.1772644547,-1.7175716376,-0.2620404136,1.9708365821,1.5513034798,-1.1549664008,1.1637458293,-0.9212451045,0.3794233479,1.571038061,-1.1781016705,1.1068004338,-0.9891580354,1.1754311968,-1.869549901,1.2992048364,-0.8487991616,0.2044233493,1.4913903233,-0.9486042866,0.6304288728,-1.6773743679,0.9491481808,-1.6461784323,-0.8427282507,-0.6892708361,1.014898953,-1.3675729267,1.7410666688,-0.400233705,-1.0128895528,0.5355522473,-0.9901057565,-1.7905803543,1.0844165694,2.9759660097,-2.2935742579,0.282164277,-0.5195664397,-1.4688818766,-0.351568317,-1.8029692771,0.2332159964,-0.0109462665,-0.7183199321,1.0618550381,0.118316493,0.4016426251,-0.4104206497,-4.6357086208,-1.15199621,1.5430493376,-0.3752380774,-1.1534991125,-0.9939269479,-0.1412196407,1.9550466975,1.556364047,1.5280188216,2.8686194587,-0.2263273633,1.5221054829,1.660023031,-0.2579469691,0.2478071368,0.3495638898,-2.0831810228,1.1476434413,0.908306961,0.4801201616,-0.8278430134,-0.2827469945,-2.0797934032,0.8695041916,1.4792061988,0.6191808668,-2.043863472,0.6649348696,-2.2945116437,0.0538108278,0.1147084496,0.2653022704,0.757605924,0.3046685273,-0.0738850516,0.75326405,-0.3492895389,0.3064644645,0.3045804921,-0.5567015432,-2.2381110313,0.2214382655,1.3876111236,-0.2840989128,2.7475724551,-0.2561606186,-3.1866722339,-0.8369078769,1.6203083211,-0.5276955223,-0.009698958,1.3165326262,-0.2665300151,-0.5998185528,-0.6533737145,-0.0857030693,1.5371883135,0.8632372968,0.8870456005,1.5244322257,1.0144831817,2.3710948216,-1.465640611,1.9902871008,0.3554526263,-1.223317629,0.7052269146,0.8825354314,-0.4712161413,-1.8135270917,1.2291711524,-0.7707351654,-1.6259248372,2.3413113328,1.1047951935,-0.3938899693,-0.7325942177,-1.3142697188,1.2858312673,0.8941523983,-1.5695267802,-1.2996425643,1.0824537607,0.3702254462,1.6225576863,-0.0278337903,0.9458221734,1.2624891748,1.2539745994,0.2507285584,1.069418597,0.3457445046,1.0448539541,-0.6355705053,0.2643385105,-0.0508062202,-2.2749170946,1.1552268458,0.2461234476,1.3990025743,0.9474887886,-0.5333345271,-1.6083568445,1.0047994712,0.6745733257,1.2274906319,0.8233537138,-0.6581115675,-0.8071359841,-0.3738707862,-0.6978852122,0.8449119108,0.9854991109,-0.6382224761,-1.3650436568,-2.17493527,-0.3502801675,0.5212578966,1.6129514138,-0.9303962246,0.5391949943,2.1958749329,1.6514694389,-0.8804198411,-0.6724987048,-0.0620527149,-0.5014788272,-1.3432669965,0.0011139445,3.3333679751,-1.1762445746,-0.2344818133,-1.7826180571,-0.890122473,2.5793039538,-0.0217073004,-1.0030873647,0.0677825486,-0.2665765798,2.2282613681,-0.1694814054,-0.3694326724,-0.6646693594,-0.8225589995,0.1382409738,-0.932808515,-1.6991772423,0.172344889,-1.0231755739,-1.4222421919,1.0188900079,1.2353833354,0.465067795,0.5682804479,-0.5621911372,-1.8003130458,-1.0298393107,-0.045722119,-1.5025358818,1.3578953271,0.2471885819,-0.5300003231,-0.1502339555,1.3294732594,0.9982175474,-2.1298871138,-1.5778196231,0.7485032994,1.4455945957,-1.7268728668,0.9137928347,-1.4800825064,-1.7153389345,-0.0081864341,-0.4500594284,1.2689180675,-1.6940774287,2.4553394804,-0.6809916086,-0.7609166461,0.889696638,0.8601843047,-1.344036103,-0.1903357246,0.400097542,1.4127726355,0.0110669537,-1.2992024776,-1.380732094,1.7789943531,-1.7776881533,0.1723419259,-0.0388624679,-0.2866572382,1.555708552,0.3768097119,-0.228363444,-0.7351241734,-1.5922848035,0.9722138443,0.1161494905,-0.9924738338,1.4633357024,1.1859885749,-0.3222639997,-0.3404068689,-0.4605795012,3.1547713479,2.3269995285,0.4768366426,1.6325734022,-1.4094601037,1.8864302553,0.758244933,-0.9540618012,-1.8257005091,0.3594461723,0.1194175697,-1.0708404011,-0.1372546847,-0.3087561294,-0.2836118968,1.0342547978,0.7807498869,-1.1495759627,-2.0463570114,-1.3857373756,0.7164030213,0.9366878681,0.6992550314,-1.347257548,-0.9896531785,-0.2332812504,-0.0509562999,0.7169070564,-0.7720946155,1.121224591,-1.3882213847,-0.956250414,0.5360786727,0.5990373218,-2.0136394128,-2.2159855106,-2.1203004353,0.1478358183,2.1072929499,0.2475751081,-0.7608627491,1.4698045401,-0.0548141311,-1.2507553822,0.0537099111,0.8089084581,-1.2222474844,-1.366014367,-0.9553235652,0.2091804237,-3.6138117258,-0.9599367897,0.1719515274,0.8942935591,0.0454864482,1.5600294156,1.7545274601,1.9032689457,-1.0706300513,-0.9991960064,0.2340334442,-2.1033646276,-0.5484227404,-0.7197853052,-1.5041520452,-0.4440140297,2.1651413245,-0.1972340837,2.1882307736,-0.6452729726,-1.3249116091,1.3098421699,0.2468971814,1.3728894252,-0.3096430399,-0.573105141,0.2812101761,-1.0668381814,-2.0537766011,-0.6027662495,-0.9903704543,-1.2119943518,0.4080287389,-1.2666657157,0.6038464976,0.3199579429,-1.7659516689,-0.6569726856,0.3473112129,2.3110716921,-0.8216208096,2.3463878004,-2.0333540212,0.6437805026,2.364111361,0.64077253,-0.0978887721,-0.6590610651,-1.7139127775,-2.4539428311,1.1366534013,1.3783715717,-0.3343607352,0.5939102606,1.6285431457,-0.8939264887,-1.3774429841,0.3639237592,1.0171259055,-0.273427311,0.7291484071,0.8340327226,-1.1338214767,0.81665169,-1.7733442959,-1.117159744,1.4377485185,0.0794355258,-0.5431065423,2.1905210323,-0.591763243,1.0313873973,1.4522704664,-0.595529024,-0.471520071,0.0109409871,-1.812818572,0.2434255446,-2.4740509792,-2.3378372403,1.5529688734,-0.4843739407,-0.3098935932,0.1758823209,0.2237760774,-0.7559495391,-0.1270237519,-0.5187528857,0.7496576867,-0.5008874558,-0.8372954848,1.5988985644,-0.1757976942,-0.4068566115,2.1147243637,-1.9432135895,0.3032128281,-1.1476233872,-1.040758917,-0.8159143145,0.9696970368,2.3214497826,-0.7487028392,-0.9781734135,1.4306640255,-1.1448572951,0.5932721654,-2.0928815335,0.9900323982,1.1062177142,1.4713300187,-0.9980979828,-0.3227979821,0.9171635178,-0.4195037766,0.7536681334,-0.0660649877,-3.4237352004,2.1475971238,0.5714928143,0.0287306005,-1.4328624624,0.3942285149,-1.2460152203,0.4526489998,0.2506948644,-0.0288175094,1.9821638299,0.0270654464,-2.2005470465,0.6433947857,-0.6357606539,0.9162052487,-0.1866511196,0.4643029481,0.6735795254,1.3502770048,-1.4458328414,0.7571036158,-0.6424575053,-2.1148960165,0.5257590217,0.7858872309,1.8868286158,-1.1194021887,0.2546205687,0.7141320375,1.1688155966,0.5148311787,0.4656371506,2.7281167559,0.4564714974,-0.6231470953,1.0168368084,-1.4237459901,-0.6294839265,0.5435326022,-2.2473919613,0.0976864422,-1.0605324605,0.9639530848,-2.4394566716,1.5561447884,-0.7404971463,-1.2971870831,1.1005463685,-1.0510555138,1.2179168618,0.2160389697,-0.0569580372,2.649210976,1.6046685073,-0.1969642911,0.7194737475,0.2503618767,1.1014377439,-2.064776648,-0.5134963297,0.1970100975,0.9076806177,-0.1468018442,0.8406805719,0.9177827893,1.2816058114,-1.7006862447,-1.1780429106,1.3495038836,0.9810511774,1.2770970693,0.5832643266,1.7774677924,-1.8573128543,-0.3392728905,0.4385490889,1.6996849762,-1.2024616079,-0.3227082621,-1.8608481598,0.2120788384,0.211681569,0.2662373496,0.1767536453,1.6353244328,-0.5708434141,-0.5636294035,-1.9841124573,0.0975714069,-1.2340620358,0.7310875133,0.4281885299,-0.1375358045,-2.2257448257,0.8658069711,-1.2731578992,1.0307221886,-0.9065494926,1.0111228649,-0.7244764031,1.2868738579,0.3602098161,1.044637566,0.0346840775,0.0309681067,1.0912543996,-0.6395941313,0.2756336586,-0.5583312679,-2.5754247524,1.2062752344,1.4254716156,0.2828464016,1.9658211668,0.5102282888,-0.9027284651,-0.2986328701,-1.1259577024,0.2472789511,1.4362490739,2.0325663136,1.4676284137,-1.2650750221,-1.5480639875,1.9886317853,0.4204821894,-1.6192985165,-0.0168221161,0.9582380563,-0.4588856519,-0.2380932819,0.7007707829,-1.3393556371,-0.0229306359,-0.9801532117,-3.2145988957,0.4109376003,0.4011786283,1.1788386637,0.8714383891,-0.3257193995,2.9163936511,-0.8523166333,-1.4897424414,-0.1333422061,-1.8704115493,1.134187957,0.5357446304,-1.5207367831,-1.9334052295,2.1165105786,-0.1632971199,-0.8072144542,1.0373260767,0.0661671738,0.3745527058,-0.0744990291,-0.4196930742,-0.1564562697,-1.8278656574,0.6883890919,-0.4271156156,-1.6628835167,-0.5890290709,-0.4814041568,0.8447297255,0.6942268876,0.944494996,1.9703920916,1.4631892964,-2.2744506674,3.933224076,-0.3561168753,0.1489731939,-1.5959090678,0.7363995337,-1.2155543123,-1.6207726601,-1.0235209485,-0.9216060212,0.0181499152,-2.5855995353,-0.4696246542,-0.0740003674,-0.3131884618,-0.1027097004,0.2421013092,0.3307420007,-0.8333356765,-0.3216345115,-0.347014162,-1.7173418893,-0.8076368614,-1.0952879339,1.875089639,0.1843709928,-0.7803682383,0.4280385526,0.8988292227,0.9610171493,-0.3903174064,2.4313011118,0.5586220755,-1.7374310509,-1.0239646888,1.5355119133,-2.1654247382,0.7483506409,-0.5164312162,-1.6668798455,0.9253914212,0.26088382,-0.1071297568,0.6935288784,1.4017929099,-0.8178866536,0.5240059269,1.8342572421,0.2977952393,-2.4407803778,1.3488636499,-0.7583392654,1.6237813867,1.3408975606,0.0585838993,-0.4708998938,-0.3209625119,0.6523771,0.3647424524,0.1828009465,-1.4316216056,-1.1572432719,1.3626320597,1.5146298616,-1.6384109863,1.4921983372,-2.201142018,3.5173264892,0.9080153935,0.8161379199,-2.4736599406,-1.8232615529,-1.7439742508,-1.5613803958,-2.1142289328,-0.7037877769,1.3086425309,-0.0525892994,-1.031424099,1.9676203416,0.3549620268,-0.089171965,2.1359732719,0.7508527464,2.2920169544,0.8757105566,-0.8718443671,-1.2819020023,2.6206544132,0.533268364,-0.6127461111,-0.5423272969,1.1259215556,1.3217005177,0.4632956128,0.5534122083,1.5254180081,0.2439097239,-0.1492293619,-1.0023465258,-0.4536136231,0.9766834129,1.4563877145,2.0902712907,-0.9688620218,0.7669397694,-0.9863153615,0.6379959457,2.4761772765,0.3031033448,-1.5466911474,0.9928106265,2.0682304789,-0.3648718925,-1.3758634651,1.9498066913,1.5001415039,-0.0113350291,0.8280396174,1.0772083885,3.0283095271,1.8083209041,-0.5419552461,-1.1936016516,-0.2821012322,0.3806948532,-1.6921275997,1.4095621397,0.0557130946,1.1746133588,0.073867944,-2.2329840053,0.4660358708,1.6059348277,-1.0598636811,0.5080605932,-1.1423793057,1.1240780567,1.7438976671,-3.0035656571,-0.4538482187,1.1516255322,1.3467331333,-1.0548401164,-0.6160373682,-1.3214714201,0.1445105446,0.5340029389,1.8017633008,-0.0991092863,0.1706579815,0.4486323268,-2.7934765674,-1.8628042033,-2.9530748919,0.6341402159,-1.3270092091,-2.0892249793,-0.3582705485,1.7600318786,0.7073357721,-0.0253934244,-0.0922367114,-1.832403244,-0.6418394221,1.2437886003,1.2513135971,-0.309647138,0.5070785523,0.6295400846,0.5492891293,-2.0242976927,0.9388030066,-1.4720377327,-0.2381582494,-0.9501569454,0.6532705893,-0.806329961,0.112108024,0.07784431,2.6960248353,1.5325730271,1.5262873132,-1.4703647751,-0.6190977155,2.446380893,-0.379514874,-2.925597084,-0.7510080796,0.7701824625,1.0708237137,-2.6744956281,-1.2324916924,0.5831184723,0.695349214,0.6861068565,0.3249175094,-2.8075475596,1.2787675469,0.5568956554,-0.4355520672,-0.7902186317,0.4296222841,-0.2018080388,-0.1109356267,2.1260868746,-0.4445148672,-0.7376359208,-0.2301908634,-2.9583502378,1.3561499736,0.6491110849,-0.5138382792,-0.5732734562,1.0134010419,1.1533509615,0.9766462193,-0.637332094,0.2903971811,-0.3078212949,0.1748680541,0.6429719291,-1.9055064163,-0.5670433204,1.7762829325,-0.4586967096,2.0036104314,-1.3349848096,1.5215803146,-2.2533172032,1.8903743145,-0.0877734247,-0.8630885054,-0.7685350516,-0.7884849668,0.4429865765,0.548685081,-1.153733702,1.1134230215,0.964162095,0.1221289294,-0.8641109592,0.6363436851,0.0996468738,1.7237584329,0.2423362594,-0.7698230657,-0.4201078165,-1.0329371152,-1.6056869499,-0.6174923154,2.2551756134,-0.8502991472,0.9795802163,1.6804215829,1.018655326,-1.3150911608,-0.6916634766,-1.9966440357,1.9574212085,1.7477710025,0.5230141437,-0.6620643221,1.0816310936,-1.3772012033,1.2199438466,1.0848628922,-0.6189431302,-1.2095405299,-0.2662579665,0.9867856786,-0.5879211738,-2.2666543709,-1.570343245,1.0178840757,-2.0015695105,0.7448153026,-1.0735512471,-0.6373805642,0.2405073581,-2.7149477172,0.4702250347,-1.983660505,-0.5543366846,0.199291144,2.1325684998,-0.7478119795,-0.6282868792,0.7916730583,-1.8360430639,0.4331938593,-3.4844087474,-0.5293390631,0.4682556734,-1.7056010219,1.4611223629,0.208644973,0.6569791711,-0.4493849849,-1.8432361449,-0.9944210737,1.7831883951,-2.9074184982,-1.7494055789,-0.7709988781,-0.2860661333,-0.1916299654,-0.536606525,-1.42030637,-0.126513797,-0.1719929741,0.8511097442,-1.671294738,-0.7572267286,-1.4885241561,0.8502151647,1.9800135111,0.1938543605,0.1424169637,-0.0885364146,2.4136520498,0.5681513255,2.9158967073,0.0253816245,0.3555729804,2.6158667746,-0.8435193067,-2.1357864059,-0.7985895269,-1.3108963844,-1.4608068744,1.2202955172,0.9496444921,-1.6579977613,-0.6990721385,-1.3152517425,1.2964994718,2.9231570377,-0.8515449456,0.4025690851,0.2450425768,-0.0341692934,0.5175799812,1.0212980338,0.2189364658,1.5575930201,0.4436470709,-0.933498633,-1.6114832305,0.4340441984,2.2619884883,-1.4055822774,1.0855318293,-0.7988324191,-0.2401887409,1.3089774447,0.560489024,1.777514389,-0.0129579148,-0.2153242787,1.0009166076,-0.1141839937,-0.7058611439,-2.1412280826,0.8775163623,0.267409867,-0.8442013991,-0.5697694427,-0.8870272762,3.1377219202,-0.240566153,-0.6375977939,-1.5750063654,1.2287853345,0.8077771328,0.8831375116,0.3801994991,-2.0363178254,0.2362543059,-0.4350469838,0.8309699475,0.2564443865,-1.3705100686,0.7691726073,0.2435031762,0.1322774201,1.2354498858,1.5298492485,0.5760636961,-0.9709745293,-1.6940151895,0.1946084547,0.0363277879,-1.2469436367,1.5606122966,0.4074362472,-0.0529789015,1.4434715676,1.9735919011,2.5525413106,3.3712821827,-0.5429778526,-1.1132797633,0.4649675401,0.021209046,-0.3779309841,-0.2303229141,0.1197918893,1.2549225033,1.9631906185,0.9854157799,1.3874994588,-0.3368460782,1.372072839,1.8441114449,1.4572270841,1.1162294167,2.8456624562,0.6845151064,-0.3219349133,0.660782698,1.5334104157,-0.4979989959,0.2493558606,-0.1946411161,0.9092104616,1.0605934806,-1.2747309841,0.615340424,-1.6668218468,-1.9477055717,2.0729972466,-0.8863807318,0.5665610315,0.3424502742,-1.8770143363,-0.9359556371,-1.4755767912,-1.7621254904,0.3963809894,-0.3077203979,1.2815936732,-1.2337547027,0.6887196656,1.8351485259,-0.2292412494,0.3695232956,0.359641969,0.0623471388,-0.7365987109,3.3896168412,-0.2433131722,0.1423101155,-1.0078519227,-0.0064031775,-1.3388493458,1.4973145976,1.8068245291,-0.0767820687,-0.601135025,-1.8463207155,0.8566762414,-0.7205658455,-0.845317983,0.6811340317,-0.3475941861,-1.3261071292,-1.625354977,0.3465662077,0.6706020908,-1.5103602083,-1.6511150621,1.6706398622,1.1273015697,1.4531995714,0.1553206325,1.033392857,-0.9777919692,0.28462684,-0.6287852271,0.7351760764,-0.859970477,-0.5265734047,2.5265134363,-0.5049819519,-0.0072634188,0.3457590689,-0.0657229796,0.3003872054,0.4927395602,1.0903205061,2.2894945047,0.9261960243,-0.4355505195,1.0158317741,-1.5873535366,-0.7800425176,0.7763939576,-0.9375577337,-1.9341281434,1.0488083931,0.4267269236,-1.2637721769,-1.1529874893,1.6902045373,-1.9152212333,-2.0105560705,1.7706729442,-0.5207719449,-1.60632089,-0.5117164984,-0.6647579869,0.3341763099,0.4252370408,-0.3084217687,1.4365679168,1.2591880966,-0.3337889067,-1.4549498139,1.4529241313,-1.7028301735,0.4401188011,-0.5752361206,-1.93649059,-0.9238210069,-0.8303140987,-0.6548859602,0.7734726293,-1.0277445443,1.2054740519,-0.0581941814,-0.0660820923,1.5618051788,0.4702835709,-1.3355406341,-0.2430929119,0.0968513346,2.266843142,-2.0474400078,-1.2195164038,-1.1618657299,0.6010547092,0.5662489626,0.6526415008,-2.6069121212,2.0927061184,-0.8637542858,0.8779371066,0.422652726,-1.4126705149,1.6474657,0.8339879487,-0.1344073517,2.0908839644,-0.2996367135,0.605472307,-0.4500360355,-0.9431515264,-0.8400338965,2.0391791413,-2.9704700255,-0.7444517316,0.145698936,1.2163975014,1.2821366261,4.2959044372,0.2293675324,1.6357905693,-0.8453031199,0.5099274414,0.2528335388,0.3298298377,-1.5571733264,-0.97663867,-1.1320967112,-0.3451607543,0.7367071052,-0.1745752187,1.0816395532,-1.8802954364,-0.0878247806,-1.7841046155,-0.5906350097,-0.6530690463,-1.9236478865,-3.2389282237,-0.8063619363,-0.3275143612,-0.8635303952,-0.6625263865,0.0200466923,0.348907329,0.1832690267,2.0901945331,0.7274274308,1.5823171496,0.4646873592,0.0699489144,-0.5042446166,0.2766480863,1.9038253733,1.2585413996,-0.1566470904,-1.0122188342,1.7449472278,0.7055995875,0.4156357693,-0.7288473701,1.6826168817,-0.7847841149,-0.4445897309,0.7717381922,0.5832696485,0.1904435833,-0.3715077482,1.0107727278,0.2180637931,-2.6285778815,-0.484092855,0.9394279676,1.2177875518,0.2248831348,0.2602972858,-0.3058423064,-0.9280873154,-0.5976381888,-2.9969606023,1.4538944631,-0.9894452388,1.7754535531,-0.2661698411,0.4970225985,0.1353962043,0.1563627062,-0.4400477744,0.2919014706,-0.3210227321,-1.364755961,-0.9343612729,-1.6294239312,0.954403464,0.2419677431,0.1817725512,-0.4156165505,0.7612738989,-1.0967543873,-1.5724226983,0.3693598927,1.4843040057,0.2733881368,-0.1130580835,0.9657208346,0.190198832,1.311635064,0.6190116626,-1.6034756676,2.3585836255,0.5624408179,-1.393253013,1.6056270962,1.1384787374,1.1359033598,-0.5122270811,0.6718467582,-1.588628859,0.4403370943,1.0132426288,0.9161279639,0.1830867268,-0.4789238748,0.6538425595,-1.9429200413,0.1177158391,-0.5360553086,-0.7436175948,-0.2775316986,-2.5049177635,0.2052206781,-1.3741911053,1.6003985287,-0.5262620124,0.5627187478,1.8873054781,0.0581267803,0.5006475906,-1.6598706803,0.657258737,1.9273894833,-0.0282976998,0.8090901117,-3.6906272759,2.1602898481,1.359178509,0.9297605628,0.6691942471,-0.0125069618,0.5186516406,1.408070873,1.6506171223,0.3161948441,0.1595612439,-2.0257141286,-0.4844752209,-1.5184730499,-1.4281765656,0.9593675426,1.4431729017,-0.3258568735,-2.1064543267,0.7189132279,-0.0156190336,1.544955401,1.3475523069,0.3553638552,2.1260075376,-0.6425353116,-0.3427669672,1.3219988994,0.6291087907,-0.3431815656,-2.5910981984,-0.2360905572,-0.4237038843,0.95725938,1.9069825985,0.4332437184,0.4010763317,0.7400029602,-1.3666438643,-0.4349233885,-0.4798137235,2.4251368244,-1.2707369193,0.2809355132,-0.3816187686,-1.8722298337,-0.3746835401,-1.2758164891,-2.0876663769,-0.025789075,-0.983917842,-1.2784591885,0.7901986018,2.7852657087,0.4677457132,0.0236341176,0.3430220899,1.020728796,-1.2513032707,-0.2477178434,0.3710445471,1.2833562548,-0.6858889872,-2.6092086055,0.282580123,0.3496987131,0.3317904986,1.5321725896,-1.0715246011,-1.1136087979,-1.3811464801,0.7102435583,-2.4508629271,-0.1501270701,0.1094043478,-1.710489402,-2.0731050296,-1.107445639,-1.8014805412,-0.7520985353,-0.7494976977,0.0890751272,-0.3696836412,0.282323697,-0.5517771517,-0.8918254892,-2.7212105009,-1.1241547933,-0.5067807269,-0.9719852208,-0.8134689894,-1.1941873687,0.0646682334,3.329672722,-1.9857626788,0.6859388688,-0.6217024482,0.455311423,1.0479437978,1.5342061392,0.3811753248,-0.2103249378,2.4032300521,1.2778092804,1.1767179234,0.4754293825,1.5110180937,0.1368780674,-1.517466034,-0.8001214863,-0.7798218887,0.040890986,2.4814901203,-0.4689099539,-1.4240689992,-0.7223897093,0.2523674637,0.4054024008,2.499347955,0.5171492113,-2.2425431975,-1.2957516487
   -0.4933297989,0.6687879247,-0.1011350339,-0.4907947561,1.0577685806,-0.6197212063,0.2423510228,1.1856592141,0.2505239674,-0.5302366291,1.3469990221,2.7480691065,1.4416323923,-3.4225258615,2.6936934741,0.8486751886,-0.7594864527,-1.2622225929,0.6785129878,-0.2083913888,0.5279709872,-2.8395414707,-0.2056522867,0.7324100606,0.2244053655,-0.2901202044,-1.6245544937,-1.5858770582,1.4813176552,-1.5532081769,0.0107989912,0.1489994429,-3.1202881606,-0.7817914997,0.8732915826,0.0601679402,1.5928888145,1.8743440034,0.5829996467,0.4978684952,1.9443241479,-2.3094249091,1.0230260878,-0.4872868724,-0.3071734429,0.7219795857,-0.4165135674,0.9426526855,0.693280674,-1.2964549624,-0.0829498934,1.3760617426,-0.0284600592,0.3069835638,-2.6383340947,0.6848502226,-0.1382518348,2.2867307086,-0.173638761,0.7131198529,1.2513671614,-0.382820168,0.569132391,-0.1498199434,-1.8366361249,1.2070927165,1.2493605426,2.0572445825,0.4386706845,-3.2482593446,-0.084396554,-1.4127886591,-1.4958693131,1.1624817903,-2.7764572661,-1.1597361453,1.2518110432,0.4471440591,0.5531119884,-0.6432796391,1.3380779983,0.7685821881,-1.6297839815,-1.3630460848,-0.8048549864,1.0095895365,-1.4882144564,-0.1033779578,-1.1862942221,-0.0554935059,-1.4444345723,3.0825783674,0.9020121857,0.3967669687,-0.1028713768,-0.5480838279,0.950668642,3.2929542036,0.2001978344,0.1208207306,-0.7562663551,2.1265117247,-1.3792130109,-1.8228014141,1.6645237746,1.9346019237,-1.912514836,-1.197817776,0.7018271784,-0.9476406736,-0.1756404394,-1.3703539521,1.9050722782,2.3808602119,-2.1132475375,0.0100421753,-1.7866226808,-0.9650531074,0.4104175342,2.1072557866,0.696683102,-1.6873449822,1.1700938365,0.225004357,-1.3652520822,1.9240527989,1.3687741574,-0.6848166355,-0.2121388941,1.2287063396,1.1828355453,1.655409933,0.9268362208,-1.9586277382,-1.0406418374,-1.2628334921,1.4335093172,0.9732265198,2.7961236972,1.4330526806,1.6575761912,-1.230496179,2.2234966564,2.378362907,0.1500461735,1.4231696998,0.086506471,0.4590835095,-0.8474960474,0.699825674,2.4833576059,-0.5755421923,-0.3800375903,-0.0051596736,1.7590411313,1.3135239235,0.3285261756,-1.7561845909,-0.1246645384,-2.4701008778,0.8641773046,-0.4096157498,-1.0541328441,1.0328218403,-0.1500689468,2.0632250285,-1.0921546471,1.9880919516,-0.2847268246,1.7147489393,-2.7588154283,0.3509707773,-0.7820315433,1.4480113579,0.7627049471,0.5390924304,0.1240894242,-1.2400811599,0.8127258874,2.0276546237,-0.3828458056,0.1177996848,0.3683902701,-1.515558961,0.6281692897,1.1102837867,2.5070845803,1.046751281,-1.145323138,-1.7147209564,1.8031492428,-1.8170146062,-0.3643748737,-1.1045329496,0.4061916031,-0.5112345723,0.8165890359,-2.1872354424,0.5748301525,1.1723553702,-1.1428746964,-1.4894015896,1.1443631937,-0.1395080799,0.0163422547,-0.3167998962,-0.7703632092,-0.4218332458,0.0367459548,-0.7773294869,0.9177531004,-2.4436884475,0.367299492,-0.5220346972,0.1409783737,-0.1380768904,-0.1043009026,1.3635977343,0.669421574,1.5240586363,-1.3594759147,-1.4846743353,-1.3337016435,1.2078305938,1.4129531335,1.1409381053,0.5511956601,-0.4424882698,-0.554387435,-2.6728148423,1.6391778237,1.4314936097,-0.9853394534,-0.127292738,-1.5563534758,1.3859538481,2.2767733426,1.1429668743,-0.274950732,-0.5452567498,1.9756793896,0.1052001593,0.4721972522,0.0030076626,2.2041003134,-0.8239975097,1.5159634017,0.6409617672,-0.8445309054,-0.5367837563,-0.6224513128,-0.3080768396,0.5894956732,0.5417907429,3.7305780094,0.7589856338,1.2426710995,1.1164414961,-1.2657101942,0.5266802497,-1.7315061861,0.170913978,0.540292191,-1.2317329181,1.712051162,-2.9677917549,-2.835661749,-0.1930475046,-0.6179520637,-0.2273717838,-0.0624431786,0.1967289772,1.1940496197,-0.2744855425,-0.0390301166,-0.8235205976,-1.3580536155,0.7267239335,-1.153011617,-2.1765911632,-2.5346869422,-1.3484097341,0.8690198937,0.0554270131,0.7682410682,-0.800477225,2.5038560123,0.9604165911,-0.1815396241,-1.0539410617,0.9130930575,1.5506021753,-1.2262820543,0.6170352308,2.1096083752,0.7161228403,-0.7690001205,-1.8355102472,-0.1271947612,-1.1744107979,-3.1874267913,0.9899391478,0.6437237447,-1.1394663144,-1.4460857027,1.0409334318,-0.0798671899,1.4596411282,-0.5753657743,2.5179760015,-1.1988420763,-1.4748195478,0.5292279451,1.4569136238,-0.6264230889,1.3716067534,0.3373291331,-1.4326432362,-0.6804535172,-1.0398578215,-0.8393633562,0.5130584507,1.2090088808,-0.2158718246,-0.7235168891,-0.4098018582,-0.5685902796,0.5762912664,0.9939466131,1.9107905625,0.1585296174,-0.0611887483,0.0759955395,1.4403714222,0.92995252,-1.3651137174,1.0804378782,-1.9243438285,0.2491771972,0.3926192094,-2.4846635155,-0.6176605103,-1.195387742,-0.5253872447,0.5865987203,0.9440490669,-1.086193602,-0.0353687501,-1.4839052495,0.7808361608,-1.141720153,1.028296991,0.818985154,0.377897665,1.6640728064,-0.2464376356,0.3869210599,0.8844005156,-1.4810637066,-0.4545105848,-3.0449795532,-0.0198585642,-1.9601570796,-1.2042934245,-1.6072309108,-0.9795253278,0.7128601213,-2.7027777524,-0.6514632756,-0.6484660836,1.9993799034,-0.0319412708,1.1658081862,-0.2801456744,0.9867509408,1.048585424,-0.4278546161,0.1819899553,-0.961881398,-0.5547524405,2.4223375583,0.0025841793,0.1377704148,-0.6345451548,-1.0946546389,-0.7802207105,-1.2873884641,0.1000559098,1.1453702481,-0.9529748358,2.2420242241,0.0943491582,1.7247349545,0.5803730235,0.8929448053,-0.7679508022,0.3053962044,0.8018037454,-0.2486038598,-0.7403502477,-1.2840520574,-1.4692690805,1.3156346071,-1.0904450177,-0.1940296899,-0.3612237825,-0.7540043571,-0.5657474135,1.0066864547,-1.1272590078,-0.2857566521,-3.3230896943,0.4117484601,0.2007174489,-0.7522227515,0.9603560571,-0.3285266605,0.2731913045,0.3581796698,-0.9669770539,2.1828059989,1.0763593073,-1.9239951339,-1.1408959184,0.7162697555,-1.6397165749,1.09781898,-0.2248653116,1.9569816604,-1.8109879856,0.1306255295,-1.0043702715,0.5071390278,-0.1616571215,1.0521451155,1.8485043826,0.3020632947,1.0631006527,-0.5969987823,0.2642902187,-1.4630984632,-2.2624379717,1.0883876141,0.3908254331,-1.1777708205,1.1969571729,-1.0451613329,1.0583516658,-1.2931917327,-3.4287208334,0.2589283615,-1.2272444913,-0.5740117199,-2.2633986854,1.4466876303,1.4160998607,-0.8984363445,1.9158693582,1.9736207009,1.5180787278,-0.7350272774,1.5470959516,-1.3918540423,0.3995373995,-0.8030211335,-2.445108373,-0.5640530271,-0.4996484726,-0.261033369,0.4597656111,1.3939448454,-0.3446371272,-0.595422141,-0.279721021,0.4912750154,0.6592307437,0.4652012608,-0.2933076334,1.2170057717,0.1397414576,-2.3183324152,-1.2334670114,-2.0011374545,0.5107152863,0.3472344491,-2.0806885944,0.4778635216,-1.1059105607,-0.3935078399,0.2393515524,0.9354372054,-0.5022397759,-1.0400901253,0.0457995239,-0.644616294,-1.3310563791,-0.8436296038,-0.9858041117,-0.1368978097,-1.5803202058,-0.2600529521,1.0134362646,-2.036234906,-2.178062287,-2.3047730869,0.447478317,1.1335889505,1.9613256008,-0.0571474978,-1.2648170362,0.2719218101,0.8994540614,-2.430017748,-1.5217662698,-1.9705848098,1.4479279517,2.1116609935,-0.8805379611,-0.4403013323,0.0419114228,0.5350550462,-0.6718171711,1.0053614858,-2.4321257283,0.5716257383,-1.1866030071,0.8516319444,2.5039565889,-0.7241298502,0.7500836109,1.4562576928,0.3695062781,-0.4849598771,-0.4383096744,-1.4952243254,0.4362459254,1.7360797938,1.7021211478,-0.5755908641,-2.3263708055,0.2250888829,1.382374116,0.6145056033,-0.4255412397,-0.8774846595,0.9970339394,0.5612256554,-0.1891247711,-0.3285527168,0.683991249,0.6067436446,-2.4765372619,-0.6002256092,1.5319241941,-0.9601490044,-1.0692654293,-0.7650131403,0.9351829037,0.1586695498,0.2195795378,0.2206669522,1.0869436411,-0.1438963422,1.2449362162,0.327137254,-0.0985602001,-0.3191109702,1.1262487802,-0.1396958915,-1.4190636815,0.5835292264,0.9539703547,-1.4771712132,0.0804164463,2.7183955303,0.550032791,-1.1198929429,-0.3854241736,1.4089246485,0.0470647907,0.9392765452,0.8789029823,1.0566585323,0.3293852264,-0.0999803181,1.1872241096,-1.4384286412,1.2365655632,0.6803259843,-0.6040820567,0.5457914226,1.9306909539,0.9940393601,0.1689589731,0.1330616048,-1.5549813309,0.9594401825,0.3768891634,-0.384376892,1.3726785358,2.1048974803,-0.0787281529,0.1247497875,-0.2547793299,3.5273622818,1.0867187289,0.0457091129,0.059293068,2.5396033884,-0.4310720791,0.7018901219,0.2281654784,0.8888567405,0.1098902555,1.5369995762,-0.8009596113,-0.6855895103,-1.5106516212,-0.736395448,1.0569033074,0.6749696569,-0.916687735,1.9757105678,-1.4161967676,0.1321796375,0.7058357886,1.0900692832,0.8782036684,0.3386452288,-0.0041590602,-0.8575153974,0.6220770115,1.0073796136,0.4898090347,0.60369178,0.2188744712,2.28283844,1.4741140716,-1.8959853774,-1.3820328105,0.7963806721,3.2574955932,1.4474296705,-0.436512247,0.2556119415,-0.1622108769,0.3862890627,0.7062995742,-0.5105088229,-0.3005341522,-1.9009329003,0.4801921093,-0.6998248626,1.2792452386,1.1784912344,0.6790112756,-0.3654508455,-1.1847427602,0.4265796162,-0.8962572363,0.0082264504,-0.1953558555,-1.1935531867,-0.3081723445,0.4481526986,-0.3527454624,0.1746617709,1.6406339498,-1.8728990742,-0.213847448,2.2705088252,-2.5862440213,0.9581726542,-0.6103130992,0.3141409339,-0.9275231824,1.8109293954,1.6349308104,1.2310991602,1.6390973524,-1.1870349884,0.3411742672,-0.9275507384,-0.3161720067,0.8781341698,1.8644946832,-1.4113265221,-0.0932082788,-0.4353986147,0.027813252,0.934693008,-0.2712678363,-1.3642633307,0.3716986357,0.8418879655,0.2315148079,1.7098296947,1.5528353914,1.6975525467,0.7878140747,-1.0741380454,0.8894816035,-1.4571157825,-1.80086468,1.7126601149,1.1172222485,-0.4658995125,-0.7344865266,-0.4894074756,0.5853481291,2.5558412636,0.7166971595,-0.9826718337,-0.2410945199,0.4514377149,-1.2173364974,1.3821512122,0.098484248,0.3825047633,2.8037723121,0.4465272435,1.5994027846,-0.7347458544,-2.1238082115,0.8242382321,-1.8486981193,0.4997863363,1.8020266515,1.2840083085,-0.6434743168,-0.7586684057,1.4941275305,-2.2726198976,1.6370436612,1.5834181516,-0.6155075475,2.1553819143,1.1890636698,0.1302153857,1.1642613896,0.7294289405,-0.5882162402,0.5712146934,1.0274884804,-1.5141958221,-1.3369433498,1.764212825,0.9790331065,0.0548829803,-0.5572905951,-0.9866353154,1.4542462547,-0.4735307947,-0.0241373415,-0.2678808435,1.5074378535,0.0896226587,1.2393000661,-0.8872121316,0.4636413437,0.2808618851,0.1026817771,-1.2663494602,0.5670231638,0.5496875103,-1.2719916076,-1.5684178786,0.5840303076,1.4124987095,0.1304494879,2.1106828863,0.2791733719,-0.8529129691,0.6149738523,2.548905457,1.2228515232,-2.8280104281,-0.2628089178,-0.4041123454,-1.2149573473,-0.0482421585,0.7529411566,-0.4198255186,-2.4417637175,-1.3478127693,-0.6343629638,1.1905649273,-1.3456667265,-0.9959764806,-0.8087684977,0.0560733565,2.1508131177,1.2912075946,-0.5202338968,0.6135905364,0.7208631288,1.3967643538,0.7629516542,0.9317110633,0.7306477963,-2.6868568366,-0.6601983409,1.015957448,0.0232281485,0.7297009929,-1.5794918918,1.0531460864,0.2963183967,0.5817528823,0.2043519879,-0.1318439479,-0.9070998736,-0.1681511834,0.6309776176,-0.9271598044,-1.5059852786,1.954126978,0.5901868131,1.2791218601,-1.4425920424,0.9394381665,1.2816537663,-0.7942314612,-0.342114137,1.5277443075,0.4306128638,0.5560980916,-0.7624196368,-0.0906641527,0.808519987,0.9398211921,-2.1587477152,-0.7696581124,0.6259364956,-1.0867109071,0.4045027371,-1.0781732307,0.0499187614,-1.1606146417,-0.4177666123,-1.4542834562,0.5270852495,-1.5794875184,-1.5763263545,0.0311857647,-0.2569013368,-0.4052603637,0.2195245694,0.7506950461,-0.7203598049,-2.2185417169,1.4725406355,-1.1938011252,-0.3923370841,-0.3495406228,-1.0749609706,1.1948945517,2.0195369879,2.1040576949,-1.137824833,1.9597920506,2.0724116978,1.0181473341,-0.6020050914,1.2959752929,-0.4397874908,2.0335010733,-0.3449314126,-1.6410981361,0.0852015679,-1.4555138689,-0.7718600142,-1.0400096563,0.9873755947,0.90209425,0.9599199587,-1.0426356069,0.0059122387,0.8007795761,-1.1194809392,0.6833024645,-1.0601610685,-1.1614984713,0.9390076751,-1.1966103162,-0.736136812,-2.0911577456,-1.2932503878,0.3006551325,-2.0362286174,-2.4822955547,-0.0409436121,-0.3120713042,2.5431510772,1.2364742679,-0.0151744558,-0.0763048299,0.5842550399,-0.5928113199,1.3733192601,1.8847067929,1.2340051063,0.0115362851,-1.2601964635,-0.2432759,0.9816159448,-1.1048526859,-0.765556122,-0.6457391108,3.379417332,0.4612874056,-2.1500770545,-0.0633905584,-0.3636624113,-1.102501378,1.6917984938,-2.0357195844,-0.9256438108,1.624512022,2.9696652447,1.6004967508,0.5514227256,-0.2142630282,-0.6133967405,1.0764321971,-0.6193230951,0.614744305,-0.2773486856,1.2176413343,0.4441698396,-1.1230449557,-0.1753019008,1.8521930146,-0.5461934491,-0.3775421487,0.27627399,-0.7615484027,-0.7927789777,-2.2038959796,-0.7657065666,-0.1562728205,-0.0655508671,-1.3216652264,0.9671593472,0.3197855672,-0.3568081811,0.1402226799,0.4567111719,-0.3010158886,-0.6267534399,1.2516030884,0.2983751524,1.3479079245,-0.3740127362,-0.0634875957,0.3790177934,-1.2136149333,-1.2800081766,-0.6021890438,1.6578013546,-1.102673273,1.5809520876,-0.9341031411,0.8260889094,0.5296364401,-2.2667421197,-1.3306632923,0.1976639034,0.4427246788,0.1412754024,2.2109811949,-0.2500266777,1.097824804,1.531496953,-1.0190746258,-0.6882928242,-0.3793228251,0.5215566556,0.8192486815,0.1790018654,0.6783530872,-0.0378751691,0.2051696705,0.8523436907,0.5446555135,-1.0488902489,1.4104111336,-0.3720374409,-0.4156175231,-0.5540236534,0.3438770673,1.0869541229,-0.5226509428,0.4579441319,0.1612303092,0.4656277459,1.3901405019,0.063226098,2.8751470176,2.281530119,1.4402955869,-1.9289237589,1.7778206317,0.0715926831,1.2232081749,1.3957077752,2.4138974609,0.0912902836,0.5899467566,-2.8509290694,-1.877789638,-2.3031401859,1.4610106722,0.7525951775,-0.7137371912,1.590844599,-1.7192681181,1.6079315873,0.7305007653,0.7164490294,-1.7557618298,-2.0092284276,-1.7192727807,-0.9937398719,-2.0639021938,0.7185492351,0.0598120024,0.0513477773,-1.1399250961,0.3544385414,-2.3858918909,-1.196414566,-1.8265696148,-1.9761778555,1.0355664422,1.1945144989,-0.6098803546,-1.0924713314,-0.9484350441,-2.3448335865,-0.1156481582,-1.4613646409,0.0998820701,-1.144210464,-1.0062789781,1.6651414544,2.0618410624,-1.3073829467,-0.72920907,-0.9137204291,-0.5899062217,0.4254050727,1.8024951521,0.8013495116,-0.5650822729,1.7605952131,-0.0033528374,1.8266225234,-2.0736340653,-1.6955774828,0.0532472918,0.7741088216,0.3198982255,0.9365840397,-2.0495445271,0.8386457672,-0.1544491032,0.6300090292,-2.217620564,-1.936265106,0.124210275,-1.0196297455,-0.3644913968,-1.3758605722,2.1224196261,-1.0564775613,-1.6192333073,0.2649320008,-0.1909891888,-0.2990664948,-1.3191342654,1.2437289057,-0.7885425195,-0.4888928233,0.4405188355,-0.0595094034,0.3531881359,-1.7097380683,-0.1199640547,-0.3825275379,0.8860824177,-1.2480213683,-0.9816636147,0.3624579208,-1.2755566571,0.5749734965,0.9628209719,1.0726760595,1.3886304208,-0.3849852867,0.4339530848,-0.7131456044,0.7603507414,-2.9118440461,2.5069840594,1.213211948,1.6605918355,-0.2865286252,-0.2958694529,-1.339358738,-0.3778648074,-1.2992213389,2.7670842013,0.4989145089,0.5054087918,1.1442822117,-1.9868349551,0.8658793457,-2.3798854464,-1.0171106951,-0.9556203113,-0.1728806762,1.648395476,-0.8075166333,0.3075699925,1.1751812624,0.53914448,1.2002908637,0.8965413443,0.4209633892,1.4627568106,-1.1847607693,-0.4008987271,3.185166523,0.8632351286,0.2448219028,-2.3113701372,0.7367698698,-0.5038704544,0.9758966068,-1.2015910758,0.2109595696,-1.5754642344,0.2645363598,0.6469604879,1.0995564517,0.6576187198,-0.2074978807,-0.4009576568,0.3626907251,3.0709035679,-0.7744605326,-0.0358131333,-1.7121194808,-1.9143886671,0.6646291569,-0.5236562135,2.8763529293,-1.5869705602,-1.5559128966,4.5119056641,0.8135829071,2.2206952422,-1.0658282331,0.1493934254,-0.7350918779,1.3371718491,1.0653613167,0.6129180391,-0.1047754422,-0.5659185709,-0.2033381728,-0.7240197548,-2.6449747112,0.3971339205,0.5986061859,-2.8554786509,0.563087467,0.1580823318,-1.0175624866,-0.5461769889,-1.6911139422,1.5973792678,1.2494325893,-0.3367948194,0.5751936654,-2.206482603,1.5122395733,0.4606661514,-1.657296715,-0.0908596929,0.1867010075,-0.9740299562,2.686393977,0.0852685946,-1.0508585509,2.8433645479,-1.938927438,0.110060026,2.4949994349,-1.4902280331,1.6180780376,-0.4060060882,0.018380432,0.4569693516,-0.0438741966,-1.5305148438,0.9175408718,0.1516336383,-0.5537396126,-1.7302440482,0.4123110215,0.9266546647,2.2828958237,-0.1692577025,-1.2391003689,-1.3463801499,-2.5587573999,1.762046367,0.9616910212,0.3388526112,-0.9110912733,-1.1048415742,1.0796070835,-1.5216605833,-1.4874727677,-1.0648915982,1.2144408847,0.0749250803,0.3946774946,0.7004662173,0.6485341292,0.0667514674,-0.4554937109,-0.0750482407,-0.0516361945,-0.5468927866,0.0081857129,-1.1745663561,0.1211826632,-0.8984562477,-0.5248512329,1.0933344072,-0.2076882497,-0.6743408676,1.7526466566,0.4412141174,0.4525302847,-1.6317631168,-0.2012129103,0.1970089854,1.2321327837,0.8294151168,2.2671138604,1.2602803611,0.7835231268,-1.9612178362,-1.0923753214,0.9690130874,-0.3260598076,-1.6002231448,-1.449438813,1.8869180812,0.2483470372,-0.9562058229,2.2371906463,-0.0748188036,0.2907190277,-0.7051855202,0.2702818249,1.367826134,1.4001622191,0.9857172097,-0.1248254771,1.7975198606,0.2678006033,1.7083542871,-1.4336710374,0.9642362787,0.0248291878,-0.2719465391,1.2296476016,-0.8608340153,0.2940037763,-0.8023553605,-0.111721903,0.4592921035,0.3854179983,1.1316201303,1.5142266835,-0.7291503876,0.1031219927,0.0342320495,-0.2993882664,-0.1545676341,-1.1372387843,1.0988165292,-0.5731438654,-0.9192769108,2.4198480506,-1.9459538366,-0.1831165819,-0.0268725687,0.5659898424,-0.4407363924,-0.1932853863,-1.8549422384,-0.06136874,-0.9684798284,2.1336896145,-0.1239247934,0.8205956775,-0.8519818775,0.0287783047,-0.1065365946,-0.4605583057,0.08537264,0.1716328815,0.8075156252,-1.2845069681,2.0101888242,0.7218516172,0.4176186431,1.5164544454,0.6319390214,1.0326311671,2.4936530476,0.7760259338,-2.5881006312,1.1515161228,-1.5058624966,-0.2189248344,-0.6379024983,-0.4037249947,-1.2217024895,0.5093593342,1.3760785637,-1.7766380939,2.2282057541,-2.1115899189,-0.6802800068,2.2084688389,-3.0146143918,-0.0346451677,-0.1668737091,-0.884803526,2.0715899268,-0.2738095258,-0.7456365683,-1.789902119,0.666907427,-1.7586400564,0.184625521,-0.918612331,-0.454225136,-1.4256164243,0.7117712599,-2.3688251042,-1.0752184104,-0.1170630705,1.0654504751,-1.3501065259,1.4523695805,0.5516208367,-0.9425528437,-1.9537512724,-1.5713460996,-1.0797052591,2.8530373396,1.2712303067,0.4198274796,-1.1945226269,3.5635857394,-0.1688282389,-0.7356730151,-0.8783157493,-1.1783768158,-0.6738363826,0.4519840164,-1.6155665145,-0.1504206969,-0.5862384956,-0.3596820811,-0.2793961491,0.6491836568,-0.1272936798,-1.3862873979,-0.3167859665,0.702502643,-0.075444545,0.3883233694,-0.0899007432,-0.4168635709,-1.8767159496,-1.4071473636,1.1966490127,-0.3298742301,-0.2236797864,0.1780207788,4.0121861244,1.1170504934,1.4161867337,1.5137549369,0.2462996791,-2.0325375341,0.2507307632,-1.131826539,-0.0336702922,1.6712939426,-1.0849791654,0.3661863327,-1.0667692568,2.8959073025,-1.8474463997,0.1591791617,0.4140273232,1.4730406111,0.7245421301,0.6489583145,-1.4833768742,-0.6116872584,1.2943438706,3.8683606998,0.389316525,0.6945482482,0.7331292037,-0.1561455263,1.1517071631,0.9187662962,-0.3163018447,-0.7008849141,-0.8783298931,1.0656783676,-0.0550514564,-3.5909241085,0.4204760755,-0.6434607161,-0.1652893339,-2.8693511865,-0.8897038686,-0.0826143773,-1.7190158131,-1.4267517016,-0.7213440782,-1.4806139002,-0.6397406433,0.3055857046,-0.2716549714,-1.0911003289,0.0656537332,3.9069250492,-0.8393713305,-0.1481486664,-2.2118585176,-0.8113887161,-1.5116740216,2.2482195175,-1.9161117977,0.6485064028,0.0224275974,-3.0488379995,-1.350792018,1.0379057498,-1.4417986453,-0.0838337437,1.4463017034,-0.989810357,1.7332572231,1.2556564361,1.0586840092,0.1136178648,-0.5665151857,0.9287558015,1.6128340755,0.3304264311,1.1857754717,0.3656501047,0.5310936455,1.3760800391,-0.0456378858,1.5836135826,1.7404129257,-0.5457180172,-0.3046768871,-0.6749945139,-1.7680526219,-0.8792303167,0.8849035362,0.5438735475,-0.00015647,-1.4752879165,-0.777790353,0.5779875051,0.6287159706,0.2659096598,0.1704993676,-1.7164546714,1.6062622868,-1.2134193023,-1.9462465674,-1.2103959019,-1.2629449095,1.2941941599,0.6516229986,-0.9405008385,0.2770506866,-0.6984181737,1.136555674,0.0818680261,0.6635671461,-0.1786331303,-1.3480800083,0.8933045643,1.1117661603,-0.067841022,-1.9349446613,0.6552745215,-0.0729963677,0.4519892214,-1.0563712151,-0.2344068431,-0.8273428568,-1.2134607448,2.0098656407,0.2158009176,0.7002852578,-0.6115699818,-3.731236898,0.1835952356,0.2223279097,-1.5291684733,1.3505439441,-2.4633787572,0.40355792,0.8284066871,-1.1161126366,-1.3123260346,0.6384369746,-0.5971474559,1.3966373448,0.5878439018,-0.0533695791,0.9611478678,-0.4391497353,-1.1867890175,-1.8207419656,0.493191962,2.4616152149,0.5943690026,0.3442007673,-1.0380884313,-0.4471055446,0.4793385652,-0.176953448,-0.2948740299,-1.4724977176,0.7254076795,-0.0279757469,-0.8969985719,-1.1933537873,-0.3981033816,-0.6519488697,-1.0358969643,1.8677959507,-0.3764523649,0.0109478366,2.5287942456,-1.85121421,0.1336986681,-0.0358702494,0.0880084272,1.887876302,0.1889238309,1.0697947008,0.2085573743,-1.2990721483,1.2806392012,0.2026364554,1.5350730547,0.8866900417,0.9093855246,0.0146478343,0.464383528,1.6039601356,2.1267921326,-1.2756173543,0.8778122617,-1.5531466461,0.5047614441,-0.5314223426,0.6230202208,-2.2251559113,1.3316014201,0.3325304889,0.0563844399,-0.5824183435,-1.200126474,-1.9592231261,1.0719825242,0.8981938079,0.886108109,-2.1152398484,0.4098875262,0.9660822452,1.7245299954,-1.5407551995,-0.505828984,0.4163172657,-0.347697751,1.2650093071,0.8748022505,-0.5308733373,-1.1648966136,-0.5572542057,-2.4062498244,-0.9071563953,-1.4425034841,-0.6151235596,0.5846703421,-0.9917073518,-0.9498036397,-0.1674123348,-0.8037590572,-0.3699118974,-0.0265708255,-1.5777563369,0.5385763311,-0.5274117207,-0.3001757503,-0.1657278366,0.6950128789,2.1133687122,0.0910086212,0.8119327466,-1.1138678421,1.7132636936,0.1825645216,1.3733643623,-2.5254449194,-0.7738871403,-2.3026313942,1.0282390499,1.1428409402,-1.8455277475,-0.749308824,-1.787446233,-1.9802659455,-0.904794943,2.1243476898,-1.1962107087,-0.8819515889,-1.8883532357,-1.0734174763,0.97220447,2.2140199485,-0.4246015838,-1.2671134584,2.1966745029,0.5997618832,0.2562782065,2.3559563403,1.8298642379,1.820501525,0.1583455548,-0.7152936836,-0.1099303265,1.1634668204,-2.961028015,0.3109526308,-0.8096854907,-0.3571158919,0.3958886037,1.1148041735,-1.1251005599,-0.0921899916,1.0920788422,2.4749920404,-0.6853971096,0.1950934712,-1.010529682,0.5802041458,0.281298941,0.0823664795,-0.2003005483,-1.8303279353,0.7752975268,3.2899556565,-1.5735456368,1.2378698325,-0.5604236748,-1.1973863703,2.9893458625,-0.2260133093,-1.3098945744,0.2507876592,-0.541265418,0.9301165822,-1.9536830524,-1.5563261119,-0.7886892004,-0.0727054728,-3.0311305419,1.4893356286,1.1305616185,1.8056674598,-1.6444222622,0.209498899,0.539030203,-1.0355373635,0.5969796336,-1.3852164883,-0.6168110455,-1.1927299202,-0.5771852796,0.3679718692,1.2895103766,0.7418786985,0.7582699764,-0.3662273034,-0.2873669613,0.520786983,-0.2583122935,0.4122626062,-0.267161098,-0.0055639677,0.5523112796,0.4507346558,-0.3436740523,-0.4645237158,-0.3526529469,0.602440433,-0.1884478086,1.5321475764,-0.0957932637,-1.9426465439,0.9837377046,1.1881897719,-1.0534200389,0.0781383455,-0.1741872108,2.8378164327,-0.9854342154,-1.5363512719,2.3016162446,0.6478643013,-0.2744000323,1.7852207009,-1.5262033256,-1.4194992283,-0.3832455146,-0.8148498952,0.0557333014,1.5029451666,-1.4421016024,-0.448467048,1.2271843675,-0.0038595338,-0.7897475488,-2.3776593463,0.0729364491,-2.0055024978,-0.2668040898,-0.4930624352,-2.8539454915,0.9472232235,-0.5740591703,-0.2058711911,-2.3459648316,-1.1119745066,0.7194077574,-1.5283773122,0.6395873229,0.7336791494,0.4834071006,0.5245421961,0.2911753729,1.1386500991,-0.6187063631,-1.042304413,-1.2276925929,1.8879341118,0.7593589655,-2.5310592639,0.6520115639,0.8631032758,2.5105343697,0.3417501949,-1.4226228367,1.9567685248,-0.0180933707,-1.7019373137,-0.1333930323,-1.9979375815,-2.6334140618,-1.0908922726,-0.8843450652,1.3736650171,-0.67669492,0.4098689236,-1.4047962116,-1.0995363693,0.7574734844,3.8327404108,1.2013011666,0.6227910852,-0.913789527,0.5843229603,-0.331221751,1.8272271835,-0.2828373956,1.3145393338,-1.996901536,-2.2534583158,0.2605797411,-0.5957209345,2.0240572019,-0.3500868866,2.2481543195,-1.1499149811,0.3297867683,-0.8713504367,0.3238964707,-0.2023515653,0.5737982577,0.6402500315,1.3821419329,-2.4805342447,-0.773263814,0.08604322,-1.4844486301,-0.8701999087,-1.9189807315,-0.0418693495,-1.4136984487,0.5148765826,0.5121641576,-0.6872158703,-0.6132628998,-1.0470687143,-0.7159432316,-1.2086337761,1.8431245497,-0.043329672,-0.3312909393,1.7036121408,0.6691362283,0.9270349922,2.2550268576,0.9370682356,1.1406928634,1.8099898072,-1.6846354879,-1.7204058872,-0.4887115138,2.3979157547,-0.296922715,1.4778948607,0.714715614,1.3599173129,0.7885398359,0.3018537968,-3.4394928165,-0.1366447184,-0.2761593804,3.3186274383,-1.142028052,-0.0022435595,0.664598618,0.4650930235,-2.1836958711,2.9171544386,2.8066832746,-1.9740143067,0.7442929079,-1.7546163918,0.8440958894,-0.2720623672,-1.582701854,-1.8386828187,-0.2116171797,0.2883440134,1.2837386392,0.3280471325,0.4035148657,-0.3966042867,-1.5141377192,0.0744592839,-1.7833362981,-1.1577391402,0.3679604619,-1.7121538868,-0.4996910208,1.9081474568,1.5501258615,-1.8437837221,1.027944447,-0.1936623509,-2.8457902855,0.344340607,-1.1121338646,-2.1612402648,-1.2197042721,-1.0992841954,-1.4964760652,2.4559052359,-1.9640730739,-0.7506404671,-2.1390428036,0.0283666165,1.0958416141,-1.1529335519,0.6499605194,-0.4486016377,1.0927399999,1.9002292062,-0.4739586081,-0.1888342821,-1.9767005387,0.9857504465,0.0571620414,1.0813713924,-0.0638926785,-0.1265692408,1.9281053319,1.2946924864,-1.112607536,-0.0343703854,-1.33300718,2.0806224763,-0.3246792448,0.1243497907,0.7280973283,-1.9450405397,-0.6597723811,-0.2822978166,-1.2351960299,-1.9433888603,0.0163672419,-1.8005612634,-0.5542708957,0.5798702408,0.5536309645,-1.1795121884,0.8484013989,1.6657321063,2.8361662189,-0.8829696639,0.5953375524,2.1406878073,-1.7922144003,-1.3182067188,-1.0320809975,-0.8222457086,0.7337928491,0.3626278313,0.9345754285,1.6247278226,-0.2285804274,-0.392734244,-0.6182784446,1.6901802749,-0.2826165384,-0.9862416948,-2.1098444556,0.4084834652,-0.6139500037,0.2620658991,1.9678086374,-0.0822478765,0.2588045571,-0.5026438333,0.1718890854,-0.3978754658,0.4095315885,0.1573557084,-1.2115509912,-1.220490086,1.2795781454,-0.1260177519,0.919931422,1.5065040209,2.4369056284,0.5954684843,0.7160939897,1.7019066418,1.7229272003,-0.908996274,1.2504361181,-0.2401204236,-0.208954912,-0.0542132663,-1.6652431166,1.8929098988,0.8171189433,2.5009305367,0.3748699501,0.2426868631,-0.9196227618,-0.8015914487,0.3258103902,-0.0665132458,2.0964286206,-1.8968597722,-1.1328510587,0.7010411484,-0.3593165049,-0.7799507304,0.2670076862,0.490110614,1.4999322807,-0.9521332337,-1.3985192733,-0.3563170618,2.4402873808,-1.1168575951,-0.0822021637,-0.5467734599,-0.9817025394,0.9511620881,-0.361421996,0.0572317184,0.2292016818,-2.2062239929,3.3886894585,0.9126997896,-2.5902709329,-0.512250104,-0.6490319805,-0.2640516905,-2.1840646286,0.0939526594,-0.081350338,-1.0868736747,-1.7607220089,0.5070600612,0.4947228476,-0.774051118,0.776486071,-1.3844500493,2.4308837132,-2.0348881927,-0.4576285481,-1.9004836508,-1.6690728635,-0.417972702,1.3968608138,-2.1988963499,1.8188361805
