encog,BasicNetwork,java,3.3.0,1,1437636838059
[BASIC]
[BASIC:PARAMS]
[BASIC:NETWORK]
beginTraining=0
connectionLimit=0
contextTargetOffset=0,0,0,0
contextTargetSize=0,0,0,0
endTraining=3
hasContext=f
inputCount=243
layerCounts=1,21,41,244
layerFeedCounts=1,20,40,243
layerContextCount=0,0,0,0
layerIndex=0,1,22,63
output=0.1718700503,0.9693976649,0.9946035819,0.9734721195,0.9964523391,0.9795459701,0.9989814711,0.0001715026,0.000076177,0.0085657116,0.0075328495,0.2983839329,0.8912125799,0.0005678256,0.9966264591,0.8743458906,0.0411935763,0.2825807395,0.999971669,0.0963636006,0.9754654836,1,0.7585146792,0.2215093538,0.9868120882,0.2973260729,0.9997214046,0.1239930003,0.3852558902,0.0959151738,0.4146620023,0.2361656054,0.9377982116,0.0688774242,0.8621393933,0.2161570577,0.9530243566,0.0004795108,0.9813309544,0.9810463994,0.1301189144,0.0384786073,0.2308326127,0.3332550781,0.143384303,0.0004385498,0.0922455852,0.0008799853,0.2210245123,0.0975870242,0.4875007937,0.7674393566,0.0144096517,0.9550104489,0.084570398,0.6090811315,0.0036575881,0.4181271239,0.0671755685,0.1402081126,0.9557861538,0.7933077742,1,0.1803921569,0.2509803922,0.2431372549,0.2117647059,0.1882352941,0.1490196078,0.1921568627,0.2235294118,0.2941176471,0.1647058824,0.1921568627,0.2274509804,0.1725490196,0.168627451,0.1607843137,0.1568627451,0.1725490196,0.3725490196,0.168627451,0.1647058824,0.2039215686,0.1803921569,0.1411764706,0.1333333333,0.1254901961,0.2117647059,0.4745098039,0.1764705882,0.1843137255,0.1882352941,0.2,0.1333333333,0.1137254902,0.1411764706,0.3254901961,0.6,0.1647058824,0.1764705882,0.1921568627,0.1843137255,0.1529411765,0.1294117647,0.1725490196,0.4078431373,0.6941176471,0.1647058824,0.1294117647,0.1960784314,0.1725490196,0.1764705882,0.1176470588,0.1803921569,0.4784313725,0.7607843137,0.2039215686,0.1176470588,0.1764705882,0.1764705882,0.1647058824,0.1137254902,0.2431372549,0.6,0.8078431373,0.2431372549,0.1490196078,0.137254902,0.168627451,0.1294117647,0.1450980392,0.3529411765,0.7137254902,0.7882352941,0.2039215686,0.1960784314,0.1058823529,0.0941176471,0.1647058824,0.231372549,0.3882352941,0.7176470588,0.7411764706,0,0,0,0,0,0,0,0,0,0,0,0,0,0,0,0,0,0,0,0,0,0,0,0,0,0,0,0,0,0,0,0,0,0,0,0,0,0,0,0,0,0,0,0,0,0,0,0,0,0,0,0,0,0,0,0,0,0,0,0,0,0,0,0,0,0,0,0,0,0,0,0,0,0,0,0,0,0,0,0,0,0,0,0,0,0,0,0,0,0,0,0,0,0,0,0,0,0,0,0,0,0,0,0,0,0,0,0,0,0,0,0,0,0,0,0,0,0,0,0,0,0,0,0,0,0,0,0,0,0,0,0,0,0,0,0,0,0,0,0,0,0,0,0,0,0,0,0,0,0,0,0,0,0,0,0,0,0,0,0,0,0,1
outputCount=1
weightIndex=0,21,841,10601
weights=##0
##double#10601
   -0.0411217727,-0.4735633152,1.8609932552,0.7021986744,-0.7286965476,-0.8259487627,0.4939552192,-0.2568757383,-0.3822696829,1.5045966924,0.4557458185,-0.3499635536,-0.0032338418,-0.0344833926,0.6164795324,-0.8508845904,-0.8553876016,-0.5485890849,-2.3354005124,-1.8730036395,0.542412974,1.8500503784,0.3626962425,0.3909939767,2.7773310109,2.3091784488,1.9067577345,0.4372970456,0.5350990412,0.4969701735,-2.1885888707,0.0373055593,-0.4732496387,0.3248684627,-0.1061249417,0.8149540595,0.0594098798,-1.9851382955,1.3470007854,-0.4899848915,0.0338769519,-0.3920833779,-0.6672431038,0.0632499608,0.7011976108,-1.4727902864,-0.5714722863,0.3080807276,1.135512519,-1.1394783114,0.338806391,-2.0384701644,-2.6801487868,1.0459307406,-1.8172976827,0.1554163482,-0.1783276166,1.52224375,1.9010643571,2.3252259994,-0.8473080773,0.826191636,-1.5201060303,0.5948838527,3.9819636396,0.0994839062,0.2197660786,-0.1465282251,-1.9521603184,-0.7352815928,-1.3669097477,1.916726986,-0.1815487175,-0.4993370275,1.631554545,0.1924214469,2.3707846861,1.7668561778,-0.3243150266,-0.0290588863,-0.9105002375,0.0760883961,-0.0885006078,-0.9880800276,-0.8224064208,-0.1452021214,-0.2244430057,-0.402619777,-1.1326777985,0.8311047352,0.5146994303,1.1291811292,0.9564168676,0.0532393372,0.4097538221,2.2881286479,2.7795688763,1.965931332,-0.8375639718,1.052988009,-0.2831827378,-0.6000603923,-1.2202244275,1.9824297709,-0.9417524955,-1.2672370704,-0.002559354,-0.7234105397,1.2497983486,1.5101987344,0.4469202671,-1.0495588117,-0.2199048813,1.1403689809,0.6986596923,0.7853173956,0.4340416502,1.6516416392,0.1114491108,0.8904862381,-2.0294730292,3.6609498737,1.9986921933,-1.7397556867,0.5684593713,-1.4506334477,-0.1157261596,-1.2154787883,0.6050781851,-1.6245298662,-0.5475820767,-1.3184700704,0.6002390803,0.0691570328,-0.0765750904,-0.5469796922,-1.0321004904,2.9681519697,-2.3822169387,0.6621042504,0.9175642505,2.5594847518,2.2803783303,1.3433440235,2.3634699032,0.5281007913,1.64199672,2.0045028603,0.148110114,0.5634747409,0.6729784886,0.8970575825,0.7989332391,1.5651777185,-0.0559257512,-1.8486174048,1.478313699,-1.5946535227,2.1884888605,0.2530110008,-1.2635633626,-0.039424931,0.3241301461,-0.1515780332,-1.3505985098,-0.6686836722,-0.7968128089,-0.8236467103,1.7602692616,0.7697830773,1.333631311,0.8770333652,-0.1035670663,-1.6971614582,0.9639625523,0.4969134387,-0.360608319,-0.7298253007,-0.9540105227,0.0129789153,-0.8362455982,0.6973248918,1.6713240485,0.2829310626,-2.0708559119,0.303193386,-0.6523832074,-0.8313324702,0.0219153786,0.2454253452,-0.4330887957,1.0070806213,2.3216088567,1.7692871904,-1.1171641978,-0.5159755588,1.7500187533,0.1441408743,1.8788320714,0.5778497262,-1.2764928108,-0.2513829483,2.7917610289,1.9423790082,-1.2746207815,-2.466645116,-1.3266712988,-0.4575084844,-1.0501456838,0.1113642747,0.0390238378,-1.0464163141,-1.3359790813,-0.4221115562,-0.9083543305,0.4561297453,1.5974983449,0.3953651144,0.9340830877,1.2235201757,0.028463986,-0.86309193,0.2964688442,0.587489717,1.2638838801,-1.8384535294,-1.0159642675,0.4614035907,-0.9892776393,0.5962950195,0.3871060635,0.0524124228,-1.252151125,-0.4023636314,2.6190352174,1.6640593107,-1.32627404,2.734185757,-1.579712363,-0.3892879584,1.1167606202,0.960350424,-0.8494937209,3.0423316579,-1.2934496697,1.2596564846,-2.3208367072,0.6286229692,-0.1922135216,-0.4936465586,-1.4571707541,0.9898333928,0.4609565484,1.2772434543,0.5249473192,3.122761257,-0.9454707627,0.2988459896,0.0613448208,-1.0666389545,1.210716567,0.2845741822,1.4448517452,-0.7402215354,2.8214675756,-0.6113641502,0.0040835271,-1.5618157908,1.3741133584,-1.1114884057,1.2624773494,-1.7266322281,0.8599345037,-1.9912924995,-1.2098584708,-0.2799713539,-2.2422623584,-0.8530177251,1.6079805093,0.9060227875,-0.9404843752,-1.2055918863,-0.6927600378,-0.9828535242,-2.1533888451,-0.2970984353,-0.9968074205,0.6243710599,-0.9978091258,-0.333926443,1.2785031515,0.8679091451,1.2107764326,-0.938054564,-0.9406869437,-0.15421689,-1.0949164157,1.9015945568,-1.4502977441,1.3607288513,1.1268774931,-0.1411549076,-0.19909243,-0.9385370125,-2.7949310646,-0.1374398809,-0.6397069474,-0.5157007892,0.9427750312,-1.0298790764,0.5519793016,-0.3973025753,-2.2193826277,1.3744576585,-1.9876928498,-2.6267744481,1.8782403835,-0.577699529,-0.5790687492,0.7333175155,1.7917309596,2.0397308667,-1.6457245374,-0.1978993007,-2.1278225958,0.6844622275,-0.4357990523,-1.0628297821,-0.6697316009,-1.5172028338,-0.334880094,0.1802011667,-0.9743614774,0.3432404735,-1.5992096265,1.71266254,-0.6780574498,-1.6576906631,1.1878200957,0.3952068201,-0.6612897605,-1.7174889175,-0.6269077287,2.0286151366,-1.3876937231,-0.8406190363,-2.0200564399,-0.9544223239,-1.3693691287,-0.0004691653,1.009074914,0.507751859,-1.5009798043,-1.4096114491,-0.0385207044,-0.5415714342,2.0208311416,0.6120589292,0.2566407453,-0.5894502569,1.2470776289,2.5815432099,-0.7896434936,-1.848816027,-0.2389180031,0.8231745706,0.1490741501,-0.5155124846,-2.7307179652,-1.6753863854,0.808696401,0.0428249037,-1.138312763,-1.0629730504,-0.0934430895,-0.6662025094,-0.0044578009,0.1549422992,-1.6021392121,-1.2736875937,-1.1943190844,-0.4940440876,-2.2386901859,-0.2227344489,1.296434831,-0.041819708,0.2118477447,-0.3666809968,-1.389891817,2.8633274418,0.7343437499,-1.4398524307,-0.7409545934,0.5218498152,0.9681184624,0.2553086461,-1.0103122535,-1.1195714073,-0.9635063243,-1.6235649441,2.4575900163,-0.9613844672,0.2661260706,-0.5961814984,-0.8184680397,-1.3584680987,1.1479597774,-0.6767462953,0.7342396358,1.2225500065,-0.764045186,-0.2298576254,0.0182774452,-1.210123596,0.313528408,1.5480118654,0.0525062954,0.1982902755,-2.915828507,1.1344607741,1.8273519901,-1.9999556179,0.3303365576,-0.4439158118,-1.0939794842,2.1929849248,1.8070520287,0.9998113568,-0.9324034945,0.7889682486,-2.0338836325,-1.0744339624,0.3096827043,1.115744272,-0.6189106408,1.4390857056,-0.2154865074,1.3947103631,-1.0332451008,1.765278155,-1.1824367472,0.3128927478,1.0042122891,-0.0281773149,-0.9941414267,0.0839346944,-1.6090263352,0.0102882092,-1.0209133377,-1.0316301686,-1.4322776127,-1.2951658732,0.5189955302,-1.7734354403,1.0517492423,-1.0883294455,0.6970068502,-1.1527093613,-1.1861953069,0.3402154992,-0.8583755104,1.1726492695,-1.3928999454,0.2492942196,0.4613228265,-0.5416512893,1.8647461516,-0.7014682609,1.643034357,1.0826578259,-0.2132008889,-0.4325117953,0.0359330795,0.4820938648,-0.4226310876,-0.0666958123,1.3105465384,1.3908051551,-1.23573407,0.0639724705,1.4677258703,-0.7598742514,-1.9127854527,0.2690892228,-0.9265236713,-0.8156711905,-0.3841897036,1.7077891169,0.7788819414,-1.372306257,2.2470347542,-0.7605844861,-0.5147775977,-0.0570813937,-0.6847303132,-2.327648798,-0.4248887161,1.9640357578,1.3518346934,-0.0600600833,1.1311490443,0.2077607545,0.293853305,1.7335983773,1.3672977013,1.4811442569,-3.0691922866,-0.3064663898,-0.7190478048,1.2308239086,0.1225987254,1.5732465264,-0.5962447989,-0.9394369115,-1.0997633736,1.7009909894,-1.0341917529,-1.2500368245,-0.2242015331,-0.0627372388,0.8780564504,-1.317950474,-2.0217070496,1.3859008749,0.3123476084,-1.8501683074,1.7659921566,-1.455399247,0.3065947839,0.636334274,-0.1927235152,1.0209631805,-0.1157151117,-1.610311176,-0.9584773768,-0.6945089323,1.2321186553,-1.6165760774,-0.6365797555,0.0932208325,-0.5283600573,-1.1172542394,-0.0139016772,-0.8090420083,-0.1347646535,0.9906269003,-0.7103487965,1.5646604698,0.5699310876,0.447328691,1.7211697017,-1.0686577479,-1.6991293424,-1.7886517705,0.9524163772,-2.5193625356,0.1588697579,-0.1611364426,2.5991404453,2.9959532065,-2.6083959625,1.0540043867,-0.6832861623,1.704331162,-0.0880021281,-0.1655589948,0.7052995858,-1.0307579629,0.5886674732,1.6433369444,1.2262974025,-0.2864822224,0.0859615894,-0.1577094606,0.7872160305,-1.5060353655,2.2088994372,-1.0439674542,0.9851827812,-2.3673909322,-0.7541723971,0.434355789,1.99978707,-0.1712312759,-0.7413535582,2.409345805,0.4055405404,-0.4552793118,-0.1795488595,0.2091902169,1.4249307687,0.4909009609,-2.1719305805,-0.2364899953,1.0705147393,1.0820115134,1.1045908872,0.5225347722,-0.1589043921,-0.234211318,-2.0003805376,-1.2814907542,-0.1433549838,-1.6100263493,1.6629441958,-1.249257042,0.7698344697,-0.0702103174,1.3318091744,0.535039556,0.2837887204,-2.4321877742,2.4013744805,0.2680898464,0.5071752058,-0.9547359186,-0.4713351633,0.6684270904,2.7747259123,-0.2500001947,3.7836957431,1.8387102388,0.7917939795,2.5745150884,0.2241981018,0.3006336905,1.3636466785,-0.6428802614,0.4545950266,1.1309949554,-1.5064884496,-0.0379440409,0.1467482278,0.44074718,-1.2686067734,-0.4179519352,-0.4815354417,1.3066198368,0.3786653488,3.0588197002,-0.9387939825,2.0488216623,1.2158406112,-1.1192106777,-0.4699153474,-1.8010906832,-1.1294607254,-1.6200235546,-0.3433695571,0.3263221875,-0.9693400659,-1.3681228548,0.95617778,0.1931623085,-1.616333381,-0.3652037433,-0.7243676822,-1.4765028499,-0.4301042912,-1.4030755323,-1.297834424,-1.1799467335,-1.4397918565,0.3113109057,-0.7577152424,0.6064929509,0.006264298,0.3246158844,-1.4812362686,0.7696875049,0.5386561857,0.3314567813,-1.0441053422,2.0282937799,-2.1773804122,0.238284692,0.1508698056,0.9414241513,1.68913989,-1.2021470816,0.1485510274,-0.0223280387,-1.2825076012,-1.1411272142,-0.2899668832,-0.7111205168,1.2241084299,1.6259109947,-1.7749102351,-1.2522764605,2.2862723517,-1.1148786222,-1.2523997023,-2.6919989589,2.5989544515,-0.8561605218,-0.1484371271,1.3757373835,-1.2733020082,-1.0982326225,-1.662177677,1.2230358437,2.8853313358,-1.1019587652,-0.4806536627,-1.33411914,0.9560642275,0.5448947832,-1.0540307911,0.9836579417,2.7335222167,0.4997093075,-0.0684869098,0.7002274338,-0.6455395722,-0.0563330249,-0.7505494865,-1.1143601492,0.3575238845,0.6325961884,0.7541262267,-0.9976417798,-0.0564425624,2.38866984,-0.6428044177,0.718666677,2.0644174675,-1.8497143126,-1.3133027459,-1.2255149572,-0.3505066869,2.0051575748,0.4240662729,-1.2645742953,-1.5800376583,1.2690731,-1.1093293566,-0.723120176,-0.1266960741,1.4180671065,-0.7372244738,-0.3655532486,-0.3339800667,-0.9865158849,-0.6567807437,1.4354472755,1.5238105486,0.8790126205,2.8124120822,1.8994761789,0.9468527106,1.7105132191,0.1772088683,-0.9633481076,0.0063853843,1.3550391048,1.6641859578,0.8662897569,1.5276415418,-0.1076592915,1.1880047336,-0.0188052687,-0.7541194136,-0.4778155688,-0.4258947993,0.3081234194,1.4342196626,1.111954334,-2.2375163926,1.1495856642,-1.0805995574,0.1244131764,-0.6521790861,-1.212259348,-1.9666351572,-3.5249605313,0.8037014733,0.04540337,-1.9375194159,-1.5091484402,-0.1216018192,-0.9143870833,0.0547894846,-1.5425031436,-0.7979814134,2.0326832507,1.5582559583,0.588157562,-0.3870961966,-0.0045895953,-0.4600276308,-0.7529504434,1.0847248883,-0.6848308638,-1.0834753061,-0.557150259,0.4381237323,-0.2715336533,-0.2022859692,1.517228725,0.2833104385,-0.0963901503,0.3701144091,1.8033020811,0.3561089585,-1.0730599697,-0.706282775,-0.3766446546,1.6642658876,0.3963781637,-1.8299154077,-1.0238229325,-0.0337369479,1.564136529,0.8884388524,-0.3874730461,-2.2514074282,-1.1244354724,-1.1911020503,-1.1184012012,0.2042152042,0.6858071687,-2.0565861048,-0.6335450635,-0.9585550079,2.1296411807,0.4982409379,1.0965960713,0.394678323,1.0307964205,0.1655301568,0.7967669142,-2.724860193,1.0427901099,-0.1793217134,-1.3911988158,0.1072979514,-1.5990363855,0.6381544585,1.2822998862,0.427719866,1.3758042273,0.7875408117,-1.2201035395,0.6184518447,0.1235411456,0.5436149101,-0.5845718389,-0.6525724705,1.6199969985,0.2725375299,-0.7359702882,-0.8000005595,-1.9830374298,0.5134340406,-1.4982469122,1.5479642763,0.6191830567,0.1974347735,-0.7933864145,2.4318417207,0.4490277642,-0.3081308907,-0.9239122506,-0.1585191721,-1.2081752993,-1.5254974356,-1.3302036458,0.7448765991,2.5435561315,-2.4111643436,0.8446015094,0.768765298,-0.7939516044,0.334435024,0.9892284366,-1.4597832884,0.3565151134,1.2030845767,0.0187124175,-0.1400987564,1.0852552472,2.537547428,-1.139886268,0.7132512517,2.3885449753,0.6084339452,-0.2822064665,0.1194200365,1.8890883896,3.0447112835,-0.048966509,0.1006658916,0.0270182183,-0.0375868374,0.7599537429,-1.9194033914,0.4542269767,0.4622461524,0.3197028611,-0.4416482681,-0.7354704922,-1.1170972682,1.0615180791,0.4473101656,-1.8028197879,-1.9354297376,0.4976883049,-1.4924140567,0.3568949624,-0.8473758996,-0.5161387702,-0.0222443577,-0.7254698305,0.3269186327,0.10860493,1.1054821864,1.1612965996,-0.4479271136,-0.558614313,1.5312846095,-1.1260150362,-0.0317280104,-0.2845189209,2.3183172468,3.0057797106,-0.6201671155,-0.0711968656,0.2368348628,0.4429945361,-1.174015748,0.8906460829,-1.7703648572,0.2360505185,0.0470350789,2.0566113475,2.8158042301,0.478516972,1.1203291384,0.4588405605,1.5264979812,-0.3309977286,0.8383288157,2.234148506,-0.5417952562,-0.8619346279,-1.20235026,1.0479823316,0.9899795094,-2.0472615406,-3.0164315301,-1.0284442828,-0.8073414863,0.0371803129,-0.5897078226,0.8024459055,0.4371928373,-0.0224697066,-0.0983461423,1.0491724987,0.2703851479,1.5170721336,-0.6800989047,-1.3492244198,2.8701262932,-0.6660619853,0.0217762574,-1.10255085,1.9734899637,0.2217985521,-0.0153355091,2.4837864066,0.8072429484,-1.0073630814,0.5457731479,0.188953763,0.9822592867,-0.1713502888,0.5250316922,-1.8454334442,0.2732916819,1.4578194387,-0.8702240313,-0.7188975213,-1.4490075848,-2.2570747769,-1.311271168,0.155219806,-0.2781738643,0.0051838571,-1.2302772626,1.6603264703,-0.115715709,-0.83834379,1.5988018066,-1.6964364735,-0.8424313271,-0.5449415949,-0.7863692434,1.4279891899,0.5962014631,0.4954831386,0.7130633575,1.7319151425,-1.4662174889,0.5484192592,-0.7449973844,-0.8384762255,-0.277436314,2.087396783,0.3235347794,-0.6029465719,0.4740616797,-1.0936415427,-0.1832878802,-1.4242653077,-0.3195632873,0.0721053156,0.714130197,-1.1082410964,1.5530756031,-0.4625631044,-0.8929311617,0.4703471047,-0.2938085597,0.7489151477,-0.5343291063,-1.2497488029,-1.6221143663,0.8635750298,0.2810811987,-0.2292136065,-1.2432159384,-0.4192846742,-0.4859177951,0.794826758,-1.9901315081,1.5682456241,-0.5433929017,0.2969712728,-1.4501630715,0.3185053794,0.0576109511,-0.6937568586,0.1779109336,-1.9428375536,-0.0341085083,0.7621309249,0.1053501407,-0.3841710527,0.6240795769,-0.0296677046,-0.4032069605,-0.6070777841,-1.4654260228,1.3546298547,0.6870576922,1.4791723315,1.7919913615,2.0788449042,0.3523606822,-1.2937225954,1.3024621016,-2.0117949696,-0.2245224859,1.823464119,1.7696479238,-1.439480544,0.5571389558,-0.9257980867,1.3853668361,0.8405552015,0.0995908586,-0.2859192328,-0.3965787629,0.0368807106,-0.6658342407,0.4881133336,2.998411926,-0.0803080692,0.8597568709,-3.1486210747,-0.0726109693,-1.0888164059,0.367377886,-1.9055345424,2.6449028703,0.4808407811,-2.1218701853,1.8047336169,0.4449369805,-2.9062353202,0.9271330449,0.6926452136,-0.0843683142,0.0710511585,3.1506806826,0.5803273191,-0.2955774961,-0.0937868455,-3.3179075661,0.2726476313,-0.5602245294,-0.5343572142,-0.9060318635,1.3019028154,0.2475859116,-0.828432861,-0.8706079065,-1.7566658526,-0.9764770898,2.8417747279,0.3798792397,-0.6480947058,2.583283905,1.4703808146,-0.8168516126,0.0767266148,-0.0388938377,-0.3494781582,-0.5811174184,-1.7083231431,-0.5190354341,-1.0646008938,0.1880562744,-1.6085619477,1.5885909176,1.24434242,-2.2624763229,-1.8526543409,2.1420204243,-0.3367748086,1.5928882434,0.6690395692,0.8098323705,-1.745708309,-1.5423481823,0.508972737,1.4677027952,-0.6375689891,0.5829177696,0.0765119302,2.8327471822,-1.4844782758,2.1320324122,-0.2128210183,0.3880631295,0.2243631546,-1.2520599856,-0.6978832726,0.6446165523,-0.6066544868,1.4484935849,-0.4441149189,1.9566865894,-0.4095088712,-2.0358878982,-0.4870181745,-1.5158789333,-0.8640185386,-0.1307377419,-0.9131147876,0.0498945235,1.1164282272,-1.4830871622,-1.9381488997,0.4682556861,0.0999112143,-1.4025403843,0.965785466,-0.8704229666,-1.0064584478,0.0116381824,1.3534790382,-1.2679909435,3.588815482,-0.730145983,-0.3408473687,0.1289071863,-1.5008609028,-1.0661490045,-0.0465295483,-0.4342001608,-1.6525729463,-0.5053940341,0.1269879104,-0.3702327527,1.081385768,0.4320434403,0.532792419,-1.5270280101,0.5808267214,-2.5377550929,0.8583456056,-0.7855792972,0.8333805287,1.473789402,-0.394843754,0.4132135353,1.6379989935,-0.5709649212,0.0151502571,-0.6935998347,-0.7054875444,-0.8170519512,0.6132429727,-1.3832897856,0.0544524981,-0.2272811742,-0.9988518418,-0.9872598124,-0.4919760936,1.0405603138,-0.9725785926,1.0204548672,1.1013468037,-2.3845431104,1.4475792039,0.3842504554,0.7536985819,-0.2086220949,-1.8051998419,-0.1126029828,-0.8723246556,-2.6533588429,0.2276997112,-1.0094005368,0.2258579077,-0.108738708,0.0769063282,-0.0759248313,-1.3165151263,-0.2418913026,-1.7207357106,-0.8865071904,-1.1153650965,-1.8694053656,0.254310698,-2.2205456431,0.3007889127,-0.5428477757,1.4801630282,0.0445600245,2.7785171162,-0.1813844769,0.653159568,-1.4896390789,0.3292876481,-2.604108782,0.4705166398,1.5496323852,-0.3147754199,-1.8799851144,-2.0059305414,-0.4332356625,-0.006683575,0.0912801261,0.3026900961,0.1352646929,-1.4426832592,0.6641695476,0.794766458,-0.4711448009,-0.2355929816,1.1024061052,0.6327643081,-1.1403488482,0.1776015398,0.119179478,-0.0771246272,0.697377672,0.6409090125,-1.2362591591,-0.3402548576,0.2672902427,0.3326097403,1.3624296992,1.3913241619,0.5733462254,-0.5896726299,-1.3049241947,0.6267432482,0.859874472,1.6995561867,-0.4828931671,-1.5182519966,1.0686134413,1.2043470869,-0.1202869815,-0.9202363981,0.4650998418,1.4290789649,0.7815293983,-1.7102752488,1.2538200466,3.4143290179,-0.7778054943,-1.193298637,-1.0502076999,0.4588961916,2.1269984809,-1.0322927128,-0.887460594,-0.6838499472,1.0036552173,1.0606992461,-2.9632459534,-1.3197543228,-1.0925819534,1.274923805,-1.9301467554,-1.0053201551,-0.0715612538,-0.2006752563,-0.3105027359,1.1042051962,1.1269796035,0.5219723683,-0.5295891402,1.4830235916,-0.4546195766,0.7144143777,-1.9365299932,2.7024498992,-2.5348066997,-0.4459187128,0.5240351058,0.0625735821,0.6646830469,3.1469976321,-3.4718872318,0.1691943073,0.676521876,-0.753257434,0.0432925036,1.0071422594,0.0811681929,0.1783220132,-0.4135319423,-0.5816667162,0.0691834806,0.7434025755,-0.7205636999,1.3179234614,1.1625868257,0.113308509,0.3317057266,-2.0997744662,-0.780799296,0.8551118895,-1.4918829983,-0.8880780346,-0.3730027236,-0.5547296311,-1.5487643954,-0.5871300403,-0.1567652709,1.2772119704,1.1207147669,0.6941818221,-0.2827510627,-0.7065131889,-2.174479139,-1.8734979646,0.3816430377,0.5801054013,1.2448564071,0.0178943906,-0.8331969748,-0.8054002515,0.4775723554,-0.4330316962,0.9409326425,0.2370409533,-1.4581368841,-1.4849851121,2.8508092781,-0.0254984195,0.6103463973,1.2614819677,0.5281618487,1.1229021856,2.3286855513,-0.3876286659,0.4923880202,-0.1428103086,-2.6327900916,-1.2913889921,0.262023783,-1.9703785902,1.1950690861,-0.6503237927,-0.2907857836,-1.2866647837,0.1727649908,0.7333183323,0.9238751605,0.0127557117,-0.4972145229,-1.6609297067,2.7365634869,0.2795425077,0.2599856222,-0.5715203971,1.5733856062,1.7668387934,-0.4169043532,-2.5328927091,1.8984972863,0.8629651578,-0.6786384414,-2.0552351264,-0.7570723611,-1.5011685487,1.0996598463,0.6459988318,1.4026711943,0.5857941402,-1.8749021571,-0.4612649986,-2.1295398993,-0.6629299182,0.2029276725,-1.4585102112,0.4157601833,-3.232977323,2.0817019168,-1.4641061412,0.5912663429,-2.9021359796,-0.2288767415,-1.016718979,0.5686348918,1.0657824652,1.7602445788,3.1288575115,1.7593932417,0.7300319936,0.8052188333,0.6415513996,0.1003845431,2.7007737778,-0.6203342506,-0.4897245981,-1.7240784628,3.0702963153,0.8119445083,0.3661261692,1.8644441105,0.012420797,-1.9869443911,-0.8060621182,-0.0062911936,0.2618354926,0.1628968494,1.0679727538,1.8021587317,-1.2017933699,1.5860641602,0.4322235598,-0.1490090063,-1.1255203577,-2.1684975686,1.9204970983,-0.0995840039,0.7055947286,-0.3693032197,1.143463954,-1.3908843719,-1.2697043295,0.7301498985,-0.3200339552,-0.4575704538,-1.2501443659,0.2275317595,-0.0429331948,-1.4127496745,2.9672291383,2.7367280463,1.7034662812,-0.4045780193,0.0522925025,-0.4837090204,-0.1995828202,-0.9098764947,-1.9884211081,-2.7034970485,0.27975014,0.2416766935,-1.067434442,-2.4752914425,0.4962616676,1.6478983913,-0.1669120143,-1.3797549988,-0.6661052761,-1.8461882542,2.4394109143,1.5722634706,-0.62203011,0.3933373967,-1.8233182027,0.5681584625,1.3592593781,1.3787532291,-3.545081491,1.3781876108,0.4441526144,-1.0045108631,0.1112702386,1.3231113406,1.9042184076,0.683968127,-1.265295846,1.0679824997,0.962534557,-1.0475253539,0.0156233276,1.8074179829,-0.1200169327,-0.4027443759,-0.7569624447,1.2859151825,2.074551922,-0.4632093562,-0.5168343776,0.7854843817,-0.2802368756,-1.8498840171,-1.8897585744,0.2492705047,-0.8375922329,-0.1346545102,-0.4558599411,0.2522100814,0.5920639265,-0.5839474832,1.3527985909,0.0875423372,2.6251327337,1.9054982728,-0.8960716913,-0.400872134,-1.0532648706,-0.351363586,0.2476762559,1.4217852339,-0.9759791817,-0.5607646175,1.7409621291,1.4008538481,0.3688490412,0.2477010993,-1.0782903811,1.6467846396,2.717761683,0.4170608095,1.4330426131,-0.8229821434,0.9758558937,-0.757253963,-0.1893552494,-0.1431810526,-1.5990002039,-1.8204215051,-1.874373099,-1.02738347,0.1152136045,-0.7415684034,1.6096232641,-0.7824602193,2.0553350547,0.4348597123,-2.130540764,-1.6279915275,0.3904281764,-0.3036139276,0.4463471045,0.0496279592,0.0538319162,0.5906529033,-2.1101524163,-0.4293317785,0.440286322,-0.7011225798,0.6058139279,-0.9524472924,-2.1633469649,0.7969745236,-2.1228841745,-0.5775709475,0.4360506445,-0.468447228,0.5358154848,-0.0589838194,-0.1285000497,-0.7744782719,0.2701982766,0.410000217,0.2083641236,2.5196560684,-1.5147425877,0.0346815904,-2.6721539034,-1.3295512675,-0.6285158346,-1.9747390811,-0.4808851135,2.9634725652,-0.8234817795,1.1230363631,-0.077107196,3.1691187469,0.3053939382,-1.0302739939,-1.6988566964,0.2763817044,0.356037506,-0.5267994512,1.6493443175,-0.0374348753,-0.6190571369,-1.7915701022,0.72458192,-0.9934608049,0.0464378403,-0.8454612201,1.8456031988,1.1064533415,0.7008941407,0.6187760761,3.4648005076,0.9742401855,2.0890427478,-0.4136945254,1.6792397484,-0.7160447839,-0.9212006722,1.4387602329,0.8493859709,-0.065584387,-2.2142099985,-3.8148370426,-0.388686009,-0.4977470314,-0.4482528817,3.7616678868,0.3139581454,0.7464469564,0.6339079987,0.7875919364,-1.0278203477,0.1691847752,-0.7455355687,-2.0333373421,-1.548335697,-0.0765271898,1.182673331,0.3853751648,-0.9871570602,-0.4282725325,-0.2296879863,-1.0645008439,1.2456611169,0.3407445819,-0.5167690835,-0.9448390345,2.607487524,1.8938860001,1.8266884671,0.4574110185,0.6303907558,2.4437338538,-0.6841839724,0.3239271254,-0.226954786,1.2859803254,-1.8191231161,2.4331995118,0.0495865341,-0.021098927,2.886704752,0.3010646491,-0.3782721319,-0.5385540074,0.76362494,-1.6688079881,2.4320257005,-1.770397002,-0.8665940784,-0.2662607525,1.5946527118,-0.2686371949,-0.5827547592,0.6701274932,2.3237973128,1.619167002,0.4407386966,1.0202217993,0.426020726,1.2171995691,1.439749772,0.4034437005,-0.7587075734,-1.738903917,1.9137069892,1.5721729,0.8099194994,1.3145109154,1.293147096,-0.4370029534,0.4258249511,0.1439776607,0.9515356838,1.7792971213,-0.5201012405,-0.9563591331,0.4704036421,-0.061874038,-0.0201893742,0.3825049906,1.624701948,-0.692720178,-0.42532933,-1.3142359255,0.5987195038,1.2228520399,0.1498401539,-1.2841411173,1.073876598,1.2817425133,-0.8713112731,-1.3656165897,0.0532609909,-0.1093944518,0.4406000544,1.1303692977,-0.0193311446,2.1187239561,1.051073787,-0.7683861664,1.5380304884,-0.0654303015,0.3154887987,2.2141404833,-0.6948165933,-0.4332337732,-0.1411073641,4.1635935642,-3.4776384,-0.0929909448,-0.5133141565,-0.6594097304,-1.5645936002,0.2399949886,0.9508388346,-1.0225161617,0.2343243339,2.0065848433,-0.7269858624,1.5360053762,0.4799843616,1.8523177182,1.8400627439,1.81804562,-0.6713064121,-1.4315452993,-0.7650901469,-0.2456157925,1.9642550583,0.5359719145,1.2343558613,-0.8303361016,1.7093965442,0.3752177769,-1.3603423282,-0.0439437023,-1.0489972249,0.5762566814,-2.2475938099,0.8955138956,-1.9667508287,1.0299161607,0.9356650449,0.2038445724,-0.376786873,-1.0082148494,-1.125434182,-1.0544925679,2.3212389662,0.9198183406,-1.7476458603,-0.1109235658,-0.0509020655,1.390545112,1.3989979752,-0.4483364462,-1.9523585029,0.2864827517,-0.6038747105,-0.6870655417,-0.5030091708,-0.0886564772,-1.8924054276,1.1709367923,-0.2745699254,-0.1951331724,-0.2492482388,-0.3590167812,-0.2382712177,-1.5879608092,1.9429936204,-0.8412851863,-0.1083883461,-0.6906027016,-0.113149811,-1.4190291923,1.0328334888,1.2049133335,1.6533741253,0.6704699619,1.2749763698,0.8926950126,1.211785807,1.2324313751,-0.722336079,0.9588883722,1.8006816486,0.602644638,0.2108964414,0.1602870246,1.5781700083,-3.4372987614,1.7961055001,0.8975983725,0.42646745,2.643366718,-0.9158410788,-0.5352621382,1.1520523487,-1.3218803632,1.2995661773,0.2672806028,1.0899043436,-0.1853279308,1.7367833711,0.6161673804,-0.0184477217,-1.1297937639,-1.4043604676,-0.4878341238,1.1753638875,-0.7964414471,-0.5712709854,-0.9903781963,0.8557374467,0.4415582214,-0.9365850118,1.4947913635,0.5304979532,-0.7942421784,-1.0671562524,0.468212793,1.2870588669,-0.6782253024,1.0545135051,0.6834866098,0.4848807825,1.5554502314,0.540932408,0.4686127667,-0.4090020603,-1.3674789555,0.3037123554,-0.3722913197,-0.6018345303,-0.3176712728,1.7143612647,1.4104861945,0.8267641575,-1.4255106286,-0.5831468136,-0.8060640627,0.2305543919,-0.0252629073,-0.6478560596,0.0531167314,0.5025262093,0.0651541834,-0.8293183687,-0.0651709997,3.0116080366,0.5661730455,2.4257948787,0.0251629521,-0.9006499235,0.2557657898,-1.4292093891,1.8033040014,-1.6982001658,0.2742759966,-1.2615832284,1.0940549503,-0.4237257904,0.4917879686,0.1627416552,-0.5428559029,-0.3690804229,1.4405422389,-0.7062831854,-1.0044823338,0.4634267306,0.1095215346,0.4029334666,0.0295924172,0.4902697351,-0.1939332926,-1.1436231692,2.2588982525,1.4815819338,2.5190339734,-1.7241672961,-0.5509789981,-0.7365515299,-0.9024706575,0.1232820466,1.0544222622,1.8391940223,-0.6060402688,-1.161401898,0.3719830112,0.0470963143,-0.5711537119,-1.3072869636,-1.7947281909,0.1729482204,0.0083932115,-0.5140746631,0.1549705828,-0.8998167038,0.0528323346,-1.233862388,-0.8021078647,0.3100781427,1.1695818138,-0.3437529683,-2.8560791754,0.0882757413,0.0307644079,1.4938154514,-0.8889037861,0.1146071353,-3.2808352266,-0.95681447,0.141608555,1.1615921631,0.4003601708,-1.2083267275,0.4248839241,-1.4351551071,1.1791312274,-1.9507946048,0.1563854524,-0.9167815565,-0.949913279,-0.3988659469,0.0395471691,1.0496994446,2.2100406237,-0.0815013414,1.5797568525,0.5432032678,-0.9216671051,-2.3262860761,-0.3166489164,-0.2344256911,1.0320730786,-1.8244904995,-2.1671215758,0.1472934131,0.8715696518,-1.2007970447,-0.852898475,-1.7517337833,0.4010438886,-0.800331223,1.5372603313,0.0146484451,-1.0876713211,-0.3694162884,-0.7266823376,-0.3006193378,-2.6363520801,-0.651211216,1.3122945178,-1.1573003477,1.8805235214,-0.4878651106,0.8218202091,-1.1084000455,-1.5228155377,0.1709204547,-0.4671446209,0.1993838369,-0.0813642709,1.582994612,1.4975335582,-0.0812713643,-1.7067444799,-0.8515253231,-0.7984002463,-1.4335781956,1.3041627983,1.3253279836,-1.2836878455,-1.1288705742,-1.7196493696,0.369131405,-0.0908163194,2.2206417544,-0.8972470725,-0.8656183412,-1.374375223,-1.4789588239,-1.4105316256,1.5894325984,-0.0795588668,-0.6981907801,0.2386526032,0.3960772815,0.1943809671,0.8149270828,-0.5176285855,0.8016294057,-3.5632885876,-1.206706161,-0.5285686908,-1.6472374069,0.3201889562,0.6964586075,0.7866710315,-0.7559336049,-1.913481057,1.1030842361,1.0982566876,-0.4529015937,0.2897379754,-0.3888213415
   1.3602596483,-0.6055876458,-1.7488530189,-1.4961419311,-0.9016519708,-2.354973445,-0.6162273248,-0.2578372963,-2.3496732215,0.251241334,-1.1294434883,1.4157514885,1.3386113404,0.2439298541,0.4355432095,1.0476229037,-1.4138942521,-2.5519642754,0.4517878233,-2.6821387744,0.2891269627,-1.5236775894,-0.7663707828,-1.8845022594,-0.2839474781,-0.9523555522,-0.6605982749,0.9522569181,0.3324733338,-1.5792240673,-1.9414462454,0.0996068703,-0.510630467,0.7294079797,-1.4053271327,-0.0670109022,-1.1653546299,-1.4257689825,-0.821386297,1.0705706022,0.4193206005,1.7791684207,0.3779747455,1.666896301,-0.547949422,1.2174603703,-2.6515405207,0.2963155353,1.4612948868,-0.6759091137,-2.364121025,0.6764719487,-0.7797405925,0.0729205238,-0.3686242011,0.6262361901,1.1476914599,-0.6416322203,-0.5768381893,2.2994480133,-0.1774394757,0.0009038414,0.8964925796,1.9913629359,1.4320745282,-0.4636954442,-1.096028794,-0.0192321015,-0.9090157231,-1.1668053577,1.6510471108,2.1113323721,0.3209897304,2.6886167269,1.4291783162,-0.5851185218,-0.5875421143,-0.5242870034,-0.254851595,-0.2135318563,-1.0845852963,0.5407767735,-1.3423027638,-1.2425142576,0.0109872545,-0.5486309856,0.4071610263,-2.4795868062,-1.3810644581,0.8063138069,-0.8335642949,-2.1908581369,0.6873973943,-1.3262836883,1.4481510101,0.116930785,-0.3297960022,-0.7834005008,1.0560925692,1.1023773459,-1.6167284188,-1.9842431393,0.7510017449,0.4362203863,0.4588179993,-1.2306017585,-0.0847431403,-0.7474844419,-1.3659822204,0.9671487097,-0.7932077144,0.1618754005,-0.4831915455,-1.3644826688,-0.7566963379,-0.2634837545,2.0323759645,-0.5777313857,1.8056666455,0.9990222465,-0.2151843417,0.5338270839,2.6076090044,-0.2285524128,0.1789152538,0.2326951699,-1.6088612388,1.2228198544,0.7418071031,1.578670437,-0.3318824486,1.6663189683,0.2706324223,-0.9252699674,0.5776934171,0.5583203348,1.2737238679,0.1089538623,-0.9297722425,0.3363104547,1.3433954157,-0.6021679259,-0.3747830865,-0.5760834418,1.3331541807,-1.3532185749,-0.130968171,1.0020031331,-0.1425747445,0.0591831667,0.9434727679,0.3696442657,1.5406740981,-1.2627825563,-1.3096266892,0.1789065694,-0.4664665192,2.3564654705,-1.4450578303,-0.8373066214,0.8896066054,0.1874759339,1.1523658862,-0.6136975262,0.0923558349,-1.7140855612,-2.790400465,1.0349721035,-0.5375559061,-0.606281989,0.7221741084,-2.5796051846,-0.2753199345,0.5137237558,1.6058877296,-0.2889217179,1.5539762612,0.6466469121,-0.0077196977,-0.9821687069,-0.2592913932,1.4097835421,1.8578364533,0.4483842558,0.0634897071,-1.0484506357,1.3663952706,0.4053142436,-0.0281227296,-0.9520872278,-0.2472493404,-1.4090033719,1.5011602672,-2.200210225,-0.6915800559,1.0355857253,-0.7192286915,-0.3543529737,0.1100765341,-1.6638057672,-2.9688321631,-0.0636102752,-1.1181381639,1.0554115115,-1.1165847728,0.3969167135,0.698155441,1.5752131032,-0.7719395731,-0.4787751442,0.9868572087,0.9449028699,1.4549385944,-1.7271350093,1.8630436161,-0.0894079911,2.9311110826,1.9595221965,0.9768227242,0.0511516407,0.71220105,1.2171401952,1.6498392233,-1.7881100957,-0.5307726847,-1.7216073848,-1.0718954142,-0.1229405305,1.7824432582,0.2713224274,0.9547200552,0.7273225806,0.096196317,-0.5851537106,1.7787773545,0.0019739579,0.3452736611,0.0137473615,1.0627061205,0.4235557196,-0.5131075258,-1.0387861812,-4.3812024738,0.9287020568,0.0251731067,-0.909630133,0.9858709364,1.4061420127,-0.9087923571,0.5248711439,-1.1529734991,0.2486813236,-0.8025817253,1.3271500718,1.5486035179,0.6462735078,0.45407093,-0.6515565289,-0.6449459711,0.6308128914,-0.5715263049,-1.0691467672,0.908403688,2.0611476454,-0.4159426492,-1.7990282824,0.9688420868,-1.0138914522,-0.1896269245,-0.5663859696,0.9863121795,-1.3122471435,-0.33495814,-0.6760423355,0.0326198979,-0.0888989207,0.1386390267,1.7128025029,-2.5772658796,-1.0310221143,0.422170247,0.5605608206,1.060157886,0.3584107867,-0.3892771032,0.5271921865,1.3025017143,-1.6667886237,0.4107154458,-0.4314394996,1.1337589228,0.6989687985,-0.8025484419,-0.9541174117,-0.2426018736,-1.5773996328,1.8494749158,0.3125049836,1.3414720264,-0.9035511118,0.8871568584,-1.4761956284,2.4077734677,-0.991777179,0.3223099415,-3.3002094148,0.4650835765,-0.9174206906,-1.3147017662,-0.2607101498,0.5718332251,-0.6985653971,0.3991508884,0.8617084401,-0.5788537067,-2.4011971871,-0.7968747069,1.1645623507,-1.1032249702,1.647179706,-1.7074342394,1.930407222,1.207779436,1.7826042594,1.024391362,-1.9297883821,-0.8842298517,0.4647021537,0.628295572,1.0102088977,-1.8778860475,1.6680617903,-0.8916315013,-2.3850863685,1.7468607378,0.7888672711,-2.0971318125,0.9963788143,-1.0587074776,1.0566693589,-0.2787445741,1.9351960353,0.8078365174,1.4220141752,-1.4269635958,-0.1005618657,-0.9300706847,-0.3853484083,-0.8153629304,0.496627744,-2.0857611776,0.8998733537,-0.8544365813,0.2378877895,0.71016099,0.4729365655,-0.4772861193,0.8776277523,-0.0124528504,1.8557937716,2.7638646319,-0.742418676,-1.6938035767,-2.5821537475,2.1751062108,-1.696064661,-0.2126964956,0.5183698922,-1.4087538041,0.1466642926,0.3296668417,0.0272499972,0.5453141043,-0.122059012,0.2201609024,1.5193728763,0.2380692311,-0.7354579508,-1.1835081449,0.9274746943,-0.6584448832,0.8962722001,0.9535559734,1.8897955775,1.2332935987,1.5249421246,0.4819091007,-0.8643339465,1.8606778947,-0.7617825728,1.2658304794,0.5592742279,0.4763259913,0.0887062454,0.1301769744,1.0377652547,0.0601454319,-0.7159673977,-0.0223346314,-0.9491646133,-1.3993937134,0.2214675145,-0.9951285393,-0.4314661585,1.0779405202,-0.6398049558,-0.7041441955,0.0769067356,2.5636737579,0.6297010538,0.2717938823,0.4577161102,-2.0371035143,-1.1553100536,-0.6956732465,-0.6984242506,-0.3980442215,0.6068699878,1.2365102722,0.3370236074,1.4822852571,-1.0189814142,0.0856726541,0.1448351806,0.3126534861,1.2641821638,1.957054499,1.7256015545,1.3911585404,0.8392305933,-0.7505079703,-0.0348340675,1.3260141476,-1.753023302,-0.5078376612,-3.4598080997,-1.2096456145,-0.5441499103,-0.0386047681,-1.3608540765,-0.4549322292,0.6214258459,0.3267942632,-0.0525614782,-2.7782518639,-0.2340692128,1.0426177453,-1.4442752047,-0.2325300334,-1.4173237464,-1.5477034704,-0.0522778072,0.7735194165,-1.5331869988,-1.2026054899,2.4138079344,2.4946850664,-0.3633466245,0.4513546685,0.3129660449,0.6580545924,-0.7849055878,-1.6147781479,0.2961471758,-1.835272508,0.0701721247,-1.4599407737,0.3284892076,1.9548107566,-0.1944113409,0.0505079797,-0.7884013384,-0.0222593516,1.5723520441,0.7827626839,-1.8129609314,-3.2672198099,0.6205801579,0.8307878959,-1.1849798144,-1.1653085494,0.1413600599,0.5173774389,-2.4559764179,-1.4788326579,-0.6105877885,0.4604832474,1.5660868559,-0.0218681048,0.2228173482,-0.5782327471,-0.5438317437,0.1120439063,-1.849189041,-1.0797864521,-0.2058280199,0.220586517,-1.1060328789,1.1510781048,0.0586019614,-0.5842806378,0.0910623309,-0.1387052265,0.5476422035,0.2210759227,-0.7951110724,1.9431418272,-1.7064820997,0.0548779766,-0.6470963447,-0.8202998643,2.2133839503,-0.3826125461,1.3420027753,-1.2900884041,-1.9652668115,0.1353701701,0.9068195939,0.2843034126,-3.8283200063,0.4070114132,1.1934855278,-1.1026677712,-2.681053488,1.7367822748,2.1092722207,0.3436573862,-1.5446680781,-1.5290637506,-1.3260467956,-0.8656624567,1.0622577417,-2.0929396676,-0.5905836137,0.463779792,0.2731437351,0.344742571,-3.1570148025,0.6738257499,-1.3650282345,-0.0013573035,-0.2489472497,-0.2858515581,-0.3102161888,1.1895109422,-0.9074062385,0.941112503,0.0380343907,1.6350636429,-1.5638620067,-0.3902402508,-0.2457352125,1.4788714132,-0.6983051654,-1.3173750685,-0.1748870313,0.2716205625,1.9807672397,-1.2022565679,0.5387992401,-0.2292150482,-1.6925207007,2.8433779714,2.0383662364,-2.1787931017,-1.8840067012,-0.060986235,-0.9686522851,0.0998237877,0.2069083679,1.4734850022,-0.688684527,-3.2264627404,2.2381842115,1.0303143366,1.0013183922,2.056549712,1.3428090798,0.0177849693,1.027982602,0.2604524121,0.7741525006,-0.7604622495,1.901509649,-1.8242379255,0.0392460053,-1.5237109852,1.4281065489,-0.3780001374,-1.0681256545,2.1156838876,-0.4189548367,0.2154213822,0.698615647,-0.3007794717,0.3072476902,0.4167639282,1.3368392534,0.9826576607,0.8708761165,0.323200072,0.6164013747,1.2385405465,1.6890611932,-0.3910668558,1.1277735143,0.1052675638,-1.0114404641,-0.0969707345,-0.9329024952,-0.4749468295,-1.1033674028,1.1613728741,2.8094068527,-0.3741402205,-0.8012686536,-2.000623301,-2.4875771387,0.2015405756,1.4653491106,-1.6673733855,-0.8949086521,0.5363491422,-0.823705692,-1.3901741747,-1.3499889444,-0.0637706746,-2.9708546282,-0.0009451422,-2.741890142,-0.5830508578,-0.464891322,1.2757843386,0.8102726552,1.6122218673,-0.3384429097,0.0631078695,-0.5130951085,0.4701994683,0.9006801059,1.8220882759,-0.2297558491,-1.0750131576,0.2938024422,1.2844775129,0.7677816483,-1.2085846125,0.7584935855,-0.6469432464,0.7174971181,1.812702783,-0.8503931223,0.8521855419,-0.8770135701,1.2058157504,-1.7491311648,0.8022606242,-0.8258297673,-0.3337539036,1.1480092764,-1.486595866,0.6373400244,-1.7637948673,1.1623742268,-1.9369124021,-0.5270637015,-0.6857534677,0.7383773135,-1.4488718051,1.6133108974,-0.4443574269,-0.701742345,0.0932765905,-0.2942960624,-1.4582630494,1.0535603114,2.5599525943,-2.6407554987,0.0570679915,0.0081701651,-1.19064827,0.1632207349,-0.9191978727,0.4065052383,0.0994086181,-1.0154338062,0.9604789761,-0.0068297203,0.203463048,-0.1124633857,-4.2520895961,-0.4925133147,1.5066213861,-0.5339125608,-1.5320800195,-0.8707553164,-0.4380253898,1.7096006587,0.9625444587,1.2783365961,2.5531526172,-0.345631026,1.3226062792,1.1258186434,0.132425354,-0.2890011543,0.1592462156,-1.8428984381,1.3493723977,0.6298638963,0.3790503585,-0.659746525,-0.8883394281,-1.8751821456,0.8442400957,0.7786870913,0.5033146759,-2.4405377213,1.3943041803,-1.8898745583,-0.4746574165,0.1570287118,0.3551092174,0.4405324382,-0.429357001,-0.3056829986,0.763774672,-0.2490063297,0.0113739918,0.366696094,-0.7465389866,-1.9812850875,0.3224621606,2.1441285326,-0.4922459225,2.3175919901,-0.0135206583,-2.6970960896,-0.9425735429,1.4804385164,-0.3399703216,-0.6935899824,1.2137658443,-0.2932461222,-0.896520213,-0.4711763677,0.2490936345,1.9111276802,1.0650753029,0.9116749322,1.4836764112,0.4988419418,1.9542570759,-1.7993178665,1.1880217529,0.3978031096,-1.5987795523,0.2842229267,1.0211451221,0.0439906013,-1.4129443124,0.7962221613,-0.5001840182,-1.5854505459,2.6046337808,0.859398266,-0.4598460992,-0.98174659,-0.9820182835,1.4048482348,1.0066888476,-1.9241159688,-1.2158991985,1.2524938246,0.7008836366,2.038739705,0.3620564716,0.4610361507,0.8224000787,1.104832901,0.3298875304,1.2222396341,0.5171188066,1.4380373628,0.0307500784,0.1498332524,-0.0400312179,-1.9274504626,0.9864928081,-0.2452102881,1.5274423426,1.0682099791,-0.7854003925,-2.2644753537,0.2925087933,0.5381200765,1.2106723681,0.9842602399,-0.8925636933,-1.0786487711,-0.1667659837,-0.7833470281,0.6335651551,0.4849914269,-0.4922819307,-1.4667597427,-2.6933277003,-0.0592378032,0.5651119185,1.3985435013,-1.1215674211,0.28323123,2.0672197244,1.7571056582,-0.2727076104,-0.6576234816,-0.1862439701,-0.2719013529,-1.1712769077,-0.3299186189,3.3219053726,-1.5104428396,-0.1217902978,-1.3933583433,-0.1322019102,2.9069013169,-0.4056533091,-0.8383838078,-0.0687100894,0.1072907225,2.3047251339,-0.7669726031,-0.1498558111,-0.7778747525,-0.6663335681,-0.0272503816,-0.5714729208,-1.7190889733,-0.115866655,-0.2347960333,-1.6791661054,0.5728980984,0.8884775227,-0.0174440708,0.3528312238,-0.5752159745,-1.6935929738,-0.7833326508,0.0134905307,-1.4329167364,0.6142504753,0.3012031331,-0.2656461822,0.0760807551,0.9709895645,0.3981779762,-1.8584122417,-1.430774001,0.6113509796,1.5988037061,-0.8549096485,0.5057496184,-1.2040412404,-1.0287904179,-0.1163553958,-0.5749112465,0.7694262188,-1.5822188575,2.438402044,0.0390004988,-0.2903502514,0.7868022564,0.7525293552,-1.5770073391,-0.5731332711,0.0586865244,0.8882576687,-0.213427224,-1.030995685,-1.0636205202,1.8545158908,-2.1929350694,0.4079897112,0.0425863366,-0.4003240047,1.6555224697,0.2410219007,0.0661762506,-0.8884643697,-1.7943499464,1.3016100022,0.2026252973,-0.2592055398,1.6591047612,0.7739479213,-0.0142703132,-0.2107425027,-0.4039525247,3.2604145516,2.4212158543,0.6317104635,1.3001678052,-1.3017802041,1.9321518454,0.9929234444,-1.1696982373,-1.5105661876,-0.069089207,-0.3100926984,-0.6938861787,-0.3201228034,-0.1251351284,-0.24001959,1.3572253949,0.500172898,-0.9650075148,-1.6842098987,-1.7061793886,0.616720898,1.0426572282,0.5273782239,-1.5181428323,-1.3614236095,-0.042662352,-0.4054416261,0.7300101104,-0.8336130266,1.6319954016,-0.8265463969,-0.5926463105,0.0872492554,0.4952476626,-1.5364542225,-1.9068924193,-1.7482556045,0.5071515184,1.4420433181,-0.0124350055,-0.3914138992,1.6516638703,0.3841299654,-0.8697648382,0.1903739211,0.7647774056,-1.4983063284,-1.2505872595,-0.7032618889,0.1579339065,-3.4667690509,-0.4657103308,-0.2164803376,0.2307179513,-0.5448807579,1.6263287509,1.1889398933,2.1005438661,-0.7364752152,-0.1339673306,0.6773903109,-1.7359553035,-0.7787597539,-0.9646400556,-1.3936791572,-0.4784580791,2.2921215814,-0.2200576294,2.1087126296,-0.0253249769,-1.2399315584,1.327819742,0.4975770911,1.4920076802,-0.4236089949,-0.6570952399,0.1210594132,-1.6973010364,-1.8787148835,-1.0210869545,-0.6353388705,-1.2306621582,-0.0729457374,-1.0603392483,0.1280556492,0.202455844,-1.6695876654,-0.7839929558,-0.0946134518,2.3681736707,-1.2576394725,2.3888523867,-2.4040229623,0.3478793547,1.9189496713,0.7737337608,-0.0407384913,-0.050047555,-1.5863228901,-2.1418595128,1.1300566535,1.2512328131,-0.2265748136,0.4738028006,1.8369573113,-1.3284516986,-1.4149581455,0.3328319021,1.3029605588,-0.4512845123,1.1063155529,0.9068639467,-1.0275678192,0.7051744978,-1.6500815486,-0.9504835714,1.3697781536,-0.0871329381,-0.3459309924,2.1534312696,-0.6328816982,0.421940084,1.0070455642,-0.7104406497,-0.6985760266,-0.2765043805,-1.6110433008,0.3342876822,-2.2737436482,-2.2952981351,1.7912648817,-0.4179000888,-0.241458349,-0.0124089907,0.5130504023,-0.5298654222,-0.42767379,-0.3449747905,0.6343313727,-0.2414373392,-1.0017094253,1.2812160376,0.2395495628,-0.6777300218,1.9787973162,-0.9953047951,0.2128792884,-0.799935324,-1.2965219013,-1.1934932731,1.5006640533,2.3276405076,-0.6230952238,-1.7734269575,1.2294383738,-1.2189826596,0.6106100154,-1.9884051015,0.8165887506,1.2465966326,1.2059549799,-0.9434319066,-0.0683826846,0.8644210467,-0.5001103261,0.2658690257,-0.4287758168,-2.7189187671,1.702600419,0.3701394575,0.718089826,-1.0845866406,-0.1112179875,-0.954333572,-0.0377237603,0.6661833004,-0.1405902095,1.6607859286,-0.0019745437,-2.0422638229,0.3064635333,-0.3384564696,0.9216125648,-0.4769352584,1.0751221503,0.894336807,1.4483569667,-1.1349192079,0.8933317071,-0.8056194945,-1.5652844851,0.4021634246,0.6236851856,2.1558803615,-0.9128461206,-0.0707684431,0.4199643661,0.9069161649,0.808598899,0.5286264799,2.0305754379,0.6129408791,-0.2420676523,1.4551817118,-1.2401338535,0.0506759003,0.8887719512,-2.1782468822,0.2480549144,-0.9373104754,0.1114862883,-2.9255367284,1.852808567,-1.1540157758,-1.0545841089,0.4782558466,-0.8137466592,1.3979285036,0.0520680178,0.6279062969,2.2507280646,1.5596262716,0.1456256615,0.6972017962,-0.0763081668,0.7922659048,-1.713848852,-0.161470004,0.7324636909,0.5640178895,-0.7413469029,1.0592420811,1.2162085143,1.1419731263,-1.8485387157,-1.4655996342,1.2529676145,1.0960899535,1.5931313192,0.3143600829,2.0924110724,-1.8079862383,-0.7885087122,0.8824081099,1.3718310065,-1.3252460177,-0.7616359469,-1.9818148059,0.2092970044,0.413999026,0.2736915013,0.196222004,1.8098823375,-0.2727490938,-0.4286117052,-2.1310256882,0.0044652628,-1.5226572824,0.1133005823,0.1026718376,0.3805937285,-2.0576084234,1.2626399289,-1.6803318712,0.6255865605,-0.6644341975,1.4478799812,-0.620827812,1.2551315851,0.4595472356,1.1054158297,0.1807948754,-0.3299819245,0.6587397757,-0.7608346913,-0.0320009092,-0.7708528648,-1.8877648279,1.6712474478,1.4492350483,0.0918987596,1.9314312277,0.1518191475,-0.8691930261,-0.0176895319,-1.1672910898,-0.1507059455,1.1997642983,1.446717371,1.0338304227,-1.0442073998,-1.3388557492,2.4292627594,0.2814481037,-0.8476705392,-0.2024351469,0.5257238313,-0.9117203011,-0.4775189906,0.4510051922,-1.2452067911,0.1011708461,-0.2653126408,-2.5422437718,0.1062651204,0.353553606,0.8044389495,0.6760923724,-0.6922937344,2.4306126248,-0.7334336667,-1.0546541153,0.2993314397,-1.3425809768,1.2716761475,0.2180945075,-1.004230219,-1.790857455,1.0041838532,-0.6518973761,-0.4365538312,1.0323770172,0.225369179,0.1385388552,-0.4536929718,-0.4451552453,0.3834334265,-1.4998829859,0.495734832,-1.1138628516,-0.9704409334,-1.5091761449,-0.6340986939,0.174186553,1.2534746163,0.5255232517,1.8182383787,1.3626888389,-2.6076741307,3.4200844513,0.0153328943,0.4936403936,-0.9245308268,0.4070333391,-1.0827215548,-1.1280329678,-0.5242614003,-0.4406444296,0.1674373601,-2.5844597448,-0.0803472028,-0.7135989296,-0.3284169772,-0.2380301274,-0.2489561492,0.3305297441,-0.6245267364,-0.8722688358,-0.0956238892,-1.62820849,-1.0202051416,-1.0490896894,1.5033672749,0.1624851811,-0.4409652595,1.078868736,0.7962862641,1.0500579684,-0.2261242551,2.4943847396,0.8671202229,-1.0867375858,-0.7929632659,1.4421911693,-2.1671121897,1.3706355189,-0.8969970135,-1.0493397296,1.0217780823,-0.0687297918,0.1431148448,0.888136877,1.0993473927,-0.4935781479,0.7466669154,1.7482736209,0.7826753165,-2.4345538843,0.7767221382,-1.0088599957,1.5515284812,1.1811081667,-0.6318475174,-0.3461589268,0.1947287569,0.5681225934,0.2554861617,0.2439149276,-1.0526527834,-1.016418423,1.5976079848,1.2329569721,-1.4570322604,1.211987109,-2.2335725827,2.8859953504,0.3656956082,0.6367444749,-2.2549770341,-1.8486504169,-1.2179342021,-1.7550323185,-2.1160795554,-0.5383607674,1.1184935342,-0.2646503099,-0.8204282606,1.9731295491,0.110013238,-0.5158558271,1.6233337515,0.4591865868,2.3956216117,0.560585609,-0.1454640329,-1.1307673838,2.1526736703,0.7915125147,-1.150162456,-0.7716002503,1.0388809852,1.0307794198,-0.207420204,-0.3950260884,1.3602233297,0.324760499,-0.0788716981,-0.9334115786,-0.7090718287,0.4059753125,1.6567105165,1.9496521413,-1.2087802523,0.6631332405,-1.3417390042,0.4010790828,1.746770787,0.1766572856,-1.337806858,0.819806107,1.8050558303,-0.4841159846,-1.2370530617,1.7293912254,1.6564376393,0.076244503,0.9882376311,1.1842191859,2.6397696392,1.7031864076,-0.7207111405,-1.0766833284,0.2715119946,0.1644053076,-1.6855203683,1.7496619193,-0.1563640427,0.9838420809,-0.2926616967,-2.1850690116,0.0849848292,1.3738473243,-0.4728024594,0.5977176117,-1.0560192378,0.7096466869,1.554132828,-3.3550773447,0.0422763647,1.2165489416,1.2812866895,-1.2893510404,-0.3845586373,-0.9435445932,-0.0950849962,0.7422948191,1.0741201368,-0.3509631112,-0.2595979137,0.5405671585,-2.3677533237,-1.6357159628,-2.5346341674,0.6139075959,-1.0581726973,-1.7249260199,-0.3878951757,1.0414002674,1.1196101005,-0.4176024811,0.3816266806,-1.4664053908,-0.9521481407,0.9382739462,0.8298038416,-0.5891803283,0.7658793153,0.7755711691,0.5353576097,-1.7879384364,0.9804304088,-2.0358436489,-0.1884562886,-1.0877860691,0.6073332954,-0.9159827841,0.2774626178,-0.1643566436,3.0926170586,1.3347061585,0.6662803043,-1.2307658774,-0.3714333987,2.3560460127,-0.4068809665,-3.0675751028,-0.2341581174,0.5926396791,0.6640552624,-2.8569449636,-0.9059784121,0.628409305,0.624709682,0.1520417179,0.385713666,-1.8537236523,1.1783556078,0.3017100367,-0.1114177309,-0.8401379196,0.3613705855,-0.2440867875,-0.0166251051,1.6161836549,-1.0541272875,-0.7269723411,-0.462625144,-2.8239363425,1.8483097544,0.624975152,-0.111244421,-0.8651014478,1.5791096304,1.0823108341,1.4893530462,-0.1633668702,0.2800758773,0.2650937865,-0.1393352199,0.4805346499,-1.8931542416,-0.3976463254,1.3941143888,-0.3767641584,1.8905322598,-0.9050281733,1.6124729868,-2.1709911874,1.0645743496,-0.2128091994,-0.3470750146,-0.6834863267,-0.0295012043,0.429100468,0.3875724865,-1.2335575099,0.4724659644,0.6085599535,0.1428530842,-0.9144183198,0.5413127064,-0.4526658992,1.2725511984,0.1210627683,-0.1559239544,-1.1130110512,-1.2931012749,-2.1660472418,-0.3427271834,1.595762811,-0.6975602291,0.5666070805,1.7666669704,0.8055574171,-0.9007685711,-0.5700771325,-1.8989381099,2.1449566274,1.8981458273,0.4725941174,-0.1737928575,1.1113488993,-1.4113705737,1.6775478699,0.7922060123,-0.6981864065,-0.6976897195,-0.6750427463,0.1185932113,-0.1954654262,-1.7400515214,-1.3021530783,1.5096705735,-1.6170289259,-0.2514077414,-0.8869098132,-0.9546989662,0.4933024689,-2.5539145496,0.137615175,-1.7364236087,-0.9837532679,0.229419835,2.182361505,-0.5463392992,-0.5584124515,0.7912348197,-1.5274727947,0.2097283269,-3.0308240533,-0.3591983949,-0.037719706,-1.5631451098,1.2364982275,0.1351673591,0.4518818714,-0.105692328,-2.2001524012,-0.8419764262,2.1253730856,-2.3675176784,-1.4402451224,-0.1997358236,-0.1277084594,-0.4316702869,-0.5734818152,-1.9767556972,-0.3678042945,0.1980733435,0.9415438179,-1.1229313486,-0.2343074183,-1.2251739428,0.6628359917,2.3448079887,0.3383275614,-0.6620670146,0.1151189051,2.3610380524,0.7229327154,2.7637820158,0.1519152742,0.2946473111,2.5890813457,-1.079596772,-2.2337469756,-0.9858350065,-1.9007480153,-0.3278033964,1.3335113195,1.2230072974,-1.274778074,-0.7333272394,-1.2043478622,0.7625389102,3.1202823617,-0.3135168195,0.0575565206,0.353982614,-0.7013910028,0.3835872032,0.6395155306,0.2862825538,1.7082221378,0.4882035123,-0.9217072606,-1.0806241814,0.2144943032,3.0023926822,-1.3550763638,0.3512280111,-0.9194966349,-0.4780732975,0.8341526852,0.3381117301,1.4858252845,0.0462666976,-0.4696873533,0.5311686783,0.0427015829,-0.7031828328,-1.4163651728,0.5897841018,0.2375221724,-0.6538259472,-0.1993251617,-1.1813022804,2.5090048928,-0.3653049186,-0.7786941547,-1.2975806468,1.2095607267,0.7587137565,0.751106215,0.6752566983,-2.2156143564,-0.0317400706,-0.816211111,0.7395971237,0.4395220891,-1.274345942,1.188341179,0.2527510336,0.3250597452,0.8093161189,1.7509608123,0.7010441402,-0.259981771,-1.6988075033,0.2145989673,-0.3103528638,-0.3862137598,1.2005385614,0.163493727,-0.1859663297,1.3341895871,1.3194183255,2.2968427612,2.2610700042,-0.5635010315,-0.8604892209,0.3175294383,-0.3996925659,-1.1152698358,0.2343605534,0.0884463756,1.2623777065,2.2149933074,0.8962217923,1.8487784899,0.2478488881,0.9663577467,1.4130735866,1.2940491946,1.0837270976,2.5832651713,0.8884171253,-0.3453164919,0.845363377,1.3274374532,-0.5308697582,0.5063468919,-0.119296149,0.4013162387,0.8972921722,-1.5002993833,0.8749312463,-1.6884386237,-1.5909249138,2.125968154,-0.8335932584,0.4738467174,0.5310703825,-1.8198419237,-0.5174116965,-0.8394969568,-0.7701529197,0.711632389,-0.6232140109,1.6441493798,-1.0036584019,0.9371803616,1.6916833053,0.0364631971,0.2830739977,0.0707371371,-0.348790398,-0.6867376668,3.3790327341,-0.331835492,-0.6565399159,-1.0051937774,0.0438282049,-1.4331504967,1.1696176968,2.1614279354,-0.4918478196,-1.1035561107,-2.1835092462,0.8183821654,-0.7431268243,-1.1141895455,1.2332932884,0.0409215036,-0.7815244239,-1.2727225516,0.5193725234,0.3599112105,-1.2620770285,-1.5096521158,1.8496410441,0.9513366443,1.0844629976,0.4224322529,0.7766905287,-0.3961691046,-0.4125559608,-0.5730841731,0.479561185,-1.2950001097,-0.5155812938,1.5706585444,-0.1323695052,-0.5319886166,0.7776887237,-0.1327106319,0.8866236983,0.8128137571,0.7880740939,2.4614805154,0.8640546811,-0.7417284474,0.5461051008,-1.6674660805,-1.2709309353,0.4839135055,-0.7339586042,-1.9199196235,1.1820330201,0.1473906545,-1.0196502302,-1.4019210779,1.3767901283,-1.8598210354,-1.755699479,1.566030114,-0.4885957234,-1.2159529151,-0.4903772279,-0.4788127627,0.8566047615,0.2800409954,0.0879699161,1.0972064658,1.1225707181,-0.0461245273,-0.9921111106,1.0654778667,-1.6688637629,0.5417644184,-0.6786047211,-1.992138544,-0.4391419122,0.0375463723,-0.6172960721,0.5080255055,-0.8409102105,1.8204726671,0.099645667,0.3433163776,1.5037650018,0.4435299095,-1.4967368089,-0.598666771,0.4639780898,2.230903019,-1.7679222209,-1.9812643452,-0.7713633357,0.3942188481,0.6575654956,1.0450952365,-2.668032158,2.1987608667,-0.4253420915,1.0696263311,0.0756015834,-1.88377916,1.269717015,0.7156008153,-0.0224135333,2.2016151057,0.2708991836,0.7317560016,-0.3456824277,-0.9052135932,-0.6673396422,1.885725618,-2.718518161,-0.5608482281,-0.1064929263,1.3008359857,1.1452459949,3.522895001,0.2995108764,1.6069427948,-0.2993159171,0.3846219944,0.1203690667,0.2626060976,-1.9061292202,-0.4504821704,-0.749596574,-0.3339318287,0.7454986892,-0.0430908593,1.2024809581,-2.1075211167,0.250950049,-1.5121499136,-0.1414269372,-0.7743790095,-1.508947752,-2.6504962866,-0.9133904384,-0.6763425997,-0.8085661621,-0.1231858339,0.1139212729,0.3149001064,-0.0629158649,2.2532369233,0.4020202466,1.6175230995,-0.1172201184,-0.089440777,-0.4602731592,0.4464282522,1.9213529806,1.8007108611,0.0214038968,-0.4365441808,1.7526467024,0.5175173636,0.6371248671,-0.4802500365,1.5506918803,-0.7700844051,-0.3475579566,0.835867671,0.2875105946,0.1197970192,-0.7634338175,1.0916191608,0.5034318841,-2.6455028819,-0.2616289008,0.6799822999,1.4878461794,0.4159422714,0.3644510325,-0.3138907996,-0.1932689882,-1.1069266012,-2.8936329906,1.3236021428,-1.208077312,1.3040065147,-0.3599944341,0.5730109267,0.2813535865,0.4554715281,-0.2682356354,0.0767699118,-0.6135092318,-1.1935459282,-1.070560614,-2.1600383777,1.0880482505,0.2880478757,0.1781343214,-0.6239957731,1.2452081605,-1.0756953289,-1.7319999663,0.3059976234,1.3713594693,0.3348308303,-0.7675087296,1.2485245918,0.3145070875,1.3255742715,0.8914180792,-1.7507116304,2.4712440135,0.1853401752,-1.6843138555,1.5961407164,1.475769441,1.4637860769,-0.7207775526,0.65264872,-1.0395917336,0.355403241,1.0135146329,0.5193642574,0.2859394806,-0.5671576282,0.6763681534,-1.5268910967,-0.1987143036,-0.2905362432,-0.4101915569,-0.7670087548,-2.5917965422,0.2636247032,-1.3266328274,1.5155739316,-0.2951976407,0.2403608638,1.499976318,-0.2142482924,-0.2343821458,-1.2111517078,0.2461254522,1.9049670641,-0.1033136875,0.9515894868,-3.8833171301,2.5458140677,1.6046525467,0.9581989507,0.139556638,-0.213966895,0.420952697,1.5278885101,1.154499341,0.1627012591,0.2440445911,-2.1979857814,-1.0727641852,-1.3329169642,-1.446526899,1.2104525819,1.8063473836,-0.0387786552,-2.0139597782,0.5666997762,0.4035465151,1.6420501138,0.4270942679,0.6023065694,2.2439253311,-0.6724898606,-0.6474988706,1.4849049873,0.4499527509,0.4409549419,-2.7878627153,0.2836193757,-0.2970289194,1.0519738157,1.355230458,0.5562237814,0.5385074423,0.1507122522,-1.5293773078,-0.0392408624,-0.420336393,2.3550379508,-1.1173651503,0.4312234895,-0.5624267722,-1.4060123165,-0.316492889,-1.0465604347,-1.7601034509,-0.2194433958,-0.9901533318,-1.0061466206,0.4535203648,2.6954234041,0.3172952465,-0.5569942559,0.7553372703,0.9258016742,-1.5652385037,-0.2155211912,0.1302512394,1.3623729999,-0.092512806,-2.4081275375,0.3537717577,0.4006609934,0.0895468192,1.4263637186,-0.8614372346,-0.9814338948,-1.0810176269,0.7107612137,-2.194544286,-0.1536594243,0.0338068636,-1.7663421264,-1.6734038676,-1.352348455,-1.8096849176,0.1453928684,-0.1730526997,-0.0271044639,0.1900234917,0.2827949525,-0.4405375226,-0.9708643144,-2.9219844399,-1.4821173154,-0.8223461846,-1.6725502084,-0.3764531144,-1.0975516204,0.368910396,3.4824711553,-1.7480756871,1.1408226634,-0.7448200704,0.1421243784,0.6085870116,1.418357869,0.4881456248,-0.3623658286,2.8495086598,1.4009808847,1.6069743046,0.814624639,1.5278137656,-0.0218764617,-1.6374776996,-0.3613226274,-0.1493739804,0.1687308129,2.2695138807,-0.9812462821,-1.9556884794,-0.9068668539,0.4026336872,0.1203027569,1.3737815007,-0.0783964112,-2.3221224653,-0.8672872257
   -0.7353020001,0.4218364494,0.2267431509,-0.491231532,0.8708147779,-0.6225266266,0.1097424387,1.5783084858,-0.1189070876,-0.6505396436,1.1921685342,2.6982943217,1.4059119004,-2.873904832,2.4709175611,1.0373471387,-0.2837495508,-1.0707935365,0.8634183445,0.105418556,0.9186413979,-2.4735567101,-0.2060756553,0.2241988065,0.6961131075,-0.7798072831,-2.1143612687,-0.9391224809,0.9054273996,-0.7949211723,0.0306916954,-0.1791689545,-3.0132283643,-1.1519815549,0.5679440604,-0.079127484,1.719012035,1.2962343884,0.480025538,0.4657233951,1.5062770409,-2.1331243348,0.9895743405,-0.2575599908,-0.604117126,0.8916864761,-0.6103152126,0.8063273658,1.1770096007,-1.0768465588,0.4159288268,1.7795575516,-0.356580387,-0.1640678206,-1.5681183379,0.586411768,-0.1812085867,1.9196395653,-0.3506337651,0.7279193351,1.6066298086,0.2413989936,0.0078060348,0.3954823487,-1.7167064284,1.0432399611,1.0460628187,2.2485741237,0.327702599,-3.2496266786,0.280460643,-0.8424139504,-1.4707031968,0.7388897309,-2.3009842628,-0.8866448975,0.8206312624,1.204514347,0.0474039697,-1.1628168446,1.4182588053,1.050692206,-1.1272979335,-0.8288113236,-0.4948258918,0.5640745429,-1.2023598861,0.5858451009,-1.1515950724,0.8205779971,-1.4148568521,3.2795793238,1.5688692112,0.3547092352,-0.8468597007,-0.865539741,0.9109097612,3.0915339006,-0.0454832134,-0.0501270841,-1.0373906929,2.1776427313,-1.2510376262,-0.8802358143,1.6940231196,1.7765705687,-1.2533755698,-1.4685792627,0.3770247354,-1.0592547398,-0.1151399499,-1.8029183866,1.5933640088,2.583198468,-2.5070069703,0.3271630296,-1.5224549984,-1.1351849315,0.9718043448,2.0483085468,0.9283669339,-1.566879098,1.1490518308,0.4883154136,-1.619868908,1.5949616073,1.1785560878,-1.0636616241,0.127112741,1.0908231648,0.7778212815,1.827697257,0.7784735853,-1.7457245243,-0.6869013331,-0.8942534827,1.6080606065,0.8159727827,2.783043181,1.2089232677,1.2530993781,-0.941580911,1.6316372462,2.109997551,0.5295342113,1.2704162764,-0.1891686669,1.1375584677,-1.2701128032,0.2185852695,1.957979589,-0.7229989335,-0.437879852,-0.2254908236,2.2023015567,1.0887697062,0.2147253565,-1.963617948,0.1025567781,-2.1381531671,0.0973418118,-0.708754586,-0.816681911,1.5240034567,-1.1840032369,1.829695393,-1.103205882,2.6070091955,-0.1618001033,1.5283443527,-2.8334014193,0.3470821794,-1.3204323062,0.9828945178,0.7310108689,1.5125812924,0.5108417158,-2.2627706723,1.4957352657,1.3421920239,-0.8292960565,-0.0870988631,0.0080560317,-1.5422686583,0.2840442388,1.2518214841,1.8075632652,0.8749255064,-0.9145258098,-1.9128640676,1.8381961983,-1.6673719788,-0.2532229527,-1.298142442,0.5067910794,-0.6956469927,0.7058139214,-2.1755406262,0.5371898895,1.0371353208,-1.0074562894,-1.0580708947,1.2456552102,-0.692687097,-0.3108386209,-0.2512522891,-1.1840201669,-0.610134929,0.3765816279,-0.5875233418,0.7273191926,-2.7727968203,0.0819151542,-0.8535945119,0.2815160331,-0.4881325176,-0.4174235763,1.201646156,0.3382187024,1.2051230865,-1.373453355,-1.2753730442,-0.6543751213,1.344452243,1.3501891167,1.0789066374,0.8209359375,-0.6505458104,-0.70292021,-3.0668812804,1.4333489855,1.4711873444,-0.9750406719,-0.0624194468,-1.1034447713,0.9463217835,2.3407386977,1.1756487599,0.1127918812,-0.280670534,1.8994243215,-0.2837976745,0.5853967323,0.4676980635,2.0474047731,-1.1005775077,1.7486740089,0.4861181233,-0.6108053815,-0.891110101,-0.8189291699,-0.3683359432,0.2709314909,0.5240160392,4.4114735357,0.4945213073,1.1870615224,0.610179307,-0.8846030593,0.5217039941,-1.1880429968,0.048974043,0.5628059611,-1.1411806722,1.9378572213,-2.7567089443,-2.5863481856,-0.405281804,-0.050275722,-0.3022972756,0.1905062755,0.59254258,1.1227019864,-0.483063734,0.0920108475,-1.5429104492,-1.9279266032,0.9225069162,-0.855950326,-1.8887268387,-2.7794024521,-1.1538222556,0.6986707774,0.5607895058,0.46413932,-0.6757063657,3.2857702833,0.7370798361,-0.002069962,-1.530702541,1.2792440543,1.7456650773,-1.1985140748,0.2138874263,2.2286828968,1.0788542686,-0.4725945831,-1.9155862733,-0.7361511809,-1.1666263016,-2.6977713449,0.8670751302,0.8194883874,-1.0121922121,-1.1829742536,1.1256807916,-0.5033151216,0.9639077105,-0.7029388686,2.2381247885,-0.7859136644,-1.3010560804,0.434988311,0.8855411248,-0.7680052324,1.1866344945,0.6717042782,-1.2881977013,-0.6650568226,-1.3155403532,-1.0010243061,0.399146221,1.1983132342,0.1714073743,-0.4757353689,-0.0124609319,-0.8089348752,0.6996380959,0.9301074376,1.7887985351,0.0781558785,-0.7346307205,0.4479712024,1.4818230322,1.0374981372,-1.3872913328,0.9207888154,-1.3983620852,0.2359975812,0.9783510886,-1.9732432872,-0.7397274604,-1.4621270615,-0.3281717164,0.1920969806,0.6010404022,-1.5338130185,-0.2940063146,-1.0090020079,0.9396930272,-0.767378161,0.7118704309,0.9330036647,-0.3171361835,1.5511530712,-0.3202012545,0.6820728192,2.0012760627,-1.3425751401,-0.761684409,-3.5385441596,0.2802062941,-2.0732733999,-0.9335649916,-1.5514769355,-0.4757021541,1.0766838857,-1.7678183481,-0.3493722624,-1.015670868,1.856492199,0.0816768525,0.7951529951,-0.3117318505,1.159672397,0.7050898641,0.3198697967,0.1708361164,-1.2732565451,-0.7237105159,2.2823487211,0.1579321253,-0.2335559568,-1.1239347554,-1.2599276627,-0.8456031653,-1.3069715857,0.0243633137,0.7605966282,-0.7986325168,2.6247709867,0.2353301406,1.762867813,0.3076816628,1.2192310629,-0.7139098016,-0.3794358801,0.3759585098,-0.4747034911,-0.2839437599,-1.1010077284,-1.2482399858,0.8401708385,-0.7222837333,-0.2248058752,-0.6448606484,-0.751216014,-0.4930279978,1.0478222153,-1.0265698536,0.4757143055,-3.8203842612,0.2948518981,0.1474210374,-1.1553963339,0.4899973031,-0.1598789201,0.1140750448,0.1683559392,-0.8583700276,1.7837666811,1.193942881,-1.681295052,-1.3895548064,0.4946886933,-1.5774727255,1.4141345163,-0.5867173513,1.4702126678,-1.5879935491,0.6652052527,-0.8878351006,1.187218347,-0.5249239746,0.5988468042,1.8564737437,0.4470176878,1.1354981629,-0.8673081932,-0.4095707509,-1.4588865719,-2.8247857262,1.3851757012,0.3897074214,-1.5589450343,1.5175195957,-1.5814437935,1.1732250342,-1.8183937673,-3.3326307966,0.211791647,-1.2942323868,0.0540230893,-2.0172798299,1.0643600266,0.6656691055,-0.3444494532,1.4566510635,2.1437006815,0.8197816343,-0.7576818651,1.2665879016,-1.0422151209,0.6462502005,-0.5247917888,-2.8522885514,-0.4195959838,-0.2431704081,-0.328348911,0.5714416567,1.3371801938,-0.4990787243,-0.4441683093,-0.2755404791,0.3126809911,0.2968968228,-0.5895128462,-0.4085426388,1.1436061593,0.4539997613,-1.8286927926,-0.8598104745,-2.315140163,0.3622057828,0.8209931328,-1.6473697022,0.1444786734,-1.1200791015,-0.1667389079,0.0395217255,0.8735293271,-0.1429873762,-0.7566727638,0.1046692757,-0.0594684874,-1.4187713748,-0.5425853296,-0.5587508344,0.4542823559,-1.6370124316,-0.0362638864,1.1747308777,-1.4274545521,-1.7359167708,-1.9299029021,0.5899075158,0.4019998253,2.2697971827,-0.2649910993,-1.3168428705,0.3925019618,0.9285354486,-2.6243980712,-1.0060255684,-1.7432490413,1.6005597686,1.2578960106,-0.6542018338,0.2736459966,0.0839233587,0.6117811733,-0.4958858562,0.3244979626,-2.772232571,0.2493061633,-1.021975049,1.1121742055,2.567186547,-0.997537349,0.9412082172,1.2923345136,0.7228611095,-0.1528697472,-0.6180913022,-1.4010328231,0.4989663602,2.094293056,1.4399135351,-1.0912387519,-1.8309963745,-0.1202844963,1.5031304206,0.6172471372,-0.7697402056,-0.3898409198,1.0705787326,0.8937259257,-0.6955838856,-0.1164334973,0.054886864,0.5040539946,-2.6035634391,-0.6270847459,1.3215801036,-1.1438085678,-1.0542055089,-0.7111848568,1.0166234335,0.4012144314,0.4120699528,0.2964419249,0.9456948034,-0.2674936479,1.2233445949,0.2251738173,0.0968199,-0.0022782745,0.9378127748,0.1221117516,-1.2604674905,0.2874691932,1.2691985657,-1.3906814093,0.0771011657,2.4456288199,1.1317659992,-0.6308415234,-0.770692519,1.282394977,-0.4813633251,0.7990136748,0.7653107743,0.6322724543,0.7548772451,0.0476172679,1.3334230094,-1.3198639375,0.2849137664,0.499479161,-0.4245443777,0.355871395,1.4893665886,1.0095077609,-0.0722653806,-0.0992154839,-1.5888477788,1.1713767931,0.2829970775,-0.3027090161,1.5159618767,1.8948430132,-0.4376729695,0.0066233134,-0.4479557943,2.8859900347,0.548220255,0.1581977881,-0.8211994523,2.9096118471,-0.1036689304,0.5750296469,-0.0973817586,0.9529361845,-0.6366853086,1.344959154,-1.032894946,-0.5635808339,-1.1254673401,-0.4536684956,0.828413717,0.4570296785,-0.4265058366,2.0051368771,-1.3872341384,0.0827561193,0.4880899758,0.9455469155,0.9355472077,0.2948457802,0.3982253482,-1.6140880525,0.3479965182,0.7323750558,0.8468021881,1.1058710869,0.499614751,2.3275801863,1.5996975944,-1.8403629836,-1.4701340632,0.9775591111,2.6793402953,1.030198983,-0.6572771349,0.4629248501,0.0564157873,0.3423470303,1.0665589471,-1.0125519503,-1.0904001152,-2.1612405978,0.33166927,-0.3925165365,0.9423125037,1.0266525633,0.6219542705,-0.4647841936,-1.0385542566,0.3046517823,-0.8543146446,0.0631164412,-0.5927671302,-1.0710006287,-0.6554712502,0.4043092096,-0.4805158742,0.4721800678,1.60845009,-1.235778331,0.1505355368,1.9133707873,-2.3963348857,0.5740270649,-0.7928136556,0.0598207366,-0.5097224894,2.239376739,1.3249800301,0.8809530401,1.7805482485,-0.7385067578,0.5857094315,-1.4262099832,-0.0774721857,0.8553416191,1.6642217343,-1.3820859486,0.4349070635,-0.7760340911,0.18394051,0.7762608885,-0.254611734,-0.910795096,-0.207952959,0.9762700085,-0.3095227311,2.0096911275,1.6718405922,1.2248681193,0.4807563877,-1.4644447503,0.787521202,-0.8827934474,-1.6755274282,1.6989742416,0.6595283684,-0.5461274783,-0.6861344309,0.1741164004,0.7330227837,2.6609181174,0.4906042663,-0.4037322842,-0.3875548194,0.3728864944,-0.7166645476,1.2836413423,0.6195188433,0.7456198602,2.7160642786,0.2664331374,1.8463057962,-0.9105198031,-1.9445104205,0.7599496461,-1.7482129419,0.1339789025,1.7968979042,1.1800377852,-0.7647013595,-0.5015043522,1.7894590677,-2.7139811226,1.8118279664,1.948197589,-0.3720401742,1.7359925285,1.2676042799,0.1516945036,0.6905579803,1.4966512284,-0.6878002076,0.6769407723,0.9003670282,-1.3541375233,-1.5684264018,1.4247421818,0.6414991159,0.3609026455,-0.3392793118,-0.7954169585,1.3634802742,-0.6814778131,0.2890837993,0.3687969168,1.181968473,-0.1133218197,1.5703076101,-1.3990569732,0.5466749716,0.6536748433,0.0107206812,-1.208972783,0.5969047773,0.6537863802,-1.0320455386,-1.2506782909,0.4078172185,1.0814855113,0.1317181727,1.8762299609,-0.2905220665,-1.1150092265,1.082335613,2.691723849,1.2859144821,-2.8308617245,-0.2948875014,-0.179828797,-1.04981152,-0.1906103337,0.205115207,-0.3906660267,-2.1328346853,-1.5751461857,-0.064032759,0.7908470416,-1.3480680334,-1.0278371798,-0.5955748575,-0.6572582955,1.6148208951,1.0187349396,-0.8754239773,0.7207188783,0.9011440431,1.2195087426,0.780884501,0.8563584562,0.7496537686,-2.1802901905,-0.0933159157,1.4888542996,0.0949690053,0.567330057,-2.4531792753,1.1824114552,0.2664376613,1.2182675885,0.0451352065,0.0255189531,-0.7778574375,-0.6278710047,0.668840466,-0.9471065558,-1.4633070503,1.879015455,0.8822804482,1.2449593166,-1.074389738,0.8499500577,1.5610075192,-1.1790419634,-0.5445963775,1.551871242,0.5233454531,0.5945193961,-0.6770842841,0.0517211422,1.1199656593,0.3234866433,-2.3615473086,-0.2329846763,0.2054924474,-0.6344579607,0.414728957,-1.7357756161,-0.0645373349,-1.2734959912,-0.7370071861,-0.993038291,0.5564759497,-1.6487188813,-1.6160551017,0.0157733659,-0.1673464198,-0.4729854365,0.3073661633,0.5965485414,-0.8714276022,-2.2006933995,1.2443116314,-1.2176766247,-0.340497401,0.2384698645,-0.6785723849,0.7336235042,1.8292268667,2.3642516081,-0.7770249148,1.6781467224,2.1822041492,1.0968226063,-0.1008500909,1.0871434701,0.2468747289,2.1468668674,-0.1243374007,-1.8365491509,0.286062945,-1.101291113,-0.8540639966,-0.6603254604,1.0775616005,1.0488725894,1.0051026339,-1.4148237464,-0.0168640721,0.9299605668,-1.1184894493,0.5318047721,-0.9970932969,-0.7606193583,0.7840996101,-0.9769863857,-1.2460254508,-1.5533729687,-1.4460825451,-0.3485425248,-2.2125456228,-2.2115812306,-0.2153256582,-0.1319078068,2.1985200537,1.0986067092,-0.4586338811,-0.0772145078,0.1619788308,-0.5835831315,1.3947288923,1.3327852565,0.8214746361,-0.1561722886,-1.1147878531,0.1206139214,0.7344036999,-0.8236603388,-0.6974020065,-1.0883986454,3.0394676742,0.2592191179,-2.2893040392,-0.3442838831,0.2353922347,-1.8081091751,2.2275852743,-1.6332965041,-1.1163392719,1.5869214164,2.8294467485,1.8356613697,0.2308208407,-0.4549135869,-0.1770236314,0.7978029087,-0.720908181,0.5706800175,-0.5243391373,1.3779939571,0.684464568,-1.3313317386,0.1777789588,2.0802850781,0.0584131426,-0.5582021689,0.5068738459,-0.7597003285,-0.3055708665,-2.2599313246,-0.8795194827,-0.2529290126,-0.2887235188,-0.5999948083,1.1445167483,0.3427424116,-0.2195930654,0.2194010896,0.5170584255,-0.3989009858,-0.4399207086,1.025273848,0.2317160992,1.3594232938,-0.0479261642,-0.1164423159,-0.055863037,-1.183820287,-1.3109722997,-0.7192452056,1.958917697,-0.6254799357,1.8939846172,-0.6352525419,1.3222847832,0.633177676,-2.0086281583,-0.9725496817,0.0755654609,0.1408218085,0.5251487717,1.9722007933,-0.1870666944,0.5603159658,1.5024591672,-1.3727667974,0.6326173042,-0.3186879689,1.1258964569,1.178915477,0.409331148,0.6849609527,-0.200837675,-0.2452415482,0.9666866702,0.6126807269,-1.0115406139,1.4773540263,-0.3135858718,-0.2364741961,-0.7107133227,0.0225670142,1.6550046451,-0.5628716218,0.3001721263,-0.0496307077,0.4489783297,1.0895281629,-0.3204720161,2.7815280359,1.8710441614,1.3001146289,-1.5376140733,1.6795637064,0.3947827868,1.3309334864,1.9616200064,2.5400752118,0.8040048736,0.7053099774,-3.1754689833,-1.7980362491,-2.0385060086,1.5378780905,0.6079316172,-0.6502093598,1.5342302713,-1.8223490684,1.5384342975,0.3812633438,0.0295420457,-1.5267525686,-2.1827926114,-1.7741106428,-1.3391711294,-2.2428199304,0.439441833,-0.1818449849,-0.1467512323,-1.6942100446,-0.134182452,-2.2416278641,-1.2208349506,-1.1380631601,-1.593425223,1.1346694662,1.3132144493,-0.8581561672,-0.5629717082,-0.8127809404,-2.2103575565,0.0781492399,-1.4002639622,-0.1173679539,-1.1922007972,-1.0111165127,1.8885230969,1.300972215,-1.2593627942,-0.6582498017,-0.6606556699,-0.822396908,0.8386121018,1.5466763169,0.2629499351,-0.1714033467,1.6035154848,-0.1219959801,1.6550471032,-2.2295330096,-2.0283902438,0.0372264258,0.711532785,0.5896352367,0.6731466419,-2.0209603971,0.8267154511,0.1240947587,0.878034418,-1.9345097789,-2.2652800543,-0.0623161196,-0.5865561524,-0.8291825667,-1.0797150888,2.2824225234,-0.8319162526,-1.2288430385,0.1444191286,-0.2819349238,-0.6629036186,-1.650388015,0.8145694,-0.8214378803,-0.5133416813,0.4569114957,0.2471893584,0.0699480133,-1.9562142682,-0.2378465759,0.1445437747,0.9086931444,-1.0189372249,-1.158599304,0.1008403454,-1.0380218993,0.1670753133,0.9642442109,0.9552355952,1.4709644549,-0.0483434876,0.6699341615,-0.9030986456,1.2405162495,-2.4408422432,2.1870594902,1.0392724817,1.2854394325,-0.1101546972,-0.5576325446,-1.6106478213,-0.3286161855,-1.2187736219,2.437637438,0.3028927782,0.16238099,1.1054022967,-2.1030827731,0.7816923535,-1.8677578826,-1.2783841657,-0.6576774677,-0.2964555188,0.8172984382,-0.1466397789,0.1550707919,0.8178868238,0.4555633081,0.2339811447,0.9236011287,0.5446180874,0.6551753553,-1.3946781924,-0.6611007895,3.5802831929,0.9291022497,0.4330915938,-2.4259655456,-0.2352713996,-0.5654513562,0.6234214726,-1.0052408776,0.2570760908,-1.4509552456,0.4545147122,0.9780240401,1.2121688231,0.4596342265,0.5727382208,0.1348172777,0.1853119913,2.8835113791,-0.4672929663,-0.5368621154,-1.6728422565,-1.8965728695,0.8618147762,-0.5724450346,2.7570577128,-1.8022965716,-1.6438490715,4.3339914227,1.2025671676,1.7837126154,-1.0367493151,-0.3322567725,-0.7965042958,1.5161147935,1.240026781,0.6541288787,-0.1617434715,-0.4196769466,0.5708488821,-0.8077795804,-2.8031075507,0.6974759458,0.8316275247,-2.2250358967,0.7264504469,0.4161383831,-0.9662384505,-0.5370735601,-1.2773458601,1.2002141217,1.3182057262,0.1201471237,0.3768827759,-1.5071121174,1.0175723517,0.6389899624,-0.9311652185,0.4930459107,0.1612950261,-0.7888311679,2.9351151606,0.0501979961,-1.2630467519,2.6636630196,-1.6921704974,0.0068798648,2.1260492262,-1.4347194233,1.8926978854,-0.7096899774,-0.0084512719,0.1762604756,-0.0312062864,-1.1716397601,1.1436612909,-0.4960312302,-1.0010431957,-2.1620673936,0.1588028224,0.6379179835,2.1994517114,0.0370922745,-1.2595687494,-1.209154524,-2.6460885168,1.8152345523,0.7818984741,0.3730371601,-0.9268025484,-0.8784634881,1.3653668061,-1.2708652599,-1.5409022201,-0.9517885958,0.6703285848,-0.1224952933,0.7353404133,0.4845341044,0.6571803463,-0.1212794347,0.0163191791,-0.4760576053,-0.2441845893,-0.4386783577,-0.0388415597,-1.3464120678,0.3746704914,-0.7923959818,-0.2860251276,1.6235813764,0.0117745028,-0.6496323932,1.6932843284,1.0141107052,0.8414236446,-1.6728309161,-0.3601418568,0.516395436,1.1062739242,0.5577089591,2.009293696,0.9747145453,0.7345200546,-2.1127536678,-1.2602690598,0.7483512687,-1.3856061058,-0.6356523715,-1.2712990268,1.5826397399,0.2821391108,-0.4889521645,2.0643184849,0.7472332973,0.2861539874,-0.7881039982,0.3617247528,1.3558124199,1.140278648,0.9485369552,-0.3620070991,1.5668611041,-0.1918244238,1.3849337032,-1.3669053178,1.0592391095,0.2636921787,-0.6310567011,1.2659325639,-1.1035466697,0.3029933986,-0.7793101306,-0.9497971556,-0.24183981,0.3778128523,1.8034514897,2.0503042037,-0.6301071756,-0.3610226888,-0.0782583544,-0.1662625104,0.103764355,-0.9900976754,1.0022952138,-0.4445128964,-1.4540132385,1.6837538248,-1.6717380677,-0.1826186878,0.2024338428,0.5366929135,-0.3927265016,-0.1395083477,-1.868673657,0.0909227307,-0.4055973759,1.6194818589,0.0979931191,0.7290068538,-0.8581311085,0.0446155798,-0.0101218584,-0.7777587002,0.2979932552,0.1959918366,0.237927587,-0.806052761,1.7095489702,0.5125833511,0.0956070207,1.4409460822,0.7351833776,0.8206639027,2.7051335096,0.2418659197,-2.134328107,1.2088354341,-1.4492939472,-0.0794643862,-0.7114191645,-0.2660827515,-0.8944073023,0.1151788508,1.5710865878,-1.4950019733,1.7628292263,-2.250672499,-1.2821121375,1.7847404412,-3.011990491,-0.1237187579,-0.3787027001,-0.716597015,2.0250235657,-0.016943788,-0.6844093338,-1.2946517781,0.6623621766,-1.7675027417,-0.2113782974,-0.9718502046,-0.1494477508,-1.2993360008,1.2178260089,-1.6875678083,-1.3145651751,-0.1584568925,1.4241899036,-0.7630832476,0.9247877294,0.518223834,-0.9698047651,-2.4540971958,-1.3038953353,-0.5654017817,2.6426609209,1.3572971791,0.1096208923,-1.0976064361,3.534582764,-0.4003460309,-0.9776003425,-1.5347709493,-1.1909895234,-0.530040518,0.0305138122,-1.6115385022,-0.0042707883,-0.6957859989,-0.4515603113,-0.3176929828,1.1233158801,0.4668367299,-1.5466801852,-0.3181956134,0.1138304931,-0.3559484663,1.036346528,0.3031387598,-0.361890926,-1.8238536763,-1.5380457822,0.7442632215,-0.0444262629,-0.0962839876,0.0824967915,3.5394458873,1.2219935333,2.0382726539,1.7305659912,0.5358929769,-1.3625623982,0.1731174622,-0.6757106462,0.4544602848,1.8394529454,-1.218676025,-0.4037869342,-1.0213228043,2.3773684554,-2.6358616641,0.5920833061,0.7273769009,0.7039465223,0.7331922413,1.2100688155,-1.2112278875,-0.9249239368,1.3210121578,4.0684867469,0.3278344438,1.4556505814,-0.1329767069,0.395199102,1.3359590589,0.6490996429,-0.37438906,-0.7182108416,-0.5444052072,1.1795880557,-0.3811686968,-3.6846975889,0.4120288491,-0.2875859908,0.7407272873,-2.5644471013,-0.413024713,-0.2218336591,-1.3703829432,-1.1204726363,0.0078320311,-1.6464542664,-0.3484568043,0.3172305895,-0.7895958078,-1.5649375566,-0.1428434468,3.9708927829,-0.6456803334,0.2725528597,-1.9163699231,-0.8251190953,-1.8910210693,1.9722842546,-1.7769567987,0.1189246172,0.0866431973,-2.9106865995,-1.0268685978,0.4076558892,-1.4030554931,-0.0712146381,1.0931404062,-0.7605646243,1.2648404141,0.8585108172,0.8489207532,-0.2666462409,-0.723587812,1.1044730224,1.934644746,-0.0123854723,1.1114410511,0.2318418961,-0.0115108768,1.2540041572,-0.0951547839,1.6746539663,1.6618054967,-0.9298473819,-0.3922663655,-0.1205002649,-1.5096769459,-1.0669253864,1.1518472946,0.3071020081,0.6940320903,-1.6662222366,-0.8352093343,0.9779778683,0.5385459513,-0.2601054043,0.0997500262,-2.182056874,2.0147413278,-1.2516422352,-0.9915961707,-0.7482670739,-1.0929217849,0.6888629256,0.1701526962,-0.5672054616,-0.0224059045,-0.1122670714,0.9280498866,-0.0381189746,0.5776703444,0.0725080065,-1.2021692238,0.7415513557,0.9677317005,-0.2147803254,-1.8465422135,0.7694303021,-0.1933700579,0.6617390778,-1.1645886239,-0.4649403573,-0.9974270338,-1.2077345475,2.0237252018,0.7456676896,0.9074959822,-0.6447689338,-3.1607579447,0.2228613794,1.0246381636,-1.7279606134,1.2932799353,-2.527901573,0.0420527493,0.7394740685,-1.1484546903,-0.9247726186,0.3221091183,-0.5721674318,1.1149083328,0.2106128885,0.0024644933,0.8235660561,-0.4755299424,-1.2629788503,-1.9301842985,0.3973614508,1.6479272832,1.0720298395,0.2486454036,-0.4424482458,-0.5269839,0.7236398864,-0.3487210435,-0.5137661227,-1.2267733539,1.0140528983,-0.2879722417,-0.0330561921,-0.9327690634,-0.2323881217,-0.6324748718,-1.1465342375,1.2876520281,0.1104679135,0.2054608677,1.7041756804,-1.7025100117,0.6422880604,-0.2431761051,-0.7164985459,1.8737764162,0.0054856377,0.5795872655,-0.0247255828,-1.3238387418,1.1226370831,-0.0296123342,0.6494863773,1.6410363203,0.3149742381,0.0226504305,0.6926083868,1.2642110512,1.6659354337,-0.9998522447,1.4050240101,-1.1225935233,0.7986597014,-1.0069459704,0.3303361375,-2.6821764539,1.7821644143,-0.3864463904,-0.2247311197,-0.2906522452,-0.8020138055,-1.9734185884,0.5426407651,0.6224707282,0.1131878758,-2.3812607193,0.6078945109,1.3297388096,1.5471148388,-0.6993779755,-0.4589716783,0.8461316918,-0.2680713073,1.1541390451,1.0519541205,-0.8468743098,-1.4761671142,-0.6769951719,-2.1807776067,-0.7024531584,-1.5482128579,-0.8081668789,0.1749108951,-0.6450065516,-1.1273601901,0.0658342976,-0.5569321647,-0.5545028165,-0.0314348622,-1.171124713,0.4239390672,0.3781023599,-0.3545775563,0.1459041838,0.4403460975,1.9448576116,-0.1931799429,1.0148518395,-0.7932278518,1.6053510816,0.3801334177,1.6730891244,-2.2823197103,-0.0122148817,-2.1952082352,0.6328217204,0.6468686069,-2.37591824,-0.4377576171,-1.9742882683,-1.9563330248,-1.0402267174,2.5694117354,-0.8700023742,-0.6179709898,-1.78505667,-0.9286989014,0.9031616453,2.1307549986,-0.8009210793,-1.4629455859,1.7745448363,0.4285261411,0.4229029405,2.0461713686,1.0944409102,1.8226873966,-0.6486839661,-1.1493541923,-0.3151683933,1.1047121607,-2.9512059999,0.3066714717,-0.7736382438,0.1437411581,0.4275523351,0.977227725,-0.7963515651,0.1474740684,0.5314668157,2.5318754464,-0.7084346469,0.8940999919,-0.5954041152,0.5046430309,0.1202490699,0.5231782338,-0.1559164325,-1.3622170244,0.6778433089,2.831856381,-1.373076853,1.0858146922,-0.479789753,-1.0958101138,2.8884989464,-0.1772474448,-1.4083029815,-0.0774253374,-0.7688909652,0.6709592869,-1.8106580236,-1.3183889569,-0.6094487238,-0.4367955399,-2.6702280446,1.5909954798,1.0936682877,1.5858091374,-1.5990694729,-0.0164730514,0.5130798745,-0.5547956124,1.0439493957,-1.0619368433,-0.5305251245,-1.2210184443,-0.7804271285,0.0007822573,1.2309235123,0.6588239677,0.9008371879,-0.4649641175,-0.0815108856,0.5066651423,0.0043757466,0.3352710097,0.2518084211,-0.234012729,0.6693135364,0.4304274525,-0.3903252408,0.0476333639,-0.3959344315,0.6055996302,-0.6873129676,1.8214421426,-0.3063137979,-1.6087502774,1.7655401973,0.8785810078,-0.5651642054,-0.4628023461,-0.4588511333,2.5179819102,-1.026349726,-1.226798507,2.0475172804,0.9230384407,-0.4067205352,2.4696933128,-1.1036774334,-1.6523875796,-0.6354975659,-0.8194042524,0.2553939036,1.1675779061,-1.3817307523,-0.6265422154,0.96598053,0.7139200703,-0.6324474305,-1.8409535527,-0.0093631068,-2.0406639021,-0.0470781606,0.1484759128,-2.9404882118,0.9394631162,-0.3634815993,-0.4582273608,-1.9261258401,-1.3236403099,0.5611932805,-1.1776967812,0.7087374877,0.7964831586,0.9684341774,-0.0328984167,-0.1413081003,0.7038975515,-0.8203113458,-1.0082407972,-1.0138441647,1.9669325452,0.9148570243,-2.1598386878,-0.4315705994,0.9124184054,2.3249941613,0.3986896329,-1.2557869963,2.1255613898,0.0446224299,-1.7320193575,-0.1796516675,-2.5733835313,-2.632029886,-0.5325530188,-1.1475324547,1.1189041724,-1.0867756763,0.8304274656,-0.8073558141,-0.6948206997,1.1645685392,3.51490258,1.1984231059,0.7026708287,-1.0491300274,0.5811423921,0.0869400969,1.2999696104,-0.1737571411,1.621592929,-1.6673908652,-2.6947617788,0.99427551,-0.2369707113,1.703005247,-0.1871712914,2.8854458639,-1.3750017225,0.1292156042,-0.8706321174,0.1749724749,-0.4772678289,0.5585917198,0.5106078185,1.2674433336,-2.7383253522,-0.6888738272,0.3331075475,-1.1786520931,-0.6908108733,-1.5748304286,0.2020197331,-1.6925187823,0.5654977281,0.2857591865,-1.0162361257,-0.1542676289,-1.6239060699,-0.5521967266,-0.607880065,1.6247208285,0.0231807422,-0.2743176586,1.5643295942,0.9800478035,1.1395336185,2.0754667275,-0.0533087777,1.6043904177,1.4510780566,-1.4494205494,-1.6743222308,-0.7891897167,1.9230722338,-0.4579209087,1.3466589398,0.0059789654,1.5878873204,1.0569461043,0.1075294648,-3.668939392,-0.4000715711,-0.3275789956,3.3709284719,-1.1511292931,-0.3921075353,0.5506825909,0.2474860562,-2.0558333813,3.1978341353,2.9173225761,-1.8351351399,0.0947724634,-1.3346188754,0.5042624172,-0.0953217364,-0.9926589332,-1.6450878712,-0.0277988435,-0.3421255794,1.3590876759,-0.0793026748,-0.1298728157,-0.5544979857,-1.3736458126,-0.1662139256,-2.0226509205,-1.0614948711,0.350547469,-1.5609806621,-0.6246888588,1.663407062,1.2680636225,-1.2933979254,1.1070469266,-0.2142450758,-2.3396953208,0.6209748952,-1.1883486539,-2.0244246722,-0.9230093705,-1.0046585452,-1.8305976615,1.7439845215,-1.2653595091,-0.5970046075,-2.0162280773,0.286592876,0.4915987499,-1.0039190084,0.1856524462,0.4286532912,1.5832943095,1.7843072899,-0.1170304222,0.6160926821,-1.7085442305,0.0345014001,-0.3205681476,0.979316578,0.0467500829,-0.6990611961,1.825057599,1.2093721934,-0.6033302186,0.4085219284,-1.5058396791,2.1177423857,-0.6310023457,-0.2696833087,0.799724562,-1.7601816234,0.1969061284,0.2159186052,-1.2634823258,-1.8932082408,-0.1160123827,-1.7513984701,-0.9036343855,0.596256683,0.1926643564,-1.413754561,1.0218504158,1.2608473751,2.1576881494,-1.1568975164,0.5991623898,2.0609150006,-1.5504452606,-1.3394764824,-0.9647296135,-1.6320166678,0.5470441422,0.3228710731,0.8469741594,1.1742099654,-0.2195133222,-0.5838450721,-0.6311325078,0.9456830629,0.1911107075,-1.077615839,-1.9241343926,0.2373393653,-0.8323531843,-0.1188731583,1.9196197047,-0.2455867988,0.0853923229,-0.3606102837,0.5142258994,-0.3573342114,0.1657606696,0.3018345186,-1.6180468797,-1.3633642253,1.1508469449,-0.1410288636,0.753862447,1.4824451297,1.6154055238,0.5491875672,0.3082816688,1.8868283172,0.904578551,-0.5187102269,0.5061911772,-0.9588473571,-0.4050177937,0.0913124012,-1.2491798392,0.6344798059,1.137621902,2.1520163957,0.4170069007,0.3700558615,-1.1882340926,-0.847435977,0.7615121647,0.0835359009,2.0886033277,-1.7583196544,-1.1521417885,0.6616879199,-0.140659426,-0.2101665399,0.0705552688,0.5746948701,0.9980810974,-0.478778033,-1.4681561187,0.2786367624,2.2859355865,-1.0149787523,-0.3479445689,-0.6204724509,-0.4595107747,0.9658473247,-0.429256262,-0.1378007278,0.1119109079,-2.2572506429,2.4925857763,0.8575098088,-2.391634859,-0.0154425885,-0.6438813564,-0.4635606687,-2.0260945,0.2370029844,0.0469810158,-0.6737544096,-1.4112825185,0.2181624529,0.0874734488,-0.4282716424,1.1275995356,-1.1590420769,1.8542529706,-2.1071403668,-0.1685187144,-2.7430188674,-1.4718256744,-0.9088422527,1.105877707,-1.9070066779,1.5821482533
