encog,BasicNetwork,java,3.3.0,1,1437694650743
[BASIC]
[BASIC:PARAMS]
[BASIC:NETWORK]
beginTraining=0
connectionLimit=0
contextTargetOffset=0,0,0,0
contextTargetSize=0,0,0,0
endTraining=3
hasContext=f
inputCount=972
layerCounts=1,51,101,973
layerFeedCounts=1,50,100,972
layerContextCount=0,0,0,0
layerIndex=0,1,52,153
output=0,0,0,0,0,0,0,0,0,0,0,0,0,0,0,0,0,0,0,0,0,0,0,0,0,0,0,0,0,0,0,0,0,0,0,0,0,0,0,0,0,0,0,0,0,0,0,0,0,0,0,1,0,0,0,0,0,0,0,0,0,0,0,0,0,0,0,0,0,0,0,0,0,0,0,0,0,0,0,0,0,0,0,0,0,0,0,0,0,0,0,0,0,0,0,0,0,0,0,0,0,0,0,0,0,0,0,0,0,0,0,0,0,0,0,0,0,0,0,0,0,0,0,0,0,0,0,0,0,0,0,0,0,0,0,0,0,0,0,0,0,0,0,0,0,0,0,0,0,0,0,0,1,0,0,0,0,0,0,0,0,0,0,0,0,0,0,0,0,0,0,0,0,0,0,0,0,0,0,0,0,0,0,0,0,0,0,0,0,0,0,0,0,0,0,0,0,0,0,0,0,0,0,0,0,0,0,0,0,0,0,0,0,0,0,0,0,0,0,0,0,0,0,0,0,0,0,0,0,0,0,0,0,0,0,0,0,0,0,0,0,0,0,0,0,0,0,0,0,0,0,0,0,0,0,0,0,0,0,0,0,0,0,0,0,0,0,0,0,0,0,0,0,0,0,0,0,0,0,0,0,0,0,0,0,0,0,0,0,0,0,0,0,0,0,0,0,0,0,0,0,0,0,0,0,0,0,0,0,0,0,0,0,0,0,0,0,0,0,0,0,0,0,0,0,0,0,0,0,0,0,0,0,0,0,0,0,0,0,0,0,0,0,0,0,0,0,0,0,0,0,0,0,0,0,0,0,0,0,0,0,0,0,0,0,0,0,0,0,0,0,0,0,0,0,0,0,0,0,0,0,0,0,0,0,0,0,0,0,0,0,0,0,0,0,0,0,0,0,0,0,0,0,0,0,0,0,0,0,0,0,0,0,0,0,0,0,0,0,0,0,0,0,0,0,0,0,0,0,0,0,0,0,0,0,0,0,0,0,0,0,0,0,0,0,0,0,0,0,0,0,0,0,0,0,0,0,0,0,0,0,0,0,0,0,0,0,0,0,0,0,0,0,0,0,0,0,0,0,0,0,0,0,0,0,0,0,0,0,0,0,0,0,0,0,0,0,0,0,0,0,0,0,0,0,0,0,0,0,0,0,0,0,0,0,0,0,0,0,0,0,0,0,0,0,0,0,0,0,0,0,0,0,0,0,0,0,0,0,0,0,0,0,0,0,0,0,0,0,0,0,0,0,0,0,0,0,0,0,0,0,0,0,0,0,0,0,0,0,0,0,0,0,0,0,0,0,0,0,0,0,0,0,0,0,0,0,0,0,0,0,0,0,0,0,0,0,0,0,0,0,0,0,0,0,0,0,0,0,0,0,0,0,0,0,0,0,0,0,0,0,0,0,0,0,0,0,0,0,0,0,0,0,0,0,0,0,0,0,0,0,0,0,0,0,0,0,0,0,0,0,0,0,0,0,0,0,0,0,0,0,0,0,0,0,0,0,0,0,0,0,0,0,0,0,0,0,0,0,0,0,0,0,0,0,0,0,0,0,0,0,0,0,0,0,0,0,0,0,0,0,0,0,0,0,0,0,0,0,0,0,0,0,0,0,0,0,0,0,0,0,0,0,0,0,0,0,0,0,0,0,0,0,0,0,0,0,0,0,0,0,0,0,0,0,0,0,0,0,0,0,0,0,0,0,0,0,0,0,0,0,0,0,0,0,0,0,0,0,0,0,0,0,0,0,0,0,0,0,0,0,0,0,0,0,0,0,0,0,0,0,0,0,0,0,0,0,0,0,0,0,0,0,0,0,0,0,0,0,0,0,0,0,0,0,0,0,0,0,0,0,0,0,0,0,0,0,0,0,0,0,0,0,0,0,0,0,0,0,0,0,0,0,0,0,0,0,0,0,0,0,0,0,0,0,0,0,0,0,0,0,0,0,0,0,0,0,0,0,0,0,0,0,0,0,0,0,0,0,0,0,0,0,0,0,0,0,0,0,0,0,0,0,0,0,0,0,0,0,0,0,0,0,0,0,0,0,0,0,0,0,0,0,0,0,0,0,0,0,0,0,0,0,0,0,0,0,0,0,0,0,0,0,0,0,0,0,0,0,0,0,0,0,0,0,0,0,0,0,0,0,0,0,0,0,0,0,0,0,0,0,0,0,0,0,0,0,0,0,0,0,0,0,0,0,0,0,0,0,0,0,0,0,0,0,0,0,0,0,0,0,0,0,0,0,0,0,0,0,0,0,0,0,0,0,0,0,0,0,0,0,0,0,0,0,0,0,0,0,0,0,0,0,0,0,0,0,0,0,0,0,0,0,0,0,0,0,0,0,0,0,0,0,0,0,0,0,0,0,0,0,0,0,0,0,0,0,0,0,0,0,0,0,0,0,0,0,0,0,0,0,0,0,0,0,0,0,0,0,0,0,0,0,0,0,0,0,0,0,0,0,0,0,0,0,0,0,0,0,0,0,0,0,0,0,0,0,0,0,0,0,0,0,0,0,0,0,0,0,0,0,0,0,0,0,1
outputCount=1
weightIndex=0,51,5101,102401
weights=##0
##double#102401
   0.4862826048,0.9753307619,0.0936979738,-0.0538325656,-0.9085581175,-0.2072617612,0.4733125806,-0.7743536546,-0.4834749933,0.3510162768,0.7925358744,0.796164705,0.6817401327,-0.5696633571,0.1060101981,-0.6231023316,0.8816325932,-0.1556822731,-0.2171343122,0.8371796514,-0.9241619249,-0.1048727467,0.8770698433,-0.5954839573,0.6904880113,-0.9628222105,-0.311841568,0.6010916653,-0.8423613889,-0.2186890827,0.0012607169,0.9284911018,0.9323420224,0.7550246623,-0.9248037725,0.3491073253,0.1097542828,0.2397175439,0.4245694464,0.0584790372,-0.3283375412,-0.0824246114,0.7382397841,0.9428319585,0.8624735214,-0.266207837,0.6125931098,0.2145396055,0.3163434082,-0.6300944184,0.3224527764,-0.4133704563,0.6987048527,0.1586685466,0.9930849672,-0.1534183908,0.8610947719,-0.6933094767,0.5483230859,-0.9407375346,0.2808758129,0.7575500632,0.6734430668,-0.9034000166,0.5561390192,0.0250515597,-0.0159514991,0.9893586632,-0.5013055965,0.5964342083,0.4596515119,-0.9351917264,0.1418251674,-0.3497979343,-0.2852248451,0.480778293,0.5661583711,0.8419732376,-0.2150120982,0.5456375804,-0.4791713589,0.7874979384,-0.1604098268,-0.8064510938,0.8601396491,0.130593224,-0.1026313726,-0.7096656332,0.818074724,0.1508430458,0.6853416471,-0.9602442345,-0.5268865576,0.7990634443,0.5901355412,-0.1575832077,-0.5736808487,0.3777341434,-0.528488431,-0.6660484088,-0.4921151612,0.3517081693,-0.2120896063,0.9043881114,0.018811269,-0.8768565615,-0.5072415229,0.2064926819,0.5088113562,0.6769408056,0.1908978394,-0.2456020909,-0.1606201008,-0.7001236801,0.8460444295,-0.795840712,0.4030229336,-0.6485025247,0.8403639679,0.0061330973,0.7678070087,0.408132347,0.5407877699,0.5662253235,-0.8966433807,-0.970344893,-0.9783453916,-0.0936139242,-0.4136167886,-0.5426572274,-0.4674421042,-0.0807571898,-0.7932756035,-0.3515045377,-0.5552455479,0.4579464793,0.9142774125,0.7382732738,-0.9477877594,0.4853671881,0.6314411511,0.2101899468,-0.9106446326,0.0802346132,0.0055030028,-0.3345055616,0.6820688855,0.4276182691,-0.7895884484,0.8978149041,0.4401560216,0.9657113872,-0.5634066237,-0.5462711125,-0.8595651082,-0.3780890613,0.287133301,0.1076732063,-0.6240021891,-0.4936787823,-0.0978711864,-0.704665707,0.9455213721,0.8456604244,-0.2126327011,0.3995094661,-0.3947989788,-0.695013469,-0.1209726287,-0.9576777384,0.089912574,-0.1867614193,-0.2447766705,-0.9767910738,0.7567730057,0.5288452731,0.7668440511,0.8689152644,-0.644973505,-0.9304264071,0.0658718826,0.2205267118,-0.5670508551,-0.1081471418,-0.7416988048,-0.81427572,0.5101926777,-0.1687803114,1.006636278,-0.7289440966,0.5111677505,-0.3731622089,-0.4300164279,0.0071969311,0.2710181882,-0.6359972796,0.8236135813,-0.6464126598,-0.7715157189,-0.06550963,0.0982150383,-0.803349346,-0.447788476,0.972730344,0.1999685288,-0.0178615171,0.9497017266,-0.039855891,0.0460714396,-0.2064812733,-0.4990590028,-0.3801579207,0.4868491615,0.8969335795,0.24465704,-0.7024295864,-0.6358692729,-0.1438329866,-0.5752395837,-0.7648252227,0.1039940963,0.1339878953,-0.6850263999,-0.6359863886,-0.0395045578,0.5877228574,0.5248967214,0.121103944,-0.4106321705,0.6853377472,-1.0832614566,0.4915460186,-0.5244532735,-0.2408089953,0.3849448299,0.1338635597,-0.6363729458,-0.5900892127,-0.4099900549,-0.8350475797,-0.0423467395,0.3738619199,-0.0501661107,0.4502601542,-0.0668937121,-0.3006714285,0.7117031248,0.7108589306,-0.3129887174,0.7550569019,-0.7938605432,0.1309739739,-0.9193188969,0.5113089949,-0.0283698047,0.1825679259,-0.9416577844,-0.0588506412,0.981670756,-0.4886194171,0.1069782095,0.9137983021,0.0600945481,-0.4551454893,-0.8820835886,-0.0436343771,0.7402729122,-0.8885631773,0.3678666808,-0.6900813516,0.4393263108,-0.1221738567,-0.2176449691,0.7079105728,-0.0498750205,-0.1297375532,0.0615503149,-0.5161441687,-0.9330278673,-0.1670782505,-0.8852656915,0.5317041375,0.8395104048,-0.3300793031,-0.9754923433,0.5755758,0.4299840377,0.8876369155,-0.7716000933,0.4961594992,-0.3827097773,0.9145119042,-0.2495052503,-0.611439971,0.8274293781,-0.1003416226,0.1875341524,0.1411466939,0.6232041187,-0.4464570083,0.5064153787,0.7673672065,-0.4581843533,-0.4410027245,0.7580341998,0.8817508861,0.7263919008,-0.4389069394,-0.0093845314,0.2100269591,-0.1339930102,0.0631102705,-0.7396453158,-0.8201302077,-0.8576360815,0.7043183522,0.2473343852,-0.1400959377,-0.1307956884,-0.4081222902,-0.2065274634,-0.7153809282,-0.6018310674,-0.2853281409,0.4185001052,0.303420552,-0.3394554577,-0.728757722,-0.9027820126,-0.5670538336,-0.3458062476,-0.3758565608,-0.7220790253,0.2203693534,0.630516462,-0.2178698055,-0.9449684956,-0.536181834,-0.1507093721,0.3509122794,-0.0816369593,-1.2918287472,0.6561190502,0.8928564214,-0.358894737,0.9427888421,0.3693756915,0.3951397682,0.7174539742,0.2059558324,0.3388828621,0.8124258513,-0.6695361637,0.2321916351,-0.8139270825,0.7018077768,-0.4140432593,-0.0946508286,-0.2392859848,0.8159498326,-0.4114716267,0.5761016791,-0.7529600079,-0.2034136951,-0.6931994506,-0.1868465164,-0.6486122035,0.5823444186,0.7653776444,-0.5306899199,-0.0604068393,0.1250798181,-0.0519887217,0.0187516454,0.550041968,0.3558559445,-0.5736711391,-0.3291455626,0.7482830643,0.3213879757,3.2846679878,-0.3429937173,-0.7046749104,0.2240830549,-0.1157928067,-0.7415254234,-0.5879429167,-0.3150481239,0.0595616321,-0.0713496833,-0.3340359492,-0.7338802412,-0.1711355839,0.4814970709,-0.8165809431,0.3312074541,0.2018626828,-0.1076171841,-1.6084981701,0.7142041373,-0.015082464,-0.8669704869,0.5440447334,-0.3825507827,0.3972743026,0.55453092,-0.1348180325,-0.3539658201,-0.4273983555,0.6918181218,-0.4169470366,-0.4944955059,-0.7322258373,0.5304147866,0.7465240986,-0.0858742393,-0.0946131924,-0.6372806625,0.8497373832,-1.1441464705,-0.5907033237,-0.2893169232,-0.6093651627,0.4994637352,0.0514455846,-0.1162713861,0.9596166858,-0.627345444,0.8483919626,0.451359571,0.0711535904,-0.533800007,0.6297060692,-0.9306150045,-0.1727641824,-0.5962405509,0.679749995,-0.726710307,0.057550551,0.9708796873,0.7066456458,0.9879670168,-1.3054041012,0.5961266095,-0.2708800076,-0.9154729955,0.8116434355,0.3074717551,0.8354891356,0.0107857839,-0.2104514668,-0.7123348161,0.4989929487,-0.5819779629,0.5227525129,0.6221652402,0.1078039426,-0.0603781261,-0.9866547805,-0.8879524047,-0.518578243,0.7424644576,-0.9980810435,-0.4094373364,0.1268339693,0.6043435118,0.0297200666,0.8757000671,-0.9505321033,0.1886162188,-0.1012742348,-0.116599206,0.079779683,-0.2681705462,0.4134117978,-0.5990404539,-0.1129304491,0.6652630388,0.054481432,0.5437325612,-0.7939863073,-0.8666619974,0.2145559026,-0.0690425625,0.2069663106,-0.6304897588,-0.8413335123,-0.3512800315,0.906643084,0.4379122087,0.5189684681,0.3019054924,-0.3213520615,0.9769126159,-0.0958946891,0.5390906516,0.8450249707,0.1295253228,0.5247616183,0.4816531284,-0.2671483042,-0.5547368036,0.7136891075,-0.7243450434,0.0265408238,0.9905980537,0.2248911422,0.4376506693,0.4180306648,-0.2296370276,-0.2920552566,-0.9570117723,0.5796796404,-0.5987962685,-0.6436511271,-0.8575587118,0.3775839474,-0.4418671617,-0.9997160365,-0.5366838952,0.3708388617,0.6096178895,-0.370241744,-0.2140724782,0.3245672262,0.5154345973,0.6495412503,-0.9664488967,-0.5683526682,-0.3063934041,-0.3730926086,0.9530658123,-0.734397083,-0.6806591742,0.2031915153,-0.7317586684,0.6597592582,0.6734122179,-0.1646905387,-0.7698425156,-0.5807416115,-0.6503358834,-0.3905479917,0.4972364634,0.9529517921,-0.2701483727,0.046295273,-0.4062504574,-0.7604100332,0.9816904985,-0.716605719,0.1387923396,-0.8296392619,0.0620868796,1.044944475,-0.0977159454,-0.5381131076,-0.3098617168,0.777990364,-0.0926516391,0.5225624471,-0.4349483744,0.5438996472,0.0707909523,0.1263355043,0.3765378784,-0.4793950686,0.3854788586,-0.9213635313,-0.8983017448,0.6394372467,-0.413408583,-0.3850547656,0.6482436329,0.7732081914,0.0235098535,0.7110011679,0.8600851213,0.2957152496,-0.7708987491,0.8503739267,-0.7961442853,-0.2424678877,0.4034039764,0.9580090672,-0.7976593805,0.3195140647,-0.7402015963,-0.5263936571,0.3076920904,-0.2481188739,0.8903534611,-0.476761998,-0.7077407421,0.919005842,-0.5203034062,0.6802406688,-0.2447172048,0.8408541587,0.2231435525,0.9775618694,-0.7317317695,-0.3975875354,0.1810771434,0.6242810254,0.4570465511,0.2293169234,0.8320640648,-0.0318916475,0.5072721106,0.7388529759,0.3103408707,-0.3532241879,-0.282630416,0.0389693968,0.791163881,-0.7686708778,0.4891089209,0.3945821413,0.1717160188,-0.8742205643,-0.0989898977,0.4911275486,-0.5643595533,-0.6030888809,0.3578096556,0.4704565839,0.9446980415,0.2888023781,-0.2190356145,-0.6202606168,0.810833999,0.5379282809,0.7354223216,-0.5868330274,0.4572449674,-0.491501694,-0.5771247904,0.8357340849,-0.5158373775,0.4811344081,0.2923439566,-0.8648542327,-0.0572458285,0.222604483,-0.3721124342,-0.2255014603,-0.9091713812,0.6638791779,-0.5922854026,0.0676616878,0.1320634986,0.7261605584,0.1730365391,-0.7390285242,-0.864690892,-0.8315720609,-0.1463156705,-0.412607166,0.6874534955,0.3583305641,-0.8972072545,0.2374576541,-0.1834917161,0.2380080078,0.6660440838,-0.8124677107,0.2189332864,0.4388197443,-0.3518888547,-0.7833751695,0.3024271098,-0.1775901167,0.1157610183,0.90571814,0.4276852116,-0.2792894765,-0.5249924175,-0.3308744445,0.7600538392,0.099303483,0.2837790782,0.5159147564,0.3205472045,0.4574755186,0.9890722959,0.4970985163,-0.188620148,-0.0927057508,-0.3267677983,0.2281682398,0.8236734108,0.9442101278,-0.0290879352,0.4131697729,-0.747257861,-0.6325241592,-0.1560547348,0.3455673888,-0.0015723745,0.5305758935,-0.3266965992,-0.1931552574,0.8859195596,0.1288021686,0.1881959569,-0.7190489648,-0.6802348924,0.6878273985,-0.4554908666,-0.2405902021,0.7191433434,-0.2058732587,0.0801630009,-0.7301870144,-0.089821295,0.2513615387,-0.4284397772,0.387154829,0.3711884524,-0.8636984946,0.5921149475,0.7565032909,0.0987731977,0.9973298465,-0.1151613325,-0.3548937507,-0.4555200425,0.846752696,0.4560527432,-0.331140418,-0.4263312912,0.9561257062,-0.0686883252,-0.1497255988,0.8843557092,-0.1997638406,-0.0472569678,0.360409339,0.0041691966,0.9384276937,-0.7242474513,-0.102377978,-0.5687088836,0.595802614,-1.2509961694,0.0949877881,-0.8160594488,0.7145945444,0.7141741166,-0.2325722195,0.9422495774,-0.2452271677,-0.1466744883,-0.0951771776,0.7955865237,0.0753945877,0.1447761396,0.2133265006,-0.6372207878,0.4631926842,0.7602510198,-0.992190215,0.8358580509,-0.7532502351,0.7016419729,-0.5852677239,-0.1047947757,0.1736805054,0.0830736881,0.7843071438,-0.0987264428,0.3868572354,-0.5920430265,-0.1775258418,0.849342307,0.1413818779,-0.197967851,0.5133449517,0.6144340577,0.5225871761,0.6034362922,-0.6687289608,-0.1030283712,-0.4562255767,-0.731673675,0.9979745951,-0.446580957,0.8527851043,-0.8532830215,0.2884950987,0.5320333045,0.5795474816,0.1299733977,-0.5055885842,-0.967225011,-0.3992715873,-0.1343823139,-0.0833721258,-0.4946500133,-0.4451115389,-0.4142214745,-0.1955979797,0.1985774973,-0.2703559545,-0.8578220782,-0.9751149535,0.5208252395,0.7374291667,-0.6429332196,-0.4502620088,-0.1901091631,-0.0611550998,0.6905740143,-0.5466119091,-0.0527274445,0.889883049,0.0974209727,-0.0073328723,-0.6495202463,-0.2382848962,-0.191415087,-0.482206996,0.0748278975,-0.5226411181,-0.2969673553,-0.133140421,0.9176893507,-0.5885509119,0.4769107518,0.5842275051,-0.8155686614,0.0220011102,-0.9245873609,-0.5456064347,-0.5029920567,0.5423779209,0.487228042,-0.5014379556,-0.665107055,0.535389455,0.4717421187,-0.7686133402,-0.2702740612,-0.5293212758,-0.4592053992,0.0705135436,0.1262168197,0.0436901557,-0.7424454407,0.4001429754,0.4969897656,0.6045133419,-0.923007601,0.0793307553,-1.024714936,-0.6699084221,0.958297896,-0.3505982738,0.263846305,-0.4171409835,-0.925007258,0.5768938895,-0.8344528838,-0.9587925619,0.9606356601,0.2540141097,0.2227409635,0.9219079865,0.3689121876,-0.4595497083,-0.5529993206,-0.7774938294,-0.6511315468,-0.2624205809,-0.972545641,-0.5444711872,0.3851239299,-0.7054756379,1.0522858362,-0.2129307154,-0.8248872922,0.2766525887,-2.8554988018,5.9448313506,-0.5975660906,0.1590092232,0.2714052657,-0.6500395123,-0.9201552962,0.7435598417,0.5908989527,-0.4259577129,0.530958602,-0.4274402111,0.0378253771,-0.8748503126,-0.1321437496,-0.530769603,-0.1733985375,0.5734479779,-0.6348141137,-0.3901170495,-0.4191635342,0.6831358934,-0.5165524297,-0.9816638533,-0.2300817835,0.8757972333,0.4513396984,0.0192104888,0.7437109275,-0.9326547923,0.2448324326,-0.5981576693,-0.1189940513,0.8246015278,0.776234523,-0.3658948844,-0.0782525033,-0.1130513642,0.5349365959,-0.9975097911,-0.6012832584,0.9514756343,-0.8642901225,0.5407172861,-0.1217004858,0.9276126879,0.0841960441,0.4067821086,-0.9067542134,-0.3285119758,-0.8877577826,-0.4378758384,-0.0842130818,0.3852198902,-0.5910030828,-0.6526565278,-0.0331274656,-0.7929505285,0.1692163794,-0.0528984952,-0.3579610984,0.9743911977,0.2433709232,-0.9381884455,0.2985457812,0.8452591506,0.6698666179,0.2283864146,-0.967987762,0.4054236963,-0.5296406378,-1.2128332245,-0.4366086894,1.7326739726,0.2324926244,-0.4324417653,0.4419569258,-0.0945651095,-0.6629249615,0.9269915854,-0.98910282,-0.6115206607,0.1178232698,-0.7404711101,0.3790653754,-0.4313642338,1.0053310781,-0.6232163732,0.6956059449,0.723435894,0.5755260498,-0.7030322045,0.9614851074,0.7541939544,-0.2301429395,0.6810908167,-0.6723835894,-0.8237966939,0.029500001,-0.4697163911,-0.9715945448,0.7073740432,-0.6075445377,-0.5138699041,-0.8772247998,0.2481044569,0.1864273161,-0.7699563904,0.4340509352,0.9146428252,0.9307734313,0.7099973661,-0.543064649,3.2950706653,0.7581358045,-0.7206381926,-0.6270262845,-0.3275919534,-0.5761051677,-0.6491221665,0.0709332829,0.1193798052,0.8617408989,-0.9689390375,-0.7344217914,0.6482376053,0.3907478885,-0.7142775761,0.2735199615,0.4335320402,-0.5647774453,0.338946149,-0.8583259791,-0.5994674898,0.4790351237,-0.6742344474,0.0906255287,-0.7776809845,0.4304401105,-0.234690095,0.3980032376,-0.6633168768,-0.2386299511,0.5743818341,0.8353913704,-0.2819783825,0.8641918042,-0.2592063964,-0.4389139017,-0.6907696229,0.2459432222,-0.4833837319,-0.0137286738,-0.6008599713,-0.6218116109,0.6457816944,-0.7573006959,0.2595167122,0.6779664731,0.9616562434,-0.6053613246,0.4323614358,-0.3840260577,-0.8334540403,-0.6509238555,-0.0726573386,-0.0948643256,0.467741809,-0.9691615053,-0.2742324031,0.9123831545,-0.4119286494,0.0726514878,0.8566703851,-0.3876161217,-0.1343676587,-0.8532802096,-0.2578729015,-0.6268808735,-0.2236792212,0.519284859,0.9587128801,-0.1547710562,0.7092123235,0.4958203647,-0.1736527479,0.3334557786,0.5987996665,0.4240455315,-0.0737244973,1.0029620188,-0.6622478387,0.854771548,-0.0646023508,0.2122391085,-0.3615861811,0.6591428911,-0.4488981552,-0.0502760336,0.9680886047,-0.6923679049,-0.8361310053,-0.0942143183,0.4384117799,-0.2994009438,0.842657866,-0.126258062,-0.3265439722,0.9267774382,-0.691050277,-0.2027711689,0.2995196917,-0.5911694924,-0.8046149879,-0.6969942896,-0.7143609291,0.7616210947,0.5418452929,0.1264955413,0.7617219843,0.5302021769,-0.8913149953,0.7437357125,-0.2125306232,0.4772177292,0.338596643,0.3503574503,0.105174405,0.2751007243,-0.464489427,-0.2166752585,-0.6962800666,0.9717484816,-0.7359087352,0.3275731371,-0.8401525746,0.9038636362,-0.4920154391,-0.8656704194,-0.173642219,0.7500172885,-0.384727124,-0.2309224097,0.0631565217,0.2615911042,-0.7410846929,-0.7276473073,0.6529518217,0.6841235397,0.3992508351,-0.869972849,0.490692302,0.0388726756,-0.8755620852,0.9396085432,0.0084345822,0.6283274391,-0.1550638373,-0.5488015619,-0.7958048749,0.0387987572,-0.6193719399,0.0263144591,-0.4606966505,0.1417655857,0.2286318076,0.7364497586,0.3400423339,0.5133440009,-0.3913546374,0.8127909929,-0.2997849302,-0.6200088996,-0.4600701162,-0.0189690968,-0.5797956848,0.3797977301,-0.488566193,0.9728243248,0.1202767734,0.838467823,0.0320152125,0.0489506013,0.4576975598,0.553377593,-0.8911153938,-0.7874749449,-0.7002570566,-0.0221143125,0.641527328,-0.2959548513,0.1781519762,0.7631129996,-0.6559384795,-0.267099925,-0.1039503041,0.7704255488,0.444477986,0.9236537706,0.709764545,-0.3978261914,0.8625735534,0.9450124908,0.0779221002,-0.5137394583,0.2990777194,0.3706118923,-0.9832482418,0.4010672206,-0.3652840322,-0.6165277392,-0.7846253215,0.4528728917,0.0986990836,-0.3472543778,-0.1375888139,0.799813965,-0.8998008298,0.6887068999,1.0297429883,-0.1670140258,-0.9932077664,-0.9876391062,-0.3799054275,0.7516184166,-0.6597463783,-0.1860158691,0.2704052406,0.5995896099,0.2604865556,0.572854321,-0.2239098886,0.8557310969,-0.7961712298,-0.5665188108,-0.7943194657,-0.9579402885,0.8741951349,0.0894426699,-0.5578756262,-0.0965964366,0.5837514468,-0.6491687081,0.4634270408,0.7219674,-0.8265831562,-0.4214106451,-0.5250025036,0.6906471667,0.0373751023,-0.6111081332,0.3335164375,-0.9732626933,-0.2429639406,0.8891111942,-0.3149945688,-0.0731113553,0.8850690404,0.7567767015,-0.3353276295,0.0400312733,-0.0182913532,-0.229929762,-0.7950483848,0.6922973352,0.5737079764,0.8251737201,-0.5782817983,-0.4685588715,0.6311731566,0.0152099606,-0.9566237862,-0.0828573483,-0.8048808228,0.9532018869,0.3330163935,0.3769769038,0.2595484502,0.1761747874,0.3056916971,0.8456000826,0.3581278922,-0.9314823311,0.4100071935,-0.3173375252,0.69226743,0.5160952201,-0.4377139733,0.5360905565,0.7383519565,0.2495404307,0.75318485,-0.4350077386,0.3118370514,0.2551786122,-0.4006484068,-0.957015731,-0.5824516802,-0.2517346368,0.412883605,-0.9343497539,-0.2415729802,0.8708998142,-0.4751139038,0.9091245308,0.8488472927,-0.3519549386,-0.1099906547,0.8307206104,-0.7443718703,-0.0551574674,0.3886370218,-0.5318843009,-0.4851917719,-0.9306329221,-0.6890056449,-0.4151152131,-0.8044906551,0.9861542462,-0.7815799497,-0.1070736354,-0.7313373817,-0.0356543898,0.7754112669,-0.8988493706,0.7733119196,-0.3762234921,-0.9166816993,-0.8005389669,-0.6359517748,-0.7168722206,0.3828047822,-0.3165683749,-0.6506984013,0.7538665726,-0.1472580846,-0.9498491748,0.2577923952,-0.77917727,0.2022794082,-0.5246802343,0.3230383172,0.7454785296,-0.5676406275,0.081128611,-0.3155937759,0.6346977788,0.2080600109,-0.2157886979,0.185505536,-0.2670748425,-0.8248272852,0.8318103327,0.5787007898,0.2318997885,0.4910461023,-0.5802111257,-0.789453207,0.9501137173,0.1606005716,-0.3435755749,0.4324161255,0.0545691808,-0.8285726015,-0.2057899792,0.9414414393,-0.7330448058,0.4758996949,0.1103547894,-0.5552996946,-0.4642013436,-0.513865203,-0.7261926658,-0.0354669908,0.5365269281,-0.1196319095,0.5830902311,0.2906824574,-0.4150608917,-0.7510994258,0.7878719504,-0.3211130033,-0.7775760971,0.0649274739,-0.5052539934,-0.0639782982,0.1950011066,0.8084116331,0.0686912546,0.0403016106,0.0142563638,0.1806400979,-0.2248555158,-0.7142296888,0.8309229497,0.5037479549,0.2140479022,0.2670445987,0.2069535701,0.9559362868,0.0174277395,-0.881493089,-0.49740972,0.1265892803,-0.9454514792,0.9457318362,0.2011215693,0.2884715217,-0.8879417737,0.3479726598,-0.5383302652,0.3162619686,-0.9407908329,-0.1865221143,-0.0639936849,0.520808124,0.5180716385,0.2202339837,0.8810709842,0.4044942999,0.8096538032,-0.15929708,-0.5990130602,0.1247399845,0.3871327027,0.0145163485,1.1392545599,0.2228279948,0.2476666198,0.9829213449,0.9292745235,0.4611696892,0.5863393954,0.8856523427,-0.1254300801,0.0234314836,-0.1679038687,0.7167264406,-0.001339464,-0.6241192752,-0.5931254644,-0.8271782052,-0.4812694374,0.2597331352,0.6257341858,-0.4460789907,0.8632760976,-0.5792336533,-0.4871838032,-0.235295553,0.8126582098,0.6449651474,0.4628726633,-0.2534315051,0.8289804472,0.4277696498,-0.5133153502,0.2364665162,-0.682568428,-0.6809820384,-0.0024749311,-0.01128962,-0.3452629092,0.2237514872,0.3441179993,-0.9110896344,-0.7568475859,-0.170331015,-0.9775146466,0.9473807719,0.3121599265,0.5826077533,-0.8390968421,-1.909624303,-0.1778000757,0.3320476893,0.1950031326,-0.7418583481,0.7710036068,0.9683451026,-0.1717401698,-0.8584266125,0.3160799186,0.1498184258,0.673531945,0.270339451,0.4104484267,-0.8501247396,-0.211033731,-0.9299010213,-0.28711243,0.7733667038,0.9340421887,0.782799917,0.007377769,-0.0888953491,-0.2082804321,0.6113886429,-0.2634176771,-0.1080791436,0.0340376028,-0.7036435375,-0.749362118,-0.052657383,0.674217183,0.0737679998,-0.9493071045,0.8495370631,0.0370692696,-5.4972191247,0.7490102684,-0.3400543777,-0.5340725026,0.2622602566,0.476123573,-0.5648829242,0.6068050547,-0.7372173112,-0.7323287378,-0.4938046976,-0.2900359286,-0.8800968374,-1.5339218609,-0.2097450198,-0.8009042656,0.1938955632,0.732341649,0.9991785703,-0.5731853178,-0.5770414827,-0.4563620409,-0.9231697594,0.3167154707,0.4249715002,0.0322563116,0.9809934095,-0.5275812593,0.2934576839,0.3344339477,-0.3589639577,0.3341175599,-0.3401225953,-0.0065505957,0.1438070041,-0.2525503032,0.3252545076,-0.2857047582,-0.1024773005,0.5826395273,-0.2185122464,-0.045656376,-0.5856888908,0.5474561541,-0.3302532119,0.5356325617,0.8719316587,0.4065616798,-0.0902958321,0.2282534139,-0.2437206433,-0.9074445247,0.533898673,-0.6400996324,-0.0404988627,-0.8156089971,-0.1300218338,-0.2274862091,0.8317606115,-0.479504207,-0.0098186255,0.2539050829,0.709804956,-0.3989019845,-0.634580359,-0.8875886368,0.0118441188,-0.1282157183,-0.910285389,0.8600652014,-0.5666835421,0.1211254733,-0.3989352201,0.3410946083,0.0572893179,0.4325810628,0.6096150582,0.4701133008,0.1367642267,1.0624896917,0.8674692472,0.6220059748,0.5458178336,-1.0272962621,-0.2303345627,0.6389525037,-0.6851819739,0.3268667077,0.6054816649,0.7073864895,-0.5917655922,-0.8854176561,-0.8066063451,0.3898245044,0.4176563909,0.4236087576,0.2426811788,0.9222228761,-0.4153902658,0.6451008435,0.7977734631,0.9746396431,-0.7096559684,-0.8512961998,-0.0996126407,0.8726693958,0.3613521803,-0.6715352552,0.3107158277,0.9597679805,0.1853433784,0.2235598675,-0.6757535285,-0.053719828,-0.7002021942,0.2924602763,-0.1178992143,0.8339269556,-0.2959882552,0.5076178947,-0.0551592188,-0.4338980057,1.060510948,-0.1729809593,-0.671095804,-0.5658525012,-0.0633401764,-0.5802056305,0.6657426885,0.4798199215,-0.9234811776,-0.3801697608,-0.4865440315,0.2629550747,-0.1873851044,0.4543617141,0.9896067306,0.3185073813,-0.8504043618,0.0253725035,1.5001989067,-0.2639107207,0.0668489998,-0.4548866013,-0.9825091031,-0.6672334577,0.4344034828,-2.2264761706,-0.6509067111,-0.6176202494,0.6254472487,0.6894461866,0.5337708769,-0.0803067123,-0.8425716469,0.690945258,-0.111446035,-0.2768272031,0.5395816721,-0.4657081891,0.6773636637,-0.0546936021,0.3878035769,0.4299531738,0.0707087838,-0.4432432955,-1.0656203067,0.1426702018,-0.7721721567,-0.4556744151,-0.2808381182,0.9485613056,-0.1139033088,-0.49485509,-0.1188516064,2.8719166639,-0.384584753,-0.6068094684,-0.6765131298,-0.1173132316,-0.003829843,-0.7374408184,0.6254598601,-0.6901284598,-1.5430841481,-0.8518656249,0.3434658738,-0.9555375356,0.3241839471,0.613807564,0.6816059448,0.8596851848,0.6989741576,0.8445708558,-0.6142709124,-0.7590495869,-0.7476036465,-0.0095469277,-0.0227060014,0.0001574093,0.4305315357,0.4246362644,-0.9251431336,-0.0868351761,0.352654986,-0.9893937483,-0.9678868083,-0.8480411541,-0.4445754239,-0.4217130903,0.9170722508,-0.4136485776,-0.1048627147,0.3331096348,0.0144589362,-0.5494704834,-0.5743785968,0.3392769816,-0.540666779,0.6678472472,-0.7733671366,-0.9547959925,0.2867939196,0.6998707559,-0.6711525273,-0.809283571,0.8193663525,-0.1160467536,-0.8331410787,-0.573936599,-0.7676262772,0.2382106789,0.2398042597,-0.5015432249,-0.6566781004,0.4418459877,-0.4146335048,0.5779439308,0.9356842421,0.2893428006,-0.9655790648,0.0411045665,-0.7382722441,-0.0603732685,-0.4794944861,0.9093905561,-0.2030323634,-0.339953953,-0.4019257766,-0.7485044272,-0.7123427428,-0.9681698766,0.9027605814,-0.2849474457,-0.1545746088,0.1640671656,-0.3900510535,0.0764997073,-0.8587271721,-0.1722650166,-0.3055637835,-0.1916927817,-0.8962251301,-0.7122490939,-0.3762051679,0.3927976256,-0.7025442264,0.7498374546,0.7496765176,-0.1154119431,0.4936488886,-0.366083683,0.5051646991,0.0318715307,0.2688253205,-0.2513140094,0.8811789463,-0.2905094986,-0.0818940491,-0.1656003808,0.0816064191,0.6521361194,0.992379709,0.6160956155,0.378812665,1.0830288306,-0.7355261638,-0.0753991371,-0.8064453456,0.8948660034,0.7380900904,0.5995014794,-0.5228931111,-0.0198535817,-0.6690637612,-0.5726691074,0.5663956665,0.3392212614,-0.6300462421,-0.8662250455,-0.6682732861,-0.9774585579,0.9061421929,-0.2743830299,-0.5626461786,-0.5462989996,-0.8047343427,-0.7875115605,-0.134414445,-0.2182149642,0.8008580204,-0.3140589026,-0.8682723368,0.6516023595,0.8814151047,0.0059824931,-0.4367368155,-0.0145570841,0.0867281636,-0.7942534646,0.9699954552,-0.6088381342,-0.5423434813,-0.2626871435,-0.1051254725,0.931585615,-0.3351055574,0.5206486828,0.6334881432,0.475823754,0.3388298043,-0.614729222,0.4749048467,0.2011169939,0.7334507776,-0.1539183429,-0.1446265098,-0.2581286426,0.9238415475,0.1589389303,0.3830307683,-0.6259592846,0.4217520606,-0.3732900113,0.6517031807,0.4167323682,0.8291992373,0.7780238843,-0.1623776623,0.3976127222,-0.5856243966,-0.1659731035,-0.0385172399,-0.8787686632,-0.7698789325,-0.140393156,-0.0781720854,0.9438587754,-0.158092828,-0.5834817538,0.8994807757,0.0987773335,-0.8736143772,0.0873009745,-0.6053894945,0.6858142284,-0.7810728567,-0.4372281202,-0.0639759623,-0.3282969341,-0.6468189904,-0.1589438514,-0.8911858043,1.1654320944,-0.1485407829,0.9544398235,0.683689792,0.3119808251,-0.596630632,0.9136587133,-0.2319089566,0.3365245857,0.9362422146,-0.4118310386,-0.5189430004,0.0626943681,-0.973532996,0.3599614293,0.1308526739,0.9895076956,-0.6243715323,-0.8158636683,0.4297365707,0.8493773545,-0.1600465374,0.0395527706,-0.1540107217,-0.1159652659,-0.7272754805,-0.2437688078,-0.2398175165,-0.2607136632,-0.9875031743,0.9191518414,-0.682631419,-0.5306080915,-0.5222037519,-1.5285862926,-0.0077379328,0.4060378327,-0.0597351547,-0.356136031,-0.0222423956,-0.3055812923,0.5731760487,0.5088419959,0.8830286295,-1.269443093,-0.8306680781,-4.1097994947,0.5171630478,0.8730225174,0.9030270085,-0.870535066,0.8404586257,0.2039541611,-0.9686261358,-0.6867392506,0.1363475381,-1.5185801578,0.9211781013,0.9775907538,2.5042144311,0.269463887,0.5292450484,0.1612855618,0.7602984501,-0.4490109361,0.9851149745,-0.993053729,0.3521769513,-0.1081655765,-0.1300837705,-0.7656384143,-0.0446868959,-0.3479969114,0.0962210587,-0.4943484022,0.3072434854,0.7375155956,0.2022719512,0.7850100304,-0.6981630582,-0.3607020904,-0.4328780321,0.6784925594,-0.9521275625,0.9284842393,0.693706798,0.1909485431,-0.2278184079,0.1627337426,0.1834825789,0.7171955265,-0.6601107041,0.3041863949,-0.0013962477,0.9532192618,-0.2444911489,-0.9878668169,0.4645378118,-0.0279543495,0.4423742488,-0.942134922,0.9753770415,-0.0556488406,-0.7286818243,0.8727827263,0.1490937133,0.6350989233,0.5407169626,-0.5432995543,0.537912309,-0.4356491073,0.247351605,0.6272433642,-0.6941829365,-0.1660840143,0.2630701334,0.9035925528,-0.1762343271,0.4568288477,0.9501699081,-0.3032441608,-0.5185701952,0.9665247712,0.125878401,-0.6410131163,0.9313376217,-0.7081341465,0.1850983099,-0.8817573209,-0.4692434629,-1.5784816352,0.4792723001,0.8371822404,0.9274848441,-0.6484557615,-0.0670441072,-0.1312184581,0.9558801347,0.6386937526,-0.8440390063,-0.5093722357,0.0341764167,0.255044067,0.7721120159,0.2492959844,3.2041047832,0.9619142643,0.4938933937,0.4017532651,-0.1344077048,-0.8552747287,0.4576207453,0.0250888761,-0.5946803622,0.0546089853,0.6737902888,-0.0642834215,0.1109513694,-0.2749386062,-0.8444574586,0.8018440961,0.0607174742,0.8306737784,0.8473138657,-0.5431532896,-0.2238223428,0.0116601478,0.0968629656,0.0145528538,-0.5540616665,0.0100335515,0.8892345214,-0.583612174,0.8483186346,-0.440560669,0.9179802903,0.4927489946,-0.6003793726,-0.2543230129,0.1789025622,-0.6723010087,-0.8626356936,-0.7484528894
   0.8252951573,-0.0860536411,0.8149053204,-0.0849411283,0.976097649,-0.3496936739,-0.5930616351,-0.9280798668,0.9339598782,0.6687507587,-0.1750166834,0.5738153019,0.700960526,-0.1826951902,-0.3839737446,-0.7644966918,0.5575152912,0.1987279626,-0.1846078208,0.8289195971,0.1448235244,-0.0124825796,0.6629701626,0.5887679035,0.8583121015,0.1796170545,-0.8848337028,-0.6056799473,-0.0429561231,-0.0967931902,0.377788843,0.8352708361,0.1103442164,0.1433388269,-0.5439331817,-0.7191603168,0.4319097559,-0.8341951139,-0.6061852386,0.3831642061,-0.7927242673,-0.6992272582,-0.1920395794,-0.855888954,-0.8660986173,-0.2728303037,0.2579690706,-0.3086455298,1.5315277423,-0.3389712071,0.7019737049,0.4986376385,0.9227446123,0.4343348349,0.231475774,-0.8156036034,-0.2751939254,0.0098509191,0.5379448694,0.6567746998,-0.9208929202,0.9120246067,-0.1537924101,0.3761767608,0.3200958503,0.4100486552,-0.9831539914,0.1816325675,-0.3223240582,0.8797667121,0.4592588618,0.9690728168,0.0863391075,-0.290779267,0.3369555758,-0.2788946379,0.4731386307,0.6550751145,0.8550391896,0.4908848628,-0.5075772854,-0.3377380753,-0.6502302532,0.4194638738,0.7849154975,0.7284161456,0.9921190484,0.2499644817,0.4430301776,-0.0162003435,-0.7392906747,-0.9811283072,-0.5637167969,0.0398579355,-0.8703408553,0.9402058891,-0.2189781261,0.1137379,0.8661507435,-0.6494388366,0.3514573195,0.0684809138,-0.2414162362,-0.7249211526,0.0270635826,-0.5129466211,-0.2465955772,-0.5595094649,0.4780545074,0.8266445021,0.1193956809,-0.8877425218,0.9246072388,0.4253978006,-0.7275465083,0.6953058132,0.2199493785,0.4478279772,-0.7219991494,0.9754861275,0.6096067114,-0.0876092724,0.7494749116,0.9480375466,0.0383574083,-0.1294719592,0.6050006684,0.6843990926,0.4573928585,-0.9645382675,-0.331673864,-0.0991299752,-0.9082385633,0.1877942151,-0.5116507636,0.4583101622,-0.8055088766,0.6981800118,0.8774234841,0.3901594616,0.3668961817,-0.6907490007,0.6886380431,-0.0473454717,-2.0530049018,0.0724124155,-0.5535241609,-0.0895184176,1.2782945205,0.7643113182,0.0027110249,0.5501895518,0.9316117787,2.1116745309,-0.6481521602,-0.3988508991,0.654197703,0.8793652729,-0.1152977267,-0.2826374494,-0.3235059267,0.5395303552,0.2745930865,-0.3155409211,-0.487109766,-0.4486199908,0.3418391586,-0.2858135901,-0.5634228164,-0.9141808425,-0.2974788092,0.2407447875,0.9838277434,0.390155422,-0.0485173258,0.5474544517,-0.6240369569,-0.7203065278,-0.7748225312,-0.6186563977,0.0183390632,0.0709074358,-0.8607911372,0.8952396625,-0.0483272707,0.1489918175,-0.6547412983,0.7307631804,0.9501013476,0.2309917232,-0.5109197291,-0.1819519066,-0.0125557532,0.2742989883,-0.7768939684,-0.7368943775,-0.7698223434,0.946536708,0.6529608963,0.7825037139,-0.8666307927,-1.2559576281,-0.902867822,0.5410955081,-0.8757612235,0.0313058632,0.2395316498,0.5287100665,0.5107556407,-0.9897756776,-0.5644169006,-0.3853024687,0.997065567,0.9386437507,0.1572067042,-0.02281618,-0.2360891749,0.0156657465,-0.5021426326,-0.2481321088,0.7902126755,0.40500265,0.1139252377,0.5447261422,-0.2510486016,0.9879613148,0.3673780711,0.6615568377,0.6182789344,-0.8681723958,-0.3959132186,0.8351495261,-0.1114025085,0.917146579,-0.7732084275,0.3415927545,-0.0445987774,-0.2669708315,-0.9580060551,-0.9082926851,-0.2252802129,-0.7686639079,0.3995610306,0.9001774084,0.694400129,-0.9930793954,-0.594173641,-0.3549629237,-0.2232323369,-0.6393583938,0.6350887081,-0.9533589144,0.7885977455,-0.6379933868,-0.9685643521,0.8531847,-0.1199243914,0.3330642892,-0.5656335623,-0.5743989215,0.602086157,-0.3168626334,-0.5712164906,0.4542385472,-0.9890576615,-0.5579824451,-0.1303630822,-0.4365657911,-0.12385927,0.4888068537,-0.3650665885,-0.6866552823,0.9869685395,-0.6143698812,0.2836529688,-0.1102662992,-0.1229900966,0.3740537793,-0.6121074738,0.0924722077,0.5148043627,-0.1727895967,0.8921988068,0.6628817383,1.1204661944,-0.021270714,0.0764158394,0.0844019853,0.9963390247,-0.5971455879,-0.7577130389,0.739071012,0.1898389919,0.2955115385,-0.4165216016,0.4145194546,-0.9240623119,0.6151411421,0.7629377951,0.4605949139,0.606973459,0.6536857497,-0.1395146867,-0.0681220971,0.2292732072,0.1344503218,0.3346284947,0.2172392747,0.172624983,-0.2766963473,0.3777080034,0.4296256687,-0.2675682271,0.5174259754,0.1782882785,-0.9460948577,0.1170798911,1.1580829277,-0.9740276511,-0.3819947965,-0.178327603,0.2646952083,0.3123066526,-0.4209996591,0.369650045,0.0519292343,-0.8905870088,0.4315765692,-0.6684768599,-0.5063252351,-0.8605161456,0.6657483812,-0.6913669115,-0.9100779317,-0.1220228909,-0.0064531452,0.3500997509,0.1033385115,-1.0823296318,0.9772419154,0.0827285627,0.256052722,0.633520676,-0.9182582177,-0.5340564165,-0.9970466727,-0.6950461894,-0.1719806308,-0.2288695329,-0.417514904,0.6343167202,-0.1009969389,0.8434447806,0.6894143043,-0.9888125624,-0.1423347474,-0.267628549,0.1136073195,-0.4599486641,0.4008538643,0.7881850121,0.9432713862,-0.226652445,0.3383936619,-0.8555577682,-0.4554308495,-0.6153862129,-0.2069248268,-0.7910287201,0.1409321809,-0.0825669459,-0.2321652511,-1.9460512525,-0.2175079007,0.4723639477,-0.0688437672,0.4427706742,-0.3513648259,-0.5899101884,0.4276578119,-0.169976309,-0.100498049,0.6961119687,0.498269557,0.9002453918,-0.3993962402,0.1131173149,-0.9635926753,-0.8551637282,-0.6202379564,-0.5826279975,-0.5647061808,-0.9953253413,-0.339785074,-0.9243522896,-0.6262805213,0.8661431127,-0.2462066683,0.9693758452,0.8619700559,-0.6462198535,0.8560313662,0.8164701996,-0.7025272671,-0.968864817,-0.0136901071,0.6880452135,0.5911962388,-0.8667216435,0.4598451451,0.8994346976,0.1923498702,0.9858606565,-0.1640665106,-0.8012621373,-0.1361318542,0.9700744551,-0.4906542022,0.5682987863,-0.2739313105,-0.9617925066,-0.262214328,-0.3674495271,0.6309004903,0.197515461,-0.4868749432,0.587484669,0.0857060541,-0.2453840242,0.1978984029,-0.4094024745,0.3344424696,0.4008539364,-0.7879134338,0.2225246696,-0.1004663083,-0.6985052821,-0.6121831045,0.2414225459,0.4113221443,-1.0005673694,0.4820978669,0.4501350398,0.4945325012,-0.0284305656,-0.2192647541,-0.799304116,-0.9992920656,-0.6983697536,-0.6599465643,0.5973937118,-0.8401968138,0.0675013325,-0.5309369746,-0.4883108439,-0.28634878,-0.70812134,-0.9308179586,-0.3943234789,0.7894806325,-0.5618716562,-0.6230966707,0.9394043994,-0.4419069827,-0.1390708111,-0.4410520881,0.8745290152,-0.666279633,0.7737804063,0.2880399483,-0.1314015333,-0.4919919539,-0.404635144,-0.5805431028,0.6197465242,0.3020187496,0.6991360088,0.7769547057,0.6240867954,-0.4730089799,-0.2956244679,0.9181988331,0.9746884909,-0.945349094,-0.9257799495,0.728529572,-0.5767905788,0.9189112847,0.8636945322,0.60773427,0.1735617336,0.7602937366,-0.2363228399,-0.0488958283,0.8123087191,-0.0633593985,0.7287109759,-0.1821019759,-0.6189739665,-0.347557684,-0.7530447247,-0.6142150668,-0.4723544456,0.9189141668,0.4565076753,-0.4189737875,-0.4860026138,0.9707556018,0.3634351632,-0.1716102056,-0.1558174396,-0.0604727773,-0.5439448598,-0.6023460796,0.296082263,0.6238322725,-0.0770907413,-0.2806035165,0.6178074591,-1.7954252476,-0.1958165093,0.5509317386,-0.9773507989,-0.6249092762,0.7870983643,-0.4223815029,0.7650922784,-0.9983542795,0.9541417614,0.9021269318,-0.5837186505,0.2896214238,0.6951197554,-0.0011042587,0.004989636,-0.1057498368,0.8397075596,-0.5937010747,0.9756748295,-0.4735008251,-0.0558694047,-0.535968014,0.0882439271,0.1531969437,0.1074536871,0.668605204,0.5486113596,-0.0551351491,-0.4017102456,0.8611486131,0.7898232497,-0.722188418,0.5700131241,0.8362983422,0.9338851359,0.58159864,-0.1123135936,-0.0645911571,-0.2346877809,-0.7213377527,0.4932626934,-0.8873636373,0.4194056532,-0.1490581279,0.2738958156,-0.1251978674,0.3013387119,0.6143576905,-0.1559885882,-0.7844576894,-0.1214611573,0.6907910599,-0.5948573704,-0.4684921839,-0.7300048971,0.6096200979,-0.3283100842,0.57836977,0.9847178466,0.2288607508,-0.0022584811,0.4165816364,0.7603928961,0.5545262098,0.6029628495,-0.9649625664,0.723651612,0.0103188841,0.2097107732,-0.4710797746,0.8446866873,-0.7869560179,-0.7994845488,0.8017066864,-0.4202685382,0.5476932196,0.8093231019,0.8142019593,-0.4051814383,0.7269367799,0.2869726112,-0.5565403913,-0.4435313115,0.5246751983,-0.069715658,-0.8059631873,-0.6326856187,-0.8809056406,-0.9233530835,-0.4731763816,-0.3187072653,0.8161784906,0.5064866622,0.9435423835,-0.6637521714,0.6213587271,-0.6612880831,0.5942093438,0.87852563,0.3265099142,-0.269953318,-0.7869046214,-0.0211295857,0.2052728914,-0.3335866983,-0.5184720416,-0.8586060491,0.5644455184,-0.6569289616,-0.1538900621,-0.7976011347,-0.360681956,-0.9475608547,-0.2790869428,-0.9145432105,-0.5624272464,-0.7596946447,-0.6746501769,0.203699055,-0.6516813866,0.2257358614,-0.2943773321,0.2417313152,0.7194393332,-0.2346734468,-0.5671546534,-0.5969771662,-0.1073378858,0.2715488268,-0.4245750765,0.0700291394,0.474171986,0.0089961408,-0.6529486889,0.3489793954,-0.4411120182,-0.6401060201,0.2521884826,-0.6099927548,0.7411226831,0.9377022113,0.1532260544,-0.2376111606,-0.6066123395,-0.7390447002,-0.6252075714,-0.4118859695,-0.6556757624,-0.9749155237,-0.3257840276,-0.6573525148,-0.7573437314,0.6633257662,-0.1167460932,0.0439199719,0.3293855274,0.4782862518,-0.2798347308,0.7149393309,0.114499532,-0.4784521212,0.3450293565,-0.2437659605,0.8498211575,-0.2905136644,0.797863105,0.8094280563,0.3201270306,-0.6941336032,1.0208814723,0.290830451,-0.1783782195,0.5017917223,-0.013288976,0.4487221426,-0.9409502718,0.9433893755,0.1739399887,0.0990889668,-0.7453114609,-0.8296954288,-0.3686299508,0.6572228494,-0.5661619335,-0.8503022129,0.4760667531,-0.926813267,-0.4857597347,-0.6126934205,0.4061746757,-0.8310424603,0.2068552745,0.8506406837,0.0040088378,-0.7433857735,-0.0373763663,0.9436690715,1.6160619102,-0.0009769436,-0.7999493009,-0.8467937162,-0.2358408864,0.1586938862,0.8145960979,-0.198175064,-0.6357741446,-0.9345620917,-0.28325336,-0.6324801398,-0.3175689454,-0.6090366312,0.0636218223,-0.922838788,-0.0483816462,-0.5695412244,0.6202386567,-0.3579138248,-0.2360162784,-0.0423599393,-0.9386638208,0.9741724031,-0.4173824393,-0.4440417877,0.2202649167,0.8444474088,0.4953297279,0.8468930151,-0.21383738,0.7115967274,0.3987661176,-0.0803780352,-0.4452166034,0.378845936,-0.1950774436,0.6664490243,-0.8802939836,-0.3842583074,-0.036311964,-0.1605586268,-0.4270410849,-0.7885580768,0.1917637609,-0.2813922135,-0.5544577423,-0.1325243956,0.1059248397,0.8538014687,0.2071209409,0.0359054746,-0.4865858511,0.8473752751,0.8783594758,0.2925963063,-0.7002898335,0.0757868541,-0.5262254499,0.7517644689,-0.4009611306,0.0321359599,-0.7103942919,-0.6801692768,-0.6054809074,0.3012401726,0.966175199,-0.8058489222,0.3198772223,0.1193484461,2.398999417,-0.2959391677,0.5067777687,-0.0873857104,0.2852328394,0.1715427169,0.7670815842,-0.8955076397,0.07428955,-0.791172288,-0.8981000373,-0.5934993141,-0.8453734753,-0.2702742629,-0.0496292216,0.6624793094,-0.9247259287,-0.9739014402,0.7536927479,-0.0083822429,-0.574345379,2.7163220172,-0.0689874861,0.1327833603,0.3474890566,0.0295671043,-0.7052902255,-0.4282908144,-0.4306348028,0.215046283,-1.2050472996,0.4572865319,-0.1866374958,0.9074965639,-0.9445055316,-0.3278439317,-0.1405793997,0.7264170671,-0.6399680114,0.6407893037,0.8857342652,0.2308428152,-0.8818544495,0.3176503496,0.8220888123,-0.0958052008,0.9851170091,-0.6308271132,-0.5688025476,0.2845962603,-0.5906229855,0.0778903607,0.3592879484,-0.0513501656,-0.0778386799,-0.4562054789,-0.1699253966,-0.9709213718,0.6476686933,0.6632970521,-0.5799539294,0.8192307375,-0.4393865707,-0.2919829708,0.0247510074,-0.5176688525,0.5808933734,0.8012905733,-0.1906124314,-0.6161981206,-0.0478002695,-0.4267863956,0.5865676018,-0.276647013,-0.9382633001,0.7632675716,-0.9539688661,-0.8054028771,0.8742942115,0.1803498723,0.1433243186,-0.8443062503,-0.0938185888,0.0283291558,-0.9157772364,0.5261554814,-0.3695256099,0.0793788885,0.8673593684,0.4850908381,-0.1527274972,0.3711890633,-0.1033609193,0.4323599193,0.9491012366,0.4161922025,0.5066738741,0.84395582,-0.5028639641,-0.8185749497,-0.7673903625,-0.8055890327,-0.1649755273,-0.1767799715,0.8387228312,0.2940440673,0.0529351881,-0.419404542,0.0156296926,0.2205351073,-0.4231227007,0.6640016638,0.3689763635,0.0604203115,-0.7853247249,0.9956038035,-0.348806586,-0.6008884242,-0.6926751207,-0.3221468055,0.0338038642,0.889701684,0.2655114002,0.4035918256,-0.1137687746,-0.9189032705,-0.428454585,-0.6363082452,0.8657707098,-0.3461709645,-0.6659026603,-0.9302590512,0.3480299572,0.8503517444,-0.9655204407,-0.5808015141,0.053912829,0.0715963072,-0.6437070777,-0.1266045162,-0.0404093273,-0.6820878419,-0.8880090687,0.7382773274,0.6031622235,1.5797408363,-0.1850663543,-0.7480301208,-0.2914983723,-0.4170548084,-0.7708356498,-0.5324859637,0.7523733705,-0.7126179076,0.0398048558,-0.5913792431,0.9390382653,0.7965678042,-0.5600744154,0.5548317188,-0.8531399809,0.9515604709,-0.4583633064,-0.4439812823,0.0191348334,0.5402125405,0.6309268316,-0.6373685477,-0.444545771,-0.8738890176,-0.2642411313,0.5624210324,0.8200268445,-0.5900644034,-0.5655979614,-0.4225482803,-0.8648373468,-0.2844011532,0.3300904732,0.9574124185,0.9074753006,-1.0113341856,0.1461244429,-0.9808778666,0.6456457741,0.9286714728,0.8180374372,0.7185178973,0.0569344577,-0.0179277638,0.7945880383,-0.744623297,-0.6565970405,0.1951192198,0.2397762446,0.5443001524,0.0992325006,0.9527933737,0.2500706058,0.5067561361,0.3170619681,-0.9381974477,-0.5919305232,-0.8617268648,0.989345227,0.8346742765,-0.5259178187,-0.1577645255,0.2526923412,0.6920405176,-0.8032520013,0.5800531116,0.4937018157,0.065676222,0.0844864256,-0.5334808843,-0.8558558006,-0.0147502905,-0.338425888,-0.8711473248,-0.5023597234,0.4303688946,0.8911261141,0.0473843989,-0.8306307872,0.1866640353,0.7531013186,0.4889394461,0.9892683856,-0.8953919968,0.4406687336,-0.2010851747,-0.045180469,0.5348143935,-0.9390409115,-0.4637349071,0.6236248916,-0.1398505802,0.9751703648,-0.519468517,-0.2728833924,0.4107787098,-0.0415080854,-0.4838282999,-0.9805993956,-0.9463111803,-0.5017138816,0.1393609045,-0.6352261617,-0.4877736277,-0.632267936,-0.8261410872,0.6214998038,0.9333674791,0.9298489796,-0.229053718,-0.1715326143,0.5377637474,0.3157937823,0.4446985834,-0.0828127321,-0.2867721679,0.1873842748,-0.6358492818,-0.4893857187,0.7753559105,-0.3210264001,-0.9152784198,-0.0135810004,0.2031704983,0.4664643915,0.74988414,0.3834020731,0.6431093502,-0.0899409084,0.611222795,-0.3535483831,0.5840508996,-0.4559589702,-0.8723609174,0.9121352212,0.1087797063,-0.5953381002,0.3104566235,-0.4493748039,-0.8762893508,-0.7872846036,0.7272237347,-0.3255555774,0.2801871613,-0.9823397306,-0.8125747354,-0.2471046377,0.8800938772,-0.1951131449,0.3231019034,0.3667737808,0.0096517986,0.8624253943,-0.6967118972,0.8695098587,-0.9984056319,0.0474648014,-0.3794741667,-0.3343151183,-0.2267817614,0.7096699368,0.8123248055,-0.4131638477,0.6411910833,-0.2740239687,0.1489276965,-0.731208985,0.3175642669,0.2744963106,-0.9419755118,0.1809739398,-0.302988997,0.5680513046,-1.0345756857,0.4028654398,0.2187008336,-0.1074296672,-0.2086228371,-0.294286564,0.6851186848,0.7994581282,0.6191056025,-1.0096045647,-0.1092802925,0.4062225036,0.305742801,0.3681212414,0.5586848937,0.6745903916,0.9538414544,0.3981224855,-0.3279972014,0.6362242855,-0.5275175098,0.5363644497,-0.9296276856,0.3863863255,-0.4575870007,0.4240370883,-0.8170065403,-0.8418532961,0.7739181002,-0.3899175656,-0.3307906293,-0.2445129039,0.6286870324,-0.4222818582,-0.8675865979,-0.1177446421,0.3875957804,-0.327917268,0.0523995256,0.4241421034,-0.6292785357,-0.6755839576,-0.5597562963,-0.9115861553,-0.9688371627,0.0821878213,-0.5796650221,-0.9603135198,-0.3182774909,0.6051668924,-0.465452653,0.8581389644,-0.1974864067,0.3689398982,0.2979342181,0.8720282323,0.191785078,0.4004282128,-0.2330004088,-0.9980370367,0.5631039988,-0.2793910282,0.5498384338,0.9396765003,0.7572063055,-0.483910528,0.0485092063,0.0245263294,-0.7106315884,0.6427401627,0.5984599923,0.8570117585,-0.659211797,0.6454234821,-0.0189004534,0.0703270582,0.6313105222,0.0101901018,0.222303244,0.4197662453,-0.3896823935,0.016878926,0.5857879722,0.7412573081,0.226682756,0.4480612021,0.6834751363,0.5914422467,-0.2893068235,0.7223005329,-0.0926772644,0.8706689718,-0.1098748262,0.5408931206,0.9392019684,0.1385496734,0.1667071147,-0.8666578698,-0.7239359758,0.6354533484,0.8698744743,0.570077009,-0.2211090771,-0.2778728693,0.9208022561,-0.4705251003,-0.1956356199,0.9896288707,0.7287048233,-0.2883918328,0.5307835122,0.2534485672,0.6575383137,0.0282044395,-0.9158555207,-0.7178393546,-0.1780735223,0.155411464,-0.5591981803,-0.6354435369,0.3318810816,-0.6213323426,0.9138267131,-0.2027481487,0.2166412493,-0.4175704441,-0.842626927,-0.2334274377,0.8330245864,0.3915977684,0.8293816076,-0.4743388365,-0.012551673,0.1484489148,0.194233634,-0.3110101458,0.049357369,0.6969314782,0.862472675,0.8235425211,0.7612766258,-0.2471404021,-0.3423801919,-0.9861132406,-0.8978340381,-0.8758875795,0.2864749852,0.3102060788,-0.541678165,0.3016688469,-0.6452609244,0.1933604278,-0.4790375276,-0.4471875586,-0.0087209958,-1.73066589,0.7756720569,-0.8296328261,0.4987277112,0.154828362,0.6444827218,0.2077101427,0.8081082769,0.7068300171,-0.8657233621,-0.6487679247,-0.1676697088,0.2614268593,0.5196998449,-0.7347641792,-0.6579790967,0.7317002715,0.51253158,0.8455272634,0.8257929796,-0.1616559122,-0.7342820985,0.5457849074,0.9347249395,-0.6376550339,-0.9211848769,-0.5134197246,-0.0371682494,-0.7688319648,-0.6328280641,0.5556053772,0.6486931478,0.8712677064,0.6526696806,0.5946804822,-0.3897367432,-0.0702184194,-0.4981086685,-0.0385875251,-0.7210581411,-0.3938424512,-0.9090839414,0.5360170673,-0.3430754727,-0.7625316386,0.213767725,0.6745391931,-0.5028751194,-0.4277122703,0.2550226949,0.9103885625,-0.5208016652,-0.6608801884,0.5988101444,0.6503565455,-0.2536584321,-0.6934664054,-0.8994297624,0.5137300764,0.8870930203,0.6093742244,-0.4026599975,-0.4282346165,-0.3944699217,0.3834925388,-0.1498468392,0.1573304247,0.1357531382,-0.7374122973,0.5140542647,0.4893995595,1.8807123155,0.1625800362,0.9733547103,0.1626479222,0.6012594352,-0.7722272431,-0.1908938688,-0.9351508606,0.7091710955,-0.9710086193,-0.3720371439,-0.2122266196,-0.3398422407,0.2239508629,0.7885602525,-0.2521486345,0.132020793,0.3692015291,0.0862870427,-0.0789300702,0.431388451,-0.0477517207,0.066073657,0.7522055471,-0.1292681349,-0.8937740397,0.0692110873,-0.5620489236,0.476871439,0.1797358484,0.3068419134,0.1560349629,-0.3889089405,0.044531597,-0.4323708966,0.9838755591,-0.0388360632,0.0462769328,0.0053194525,-0.1472564703,-0.1163544571,0.6070211782,0.4372482196,-0.2241188904,-0.6281166286,0.4608429442,0.5874836391,0.9308988672,0.6994474853,0.2802041341,-0.1856914643,0.4860429041,0.8478181424,-0.6594130871,0.6451052549,-0.8083122374,0.010158099,-0.1949182913,-0.834394925,0.7828126526,0.3913137556,0.4201517382,-0.7905692074,-0.4266085463,-0.6250691623,-0.522969984,-0.5525200004,0.5199778264,-0.7903072844,-0.3781279271,-0.9574676363,-0.8218630651,0.0332187678,0.1978067324,-0.0685636396,0.1235813037,-0.7784742269,0.1035434262,0.3969253522,0.0454003821,0.0981017631,-0.2490668778,-0.805809681,-0.2999154727,-0.7630271268,0.2960161789,0.9069231643,0.2428450065,-0.6825983307,-0.3195126455,0.2909787729,-0.001605115,0.5846845615,0.3702209263,-0.8086422642,0.4429543725,0.7146255091,0.8963207311,-0.5778013382,0.9682257855,0.2637018865,1.6501038323,-0.956307755,-0.1025269998,0.2066636702,0.8903320789,-0.4519753593,-0.2246102906,-0.7592410159,0.8244831186,0.4876722803,0.9015542499,-0.2609940118,-0.5795951471,0.1279623843,-0.5682207667,0.3609144507,0.8936303601,-0.4925532137,-0.0419509411,-0.9090769973,-0.7231013168,0.7705407322,0.6340376086,-0.7505636477,0.9780433649,-0.8918650739,0.1658057813,-0.2982375695,-0.6455308366,0.0879807904,-0.1389777069,-0.846672098,0.7768561075,0.9694360401,0.1347345493,-0.1310089251,0.9420750968,0.0205033584,0.1645177975,0.5308228269,0.8544675482,-0.3084957657,0.9506259401,-0.963349728,-0.0632771522,-0.9462592957,-0.0712600611,0.120283715,0.9971988397,-0.7272555043,-0.523128259,0.6984613874,-0.2650614315,0.8378403839,-0.4043222136,0.2773241487,-0.2043386595,0.2280148305,0.6093994142,-0.4860394353,0.4996086473,0.7365125781,-0.3849897703,0.2455547931,-0.7888972249,-0.0108006159,-0.6543396403,0.4241586932,-0.3510453275,-0.4555377102,0.4308886714,0.5209044099,0.8038203038,-0.8743746606,-0.092291178,-0.3537493296,0.2458225204,0.7031899619,-0.1920879922,-0.6855303623,0.8173754857,-0.4822924675,0.4886029199,-0.5823109681,-0.358427697,0.2816687539,0.7225269478,-0.7611175244,-0.2412297247,0.8277406838,-0.5753626248,-0.1003446642,0.696201839,0.0049800199,0.1125735297,0.1290488223,-0.1823713282,0.9578239602,-0.1362989685,-0.8138858982,0.6981685163,0.6452036117,0.1525069987,-0.1515017793,0.5768176979,-0.1058159042,-0.6603358026,-0.5102736083,0.5196948344,0.5250080901,-0.0991851416,0.3354023966,1.1766881546,0.9153004332,-0.4706150465,0.1203510809,-0.3681788603,0.4985147953,-1.0567742065,0.8578910244,-0.6384782405,-0.2550884129,0.1200746686,-0.2423162724,-0.3267318631,-0.579831988,-0.5239627204,-0.4642790024,0.4748729063,-0.2668210832,0.7387078844,0.901992804,0.3011143611,-0.0045804515,-0.9254330226,0.2116072752,0.5300262251,-0.5811553961,-0.4764029799,0.1106535548,-0.016748187,0.0497540032,-0.3463538959,-0.7941601176,-0.0190955402,-0.699654217,0.852772152,1.2909029284,0.1139817473,-0.3702296442,0.5236826149,0.1873115725,-0.1974925415,0.5446868953,0.3066727726,0.8962120233,0.8304085098,-0.814655255,-0.4601985414,0.3153816268,0.9604458237,0.1439999355,0.107931333,0.8162521158,0.9514263354,0.1895126809,-0.1276590109,0.1908791971,-0.9985257483,-0.2812945537,-0.4317739317,-1.6376744085,0.6548908317,-0.8110230331,0.1180786684,0.6638401918,0.5637873141,0.0963124314,-1.4620684037,-0.5749216528,0.5367648188,0.7171918491,-0.8507131698,0.4822646221,-0.5398969042,0.428340846,-0.1279904044,-0.2892564013,0.321801637,-0.4701251407,-0.3820094006,0.511714573,-0.5666345768,0.9132660138,-0.0208268526,-0.8405860354,-0.0782342314,0.4817620745,-0.9309194237,0.6148375336,0.9220497907,-0.0967118128,-0.9891033052,0.1459556656,-0.4191475937,-0.664496996,0.0629948264,-0.6767972857,0.0448373048,-0.8611012079,-0.6575906362,0.2342775285,0.3108378106,0.9354912449,-0.4456529144,-0.5309868833,-0.3347580583,-0.4327656451,-0.0386705193,0.8430689293,0.0069665161,-0.4590364621,-0.4592531883,-0.923298325,0.4426553561,0.7870286701,0.192557573,0.9989490111,0.5250841068,-0.689127269,0.4087572622,-0.6858545386,0.1222465664,-0.7637955034,-0.1939304755,-0.9951090523,-0.5715631844,0.9653613294,0.2589910984,0.9413434748,0.9673892945,0.2011490389,0.4044626184,-0.2108704941,0.1239133211,0.6056289227,0.8776755599,-0.8830976611,-0.425066321,0.2012804964,0.7018792667,0.3939972708,0.6510830861,-0.8836048969,-0.3555392911,0.4158139598,0.3148539088,-0.5642252603,-0.0292870187,0.4705090254,0.8505002922,-0.7806816488,-0.5689220816,0.6598029699,-0.6198214374,0.0762272327,0.7002062846,-0.0428942845,-0.9425237936,-0.8407154484,-0.6210935078,-0.8732385545,0.6027674977,0.2587959681,0.754197646,-0.3854406095,0.5605113615,0.4257853608,0.2741750073,-0.4907080502,-0.7625424889,-0.0766747969,-0.4599556898,0.350015051,-0.851386863,0.0688960575,0.7934741056,-0.5357342808,-0.6267191811,-0.2489530007,-0.0427207858,-0.0628768541,0.5522235683,-0.6906204039,0.0998726556,-1.7691084896,0.0370362442,0.7888309105,-0.9266153027,0.2066085131,0.6934828201,0.9477130309,-0.8013340401,-0.2445369965,-0.8011210145,0.0447616179,0.8935935422,-0.7452346772,-0.834682641,0.2957401836,-0.1540835234,0.911011679,0.6088960821,0.9564053984,-0.9483303502,0.7299854775,-0.8967314259,-0.1504871426,-0.5407603475,0.7966465809,-0.5464049586,-0.3967738736,-0.3121159368,0.2682818897,0.120764723,0.5680482141,0.1403762783,-0.4121383017,-0.6077974959,-0.7839000987,-0.6637113874,0.486286787,-0.1816668383,0.0589526601,-0.1492047652,0.9780401711,-0.7432274429,0.0386237285,-0.4118440659,-0.5671162431,0.3106217352,-0.8812092019,-0.3626478949,0.3460837664,-0.3421243232,-0.9530537511,0.1713531762,0.3893617267,-0.6677804511,0.0132842477,-0.7869772631,0.5640272496,0.4728733852,-0.1369554383,-0.4288237624,0.6581261356,0.3275824696,0.1708233164,0.0586653221,0.5843141537,0.7577078367,-0.6147240721,0.5698103776,0.8485086717,-0.9456436496,0.1479684712,0.5163952782,-0.0397634644,-0.3172948125,0.7836578297,-0.9631251724,0.0240881417,0.5273936816,0.9162497544,-0.721252685,-0.8286410292,0.0827054163,0.2876230743,0.8710434872,-0.2159967287,-0.554603102,0.6950939187,0.6612647474,-0.6293582836,0.172042694,-0.3020398691,-0.104171578,-0.0669508546,0.9266922025,-0.6081694755,-0.9018422157,-0.8620919284,0.5031400967,-0.1677800925,-0.7881257521,-0.2751866119,-0.1806715107,-0.173188529,0.3036357797,-0.3957616552,0.7883956845,-0.6895858084,0.1302532927,0.0255200363,0.305188525,0.4146594905,0.972611889,-0.2496056751,-0.1340153461,0.1205539189,0.3284699598,-0.3535573942,-0.0197058091,0.710877095,0.7086231712,0.9956961869,-0.0392347431,0.4438803373,0.1484140683,-0.8560285615,-0.4687733355,-0.1818930108,0.7733418293,0.5468639057,-0.9364095851,-0.5891532326,0.5187909723,0.3940671999,-0.2749755014,1.2797418728,-0.5205718115,-0.7503531246,0.5962531353,-0.8172097793,0.7539840315,0.4613169596,0.2690377368,-0.935076194,-0.0259147837,-0.6471895873,0.9550574706,0.1350060717,-0.6967625603,-0.6357950933,0.4121494312,0.0595943671,-0.3586303188,-1.3652135748,-2.0892548401,0.5032374519,0.964368596,0.6271152926,-0.4980413327,0.5203307088,0.8589334052,-0.2670880397,0.2373496438,-0.3029176763,-0.120784314,-0.0490573296,-0.8712081553,0.6392314999,-0.1060440318,0.1835061335,-0.5897332072,0.977540473,0.2650480963,-0.6896300879,0.6146866632,-0.3606258017,0.009648184,-0.8087962467,-0.3716858334,0.5137188168,0.7708901656,0.4834052037,-0.8338436049,-0.150465681,-0.479699607,-0.5543688665,-0.9853936755,-0.7161787816,4.3985466134,-0.5412990686,-0.6055296639,-1.8413160398,0.7842967347,0.2556766971,-0.7108495597,0.6997397282,-1.7739060667,1.9843556696,0.3863706789,0.45108849,-0.3995378281,0.3875044859,0.0054288616,0.166077989,0.3498937435,-0.4325175983,0.8301344744,0.1435055436,-0.6076325322,-0.6803578484,0.2092057416,0.7869056398,-0.1906598083,-0.9660530867,0.2190478696,-0.3785114097,1.1708850994,-0.7758278542,-0.0470949439,-0.8094113185,0.6504144242,-0.9726808264,0.7709234099,0.7847487709,0.1764724194,0.6063671096,-0.2303180681,-0.3343334774,-0.9945716585,0.2318266272,-0.6154048617,0.5100388674,-0.6558544861,-0.1410413036,-0.6259863934,0.039550317,-0.162610146,0.8393906193,0.5149699403,0.0492955427,0.2173289276,0.6319511021,-0.9911712187,-0.4655845016,0.1537944537,0.7624505626,-0.779508296,-0.0173400254,-0.8625457408,0.1553045763,0.3073466245,0.770182615,-0.2163697758,0.9612504243,-0.1604866704,0.4971701395,-0.8617885811,-0.0161808525,-0.0715944676,-0.064870724,0.2224605769,-1.6445677792,0.7259831326,-0.3508988779,-0.2078155764,-0.6270244971,-0.3448952078,0.1246789605,0.1984316092,-0.7862988457,-0.1782555169,-0.5250547566,-0.220299929,0.6319634922,-0.6348831156,0.9024944403,-0.7142838998,0.3858774759,-0.8987786556,0.8349570289,-0.8768416934,-0.2861838171,0.6898731525,0.4198836911,-0.4865856748,-0.7840311618,0.2198143438,-0.0084954103,0.1305368093,0.3881814116,-0.093657452,-0.5448578372,-0.5572298759,0.5732995045,0.7573197069,0.5364055511,0.5484809072,0.7422372033,0.4492843791,-0.2592431166,0.5915253549,0.5092142057,0.8642977834,0.4762321984,0.60401895,-0.4915525634,0.1829049195,0.1128745363,-0.6234021819,-0.0524609377,0.9379328999,-0.0676649597,-0.9302361099,-0.5309296383,0.7862283686,-0.3062857925,0.8280662991,-1.6458607453,-0.7399903162,-0.1374690028,0.1574336421
   -0.2043737978,0.9982718526,-0.6193446962,0.0293255933,0.1409424729,0.9332180163,-0.3041898856,-0.5006260227,-0.7267715015,0.5172207846,-0.5733683989,0.1330981549,0.8109152046,0.4341792927,-0.1592570518,0.0250543781,-0.2894338226,0.4094367478,-0.5656318708,0.5719517973,0.3632149659,0.7088074397,-0.9643827217,-0.9372050912,0.8996967628,-1.2276155951,0.9648261033,0.754062676,-0.5455268342,-0.5618615005,0.5697695814,0.0028219342,-0.5786932823,0.5373661914,0.4323220435,0.1848866289,0.2133368835,0.1127407468,0.2566838535,0.9559832383,0.9644456899,0.684190816,-0.1391042653,0.3404950915,0.0661343073,-0.9510192281,-0.8890584276,0.5434762957,-0.668688239,-0.2237387911,-0.6662389843,-0.0832756778,-0.460906159,0.2812007325,-0.6256851893,-0.0134527328,-0.2813863793,0.4596415401,-0.5694298651,0.9709275557,-0.8633983603,0.2901896197,-0.990520021,-0.0911241774,-0.8772598394,-0.8035860031,-0.6007920203,-0.6724275144,0.19879599,-0.4497713405,-0.0809645131,0.0530295963,-0.4922778607,0.4834230254,-0.2328757356,-0.4354414726,0.516469405,-1.1705916794,0.5467148,0.1595862319,-0.7821150562,0.469735131,-0.7046166854,0.514980544,-0.3929058582,-0.9234249319,-0.9806707357,-0.0865512086,-0.9536315695,-0.4191274282,-0.3071931087,0.5234364061,0.3368584109,-0.312583341,-0.5448216538,-0.0722712306,0.3843982402,0.9433821617,-0.7451942718,0.0747557449,0.7669744089,-0.4540385067,-0.5512727837,-0.8493300557,0.7040933059,-0.9426892283,-0.4666975519,-0.7802889404,-0.7372709139,0.3658780881,0.3201449897,-0.380161094,-0.0772895533,-0.3921046998,-0.2180720978,0.8307063527,-4.8301326841,0.358619936,0.5270397165,-0.7886916263,-0.2208660754,0.804019634,-0.8513663815,-0.0832018506,-0.9431545924,-0.4513271654,-0.7506382358,-0.0349458564,-0.6542024961,0.456191447,0.3460575996,-0.3620321141,-0.4792048445,0.6933770236,-0.7432468134,0.149469429,0.1296999104,-0.5957114608,0.42726426,0.0270901501,-0.1075400831,0.1965862368,-0.8392308044,-0.7661540904,0.0802620887,0.7298281254,-0.9742131321,-0.9351891559,0.2997391718,-0.1321967381,0.5369097368,-0.1028107138,-0.7586516316,0.3007208421,0.3871279885,-0.171637412,0.6819502253,-0.8907721728,0.1595128592,-0.8866888513,0.9423956369,0.7308407142,-0.7076883387,0.4087662726,-0.1757142242,0.3912135648,-0.3907599034,1.0023424198,-0.8205558409,0.434630921,0.9904068381,-0.6556149124,-0.6022995917,-0.098631863,0.2496617564,0.8504124829,-0.1302813696,-0.3418746888,-0.408817292,-0.5563049456,0.6754175157,-0.2064065175,-0.3035515085,-0.6722967454,0.4396662139,-0.3838803527,0.0622343968,-0.3764672784,0.2144121172,-0.6434353592,-0.4953710191,-0.5756071752,-0.5852236354,0.6593412293,-0.5859041254,-0.655633784,0.984779275,0.5495074346,-0.3357376695,0.7710504091,0.9820608678,-0.939704855,-0.5862764689,-0.3576532347,-0.3337834224,-0.662490093,-0.0856272518,-0.5372025262,0.934237321,0.6609829806,-0.392484632,0.5884947707,0.3351076816,0.5495905555,-0.2626212802,-0.2798789805,-0.7412846038,-0.1136420206,-0.7512506514,0.4711563186,0.7695926551,0.5718911024,-0.5254653998,0.8808942904,-0.6992396199,-0.8898231258,0.9350364446,-0.4295172176,-0.6635733264,-0.7114871143,-0.4288389988,2.3708187268,0.653766918,-0.1829893357,-0.1990099294,-0.0573175394,-0.3136798162,0.9601668035,-0.0741465696,-0.894836147,0.6847240281,0.0716759192,-0.7932142184,0.5328041893,0.1537914183,-0.2091562462,0.6195179756,0.026652318,0.397554415,-0.6599873795,-0.3302280146,0.0613552118,-0.233187387,-0.0472996614,-0.4514959504,-0.2706545212,0.5765988645,0.7558517532,-0.0996490942,-0.6648422794,0.7778769779,0.7713725633,0.3954798182,-0.8941745034,-0.8532594281,0.7001337303,0.9675096166,-0.4968247096,-0.5985252407,-0.285183848,0.8040089617,0.1147065161,0.5468022861,-0.4873496725,-0.2562048212,0.2858135194,-0.5772001656,0.6058543251,0.4692866234,-0.2840722216,-0.5534503147,-0.5319885452,-0.8897286071,-0.2486878125,-0.8931755131,0.5754571297,0.2421446519,0.1053638784,0.7292373609,0.1143130124,-0.5277656667,0.2610522842,-2.0866886833,0.0209143477,0.0395294385,-0.4776697055,0.6632834848,0.1836996167,0.8273478218,0.301397591,0.1640875772,-0.1027892056,-0.6820471836,-0.3123214645,-0.931380389,-0.6694143762,0.0563082181,0.4304740544,-0.5563978207,0.4202063954,0.5909980101,-0.0190015774,0.252745377,0.5617680477,0.3385887029,1.0013211561,-0.0252961742,-0.1663989052,-0.9772926082,0.5282616505,-0.4302192179,0.0447798628,0.8256381135,-0.6144392769,0.2175004334,0.6939164831,-0.7131776251,-0.0704561814,-0.9058559018,0.4232412978,-0.9435901281,-0.8480762361,-0.7170937113,0.5053912036,0.6377837252,0.9556010562,0.7154021811,0.0917745113,-0.9058952943,0.0282418755,0.7076608508,0.9866053458,-0.8538652036,-0.3437983635,-0.2910184407,0.6296627934,0.9609654439,0.9151738324,-0.8769388451,0.1012122576,-0.844173627,-0.2238316241,0.4271705189,0.4342634147,0.5857307117,2.8172833571,0.1542385258,-0.2471595851,0.9022843287,0.6359942621,0.8526776643,-0.5077752748,-0.6368874615,-0.6359577952,1.508468089,-0.4366002727,-0.1499805284,0.1208448673,-0.7034853772,0.5584054796,-0.7881696167,-0.4854386606,-0.432973477,-0.6190435864,0.1998743051,-0.3350345134,0.809771575,0.8788728869,0.399988762,-0.6196010691,-0.5323124455,0.519917276,0.4510344687,-0.2651042876,0.2338812885,-0.9285596617,0.6631890105,0.6316498284,0.6853990464,0.3514639348,-0.9885283724,-0.4399402683,-0.6499452555,-0.569773128,-0.9217027039,0.3755926194,-0.1788203246,0.6474968063,0.8719173398,0.0104315743,0.214356955,-0.7351815846,0.7834308451,0.4486752298,-0.5060162438,-0.2415135787,-0.8255678436,-0.531645281,0.1225646941,-0.8211436732,0.3518382337,0.3505805885,0.4244312895,-0.1081286633,0.3596599534,0.3816068765,0.7469903867,0.373299529,0.8272856115,-0.991279215,-0.9958438192,0.8186930121,0.0191091655,-0.0522460714,-0.9411675983,-0.8301284403,0.6312814673,0.536091694,-0.785788736,0.175785808,-0.0224425492,0.8710950993,-0.2798267824,-0.7240630981,0.2932489171,0.2653922032,0.2379106937,0.20715933,0.6877764694,-0.3048591341,0.6060959875,0.2130438356,-0.2216766883,0.7549660875,-0.4794323964,-0.6343179391,0.8804848687,-0.4882552502,-0.9291102622,-0.2178693544,-0.4113963593,-0.1193300197,0.6007296258,0.1798020886,0.9823411837,-0.9629756983,-0.5092390919,0.8016025695,-0.0266094737,0.8693141884,-0.0055189355,0.5136768676,-0.3824103879,-0.2981567124,-0.3311632754,0.4311642938,-0.7395908979,0.6550297776,0.1047189164,0.433365102,-0.9796796496,0.588558995,-0.9829688057,0.8534560185,0.8529006954,0.8216882564,0.5335112789,-0.1174088588,-0.3669171679,0.5736292676,0.7309144407,-0.3755392851,-0.2277717928,-0.3699054804,0.6541082662,0.2599797413,0.0339763755,-1.090234206,-0.830017642,0.8882760567,-0.9709155175,-0.1865723014,-0.7236920172,-0.3183064681,-0.3810665421,0.3437138294,0.8502356665,0.7865354858,-0.6358813103,-0.0369260855,-0.1144065251,0.1627571007,0.7434891522,0.5739271437,-0.5158509414,2.3291934016,0.2628444261,-0.3695641268,0.3410732126,0.7661213166,-0.6139776384,-0.7420240659,0.5140096947,-0.2840126344,-0.4673419285,0.0009284755,0.225437922,-0.2197824834,0.3825754111,-0.9942919441,-0.1441473827,0.6195143729,-0.8580991275,0.3577628578,0.5248837947,0.0908178557,0.5863884954,0.9147591779,-0.166994822,0.3012569308,-0.1594073753,-0.3594926511,0.5399782094,0.4799558002,-0.7864977487,0.7391441536,-0.5673834044,0.2739202068,-0.3756586126,0.5452139464,0.9674512168,0.2318118846,0.7667272296,0.2314388546,0.1966048729,0.8593950848,-0.2491999584,-0.897043184,0.9066430661,0.0202209803,0.4958657778,0.79801094,0.341764303,-0.5853121464,-0.9809585336,0.6216708217,0.0451689156,0.12204834,-0.9662705815,0.8539477478,-0.7293548867,-0.4770105814,-0.4053119562,-0.4457857171,0.4552332393,0.6006184184,0.873077924,-0.0626809023,-0.6843255591,-0.960422281,0.4012391733,-0.7360246866,0.08575646,0.9007354294,0.918758193,0.1888556245,0.3011694731,-0.9356046576,3.0216395754,0.7070856971,-0.9319715092,-0.98213261,-0.8222397811,0.9132245913,0.331578027,-0.8130119686,0.9597004388,0.5490474536,0.7161435584,-0.5264847571,-0.7027854052,-0.5097560437,0.9475937607,-0.8464504041,-0.7528657687,0.0145959038,-0.3339934705,0.821348018,0.3540162261,0.6319292039,0.4883240843,-0.2757817289,0.1446007035,0.5196132968,0.5839964077,-0.6167896359,0.632148803,0.3584288888,0.5836906489,-0.7788990239,0.6867704593,0.0679811379,0.9369103737,5.292451794,0.7734761954,-0.3165360319,0.7754203187,0.796442114,0.6262025508,-0.9452177176,0.4754176736,-0.1227033459,-0.4196510798,-0.2195395183,0.6046246412,-0.6148620377,0.716522459,-0.8336475549,0.779078892,-0.047530005,0.5081643231,-0.0211587899,0.154598999,1.0351469476,-0.953719939,-0.8365814993,0.3919709665,-0.4856471928,-1.5382087001,0.8518881508,-0.4538349978,-0.8134219232,0.4089721689,0.1928143928,0.2201738373,-0.6144861553,0.9033043646,0.9545337215,0.7130355137,-0.1706264147,-0.5998840646,-0.2398388867,0.0211458529,0.8087475791,-0.2798190906,0.5331330213,-0.0395874157,-0.8848494106,-0.8438416902,0.5423307955,-0.6677765905,0.579495672,-2.3328867748,0.7269409307,0.9241783902,0.9392166866,0.5573186643,0.1885745437,0.2233468439,-0.6243470586,-0.9215127167,0.3041832977,0.9658943003,-0.4264352169,0.7838244599,-0.6716218776,0.7262106195,-0.3091889327,-0.2070603861,-0.1771821354,-0.9001684204,-0.9181261657,0.6433781296,0.5255219277,-0.9338704905,0.7189921085,0.6684960509,0.0758233141,0.8730188269,0.9381549531,-0.3957886977,-0.6784112386,0.8812348881,0.5187374759,0.573508167,-0.1190361833,0.141984464,-0.7388773464,0.45755118,-0.4437788515,0.5809329308,0.9646780505,-0.3938650977,0.3016391653,0.8037281955,-0.9306809935,0.9701028285,0.9489897559,0.0998728453,0.1408575283,-0.2843724694,0.706736506,-0.0476910044,-0.9584338526,0.9935569998,-1.1664398148,-0.5896856305,0.4949070651,-0.2759227639,0.1605141119,-0.4503694703,0.2448030578,0.1525116202,-0.7001846364,-0.9130858516,-0.20416992,-0.7384930514,-0.6089229809,0.0041183585,-0.9759428102,-0.9053133334,-0.6548412847,-0.8724176127,-0.7309131132,-0.6226414137,0.1501291178,0.445612476,0.6905507807,-0.3169253655,-0.8960965006,-0.4031782619,0.7253894242,-0.3138267945,-0.8319369999,0.2938825445,0.0565602907,-0.8103442328,0.6047559036,-0.1878305887,-0.5536091044,-0.1961417477,-0.9095552794,0.9307186916,0.4589411137,0.4280522777,0.9228629325,-0.3803802729,0.1635432278,-0.1120485564,0.4352257063,-0.3620597791,-0.95574983,-0.4784374849,0.7708205275,-0.365938069,-0.6866165834,-0.4670027982,-0.345776938,-0.3192295404,0.2620540084,-0.5742507013,0.3253170233,-0.4577942167,-0.2704647041,0.3877697536,0.8351245868,0.1306331501,0.0443383477,-0.5905477856,-0.9738360154,-1.974000456,0.3605415148,-0.4342760076,0.0787806856,-0.0463360232,-0.4302316302,-0.7100461036,0.6166932886,-0.7957797258,0.7082553565,-0.249759121,-0.3124093638,-0.0148592693,0.7038874586,-0.5759156917,-0.5596843663,0.1857369382,-0.3624168471,-0.1762709427,0.4973711276,-0.9909543604,-0.5116526141,-0.4043449929,0.3481122919,0.8376708091,-0.6939521813,-0.6163690771,-0.9179652888,0.5135575464,0.8327823802,0.2419036392,0.4383416298,0.11919827,0.4070002166,-0.8381004062,-0.4346702337,-0.8932486067,0.5326258361,-0.3530698933,0.7451518661,0.4311828456,-0.5245594667,-0.5550227692,-0.9430609088,-0.7213359472,0.0121093736,-0.6264315273,-0.3276638793,0.8511303768,0.0033780485,-0.3861955535,0.452620332,-0.0299524967,0.0699898636,-0.2095862673,-0.778602369,-0.74022665,-0.0683635879,-0.7790083136,0.7191095272,-0.0897737971,0.6021050042,-0.3634993568,0.489085912,0.7338572934,0.6423926544,0.8877458017,-0.8878152756,0.0301204458,0.438381088,-0.9321404777,0.780763508,0.093744852,0.9406723117,-0.9059470713,-0.5202936211,0.2463996638,0.5549224819,-0.7211335732,0.9866081344,-0.8202050165,-0.6024114745,0.7429160878,-0.4592807139,-0.8870396402,-0.2569134531,-0.9688117755,0.4475996708,-0.8178489024,0.8347164053,0.6607509853,0.3977204457,-0.8067552424,-0.7286851807,-0.2988741428,0.4943549963,0.0164443498,-0.9445581525,-0.7758657431,0.2565839288,0.1647432244,0.5531932736,0.1149747968,0.5756254792,0.9407306937,0.7630535768,0.025399664,-0.998857394,-0.5734093242,-0.4151056949,-0.6924341142,-0.7640837735,0.9858048466,-0.9325506083,0.6887978249,0.7283917446,-0.5712467799,0.7681922094,0.3585040635,0.2948688765,0.0735969042,-0.3138665591,0.0550304948,-0.6562297034,0.7875902178,-0.1039811558,0.0177708364,0.4231723722,0.8521367679,-0.6596709659,-0.4794352333,-0.2707892352,0.9648241529,0.519578218,-0.5356027632,-0.4226226582,0.3125277258,-0.3199720338,-0.1079438659,0.8475695062,-0.8192631424,-0.282621762,-0.7890489584,-0.3482049572,-0.5649808357,-0.1034657655,-0.9859827832,0.3854778204,0.8306376509,0.2446554138,-0.2081310506,-0.4110114739,-0.1552120803,-0.6176088739,-1.3129832711,-0.3610756335,0.7728047188,-0.2798242652,0.704384211,0.4162191356,-0.7309957298,-0.8251283657,0.4916817279,0.2867067806,0.6671849672,-0.104771435,-0.4373556513,0.7887029007,0.8818753292,0.0226840909,0.3025140275,-0.9146454,0.8064128031,-0.6508194595,0.3915865256,-0.1299142109,-0.9254625956,0.7188012672,0.9889285397,0.603177014,-0.304093913,0.3559460389,0.604603074,-0.6513086809,-0.6676378196,0.5493923298,0.9699424522,-0.3061483613,0.9768785242,0.5415058586,0.9033609872,-0.8608343491,-0.06546702,-0.8307224845,-0.2680688916,0.6073849271,-0.234058394,0.9801512706,-0.8666420299,-0.5808199291,0.21694779,-0.6480075328,0.6277397274,0.91100481,0.1521186424,0.2665225049,-0.1705790743,0.0972152383,-0.2357698572,0.9980120353,0.5074158022,-0.1915800032,0.7387897539,-0.7218384222,0.4311815047,-0.2764144875,-0.2774121147,0.6510567756,-0.8865559468,0.2423026255,0.7533000932,-0.002183949,-0.4777028765,-0.8038023689,0.4794795445,-0.2015488706,0.5158037773,-0.029245589,0.8313315322,0.8022550001,0.9269643491,0.4616990102,0.5917638975,0.1398416104,-0.4781489402,0.7606803878,-0.2219085599,-0.0213498594,-0.0290604117,-0.7886769369,-0.2953084824,0.803027298,0.7284253313,-0.7780803488,0.1177234926,0.3004006879,0.4357045308,-0.6573154247,0.9529906736,0.743350943,0.1543859581,0.0175989916,0.6372629904,0.2182253226,-0.4644568927,0.1921424817,-0.1442042576,-0.1804544872,-0.6369237419,-0.5040706141,-0.1931390368,-0.6850785599,0.9736861126,0.4144385433,-0.6105731274,-0.5090715758,-0.7351309176,0.6426443475,-0.7743171778,-0.2154980932,0.6973329089,-0.2258335172,0.7310703744,0.5952081362,0.3031055806,0.9416439335,-0.7462451988,-0.7771604172,-0.5274010933,0.796642045,-0.0905132409,0.8518269489,0.6382094631,0.6106477763,0.3922482919,-0.2643737501,0.3713363393,0.335168921,-0.9409139007,-0.9169550486,-0.1204686622,-0.8571323912,0.0746013926,0.3894726306,-0.4542649526,0.9236464451,-0.4684304258,-0.0251546587,0.0836243272,-0.0242860629,-0.708222004,0.6139543841,0.4580339061,-0.1917770498,-0.9058084491,-0.3418817539,-0.8447073682,0.7433896299,-0.0139936396,-0.3265819028,0.1947916855,-0.2515099814,-0.6759719959,0.4037691887,-0.3333185952,-0.9260594292,-0.6553719424,-0.941113487,0.4049460825,0.640033613,-0.0751050976,-0.3970814749,-0.4446159178,0.5036285195,-0.9965511252,0.2487369891,-0.1111238062,0.404558542,-0.629314265,-0.2997380344,0.5099374342,0.3227663892,-0.329612823,-0.3605451461,-0.0536390048,0.2583309275,0.479210451,-0.5594799544,-0.5694253134,-0.7655323092,-0.979347198,0.5081437527,0.7670877711,-0.7173774373,0.4852125605,-0.1094318743,-0.2957252774,-0.6464947546,0.5553395907,0.913386206,0.6114722662,-0.5726435274,-0.5907605192,0.1624118159,-0.1444334416,0.0933370707,-0.076182142,0.6778382476,0.7218203744,0.2335479238,-0.5684044444,-0.1440319396,0.6576309859,0.7504715495,-0.8162797355,0.2967678736,-0.9163332369,-0.9590318161,0.9198062262,-0.4231149372,-0.1858706849,-0.2403303121,0.937341995,-0.8637413399,-0.2052459597,0.528603653,-0.567907136,0.5425748826,0.59899978,-0.2652912938,0.2172195026,0.0961817999,0.9682828024,-0.7225261689,-0.0917686914,0.9395563166,0.9202363162,0.1128798488,-0.221668103,-0.6368050194,0.4742002668,0.4878286447,0.5132405487,0.0036831325,-0.1023807599,-0.9014326649,0.8126376617,-0.1144285247,-0.9935017426,-0.1694970098,-0.5745467356,0.4350363921,0.9083175401,-0.3925364412,0.2101114901,0.6985751447,0.7611883261,-0.3256083372,-0.2588663795,-0.4589653018,-0.2944605231,-0.2830514278,-0.793579732,-0.15083937,0.3249525803,-0.7649305119,-0.9131558355,-0.1262420676,-0.4346461904,0.2929680994,-0.1804040891,0.6976822528,-0.9171513497,-0.2978905504,-0.6571295815,0.1725325971,-0.9385748232,-0.3088352233,0.8757099585,0.6726109062,0.9246840959,0.8735039949,0.4457892629,-0.1086607451,0.3286174179,-0.6951634382,-0.3151104521,-0.1716337063,-0.8324107174,0.9165725565,0.7855225273,0.3483013048,-0.2327771587,0.422170098,-0.8987896081,-0.7295846556,0.064245923,-0.8648195495,0.6676618978,0.1789858176,0.2168118166,0.4783035736,-0.0538902319,-0.035517268,-0.8298930382,0.7307701372,-0.4511872907,0.2789109751,0.8583647613,0.0311258884,-0.9485329945,0.6725922043,-0.317325201,-0.8778024258,-0.8655507305,0.1542766579,-0.4178243285,0.325962402,0.0812412591,-0.6732279998,-0.8242262393,-0.5140954551,-0.6685047426,-0.141252334,-0.3222336734,-0.784893884,-0.2786538966,-0.5534119467,0.9566484371,0.072327042,0.0516610966,-0.5883452838,-0.0622689704,-0.9623524484,0.3565073775,0.8053135883,0.0268675614,-0.0757405578,-0.3385430675,-0.8278636979,-0.2012593229,0.3940345908,0.6293009288,-0.5492561743,-0.1264865421,0.5536531496,-0.812019308,-0.1420180551,0.8795491265,0.7395190919,0.2096199648,0.0135243049,-0.0328042686,-0.2165477201,0.6126256271,0.6830754383,0.0511750579,-0.1227994611,0.7984934848,0.6786308397,-0.9773983074,0.3368928513,-0.9879755742,0.4526973202,-0.5465261096,0.0851638381,0.381472113,0.5995867462,-0.6368864513,0.3666249223,-0.8564963004,0.7833378065,-0.2115533817,-0.8581013853,0.4385786207,0.2082084722,-0.9402912094,-0.1647977012,0.2355061562,-0.0299826916,0.5541212075,0.1655154681,0.1512107233,0.9919624549,-0.4934720906,0.2440265847,-0.2437977044,-0.9931195009,-0.4234117948,-0.1062599157,0.9555939968,-0.5061747908,-0.5590975477,0.2891000256,-0.5668540841,0.8945099468,0.3898961446,0.8989085787,0.7787743512,0.7870537016,-0.376043226,-0.89352728,-0.1980639178,-0.5936160366,0.4462512534,-0.0226803603,0.5596563818,-0.2349736382,-0.46251103,-0.0002156273,0.4796132614,0.4201644687,-0.8202278244,0.3600599495,0.1995081594,-0.9675247736,0.6466907336,0.2081768167,-0.5572776645,0.3909521774,0.9682061447,-0.4402691787,-0.3076699427,-0.267546046,0.798503095,-0.0876224899,0.2375582856,0.2071748026,-0.5515622068,0.0183555703,0.683172333,-0.4879511272,-0.4880420467,0.3811028527,0.8292753349,0.9580457867,0.5381422998,0.9759777947,0.1566712048,-0.5778099289,0.0427617151,0.367996426,-0.4864683959,-0.1261820771,-0.6453079303,-0.2793190236,0.7360394681,0.9694283205,0.3271533741,0.3556233767,0.9009466852,-0.8338231505,-0.3757741099,0.6581242802,0.1258010915,0.2573051373,0.8959367274,-0.5232144022,-0.3575989701,-0.8828418134,0.0911526958,0.1571781255,-0.573162534,0.7731724441,-0.0779540161,-0.5873414571,-0.8493515863,0.4575053411,0.746000309,-0.0757235837,-0.5573930365,0.9667096649,0.5676567496,0.5631955238,-0.8302757895,-0.9185766016,-0.7131863388,-0.0077905338,0.9832816337,-0.6584615327,0.4629408022,-0.1704213388,-0.6751425579,0.3298938951,0.2183983661,-0.5708844863,-0.8270339157,-0.1197831905,0.5815116597,-0.5645121037,-0.7481395337,-0.3214263094,-0.8201120858,-0.6072501309,0.1733341196,-0.6689312401,0.1487081522,0.3719861447,-0.5687805653,-0.2738617745,-0.1003678213,0.8974388936,0.5855290721,-0.0250938585,0.953320487,-0.5047135715,0.7378657967,-0.0403749211,0.764139255,0.1078201457,-0.561317676,0.3497369799,-0.4382469332,0.6851918653,0.2931343563,-0.2942117647,-0.6791868478,0.5834111834,0.0717257615,0.8115285189,-0.0658221719,-0.7443777593,0.2494254186,-0.1720315155,0.9085412586,0.943451519,-0.6735296594,-0.4961069654,-0.6275756732,-0.7678980534,-0.1332232192,0.2794766998,0.8804778787,-0.6986083667,0.3281801783,-0.3124489734,-0.707650469,-0.3066067368,0.147555864,-0.841669255,-0.0166377499,-0.6806313435,-0.7437194193,0.0570320915,-0.8617719943,-0.3346685486,0.1102426559,-0.7011433062,0.9483009022,-0.8640276892,0.2869996812,-0.5284534075,-0.5868987969,-0.7341229287,-0.6165710293,-0.5443458921,-0.2873377449,0.7792871898,-0.7717094018,0.8056519763,0.819205737,-0.2012496016,0.2355708978,0.9345812025,0.4832251674,0.6209860081,-0.4167689662,0.1602666007,0.3374834367,-0.297128597,-0.3996267186,-0.5724013838,-0.9933346227,-0.4922914646,-0.8642321696,-0.6219608358,0.831451355,0.8530510894,-0.0647783363,-0.105973562,-0.8291057354,0.9186899682,0.093168331,0.3992657085,0.7325509263,-0.0474186322,0.6212052164,0.1579142878,0.2242253826,-0.0606646746,-0.4172706407,0.0305450431,-0.4939537965,-0.2592190031,-0.4680715734,-0.5573010371,0.4347692541,0.2636397988,0.5274014285,-0.2122664332,-0.5684809603,0.7075380478,-0.3816327377,0.1726139529,0.8135469376,-0.2017579374,-0.0300319649,0.0730754702,-0.1282146483,-0.1758084366,-0.1783443444,-0.0938051815,0.4216270109,-0.4080865541,0.6958129308,-0.0100731636,0.6597666367,-0.0455536162,0.2041704104,-0.7685840198,-0.531355112,0.322144995,0.5310565698,0.5777718165,0.6675850151,0.8394443995,-0.142018409,-0.8116694679,-0.0970658295,0.9516472341,0.7218636304,0.7967341696,-0.2476094642,0.6766255196,0.9025106716,-0.2038699258,0.655945752,-0.8126613019,0.3523869915,-0.5664243685,-0.940296025,0.2486431356,0.1461882938,0.0993846484,-0.5522769784,0.3045184757,-0.8960293844,0.1145756282,-0.5844459178,-0.9777887869,-0.6953472507,0.1811999666,-0.9973336102,-0.2468205612,-0.1167320393,0.9776900462,0.4715867302,-0.1183958831,0.3249048298,0.648106352,0.7512152054,0.5900248081,0.866238524,0.5950260628,-0.6816051422,0.945906857,0.1922595646,0.8171410202,-0.2750558094,-0.9396292117,0.74643871,0.8743876238,0.7647923645,-0.2173277084,0.2836679353,0.5331463592,0.1084667204,0.4963883487,0.4962121017,-0.120098847,0.8201956663,0.147162829,0.1030851785,0.1632258187,0.6340587136,-0.2239207911,-0.9362767386,0.9914608757,-0.1154686313,-0.5024504012,-0.7015781012,0.7335309048,0.3692312381,0.6214650436,0.5945800923,-0.0084126993,0.3651770118,-0.9138084161,0.9116547654,-0.7854126802,-0.6915524328,-0.1525902429,0.8468606468,0.866791535,0.4637470112,-0.8928502895,0.4331582391,-0.4623292278,0.4535341536,0.3381067398,0.9369191832,-0.8751702416,0.376651533,0.4845065413,-0.0815257483,-0.2569559549,0.4899021929,0.0706121,-0.4537837306,-0.0751078648,-0.3231208258,-0.3354805888,0.937683958,0.9712291832,-0.5140126349,-0.4629307895,-0.8507404039,-0.023666546,-0.3709755772,0.0739439373,-0.0421809373,-0.981595434,-0.5907583915,-0.0231283114,0.2776385668,-0.7104448377,0.3037587562,0.5691980347,0.001235081,-0.6209474759,-0.3577040354,-0.2275954523,-0.2364865711,0.9654013223,-0.5791935652,-0.0821104578,-0.3003164451,0.0975070519,0.6454432225,0.6383331895,0.0300088901,0.9179296204,0.7672376291,-0.2156882067,-0.9822716596,-0.2156958683,0.1557947691,-0.5120403748,0.4551852097,0.1127202223,-0.3331723234,0.0585332181,0.3939795182,0.9089908127,-0.1672975909,0.7240611118,-0.4537577766,0.2969112356,-0.1255654915,0.3929236131,-0.1832515496,0.0038989707,0.2056557882,-0.2094196591,0.8054461866,-0.770003612,-0.9239990478,0.6703705739,-0.9834835589,-0.9996789701,-0.5962246302,0.9804863967,0.8461251255,-0.0415862347,0.0897785061,0.8899171476,-0.040893909,-0.8993898713,0.9713576125,-0.8798420543,0.579082838,0.0320644734,0.0256593547,0.5953225633,0.3159360924,0.4209290639,0.0671595213,0.4363531028,-0.7377777179,0.4643632491,0.5328481566,-0.7801883255,-0.4758487613,-0.4213852237,0.0059670772,0.7246544798,-0.3996491769,-0.1329222004,0.30195252,0.5829642015,-0.0004969129,-0.0403960886,-0.7597381644,-0.4577061985,0.27664798,0.6973923865,0.6149047326,0.840595697,0.2632418861,0.1704512518,0.7671309171,0.9644713438,-0.2503581649,0.2804728289,-0.9605422533,0.5968917664,-0.0300630336,-0.885475559,0.7418850813,0.1423256759,0.0804100082,-0.7955874769,0.935526133,-0.5583979208,0.4013567568,0.563202167,-0.9828658634,-0.281057477,0.0531810786,0.667647654,-0.2223362733,-0.8713122323,0.8589408859,0.1647277159,0.8294925134,-0.6070739075,-0.0569689881,0.0246796597,-0.977735947,-0.0827783209,-0.5835715273,0.7357695576,-0.3939876536,0.0947709272,0.8495775647,-0.6405319137,0.4070568336,-0.766223251,0.7884723367,0.5249589343,-0.038163774,0.1614512766,-0.7789152848,-0.2337875176,-0.0442053626,0.153085889,-0.9173595199,0.3253207975,0.2014914644,-0.7857357072,0.4027697145,-0.4378920561,-0.9861096938,-0.3701636849,-0.885490549,-0.7162913442,0.2487721232,-0.7946682118,-0.7260905304,-0.5085302749,0.1767709453,-0.5996729754,-0.4178451,-0.1293576039,-0.6310856862,-0.4522790792,0.8771197565,-0.2965092299,0.4415384623,-0.0594360883,-0.5616197834,0.1672208435,0.0073710569,-0.5340102418,0.4607831713,-0.2465136434,0.2218724465,0.2760558652,0.7796292941,0.7533109473,0.1684823263,0.7182426344,-0.8222243246,-0.344353551,0.5826829789,0.6840805849,0.0379529074,-0.4472556459,-0.3209103433,-0.8285652487,-0.9654220395,0.7872777526,0.3380862685,-0.3508255424,0.1266312269,-0.8367930722,0.7976459322,0.0515673902,-0.9697415083,0.8093650784,0.3207253461,0.1588886641,-0.2859075622,-0.7999617642,-0.5558432699,-0.3851982224,-0.7094623771,0.3677461259,-0.4462102702,0.9095710207,-0.2411945455,-0.8653051469,0.6729557284,0.9702961001,-0.4999249851,-0.5567058206,0.3499664661,0.1590228506,-0.181887031,-0.0629149628,0.9585808203,0.8000196881,-0.2427847582,-0.6595266411,0.8387820504,-0.3899222691,0.0428759419,-0.7835706628,0.0440157357,-0.5155622906,0.6389456946,0.8698662759,-0.8035177953,-0.4592665058,-0.8220912706,0.0725327152,0.5408144993,-0.5407497102,0.4499994491,0.3389132447,-0.6789614474,0.7789635312,-0.8624009863,-0.9789167073,-0.5407105897,-0.5167931159,0.1921303134,0.0328040758,-0.7766602458,0.8094680187,-0.2911032371,-0.675498534,0.7506932871,-0.8957663648,-0.6307823404,0.0780511437,-0.1174869939,-0.1179490055,0.1178183591,-0.9517537929,0.5399280647,0.1105769023,-0.6108853306,-0.8746259254,-0.4895970446,0.2391949199,0.0943807756,0.7022330431,0.6564720835,-0.4619196021,-0.8873908824,0.8427372816,0.640623083,-0.3873501904,0.5833019714,-0.935152575,0.5190504791,-0.9575516315,-0.5437098131,0.1327311613,0.1756090162,-0.4348648412,-0.1622392328,-0.5452644614,-0.8073301043,0.7613853624,0.0921585621,0.1742824229,-0.214367817,0.785024569,0.7276230439,0.9109237688,-0.1025285633,0.0323609744,0.7027298611,-0.6883492845,-0.3236673025,0.4477832782,-0.0480546115,0.3311616233,0.7502993767,0.7943527075,0.6632178395,-0.4935533605,0.0020487328,-0.1463001838,-0.1641651611,-0.8470031585,0.0192717369,-0.043831466,-0.7940350075,-0.9383829061,0.8299232687,0.1610367296,-0.3016311126,-0.0119901618,-0.6368306953,-0.6680780601,0.1356235191,-0.1477390267,-0.1663746186,0.9890409856,0.8470398956,0.6670467481,-0.6373122583,-0.5436040988,0.2021163555,0.8667597821,-0.3225907859,-0.0807721914,0.8384713975,0.1543347488,-0.2259114804,-0.1941403654,-0.3079019066,-0.8285728855,-0.3074385244,-0.5723303657,-0.8954968929,-0.0556719176,-0.5753739526,-0.3518272349,-0.5870301104,-0.8616492804,-0.7554169417,0.0837804968,-0.0208186486,0.733076471,-0.3522413689,0.3292206115,0.6074938227,0.3132718727,-0.3292424067,-0.4649672228,0.0032407924,-0.1863381718,-0.9921606211,0.7585985155,0.94069499,-0.8883797512,-0.9037014126,0.1989372068,-0.3102513396,-0.3501113181,-0.1842673145,0.2413648386,-0.6820337032,0.4788004841,-0.2734202901,0.4234236496,0.9440291989,0.0658226362,0.3434337006,-0.525035672,0.6149722478,0.6161699413,0.7719476847,0.3789824434,0.1096170285,-0.2965955969,-0.1512069141,0.3247997818,0.4736558119,0.026202395,-0.5317064502,-0.2030797677,-0.9678712436,-0.0954137282,-0.7892577779,-0.7057754586,0.7563774666,0.7401716117,0.8303349329,-0.3445000989,-0.9442018115,0.0243232278,-0.797530626,0.6609189785
